weights_pso
-0.0718048862796479
-0.09742462460330181
0.05859545104685147
0.008582776420994302
-0.3651530087780109
-0.5434882488118656
0.359917285559744
0.24543908262528452
-0.21672965547861545
-0.32933707132333256
0.23747387536649178
-0.06671619740748058
0.13048031291896284
-0.31185302760539607
0.32209301590276
-0.028068240980983858
-0.2787616983225569
-0.16206988491104274
-0.066238274127927
0.011839410521480253
-0.14511979776475176
0.6077144843629683
-0.09686732948184387
-0.5076774809360509
-0.12134303552265624
-0.7601558819853997
-0.20938233991672828
-0.14120360704085735
-0.40939844137607107
-0.2739968448402222
-0.13650701904237908
0.624215859182549
0.25103466667066987
0.1842222976931986
0.14471139720524917
0.3232829033359089
0.1323457848527563
-0.4712142214367647
0.5539034095277545
-0.2805108233938954
-0.08181802060424964
0.3040455443148393
0.5095450574326398
0.10097647865562567
-0.11736746885759367
-0.1380140671923358
0.6490164130037166
0.14212074615004017
0.43142569405624676
-0.23018046338504006
-0.10497138905764304
-0.4040177480286961
0.340328469460414
0.7204992965000534
-0.5973834262908269
0.07868626794946468
0.4231677835692934
0.22624898419855902
0.5155462685772196
0.06609823191929384
-0.1621591314229538
-0.3616946934725017
0.35535364891833066
0.015549408423712996
-0.4243037861931781
0.21712606093687709
0.2858205439326178
0.4976346658558854
-0.563787848397604
-0.46208237955016873
-0.24631105394171834
0.1131412603181347
0.2175896995790492
0.4552938691552237
-0.16026920856560065
-0.11125117223469531
-0.30727318792684455
0.2592917053085794
-0.08732103380927123
-0.093713639618305
-0.6468216417035377
0.18778652633923043
-0.3586793301477313
0.08578643526783732
-0.7110181994295184
-0.6270561222837177
0.2991287537761268
-0.15763733144600509
-0.3166212532294411
-0.1198507854994511
0.145322753749409
-0.1895971768619448
-0.22758436814875405
-0.5769262779896617
0.13796584447762852
0.5166798000667383
0.10500626014151926
0.3651424822815791
-0.04237592882837391
0.19038697613195163
-0.8170484261238936
0.2888889887596033
-0.039271315817718554
-0.33188501075486243
-0.13437714677522086
-0.3187583100615732
0.028385511855322527
-0.6455835994450034
-0.11792242951308088
-0.11845294821443442
0.2699311688869556
0.007008080143319779
0.414815027947955
-0.05426850804472183
-0.22991769377304064
-0.2153408848714059
0.040603726973010665
0.30386791591348905
0.4051234102084609
-0.17082183969605438
0.21658285808523317
0.22781667753700316
0.15314901321056565
-0.08906923177627883
-0.18941574921296608
-0.5450495253496194
-0.5379851903597084
-0.2750935604993458
-0.06580430450447872
-0.5117871909304211
0.45514730739651754
0.10310330210908553
0.20797846020139701
-0.6882245413496129
-0.3731773381046269
0.31609832975058544
-0.03739507989492625
-0.3257569701780231
0.33161919825889813
-0.04874520615084238
0.09006238867454983
-0.11899874862530159
-0.23737797841247585
-0.2696143386656266
0.42711766102681886
0.05082785605130429
-0.23901010683000035
0.46317159245686396
0.22350436884158875
-0.20709426923422788
-0.1716890456834039
-0.05063721747733069
-0.09302643490643972
0.19547133964180297
-0.3384253580509375
-0.04784148054184789
0.20109843084643633
0.4434061002961114
-0.21259883851827624
-0.1641177993862336
0.3468952822148449
-0.2812362538786328
0.3944721705797067
-0.5121496875128668
-0.12716792952428457
-0.09132626351038405
0.6986676433115147
0.5746335433960015
-0.5536653446874985
0.24223046137736345
0.250208147053854
-0.14178590878375266
0.12946274011339062
0.49512409856548467
-0.21942350496051313
-0.25040775812734084
-0.37124339450312316
-0.06457429472813733
-0.027810397012944858
0.22059792780845708
-0.019589186890837575
-0.1305053037538211
0.4296728969111807
-0.016317910614931316
0.08496450608777463
-0.15572844607310454
0.1164385673197731
0.283724187386198
0.3219880794277205
0.3430533467791097
-0.21345359861748964
-0.5288518686875984
0.07766509442947937
-0.3768991871926621
-0.25791602913820577
-0.5904356740985081
0.04107584078566409
-0.12957212004264096
0.028494786311662055
-0.08418361008271877
-0.056981732536149285
0.10302920760114993
-0.0112914418765537
0.6721428752047071
0.15408692728818785
0.0012583333809353585
0.6810540627209769
-0.15000193655379254
0.12890359058579018
-0.0763971375548092
-0.08516521329692286
0.08843808690415295
-0.29855449104492854
-0.25799679211143994
0.4806685306266661
-0.7564751662737228
0.06532228794169967
0.502421845379611
0.11226751405897836
-0.2269922069704484
-0.5936489776181414
0.1470254370658435
-0.31077313340902263
0.13154495993288154
-0.2628982590435142
-0.7017565794061372
0.3610209427883999
0.5232130086298032
0.22885759000779232
0.29031290278714816
-0.4506377891500645
0.05839170984303774
-0.11644602243673081
0.16869112344871423
0.1860854175958403
0.14554907289345576
-0.2959914214056085
-0.26654389752183
0.9142188966991555
-0.3590186590309195
-0.14724112546913362
0.14406148862945903
-0.4332401094523795
-0.338713632271654
-0.1231160685081195
-0.3702487645304456
0.37200538763878566
0.03430002418874793
0.8652802075690414
-0.1055034274493508
0.5240728670981906
0.08416196311662547
-0.1508431674394294
0.5174011745329363
-0.07724066556155718
0.34642615562650264
0.11386871336655564
0.2142679854795625
-0.044465631655844974
0.09412318505111507
-0.29215326114841894
-0.5177831416402873
0.007255333180086905
0.028672314894113028
-0.09253273005317461
0.4613896667855381
-0.3139602871557463
0.4226087401732491
-0.22567968616094666
-0.23310405602653167
0.04719731874393854
0.4288678919614259
0.26476710105473544
0.533136252739731
-0.7267394503994391
0.20196503081545178
0.5398226103760208
0.1565304341247683
0.6076797151608999
-0.13393383717681615
-0.18444841651533664
-0.3322701316518075
-0.06708487163238681
0.13596300274035564
0.8445390586162178
-0.022701963137356337
-0.4054703725688865
-0.13026969455268797
-0.813835055047159
-0.414604578411835
0.06662891083242478
-0.3944255447837809
0.012825839929116319
0.2172633714118093
0.6720437507465629
-0.04953994950559394
-0.3556425655731897
-0.37845748902312765
-0.43098145852735875
0.5087993172844515
-0.010737676375483082
-0.6643186993364796
0.1387871514614184
0.4676597311799096
-0.2254501871413
-0.3725398667077569
-0.40619099164530525
0.06763137890343922
-0.13221654371453181
0.6261251406106901
-0.32983982807394735
0.29977612399860826
-0.10175844872366852
-0.1955528891391142
-0.0515864265270327
0.17218482084892797
0.24678852200485263
0.17835667524365592
-0.0840331832496625
0.3845986695156712
-0.26843388468891277
0.17715160635790972
-0.12401922162379092
0.588909509850259
-0.16708375675441098
0.2051915280961105
0.16468244732514792
0.2618754896100067
-0.634810631295787
-0.34597821461103223
-0.28521736949700827
0.0843009561316114
-0.10873810735459045
-0.2548748350759554
0.2166015773643367
-0.05087705924244039
-0.20622396733338422
-0.049318416666973314
-0.49606829649320455
-0.36026263853127133
-0.15586892983609188
0.5782027481591607
-0.3372477799208323
-0.33138706652299477
-0.08879837941153852
-0.16259114205125164
0.15321332020767717
-0.03371386790198921
0.33579589751637895
-0.15750595603487227
-0.046778740272796125
-0.33982835861775995
0.08515423159805408
0.5619554560812507
0.04736383180122347
0.3326300884309841
-0.28591051135687523
0.33826888532379823
-0.3286200435020116
0.10255681078798383
-0.5571698043352269
-0.3189119546435305
0.2549153346501732
0.30399696579567953
0.29526098370344256
0.2519372552460624
-0.03255883271303123
-0.3137960167100234
-0.1870579421607254
-0.5774329281174686
-0.554971129668794
0.08406050990765462
0.2086502865331589
0.7824126326948084
0.16999930765271107
-0.10192201434664129
0.1348791909088288
-0.269827783783703
-0.732131582545665
-0.15136913490330295
-0.10283571815294609
0.03044592418834279
-0.29667134865173794
0.3098174783343471
0.163112545384301
0.3631986031705128
-0.03515136931772776
0.29273292296183384
0.339960722397833
-0.31060593793404606
0.6044848846316403
-0.46709906551693103
0.07267685343958656
-0.16281789050268947
0.530421345487744
0.32060322151092135
-0.5067520885445181
-0.6830729410781213
0.32814410281644624
0.44688905366830634
-0.2765971082219297
0.08101910784335235
-0.5749032069088565
-0.21570071705556154
0.19364158519042382
0.07229027642228154
0.3570631901592572
0.6444992497276396
-0.04299807167478796
-0.3798019507103851
0.034936780235240536
-0.3665353364455988
0.08472338803757454
0.20414673145766768
0.2615116132390395
0.035862333503113374
-0.18210610162357566
-0.18873604934544663
0.41860629582812003
0.4643559686706453
0.22033567774628424
0.24639580824259044
0.2494986690897217
-0.07038841372538378
-0.6673430377298398
-0.11343904033878059
0.3452898500139063
-0.3334692422025166
0.010021193218753487
-0.5522644342718122
-0.1056530524045366
0.5565478378356209
0.20870728460336935
-0.5617794605711349
0.09331551729506143
-0.29530824468838707
0.07713146977938673
-0.02391233421999445
0.31055155680512986
-0.020060230460170532
0.48182006933940796
-0.006374698134616912
0.19605408118884865
0.37009117468485875
-0.2339462235923751
-0.349708816834044
0.03718843382836604
-0.3302476986245375
-0.010057823496450631
-0.17016331375661486
-0.4085011274856078
0.20114094301532057
-0.1692950257422167
-0.6302581663978447
-0.030313352646680444
0.3799246144298253
0.12338549416307801
-0.19742156295753324
0.025686105131550712
-0.6372808559037841
0.2024489601322316
0.47285177310695
-0.341714138061891
0.3629579475220548
0.3425454116049477
0.24366653003115404
0.3386896431154893
1.0541848445906694
0.030834176129450414
0.9470852399433536
0.013942460160149096
-0.3874614762643479
0.10645874604741706
-0.16379093212134174
0.3785428236323331
0.07238923172985275
-0.14817075013904454
-0.5597128968296297
-0.3266206321116121
-0.13323490433535803
-0.6283493282831377
0.09137495950146057
0.21536559507795583
-0.3068385583056044
-0.19966188183866554
0.5211183944605343
0.3204659446993219
-0.19383576343814332
0.6135153175954675
-0.9452201568471875
0.48510611611765925
0.6664606979323612
-0.8726051965309133
-0.3661857564035671
-0.5472679712149743
0.20915296464574762
0.6749236570801468
-0.2359138841209654
-0.15153484703651052
-0.22039681994001542
0.30993014466534374
0.3271990506625025
0.18165612437321052
-0.03816414172625229
0.42631830456200565
0.10125415742467055
0.07363159392915665
-0.23347627837443716
-0.21167631928230735
-0.053985647435601886
-0.24551891385175653
0.31612413923212324
0.07147031121247294
0.13606605444096595
-0.43059444049359324
0.17385919800341948
-0.049080799759612936
-0.2859259720968782
0.11543358580221556
0.37996212753101694
-0.01345044379410827
0.09158703033015428
0.2302066331886463
-0.13186644024721803
-0.37795206240189055
-0.007499731912036176
-0.8031047807378213
-0.08952071862142422
0.11457090852589924
-0.033515761631752294
-0.6153799855899457
-0.2955116088146949
-0.08109854666644079
0.5490529402266349
-0.12711487011166778
0.07284751812706118
0.5213622842839378
0.40652483433482356
-0.16920363628550855
0.2885617014542033
-0.26367435589366445
0.33859918346663603
0.005811020041051588
-0.5377712678713064
0.2725492296381407
-0.24751349314524912
0.05074992434778468
0.20988846105441664
-0.31743728424129597
0.37298295170470724
-0.34229960135350446
0.08358148075717789
-0.10246032755962968
0.3496875586930289
0.33178544272187627
-0.3678507283461036
0.29620646844928766
-0.2179329052771294
0.08287985262063363
-0.10888766068545334
-0.1998965188460226
0.01018725931374338
-0.14289129551499385
-0.2865771091529621
-0.393602774153614
-0.702774396745944
-0.03278182130036823
0.10022660201023299
0.3288979776513816
-0.3547508150981164
0.7805394882668193
-0.5688885946457971
0.11891516038204912
0.1056727460278848
0.6470920424240348
0.11672478240053961
0.7241322606980747
0.05796262962081749
0.04740357165427398
-0.13104425117550947
-0.3015394755013452
0.8885765845649214
0.11538547772282695
0.1673767998061546
0.17748235847406466
0.8773379974111726
-0.009342501715811982
0.19564871106899553
-0.16624250228642948
0.3135099045834841
-0.388337405375649
-0.011966976982401184
-0.3739225339817504
0.37749737388181975
-0.18981227024878888
0.07096203192558093
0.27913650615605035
-0.02336743033097252
-0.5742421875314193
-0.036564425484409635
-0.22168393599551894
-0.27395262314624813
-0.35349242142380255
-0.2704483560440919
0.08638380334380405
0.0936048176118461
-0.48126738526510615
0.2756473270199906
-0.19007616459191815
-0.1505116951052139
0.050004361280449015
-0.32397896490101863
-0.10998705434907674
-0.10685909545201201
-0.23574207846629877
-0.2755145878322108
0.25777472822072567
0.03569447458007704
-0.3768396566944955
0.6615463069574087
0.18487493001845343
-0.46041663418259693
0.034155611660369484
0.11877489432752071
-0.075022646576802
-0.1347211580710869
0.014741903931090088
0.31860502408007674
0.05737891079094519
-0.5812763458008615
0.6004031458072011
0.5023271404700219
0.46254281499960564
0.30753498240206867
-0.4737533488200024
0.31928668323341625
0.047655902465269705
-0.1641599545281133
0.5486970720837014
-0.2791596241893058
-0.46868063411346644
-0.3022862057686568
-0.21542556598498327
0.12628955612586443
0.5617304977590319
-0.005942868411936855
-0.34228898645987926
-0.1306547761629585
0.1558938286225416
0.08077983280019822
0.24326171391940934
0.042648657181949885
-0.7203280076494327
0.3244287575683096
-0.062451002517788706
0.15635222456801648
0.024853452374041903
0.17929362238278235
-0.06448307066944094
-0.0727649942424975
-0.5565960367828774
-0.6722202873949615
0.15371133268153273
-0.3032716130838322
-0.2793778213704788
0.19159129235063851
-0.23346723326113833
-0.4156626740645419
0.21974311408061753
-0.42124478835967405
0.572713738377646
0.09752711503719522
0.1970872342518448
0.42839210568124375
-0.21828935805713345
0.46683389576663853
-0.23230890057894002
0.01052649324456094
0.41620715484157605
0.20511091380470794
0.0911978796380838
0.3081173167091114
-0.19790792819064854
0.3391459375254133
0.09452016758593834
0.02675236587211093
0.3649480511161376
0.03309304480480126
-0.49689025879909116
0.22224263605769165
-0.11111119871088307
0.20916374885829264
-0.178815995860838
0.09474906673856665
-0.6499251265608353
-0.3720399412445088
0.1565624472325536
0.5766317436174487
0.10977067235817362
-0.018376028395227957
0.20081623583120556
-0.5244066712361731
-0.4986951690713099
0.3332277525261543
0.20131971001252996
0.09553627705629963
0.08593600247323659
-0.19173798982576884
-0.003657120286206482
-0.1679482926383424
-0.3197408737513564
-0.13872663870504054
0.11521367563239036
-0.16800450965579639
0.12141508319185976
-0.12363293988245111
-0.6642848881344885
-0.030350128743546888
-0.10547997525207593
-0.34052219084434043
0.11462794465506433
0.28970747265432706
-0.16430258199230716
-0.28243230690781507
0.16245929583570368
0.20510158978288529
0.7089422381763432
-0.2346528241047794
0.4119963869792671
-0.16905091689511498
-0.663570598446637
-0.1450406153036072
-0.08502688034987732
0.06187549616422456
-0.07381882468829053
0.5274541566979523
-0.47225069273431336
-0.05551281029690569
0.6170116846074446
0.08581220518771629
0.7015178183360186
-0.2129800533760435
-0.2525715095143319
-0.3422102142362953
0.22911463702777835
0.047156745794086456
0.10528908929561082
0.19846480691645535
-0.20396238476832246
0.17905161066068317
-0.2421500594324854
0.2181246324368129
-0.10853708291603227
0.15377682207071766
0.18230867555627298
-0.1896603727419705
0.19050811863847217
0.6012450300649265
0.207697621522541
0.0390832028145636
0.3311890441581305
0.6349719341768152
0.8344828257497235
0.2656798225165303
0.10970357855436949
-0.2483890503598103
-0.2993078897598309
-0.07887051935166169
-0.30798720179136063
0.03461127233620817
-0.5621108735082772
0.3346257770828978
0.3477638913803788
0.08013779333561342
-0.476443804907962
0.11845128354423753
-0.4580786433288408
-0.2556871001896545
0.0525164135184403
0.10506157048814953
-0.17629009362394407
-0.02897336490288626
0.055479541977518795
0.21553162876194565
0.4121511678857314
0.29010837728437594
0.5899458220024721
0.30385718960616814
0.40006640959329587
-0.06503493050777841
0.0033879614121662843
-0.3504302708551798
-0.13432076006918847
-0.008659023263304559
0.18135058181184005
-0.3288058003099168
0.6478523742700074
0.14853261211048704
0.4285453642748353
0.6568673067696615
0.23779865948761533
-0.6424850932183179
0.21471955915706448
-0.4168377792705695
-0.0739989906609651
-0.1288793904078805
0.8387998664876136
0.4317424887404623
0.36085855283046503
0.4049335469984631
0.15091192826114172
0.14520265500696927
0.4739788258830715
0.4152192999552784
0.3078966494029682
0.41616503610345773
-0.4300976821981234
-0.23593046727479922
0.25812125837906463
0.12728288374571675
0.008922729806081603
0.30204209087389683
-0.18919946326740023
0.5804922309071655
0.6882393731341385
-0.18054082887599882
-0.5843105768928551
0.11935602887984668
0.07745315018036662
-0.13229226279193726
0.5754202622281779
-0.01524825501022475
0.13359913355601646
0.18353792749824063
0.04138503269107261
0.06848217380225054
0.32317135530371205
0.23397495724004091
-0.32711081882340437
-0.04509618001154789
0.047239816933191646
-0.5696533499891329
0.269278956519882
-0.6863262270572869
-0.4573011107667253
0.049324685621067205
0.10030022743714469
0.058440157145576384
-0.6557290416365407
0.2968160883358066
-0.47639375306702203
0.6493884402147547
0.027062771475833972
-0.34291205250813833
0.039379455678915584
-0.427216792982665
0.5091660797206113
0.48992735246051033
0.536661981951554
-0.6147635772344224
-0.015073273108887226
-0.3035356365206589
0.1482680358340387
-0.0760009192642888
-0.4940889749127637
0.10670873657947448
0.2127475875760407
0.10872533675465805
0.32167163080733
0.6370666059137962
-0.2469777761312102
0.3548951110333946
-0.40151130722278844
0.04931148918594086
-0.03417012726569043
-0.22888300486690974
0.08786263597227907
-0.4945293082618669
-0.5273951556137656
0.09222631954901411
-0.25479019102980155
-0.1808262672109913
0.4252526451059411
0.5164945271554726
0.5805205820747908
-0.3481850191303791
0.4308880613013107
-0.13416186069382827
0.3414210707014819
0.47777040885616884
-0.010774212263549939
0.0017538086548928096
0.6000531498891952
0.403746403711215
-0.4064085901483164
0.19621000694871005
0.38019630056927134
-0.28723434334748654
-0.235529306456924
-0.16901854988746987
-0.07790657967992579
0.07153021160187448
0.28248550916214044
-0.5232905906017501
0.2377171523321799
0.5170876988975275
-0.14608288942988262
0.24242509234116708
-0.07235358485828686
0.38909699804646247
0.37572897046198056
0.35253885127278967
-0.8017535581656825
-0.24528786839703723
0.07059137032183269
-0.7199555693888944
-0.7759213633300845
0.25268375565914525
0.6531029511240252
0.3337481566429659
-0.15954698563938047
0.3448410413180519
-0.35428252022753426
0.0780045529382642
-0.7403958475873467
0.5602675506117014
-0.5456060720750566
0.22619864431242465
-0.7081247642956401
-0.4628559921127344
0.13058320348236413
0.3771863875577008
-0.319849316613141
0.2491824610376241
0.34580074410805506
-0.24263842092795024
0.26138644113548476
0.4193960033170956
0.038466823025901035
-0.46135878125670843
0.19628629398534972
0.4822045703258675
0.324312389074059
0.28612770174054736
-0.2674858687144595
0.17297634647484725
-0.1427002696456168
0.02437267416118576
-0.17009343803664523
-0.6578325799997209
0.21634317723728447
0.029521939571569764
0.24535542427267062
-0.03215787841482389
-0.16012069951203517
0.33428004541147016
-0.35016048589994714
0.4478619144176211
0.6284514034831582
-0.27791406550276104
0.6749413219195236
-0.04541757758361184
-0.03351068836411861
0.3777713010426285
0.16723220180371628
0.051389806588588216
-0.20051209581481394
0.17464575161731444
-0.05470210392107653
0.3104758544154738
0.12109862622308813
-0.4913350414908679
-0.041621505998958114
-0.09849969529435407
-0.5556495959830118
-0.2089615561504964
0.4022211708547586
0.22414439359000243
-0.453796756462857
-0.28214256838805263
0.03820459897031926
0.40589699287082737
0.10143704187654783
-0.25679787147767374
-0.3005536193365558
-0.7099371338508156
0.16467796297585435
0.05634052426560308
-0.7252105367296766
0.7848498227009381
0.35322567285850776
0.13596727671099623
0.05758960484072436
-0.28859171475193446
-0.6855677737360655
-0.05556675577598253
-0.09784471670906718
0.004304511850088317
-0.19721298406343357
0.4951350576011255
0.09524963688673636
-0.6915889747567221
-0.2167681458754374
-0.6829242990024809
-0.5660930855111501
-0.2156850946173448
-0.14181036934970867
0.1006412508238281
0.0426860273689204
0.04359592790304489
0.10151951395441143
-0.1428768349739218
-0.13409724427390846
0.09141815680989956
1.0779882001565724
0.15452859022789617
0.5776995644640139
0.4709089805848358
0.27665474412324015
-0.06301731586869166
0.5739324730260336
0.39951027663666705
-0.317393529795931
-0.2735412193957633
-0.048975485671309174
-0.07816648210263231
0.46745921626856085
0.017214256218620674
-0.2844341302961917
-0.563322487456192
0.6572064317503785
-0.032138139954408076
-0.5824291754515171
-0.3966126238589242
0.4098605669123982
0.17434185265911292
-0.2178126963108588
-0.21628841923398243
-0.37902122204591365
0.2850047479046764
0.49983182821530964
0.396734198851154
0.273853398519492
0.024956235951068443
0.47944316427751005
0.20229342018464058
0.2076527423179379
-0.3110293875688437
-0.0720350315961403
-0.01961037576574292
-0.08203677654700173
0.2481301994154823
-0.3612311770909976
-0.16813154395336138
-0.408949299551924
0.0591248647787594
0.251876730261589
-0.18471763723654347
0.42687178566059475
0.38397619849075354
0.18280771830174025
0.48862007107047967
-0.11346460356127262
0.1453177974854045
0.181861644884416
-0.07186972634204979
-0.4454056646675198
0.025415842868793215
-0.15904547653544504
-0.2430501285821724
0.4519360655469256
0.7739985661359796
0.0649428203043565
-0.8881950076010825
-0.0983958527463801
-0.08192152209655995
0.574319611855169
0.41247687332703126
0.5508214663226372
-0.22377802476214337
-0.2707407444949401
0.2334585078800176
-0.5656968614558717
0.3542496865993777
0.17577914405293787
0.22621916242233184
-0.11811502771126292
0.17025981326630868
-0.5031686242723586
-0.24480395416044856
0.6473945409159466
0.5382358581198879
-0.04457057066077347
-0.5372350316180207
-0.2340597742056634
0.43553719554258535
-0.0646273778749582
0.4132448732492105
0.014549451391020266
-0.22379489883535755
-0.3655994151202679
0.29403747094631766
-0.17255128918715673
-0.03822213997530294
-0.7746151532835944
0.5179025351936793
-0.2695337602915307
-0.16926210522077412
0.4389932974502833
-0.20081360013684402
-0.03043174867986825
-0.13324793578225028
-0.18107013283531734
0.21492054068342392
0.41964874301186106
0.05365783788091594
-0.05725321993499297
0.213600242658707
0.33818616986316913
-0.16141168673651493
0.4532933914408818
-0.2998019819298575
0.5898088726566411
-0.46854268970319846
-0.04504356474038998
0.0719085926660654
0.301437085233611
-0.6373973574410255
-0.15206472814052602
0.09488582185727233
0.051181612593183545
-0.06687544019414265
0.4677060479484105
-0.22901339106561547
-0.12045690933158823
0.013120599246233175
-0.3758935262633856
-0.03128580932166936
0.3859311750638982
-0.4908736719955912
-0.08690783579632892
0.03312099250418822
0.3431452069174135
-0.2764497283623029
0.23925197068558232
0.0815613332675691
-0.01880676895782272
-0.3915577671672443
0.1924015312923336
0.3420270151490334
0.056118988115541474
-0.4328545900219462
0.2779582583961668
0.37013375150099587
0.2145562736930241
0.4616552070625109
0.1324870739445636
0.05136229173819671
0.14719429517034696
0.6118347779569943
-0.2663737826793837
0.07058775657749958
-0.11310545057105537
0.503216835984585
-0.545211211438392
0.4486044253157235
0.33472108777071297
-0.062325549896884366
-0.2886990087038188
0.39142548455821585
-0.25714917654395786
0.001605830766274983
-0.23706139581250846
-0.42989571227969137
-0.35209420523743934
-0.05221947888634411
-0.6451255903608497
0.1858774456168053
0.5434069757794818
-0.2952693607781792
0.27152308812547754
0.11896540228663124
0.10736450760479524
-0.6888449071151009
0.14984057152191618
0.04046987070163313
-0.17570232689817453
0.5977005131660525
-0.19040622209671132
0.2551057702625311
0.5706546528857078
-0.023511639382772807
0.38431321191246665
0.26746929255391255
0.3934924933064636
0.10649044064836037
0.10489417861897293
0.15630893298584753
0.12706277335699387
0.2013485246071877
0.5845767343457625
-0.1939206436876881
-0.693470449817566
-0.22737793066137824
0.41495730813718607
0.7879551845648791
-0.09497037008137482
-0.36863454754182307
0.0713662953227502
-0.16542243617178753
-0.24592121894163985
-0.05161835806223479
0.16175904449075557
-0.1717899048515294
-0.016644235079035275
-0.07895417369903111
0.6464633268281431
-0.05370301243394082
0.05873807997948793
-0.21641750249930108
0.2563596850067788
-0.35320378506628974
-0.25670671181420995
0.4512978351078131
-0.04869610029931137
-0.5761371040620098
0.08736038405012365
0.14689075497093598
-0.2700394620122702
0.1688017350713081
0.5240989203693237
0.06842350241715196
-0.474922993839979
-0.12217726386219119
0.043058730495961386
0.02209317133072685
0.017483023612378135
0.273564374286737
-0.08812156509590559
-0.298869900700036
-0.46453864257837185
-0.4072162951721758
0.13271553220413343
0.2048649028341375
0.26821798788009177
-0.28983544874682715
0.19091399049710783
0.41241475332322175
0.2394117555163177
0.32880452352735506
0.5152119650750063
0.05149368584511222
0.34231273627409087
0.43157859183201636
0.06128221899410018
0.5653541772670947
-0.28468765968946774
-0.17700311636845975
-0.032129537792657266
-0.11274724456450205
-0.2419744274593347
0.09727008638211843
0.35336405297642887
-0.14798600201618164
-0.05541862468179554
0.3447041093425295
-0.13369209118382916
0.4380149621485291
0.17500801820382442
0.23396034765258894
-0.09918461695853424
-0.2106147920952944
0.09926396399820159
0.24844510749362927
-0.17884486387156232
0.1036181485377631
-0.014247313975636828
-0.47880790737598894
-0.7359229548400712
-0.1872110879126158
0.1039917596223946
-0.1583402715509975
0.1597211935543435
-0.6079579721454914
-0.30057068902769085
-0.12414683987189279
0.3542742047381965
-0.21568497639729772
-0.3048664502977344
-0.24945214040138045
0.45718071589853676
-0.5080710653733849
0.09101865402227698
-0.3133195818546129
-0.09514101651407515
-0.5870497399445125
-0.3942922058272169
0.16085424916267743
-0.6347146145172021
0.5282767617335828
-0.10420843362266817
-0.07664469204129737
-0.028068341317872548
0.5806619245094903
0.33280199791806947
-0.03015777490994119
-0.18556077190324752
0.1828224388491499
0.3582087139698148
0.22508597615878762
-0.02826898181900085
-0.04225801479460623
-0.1457297881597266
-0.35737225088751856
0.0902460280065413
-0.34626074995944023
0.21070254259903742
-0.013413457901718693
-0.3370888987570973
-0.5908039204217425
-0.27760985741580463
0.622363705103298
0.36287369393174446
-0.055451996876690036
0.09657291792588431
0.12291610925763993
-0.663192137659587
-0.015570824460726176
0.2772625452614619
-0.18801019772447436
0.32271975445856393
-0.027388549795402783
-0.4373106081156943
0.12178445483849962
0.3167627395161725
-0.383003615552391
-0.012925853938215763
0.10708398042412298
-0.34125816082800275
-0.04784340742284114
-0.08439730889068209
0.09084712665005591
-0.15250924317352413
0.19311936296798654
0.6567470008275366
-0.4114116245628957
-0.578303549995263
-0.31428620090100556
0.3260109924434965
0.04079155618474201
0.1786921481358041
-0.35735879746191584
-0.09343814063653043
-0.44616886205631234
-0.2795698755946187
-0.39623961339936853
-0.4139941289609084
0.08741216538489653
0.22620242765446708
-0.2500158462945433
-0.6882884485013508
-0.22278336125829779
0.1254996112820272
0.28367739377595114
-0.4325872211181664
-0.31185159071365814
0.0923676901697387
-0.3778144990278567
0.2047021643194589
0.07987348911464706
0.4619018231696282
0.476143822499208
-0.2122226408790583
0.1532980469840078
-0.49355338942769517
0.6710087385644533
-0.4147257311144224
0.16487063833696894
0.42016229729529064
-0.27010754000446546
0.2226658340249449
0.6151550140837698
0.05042342137816029
-0.539688580448504
0.15029664909682702
0.3083169488836776
-0.06474231370026172
0.12670660152732274
-0.45294296878757523
0.21451371508631703
0.025324346178923072
-0.4617498899731959
0.09732553872961774
0.40867068326038225
0.3495236761597271
-0.2535561386892558
0.6000413430973102
0.0343459174013971
0.16642126824833378
-0.13381742673232264
-0.37920461357796265
-0.1357729707463462
0.19084947289174817
-0.41085653715925424
0.0017434002043664814
-0.5056075391617274
0.20676064136222416
0.1537825588506925
0.4791906399635193
0.31925122520392935
-0.4099546461254355
0.20261793239065204
0.5387432723071395
-0.4024834466622852
-0.628808827682012
0.1972638013074823
-0.3388484911547827
-0.14133715924999302
0.5254805439431744
0.27544095875243374
-0.3203650880857311
-0.3550094736831328
-0.013141029392847664
0.053872778508070894
0.23299755579743153
-0.35854589293613454
-0.06066833153297233
-0.3534659251190769
-0.17869649426670678
0.6307196775581272
0.3707078773491092
-0.0300476911873815
0.46240355682240875
0.11883423807849967
0.22254609705336867
0.2586037078091327
-0.2366484831481358
0.14205154678850715
0.2953025490451872
-0.118752164962494
0.07569067609559002
0.8132857790091192
0.27815363823799355
-0.21843288826767596
0.0952497916665342
0.23527388496400148
0.08447526901032311
-0.724089354623618
-0.26298243204667243
-0.0509578794800042
0.2050857794784422
0.17581412724855602
-0.6794326522477995
0.33802332747483177
1.0124036145354902
-0.47548534259209124
-0.4481824454426137
0.3460420748055201
0.13722622658979036
-0.006807082802108759
-0.010074889802950812
0.2029326841072283
0.06525307118027521
-0.01113074567480332
-0.10684655717239333
-0.47559735275945497
0.2280931967205852
0.3047798028314293
0.27967378122343306
-0.004089073650764818
0.23385743807015835
0.264603485679214
0.25699618997619533
-0.26811459326697634
0.13957848580960758
0.1041597283123952
-0.3004890521465165
-0.07399445796060806
-0.3517285053782146
-0.41887231143284576
0.13948093359821914
0.3780341790843954
0.3934872600664967
0.4513423681234115
-0.004451617490292529
0.400530563756867
-0.4248891100082909
-0.3195372052395987
0.2113091846538334
-0.1648570848118616
-0.15481925075798117
0.4202521863776118
0.2870910626039188
0.05328609642563565
0.25617608353916044
0.1999286763675325
-0.2389724802349176
-0.2334287000422106
-0.32741052666530845
-0.14534993277087777
-0.11403526395175277
-0.2028223624963108
-0.21328795899687716
-0.3161743665792005
-0.3543707210087385
0.7856948712421903
0.26996492262053734
0.14441528086388242
0.10930649900913922
-0.25471401581038944
0.06694149997252982
0.3382759170645594
-0.050880234405070585
0.024843894567716643
0.3653077933944041
0.21249072313669715
0.42264787922087205
-0.29974954235674817
-0.5940863506019104
-0.07107554416407667
-0.34892834365920633
0.19133322203680247
-0.6455047533608744
0.07332285076606197
-0.39631055811891264
0.13247928580466564
-0.2184460357534205
0.005989787671401882
-0.4175462991962219
-0.33821534002180353
-0.04096701083177754
0.5424786836445006
0.19255757087613798
0.06794131138620829
-0.06993912270383594
-0.2851682860171458
0.6235379548379173
-0.4191655020867425
0.4150092781049512
-0.3380642209328306
0.543034147185158
-0.080509920788329
-0.3518925755947966
0.03251283598456019
-0.6687907833680031
0.1635260754370806
0.15076271657997656
0.07570100306969872
-0.5587834122283403
-0.14969353999221446
-0.27991189389465587
0.44807230219303223
-0.3696554599108286
-0.458166108425557
0.2880603513437814
-0.07196576345596738
0.342549905963603
0.5186680926366297
-0.4536815920157143
0.06389495489339628
0.1276352814657448
0.47215121538047605
0.4703485181102586
0.0023344275207629
0.16055816849156068
0.2517273109844967
0.49263894880274656
0.3125151922791202
0.0228371933714716
0.3714536423834163
-0.0013944436014927122
-0.061443561821880696
0.00591451612273074
0.05226850276998408
0.41789789182801196
0.7733239995104271
-0.32618941800861134
-0.1687310589103053
0.04312118982851494
0.04540878029833643
-0.1530242045184967
-0.05508776233269256
0.6579327349706732
0.21654867398053398
-0.2501089635535641
0.4446583251390322
-0.09210944046610639
-0.16253546176471015
-0.2899074653818866
-0.0670346422867718
0.36560013760496185
-0.3295731702080944
-0.14847690996160565
0.7649703885364023
0.5780932878795331
0.06798248544418327
-0.17129229716298663
0.34383627974792075
0.11164557726820315
0.3287147499363046
-0.2700587734867693
0.14435585188029648
0.0034105937865809384
-0.24337030120976133
0.1117644500487898
0.08464380028487448
0.5194078554634531
-0.13097785227150352
0.4425412190655481
0.21906541069586452
0.0395667349182626
0.051079952580453454
0.32276352284291576
0.021854325035374225
-0.20486838444870276
0.706511743545301
0.11028551551415218
-0.06154680021507707
0.1262349058643743
-0.10792807519390121
0.2239032347484933
-0.09380341004400787
-0.03886320730538982
-0.3234387920245856
0.7784000054683532
-0.15870862643507389
-0.6821422871202512
-0.5189244370895357
-0.541600110773718
0.03319740416581679
0.042557331631786585
0.13613148294537922
0.1114993061169456
0.32668881826844565
0.05887397870450989
-0.37110942076325687
0.139853655888516
-0.5050647255534568
0.30209039440641244
0.08928778353272834
0.09196977701958085
0.31331738088203653
0.4064257482568587
-0.5153272054934529
0.13046827759906532
-0.5937885963378376
-0.1731613715980969
-0.21107952888974807
0.241085469904768
-0.5349682968841226
-0.16840526189397478
0.5159770775007586
-0.1774220578733175
0.21665529485046991
0.10975168617385858
-0.5312701993307499
-0.11480776385605682
-0.3356465856674265
0.22095479949911556
-0.06949908105983948
0.5024317200430032
0.22417066006833491
-0.1445190969080231
0.026326462254258495
0.2575863053941555
-0.03058652753774396
0.5935998780927333
0.054991915062301736
-0.34835638206458946
-0.23598734198936322
0.22696161572084445
-0.530378118144677
0.21891446478915083
-0.23084521222627608
0.20473680203064773
0.8980029117277526
-0.6752723775474071
0.5282106302435422
-0.26905305536861734
0.3707461980777259
0.1780017184587906
-0.27507874263588733
0.10523988046286722
-0.5353083974378692
0.590788967054665
-0.03653275877975074
-0.30687744822472585
0.380571083242403
-0.49478866593820653
-0.02533943967755433
0.5184171848980065
0.6396298972869834
-0.42482919583329937
-0.35695599330653227
-0.3560045406494321
0.05614031018498429
-0.14596127715019852
0.48711467058330954
0.5043450870113796
0.12678095675034254
-0.10382715563315463
-0.0122592054744235
-0.010067137681378008
0.5615962434350462
-0.25368452258696683
0.012953426260132806
-0.25941011508299555
-0.38143462884896095
0.0511154643583955
0.3191397786324196
0.1513382954047827
0.2670360801205702
0.7942624424726428
0.6571548137375028
0.22442648174837593
-0.24879067870464738
-0.3484848623431587
-0.15969217899699026
-0.04595295225584289
-0.1228086553561734
0.05087698796960585
0.44476457945136977
0.1502890019545627
-0.003892642171039417
-0.07395667506999458
-0.2846969770392841
-0.563052146029485
-0.2883553507461453
0.15037355862088933
-0.3808190404111923
-0.16112923540160898
-0.09274717966700323
-0.03635363509549986
0.24062771378814973
-0.27792416812859383
0.1419535206143477
0.09279701339072272
0.33231411555466095
-0.03980684883333937
-0.0974456071839649
-0.32844094643456806
-0.8858032417092879
0.5769802267772033
-0.149582639962176
0.6777305193493101
0.22492885295488074
0.13639239407772735
-0.013643162970845227
0.6529299220184144
-0.5724091346812321
0.01199370246816289
-0.07762916686030626
0.1317122846210196
-0.07054595287043433
0.13249956379446548
0.12352057766681465
-0.25121496393849524
-0.30290718758542257
0.05352318618919556
0.14286225407343542
-0.09596244634574964
0.1321276882784952
0.6238438924362196
-0.8346740091954838
0.34328111055475646
0.07214192327905264
-0.023814176367435498
-0.7149175575327792
-0.13459770388954928
0.3069108619944535
-0.42425825761713465
-0.08267522128689266
-0.36241817977509805
0.5565592320933863
-0.30813502601125076
0.2175714138509454
-0.5633305342914954
-0.04310739689362643
-0.2760522281843357
-0.1272971098270147
0.15267017874837407
-0.24868022005457144
-0.4426994767528503
0.12217880266694701
-0.1957796669790706
0.024719163975754077
0.17787318550184256
0.07134172606663015
-0.5285470963124913
-0.07996527947431674
0.019201584208447586
-0.41269172072582855
-0.3116251093660745
-0.38212363384150616
0.33699204484897327
0.5780430362206694
0.46882323421216404
0.41110557418086435
-0.22115523504010814
0.4710523268361687
0.32485250225264267
-0.018352996382956878
-0.17652855565957176
0.2885132714357461
0.1069655240945226
-0.3731532547963348
-0.05230942882135937
-0.04551246109446455
0.3978746415718714
0.06826994977063544
0.31964347077771715
0.4306182441607465
0.02684476537416855
-0.30224525084969106
-0.5997509388396753
-0.31616340338938137
-0.17180809696290755
-0.6879656784455476
0.046580029736859915
0.12472517632499805
0.4129563624466266
0.3300220705055928
-0.32805414117767956
0.13100579322239753
-0.1255875820219426
0.07263203372957461
-0.6595402764953647
-0.06738971994484134
0.06071890404451344
-0.01265959155489557
-0.1946252506506838
-0.030099263033848085
-0.10273463041966002
-0.2938615800398073
-0.22266060629350556
-0.6730191736573746
0.19872316510930832
0.014667561169924946
0.033319857765669314
0.29682981937452735
-0.20430615713307113
-0.47091850091922327
0.6427682307550582
0.3126493932198949
0.4421268706960767
0.3148150939562533
0.16269108796621565
-0.14428961036328325
0.17439042812381653
0.3095674566330149
-0.21493229354058244
-0.15759600825638054
0.314479358046019
0.21028260435782126
-0.085234048971886
-0.23542980247232026
-0.14062854968669156
0.0019961106369583404
-0.4350857292790471
-0.005919023996617962
0.4912080196271647
-0.17970229837571353
-0.21547147720177215
0.04868665161964896
0.02999324067943383
0.08425359728951232
-0.107802029182407
0.43802503706262924
0.1422241550158306
-0.48596286575891084
-0.21718227628902295
-0.42788244403751996
-0.3784811472225771
-0.24508351827274025
-0.29794529553734134
0.3692478221532703
-0.17234429405364893
0.033716681698384626
-0.4728164490780561
0.4138684665998057
0.44788743435256656
-0.11208184863978435
0.18317098185811423
-0.056652090841268876
-0.1765454692138608
-0.24646648793914813
0.21835590276949807
0.04747379583892528
0.4962571901499683
-0.3834769680038236
0.01711905157862908
0.20963551959299176
0.38351619103476087
-0.627448164347304
-0.11009530624525754
-0.02334357690176998
0.20718139189019422
0.24864676305029215
0.6341558537440493
0.4296434874521187
0.3632167625383552
-0.0015880475130364226
-0.5089699718826836
0.5764048281250429
0.15198081421589602
-0.7815130778660049
0.12811261479777575
0.46884375368334186
-0.008039025557700525
-0.16224307026216328
0.006085558695982194
-0.4055682184255609
0.48004225408095574
-0.16347076779833344
-0.20209784016249177
0.16407294649735663
-0.11264222014512643
-0.27767743457732114
-0.25838808032759153
0.3743876233695714
0.08372912345496611
0.0633982412585208
0.24747922244589363
-0.28148397761728056
0.2705499585177017
0.15848697813341597
0.11820921942492027
-0.10566096298576198
-0.08148487266132715
0.15446808607635895
0.6007441153333842
0.7153226339409616
0.18772649631362925
0.2658703839689601
-0.395796244177358
0.24748804965448293
-0.05539209478098236
-0.21898474803808665
-0.42310667845948013
0.2492440937873305
0.15308486554372852
-0.12143471407091576
0.7338420438276657
0.006874882235620118
0.4263873562764515
-0.08742544962190006
-0.23770107885964042
0.05523042919350292
-0.5995371114837725
0.09536277282849538
0.1710206781039362
0.11314199559889375
0.46922101048690684
0.29536143834335477
-0.4888031217770594
0.5199414088713988
-0.38956661028860945
-0.6784362150381749
-0.07161840475498678
-0.07826421798584142
-0.3778718816188882
-0.0816027781688834
0.03015118869577943
0.6195457544808004
0.6058856852902332
-0.31088249333519824
-0.004441888410174403
-0.13673416903408886
0.4232044384053499
0.4884002285112959
0.09819062942784919
-0.4204125239105211
6.762928224627549e-05
-0.3891989248771687
0.08013127327088422
-0.7155029333131425
-0.08910215905604316
-0.3401571154024149
0.2837164674464782
-0.07241770881021674
-0.03627479866039797
0.5047010453422196
0.04269923591330432
-0.17420043166033694
-0.1331934857329774
-0.026493396359098937
-0.4816046134676321
-0.3217728845137813
-0.27974790502607694
-0.4501793486179322
0.35727835036610256
0.2658749354460758
-0.08239124053294011
-0.28361440752308087
-0.3381006900146017
0.26934990145327453
0.18126559068530057
-0.27886686006761835
0.7087181407532257
-0.16326046998471427
-0.09820873074926918
0.05648614878907643
0.2958857898729104
0.580400161004873
-0.6428470485855438
-0.58073350372783
0.07272161185956345
0.5820767470268943
-0.4759227173981867
-0.6023234490392799
-0.0726033346896087
0.1794640067051567
-0.18385349057280923
0.37897762390039264
0.27690060474508515
0.9202121729257973
-0.22076110704795032
-0.0979448770478209
-0.4736369063407452
-0.3506583656598078
0.39905218120112945
0.5785610395486548
-0.31341793120766204
0.4786303532892084
-0.1737618937158094
0.013538243405819484
-0.509625846183056
0.6425414433367435
-0.08705786689322845
-0.3307876118084773
-0.39783944476995153
0.329408190539252
0.36174228117097523
-0.373639349507676
-0.6897449930826296
-0.02953897310630463
0.08491967590766498
-0.5135827671745045
-0.14396109009921768
-0.6741901981120164
-0.5933449940576819
0.13092690556561629
0.48836486112660527
0.013743387612505192
-0.15482455523853236
0.04680880639491427
-0.13492312589339142
-0.03408813594747886
0.05169713156858886
-0.4301488099481298
-0.07499841243955596
-0.08620280564054443
-0.41655580812031273
0.06784873165318496
-0.45343721917099433
-0.40359714361855464
0.10642245338439969
0.08826701624637172
-0.053410568319797534
0.4990472461313603
0.1308752327349833
0.35620746701544165
0.5173223024463076
-0.1949424626085257
-0.09019152891393481
-0.09238671869551608
-0.5358175900875045
-0.11314128499557932
0.048537296926818393
0.16044985661914263
-0.39463888452867
0.930221783372903
0.5990733678128641
-0.19242898988494378
-0.22452920121995146
-0.02577298582549331
-0.27853562208697774
0.5424890657941575
-0.029245588773692127
0.016620062033504204
-0.11666958215806825
-0.2846226012784605
-0.35264067745074534
0.033409705653721956
0.16217003978118524
0.04779494622463956
0.10021570052443868
0.17282950002474956
0.16185599763558167
-0.23538552727151946
0.29914053848561895
-0.6185504457941917
-0.4742778825779316
-0.1151143154514455
-0.3244019923118266
-0.043013627582762004
0.19517029066717323
0.5215716973965704
-0.1717059117573307
-0.0013552394766848067
0.5784310170128474
0.23234204092160918
-0.2634621632067029
0.5510556524271764
0.839091874417343
0.4556022146989907
0.2449632661070205
-0.15473071997240545
0.1694772369783693
0.21917634197397218
0.10238800333751723
-0.3812835624467454
-0.5253449276373521
0.10421769869120369
0.3065213704698937
0.20697350343327658
0.1670091000612668
-0.22932543557172314
-0.08816796647977146
0.3243100692164756
0.2945482692675485
0.442369027232285
-0.0793787309349789
-0.03925775176595842
-0.4764559183814373
-0.07697922854163465
0.5785909370086514
-0.527287530731299
0.41806794739908393
-0.11041864647487971
-0.06216301489424423
0.18949850930224735
-0.18882343687138747
0.006106203965950642
-0.05187457080986319
0.2963790194178198
0.46067420371870604
-0.6532141531486019
0.6630880942648617
-0.29983399210409034
0.7249378158562136
-0.13742018651850504
0.38157048552347983
0.048907758006264894
-0.01385494791848961
0.5450387419745824
0.6118093094619496
-0.12923129263481634
0.35175940830375746
-0.6563477059888265
-0.3070000246972502
0.10027955137794524
-0.19869995967933338
-0.6393042637621519
0.3601782506166813
0.9865766103552569
-0.0718696647697358
0.40298194240515534
0.04427768932193301
-0.0923818206342387
0.21380533267656088
0.3072876692418784
-0.032175036760067076
-0.11398520455355467
-0.056804903743905594
-0.2915621530966291
0.16028866624809635
0.15746296943579588
-0.5118533717544538
0.2340238402102289
0.3269073872029187
-0.09014100823651668
0.6474118590300397
0.10660333801179066
0.12526216807767265
0.1586091882821499
-0.46518033072766146
-0.12133024300939843
0.004165253654057872
-0.2855746169951996
-0.2688584903928365
-0.4221209766017043
-0.3802836234046021
0.22688417099544458
-0.6317766855169723
0.09234052338786966
0.1699324737843582
-0.35871582484086045
0.30860983735296316
-0.023710171058739172
0.044699738259144715
-0.11175414897001647
-0.2901429640818566
0.34261224735437074
0.013494070109218775
0.1735874913144398
-0.062239495804336235
0.20417885068849864
0.03798342609761197
-0.35538598613630745
0.07772771229157104
0.08683679142445888
0.2837322830123226
-0.13372321557204814
0.4616157018424898
-0.04531472862344173
0.012423498086273086
0.0974174101302823
-0.8459485713602549
0.4590036017564862
-0.33353396814374464
-0.20976853489107858
0.5276098737392787
0.32830770995598846
-0.3298225929886656
0.30282185311853743
0.17526180930805182
-0.2339119847693412
0.3644017251351812
0.0796721188678612
0.21555766376433183
0.08463595299124747
-0.5212797554046468
0.4825394811719369
-0.6997188071126901
-0.5404346878168579
0.1807794832085495
0.9494703400997039
0.1576449531928059
-0.17096446461540696
0.033312667919563985
0.09786797190748443
-0.05300045748884098
0.17211223575816276
0.5509207335125577
0.040587275278214166
0.06650003263555311
-0.25196948812124065
0.1843508186973982
-0.28810520236797493
0.22983638245905227
-0.3777531800934205
-0.3362873143594122
0.33558148796399556
0.47017688885808784
0.18409852466775917
0.12354734801266623
-0.05219333383862519
-0.15085344781768373
-0.12623625535930924
-0.2525192220542766
-0.29858072218544346
-0.08773763398123217
-0.2883666504005964
-0.49269624194929335
-0.016217456467565203
-0.05689467724941856
-0.39618583600553947
0.021159156044267224
0.8353297727244245
-0.24184273591032462
0.481783336390919
0.5779554509350459
-0.27644401183779516
-0.3388255333031964
-0.18263083696722981
0.43485269753962374
-0.04079531474752766
-0.18919932355232694
-0.1720659134364943
0.050019631699939
0.04118337471937198
-0.11611960867080909
0.000896918260746315
0.2893923340419149
-0.033525894643931686
-0.1704611369001794
0.06448630371757823
-0.24047826356202098
-0.2969662380601644
-0.2622064638223437
-0.32811832111158534
0.2565083730358224
-0.2391216396088963
-0.2828564358386537
-0.02003533681876363
-0.5377233293277769
0.5123620666463042
-0.18514144923951795
-0.41044296975400457
0.32263008000090027
0.39005172413803973
-0.793486063143715
-0.47726854750997094
0.06050149119165849
0.35588395652761184
0.24671043267891496
-0.10173581412572953
-0.20192329764230468
-0.5453073471364732
0.3442259013417635
-0.2297186934972806
0.3093422901492762
-0.38605064762700164
-0.3325802805485305
-0.41567527954430405
-0.18576479587817893
0.020148574310172692
0.3543180084659538
-0.3275691825044666
0.45747894962262015
-0.11199858536961198
0.0384883089429446
-0.3810906250624394
0.10840156166796458
0.3293166092313032
0.03439047989842415
-0.3298506243515792
-0.3517728942659519
-0.4654452856726372
-0.11015958772370937
0.29602563927908515
0.6951871895093349
-0.441289856411103
0.3510418567869277
0.5420398463165452
0.09359853109267807
-0.2107785177853026
-0.6673100674620769
0.27583166739855963
0.007873305837565524
0.6301616734826416
-0.19257755939578555
-0.552954904979784
0.170316248304106
-0.3757824291647146
0.5404228329694447
0.5580781964256416
0.3633739984804636
-0.5050306388248641
0.7320398185313388
0.21517458207625242
-0.06756322906073499
-0.4470721337030945
0.25563408433206114
0.29383981037947854
-0.22947958448096045
0.3239587050268384
0.12560247583779136
-0.3249216339277658
0.4860845084687811
0.5806256890186202
0.3243316997283741
0.05520057535320817
0.013852411940402638
-0.35493659203192224
-0.07160803298531303
-0.22839282980835923
-0.06228414945240101
0.26861721359530966
-0.37777087800443665
-0.02349317014973837
-0.19169383607679183
0.16297854775855072
0.351372281007744
0.19231167636851437
-0.34549980050119344
-0.3049532348331481
0.5109606417572354
-0.6263826679624315
-0.4395195536099078
0.0026534402844630156
0.04505419096153231
-0.6305650196843727
0.17505236472964483
-0.10519664516159741
0.5530900179837065
-0.39164841187055055
-0.19590812480261727
0.054986167797834246
-0.011713448943408221
0.12318025681247496
-0.42538696792742575
-0.02697986946152043
-0.023992785641852282
-0.1841807897132913
0.26098186765194165
0.9539492486484207
0.3791646966874337
-0.24416120024003937
0.21259200213091892
-0.04561646240406061
0.010576477637879613
0.2655386325013953
0.5697263258085633
-0.1904343271019894
-0.29090940870805204
-0.02365487320178657
-0.16162707737004312
0.3585925341285183
-0.40165312259285946
-0.285527723787715
-0.5474411175707035
-0.35723509647691076
-0.09853155818341704
0.3807897854418927
0.5772448332003373
0.43494534405047675
0.6588434855896005
-0.3997294607512536
0.16431146661476434
-0.16197335321876666
-0.42662824351615625
-0.30166077926224316
-0.3980336741966116
0.1912336815108973
-0.19315151247800738
0.5101349973023147
0.5497323947969863
0.11544602045585398
0.29380103480344655
-0.11599973398832246
0.2221829844207607
-0.15882413677932655
-0.40857278458227453
0.31258662440652574
0.17005346594367493
-0.35243297037356425
-0.234550132165513
0.10046384792868163
0.65584286842063
-0.2922880091232676
0.48131621462846713
-0.531492443986109
-0.03983841725277414
-0.495981126392462
-0.22690972804304207
-0.18418489445298308
-0.3685495512573291
0.1896670775413489
-0.30191959550604647
0.18752615062902714
0.16996840652270773
-0.1392372654464371
-0.0957733971759413
-0.02128066851094676
0.6352081626842713
0.09923288777489062
0.1469293156691621
0.5924763715801853
0.27448727342576823
0.21735038772640122
-0.5146326167069416
-0.04692444063053722
-0.1878165557201172
0.041482531160100526
0.6753732431883137
-0.31760090635654337
-0.21820162989939193
-0.12737702180866567
0.14915278495281573
0.33612792264810226
-0.22960563861846447
0.3989584004830078
0.4313569102707816
-0.2789525146646718
0.11573611000717478
0.3062101501347722
-0.09442724963039166
-0.517769272676121
-0.01575691766266246
-0.4375374805317475
-0.23117188070335384
-0.657296887585844
-0.4242824664451458
-0.07886451646772259
-0.36543026981856885
-0.14307346798285608
-0.642270753351717
-0.13664043501054182
-0.39282103154342735
0.25100700348482446
-0.0857287897108381
0.4666509338622013
-0.15484763251961972
0.14145260664638948
-0.6110989742139366
-0.009522674791595187
0.41776163804783817
0.0891156078458596
-0.056428490619987365
-0.14976084165845388
-0.8940937855544988
-0.12253985571647844
-0.17100068256769388
0.16609929418446195
-0.41577864911218837
-0.11525854215291047
0.17795764965189134
-0.12005813324308953
0.029938156524393945
0.013602447419885023
0.8789361691997333
-0.3102816534476477
0.12314325548382371
0.8397681278153669
0.23915680734176176
0.09185579227590793
0.6146037019972631
0.12937928949212998
0.06539995891002424
0.09985003133097826
-0.11196279402429142
0.3347234758785298
-0.44187598500241415
0.040984322580256034
-0.5533726211218628
-0.30167319258493086
0.12263904192809195
0.09365982923664928
-0.2762194065877973
-0.5443382471018667
-0.10828895003222463
-0.3544849211415062
-0.3490913518842967
-0.07441778299358354
0.213466589223097
0.2712932814344351
-0.09697888444099688
-0.7709175896737571
0.7776050679425089
0.14615813191955918
0.47185230925965294
-0.14665753809244622
-0.07355776736309777
-0.299836580726946
-0.3932122816136667
0.09734508333454062
-0.305664296938301
-0.19420339444932694
0.13054290788676157
0.4822059215314974
-0.32049396779296935
0.13285959845015907
0.07561722501160652
-0.013579486743436823
-0.13774157335111825
0.033216643816315256
0.05718401623771399
-0.41512983686884297
0.14025658548360717
0.6343015889714535
-0.038346269365002135
-0.6207567399908575
-0.2323786892810133
-0.12858107649418535
-0.21713103578097082
-0.21444185953000044
-0.014718625130368696
-0.1251094367259977
-0.06437231923911957
-0.0634595485794605
0.1489254361846147
0.022638317982336054
-0.3516370404426911
0.016669670958405273
-0.5145893795435155
0.23195805448260481
0.3690081352336142
-0.3379390055012561
0.15247486293084514
0.5501177508708632
-0.2501171721837265
-0.13388216336168432
0.2606047924324219
0.1622775583748328
-0.027736619579139574
-0.05488172432586762
0.05607367704982961
0.03157731352057019
-0.4229196926935801
-0.3062796077275687
-0.001404364776138762
-0.2564292279537351
0.6700482154285556
-0.7024529208068236
-0.16821862978192081
0.0035414132995889623
-0.72287956851503
0.2904157253244865
0.0585896216725967
0.22227997522764784
-0.377619259369252
-0.24496798360480077
0.03827703196172853
-0.05366461480105844
0.04756225593599731
-0.11212556949634404
0.17302335828831317
0.1893717183173403
-0.2269982961798292
-0.0812780065640717
-0.13302937889133434
0.5589372121307926
0.4520645033997769
-0.0895737372497391
0.3716593532082628
0.02495931379645317
-0.3996882823898387
-0.5879753622507008
-0.09420836247792319
0.21680538088525927
0.0018582269303578495
0.02181381121096125
0.07160128816236827
0.5620845103217987
-0.03629868585678613
0.17467394000274536
0.11356401398666781
0.09862834858996412
-0.01152453825343493
0.4145063011439989
-0.4623818824582275
0.1702123112530576
-0.44678640825564536
0.5308868322377671
-0.22716953497265374
-0.09036456441597597
-0.5720769879765495
0.5553690261691788
-0.19027016924921988
0.3455225539098524
0.49747232193508534
-0.004212439226221287
-0.5158286852031105
-0.43368003019075946
0.10220250678207252
0.01883313927652084
-0.6613758506811327
-0.07854000171463142
-0.3505972179203311
0.03205547169108937
0.08263331247091471
0.31861664553270763
-0.1982306816134604
0.16141971246590503
-0.18856182427404258
-0.1825599157510271
-0.2566987598880718
0.29050290340704665
-0.25069174124290433
0.38859888119243635
-0.1653212876028841
-0.01861345492658335
-0.316947336159307
-0.39498087691322264
0.3432270256145165
0.1726116990867749
-0.014915726252961187
0.004771301583872853
0.19823514752668508
-0.09541169922325003
0.2232446138249712
0.27687688994768694
0.2337604949490179
0.040694946716948247
-0.31551609348038395
0.0077122032737739895
0.09119858896564456
0.24147258701429458
0.061743872472875744
0.24077070332023182
-0.5506130561313993
-0.005988060260049658
-0.4554481660905506
-0.2151475238904669
-0.22366415533965578
-0.461715026523261
0.16057688784302837
0.30623654928437477
0.27108776889082536
-0.01517919155365653
-0.06900959494085908
0.3741279878945286
-0.2860878074888638
-0.13367960975402546
0.6620626995746932
-0.050903661923098364
-0.5248302571149666
0.5607022094062335
0.8526993018289442
-0.5317543608263138
-0.03419846940588003
0.09075600619979525
0.22566301191944382
0.2875089920974108
-0.5007187074541013
0.3447774807757668
0.5444099482498278
-0.04749602544879949
-0.7433074402042287
0.28816909426911996
-0.4508963317905224
-0.05632469121148781
-0.4548871971832327
0.2052233539501944
-0.49145758446671717
0.24172638522677262
-0.18268267358751505
0.0006671511727802134
-0.43318913215350086
0.2056507676086939
-0.5035844244871371
-0.5039800723501247
0.5027673481970167
-0.3140980775108411
-0.22610663449973992
0.8398790516904531
0.3358563102135462
0.16569942020733164
0.27134447819282437
-0.15289706538698533
-0.24025688325448152
-0.39977612041053245
-0.3346942341227302
-0.002062283100846395
-0.38834392990825617
-0.20047958346858372
0.22667753480446876
-0.25714902460650635
0.4960893631289801
0.10682668724772952
0.6023932043540839
0.20251404611801863
-0.2646634461125548
0.0058002813025460455
-0.10662871240605763
-0.2693150716099611
-0.13968154433331578
0.10407292585860019
0.565515555978305
-0.12716642014202223
0.09501686503508684
-0.20648810326015288
-0.6405868420429439
0.5212625975307617
-0.13881897819107306
-0.12057719160575346
0.09857080817844938
-0.5645082524750261
0.25016045258355396
0.41344596569203634
0.35040138385456515
0.183268524974427
0.6730099445621459
0.5607320719480712
-0.3007063008987515
-0.13621546514001623
-0.6190720442873312
-0.0361762623794228
-0.1964201417646945
0.33132436156446304
-0.18715271972519268
0.10387318700390594
-0.13506507823906808
0.1207788062600206
-0.6295218410917981
-0.06836985248588126
0.011238824081335549
-0.29698975506143405
-0.4005234995563688
-0.29916744831567155
-0.4224714059732689
0.20220916608323738
-0.23346446029500417
-0.06474606622332145
0.04219048599677661
-0.3006385794492674
-0.3329997782067681
-0.27723490827441666
0.029463704568069238
-0.3262087397620571
-0.14183323458599134
0.4423655399894674
0.015495906052508219
0.06893839122033346
0.00779146813725348
0.1854100891565031
-0.20140638022376517
0.10917525405268408
0.10396407859270512
0.05852883405659533
0.6148097582365314
0.13230185502810626
-0.06808670436354096
0.3726381211443509
-0.33872337690041504
-0.024045125375887492
0.6267114882815914
-0.07500445389402019
0.13128523301369366
0.3288657020541901
-0.6875259026377986
-0.1864224027790029
0.6227793464076435
0.2984662194262431
0.454805422974847
0.16484852415660314
-0.13918328644234698
-0.1952489422453824
0.09011170515904841
-0.8153654639009897
-0.4187019619157172
-0.33997191001821064
-0.25924317282921017
0.0886878589374313
0.15413489346184817
0.29687693936196924
0.31054169212449195
0.2973624330601299
-0.03906673282445597
0.04500765081319131
0.2312786155126148
-0.05180667341334955
-0.16412251021945573
0.3074166897875797
0.46641758571256725
-0.0930968621466761
0.10852617651738737
-0.2866784618241269
-0.3175648520934553
-0.6737940601500438
-0.038096465215345175
0.33990328978330514
-0.18671718580780458
-0.5012368075379943
0.18013413020280683
0.9098825153500306
-0.6311746412984606
-0.3267885607987654
-0.5744304695363064
0.7312586280244465
0.8184683698557569
-0.22521272195742173
-0.2707788916782268
0.6019924919969031
0.018145507453185657
0.07246940336845595
-0.5267382784346286
0.12911021740379822
-0.1786959579829595
-0.27138246904817237
-0.28317548787759794
-0.5008851261865767
0.6595421554813453
-0.3090287156663821
0.2969968231581656
-0.7054078036187896
0.17825000279235906
-0.10641475555928145
-0.14699601762633863
0.43347394551922486
-0.1731531135558909
-0.10763359577223931
0.13735583484842945
0.4413841714543263
0.06774422724087423
-0.35573785253252427
-0.11324825653026967
0.11151809451519716
0.3621073734347851
-0.5835628609710736
0.16586745811270615
-0.22220500259053758
-0.15386030890170233
-0.3251196012920916
0.6291826905258553
0.6227621726752086
-0.2257047456812816
0.7450395032088973
0.265381948724818
-0.20949625288006965
0.09173571848203553
0.22430129500639687
-0.3210060537390173
-0.1251463501179128
-0.3736992556105973
-0.21949400726452395
0.5019487455055465
0.27385976187855376
0.36037977854319325
0.06513265156787744
-0.10418217655654013
-0.3105727465156558
-0.30882126406573196
0.21546035656874254
0.6741836432588785
-0.09007615717875458
-0.5068542623051107
-0.4661100042730867
0.024954094268850605
0.29875707389036105
-0.18775413674414387
0.03663443097651461
-0.11553469813945393
0.32817698133609186
-0.05778314693025407
0.2720475651114251
0.2875152024328143
0.24199422686565303
-0.48950360754433514
0.1872670374682875
-0.1916353193916042
0.0968381617998527
0.7778192275493602
-0.14113056983545744
0.5195534300122315
0.2740792781489419
0.20146601339252213
0.06541769323665698
0.0683019741762473
0.4218003808877803
-0.18895926041418337
0.05950094770401406
0.037671734276048
0.18439424200219257
0.8532540792554423
-0.27775957254986283
-0.004549057609674808
-0.25605749093312297
-0.1362731599671024
0.30301430473677093
0.15536440923488418
-0.027422202952496106
-0.1878474052358473
-0.6805794005820017
-0.16134180175408355
0.6345411594047603
0.36413524519096
0.06762248379466934
0.07161874432145694
-0.355676673908043
-0.33976854708857224
0.2031114767933383
-0.3899374006148878
0.1350056779137615
0.08031336397906097
0.5338976571072728
-0.29311484632551477
0.12288342787272709
0.02849190199572066
-0.2893990815824336
0.13406082595658425
-0.19876830184129268
-0.09396756930472158
0.18582761133876824
0.3362535706391138
0.011276512001809428
-0.09522038227520398
-0.17664279206124125
-0.3378495235453854
0.02821819168201798
-0.27014781458637505
0.38859507782361064
-0.3375492633781762
0.24609302720711201
-0.2465754761269243
-0.2683734270525456
0.22691735542703503
0.05756383672809609
-0.3240895308401455
0.365054042267633
-0.3329576394107578
-0.33265987598593233
-0.2298113692782274
0.22649767945418017
0.061021200031656016
-0.5099066456735125
0.3652910856890762
0.11408969521051304
-0.0028100578826905933
0.09069667942525744
-0.527163424279764
0.388269944632258
-0.19640671074987442
0.7942329989251643
0.11032723609386307
0.314089783209569
-0.3200298812796884
-0.05896237475106624
-0.04220356970348391
0.08502897528231602
0.14253050254444027
-0.17199502289959634
0.10835702573583915
0.22548925069000367
0.056730247775319376
0.5786440007387429
-0.8445130716335285
0.2975223526114315
-0.3562108385560974
0.06257931863065787
-0.4415277130438215
-0.051889025897420754
-0.14174092518506007
-0.41051721079982006
-0.17741728052188988
0.02021897336257129
0.5115111365904864
-0.295429975837553
-0.04741425973143836
0.030012941441710756
0.307404436102879
-0.14612753210706836
0.2681026040572623
0.31850488433880053
-0.31403902267286177
-0.22731062959816248
0.15892877369792785
-0.08942808230465342
0.2137114413329599
0.14728664948386025
0.04240000662379328
-0.45984962477184405
0.017109474131333964
-0.012682760143763462
0.13202291485935225
0.3262122039499509
-0.24040080625571517
0.5586098420512572
-0.3283741527313108
0.49070772666833024
0.4303210337544888
0.10958538218491044
0.015040625533847812
-0.2961414046086528
0.4240392515169022
0.2277906933461904
-0.08369326478258725
0.4008350006462143
0.06199513924267521
-0.41715090308920927
0.026163372266969406
0.562683466710493
-0.18187799589907405
0.22406030632425858
-0.16565260773574536
0.5884540068355629
-0.3420809212545549
0.4926791958721797
0.9078800490222486
0.47010581609128754
-0.07984880742239793
0.3503244101704071
0.12382282973365669
-0.6872002400833394
-0.1147075349205287
-0.42391577593043606
-0.9108067617740416
0.03479741225021716
-0.32733843457134826
0.073170441832375
0.045721583582520174
0.5169437506189172
-0.15503474539116247
-0.529254575751367
-0.08470450987301159
0.333244497850663
0.5573682454616341
-0.40933247824085167
0.5571351404240532
0.5084539654590936
0.4786164461034923
-0.07275898899799786
-0.30830138342146446
-0.20657299614659153
-0.1747140455993332
0.10895474987966308
-0.08385095939966508
0.029626759026486347
-0.725042369485117
-0.2128250137768222
-0.47430811419913843
-0.0963954493633444
-0.35781248893788853
0.179501855584974
0.08506864382332022
-0.22864519933775249
-0.3728846111712624
0.6280040207039561
0.22373362674587316
0.46785869184109197
-0.07669664173085339
-0.23309828008730463
0.17010698904142696
0.28055666746819924
-0.2838343264660739
-0.00019749450318883233
-0.08155476174599831
0.21077276902984907
-0.2708071970864572
-0.03496123397111943
0.030978007944677182
0.4230768880183914
-0.6206565999148819
-0.1472266830881063
-0.47823924093611436
-0.1349185210381186
0.045797076250424916
-0.1644719624539693
0.41894206644308957
-0.28418037666853413
-0.7522075857204771
0.41432438439536984
0.3672075820797873
0.3170223081062987
0.29442363710413055
0.35948242579602
0.11468939084191944
0.24671261964632646
0.5687844687224205
-0.34213555504885085
-0.22911795272168972
-0.12843244127285186
-0.8113484874438092
0.38304398927549815
0.09787901892671946
-0.35501126274939654
0.44029762349524765
0.25047535338628574
0.3015721003880972
0.0997764799914178
-0.5670365612358539
-0.2290147744475096
0.04541633962309896
-0.5375205157911028
-0.15835143467251572
-0.520782788007796
-0.27680726736288586
0.19493703295746453
0.07754507888721957
-0.2231493893189871
0.6717228988586992
0.020931526275769417
0.33364794640903367
-0.12234680749005833
-0.26107165730878096
0.22567028333295922
0.46892861729762525
-0.6187690578328635
-0.06910583237780182
0.5568281534504472
-0.1568273383471843
-0.5432998537228999
-0.2984780331659793
0.033359509456282035
0.4155081269527848
0.5106538455705434
-0.4763285406853022
-0.0006106384115459469
0.13275088754654005
0.029032355710061006
-0.21276198426747797
-0.1311144467291749
-0.02883309012270872
-0.5601734365428916
-0.1275419609860272
-0.16521678092570036
0.26642258668937413
-0.08369136699701564
-0.11292559675349496
0.40713959924561494
0.2533007431220382
0.12314817296412454
0.02258793420171261
0.14969115057104487
-0.02224814395935207
0.43279772248969245
-0.07861143951562198
-0.11310225398056409
-0.49304566380445625
-0.001714894011806932
0.5534244263556775
0.3640872589116421
0.20708817981827696
-0.10590603346578753
0.13228877412790127
-0.1790445605633198
0.4754390339451683
-0.5374334688799435
0.3446524138068471
-0.7110166698435822
0.0657814430632096
-0.26834342888569435
-0.010318594257536593
-0.13033545336179267
-0.21703599526004283
0.09269425905065172
-0.5160547042237689
-0.10028173361999067
-0.5263843779899902
-0.5096412541463521
-0.13403653523388115
0.10181121837645529
-0.7444615590461638
0.899391280493506
-0.14023962793892053
-0.15560717710776908
0.14820307098617932
-0.3728608919482003
0.6292609792767953
0.2639980003923961
0.37905643027128905
0.32580425583790823
-0.2359341308715074
-0.13834303207425833
0.4008060559792978
-0.5462861025133219
0.19753775261277878
0.050957575019525234
-0.11424021013942999
0.23697823554555833
-0.560494258355652
0.5062412350684267
0.11023494833721786
-0.5754687893002968
-0.326049824372268
0.3923276504160794
-0.36683400864616755
-0.03984499607628088
0.028336023223318876
-0.19543838642974923
-0.03655511898095869
0.17129803468848617
-0.29499529397626817
-0.2575765919940624
-0.24917060696414997
0.004044413076204819
0.3602163418529291
-0.3345516290214398
0.14976140321218825
-0.1151093477325973
-0.850406715085272
-0.3361230652929275
0.18073117720539308
0.25536102575453734
0.3551157834499062
-0.4374259964333113
0.3338157295297468
-0.2838029383177924
-0.1287475268665739
-0.06081893462103193
-0.39736174448378314
-0.3164745522537385
-0.324333048664841
0.01600524389570064
0.4641920745326811
-0.14266414768038874
0.5260860543937697
-0.5872118977424972
-0.1368141045053846
-0.1977377893082233
0.6720213046887431
0.3265373317965676
-0.03504336973531017
-0.15079015831225798
-0.3881614063055486
-0.31484237750603
-0.10230184966511731
-0.3594084663691842
-0.2890209485638425
0.4843431871563878
0.5817601806168562
-0.16401370368610638
-0.12607660722803357
-0.386776655095806
-0.008574619845412917
0.0871957302364854
-0.09941608623289847
-0.015716120549190332
0.3837307867306734
-0.22172902196562402
0.08282702088782909
0.1490649988133512
-0.17222735727618904
0.5731052955054117
0.004112330114801004
-0.2897040226787462
0.431271005149634
0.04943783845088929
-0.13234319456772223
-0.003331211551229464
0.19756449555598013
0.009244800540358413
0.677533092054033
0.8675106054591185
0.3386133795517491
0.06764782465124579
-0.28358946236780175
-0.4883277620885048
0.023096906676273243
-0.20568223277098968
-0.08281492908704599
0.5137292236835717
-0.04231416685093417
0.393289441946592
-0.5348383472025382
-0.17677976224972877
-0.47528213752662773
0.6059144672699766
-0.315740734505765
0.12706707769461179
-0.061590611173382
0.0058413345812045854
0.06903010683361892
-0.2438509741931204
-0.4246949062057334
-0.4445134908560881
-0.13714759130665263
-0.48470928540116326
0.24907677213838983
-0.25102480988169956
0.2811701308188615
0.28362121439282506
-0.03485728830596272
-0.23589018607264042
-0.12634151499063115
0.40512787612324486
-0.024254310771463963
-0.08327431587815531
-0.1731829698469935
0.13535051755213823
0.3973377787545321
0.032978731717373366
0.23037799602276676
0.24168762784801848
0.3883421208339662
0.03540647748552948
0.45433878540782663
-0.49734142784330737
0.06936820295008338
0.37657358260622337
-0.4069881880251834
0.12075623744770393
-0.316386551929055
-0.14688256668317978
-0.21113278408668223
0.1609193214555746
0.05034196082908625
-0.40219315176704157
0.4637213441787155
-0.4680879273982501
0.31384657037408664
-0.11215381381753971
-0.0002924533041436556
0.4336021897467053
-0.7537571271521324
-0.3884195866094657
-0.13568467753607885
0.44791501100244113
0.3564853720693928
0.5181284961515373
-0.09876198995756387
-0.21759374206137042
-0.33742273327347455
0.30365185269975814
-0.09578331919355546
-0.27454809621403925
-0.0020364901008536477
-0.48569583427643537
-0.08863415173982044
0.08323021584833448
-0.25815584605384584
0.1916195095908108
-0.6844062516093916
0.14864625651045696
0.12776699729399718
0.44431032210763705
0.177587296716654
-0.4609685584940944
-0.24950476110995498
-0.140593924359676
-0.29710203486196635
0.26813966482676527
-0.518081460337409
0.22105069296470506
-0.07165156161744371
0.3406029680059131
0.16620625503423025
-0.37524652094440053
0.3316631569711234
0.5406455780155234
0.7228902473398343
0.05500768982847294
-0.4018624691170296
0.0428000476816729
0.6900888408502924
0.45796736741739197
0.057717564768911093
-0.15066869372969197
-0.11284114596861723
-0.15153647112205915
-0.6963283713872169
0.1414012697533117
0.06742064742341454
-0.13649116613352733
-0.33096206038654113
0.11802638284091631
0.43306976375354206
0.0591504942058071
0.22661033169781533
0.7989927190435999
-0.15765042990224876
-0.48324334447720857
0.4160116580772581
-0.12246779613455043
0.1129904276976691
-0.008103753143034853
0.145733394663054
-0.156950465518393
-0.08729992098121679
0.03124240083220762
-0.4021155093911654
-0.3665025919925381
-0.18898086962019267
0.19741714313762107
0.002909454813357466
-0.21288529050679522
0.013694691958112418
0.013402496741554434
-0.3773339897228987
0.41771958051666186
-0.19411573614395286
0.3386790436855963
-0.27555615523132865
-0.05435733686411182
0.1327219587159729
-0.043367159490156584
-0.18135493894597846
0.05859460049720163
-0.03196688787818745
-0.19527783991010267
0.3094528753363126
0.3003582050160928
0.02652198108575944
-0.3749795814198417
-0.12834216090803632
0.22337822699324814
-0.20982173570094617
-0.42650055321714764
-0.6163403716364889
-0.196512565310786
-0.20105002594781454
-0.12616503377253763
-0.1944405667040075
0.48975952250051485
-0.18194790957519696
-0.7218869602040977
-0.2493625385271402
-0.15197693471201243
-0.16437473721138465
-0.3576156617771789
-0.32309531431134064
0.054891686341661666
0.5338025369453716
-0.028801306482208397
-0.24433282356078886
0.3582685026869164
-0.31401709231262875
-0.08490616945947167
0.045204726435787594
0.42339221331356575
0.17197796247507474
-0.05006904454652279
-0.7264599406656067
0.33579096155153226
-0.154140581261557
0.2788523562664213
-0.09691613026546199
-0.14707222984533877
0.19784859564733
-0.41279007254133326
-0.06092328635369891
0.52524294268476
0.05940392836134538
0.13552755265086436
-0.23908611015370676
0.07921510084110395
-0.565897245560445
0.8123780554167368
0.21305664520463982
-0.2558866293995541
-0.013357769479718121
-0.46834119307842625
-0.2611551817088062
-0.11483830674020726
0.18248097911787844
-0.4122482442831794
0.4739091662670625
0.17521667478548575
0.0034785098897658863
-0.5600944514254779
0.2654139612045554
-0.3769564977317076
0.4470217261528451
0.5353629842623859
0.04698241516150681
-0.5934966848798298
0.11494961177865055
-0.10775966690253168
-0.11338820606842587
0.1801373792285522
0.2984290939072661
-0.12762087430032773
0.16573717865311396
-0.05760285756914662
-0.035980981385321346
-0.15117276981942948
0.05852819189663913
0.7823404624544209
-0.05037304450461941
-0.08290356153213381
-0.12225941416623053
0.08671287555251088
0.08588206547887398
-0.257016543730397
0.1868333046234185
0.11495138132476677
0.0997521611419694
0.18028658850739165
0.4168703802931338
-0.04407016298900169
0.03959260855771237
-0.464000914789507
0.37463627374439906
-0.4180742913939132
-0.0464425770813619
0.05937991171040406
0.20434536895535635
-0.1943073877100823
-0.1835373735747594
-0.5506441467505732
0.07453157482827434
0.44466433315613185
-0.30631214482358904
0.01170359481611008
0.10290102098380702
-0.31306728066869216
0.05351419995181493
-0.0998336475433381
0.27559344850993805
0.07775448475861438
-0.2653170781371544
-0.01572614780402143
-0.5525205297929161
-0.045941803981236866
-0.20588217499495154
0.04660791741051198
-0.32286418884926926
0.2883518153901206
-0.5247398571558738
-0.12879901142728578
0.09453185366988039
0.1130748160977915
0.07949628071277225
0.3815958784664079
-0.4439931404088113
0.2364678370059269
0.21448121086972888
-0.4043977136462917
0.1858999383682515
-0.012051828335490048
-0.22656433948402588
0.17339281183308386
0.46137548421876645
-0.07899978994954238
0.26462548415445963
-0.24538760450705094
-0.19282230952399043
0.49313114582854717
-0.03407254924376556
0.23249525618117947
0.09593747075350154
-0.3310465326630203
-0.08374247913024548
0.3229677571482659
0.021044423081928568
-0.3402126073037549
-0.024640036404149725
-0.7167124444708989
-0.0023262187882449456
-0.38700515474474906
0.20209186326299058
0.026422574923719723
0.29953512193257315
0.3607655329687411
-0.1507469834098478
-0.1540380838832963
0.3357390497716989
-0.009130990452797678
0.15673865805916012
-0.15279363713853156
-0.3351075963773515
0.4251829600546788
0.08221806636791364
-0.6870018265383228
-0.3709640735960353
0.018952345586367575
0.016950724031653732
0.20775326817651502
0.21663193370185632
-0.5848819126338949
-0.5319500282948796
0.040157893002399137
0.4657216744327181
0.05941478345277187
-0.038723636852714134
-0.4512951709721584
0.3390413906882185
0.2954630992419829
0.1626399215810368
0.019605291954902692
0.24967163232415698
0.4412723873672522
0.009536161323767877
0.7773131036649366
-0.4506547057314858
0.0023069068997489815
-0.30590059531134334
-0.502894572028272
-0.39583038504333234
0.25801627407742844
0.2754321239113018
-0.45992612599312166
-0.29663872871402824
-0.4800023591502614
-0.53322753357094
-0.33023403327067574
0.25634095223060693
-0.2527444840257216
-0.25702012395495916
-0.9505182802154808
0.584928984577349
0.4010594273856721
-0.2998252723197213
-0.15178804920038694
0.24958366957081282
0.769679244790658
0.3084980382826941
0.029299957191134273
0.05466084209928205
-0.15425515928485878
0.4406611326606852
0.0035823201438526828
0.2219440835248511
0.2575990042765674
-0.47003918836790887
0.10477607247227225
0.19287458956248413
-0.31933311757909627
-0.30836133472398125
0.09850000938830888
0.1700251851888231
0.0054596802555721274
-0.07687771966384206
0.7195081522374243
-0.591206516253064
-0.6190997390019379
-0.7918838734528941
-0.017358496366194562
-0.34988491619637696
-0.8709833954980506
-0.5725527985329721
0.3269245900845582
-0.23138293279885855
-0.620985799923129
0.15841396967353638
0.44911873934264235
0.34238730162579223
0.8087354450803698
0.28848832558930937
0.36844551741477116
-0.4846200308653181
0.4425177411262251
0.28902144332608704
-0.2979149816098266
-0.07515314538026407
-0.6361287627313065
-0.13051930019757405
-0.2818125303352573
0.4090893468665085
-0.3126293430045893
0.07325578963075416
0.6768264262506574
-0.0023066756432682956
0.4562433093783622
0.14174389805337745
-0.6579405716853014
0.030680311959513044
0.15232630404373773
-0.11266917946703235
-0.6340964651331635
-0.24873405375513719
0.3452854186042457
-0.6716686904403011
0.2116852865859987
-0.3436492830175651
0.0011549806401831312
-0.49839368781563004
0.3088915989034003
0.033983104515347626
0.38921450830201854
0.2034385169100986
0.2960309549407267
0.02961194440077067
-0.03756816572824713
-0.15026245210885011
0.1058570794163666
0.2440269950949115
-0.20314872413903534
0.12633279014378274
0.1228384729041988
-0.2060650111196236
0.029922980029719357
0.26202692519703774
-0.2611604528584599
0.21332933207015084
0.0744442352756419
0.11854531095753809
-0.3435623263307655
-0.26864609687598673
0.18386533713489506
-0.22107004023307567
-0.006587090574417383
0.1608004909868039
0.43022199703621966
0.132342846172811
-0.22335802748499126
-0.3164547301838197
0.08291247085655169
0.36996253065843976
-0.23942348183367887
-0.05403976836247331
-0.0936082027761382
0.2850336423039143
0.23442948241786718
-0.25988371903928353
-0.2622978653067638
0.2824450489110748
0.07975266992101337
-0.29707971697504026
-0.12742223192766367
0.2555850077629077
-0.21676916081171094
0.03793733759750528
-0.045648464688336624
-0.21671518198393824
0.12907272105220358
-0.13342255851217458
0.09194767473486998
-0.7172081025606981
-0.17228863474635486
0.22048478680307215
0.11422712723606547
-0.26875796637842514
0.33218275719349755
-0.023451630006181844
-0.20774761827128674
-0.10565333724670967
-0.2252703396829441
0.20583310539227795
-0.20387331988414145
-0.017564748970149726
-0.10270701128990477
0.30827962921261404
-0.1368757481069881
-0.054102316176018427
-0.7281525607468988
0.1988347071895098
-0.07646354860188763
-0.1451760692555888
-0.009344502832541336
-0.0036377953412182543
-0.11834337238070208
-0.3128228349864141
0.10469902646215815
-0.08863478833506237
-0.5791338176541179
-0.052445021631813214
0.18510562289788296
-0.3330049268255965
0.11891467473707364
-0.6275145796494935
-0.5704048789480219
-0.19166303892302175
-0.413848737105908
-0.4317706340615389
0.6119944738483298
-0.0709364450651028
0.2609296562374382
0.1363605221978374
0.6655309975601155
-0.44898447725234397
0.2301068356760622
0.33837217022777283
0.36078556512703447
-0.17964540050861605
-0.015565194010324137
-0.2695014497529798
-0.00879772315228533
0.45131795868080365
-0.5146164224718867
0.5288194940545875
0.00845916630296746
0.24731730076883393
0.7719614685793953
0.14964161032329332
-0.056619385660200694
-0.08322715566016943
0.033687687872539715
-0.5379974221645465
0.07643871514830466
-0.5083513363041516
0.07730854426541477
0.05946298029809486
0.2658288349504009
0.18121567061484867
0.08748809956635918
0.36165220025125155
-0.06007121986682626
-0.3029005592522839
0.528245978946856
-0.47663250917115857
-0.11940929405717668
-0.5824077518068266
-0.42339321172633354
-0.15240442904691817
-0.16432561742222654
0.5405932088058523
-0.43513590955106807
0.0788730507550633
-0.3405246916962488
-0.03878075193392435
-0.317418260053588
-0.12278780185968467
-0.30756217636926686
-0.14212997936374946
-0.19100904650499503
0.24799676362322745
0.18971743772909358
-0.18974456193472292
-0.13599894912207486
-0.3472951771415971
-0.4402364437521397
0.5945173638158052
-0.4713791129200272
0.37870412059845154
0.2930190600224892
0.09971959814659159
-0.09693703551647297
0.24580951290358635
0.33660245962949276
0.02461435104226466
-0.6425057697264747
0.09900941556646399
-0.0204238358066783
-0.5275974611331442
-0.4475611234593156
-0.2529106340481458
0.38920276555998484
-0.5208010746943774
-0.24501055840189917
0.17830440217071367
0.021251915362059726
-0.012368296783352136
-0.2933857969438419
-0.6248501770283823
0.08308944559914157
0.3966573660385249
-0.4638980149496156
-0.3155710324842522
0.09609919518341772
0.10556783821186179
-0.2888949828537153
-0.5372249888546293
-0.2924697123730666
-0.008161852738198716
-0.24009777270428945
0.6013650038864915
0.03965815552146095
-0.19432923385204445
0.43722180741110445
-0.5915719456929714
-0.4540076981287656
0.6267241388183592
-0.019437636977571813
0.18550309350086014
0.03990968066692176
-0.6130941978313561
-0.3082444679077702
-0.19612594481151596
0.07884118529912489
0.6198322452964221
-0.2638914993031293
-0.3164401260022936
-0.2725410670072386
0.46248772304045976
-0.059738570723249236
-0.3888659601078829
-0.03876541249060606
-0.15763346480660398
-0.026994367668170323
0.1422302313641406
0.29092691978619345
-0.4937627519237278
-0.4879782876279907
0.04185418896542353
-0.26860887319938603
-0.5416471056269279
0.3031495769233404
-0.07779465063202048
-0.2616702464049486
-1.3251557672055636
0.19695174761952508
-0.13762116463313137
0.26585517200831943
0.2861238121949063
-0.6382272252645184
-0.0001670698890678803
0.06177013137417229
-0.012814225309051625
0.6450183024908236
0.016732915202151404
0.23467313399062723
0.45820102381405764
0.17623035159049436
-0.3620233585675061
-0.030689965578614614
0.32643326122261196
-0.23894717557119818
-0.04124344853064665
0.3950153626035723
0.2188185192777422
-0.5294601043181043
0.14319784785678183
-0.0849217157023879
-0.36346246011378974
0.524158300831691
-0.5904133683798342
0.3867959054620531
-0.02829051293967599
-0.15555693893092154
-0.0733387843817383
-0.07245777300503284
0.04370176096201483
-0.9859398239865426
-0.7762074307296797
0.6070097957669253
0.48354495459156216
0.5734574903159928
0.20014456148725335
-0.38173346997360963
-0.013195905928906114
0.016292146031530917
0.0009520543872686173
-0.22230922856878577
0.6661091353863743
0.3190928638259158
0.18581308565625637
-0.25073389639668764
-0.31839155560201216
0.127644848380423
-0.0038969349889209958
0.6566412352776158
-0.3067016767875378
0.14297643129508533
-0.397104895094978
-0.3201586688095408
0.1942695517718241
-0.08941700409291292
0.12525701595037048
-0.32493111990212226
-0.1703257902798182
0.1911330692972478
0.0537619632843054
-0.2574705209207237
-0.4271668406260513
0.23670134470444487
-0.1343982288491745
0.07435145610898665
0.10040157899708099
-0.194589471351718
-0.5142325585606939
-0.07242844998716111
0.2379043459130656
-0.2925568834156754
0.4792819383338547
0.47316907115963686
-0.1936360983883088
-0.45823329699272086
0.407491034003404
-0.05099945505089304
-0.4267160186015965
-0.26920000357253354
0.07745028872200958
-0.2896485986885873
-0.12050478359794001
0.4656934242283541
-0.36428218518781025
0.8190486596286409
0.3501320786625486
-0.07478897736382253
-0.26065259688645354
0.030367742630662456
-0.30628185013026515
-0.1685234003215217
0.294421663557255
0.08751836767033787
-0.3082269841673863
-0.19898565945137314
0.6986677681826495
0.2486467673804816
0.14010970165706801
0.6737190279580287
0.00011093018228186413
0.05947467336160216
-0.3066652146592364
0.052475855091642765
0.06140981105285783
-0.2639053815013512
0.33727146092579025
-0.26704599033553406
-0.15552735488386976
-0.15760569303604047
0.5367028236567399
-0.24679777393821195
-0.18273065135059802
-0.7591918461653882
-0.03195326462046235
0.12820003394674678
0.30304611610278287
-0.13545979636392802
-0.13545099097385865
-0.4275351846935246
0.1775807048191334
0.23073179920362955
0.1713660559974893
0.17086769822995865
0.1701772004491937
0.5724020898115553
0.35053116496538667
-0.41976904243031826
0.17956165472035673
-0.5624576161504053
0.073344846292037
0.014283084249699325
-0.32772248207689336
0.08220085875417407
0.5978763476632826
0.362287586579486
0.23309317831854673
-0.21994336322631325
0.024936770391523554
0.3270602288720289
-0.024393336119641416
-0.26380819348463247
0.32530329992739904
0.18636986352106003
-0.02880664482008369
0.13462510794216154
0.7252468458873232
0.12343903787649356
0.48995127173208947
-0.1955242460084236
-0.04835396994728627
-0.11199134388821744
-0.044148748179158905
-0.38680432456063574
0.6768824262282704
0.20209591830810592
-0.38968492254069376
-0.7252473514407712
-0.1043437203797591
-0.22743240794364336
0.16825842796095578
-0.13492469692885645
0.12834235365808497
-0.05956193564948536
-0.14398153073981534
0.10234358810083688
-0.5000687154961015
0.4386632360903735
0.5411668280374147
0.06288910691901652
-0.06534029907427796
0.16371885897765528
-0.33365837953713356
-0.2757778160714102
0.043910009653775846
-0.46471219778282974
0.07901604127677976
-1.01434222805132
0.10901486910081018
-0.16102313366150323
0.06621688006431174
-0.23573968148041088
0.4617139535947954
-0.04647802202854539
-0.7010374838137892
-0.4027559538155223
-0.2978847592379814
-0.831479755930293
0.160081428756729
-0.05888298326190544
0.027922862135626364
-0.3153669733324669
-0.02305352832113965
-0.3698521972737179
-0.4340160304339059
0.5599800861005398
0.12023746496129356
0.3402599194939339
0.12788132675521796
-0.0485777748112594
-0.17664590314325884
-0.06174149462794625
0.01260768972149239
-0.5597166822985692
0.4416883312050016
-0.0445600431135147
0.05348557698993499
0.03359888034377881
0.6834836387922049
0.21362117563488592
0.6626956516222933
-0.3350410405217902
0.5221184660184758
-0.5398048506046198
-0.18675809706801844
0.14396569242308824
0.2832272416864059
-0.07662932494557642
0.46159046911742174
-0.08602597115193183
0.20395369249776385
-0.03663392776914092
-0.4415487920647772
0.3461144090408472
-0.17455483483763834
0.018163343224678302
-0.20535289410313243
-0.722908311146772
-0.6969623193650526
-0.4547931473086113
-0.14958936425233693
0.40214509181752206
-0.2507107464500031
-0.2867343282503086
0.0647637536576203
-0.28608834369316677
-0.5170005944849635
-0.7904576645573178
0.2850317958086036
0.29933327795080844
0.02234268082796366
0.5030565475319819
0.048023575467304076
-0.20559277895140224
0.5088642273206408
-0.01968732929868803
-0.027302482554567006
0.02403603139193776
-0.3426846590467385
0.5562998495286952
-0.6712131674461183
0.21857228298361892
-0.695342215345154
0.13138940941762148
-0.23795324441805288
-0.2486540148797435
0.1575457955182829
0.12652790680970888
-0.10932661359953373
0.32771376966422516
-0.07872389247404418
-0.2816235433532964
0.20336307187864552
-0.18802907019362647
-0.39565164394613817
0.5708030248745641
-0.10733197435310202
-0.2868554203347631
0.2024932527738375
-0.21490849612344853
-0.16929399674539755
-0.2513965087551078
-0.29511992319692415
0.5907205647271668
-0.24040823529429786
0.3705553259656029
-0.29304481826583006
-0.23663668567166685
-0.29708010266202706
0.13498610680532042
0.4186234448678276
0.14599203599023738
-0.5376281592679802
-0.07570908647458688
-0.15548272488677012
-0.4683927654317863
0.3883777124004223
0.04904230995931237
-0.2754527711983759
-0.3515990006096101
-0.006783551849611548
0.3829152943344736
-0.06586115185187681
-0.27803708111775044
0.20674111489743172
-0.5443543646345942
-0.07460234931657644
-0.39148003174134227
-0.09346617726896195
0.22103879701037976
0.41632428153420636
0.49156512270548924
0.03649118902646336
-0.3311486055871629
0.2379323365046609
0.003392061349789417
-0.0623691611509757
0.3559351446724153
0.7922729092322298
-0.6457637956466754
0.2877450826867132
-0.05824352078134515
0.24601611351383593
-0.06392679542359377
-0.2631811288229858
-0.33127488503176494
0.33468917559664685
0.22852056519018046
-0.4315549155452131
0.7031683267168075
0.24155793546132842
-0.16386653522371883
-0.3188177764177443
-0.4276396488727657
0.15224102960750763
0.01925956991098704
-0.20610567652487366
-0.18389252935547232
-0.7086276227982691
-0.452171523061884
0.44807739566858895
0.30566123922061894
-0.23784346370025697
0.2242748277424268
-0.086033890623506
-0.4304946235459609
-0.501390829637237
0.4867405960366905
-0.006411708956366651
0.29509593545359014
0.1031074939287565
0.2537934978417819
-0.14090595503188688
-0.03718536764674583
-0.2830146135220135
0.09780599911719738
0.798530184740029
-0.2975482528088913
-0.2834304072226481
0.1152240597657819
-0.4311928657077143
0.21063419487922985
-0.026183146094266665
-0.09760846597957938
-0.6080552931987812
0.06861263508234441
-0.6791042365947483
0.44236472280792544
0.39338832072661073
0.067036740082907
-0.12405139853590526
0.2304116023748378
0.14142077732967334
0.27814406130294644
-0.6201131098476886
0.6053841560805744
-0.17391547583305758
0.32974369241110574
-0.03647743731036719
-0.19308348460760452
0.008995955711754709
-0.22019852987943556
0.3319506977513069
-0.5318486251970447
0.17088789506130234
0.13483096768375297
-0.2606106252951035
-0.5800193897491479
-0.12748184488930903
0.39369797008671653
-0.3382628721891556
0.00704276642649999
-0.08055430757949883
-0.035696881320081635
-0.13355597739496172
0.28562240682993795
0.12651573023087972
0.0051470729563973736
-0.34507159508304813
0.13005463002751938
0.2060374411855493
-0.23268867781814828
0.22222492661866253
0.23821632988678415
0.013868918843012456
-0.2029150389412363
-0.08037433010535265
-0.31070331707608984
0.9850895917990212
-0.4747989726950804
0.042302789632057
-0.513644551168142
0.1017544141543742
0.2938878996917588
0.1394401996424498
-0.6249266002690003
-0.08999430514925036
-0.6118163956517032
0.4533963678831381
0.3376640747070362
-0.3269065711335263
-0.5028483519269726
0.38733050417182063
0.48688438133915923
0.16408207536592553
0.34389374079666124
-0.14544655164660467
-0.30686168354780674
0.16819553186770883
-0.5629865870714477
0.3436539857632148
0.12666691050613135
0.3811603791939417
0.21790741824588414
0.46050677061996625
0.002435564111283874
0.0036995453295589433
-0.058826348507753354
0.09096283112095793
0.04662046921758057
0.5339184997033491
-0.1208700468540054
-0.1281913753805125
0.2595807166448046
0.4401360295906894
0.7160754386353776
0.03883426239943241
0.005524033314027009
-0.33910592408733076
0.05073219617795928
0.39045201139887437
0.0949997773923733
0.06531454794081128
0.06145185145688709
0.14624616919951716
0.0088653426837765
-0.5920282429373698
-0.8829315693194332
-0.21207408071446432
0.3407526195337461
-0.2864395556761158
0.3880328245651575
-0.2206442147467513
0.33283928994847317
0.6992198469658905
0.1450552691629016
-0.03417079374133019
0.551585880214442
-0.1378550128792382
0.10302076493460949
-0.3365811437167681
0.06592125496974244
-0.6855027952745336
0.31066646650308893
-0.29773073630897523
0.09344473533582952
-0.11785136827860725
0.17037305157369648
-0.3832182661669183
-0.15541899567334685
-0.32917793944852813
0.24219562077812512
-0.07772326724024821
-0.0468074765213101
-0.35055096576387673
0.0021023689510023783
-0.3518199030966965
-0.07145063560299637
0.16692879657754758
-0.47714948673621055
-0.2531954598643026
0.5592385920573048
0.39103303418818786
-0.28333911481488155
-0.15542937111962646
0.18057044020355467
0.436170225323287
0.2979400848972285
0.2916572771774665
0.015953216471904407
0.15923687857806768
-0.1533506574519027
0.3369615573858494
-0.3382775585945507
0.595834018791638
-0.1607399071595311
0.02414518078335505
0.6782977317551547
-0.07501188717706535
-0.4470221456800761
-0.23150851264777964
0.2544164034073175
-0.06549142630065971
-0.10103141860792658
0.25796666726437767
-0.44022523540881514
0.12781128928161395
-0.024749932051746918
0.13590367826992475
-0.23371513747864117
0.20257275549279416
0.20600476206428184
-0.08664721668094363
-0.08830974002623264
0.09057425641238089
0.10473469238257117
-0.5871936811149611
-0.15815785922432743
-0.1723076886915443
0.24971165810795326
-0.3588152819092982
0.6105489541177558
-0.465478241191373
-0.12224619649398966
0.3223028416214657
0.4903317802084729
0.21998934646777948
-0.730039202267207
-0.07429530457809903
0.18322520023980107
0.32891283240104086
-0.3494040501197036
-0.13353605447959593
-0.04721647158779403
-0.4205558919665079
0.6272988565697045
0.046682142651423945
0.20178955351744549
0.04892792787311037
-0.15944170633973612
0.3992273130316891
0.4997504216032509
-0.7770238402909299
0.09027166066155794
0.5491606318714852
-0.1536668670346458
-0.130152545425382
-0.2715518709995162
0.19750594495191653
0.22007105852490896
-0.2732185514118806
0.079981591881962
0.09612974997930349
0.22175671463704258
0.15116387086735156
0.7411410379072381
0.7103721694756286
0.5242714358633078
0.03054308001934006
0.5177468538238591
-0.3046611888740682
0.4506144150313563
-0.40810674262467095
-0.8683435230080526
-0.275081092057705
-0.035615909564076786
0.13170313270366701
0.19284867882096696
0.05877477858355388
-0.2261397013417402
-0.1476011150939615
-0.4295028548005671
0.3646287632094613
0.29872191821067706
0.7545411987238507
0.423958442629623
-0.2993592403011687
-0.08889246566012442
0.14185962190718537
-0.2693391474581549
0.532370260858385
0.035743989080332335
0.08679407045742148
0.293309078424752
0.08085773240437373
-0.3028681305586401
0.36028280809136587
0.27354726811224617
0.05693272460710671
-0.5848754036404563
0.17672773421936916
-0.00012780313239357097
0.10270166473305659
0.021658944019986255
0.13042810278416747
-0.0550678452230769
-0.3232909524403992
0.35993077226034964
-0.320398797413303
0.12080841922817935
-0.13540038063600499
-0.2029210280136663
-0.807833870665628
-0.5467356438406861
0.08585647126312862
-0.152417581442429
-0.012099798754348953
-0.14000638803796145
-0.3707053332232884
-0.3229166413920416
0.14534001348722933
-0.4681219877606841
0.44936860023739766
-0.4217255798997678
0.6586459208511607
-0.3559542237452058
-0.1396981778418063
-0.29791627820341277
0.15179725137324665
-0.1495118078692938
-0.7816822225388964
-0.05343595267419537
-0.369907759053192
0.6015555552558767
-0.1482884627302491
0.19723555548449073
-0.4813507065818403
-0.19736228075983134
-0.34571271990238245
-0.32184357308316347
0.42353554763513596
-0.21011209488209295
-0.44767487267631184
-0.1193767426438178
0.5065699198311422
0.19751059274046295
0.12745338767458406
1.0026336502019875
-0.6416928843042311
-0.11847156682774378
0.13156603011106416
0.21989786561240823
-0.3511858145438002
-0.5883051469143582
0.28304407282019767
-0.2097532039720515
-0.13284714127871824
0.10833265237654827
0.3933653349488476
0.4696979692836162
0.20675165430620873
0.4067156996266424
-0.4422711586902074
-0.6252451708254246
0.3505694212268083
0.22388014615251262
0.6013724319411328
0.10398123797032971
0.13368981963259216
-0.4966049470495723
0.073874264759231
0.15758711517368276
-0.34526122648669116
0.08154469969939614
0.4446364623408002
-0.0009279955389178564
-0.34654359476258606
0.47695086980821993
0.310596960807965
-0.14466347542152586
-0.20356865365935797
0.37749055632178746
-0.8672947350791811
0.5075640061792611
0.23199394051518557
0.04989978923015601
0.26878863312841067
-0.014806470964300296
-0.04304845024080017
-0.1343266143007006
0.14867254025363605
0.37884616927533105
-0.238501353540207
-0.5044426697687843
-0.5341184993010776
0.4398459893583958
-0.3358754766012134
0.3928009368197277
0.31584986251717667
0.02102490764410105
-0.34336891586024115
-0.22180283981520593
0.19295165402028353
0.11079284070347885
-0.19040615523367807
-0.16997557444642014
0.14381381892393838
-0.11355604379417912
0.2721939575828643
-0.1166249065346028
0.08976514260161118
-0.6148668779914184
0.4941951416922478
-0.15498142753067828
-0.5388041753981603
0.5552979885577245
-0.19219040411221613
-0.37270400959245814
0.17580067694468507
-0.3345552635745383
0.1325259514990077
0.09026125442974767
-0.22748191326515355
0.19551439054816055
-0.22202278419895535
0.5160575248480971
-0.3467703458282039
0.6782982637882456
-0.009661061992395019
0.44833097231715746
0.4333026529962361
-0.22210171056594322
0.389172407699458
0.6313229102527425
0.1978972207651629
-0.19974567068786814
-0.2500813314346295
0.6078704398117185
0.6837151786680934
0.03746706780127544
0.09215950480024854
-0.004227795712567494
-0.07384419204356976
0.6313072334311904
0.4090193187220855
-0.27803550427708773
-0.1365003226158149
-0.3966999648646266
0.06595957309644793
-0.4302345980461533
-0.5233409154387066
-0.08771537871833197
-0.13254868648914436
-0.5048225544308206
0.0847499170625105
0.13972668759136941
-0.15921578282327148
0.20581975164265093
0.06269121955050674
-0.19437231603750205
-0.20458164913225838
-0.728278766465554
-0.32047888435517
-0.30255387985555915
0.3594590076864279
-0.05911802713236789
-0.42369269947200194
-0.0642976622055057
0.17101128649939606
-0.019612157632052752
-0.5168413032563095
-0.560825590214343
0.2106734039863542
-0.10138662114750441
-0.48365253927362334
0.2222134866688252
0.51769866404767
-0.6592107193150177
-0.49353684271719567
0.04953741492228832
-0.12301695558191367
-0.3341785887517367
0.39166094546495417
-0.09767781489523955
-0.4135911947821999
-0.178120904861777
0.20930943601577862
0.5384154143468263
0.25323199762878185
0.16362621688214826
-0.3476437408153682
0.15805490225877367
0.22171444896452439
-0.11114107915218331
-0.09317274021855972
0.13838805255663153
0.4437674928955515
-0.5490395558258426
0.2435254164676375
-0.5055926425939425
-0.2692750583259926
0.10217790142264829
-0.3572823459285586
-0.21726363517283687
0.13335034974404086
0.4901381959250471
-0.13200758895531398
-0.16507152779472473
-0.35622028994479016
-0.05220353816966282
0.4303651731650829
0.092259415603804
0.4235802774231074
-0.34786198713091915
-0.06791408378073387
0.3824259670751341
0.11146409358923051
-0.28825567226303417
-0.07217180718488167
-0.6215120276596097
-0.15285214351460288
0.24314926249475377
0.3585495170373631
0.06087067399687507
