weights_pso
-0.07277723546452095
-0.0966520498636432
0.05786230632867856
0.010950370415779724
-0.36482822179879343
-0.5431592094137867
0.3602181238542814
0.2454137794718902
-0.21699281040199453
-0.3267788139870564
0.2375847883244768
-0.06642754854901528
0.13030417281362347
-0.31313312225552675
0.32199641077086144
-0.02762944144131383
-0.27706364313516807
-0.1633383556448774
-0.06587412409818845
0.01143704546482283
-0.1442300822652901
0.6081970663767257
-0.0985068795629476
-0.506330968226073
-0.12157125832731336
-0.7604224287413572
-0.20958763093221863
-0.13995726838417574
-0.4094917251496069
-0.2745844797892467
-0.1370214371620322
0.6264277944868422
0.25027358808860756
0.18626671866247307
0.14693917553928906
0.3249296097607484
0.1331021332196822
-0.47243144056144876
0.5554505237310761
-0.28130595087878224
-0.08159946617909697
0.30729121276779253
0.5097435448354947
0.1017424515176988
-0.1172660122930622
-0.13890049703069857
0.6465527050993358
0.14238518413453863
0.43320336158012435
-0.2286770516983446
-0.10650785527789625
-0.40422071857746483
0.3412982409299549
0.7215026248259707
-0.5996689656481228
0.0760672559331166
0.42299191665871005
0.22561014153858097
0.5161123994868542
0.06517426140183549
-0.16345339053290767
-0.35887250082096667
0.352537934259715
0.01593817099719645
-0.4242121800841177
0.21502298350876006
0.28574105442389636
0.4993064889524185
-0.5615869838893124
-0.4628958720509488
-0.24633254180216232
0.11183567645905788
0.21815443652823427
0.45464117756725475
-0.15933034400741788
-0.11137805631621989
-0.30779315514028494
0.2598602554432625
-0.08709251851115134
-0.09268277397554808
-0.6464029194608167
0.18640821330105978
-0.3586130995425052
0.08537327767071477
-0.7131514094794401
-0.6252638230318466
0.3001166156492298
-0.1588875315652239
-0.31793014412305814
-0.12251270702602467
0.14476338641872818
-0.18999588033379303
-0.2277862562318931
-0.5772907710531779
0.14000775833239826
0.5152058598217855
0.10557456948210382
0.36285122713613505
-0.042673613419700857
0.18888802933767324
-0.8165948043710042
0.2888406378295233
-0.04000408000083658
-0.33302104419470385
-0.13419404315648156
-0.31930775111038473
0.02802150487183511
-0.647578427866049
-0.11826327649473833
-0.11965977940737446
0.27047723212554753
0.007879645453323775
0.4164393581818131
-0.05471558293060847
-0.2291630537762555
-0.21547438825548287
0.03902965553779351
0.30224727367321047
0.40438251518198365
-0.17165241643190626
0.2154609389521162
0.2261501430531075
0.15281380506242362
-0.08877209121883445
-0.18963020269106623
-0.5449374022258668
-0.5380413236574579
-0.2745564069030069
-0.06698415276026522
-0.5111253847385165
0.45384519242136506
0.10456989930931147
0.20781116391696522
-0.6884707839585765
-0.3729129574838955
0.31769349758784
-0.03680939412461241
-0.3262127041904244
0.33048796632099137
-0.04681804823988815
0.08875723732374166
-0.11827383826722286
-0.23882560814163298
-0.2689465624202526
0.4251706854014885
0.05072482465859257
-0.2386277573881151
0.4640486429529381
0.22228742474609864
-0.20787720180648778
-0.16900492264605785
-0.05088173044913467
-0.09513200551000371
0.19714636059881807
-0.33843024227384844
-0.04865435661006108
0.20166343788809166
0.4441989507418068
-0.21102541030158736
-0.1647089649346864
0.3450519117601394
-0.2806498291869418
0.3930317355268362
-0.5122790726962462
-0.12647597499131463
-0.09429445831183496
0.7002163367421528
0.5729951742022616
-0.5511342610612432
0.24488564418823394
0.24995774700537035
-0.14196416066426032
0.1291596585686952
0.49416270070149115
-0.21821840331803766
-0.2496671622434426
-0.36914394299467845
-0.06505829575331551
-0.029585352444135727
0.21832489374870648
-0.02133108197562002
-0.1280802916422064
0.43109800440142265
-0.01586292663642179
0.08370168180190117
-0.1546398702443118
0.11364949333760846
0.28470764032860046
0.32106787395880204
0.34293541361610147
-0.21580930014760133
-0.5287444302225943
0.07837363421262149
-0.37640199005010516
-0.25907592712239
-0.5889271195957293
0.04319418864393508
-0.13276290856943115
0.027860145126236687
-0.08288622829506186
-0.05647595838520996
0.10138319361350231
-0.012484826588914434
0.6726241522746753
0.1556373886993259
0.0017651706705666679
0.6821005384583582
-0.14937723611217787
0.12768944961280912
-0.07815333828804162
-0.08453265051127261
0.0859987516190355
-0.29655552303567356
-0.25615571088742395
0.4820098174750051
-0.7567479276188109
0.06573388240801514
0.5023158846558807
0.11179850240272374
-0.22739960154009584
-0.5952222189869105
0.14607874748498276
-0.30991455788644334
0.1342684063344225
-0.2621949488668845
-0.703042616713216
0.36113244813490447
0.5236530238530223
0.22789875018160868
0.29068508773977214
-0.4528405112709013
0.057602152670364073
-0.11898368015767673
0.16750075254515445
0.18570231301769308
0.14551019110659377
-0.29633955708781534
-0.2666884513820844
0.9158863365649719
-0.35908895988797396
-0.1467379035795378
0.14575700416786636
-0.433650820911957
-0.3386553747029572
-0.12416397764426954
-0.3687639931938273
0.37450048773806033
0.03590407583441392
0.8661217653695267
-0.10588299683565522
0.523656077637108
0.08290757686963066
-0.14830021852205644
0.5154753696127029
-0.0771231321998422
0.34693548308523403
0.11607588107710111
0.21377275061291862
-0.043392311400638796
0.09338151930916626
-0.2930009798717277
-0.518056491841343
0.008831791291265668
0.02676012305681731
-0.0921090651382802
0.46283837328692684
-0.31135105164072135
0.4220165709383327
-0.2256971509480113
-0.231858487661842
0.04917274042662543
0.4313844585676845
0.2633671090337386
0.5331131592556269
-0.7271364885011188
0.20349593645710923
0.5411389732689978
0.15689574237692666
0.6064131637301834
-0.13461267440664268
-0.18454459699596487
-0.3316123421641999
-0.06732364536342159
0.13843815903322787
0.8443109256471878
-0.022788822252731808
-0.40278700872424106
-0.13278424305557304
-0.8113100204201634
-0.41435187539670176
0.06509131353092105
-0.39532954289023636
0.014104893312176328
0.21662778705467955
0.6717770961036856
-0.048544643457366955
-0.35579962554631733
-0.3788312540120565
-0.4282473534784379
0.5076256262131451
-0.010460552510637263
-0.664921296908892
0.13940867904177429
0.46757094429325347
-0.2254895632534675
-0.3738034646854696
-0.4064603865552248
0.0698345022528765
-0.1309959050046675
0.626955212799905
-0.3283315491125135
0.30003428096323875
-0.10006386170633784
-0.1977308812046836
-0.051630544412424456
0.17232938926671468
0.2466428918928338
0.17841077689762727
-0.08593407655333117
0.3864024035552828
-0.2712345220509587
0.17759264727020846
-0.12356011748791126
0.5896837573960702
-0.1673291179314537
0.20482882202775402
0.16595512447523647
0.2594689739492457
-0.6345658421317997
-0.34714163369993783
-0.2860527558224308
0.08298539904337196
-0.10749216306668517
-0.2541180426723805
0.21673156766285293
-0.050440442394609854
-0.20670014902729406
-0.04807289276197003
-0.4966182943857712
-0.3601985898679997
-0.15589300842862747
0.5784698152095914
-0.3348121445272115
-0.3326265152406754
-0.08801725269567165
-0.16385897810435548
0.15368174571308282
-0.03263674940836163
0.3365468782408718
-0.1578375234427744
-0.04566366506873453
-0.3379502801990876
0.08574682063734841
0.5617293079751335
0.04645873213549887
0.3311786359696422
-0.2828519839007946
0.3374641811610366
-0.3293780532533465
0.10229545908747627
-0.5577581057348026
-0.32075454857423064
0.2527756181268995
0.3036328244955322
0.2961498622916193
0.25087835751628457
-0.030937631569650022
-0.31441796363530544
-0.18564448177477635
-0.5786710517382248
-0.5541905486302289
0.08515613328954812
0.2072362485147799
0.7816167660659349
0.1720577747220049
-0.10188282325304934
0.13371621574424072
-0.26908760928535674
-0.7291794225402194
-0.1517001321034747
-0.10109691450286581
0.029523817583118592
-0.2947425078633409
0.3102508971857269
0.1624217783193746
0.36532818823645014
-0.03724056143042661
0.2920607178414149
0.3398721722444108
-0.3116510182699263
0.6045779234641291
-0.46743775324556514
0.07378374333935074
-0.16241675684741758
0.5318142163954448
0.31963631088050176
-0.5068626571656154
-0.6823194331432221
0.33020830503872334
0.44771131070401576
-0.27663088237891165
0.08108596106765441
-0.5768125964190577
-0.21623196301389802
0.19454868300568728
0.07236693467952744
0.35739514385028426
0.645887161577269
-0.042688025756082056
-0.3785285764782745
0.03351045636167368
-0.36757737057764445
0.0843075614415449
0.2054897033623097
0.2621389149080306
0.03507519238478351
-0.18348464553909855
-0.18758194896316954
0.4175138830295843
0.4639606391229671
0.21998729139254847
0.24540856830440663
0.2503164580882201
-0.07006058832500359
-0.6645753592685952
-0.11613081190161267
0.3454547012509214
-0.33363283355977197
0.00970878840330941
-0.5513759290384102
-0.10793474799654856
0.5562933323019346
0.20833349250666824
-0.559607869305401
0.09531721974590743
-0.2962446549334165
0.07741046133144028
-0.022600752610822266
0.31201843488717523
-0.02001839142723668
0.4791940365645085
-0.006510453019985477
0.19648556474408338
0.36811271403039947
-0.23267017357749342
-0.349552834310979
0.03918284514898528
-0.3301201777109994
-0.011522556519181368
-0.16737568604137398
-0.4096695859118774
0.2000466125824047
-0.16674115727507946
-0.6302832396352344
-0.029582655553488494
0.3827673276157707
0.12444077408388146
-0.1977981749403538
0.02611731165637579
-0.6384615745424119
0.20523934575723338
0.47414612257361116
-0.34199873763811284
0.36550098724337143
0.3411820923739512
0.2451050150818807
0.34052420636418834
1.0544898974977548
0.03346984174716722
0.9485780568679
0.01544746895847451
-0.38636626671520063
0.10507026807296861
-0.1620225793110932
0.3799554685700459
0.07359276438764313
-0.14864279943559885
-0.5601990627451727
-0.3266790408912614
-0.13067547760885917
-0.6276548400848326
0.09298056290189408
0.21594925578270951
-0.3067155467727537
-0.19749067029231765
0.5200410429253499
0.3183151487158335
-0.19384776686955768
0.6139744591468766
-0.9450738365773009
0.4826198296491773
0.6647912816574362
-0.874522709081731
-0.3682285788410147
-0.5480925867611529
0.20994754818806974
0.6753917533763105
-0.2370574990327439
-0.15296263928425524
-0.21869072160067282
0.3099400407643165
0.3275589021851383
0.17952672492250077
-0.03818560417376649
0.42756072240407006
0.10095959269263521
0.07438304607512161
-0.23362074864645538
-0.21285808494592082
-0.05242611350609485
-0.24396991336373114
0.3169721516249348
0.07003293763437392
0.13793353040832765
-0.4307778490680918
0.17348770404785424
-0.0505280664448335
-0.2831696994472633
0.11508067381951119
0.3802808510240386
-0.012905744919773789
0.0933724913643649
0.23068388083885555
-0.13308899352705192
-0.3805493159044464
-0.0075748201691996945
-0.8023335767277859
-0.08637946123872126
0.11381145270225403
-0.03591480530132998
-0.6175867264317828
-0.29740254906982955
-0.07967211926265727
0.5488380007298641
-0.12730133117558368
0.07253380177406142
0.5198797110625901
0.4045734535592499
-0.17057339557685067
0.2885946397946037
-0.2629370551906308
0.33867130085308095
0.006278376208130281
-0.5364552578650827
0.2709598423742885
-0.24778444242151548
0.05312407478510991
0.2075612068902856
-0.31753855793372615
0.3713783234480238
-0.3420174192391924
0.08166148133920233
-0.1019789628559753
0.3496297919045538
0.3313591444970077
-0.36917565189946605
0.29703704045752677
-0.21718276103233472
0.08083431725562755
-0.10940501566282722
-0.19815746594454442
0.011066645404602487
-0.1423030547428556
-0.2848826943381127
-0.3943963178690033
-0.7000909332616145
-0.03446131679750254
0.0997871804177651
0.32779650417144507
-0.3544395313995941
0.7803812926880814
-0.5669013477403885
0.12140176227220102
0.10523944862056497
0.6473347573145468
0.11581046152132872
0.724195112539414
0.05847044304587914
0.049260838422749184
-0.12839634001334163
-0.30065223707103417
0.8884307420357846
0.11680789126758
0.16790774647782078
0.17656895558567762
0.8774255953303416
-0.01062945390269324
0.19485641569627085
-0.16591412763235242
0.3112689463005877
-0.38668274617023507
-0.012297217246688669
-0.3727782612715602
0.377528808284311
-0.19019727892544805
0.07242141722475097
0.27986384635011025
-0.02268782676636449
-0.5763619487978184
-0.03816120131929645
-0.2211728370010687
-0.27431695796321937
-0.3528884202854788
-0.27095176193044807
0.08504866565153481
0.09247162709094046
-0.4795855989018412
0.2757261669560812
-0.1920990933264367
-0.14948143346474654
0.04990852837609275
-0.32472098064893645
-0.10772428815830817
-0.10529834005839797
-0.23654584555544012
-0.2754295091290742
0.2612993691574029
0.03563718393296243
-0.3770874773762586
0.6623585354377401
0.18600755140106826
-0.4594157856690612
0.03445542900193974
0.11871682703732271
-0.07347047221261709
-0.1368857982441026
0.013934220302460143
0.3199695175681681
0.0556321828472339
-0.5806043572277046
0.6002047670364822
0.5026775140604073
0.4625612575605232
0.30835273854389755
-0.47319019803227597
0.3174210146376121
0.04856463365836943
-0.16201946719757102
0.5493622958370289
-0.2790362969770867
-0.4670925939149931
-0.30261535032943915
-0.2174690978019765
0.12773809118920768
0.5621618720444751
-0.006702901329256928
-0.3436760929305758
-0.12822787931938465
0.15400560402219893
0.08033392197954227
0.2433358938251643
0.044201739466424556
-0.7203957633679866
0.323920674198528
-0.06081052987124499
0.15511562167028167
0.026642366958651492
0.18077341150145262
-0.06342749162113069
-0.07506746521953027
-0.5571569057538691
-0.6738629406479151
0.15252381369371898
-0.3035046102652509
-0.28014549331386235
0.19020040230539537
-0.23530060367346062
-0.41628445992389845
0.21939499595948464
-0.4213230814431672
0.5721458137631105
0.09812988612679906
0.1975984582319691
0.42999066656569557
-0.21749608881592628
0.46678798089210966
-0.2316406437258477
0.008462214844874034
0.4145645232304904
0.20634751517305833
0.09093737256351228
0.3089461665200077
-0.19930485780773263
0.33929207082312196
0.09559382399932843
0.02475590507062832
0.36339064547578837
0.03256237686761279
-0.49496591808489004
0.22174785433518335
-0.10919935821522951
0.2082475368638404
-0.17894938071840316
0.09521483375701317
-0.6502065890807576
-0.372809882667095
0.15725968920603295
0.5767734744069419
0.11207587745398331
-0.019458256998448373
0.20293350286600811
-0.5228385310922916
-0.4986968579885158
0.3337943008510771
0.2026458557215691
0.09377078573450788
0.08408909393284345
-0.19479267062988304
-0.004818235563281487
-0.16696557926032282
-0.3178234758566156
-0.13829463891739385
0.11482380069337786
-0.16763303201000904
0.12381794069773543
-0.12355870054929415
-0.6654270075441232
-0.03214536336649844
-0.10662385460032121
-0.33899662633824273
0.11607896499363941
0.2905666181149027
-0.16118487927358988
-0.2842671769436303
0.1624704832309632
0.20480385589602265
0.7101692744536856
-0.23691952676457184
0.40977912974611674
-0.17126873135359427
-0.6638621370639158
-0.14302406650654578
-0.08451304914222256
0.06215104267360002
-0.07566297332186327
0.5282932060994524
-0.4701984321522282
-0.05563429379973452
0.616973813804801
0.08573729483458495
0.7012747126127177
-0.2135762931099876
-0.2529987402118411
-0.342339764923256
0.22704375110674357
0.04722022480291878
0.10632698446985038
0.1972606239258118
-0.20245447287029583
0.176703861299824
-0.24397037886273745
0.2188071757180773
-0.10706923400563564
0.15416573506261552
0.1813459361674156
-0.18826143887401806
0.19156157295134468
0.6027254513111838
0.20715864850683652
0.0390585546150256
0.33002236102972493
0.6356345007802354
0.8339814825362766
0.26512345264302695
0.11088874643155047
-0.24607307242345836
-0.29642259571348256
-0.07829100345456295
-0.30927450976330967
0.035738954006243544
-0.5628052852292993
0.3370492479959548
0.3475516572774897
0.07748038700418894
-0.47686900264444626
0.11757587562246095
-0.45809109036627993
-0.25769174036261044
0.05120848588302907
0.10237858478592858
-0.17576610277649904
-0.0301876392839707
0.05703014772951938
0.21389812652559595
0.41417146449686737
0.28979729808036614
0.5899611137044152
0.3020957452356771
0.4018967217886402
-0.06562150111178529
0.003090828860301952
-0.35180814266517735
-0.13582317605771754
-0.0088038187895993
0.18143072989767334
-0.33021159967992675
0.6479868264876512
0.1511721120011714
0.4291978939678585
0.6585413920996736
0.2363808096960958
-0.6412605219885656
0.21289069084171341
-0.41898901016359535
-0.07558700509766789
-0.13027243442784162
0.8386957114770218
0.4313555808999103
0.3620458603979964
0.40583403014099234
0.1511256082466585
0.14305729569596048
0.4758070073116411
0.4135951488604681
0.3079784867158886
0.41746564758366445
-0.43053458435877257
-0.23740031668402417
0.25813743781195514
0.12973713126057085
0.008683168805995794
0.30324953374232483
-0.1891205653494195
0.5812743416981754
0.685968039734694
-0.18062134573662725
-0.5830094830905925
0.11762548904467754
0.07997629808256974
-0.13201507908406637
0.5740535932211271
-0.017279456673558652
0.1333023963318791
0.18399477997561012
0.03957282207611696
0.07111087702686306
0.3229074795087888
0.2353317389007647
-0.32797728537101095
-0.04351753982467679
0.04848819054166138
-0.5674977053866237
0.26629708684238884
-0.6861878524485221
-0.45642456583243396
0.048321862176347784
0.09831339954302029
0.0568225258747863
-0.6567863872685177
0.29812391575023656
-0.47630072774624993
0.6459417855041576
0.024329903327870977
-0.34276795434939683
0.03836088320362111
-0.42761323670270546
0.5076735613299663
0.48719260586116786
0.5342205124928974
-0.6152588954725071
-0.01581933087807066
-0.3020697913940022
0.14906016751463957
-0.0740104545738428
-0.49399795183022055
0.10586494839679009
0.21316163792481554
0.10911615701545099
0.323167875386691
0.6391588326545449
-0.2481379809514497
0.3542844253733186
-0.402083349060929
0.04983114937168504
-0.03477830160864823
-0.22847029488031595
0.08586361314957687
-0.4948803114617983
-0.5275873140499419
0.09189521377874715
-0.2538459836990149
-0.18143673186719864
0.42241853573443494
0.5167837932155147
0.5805138752877884
-0.3464944357667792
0.43229269054628583
-0.13344579529381348
0.3406110085246864
0.47631708959745606
-0.01175343327118521
0.0004260504849835211
0.6010103505227805
0.4049000926144808
-0.4082752250597741
0.19696270998613338
0.3797133490357039
-0.2896622176179558
-0.2357147085929627
-0.16731047496262927
-0.08022870132861884
0.07396892101990546
0.2802864187739385
-0.5228414749625333
0.23872561216695892
0.5188666548707492
-0.1461881429806973
0.24462136361461917
-0.07425074051859562
0.3881656841379986
0.3743464156440247
0.3530343031205278
-0.8021188304504737
-0.2435504324300469
0.06964883516440737
-0.7193629806318129
-0.776749580313318
0.25440396954839767
0.6541172577346097
0.3353854501069146
-0.15787787224426142
0.34305947214529914
-0.3531542938051128
0.08040026079131787
-0.7406647727953831
0.5612684225119452
-0.5462548362828906
0.2269708702067385
-0.7090514107632978
-0.46440627758274494
0.13058850807005754
0.3773630373990465
-0.31765223026914124
0.24816518718441277
0.3432448621009981
-0.24323807578468695
0.2603636171784525
0.4202304169845152
0.03771016841506808
-0.45993974790031333
0.19438583605922652
0.481060999729647
0.3235145498167793
0.2844137869777765
-0.2681046037253068
0.17522760329597192
-0.1448645899652015
0.024217118917646226
-0.167347825819131
-0.6589803796484701
0.21658048341060696
0.03079650193178812
0.24500901852298101
-0.034378608048238696
-0.15944495179823095
0.33597797838243165
-0.3502546519449408
0.44692563114294015
0.6275873666755369
-0.27835135777301223
0.6726643688641373
-0.04666223477460109
-0.03434559449139076
0.38031711446031974
0.16593855043461858
0.052958255349492236
-0.2001321272806612
0.17518259019550667
-0.056339151708070696
0.312044346303683
0.12154297483197726
-0.49216939050499786
-0.039469725247285196
-0.09895561979285009
-0.5555896821597833
-0.20787931613996213
0.4013646549745412
0.22140728362475837
-0.45431132406750074
-0.2840370007332134
0.04003071151212697
0.4066190973532542
0.0995869066561287
-0.25830661694282475
-0.2986419548745124
-0.7103510669258452
0.16483825011664197
0.05601748293650451
-0.724757164832073
0.7852177669656191
0.35533742304032956
0.13666976814472215
0.05807466259937742
-0.28759698021269847
-0.6864365862952896
-0.05663630967795417
-0.09847697991053923
0.006932841448772888
-0.19629674809469225
0.4960339862016355
0.09756336454030938
-0.6922140701755443
-0.2174125181229353
-0.6827883585483526
-0.5657888779918128
-0.21810514145191878
-0.14200536679190298
0.09974366483803834
0.04131623588382711
0.040782418675676876
0.10070793506921795
-0.14204524684310782
-0.13384072741368738
0.09075429878839568
1.0778880538847189
0.15256727749054724
0.5780757473922616
0.47034209597804966
0.27824041323076143
-0.06501247024414125
0.5727737499644872
0.3994659098366503
-0.3187160824512751
-0.27511027721847997
-0.05001262792385702
-0.07942058661975336
0.4656098009190543
0.015127294809518847
-0.2845902688469242
-0.563528450497558
0.6572989134522044
-0.03212016577703269
-0.5823528471599666
-0.3963766431572974
0.4085759073000306
0.17421185466971265
-0.21988219379289384
-0.21453740984421263
-0.37772302382677314
0.28347262809510865
0.49994168940862027
0.398648722733584
0.27303528560478485
0.02671628616479843
0.47937166135882725
0.19981515544316977
0.20751304505238133
-0.3077176102816311
-0.07295822403549092
-0.022119699208150635
-0.08312446470111844
0.24684053916837245
-0.3611979512931236
-0.16911823668071516
-0.40952564010956055
0.06002046673686063
0.2540708633972173
-0.18554293751567777
0.4274661121306817
0.38282393674605647
0.18375035829094774
0.4878048326439646
-0.11423578385107905
0.14359081399389007
0.18178343001411518
-0.07254693505560152
-0.44658961616807213
0.02637461786101121
-0.15806325480007338
-0.24346595620912517
0.4511209048400036
0.7751152762078156
0.06319812526486336
-0.8880234177297909
-0.10015255146103164
-0.0825844158793359
0.5763263706158896
0.4115266670190707
0.5480442136927419
-0.22417326033407842
-0.26984564598535715
0.23273033666589069
-0.5659233128356326
0.353548123245869
0.17325587802325013
0.22730081469025523
-0.11687326280416427
0.17019214045788733
-0.5029668408956345
-0.2474042113051162
0.6483304074766679
0.5380446235905362
-0.04495183052460939
-0.5381012917233632
-0.23580530958670776
0.4353183541881531
-0.06334712930350105
0.4125297280379133
0.012489692280004143
-0.2234313389408394
-0.3676961062758578
0.2926607152027168
-0.17269240845373376
-0.03616687134644714
-0.775148277285545
0.5183218577080047
-0.2674841822780232
-0.16918115201317288
0.44041762323459627
-0.20012856558209813
-0.030637689744801903
-0.13382533768775212
-0.1799836557984605
0.21436468564992953
0.4215385582507343
0.052541467565525725
-0.05615053301235511
0.21326101785619503
0.3393703786311724
-0.1630658406931433
0.4529763083093789
-0.3020727548107089
0.5910924448775424
-0.4689862489901424
-0.04345158299813073
0.07282265769103782
0.3013543987753437
-0.6374933824716755
-0.15262712213760768
0.09569312304981022
0.04851310924928994
-0.06830056573712436
0.46691790043116793
-0.2295368616834709
-0.11728356019707235
0.01472090035924755
-0.375813869399969
-0.030489216098265947
0.38419611225612477
-0.4920843340930939
-0.0878225994121634
0.034071928956421076
0.34151100781259763
-0.2759311741517408
0.24008057325410706
0.08249190113207758
-0.01852563958470436
-0.3909236442601767
0.19273712274168578
0.3423870707597225
0.05814283999506874
-0.43125985711362447
0.27822564604531574
0.3700013671394385
0.21269701151744566
0.45847396505025817
0.13423611233551538
0.05131514266882617
0.14604617828075486
0.6108571075207329
-0.2640521579514047
0.06995017792997794
-0.11200620328359513
0.5023318680148511
-0.5440317354125437
0.44754311617009107
0.33512285210172926
-0.06070611749080607
-0.28974673363318815
0.3931201125339906
-0.25760569512622794
-0.0006693480698043524
-0.23791946174669557
-0.42902679383555314
-0.35155443245157386
-0.051539942770760044
-0.6454099616095839
0.1856292328925982
0.5425155066418857
-0.29425682452620494
0.27287495696586933
0.11781815059126025
0.10818760443802683
-0.6892631656888065
0.1501084116841675
0.04078529564619273
-0.17656193356204722
0.5977480613678877
-0.19139549134342795
0.25733887661039534
0.5704417671209518
-0.021941592306687328
0.3808265127922718
0.2682829369756565
0.3951411953810351
0.10603069056065086
0.10289755352327122
0.15451187652652196
0.12775520203153246
0.2019779816963239
0.5845756286536749
-0.1954835432572938
-0.693371750050413
-0.22679961657988068
0.41619797013851517
0.7897806016025481
-0.09433520881568329
-0.3680501847176728
0.06876253839283909
-0.16503480872959647
-0.24716307968510162
-0.05235450260910259
0.16161920978094846
-0.1704352120664848
-0.017320092132060563
-0.07691399926247663
0.6444917249695702
-0.055781045826080365
0.060203660133543654
-0.21429482802687175
0.25631621667582916
-0.35050748231346296
-0.2586284961244236
0.4494229890328258
-0.04932378967635321
-0.578381837613279
0.08659430617188561
0.14780088270134428
-0.2713170290343427
0.16972797443934207
0.5246944271356703
0.06760538901716782
-0.4767355231697822
-0.1225086171648255
0.045769503963678945
0.023441290679764634
0.01897065448048482
0.2748314196015563
-0.0876500402836832
-0.2993153285281286
-0.4664855553638325
-0.4094180177665783
0.1325757103465832
0.20599860219841684
0.2669867996117892
-0.2890945913160122
0.1909347302882542
0.4134333822907325
0.23967515367093328
0.32702695463492326
0.5143802445281784
0.05089964008532397
0.3430741382893706
0.43138036275182096
0.06015804369854247
0.564114803101021
-0.2847259589280656
-0.1788960532948873
-0.03225693907897342
-0.11357942947227195
-0.24455984870202593
0.09568874046237277
0.35262545182287575
-0.14686561958068448
-0.0548842862874167
0.34469013835708673
-0.13259807019086758
0.4384186183374817
0.1754508071098859
0.23564216890949752
-0.09708282144421164
-0.20909530064777426
0.09965474776000081
0.24880385250958492
-0.1781115272854089
0.10325823081270977
-0.015419750025803128
-0.4787152830952702
-0.7334584693560259
-0.18800204338746662
0.10190449564391009
-0.15935085972123098
0.15792490320352406
-0.6086725637457067
-0.2976077350516235
-0.1251534266941327
0.3542990295862263
-0.21332186340479695
-0.30555483758231916
-0.250586675846841
0.456922896372821
-0.5076007375890517
0.09185682815402205
-0.31267142717960034
-0.09506266530832926
-0.5844081049073291
-0.3948271173722131
0.16049758027146177
-0.6360212882489755
0.5292399730886647
-0.1019153526196968
-0.07648376704404483
-0.02806591599275442
0.581003172852269
0.3321492588095346
-0.029459852188583834
-0.18370603585080938
0.1841399803680118
0.3597637404701595
0.2268903317694424
-0.026850904305955173
-0.04434222918650407
-0.14678146285429766
-0.3550589560864286
0.09294811226467507
-0.34312586445369386
0.21007198985849349
-0.01383584484286851
-0.3362221102820214
-0.5897926540707884
-0.27825142545211207
0.6241811833318205
0.36310702279762147
-0.053818565050414366
0.09684293360541446
0.12059589620820088
-0.6643695881054501
-0.013576322557882962
0.276561506755435
-0.18871813120631237
0.32386121321696903
-0.02681195346927357
-0.43667521035791335
0.12290110350143549
0.31542976949889523
-0.3846145035975202
-0.011581235775754995
0.10746414262276523
-0.34157276655124674
-0.047952049211107434
-0.08413266436040041
0.09211761458677224
-0.15233032712487046
0.19160487782879612
0.6562420954559832
-0.4096080780583418
-0.5774182361007176
-0.3134262019701617
0.3290492992717866
0.04138984187792364
0.1785787228517482
-0.3577019671930725
-0.09226688794183008
-0.4478637135207915
-0.27936682669122453
-0.39651428004753053
-0.4142886730720644
0.08985593280543241
0.22725969420777586
-0.2499122066132928
-0.6882345708613771
-0.2203159328053636
0.12472655694910903
0.2836513856964009
-0.4326895953321365
-0.3125920355722242
0.09303743295592957
-0.3777404510059951
0.20473631621187877
0.07972041456978583
0.461119864474286
0.4763206552544474
-0.21285839546051027
0.153626885098768
-0.4943424836679481
0.6725459176417615
-0.41358957776674343
0.16513951156601253
0.41851896090054513
-0.26815236754663585
0.22433650052257975
0.617201083638176
0.049149253024757124
-0.5413021696588435
0.14809038588259715
0.3094705709522063
-0.06416291017737857
0.12636574951500604
-0.4540553546131149
0.21516635322119718
0.025658132643177685
-0.4641232324227091
0.09835002418815864
0.4052692151244609
0.3513225976753684
-0.25042384871696066
0.6001840201676744
0.031886566296757596
0.16715884098798064
-0.13259019109154938
-0.38072038808162045
-0.13493330119379562
0.19103670195666927
-0.4119109981350629
0.0029210035096599446
-0.5063793246964554
0.20353306459742918
0.1532780158910138
0.4768696545393707
0.31966445762935614
-0.4077036949858837
0.20108476037171033
0.540425201326588
-0.40196641242784714
-0.6272099777735539
0.19665581895941295
-0.3392949653487975
-0.1385635752826911
0.5247609711000988
0.27543070219446425
-0.31821449445720357
-0.3542295407652347
-0.01240728559943233
0.05465347233925521
0.23342645583450172
-0.35645048319268735
-0.06276295073445055
-0.3539985779003245
-0.17656944499907024
0.6298194804056559
0.37065967341012296
-0.028442362466125217
0.4615291024492631
0.11924963597852778
0.2241005791582896
0.2571325127621951
-0.23814537582716663
0.14511028019427186
0.2933282931315546
-0.11823039536988098
0.07476685929512396
0.8126186634685806
0.27481465722353554
-0.21749798435491685
0.0977371710374144
0.23267224687105223
0.08507422093280251
-0.7242124925434588
-0.2635621428025538
-0.051626716590924174
0.20585236588907208
0.17599678088754978
-0.6808109634360573
0.3373256407361795
1.0128034856639974
-0.4735048446651445
-0.44661205521764136
0.3458904432038736
0.13499081538336602
-0.007868549698917208
-0.010557024660270349
0.20076874776116577
0.06552357201967031
-0.01002211811937074
-0.10709880750899237
-0.47627705437031265
0.22791216331813113
0.3064719046257207
0.27635923269301776
-0.005304748380515449
0.23459581919172254
0.2663519423086935
0.2590760112033592
-0.26788967172139894
0.13913455726603516
0.10659868009444073
-0.3006420304485801
-0.07349326790988656
-0.352672442747709
-0.4179908865526852
0.13661048553375352
0.3802687277102607
0.39276504505730014
0.4513003172601452
-0.004352817838148347
0.40149784074803313
-0.4259730277381239
-0.3194768687293062
0.21086408487368333
-0.16667390371635085
-0.1550932885125794
0.420624878072294
0.287326265263029
0.05177539888875632
0.2554434412251429
0.20059474871781685
-0.24011381855111882
-0.23418481327666998
-0.3292771328427879
-0.14355318028610103
-0.11354824852716965
-0.2015256876052403
-0.21365954860341987
-0.3165359744060346
-0.35411205480325664
0.7831186587793572
0.2692463580594159
0.14581681652563586
0.11013717172608589
-0.2519503418975012
0.06814888196309608
0.338273644117864
-0.051551129970839986
0.022566341981139628
0.36517979338196777
0.21240887936497851
0.42422460844703436
-0.29894439979654774
-0.5923924009586055
-0.06813381634304454
-0.34792928359151726
0.19254136420262113
-0.6436072365340624
0.07349787145581016
-0.3970794820351159
0.13181191203791265
-0.22013645835176784
0.006326574073487577
-0.4164081811065997
-0.3355138991134777
-0.04096677024855279
0.5442913358464558
0.1914597184178633
0.06676574236424876
-0.07044045985458951
-0.2867410775280522
0.6237081811335414
-0.41948891766837126
0.41295317039562074
-0.33904982620043195
0.5442702536256003
-0.08022441026131885
-0.3534940214358503
0.03368427191650036
-0.6680433679618885
0.16423168291682352
0.1500860174318072
0.07454454656418837
-0.5600583855461193
-0.14778254807932964
-0.27943396321085184
0.44820288265467156
-0.3706183751152281
-0.4579311543166725
0.2887240766460612
-0.07187741766533613
0.34263186675635954
0.517514859970559
-0.45304588669390033
0.06269638151692827
0.12774621936648614
0.471824173144148
0.47012872750707707
0.0005434307480193107
0.1623520372199939
0.2488822713310887
0.49392299261978073
0.3104891379710341
0.02245734889274805
0.3702226284153158
-0.0007438717412215603
-0.06279296584403744
0.007494282325566508
0.054588509012671316
0.4180349191203513
0.7740778078864823
-0.3256984521973499
-0.17140521395532948
0.04427062990477775
0.04623311100220126
-0.15295394161511738
-0.05514479794375726
0.6579059654093498
0.21607175011662264
-0.24987133688272067
0.44373871534479636
-0.09294999146256894
-0.16078617838083978
-0.28867042706366935
-0.06709545133832746
0.36585648222128375
-0.3313084105425489
-0.1483609539942575
0.7655128408105271
0.5795016055953277
0.06666633421040284
-0.17142331733181224
0.3452751507207608
0.10958682866405596
0.33008978586924426
-0.2681636545971799
0.14463013259245353
0.0032975355782236767
-0.24343514822460677
0.11179088126311777
0.08591538433788666
0.519352757785605
-0.1320936289485527
0.43998410979015945
0.21984382798354937
0.039861696809888984
0.04892303677450691
0.3209993209742729
0.021797032570433895
-0.2068403606221026
0.7080686349689564
0.10958616161533584
-0.060088850087548905
0.12517288989148107
-0.10888448824974162
0.22234690822894587
-0.09383751192445722
-0.0384640300264098
-0.32162131472127187
0.7773557210718853
-0.1581402400057301
-0.6815993967996532
-0.5190533133725495
-0.5421891290920041
0.03456220730133035
0.04045034621647532
0.13451847181922236
0.1100290691754396
0.32877319199205585
0.05966258475460524
-0.37091301406802296
0.13991091356114396
-0.5034759116639926
0.29991388788792805
0.09051923737926555
0.0922724242224578
0.3143028404434838
0.4064966904987187
-0.5157625638224562
0.12921337930448512
-0.5919713799990022
-0.17340395976249537
-0.20974458652316516
0.2414025528890746
-0.5351638662825985
-0.16825789853579737
0.5162412363071216
-0.1796179485738935
0.21777780585737627
0.10993130931881652
-0.5306170551010004
-0.11676815151779797
-0.33564602950206013
0.2211634507343925
-0.06937531407229613
0.5025257895769975
0.2222917126356091
-0.14415647824491246
0.025200189643749326
0.2576999821808607
-0.03041718861683057
0.5925437574155129
0.05408457435013592
-0.34935617845595396
-0.2348501015603361
0.22677238178262926
-0.5311322003774522
0.21763081453357447
-0.23247992394310563
0.2050671286159537
0.8976183780307765
-0.6765732182497579
0.5290572049291464
-0.2687919044330143
0.3711523677803113
0.17835052902694692
-0.2728044084048341
0.10568296253252589
-0.5359980231598167
0.5898929027734666
-0.03833352035433321
-0.30703011890029075
0.38165520876221437
-0.4951260052077411
-0.026499249020726277
0.5191109591774705
0.640606666223177
-0.42398051513500923
-0.3590106853786624
-0.3541342451287837
0.05613531126016106
-0.1486594599073428
0.4843099304083382
0.504301212162155
0.12566632808968267
-0.10440446610777875
-0.014462972563002023
-0.012720348486079279
0.5593230233935179
-0.2535124945887763
0.012403309628283298
-0.26084665478638
-0.38144804260403503
0.05088070548154907
0.3191961208437415
0.15213007346368124
0.2682246011738119
0.7944073921381664
0.6565322201450376
0.22319791510587933
-0.24998637976238544
-0.34563349451413444
-0.16155456349134611
-0.045179384328050465
-0.12057491266882962
0.050253069691953256
0.44477262949972207
0.1506310352943598
-0.0035325721484689757
-0.07620807708157665
-0.28587718451798183
-0.5640721923394805
-0.2862323622792306
0.15274381139469792
-0.378357461965154
-0.16181748365549992
-0.09164672461490467
-0.037908345244493574
0.24245738600677696
-0.279456528792402
0.14126373408615628
0.09130551047038134
0.33192132605195
-0.03857117152446601
-0.09573180039535487
-0.3299604797867992
-0.8845334437044639
0.5741569077715829
-0.1511567294875537
0.6784148298847242
0.2257129706033691
0.13646153954272544
-0.014938305026121635
0.6499505394807205
-0.5722761273936308
0.009447150473646394
-0.07589447739298212
0.1317086513667566
-0.07106523034352814
0.1336100339928859
0.12506948498010406
-0.25143140304435485
-0.3008786774704142
0.05258241600095016
0.14383148130695392
-0.09705633022085491
0.13019914483899075
0.6239305554015809
-0.8353088158917246
0.3437945483702393
0.07218470295775119
-0.024806180141832373
-0.7145557608343236
-0.13390029623759783
0.3093873915838592
-0.4235403639661371
-0.08091718661762888
-0.36251109404051735
0.5550527610719991
-0.30883589436001346
0.21632941826176147
-0.5647082494036054
-0.039875559952925896
-0.27831794194109255
-0.12550384519121574
0.1522617028250241
-0.24867376875170047
-0.4441510607371601
0.12134837602070365
-0.1946028918042254
0.02524695388287116
0.17823798024756762
0.07275885942880038
-0.5278985697826137
-0.08010222805458442
0.018287119480885187
-0.41019769225309677
-0.3134470550261251
-0.38112248190132664
0.3356405367079211
0.5789754636595331
0.4665356506954413
0.4103335279317382
-0.21880807296716406
0.4681289244866645
0.3255049702632323
-0.019902821268967714
-0.1777539736881853
0.2876126997883478
0.1060419772925499
-0.37196978060462754
-0.04919406901683413
-0.04652561184111833
0.3978458296151701
0.0670347616485599
0.31941721847000604
0.4292237916254545
0.026579610678601918
-0.30011780227063417
-0.5985793574417739
-0.31409531821165887
-0.17260261995840792
-0.6880516372149007
0.04970193673115073
0.12292685216679253
0.41306739791765706
0.3319801777456785
-0.32869815445804706
0.1307826027760168
-0.12300177007888126
0.07132238084150239
-0.6605228997244786
-0.06620894812623225
0.06041937201898931
-0.012425878317667473
-0.19456771621472188
-0.0294025526374255
-0.10390350107611235
-0.2926034046256328
-0.2211162157133453
-0.6729275523121503
0.1991933361901276
0.016923699607449882
0.032239088659521534
0.2961173436548625
-0.2031479789397454
-0.46989282922168163
0.6443674604518024
0.3130854102230189
0.44106550822634705
0.3161398249306801
0.1644611624482798
-0.14280423150580054
0.1758376067572868
0.30802337858915496
-0.2157419995195342
-0.15814430471980898
0.3120135677392848
0.2095576384172582
-0.08458147244599537
-0.23555910818136935
-0.14333862596565503
0.0020435947502670223
-0.4377437244665243
-0.006021162058274003
0.490385822263474
-0.17833261316145013
-0.21736342090494948
0.049978532506697065
0.03031442719070286
0.08426975299568944
-0.11077200605352062
0.43894555771141364
0.1408558538510248
-0.4844727174464548
-0.21608297232915802
-0.4303959369647812
-0.3782173368629305
-0.2444654161559616
-0.297138240461728
0.36858443613241015
-0.17345430814041196
0.0340290688612986
-0.4720436489527594
0.4154665155468616
0.4451427563431183
-0.11157931950338945
0.18133905133939454
-0.05707926737265191
-0.17559564062435581
-0.24468991972215576
0.21970868645939295
0.04756968146397121
0.49448158664236597
-0.3849120910920319
0.01721477480907552
0.207824956702353
0.3829470261094795
-0.6271161225358571
-0.1103664007098778
-0.02279569549164026
0.20817367793634495
0.24921527551793599
0.6344393984562857
0.4291483490248778
0.3636265385892452
-0.003383183237378889
-0.5111352844569428
0.5760832400049536
0.15132184469165863
-0.779863144216706
0.1290727145384519
0.4697779710416899
-0.006608441377017714
-0.1630873352421767
0.005304443001718209
-0.40383699867291056
0.4799446167758371
-0.16435208087085554
-0.2038541393274086
0.16557980354005924
-0.11298251958439935
-0.2775137514206957
-0.25756550479210577
0.37441437474041134
0.08405781516786012
0.06453797108046863
0.24726264212850016
-0.2799249525910077
0.27237690260327274
0.1580463212699243
0.11945091993924971
-0.10764739304605948
-0.07953857731931784
0.15454917028580561
0.6021199156671772
0.7164082988827212
0.186951859911214
0.2654659893285017
-0.3974175516963426
0.24803190196405844
-0.05648027764946156
-0.2186703274460367
-0.4234847412670658
0.25023101918371593
0.153554546089093
-0.12382233087562668
0.7336623765818705
0.00845043415845278
0.42684893869504437
-0.0871160239549244
-0.2379644686888932
0.05427471112533245
-0.5985379173816885
0.09548738580262624
0.17084851320500088
0.11203785492635607
0.4690194575589749
0.2960349223771359
-0.48882096743152387
0.5199277778537265
-0.3909873641818584
-0.6773156333659703
-0.07246968613775084
-0.08141976767422816
-0.3802895098491033
-0.08100416121238273
0.02759818617130877
0.6204725369635438
0.6057724124957863
-0.311128564669309
-0.00738896829519034
-0.13434539241477655
0.4233654355314849
0.48846885844969956
0.09904035116008103
-0.41984612398809407
-0.0014138032161941409
-0.39008695102513996
0.08140836334062125
-0.7153216916386018
-0.08763584362974976
-0.3388623098405818
0.28520443690719194
-0.07353030676827645
-0.034133043634162454
0.505748901462201
0.04230959787934829
-0.1754336055463541
-0.13184696081102318
-0.02361488010050595
-0.48305551424579635
-0.32240140032812875
-0.28020376538724506
-0.4491088934367281
0.3577037014735484
0.26648416693066546
-0.08280160970114375
-0.2814963469698384
-0.3390501097740512
0.2698422415525703
0.18120794220972525
-0.2795866840540507
0.7091756619986489
-0.16255546469142973
-0.09691203691983377
0.05928204280666342
0.2969852719632549
0.5816389845834202
-0.6408907388945064
-0.5815388978114772
0.07512076671014548
0.5814833155725578
-0.47684260242005805
-0.6044311042691214
-0.0751524160821665
0.17711845357386363
-0.18634074329133077
0.37885505192161373
0.27525646646075386
0.9189963156245222
-0.21949883344052976
-0.09661228045685546
-0.47420998197630176
-0.35038845449520484
0.39957937618462513
0.5783473393810465
-0.31367552628860407
0.47733282270395805
-0.17330249802014588
0.01237434998027959
-0.5101037018083047
0.6426788543575389
-0.08817997987540227
-0.329150389499295
-0.3997911526487432
0.33064630443374204
0.3615046346431229
-0.3752210633344455
-0.6892867929186733
-0.03173273657798101
0.08194627758996559
-0.5139462544098454
-0.14198330317455035
-0.6760476613014098
-0.5939636934224831
0.13258487278748204
0.49073101988460177
0.014466210699660833
-0.1558132528360901
0.04643691744787733
-0.13760040658852268
-0.03242186635311156
0.054218308383261395
-0.42948985969898423
-0.07585707992238648
-0.08862175242728804
-0.41643154814185873
0.07043065363983116
-0.45277941824506307
-0.4041999813390576
0.1081356249088008
0.08548329136421114
-0.05291050275166213
0.49972368254800253
0.13206147614539301
0.3581602764597529
0.5139969154660613
-0.1972986131158291
-0.09244020317898088
-0.0944944105268319
-0.5355910500799479
-0.11260116541454451
0.04708904028753509
0.15991224984976785
-0.394459311908716
0.9294312482457958
0.596630051036078
-0.18994919671911906
-0.22484756572318745
-0.026894961191822844
-0.2777414139523241
0.5441421773009583
-0.030591152368503145
0.017249509100231392
-0.11844414127946819
-0.2842338487226629
-0.35330231607883356
0.0333025343453656
0.16399907938458638
0.04705275915163551
0.09890556154368135
0.17210013431905186
0.16390718657498804
-0.23409602807503485
0.30045833474521483
-0.6185223839471408
-0.4710932755585949
-0.11428716924151235
-0.32415815786617685
-0.041695962084327354
0.19452230975871115
0.5216911797228575
-0.17029606667699376
-0.0009808449194401065
0.5776410309878192
0.23124809010692154
-0.26390066907916
0.5516012176777917
0.8371637948811915
0.4561544563483563
0.24546733269901172
-0.15348683528991047
0.1677371012824927
0.2200291163009991
0.10456900966106973
-0.3785720589913543
-0.5264060614820422
0.10382066478605113
0.30854518369917955
0.20673766240037353
0.16703777307960577
-0.23050794963716872
-0.08692180586521865
0.32532230164000275
0.2942463411866028
0.4423881462199182
-0.07886899512122492
-0.04037858120728425
-0.4788197294255308
-0.07704017034984828
0.5806006138472662
-0.5258928150071508
0.4180557959558945
-0.11044248498049097
-0.0629344670868274
0.19216502681494774
-0.18795551574641267
0.004620519675278436
-0.05436507380961713
0.2972601106441804
0.45951380308014217
-0.6548232704241755
0.6630112722309187
-0.30051792787309217
0.7252391677911864
-0.13541960370579073
0.38126130024404703
0.04910218441764403
-0.013882711697727396
0.546354628351546
0.6127541916780384
-0.12849419338238025
0.35097953215592953
-0.6568950585073388
-0.305017378631412
0.10113982549859685
-0.19777728454807153
-0.6401889146556178
0.36035539234466185
0.9873698041944752
-0.07365046185571109
0.4031431627654348
0.042855793632765996
-0.09243419949727909
0.2118358553118452
0.3059109758177853
-0.03169610052784637
-0.11665460613629988
-0.05862846638154729
-0.2925277212271089
0.16021409858108804
0.1585133525830884
-0.5142216988034491
0.23472933164085047
0.32481970235683333
-0.09004695764137034
0.6469907168168166
0.10849770908575329
0.1247964602558036
0.15865703414913374
-0.46464873434413634
-0.1208251678148081
0.0038975836058620216
-0.2839734259007486
-0.2690576465400332
-0.42427272743271854
-0.3810467866097034
0.22817727371223553
-0.6317834073453985
0.0940443972657677
0.17134835946475827
-0.361002621599958
0.3080635574111157
-0.024032551822456803
0.04632344819692791
-0.11173157482955987
-0.28903435848628134
0.34447170207139216
0.015085273533983376
0.1741149512425831
-0.06283214248587458
0.2047120248315369
0.038706316538540966
-0.3538088173198678
0.07810790090229848
0.08760983512764431
0.2824740546956408
-0.13517250013151907
0.4593853219497452
-0.04736678145919882
0.011947986362214004
0.09748680201357056
-0.8463973832429798
0.45753848002835623
-0.33331368092555047
-0.20984018590327755
0.5279984567823827
0.3285456143938529
-0.32975636679315984
0.30116654418344135
0.17706351847966798
-0.23652855367465575
0.36349201541387655
0.07907270343129101
0.21684991805519005
0.08344612622141183
-0.5200588924834793
0.48081074257283474
-0.6994261910249897
-0.5398884774831262
0.18271724307296297
0.9478541598387379
0.15953332163755077
-0.17134169081766532
0.033274102994805294
0.09849900819404914
-0.052197095893249064
0.17220421996894442
0.5508808366938046
0.04116001097159862
0.06789962973618746
-0.2530105133055634
0.18394789317744029
-0.28855333612558
0.22782360445013497
-0.3778823786502684
-0.3361567916268167
0.334696401241559
0.4692822480098195
0.1830896065632912
0.12444782546866541
-0.049959717419387144
-0.15094482127118553
-0.1264178709508915
-0.25219440018841655
-0.2960119544637548
-0.08896279244695791
-0.2893261963972027
-0.4911989661945741
-0.016137067798331576
-0.05609357701851677
-0.39569805433044875
0.022875196973257374
0.8347686985801925
-0.24128404440044
0.48153609777546535
0.578140075213497
-0.2758243788952899
-0.33825049832861187
-0.18245425152932127
0.43684497782140874
-0.03889370626488397
-0.18820771453961166
-0.17031761374474605
0.05041215609377513
0.04082470950486341
-0.11372622323189908
0.0009986350148634975
0.2891882854061649
-0.03404729078594126
-0.17036827124003434
0.06483875291627464
-0.2409789408412591
-0.2980046328994936
-0.26066986121163155
-0.3292036614667308
0.25591940967401416
-0.239629434042937
-0.28010053976411836
-0.019841889997212262
-0.5369120035239606
0.5125602902742927
-0.18452862798959518
-0.41171113141442633
0.3219653593754919
0.3886809551879059
-0.7938162653153872
-0.4756482123451807
0.05991009652385402
0.35451038453473616
0.24687823254844593
-0.10252495149282949
-0.20214298377493725
-0.5451765433399299
0.3461621479370997
-0.22882178497091565
0.30825784967858877
-0.3861896360241966
-0.33030004563130555
-0.41573156926436866
-0.1858481028723894
0.0198033977092219
0.35410302746715305
-0.3296466847223577
0.4587554789930655
-0.1108309514821609
0.039346264594685126
-0.37881219921900705
0.10598496634937109
0.32956950475792884
0.03330511063441281
-0.33006337618862147
-0.3516357668986938
-0.4644026680571946
-0.11088150419006555
0.2943465395448653
0.6972681915898987
-0.44200840320667534
0.3522146576898539
0.5411079672811488
0.09579260009632033
-0.21214327828794124
-0.6663188512038503
0.2749123933831185
0.00787345062533667
0.63031160918899
-0.19316104514627375
-0.5541621098864326
0.1696834609503416
-0.37622857836228774
0.5413193313697134
0.5586065950735013
0.3631802732513275
-0.5066545723759789
0.7320339025824483
0.2150104055299392
-0.06881031493057725
-0.4474379026688015
0.2566880644546288
0.29362641846951193
-0.22736707463007438
0.32479680880689465
0.12541927283108983
-0.32404497157944717
0.48483759086080946
0.5797320255780286
0.3216778529027432
0.05576026032596375
0.012996442551292899
-0.35386855293233266
-0.07290181060660637
-0.22846980293321584
-0.062028800380891806
0.2705261401489025
-0.378712662259651
-0.024388478918112546
-0.19340554389441458
0.16250151628404447
0.3529291346631109
0.1909127483354234
-0.3455259820597697
-0.3059440027275399
0.5120238515611654
-0.6266055346326913
-0.43965203412951637
0.0020561259405623587
0.04518342564477395
-0.6298241655715446
0.17523808210274952
-0.10436590287658062
0.5539335538405297
-0.38954971737820515
-0.19453164801915396
0.05476644738541566
-0.012315167801057783
0.12315387826060416
-0.4244715055307807
-0.02445298380295287
-0.023688129018293747
-0.18441197248252253
0.26275385323547046
0.9540630964412686
0.37790459024394235
-0.2409002512600546
0.21139818072498415
-0.044259459686747445
0.010480088303555842
0.26441416144125507
0.5706964712651644
-0.1912086061247568
-0.2921466312191825
-0.024914192405770797
-0.16202180106808275
0.3590907056825202
-0.4030089251773469
-0.287750234609903
-0.5471679292400558
-0.3579510811567581
-0.09943113328578475
0.3794069785852384
0.5751131538782381
0.4340736195939477
0.6589838954778072
-0.3995103680089007
0.16591912653584961
-0.16086840721272327
-0.4268049701242691
-0.3029011964631971
-0.3955171981905095
0.18945306668344467
-0.19455313531569732
0.510445209799306
0.5505120914170084
0.1145833256106651
0.2934263037490852
-0.11717050997603239
0.22383373182491292
-0.15955201861940846
-0.4073275721034038
0.3148207329848608
0.16872808766253394
-0.35193592656939393
-0.23388411518201419
0.10030589218795416
0.6548702640407978
-0.29344227193537065
0.47847643147519375
-0.5298644406085347
-0.039734529507173454
-0.49582093686268663
-0.2255404603141176
-0.18359054404857625
-0.3699820371933138
0.18818591958630848
-0.3018905863662736
0.1877370573169958
0.17163637490070222
-0.13968318970991395
-0.09456046809737174
-0.01918674573179992
0.635226574084459
0.09800070195103401
0.1451298160997032
0.5917013112215751
0.27457839650163035
0.21753164152377663
-0.5132116530243563
-0.04737642365275582
-0.1885693940487271
0.04440606531991297
0.6746975471278748
-0.3187642712409986
-0.21963869905767566
-0.12899788729887998
0.14853143412559744
0.337317705525769
-0.2287165230822568
0.39909983423884215
0.431738872328657
-0.27835796230293375
0.11673168560270568
0.3059892553311004
-0.09431853432145476
-0.5154657243412115
-0.01557882266035621
-0.4381372918002615
-0.23110481773016353
-0.6579906381391097
-0.4244600252989101
-0.07802956227021067
-0.3670325637231439
-0.14549204993425355
-0.6405806905752979
-0.13519881374779816
-0.3930196541021718
0.25115847433760985
-0.0866550468578922
0.4659176444718065
-0.152041098452653
0.14129528642924236
-0.6098508922123858
-0.012323965487891072
0.41578165291530167
0.09123381478572426
-0.05683128198824337
-0.14842874347746135
-0.8934819722646294
-0.12304550212920021
-0.1717875767847747
0.16531545419107468
-0.4156036144338177
-0.11634379536230441
0.17733030296337227
-0.12142847609975535
0.02829054882128875
0.01323661476418792
0.8779944996544199
-0.31179648620643724
0.12294121778315423
0.8401693074113075
0.23621573486684516
0.09118318538512388
0.6150862946917443
0.12950481126914498
0.06473547206808992
0.09835016224484933
-0.11413521444048715
0.33393473590580874
-0.440502127424592
0.03992766996538914
-0.5526064425703489
-0.3034486259007409
0.12097618282963343
0.0939479170509435
-0.2748541303354454
-0.5439528398224787
-0.10765626299041091
-0.35481018514024615
-0.349416650221536
-0.07670954878725296
0.2101829344794558
0.27271887566245256
-0.0989794839596787
-0.7697641308139634
0.7754892524736064
0.14582799360700519
0.47425538420396396
-0.14845836429914705
-0.07262710050583074
-0.2972075413563529
-0.39396329455072077
0.0960829906650269
-0.3077861303402759
-0.19489307436870523
0.13060582596677314
0.4822822822464457
-0.3202480865006984
0.13288031597985028
0.07664103765902949
-0.011035890249433413
-0.13841871350086807
0.03361257288787703
0.05799494358230629
-0.41305937635037004
0.1401784837590223
0.6320373426926787
-0.039855746320973905
-0.6213126601295402
-0.2344368712654512
-0.12983689558501724
-0.21795736540953856
-0.21353864029284
-0.014113752717163315
-0.1268588011272693
-0.06287544322981066
-0.06549457043916601
0.14906487004207644
0.021972357217986103
-0.3540532271796491
0.016788863172686207
-0.5163926895175548
0.2313074168156897
0.3679285875430437
-0.33986837440333356
0.1499496083134549
0.5472047405438969
-0.24956292561306254
-0.13461417683659413
0.2595115244787636
0.1613616899954086
-0.026876440368248024
-0.05384024534069313
0.0533887290082728
0.03008934726234423
-0.4238781396730594
-0.30472323669062984
8.80476867414122e-05
-0.25757284792784063
0.6697960353853899
-0.7030673739132367
-0.17031043577868774
0.0030156578419101203
-0.7229568723297128
0.2924288752784695
0.05807077168758792
0.22299551806130782
-0.37571411138490596
-0.24504924012296625
0.039242929516618355
-0.053032557355247624
0.04764282251030997
-0.11188900819059514
0.17419428444570234
0.18783659127138239
-0.22755741558414389
-0.08140050637381845
-0.13290697020687373
0.5600389555851754
0.4519007846244024
-0.08953258405436741
0.3722960346165132
0.02556090458670312
-0.39919153385497175
-0.5874399470145945
-0.09421549331995846
0.21723031375045124
0.0011055731599042603
0.021948591725427524
0.07176228916520286
0.5629354483271473
-0.03567474959019906
0.17702974838525357
0.11349548488459023
0.09982325233381187
-0.00974873336645029
0.4157621337861383
-0.4627812557979701
0.16903645348531154
-0.44695712803277454
0.5323162913887063
-0.22795976519785413
-0.08853458267654019
-0.5701720643817217
0.5533590185350389
-0.19245458258709708
0.34679113026333896
0.49761870883654863
-0.004328944600143006
-0.5145563846254483
-0.4334917709704539
0.10137751829391853
0.018628248896390944
-0.662140697140747
-0.07740179065794732
-0.3482893146656358
0.031001775704851818
0.08447669003451827
0.32117295127503487
-0.19808794815014116
0.16200341571595248
-0.19050137824105792
-0.1824402030247269
-0.2576715362533368
0.2901570011178868
-0.2496393812152503
0.38740772209000107
-0.1631584005750132
-0.01794162465178202
-0.3155417124751087
-0.3960898035652305
0.3446341126991029
0.17253566845657467
-0.014472658670661604
0.0029792081367322593
0.19850425233650598
-0.09344467796663147
0.2237156925863727
0.279274291998252
0.23207286565155508
0.04150967514573609
-0.3146919559252871
0.007179916966187116
0.09215825473510332
0.23948938292311228
0.060878654856976036
0.24048678110171767
-0.5524133283045304
-0.00465632565699637
-0.4561815709830367
-0.21575479528395808
-0.2244535891260534
-0.4604866942612761
0.15788746311304652
0.3055818158727115
0.2712196382227857
-0.014532733830155523
-0.06986203377612114
0.3744728332293953
-0.28758933386500835
-0.13716872540363786
0.6631514816276665
-0.052292789971962905
-0.5242901527334579
0.5620280564306581
0.8531317828969666
-0.5320560549547384
-0.034657841735934385
0.09095167528099053
0.22665067258212426
0.2877433140773378
-0.501641828943398
0.3444189647894902
0.5437254701127388
-0.045248323288194725
-0.7439240976842949
0.2908528731606666
-0.4501722868436741
-0.05323451704189543
-0.4564092874562703
0.20617409595677763
-0.48967917940732486
0.23987362173106858
-0.18010634939662776
0.000724561725495704
-0.4323620931801959
0.2066028099886745
-0.5008307344041862
-0.5044054115340311
0.5012470032495855
-0.31460371539308235
-0.22577375355701013
0.8414024754425178
0.33706851692970047
0.16759325032674768
0.2702525675255433
-0.15122837089303498
-0.24117948568885916
-0.3998779537752052
-0.3357083424718792
-0.0036696513757235034
-0.39002711490134656
-0.1982900403387877
0.2281081861313692
-0.25770817929686407
0.4970739944936791
0.10685364649389503
0.60227542634177
0.20165053708783423
-0.26626689100476314
0.006420979716843942
-0.1066802762402488
-0.27122163151219253
-0.14062950395073134
0.1022580774945168
0.5668386104116598
-0.1299667354311849
0.09600627270379974
-0.20520207860419995
-0.6378005105672316
0.5207611920716317
-0.13759707236476687
-0.12037867785136937
0.0999532759574012
-0.5660529061896095
0.2507753277541665
0.4140218125963916
0.3484413056492502
0.1846862990299155
0.6740725222977058
0.559940563883069
-0.2993187313631889
-0.13550103683585848
-0.6198667039860942
-0.03483111654097021
-0.19547965817047266
0.3294740713359665
-0.18865192948717852
0.10367884792685705
-0.13756326751145442
0.1213518969040203
-0.6282662418895374
-0.06728114656875775
0.011765043793088854
-0.29864038257680064
-0.40161651057152126
-0.2994491585573088
-0.42071097705095695
0.20231462074617992
-0.23284934574398541
-0.06384154473561783
0.04234032589302974
-0.30201950603702366
-0.3321266127714486
-0.27747135840602705
0.031636865513761256
-0.3248627716656022
-0.14227917594416195
0.44161021821245255
0.016320154953566646
0.06890870321307771
0.007245220621987984
0.18646782637201176
-0.20091375154742505
0.1075951580327026
0.10206943508326649
0.05796593031431861
0.6147908447563778
0.13189346801070526
-0.06747786573405519
0.37354975936562546
-0.3395809917422738
-0.020795244357807614
0.6274444917607398
-0.07707573249918155
0.13178918136731288
0.3278791004392825
-0.6876823708510742
-0.18470733356853983
0.6212891530058386
0.29686418741327086
0.4522226484415234
0.16357358114630421
-0.13862973211914154
-0.1955627277847008
0.08977474694633486
-0.8154099959709492
-0.4182403437590606
-0.34064240089190445
-0.2586172122741936
0.09017493560398553
0.1523903687215405
0.29709689472528816
0.3117466763665975
0.2976454716845246
-0.03756200106064791
0.04657175971874898
0.23137214921063023
-0.050410313459989094
-0.16534526830987736
0.3069233837958981
0.46487489052184483
-0.09292521508985224
0.10786753189353357
-0.28605165882140465
-0.3183855023415152
-0.6715098452748934
-0.038214344562132706
0.3407917016088517
-0.18540620657513346
-0.5022815396965643
0.18131891408127832
0.9096745464159119
-0.6305080827173136
-0.3270770729790373
-0.5732993276846541
0.7295716927513092
0.818885992667403
-0.22404401716662004
-0.2704102971167869
0.6021920273004729
0.016279579592701727
0.07267725989141158
-0.527742277504263
0.13110350670913945
-0.1796043668205347
-0.2706844008725222
-0.28254771383737
-0.5028293251342365
0.6572297583291761
-0.3099650465160074
0.29641852761242654
-0.7062900877042065
0.1778026696812463
-0.1063622635790313
-0.1476191055904828
0.4343548066242142
-0.17232550233089192
-0.10519566401666826
0.13944384026865728
0.4417845911527123
0.07019937353088146
-0.3567663268153951
-0.1134669416396783
0.11151034942587769
0.3621585928675433
-0.5830913478756617
0.1645601464533229
-0.2215027040609278
-0.15230900419969817
-0.32561380323046274
0.6300363126660327
0.6218119164585796
-0.22732336619503207
0.7458965588514176
0.2658821123422557
-0.208631120278218
0.09194142808768423
0.2259770956390916
-0.31904899544040166
-0.1260292109388921
-0.37463332165960667
-0.21811755396124202
0.5025213206060823
0.2745073397586314
0.35821833042892975
0.06315105355146673
-0.10298015275947892
-0.31045160654911286
-0.30900697344354355
0.21576683180461362
0.675408860886016
-0.08908067482850363
-0.50568518975008
-0.4649846802009641
0.027195727214236992
0.2982458768572244
-0.18683439990110243
0.03908163332626463
-0.11529596285697048
0.3288871906728211
-0.05805198003745192
0.2727769793808668
0.2866586596812327
0.2412735061852146
-0.48812219443021293
0.18775781098031386
-0.19336463121478265
0.09866341984400714
0.7764103216350252
-0.13870924909217494
0.5196132363166884
0.27689200790156693
0.2001278313443327
0.0662879971008034
0.0692464291859004
0.42191944222136685
-0.1892065494589212
0.06091628440133133
0.03505542225167019
0.18463055177001603
0.8532741561473596
-0.276669861294375
-0.005982808007376467
-0.2572120400643617
-0.1355729024725934
0.3052340979987265
0.1536670594248782
-0.027049379918116116
-0.18529686286073127
-0.6805974199790407
-0.1605952472593277
0.634401222513812
0.36508581605271434
0.06720494105193708
0.07076396087542962
-0.35311693272696815
-0.34096841643531217
0.20490380323820537
-0.3904320931920887
0.1341000507853775
0.0785586676818167
0.5341042655317292
-0.2919420524950688
0.12222706516183214
0.027889467807546208
-0.2886956208863205
0.13249739067741337
-0.19636681290828906
-0.09206918860295918
0.18855925981732313
0.3381918518519235
0.010413111333498244
-0.09341974116811111
-0.17771678822609177
-0.3372615271672551
0.028242472763804326
-0.26967713370661517
0.39004936311186844
-0.33708254017946304
0.2460081054708454
-0.24515092854215856
-0.26800261339444437
0.22671353863697197
0.05732968643601083
-0.3238229014730073
0.3653626296752934
-0.33436294209460143
-0.33160682342725506
-0.2305799316632941
0.22730479169732531
0.06133355590823941
-0.5085681142774584
0.3666430551417018
0.1165224056022749
-0.0024807998225724447
0.09011109488223176
-0.528108878254618
0.38714225363560195
-0.19649694484948754
0.7943420351742635
0.1088542974107505
0.31381561318523776
-0.3208097279557585
-0.05784537697576633
-0.0422324855913983
0.08511901070185436
0.14279300795949731
-0.17409480049279055
0.1090214843865816
0.22607520625185173
0.058297129128338065
0.5764303428596809
-0.8442442220143259
0.30033359053710373
-0.35531450735396247
0.06187047343105981
-0.4430883953519243
-0.05007837284643991
-0.14270019576036327
-0.4101079560233424
-0.1785679861356438
0.02061699611816961
0.5107051946108392
-0.29346382418741757
-0.04611912016732739
0.030144192080842413
0.3053997004317573
-0.14687259928290652
0.2671082718476521
0.31755776457692986
-0.31339399523638095
-0.22683867878386363
0.16122028961582116
-0.08936083039714428
0.21435879995540494
0.14564168783058212
0.04463038146358416
-0.460926748927642
0.01609783393533167
-0.013768085953697702
0.1345125360010014
0.32693687652189446
-0.2408555350560891
0.5565370339655124
-0.33017533430932444
0.49227237579769334
0.43076467351826897
0.11026492830926159
0.014773483443930365
-0.29584466525652414
0.4251721068293517
0.2255602585126345
-0.08594775351150064
0.40170466888086487
0.06292914126579331
-0.4169700092183404
0.026786004562402682
0.563227379799555
-0.18026698035888494
0.22386967768458094
-0.16614272373598302
0.5864605089396603
-0.34302987514348326
0.4931755049719016
0.9093493125171572
0.47024943841102346
-0.07873904361988007
0.3477972046383078
0.12391576573129276
-0.6864142445489023
-0.11601410627281077
-0.4224273740144856
-0.9106854016900954
0.03665142551111698
-0.3258766525274294
0.07310938794874906
0.04624748488286781
0.5175776237397689
-0.15268039674039677
-0.5274589340993823
-0.08664482458233735
0.3342526617866478
0.5559203642924463
-0.4112051781832594
0.5576749701573294
0.5098915485692488
0.47870652482347753
-0.07153127100384633
-0.30993700921365075
-0.20681327048313713
-0.17300784509642902
0.10834993773961504
-0.082215076589789
0.02937872316495884
-0.7238008664386131
-0.2147127210171774
-0.4740979045537817
-0.09738832418639655
-0.3587613010472651
0.17997698979477492
0.08471300350181207
-0.22863048253280863
-0.37238064595020304
0.6280096634536226
0.2261426802837736
0.4701054507873259
-0.07681534178098277
-0.2314509041271045
0.17062372514406984
0.27956445066613983
-0.28594366042188196
-0.00033082751807378847
-0.08322326875019277
0.21022733105744332
-0.27076013445790037
-0.0338893053785092
0.03129043220108929
0.42295201290219053
-0.6192976642590027
-0.14781148325805735
-0.47850987550301316
-0.1347095067584073
0.043619499264550256
-0.1663477435559727
0.4190758740942939
-0.2834954244751339
-0.7524247966811372
0.4158231720559229
0.365860828891103
0.31786775049158744
0.2947236771666144
0.3581611536019399
0.11195010336234998
0.2447385816195834
0.566633246634949
-0.3391609601840734
-0.23145093094504804
-0.12772348439975073
-0.8111573919031185
0.38169042177175977
0.09554079184016231
-0.3536527405921638
0.43950393724604286
0.2506664054382441
0.3022313067990466
0.1018331479568387
-0.568272080467141
-0.2288312137924217
0.045249375220164166
-0.5383298773675886
-0.15653576187172258
-0.5212175246293353
-0.27487280573547235
0.19390631249165183
0.07823385498599127
-0.22567261756047685
0.671531495170559
0.019352300149274616
0.3340691270851141
-0.12342189723215792
-0.2629538597831546
0.22746580501678057
0.4665913323802632
-0.6166826173486681
-0.06780315717585562
0.5580074209956217
-0.1557604861920059
-0.5402996224590281
-0.29842799805478576
0.03540600173753685
0.41374100974824807
0.5123893582137644
-0.4731710626714147
-0.0021372619065995915
0.13139350779468853
0.02708568008455503
-0.21298809768517424
-0.13291775144581808
-0.02691144208025723
-0.5611875570672508
-0.12872916257679787
-0.16347508720245604
0.2691195607899267
-0.0859325802303842
-0.11321724345728931
0.4083684589344141
0.2536955251534255
0.12238547933777798
0.023660942753559115
0.14922702083554357
-0.021324223113759224
0.43110638518535593
-0.07656314441392129
-0.11230248596478688
-0.4936038591938366
-0.002638543432733589
0.5532709327008836
0.3639000500476179
0.20613772929029728
-0.1053733483956577
0.13094754434689587
-0.1807164051484289
0.4742446328069616
-0.5392682021438704
0.34554460683249283
-0.7125566939386594
0.06711495628081342
-0.26789714356111666
-0.010294263158211837
-0.12808972763007748
-0.2172053887287147
0.09133493562730689
-0.5156959325206699
-0.0993524495012914
-0.5271306787220978
-0.5100478561749786
-0.13405736815373848
0.10328444820794311
-0.744970958370089
0.8992362730198562
-0.14101367295654615
-0.15334300771115572
0.14889530886075447
-0.3715497415178407
0.6309032061068047
0.26423944665432714
0.37690374893701173
0.32312958945296616
-0.23572890857555004
-0.13668032796154972
0.4025098453083528
-0.5480729671394372
0.19816251033243193
0.053583561774637224
-0.11430052091976763
0.23558500031007643
-0.5590596071258456
0.506480491763443
0.1116036320337167
-0.5752709608868245
-0.32317702612200244
0.39083686023045017
-0.3666808004013779
-0.04168114498252559
0.027300276949301122
-0.1970458424706481
-0.038838094710600124
0.171224019053705
-0.292724616704748
-0.25527502206110614
-0.2501673130113619
0.006056198582572454
0.35885810541216023
-0.3351587375287654
0.1496076246669351
-0.1160083374164823
-0.8498108260203827
-0.33612843512407287
0.18186412583023584
0.2522331054752083
0.35408180404757794
-0.43771942970650124
0.33295135750354665
-0.28257778028793085
-0.12664120842267307
-0.059538744349990604
-0.3967400596690921
-0.31634364996329156
-0.32436556749529233
0.013534305016570236
0.46387088423703204
-0.14060607146910453
0.5249363560670334
-0.5861918933620228
-0.1382783041096429
-0.19914740955073315
0.6741845210430343
0.32700559190829437
-0.035515458036032246
-0.14772069550074612
-0.38568271345258925
-0.31552988617729466
-0.10522784889234392
-0.35991416093612044
-0.2879636129170739
0.48322030169007274
0.5823330060881607
-0.1651558548137513
-0.12734876220680966
-0.38625646710429634
-0.006967358792619835
0.08566588787147365
-0.10139208002326601
-0.016656061529018447
0.38362989717564855
-0.22033452665750333
0.08391548707069187
0.14871350306360695
-0.173656959626109
0.5724204269616574
0.004537180378420284
-0.2878777525887462
0.4289533344003267
0.049424552275658236
-0.1302360147387456
-0.0019189406750392986
0.1948097911435956
0.010527067710769514
0.6776499488385527
0.8666256837853047
0.33808560874969984
0.06604366187664594
-0.2820312372220869
-0.488115935718925
0.02330885035149548
-0.20642659045054626
-0.08419639760107166
0.5142426463649845
-0.041057740295064975
0.39288032371237713
-0.5356123856277429
-0.17895679146918633
-0.476493039642241
0.6036563642153243
-0.31435996892649803
0.12690387157605854
-0.06439289071824178
0.006156836449242086
0.06883824885797575
-0.24421941814658643
-0.42259245965750225
-0.44256417911457374
-0.13772878523344148
-0.4833726957736095
0.24907290358997233
-0.2533133489498773
0.28293748097186217
0.28403548719230487
-0.03652424628999318
-0.2365918067690474
-0.12538975774341493
0.4048505323500678
-0.022796451084993896
-0.08196998324871771
-0.17525812062200438
0.13612992028506038
0.3976898921644271
0.03126626190414214
0.23023606962736043
0.24189183182372806
0.3876696011236032
0.03549704303090744
0.4567078192346686
-0.49346051584641165
0.06988060155273475
0.3774030525950277
-0.40528471873008853
0.12078998910734656
-0.31497743681158963
-0.14832664325499575
-0.21254544558199712
0.15923834135578874
0.04943139241412177
-0.40189977269022564
0.4640346784098015
-0.46797782211118655
0.31501030351870296
-0.11262017246262968
-4.437388168397245e-05
0.432207031051032
-0.7514740287478977
-0.389157603325956
-0.13580969215630662
0.44901930338768287
0.3566068910761678
0.5170479899682469
-0.09902669966114251
-0.21600274127131905
-0.33632814282169693
0.30406573318476376
-0.0975563451864325
-0.2738532717650925
-0.004664082479144746
-0.4855507770741412
-0.08804883578432304
0.0813561350654593
-0.25757954969356484
0.19292912890664504
-0.684891064242871
0.14775868463026756
0.12692405681204944
0.4422900970098279
0.17840175528923213
-0.46024020452027986
-0.24815464123014816
-0.1392519963094675
-0.2977798987558227
0.2673150637463876
-0.5186098488208726
0.22195289973323581
-0.07092052696952694
0.3391523732534138
0.1644312787891191
-0.3768677923264467
0.3331927984409371
0.541501143722979
0.7219241478201678
0.052626070362567424
-0.40384673899473095
0.04352494934580018
0.6885203900869005
0.4573064380470374
0.0547699397659604
-0.15238947473395198
-0.11157584947131226
-0.14988598101578704
-0.6929292309882644
0.14019597399808267
0.06629362604550408
-0.13621170142334965
-0.3327030462188059
0.11814531478014587
0.43077145582784565
0.06015282998894331
0.22716436255078193
0.797675596217078
-0.15824519708258616
-0.4834986518018622
0.41714595267030813
-0.1237931473031862
0.1156009185103562
-0.008587521916306113
0.14505248910201585
-0.1544307855819109
-0.0866573177690169
0.032225262871767336
-0.3994626750181656
-0.3660603597545566
-0.1867199977993104
0.19631489923309633
0.003088141530210933
-0.21259228167463223
0.01154212778851789
0.014169607018361141
-0.37603759919501134
0.4179034717389728
-0.1942369498771868
0.33815145479324626
-0.27481702123569607
-0.05535331671800984
0.13206411590888148
-0.043418673627459624
-0.1822253145695128
0.060641293107513365
-0.03249606060131107
-0.19463438419019963
0.309050846174991
0.3023104325851227
0.026150993124285246
-0.3753587296661913
-0.12962000979116012
0.2222043023380532
-0.21124254243247245
-0.42650393461168973
-0.6168304649951826
-0.19770647565085928
-0.2023872473109438
-0.1250512129065158
-0.1945944609952043
0.49093983252364437
-0.1833335222998608
-0.7199745642064731
-0.24961542738699735
-0.15123257128794756
-0.16340864535032595
-0.3589988354783472
-0.32498986300091076
0.053863522567515636
0.5329343495423854
-0.03015214489636427
-0.2425646576126069
0.3585380174520253
-0.31319062088080285
-0.08488505651249177
0.047067811263673966
0.4235122562145401
0.17397411783109923
-0.05073204586138236
-0.7263649556225745
0.3365322814766544
-0.15357360783574273
0.27954348458900136
-0.09817126723083583
-0.14488014006971084
0.1997719014710743
-0.41418010300073616
-0.06021534226925014
0.523757068861331
0.059857444661627346
0.13641502565896038
-0.2379664300726502
0.07967963354362739
-0.5670322117107355
0.8131023228088252
0.2115255400907152
-0.25725452215510514
-0.015607581281532421
-0.46818763902106686
-0.260722711791437
-0.11329105982088256
0.18347979814216922
-0.41258602256623805
0.4747679484222839
0.17287284854277768
0.005202499371271385
-0.5568678399966993
0.26410342023734246
-0.376783159124743
0.4447455149913596
0.5346021025408197
0.046179271203161155
-0.5931069220488988
0.11697109795466933
-0.1060516069490508
-0.11443383604431763
0.182211498277044
0.2992750657070071
-0.12923073639834667
0.16461806954209893
-0.05699349284290562
-0.03596433138968528
-0.14996959395704723
0.05667218332400234
0.7826985805060429
-0.051497338491131396
-0.08380089813836698
-0.1216858307657555
0.08503258961775606
0.08522177180570753
-0.25909300012876113
0.1873875115413501
0.11398883291748915
0.09904455682467088
0.17781707529872087
0.4151346121534824
-0.0436172364644527
0.0401685876276657
-0.4638013739887398
0.37492840679407446
-0.4160737538721851
-0.0471489162434075
0.05983096572742247
0.20252746913825423
-0.1948740700869335
-0.18327802199445345
-0.5510531509591813
0.07535926788495957
0.4460841642874437
-0.3081159344078993
0.012599422689080009
0.1044225210567832
-0.3139168023683108
0.051641242313794716
-0.09879256083049774
0.27378994515014604
0.07709400900118356
-0.2645004839262383
-0.016774792094306303
-0.5522152331121281
-0.045289739563425926
-0.2072973646562995
0.0458449782616018
-0.3225568315332821
0.28579963666137126
-0.524168669108229
-0.13118313349212007
0.09363010143026354
0.11225681517719388
0.07879176942221909
0.37938892955990594
-0.4446260334741967
0.23502512228578312
0.2154492115843092
-0.40542849508526874
0.18577762107367288
-0.011589799363373465
-0.22444451091511614
0.17388284470481358
0.461827523635763
-0.07799486873717884
0.2628581438682881
-0.24396051926052922
-0.19406639003948672
0.4925413233000075
-0.031820798190146965
0.23441204312275993
0.09905103176692794
-0.3308810064357534
-0.0810110070777649
0.32342534512379983
0.023299890574969753
-0.3407622009337079
-0.025500155082090394
-0.7165740844548318
-0.0022235577438379575
-0.38523158927460704
0.20276696410965234
0.02503149626818887
0.2986116174667324
0.3609287122837798
-0.14937254426293792
-0.1530153669581155
0.3383396212031963
-0.007610153186833572
0.153863680501267
-0.15027830874530126
-0.33359463649320487
0.42461753829415777
0.08309771857670568
-0.686854302153297
-0.37085219843234135
0.020157531450942692
0.016455392563075155
0.20800520987796783
0.2146739905224427
-0.5851311284834317
-0.5319935511194909
0.03861367276200832
0.46527171765212316
0.05912108302521471
-0.037329870896285124
-0.45138144693150833
0.3391422774887029
0.2947002887708677
0.1618498548421533
0.017515703640411454
0.248631704797706
0.44164631107322766
0.009844299437877197
0.7779918335087516
-0.4506180751168047
0.0026684793862004753
-0.3058592215387442
-0.5032562238854547
-0.39418058094680386
0.2589159778003717
0.2755347736464711
-0.46039408972717566
-0.2975863689567842
-0.47968785915353296
-0.5317916871419877
-0.3305824827405465
0.2557305594724363
-0.2523758682299745
-0.2562896090572097
-0.9500432337035044
0.585822429125358
0.4014759988953848
-0.3022919237463037
-0.15017164051268542
0.2493581928087356
0.7708623523940301
0.3094396396332154
0.030272958258023838
0.054334578189878635
-0.15413529541706317
0.439432836549047
0.003154854692709544
0.22056249771775108
0.2570566084837553
-0.46773883501915403
0.10368171233621308
0.1912480464947272
-0.31986202636784616
-0.3102261499052667
0.09707722703110883
0.16793282428118272
0.0051942243485699055
-0.07586132174266234
0.7205388092478614
-0.5903504700150068
-0.618737564648808
-0.790947828579587
-0.018918270747014524
-0.3522614123804229
-0.8708132199901485
-0.5741346724454077
0.32504344491480586
-0.2311776449745761
-0.62119635686076
0.15865942785598777
0.448717009835207
0.34097987270319147
0.808909644826915
0.2889371166249464
0.3694354932922891
-0.48364726273420616
0.44190504389373064
0.28885508808548027
-0.3004052930839276
-0.07524373846116938
-0.6374800710111779
-0.12996400815562914
-0.28230762221324596
0.40701122341357987
-0.31578631987488487
0.07399083249867663
0.675343823648682
-0.004499352862974869
0.45705690265564597
0.14270038378086264
-0.6584238544383478
0.03172684354764337
0.15215603416765672
-0.11360464169359163
-0.6345497389806616
-0.24763156355525898
0.34453610055630335
-0.6729705179607233
0.2111942494317483
-0.34296736955174156
0.0008976809150230533
-0.4962237665306855
0.3088032086388435
0.03551444175609991
0.38964631086531304
0.2041175667044538
0.2945454538702282
0.0298516739529699
-0.03921931307616005
-0.14835836346541637
0.10530226577958281
0.2425716231638008
-0.2008711820940756
0.12781125396557605
0.12359450709522748
-0.2070251557560824
0.02816996512224513
0.26229250445362456
-0.2614102271959958
0.21271681175959226
0.07427133654798286
0.11771247082421758
-0.34249993795187084
-0.2682629271494044
0.18409965845790544
-0.2216426752367043
-0.00724064912889593
0.16037483294311697
0.42901393242005004
0.13518846042414526
-0.22538249648839515
-0.31557940558888364
0.08302818332498835
0.36877637409118774
-0.23878691045050787
-0.05482564140432806
-0.09289924396341963
0.28434862526840726
0.23425503552468804
-0.2610323043303537
-0.26380020290369416
0.2840976085921734
0.08193427396988415
-0.29411414791071994
-0.12892028948371614
0.2545592212813967
-0.21753914199432378
0.03741488070838953
-0.043691580445857
-0.21861687382939313
0.13002216053490254
-0.13371828026721802
0.09125635424801236
-0.7178806340750138
-0.17168541456850092
0.22116973311085059
0.11548881038078106
-0.2694721146234843
0.33176100658135144
-0.02211073490220905
-0.20695443226150192
-0.10359739447814982
-0.22643945651909775
0.20545509559848033
-0.2036924453361864
-0.017851624748876325
-0.10229970562694514
0.30977675073144745
-0.13594460658752253
-0.053679062112416985
-0.7286693875210679
0.2006919894062256
-0.07682715318078266
-0.14480571577504087
-0.011196041555167029
-0.004290016311873367
-0.11715628901067791
-0.31394163255164154
0.10470148556798138
-0.0893716746106543
-0.5790144983692602
-0.05399634836081024
0.18646151236627795
-0.3327287144300563
0.11879947584579445
-0.625356392219223
-0.5691892963469984
-0.191273447337235
-0.41269671369979066
-0.43311973962472594
0.6132018742567769
-0.07103276943913343
0.26124662579616725
0.1359547976288613
0.6646958658774141
-0.44907434820938363
0.22904723238368058
0.33829141673854246
0.36021553380444044
-0.1799249649227201
-0.014864927596738672
-0.26782871240335177
-0.010793640862561854
0.4531616240991223
-0.5136310957980653
0.5269630779971087
0.00919950202418787
0.24499612095500686
0.7726364479639524
0.15163825480390078
-0.05750982821975922
-0.08128544878531717
0.0348752858003459
-0.5380496223140591
0.07446507457967276
-0.5084632871711893
0.07666134060974734
0.05807906358129715
0.2654407776193422
0.1819147738651473
0.08692754038985856
0.36201029554469755
-0.05909729139419769
-0.3041921696000449
0.5290973641635563
-0.4778991303248878
-0.11787085743943145
-0.583104782407404
-0.42180350437193287
-0.1530387415145301
-0.16348699154548932
0.5416386944473957
-0.4350498411816508
0.08159728018041298
-0.3415076300552536
-0.0389969046599645
-0.3162925553715114
-0.12268585822719486
-0.3078650697402722
-0.14099205850915383
-0.1910637682427122
0.2483698436885696
0.18965448538732466
-0.19023213138166695
-0.13809491498994392
-0.346366141717311
-0.43948281553760477
0.5924780177874817
-0.4732453740704399
0.3789433046817322
0.29291222369906866
0.09713601242297758
-0.0969392028637532
0.24466665205006685
0.33761692243323094
0.026160763278792812
-0.6416075328259824
0.10001992731416902
-0.017625964353837228
-0.5274862921009912
-0.44711545189626295
-0.2499897244017907
0.38802894908167135
-0.523423756214599
-0.24643219738725639
0.17991493692062682
0.021446177147298365
-0.009998896177691566
-0.29469065468166156
-0.6252921891273341
0.08266560086023943
0.3951651352214465
-0.46231365135836033
-0.3160557337164142
0.09819309511391329
0.10527721516186171
-0.29084052302052166
-0.5371772801709331
-0.2934000909087454
-0.009743425488496707
-0.24242776446321854
0.6012914934898604
0.04049683220507434
-0.19544996659974204
0.4385058496455976
-0.5887054510714065
-0.4552564410971447
0.625868762442085
-0.02049179065353136
0.18459214542113553
0.04007758876304841
-0.6131646212687405
-0.3072725845621626
-0.19467648364597287
0.08094826987554249
0.6187024725519391
-0.2625371161167937
-0.3178923518924989
-0.2725405953720361
0.46412371793294754
-0.05895326364827701
-0.390280186354296
-0.040031684296967386
-0.1589604058520117
-0.028455922524630105
0.14027053567735184
0.2897685659389512
-0.4956159355524252
-0.4893487145759838
0.04115737776018286
-0.26714620919030707
-0.5435423924934449
0.302933505982895
-0.0795817502942168
-0.26182617020410287
-1.3251142520718808
0.19540939215911277
-0.13682925149091493
0.26446266621849274
0.2846012115449744
-0.6388010978823052
0.0015511267129693872
0.0600635682994
-0.01188637913918121
0.6433521007794759
0.015552008805892177
0.23387483167590342
0.45828088805268574
0.1772960455543923
-0.3612306222677988
-0.028851390064243785
0.3269024594226679
-0.23709293102589143
-0.04119771579098029
0.3946862632013143
0.21653235189655293
-0.5270143655427949
0.1427774530331885
-0.08562122336439472
-0.3640806275011128
0.5246920301912585
-0.5913071068662425
0.3870521451733137
-0.027344396250486076
-0.15391325972123462
-0.07211835658568047
-0.07119830508941345
0.04164682466424005
-0.9844844047097099
-0.7758442550471875
0.6056868775221145
0.4832148272942712
0.5723864891058156
0.1992419109953147
-0.38319127381328916
-0.013353594469623486
0.01902455217467296
-0.0006704742434604253
-0.22278270707861042
0.6673120036283868
0.3166256071010683
0.18500897342025233
-0.2510023946164569
-0.3178674351837712
0.12671765710197416
-0.005881405361548596
0.6544833617285118
-0.30568233262027455
0.14256639388042916
-0.39583530150429974
-0.32126363165524224
0.19404555325527792
-0.08910175644666737
0.12623008153249304
-0.32487698985374086
-0.17243742889551497
0.19018298765349664
0.05388507859782289
-0.25736845551310483
-0.42730541655856397
0.2362118877446656
-0.13577256268297422
0.07608893970821785
0.09957425663235336
-0.19327535082336786
-0.5143740910948844
-0.07355438923857967
0.23801687088852086
-0.2921920930407654
0.4782002011401379
0.4722717426710974
-0.19477355739101665
-0.4577615320665422
0.40702706886391743
-0.05045718129943091
-0.4259519025752149
-0.2681782111893632
0.07680222601514888
-0.2867514021007039
-0.12279338497021265
0.46406729249058654
-0.36430120831531576
0.8191895491682799
0.3499005804070086
-0.07472686813445623
-0.2624755450212988
0.03196235288843296
-0.30522330605408976
-0.16801365272697183
0.29394010392589875
0.0892314217456271
-0.3070184590756855
-0.1996290001277765
0.6981017424811758
0.24790420334484334
0.14200432420841438
0.6738103489489828
0.0013798804430958655
0.05759532380470399
-0.3055680779167345
0.051280741809027544
0.05952014111310677
-0.26537771086090667
0.3350039949685092
-0.266052182544968
-0.15612076450789342
-0.15933115130004946
0.5359194880267883
-0.24563432742069238
-0.1799214957394442
-0.7595798244680804
-0.030835926165380945
0.12899954623341414
0.3026601608641064
-0.13691055425654072
-0.1365589473505799
-0.4284485689046387
0.17699362571505076
0.23260440487399245
0.1725929319990548
0.17153994755578375
0.16928528582634225
0.5737413529169326
0.3522032658554045
-0.41941494635386917
0.1770617224450693
-0.5617213057278038
0.07249145313655452
0.015013516533429437
-0.3298742068344714
0.08483106427619207
0.596308172776139
0.3648310022282058
0.2315566637759053
-0.22245071781379988
0.02390922120669392
0.3268806010058653
-0.02528434391057046
-0.2623297615607891
0.32358094577646856
0.1879790834389131
-0.029725727707325296
0.13597966902405703
0.7238193590860862
0.12130878082734342
0.48907941478118677
-0.1966375497790311
-0.04832423248438623
-0.11036832627478191
-0.04481434394626801
-0.38601248808505706
0.6759389195129908
0.20146539523860107
-0.39030735816162204
-0.7262168604512995
-0.10202599845687806
-0.22687129302442396
0.16790761557927678
-0.1344537198840442
0.12726791421417344
-0.06144315839842928
-0.14319087014458937
0.10202366052181204
-0.5014123296658226
0.4391101013268772
0.5408166068294938
0.06427021099867475
-0.06500897603161823
0.16395118932636557
-0.3361522880747085
-0.278284983687322
0.04390527107455316
-0.46621471280353943
0.08060406071889646
-1.0127230640029867
0.11082794860469797
-0.1629955360772195
0.06506702955790408
-0.23308491349636581
0.4619127634910991
-0.047929378320784304
-0.7010268691527504
-0.40372045475533236
-0.2986412391099951
-0.8319259662884569
0.1594074940000673
-0.05957599452038656
0.02644969142788257
-0.31678140196363797
-0.022665245900243124
-0.36795182089847367
-0.4343491120439838
0.5600789427512812
0.11948522494694512
0.3379659154609569
0.12471835616268573
-0.04908931017988051
-0.1767316807445632
-0.06301832908083288
0.013379492589437875
-0.5602536316184038
0.44307672746338916
-0.04264930955346552
0.056871627459712054
0.03610626110487961
0.6858765083306502
0.2119374172906454
0.664264934209262
-0.3326160440156401
0.5192690154213463
-0.5392785462906663
-0.18520124750452413
0.1443119838593103
0.2842359657743457
-0.07502183656081401
0.46215842669094576
-0.085621681437707
0.20455532139874436
-0.03412394119526209
-0.4402275525863002
0.3464260887384599
-0.17647316535555732
0.017766030316518428
-0.20368051825324318
-0.7229305538670024
-0.6976222944675088
-0.45387428667015006
-0.14776187072831648
0.40355022725962336
-0.24981359329268873
-0.2862920262139256
0.06501545353457952
-0.2855692908608933
-0.5167183664961905
-0.7882722984778734
0.283665908513879
0.2982365885223998
0.020912317503934467
0.5054957690610764
0.04649053244668795
-0.2045328145445305
0.5092386573980427
-0.018365263550144176
-0.027680773199500033
0.02605675667154988
-0.34300204509099735
0.5541209106776168
-0.6712383621979534
0.21874942298849318
-0.6942994313483559
0.13090218635582399
-0.23635561516352135
-0.24791148428081536
0.15756172920541484
0.1243917500444881
-0.10882148094898436
0.3287539475759664
-0.07641193951996011
-0.28295467597933066
0.20489407784193064
-0.1895344902542715
-0.39372161719344856
0.5696695503245497
-0.1081505008108333
-0.28510080938940463
0.20217522589512169
-0.21293286241438591
-0.16702311796654346
-0.25273879922990794
-0.294428160714974
0.5901363995460137
-0.2412911798013321
0.3694014666261318
-0.2935338882205634
-0.236773647305098
-0.2944560970766704
0.13742135407260642
0.41854992021751836
0.144916863804583
-0.5361669124343962
-0.07485944217104222
-0.15780559454609128
-0.46824722420738896
0.3912884105351638
0.04909952665370207
-0.27458107815183114
-0.350135854160418
-0.008079397304641535
0.3825945500071805
-0.06404325439772639
-0.27852985786747064
0.2083752571780768
-0.5455472559109873
-0.07413052458257391
-0.3910967235981895
-0.09087844614340228
0.21945553969667372
0.4151564893548734
0.48966834779473656
0.03766326210105361
-0.3295764143743329
0.23813427190231312
0.004885422569379038
-0.06052716930544836
0.3564001379769824
0.7925396133988195
-0.6458621170403196
0.2844937034882578
-0.058791558219961175
0.24491221352012682
-0.06630368476521657
-0.26255782916151604
-0.32939993353183794
0.3358528606573722
0.2275800071924306
-0.43185374956345
0.7039321045566925
0.24192411169350242
-0.1614643172906375
-0.31878269553453903
-0.4244132368687784
0.151418577382843
0.019134756859738176
-0.20462311813676273
-0.1840517515401764
-0.7084827517615899
-0.4513529443498951
0.4506403347912863
0.30447490046796444
-0.2361332051692676
0.224982074976206
-0.08637479296028122
-0.4301917824219969
-0.5022369917392805
0.4855374948613032
-0.0060126238811233634
0.29681231056345664
0.10445372436835272
0.2545923688985616
-0.1434123197251892
-0.0374206344481997
-0.2834776902560325
0.09647778712341278
0.7982558523050859
-0.29640896867586825
-0.28160854757112186
0.11398081745889943
-0.4323116915103059
0.20977325064297714
-0.028396355996927594
-0.09468404704197458
-0.6071756082171159
0.06787002413475618
-0.6796190286798867
0.44215404906473554
0.3918324444069538
0.06826211605818894
-0.12487134847555109
0.2317068381853477
0.140955805774506
0.2779727065362508
-0.6200170385974113
0.6057578308012872
-0.1758211850337652
0.3268705605609281
-0.036905248129234264
-0.19240137804810845
0.007796917773148961
-0.21977490524003152
0.3307186447164562
-0.5308985597661032
0.16810802588177595
0.13574937664172587
-0.2590274817095186
-0.5791450356636297
-0.1286683524038395
0.3951954609564382
-0.33923055677522573
0.006409870841628849
-0.08227960223783126
-0.036140453054008585
-0.13511874948721056
0.28486448861179975
0.12621479267866725
0.004162847862395266
-0.34526051246126876
0.13031998524498156
0.20715055214313696
-0.2329041092525905
0.22163270097241647
0.2405285394901777
0.01496279954425273
-0.20452656234930144
-0.08155347963188436
-0.3112715654202114
0.9849517803881072
-0.474788762025113
0.03960880840938836
-0.5155838871615719
0.10155932460211127
0.2929575654513111
0.13835550814399392
-0.6258868189201011
-0.09039024863007888
-0.6124507201164933
0.4547027909694515
0.33751826784016614
-0.3263140367006545
-0.5029890318170631
0.38712455455776107
0.486750100708262
0.1625007450956404
0.34380349301033397
-0.14746252565994786
-0.3075368602033485
0.16999917437224288
-0.5628676461792951
0.3438553225212036
0.12786124489146564
0.38124892572178665
0.21868724189176664
0.4608068899952451
0.0013966914262974243
0.004143394278877009
-0.05962173378892586
0.0914746596448979
0.046447318088064224
0.5358783677551112
-0.12251980035629986
-0.1287634155025903
0.2582094207749622
0.4421597677268262
0.7171298813394413
0.03856530531088058
0.0047979359434990225
-0.339803203154447
0.048232745352224486
0.38992473660411114
0.09206158992043172
0.06623099809060817
0.06331835693306286
0.1447081500742715
0.010817041694206088
-0.5933966181743336
-0.8815709971684637
-0.2125773976784825
0.34183062967270955
-0.2885029442433064
0.3864230391968097
-0.21935292036459117
0.3339192947123566
0.7008676320057694
0.1439970829508452
-0.035998263299000896
0.5508644514280526
-0.13773582728991204
0.10336442626604454
-0.33479972889227605
0.06721311816753324
-0.6853767762694501
0.31002417351628736
-0.29842922197006005
0.0927862686798655
-0.12017603484285118
0.17160880880909682
-0.38123472506893424
-0.15483682551156666
-0.32757264604198955
0.2414746248297295
-0.07845480017266791
-0.046290991708423296
-0.350677674109574
0.0018648877888216714
-0.3525766233196408
-0.07405962749568401
0.16516415425549613
-0.47588862367496043
-0.2541672894441136
0.55842527267255
0.3931059163405674
-0.2816665347290245
-0.1559314717967298
0.18087417329331418
0.43754244474231196
0.29662687150445677
0.2923135922645431
0.018699936288278585
0.15861875063863368
-0.15438435176044296
0.3368578691163647
-0.3358087275446503
0.5965342241128008
-0.16179897661135123
0.022654291166058552
0.6777986319743493
-0.07262713223158368
-0.4490915655487897
-0.2312214759414195
0.25593972649411106
-0.06309789590292737
-0.10188230766280343
0.25661830969067734
-0.4392853496070928
0.124856354760352
-0.026955281490288054
0.13455390480952797
-0.23433812001560528
0.20294962061938612
0.20649811888649866
-0.08832640540574527
-0.08821726873726361
0.09000558226655848
0.10545255396408057
-0.5875812884408356
-0.15711644269739358
-0.17131278574136266
0.24768311195202522
-0.3592070721879534
0.6107971898317884
-0.46601771066910697
-0.12212465949117057
0.3229524783472269
0.4926943152023916
0.2203899453523543
-0.7300569833963547
-0.07686128580555819
0.18260247935374663
0.3286829819035937
-0.3510911323352449
-0.13153863155108597
-0.04585436707158393
-0.4208046662982841
0.6294426519171512
0.04395543625667636
0.20334798135826
0.048989582675155616
-0.1559417392394404
0.39741367381340725
0.5012228806640363
-0.7767785201058206
0.08890628889253696
0.5494539320113183
-0.15448728415605426
-0.1320083567317759
-0.27213577540652795
0.1970457034522575
0.21799728174151412
-0.2737203861276397
0.07970474347379836
0.09625813959552929
0.22035955907313623
0.1494239208696272
0.7407107716038493
0.7108917549123294
0.5227727483035233
0.029751438673450464
0.5169227616926043
-0.30533164079841696
0.4503836787641966
-0.409609426839263
-0.867864501144378
-0.2736818116300518
-0.034875713983523036
0.1323152466274962
0.19231089138811486
0.05879735152272533
-0.2262643582853788
-0.1458235884247765
-0.43112127011272566
0.367091395876757
0.30072162984157724
0.7557262777320318
0.4237997810068308
-0.3002193015807385
-0.08694483460560566
0.14152875792848965
-0.26911506583629446
0.531907268325336
0.034557426540342745
0.08845057280806448
0.2929681753716124
0.08179865780186156
-0.30545250071136615
0.3614584974645113
0.27438919332026457
0.05813753356675259
-0.5850204678961574
0.17497274573700505
0.0006706928450068168
0.10459743788078052
0.020309008470940755
0.1298584840501458
-0.05539728822741863
-0.3231270570398362
0.35952032895970343
-0.31919135140820615
0.12033147787576587
-0.135263412606466
-0.20385955178348283
-0.8084981234530396
-0.5471137447700224
0.08648957748705041
-0.15354355731111285
-0.013426900375752213
-0.1397999748046966
-0.3708209802061972
-0.320923161821887
0.14523924955585452
-0.46790590745010613
0.44930354308845133
-0.4223157110973197
0.6591734928609115
-0.35568417915533074
-0.14057176243632383
-0.2979777531816018
0.15152025849499884
-0.15009177082849295
-0.7827328319070931
-0.05275856512102477
-0.3709151781039006
0.6019539328514518
-0.14714486652533604
0.19816797408484343
-0.48105093078994143
-0.19801780992084422
-0.3432458688071657
-0.32155663054312816
0.4210595451653095
-0.21018650243010117
-0.4481314047630958
-0.11897225649855477
0.5047044186139701
0.19548234885953827
0.12912759870381915
1.003036079909885
-0.6416054411965357
-0.121310576195378
0.13113961573499425
0.22015187251733154
-0.3509769952987594
-0.587108717411035
0.28254051634490857
-0.20778657251350766
-0.13176072047313558
0.10932205263903153
0.39298051407319473
0.4688207797439767
0.20552852844902375
0.404882106770894
-0.4398201980281029
-0.6244743231032246
0.3486633201616828
0.22515359257363354
0.6012775392165777
0.10468206193343844
0.13448280547333452
-0.49773173455703773
0.07323192668337224
0.15686506255991914
-0.34584252392973974
0.07979503556972752
0.4436758784101612
-0.0003131602128459017
-0.3454561092963613
0.4751288509829738
0.30887037118365274
-0.14536329451258026
-0.20238799267554697
0.3771491561275003
-0.8666620606272681
0.5070380870227666
0.23382090691545518
0.05054865992612244
0.26992576985308964
-0.015460073703803848
-0.04298851152043582
-0.13415762474176754
0.14839001940137855
0.3786009257077198
-0.23948741746790783
-0.5041892147484336
-0.534422309057144
0.44072881681027476
-0.33390428780117687
0.39327421328915024
0.3162752956137641
0.021242452541317885
-0.34264262531362377
-0.21999338195699739
0.1902035713690997
0.11363187958275703
-0.1895042385131365
-0.17094617389649294
0.1435136911830348
-0.11231187415826147
0.2707817056567778
-0.11470456373858397
0.08873225200333158
-0.6155603394761737
0.49474655479463436
-0.15559769615580488
-0.5399637438072405
0.5551906408070725
-0.1917422013711178
-0.37225796162969504
0.17475952685635301
-0.33638276028757813
0.1303133598335675
0.09048239955605734
-0.2280335539181339
0.19589072003449823
-0.22084338403466114
0.5162799095713543
-0.3446242716015431
0.675721565124538
-0.010196208116185188
0.44750381013522467
0.43360005980713573
-0.22175590502971332
0.38957463290659516
0.631459965993534
0.1986952566104067
-0.19796965292253843
-0.24783876313279515
0.6090879414571527
0.6836435892535865
0.03555807700585686
0.09269190841317886
-0.006264732261345819
-0.07364955286236985
0.6315070502373851
0.41024884151351587
-0.27698178265109513
-0.13779770309902856
-0.3960582690370081
0.06725151327359306
-0.429745904507342
-0.5242875354863126
-0.08663522793160112
-0.13145360633498748
-0.5057575693572804
0.08668428295239328
0.1390542860055581
-0.15895150731413593
0.20445126336616007
0.06166745455284996
-0.19307900341679118
-0.20429037403856948
-0.7285444169459424
-0.3201140380516422
-0.3032642361946932
0.3590622800629122
-0.05868162966021391
-0.4250673482132814
-0.06419598066529475
0.17063725916484462
-0.017272158464415367
-0.5146965383786785
-0.5603990345993495
0.21311910208872464
-0.1024039877884017
-0.4840036614741241
0.22261688986876893
0.5165480201404699
-0.6596797189613758
-0.4937278797519561
0.04993310093158728
-0.12429066305923027
-0.33257264164340605
0.3916478968872575
-0.09818052507971341
-0.4123349340942352
-0.17722561485404392
0.20719445944672074
0.5374248006986955
0.25259041693433254
0.16249047907760814
-0.34621730153926045
0.15711018505420488
0.22362244450120405
-0.10913536889002326
-0.0925614086883305
0.1384572750113619
0.44576066711608936
-0.5493017671862793
0.2432646264443652
-0.506867742783764
-0.268522134561446
0.10227979115281154
-0.35727987934376404
-0.21971190506214203
0.13257701113666365
0.48914903953020517
-0.1308753930286632
-0.16584297050104835
-0.35471496902734145
-0.05403918854431561
0.432144561991524
0.09272353138335561
0.4240186641512779
-0.348181983455608
-0.06890096136994342
0.38517797417720584
0.11295002228345928
-0.285608436180777
-0.07240143981259067
-0.6202855436056746
-0.15148551332152346
0.2439509690580929
0.35989042840704855
