weights_cmbo
-0.42521676325013247
-0.8532141154110708
0.4322225581170638
-0.6691648022765064
-0.31052632204326414
0.4258939820570198
-0.16400363260544526
0.9622164639130282
-0.0037314477057102113
0.4597605211472071
-0.700597415578099
0.9858822970773538
-0.5818879024506929
0.35684655781528996
-0.9302716196805432
-0.8378234487726155
-0.5576988958871127
0.8638909538040447
-0.5191010739499329
0.7469421715583493
-0.4404677907023984
0.6559553772517732
-0.5680181991796023
-0.22825497636382353
-0.06716529989296038
-0.9084959020934225
-0.19507725799559017
0.4286087032980348
-0.6271718230481367
0.39192891436286104
-0.9204658406572939
-0.5968336123096687
-0.09481272938340712
-0.8884196814812952
-0.6621206894839007
0.5929109238261567
-0.2124315904766605
0.550104929968233
0.4150781859186734
-0.44522961754316426
-0.9314330637424726
-0.4331974031830055
0.6880195154195627
-0.6491395986982009
-0.6028050470469097
0.4651200431511684
-0.5919730717721743
0.868581865332509
-0.795098385650647
-0.11512892359021976
0.12356781209179846
-0.10307061120930316
-0.7487895345005839
-0.6451209263176356
0.08581124164341114
0.5453489144413792
-0.8793307869054581
-0.27860986858520853
-0.8882047102403352
0.40571263650769906
0.7284124711166629
0.9677287945564006
-0.15462601580542734
0.17426451314117353
0.8230839966825563
0.48475674994748585
-0.5085017548103641
-0.3588874837499443
-0.9871865950001184
-0.8117045029939087
-0.5767644061582815
0.44087410041881236
-0.6855894392862212
-0.6073492334623456
-0.5025517502363634
0.9839209762380936
-0.34506962340714153
0.29580647066496635
-0.24367941283947636
-0.029396393604888882
-0.9943713754063233
0.2986895260065092
-0.3877584042616462
0.081966763167445
-0.6998823827365288
0.36128315944669076
-0.30891190026271675
-0.8223479850012041
0.9330454029828392
-0.4651756606090296
0.6437293403393831
-0.024198609798607107
-0.1968867778335326
-0.2760229376213168
-0.6383403165149799
0.6636146734516057
-0.30258120177249226
-0.05196648775326773
-0.7171656817657122
-0.024590674497614762
0.806571134146099
0.7046436878647333
0.522604772528922
-0.5926177022473675
-0.14453868076554088
-0.4219478338254701
-0.5676369817234292
-0.5120236348060185
0.8962200048240156
-0.10950859498042731
-0.5518890824112683
-0.2915799764995872
-0.4438734412180487
-0.4942870103546144
-0.8331482846790004
-0.6864613222540739
-0.018103331032695902
0.5742706912207456
-0.6075856397945816
0.851778355514569
0.8475632711565635
0.38117812505585413
0.25185514590511815
0.0489427748124196
0.28620048479033966
0.9509182543608075
-0.9837149235948239
0.437070601375563
-0.7841575823537981
-0.11873909533923577
0.2755605027851098
0.789029950987691
-0.09047576313332084
-0.8400345758298957
-0.6413207052813641
0.41365789263555763
-0.8151826470446948
0.14119760876353604
0.6043352087606189
-0.495228563876144
-0.2793251270138277
0.11406306358032925
0.6026394993304294
0.12045330997990922
0.101875835576414
-0.48357302731331475
-0.9553271779579224
-0.7662779096493042
-0.32275862432954994
0.7314047268660808
-0.1552873830798258
-0.7762691497419618
0.6557718996801765
0.4614069888363437
-0.5329457055971298
-0.5390809271606665
0.3289272307609572
0.6482208899480439
-0.5551488647339902
0.8878432878290805
-0.30503010012040366
-0.9414242774494017
0.25837018790102695
0.07869864831798323
0.030816617006413694
0.9898904017327588
0.8641866620784617
-0.0504730453669906
0.81462264671047
0.8729434754342746
0.07101112430437118
0.18635060225257427
-0.30011379969607144
0.19845568506018374
-0.7496538402292809
-0.10200473510916175
-0.853780904314196
0.8534413893001964
-0.37906033332814437
-0.4085494774598559
0.8595330826363903
0.20530765018012254
0.7340277823987889
-0.6509295809651461
-0.23922097526038488
0.5532403019687886
0.16422694402740312
0.35998177148134625
-0.6233343507229454
-0.4012035786584971
-0.8791254009224607
0.99530194535928
-0.05741489213488715
0.47830866074245737
0.5397122831727177
-0.07759919557476169
0.4676107066714148
-0.04937043056581514
0.31002654691302167
0.9250703661257886
0.9731894817412481
0.018517228288278842
-0.20158370286388672
-0.1038790915728196
0.9350065339122371
-0.16756120090019366
0.6171964777479804
0.33635733721645944
-0.023194516211535676
-0.5920311567182679
-0.3541177266482922
0.042164164785959635
-0.18417801966256642
0.04623908066645965
0.006965026891010639
0.39908666515688096
-0.3781762278672707
0.7050422483701073
0.488571596994555
-0.9885894485295246
0.3306915865986746
-0.4723995722463459
0.15150175862554205
-0.17786651610177961
-0.5981058297014867
0.5390907407645305
-0.15447247733714797
0.30264122470523214
0.35041135486947605
-0.14224669314335503
-0.8798099140788198
-0.5354766081359619
-0.26148705158830277
-0.4186113388043131
0.5986437171890593
0.6773654225474193
0.9536430412596872
0.1782147796357627
0.7864092058136307
0.1904053342728902
0.7666596605452811
-0.4766173433869543
0.5742135904403933
-0.024053382686742175
0.18762518189978117
-0.9504490431713859
-0.49966855392730136
-0.5657849575767746
-0.7244508147045425
-0.7313455408149323
0.10581855054977773
-0.05643484102902696
0.6502405028253553
0.672257221579331
0.7187326680306987
0.9782067154164495
0.8088606798279152
-0.9294830827368274
0.25465723767317106
-0.45837745942769903
0.7280718346190691
-0.8495942370011889
-0.8674957999789004
0.5427724288646234
-0.529396543571877
0.11488519998961211
-0.6120961798380493
-0.2801039962153449
0.18445708756184587
0.307290196298982
-0.761685513137641
0.5845489968026718
-0.4457777405453349
-0.0027902035458937657
-0.6410977475808792
-0.7245388684509506
-0.6311702765487734
0.9712364252192844
-0.18981839617689134
0.7552604134140963
0.7143773714282031
-0.763986913986699
0.5422643401766767
0.8180347421010252
-0.6729736356184015
-0.9922832162411852
-0.5319416313548597
0.7864022144819425
0.30820248397805616
-0.8749637315114926
-0.47254135654383655
0.015616388770273826
0.5392790525377282
0.15029455158669291
0.2028078842596479
-0.24678793218657313
0.14117657455490917
-0.63549801082466
-0.2605747973153367
0.9745173267497362
-0.17118817182824175
0.471237568665253
0.25865080517415917
-0.9289198157270757
0.8190122535932192
0.734047194888142
0.017384760101565755
0.6005270011877364
-0.7192762362981862
-0.3096739712941996
-0.3107168951161874
0.6553197840354146
0.02589729080595249
-0.5332012221479361
-0.9651217514427983
0.6958495545097441
-0.801885516672002
0.43821592241121965
0.5735993502404426
0.4994870021946447
-0.9170734284754161
-0.45637460019114573
0.5253706883262088
0.6792605757861416
0.20449686082637242
0.5693799617678756
0.03907969941650813
0.13563717739073455
0.909565330215445
-0.08855228753248401
0.2650099686855152
-0.03361478466224144
-0.34703117500811476
-0.26678292219719135
0.7935804354771867
-0.7653729038660733
-0.48206499358286425
0.3930364944204454
0.8616936065314418
0.01551128521652334
0.5126875923680665
0.09749212603867607
0.18616876265914706
0.8972506088870278
0.5393037763340798
-0.06834295423888803
-0.8870549687267035
0.026371201657960253
0.9757003843780361
0.49777217826949194
-0.5515594119490679
0.0875977539235755
-0.17093062813672555
-0.20712430071520038
0.11418252757949832
-0.24479370340858564
0.4646271768238066
-0.007110665393114335
-0.8715090056371497
0.022878758199931903
0.764539355486973
-0.6637213526286254
-0.18200634378884128
-0.7683598798774789
0.036757056296487844
-0.010782355911751917
0.1460017982529227
0.7123581859818773
0.983239837088737
0.12569850358529
-0.342878661816318
0.9747836703078006
0.11202928717993288
0.2665275688245283
-0.7494216705381507
0.07027713244412737
0.3891680660124752
0.5031748842974677
0.9036718881871018
-0.12319112239124985
-0.33870007559517323
-0.9467399331721866
-0.67754966980923
-0.7636329357715697
-0.42064629315902047
0.9214978022513689
-0.4701212440258733
0.953948901798598
0.2361633583310636
-0.7422214587617313
-0.0037482930697361194
-0.19081482608544564
0.2313104269775892
0.7076324026527177
-0.4289456592639791
0.8015453408549855
-0.40645304870404275
-0.41186150973285307
-0.2472807944995139
0.8725669406647278
-0.1959250081134909
0.8467611570696096
-0.187818001407007
0.3359955097128724
-0.8141807670401615
-0.6125331066035733
0.6470226836260233
0.7640173927441065
0.10947432343906649
0.15790063539985044
0.6715843884745316
-0.013993021712235487
0.9458278221919381
0.7885609622646572
0.917113452438729
0.8009746381127647
0.35959952931794703
-0.4365999763809929
-0.34376817827186246
0.8824848977692983
-0.6180933600501832
0.4055227047237844
-0.3867939807601024
-0.11468493965145177
-0.8031181172579624
-0.9931333713541524
-0.9186334157502005
0.07778989078888587
0.43532749676274807
-0.9278851245986182
-0.25914853111711156
0.798872431574571
0.7909113974163846
-0.018347933976444075
0.2581387012959584
0.6635027418154404
0.7564654712666179
-0.3809467981231385
0.970834774209993
-0.5948079792716474
-0.7253069799667478
-0.41928655999071696
0.7844299971667197
0.5584571762651682
0.12374997411922295
-0.5416517810150949
-0.7211732722522217
0.44196345121546554
-0.460003168272733
0.8940033927117899
-0.6235433473701599
0.6628646556412721
0.5177372962443803
0.43001586594080954
-0.25867644178852833
-0.13538538050465454
-0.03437995180768305
0.17311339991525765
-0.6674388071845272
0.31662604493035196
0.09327374306879133
0.40753706105415555
-0.7107051301056571
-0.4552337577499759
-0.2700634251041636
0.9448976003228828
0.22546059323874457
0.7060917079374518
-0.3683587611194352
0.40809403601818084
-0.43542611566973277
-0.8490700646716636
-0.2683029423316121
0.2102043683600503
0.5793018028217121
-0.22811383643667194
-0.0008602028353035251
0.8862514252815519
0.6384524307398083
-0.733305003747095
0.2847806952828411
-0.4880854090057023
0.9542568536322891
0.31979376840798435
-0.4411287293100694
0.3213437429048649
-0.8570766663080354
-0.9343502896073503
-0.008192353687468179
0.059228180990428925
-0.6726943497129483
0.3354074798119908
-0.0413399355003925
0.4944281000783166
-0.19862772527781947
-0.7892111790017391
-0.46234321457598204
-0.8532978692683328
-0.9572193172744614
0.989729258098474
-0.27403021792884874
0.5141190933452426
-0.5117621835617743
0.49279046188175
-0.1810219238543156
-0.6822702091034221
0.5953511634039241
0.85893550885129
-0.06088528431952378
-0.013811821952000924
0.2450136728334611
-0.7170944409127837
0.9552335733307478
0.14069323679191315
0.8332732261335798
-0.4071133297337739
0.47669375646219536
0.7364946010004629
-0.12918222462786577
-0.8855714936689703
0.4145428150940804
-0.48941107435524756
-0.9111376514712366
-0.8917365444770413
-0.8021123254491063
0.8514518072365926
0.13054731170413292
0.8731289811564891
0.23234256556416732
0.9681598694138522
0.8603825102726601
-0.7101561344076295
-0.12762669927196102
-0.29709201329151425
0.030648812053349683
0.10567910774877398
0.3102403536668614
0.21705264039539074
0.4783260316098308
0.0708153563084859
0.1493918056933652
-0.9904759870401434
-0.871159896886615
-0.7118956105130025
-0.8794263089909526
0.9293920742574584
0.6392788836937493
-0.23248811673320247
-0.2883579953267186
0.33310981739013124
0.1534948408158907
0.8723231873782396
-0.4320104140792915
-0.9843822519717462
-0.29328414259685043
0.66480469109954
0.7199917191597853
0.2198782855530852
0.09483697173552352
-0.7761561578699627
-0.3195492492830183
0.05717455504133029
-0.16967552251319917
-0.46885351695841027
0.28040550952402543
-0.9741636649188727
0.515386449018606
-0.8021133088247947
0.6657235465765532
-0.6644431416879484
0.4608876412174845
-0.08885036940814683
0.8572952498634068
-0.5066484481322322
0.7179084048063495
-0.18024465676737855
0.7308466267786393
-0.4337421880867236
-0.23809311689881985
0.8546458250763407
-0.20473903932658244
-0.8701690690889474
0.8836541054367493
-0.8056078111704801
0.5343861157369756
0.18968438029622914
0.5495255138193123
-0.8861064344672793
0.6539119229884518
0.9466442994414082
-0.5744529414160353
0.23432376957385936
-0.2404458116844126
-0.82446751798292
0.036071360875929104
0.12317530165013757
-0.6520537258243266
0.4708347060392555
0.3537248425124513
0.09434435380740291
0.13828866644569238
0.9639289890069842
0.5171248373649906
0.25669698375553396
-0.15192262655245625
0.957630494655642
0.6324774596741456
-0.5729474117620812
-0.8306787022380819
-0.9778943057971892
-0.8217236942712705
0.7521397310791154
-0.9478239494115877
-0.889781178353592
-0.09774520996609626
0.7200929277539962
-0.016055561067573665
-0.08964600373320297
0.9727257301398597
-0.326869868354972
-0.18799625491596905
0.6208318575990173
0.822246837732675
0.2076545157172247
0.765154923329769
0.6890845312292602
0.988438801766439
0.8475228397031498
0.7477899781821
0.5246988311124594
-0.20559303111972982
0.08934647940108942
0.2943627878135091
-0.34233203442385585
0.7120368098395593
-0.8250938652161628
0.7031196389820513
0.762636772760833
-0.6584403504272374
-0.6493804123807303
0.07329967489916056
0.6529445144564461
-0.2380947554327073
-0.9952766159182616
-0.305734721690041
-0.10515130170668674
0.6516609284115675
-0.9216652530614973
-0.8394833580655241
0.6123687088693051
0.6635368890391642
0.47286821986554894
0.5930406349084718
-0.17744614220440136
-0.3102311009692782
-0.4054108565653549
0.18807119155755814
-0.2416215125470602
0.7512595682985475
-0.6962073776921178
0.20909248502419442
0.5504910177131566
0.8040955254573592
-0.2141767937122705
-0.8609447864210154
-0.10887308438227317
0.4872014966040341
-0.5811031675936393
0.7967586831539248
0.8003077724250665
-0.5576855431049839
0.8531888337251254
-0.6902884147777759
0.004575835300510311
0.38268216353614326
0.2766677094988865
0.7605973055023758
-0.7235766347343968
0.22602415379544616
-0.29202083030609116
-0.7164431598113237
-0.2584089482666456
-0.6498977229062017
-0.5246650919181923
-0.9042945491552872
0.6297606038204429
0.11917661316446448
-0.2790483006185105
-0.8933520123255834
0.3419642884567091
0.13824188865280318
-0.13549378216128605
0.06928996334467996
0.645409394270358
-0.35718648544600895
-0.7038349951068938
-0.40257054715148555
-0.07977422278983659
0.8483904072994386
-0.6385092021699355
-0.5343500682444975
-0.5547285784934477
0.13377134436697413
-0.397450389918512
-0.34534999359502194
-0.15592111981969325
-0.048335212242477166
-0.8947209333426316
0.3914395347852462
0.024915165818086615
0.8234127228332082
0.12856159173630566
0.7937637957143056
0.9822798820120677
0.5846361970341376
0.47858953725863795
0.1530168806351595
0.10318518117665465
0.21710892060222542
0.09915156131644776
0.5962349066439687
-0.32088010133727285
-0.617654046816015
0.9412433366270498
-0.7243249931942779
0.9398664897727182
-0.4428785200443113
0.5846813485423714
-0.8937093597312515
0.09498742305840713
-0.9388670060870317
-0.342894580017846
-0.1574348790209703
-0.8382274624459047
0.5927033564786139
0.42601028319240775
0.22455914545519073
0.942070333297033
0.04320528474551866
-0.8870220028539915
0.2768104233658617
0.22062735706706826
0.8201092972652011
-0.4359736961106482
0.35912152415123977
-0.3430450626553385
-0.9244953912278007
0.23566866783566498
-0.19100128241021608
-0.5053282528070837
0.1667427942775228
-0.47415609756088606
-0.10063228827446369
-0.766097042376479
-0.7941764576393884
0.05810960757821082
-0.7635370447197001
0.1494253340501981
-0.3648781547347577
-0.8042382099822494
0.8523220001342413
-0.41731676354749925
-0.6765266335538658
-0.4020963748350601
0.22074920414202248
0.10323497422552186
-0.27974481497892434
0.4583820871132005
-0.3645933037765341
0.585176067670409
-0.6781564088952716
-0.27046632542067317
-0.08740232453715624
-0.44520035306473416
-0.7945613472067372
0.10419382436227265
0.3908489914966571
-0.5516497147221144
0.4716207005519981
-0.6123384917160357
0.4912341275885517
0.29952135916131906
0.22814600263255702
0.7412958472834925
-0.025075285805910896
0.5530338202980871
0.5075120473498496
0.27905382268792356
0.8829142417687559
-0.7037381047329103
0.06069648072121492
-0.7633429872735982
-0.3617124478221616
0.6716263765994992
-0.9918951580941375
0.3953638700849851
0.19406958028271615
0.5825061711948363
-0.8816005621586169
0.4683341962229042
-0.8162909337327793
-0.5054103200559212
0.2295596151285515
0.7390791620766652
-0.1111817549505032
-0.23132830341523847
-0.6566642382116326
-0.7896109314447539
-0.3509381682756507
0.41202759873066075
-0.20755341597492705
0.24810524719812732
0.33037844883675915
-0.26527265763144126
-0.9708152863022679
-0.4667153826074615
0.9763103034224396
-0.6954537736377733
-0.326212752770066
-0.2542437947575318
0.38574626102243936
-0.7369343778079454
0.7157774939698083
-0.7836588452752444
0.318778768010229
-0.13976133701665772
-0.5125561489730526
-0.11588108185862622
0.36202403102120595
-0.5233272680884067
-0.11966131586568363
0.18005480187439304
-0.9372688212934845
-0.09984784561833471
0.317104367179295
0.03994100545887491
0.32531657898120336
0.947576758446397
0.7838539446557826
-0.6839189954959746
-0.8153425112055208
0.7232910052754247
0.15887435367793956
0.16387383435996905
0.9047415523028006
-0.16990230388521876
0.4835473560606345
0.7505737525873712
0.39499689520044723
0.6558355168226055
-0.7481556185621048
-0.41336079087701383
0.9678597539979306
0.6215334563166541
0.7337366211937464
-0.3918139159354237
0.18824695725155594
-0.020777239561110328
0.38357829564823853
0.2788184695911724
0.9800943801959683
0.8680428832172791
-0.5295933898163074
0.31760355330277834
-0.7915506240907186
-0.3433748388248534
0.6527347413376805
0.5781676827426894
-0.35189998051579563
-0.013168338210539199
-0.7539190146598096
0.13057170331119905
-0.5724976208151342
-0.8688272564632074
0.7678757695988412
-0.5608567805739413
-0.32470595613638054
-0.6989935862002974
0.9369004434498913
-0.7601378604284967
0.4286471782533452
-0.6320519471552046
0.19596807198088806
-0.9330108213059669
-0.34395355106038994
0.6819135733142523
-0.8592797007867523
0.12808749772123362
0.06745383408900252
-0.29184683053979876
0.27613321851428774
-0.493962601167391
0.2468572901407402
-0.6989531927542061
0.21102569488739675
0.9283754473748869
0.2891568274418057
0.14450894843085083
-0.1266575160619603
0.9629484708835991
-0.7234843992934488
-0.7627233594667779
0.31755310387703917
-0.7674019144739068
0.25201515857091894
-0.6850961515317127
-0.03190544352878222
0.7025249239288631
-0.9854717363281185
0.3577966495140483
-0.09598600105232347
0.5903466352976141
0.34300938908712575
-0.3399514268192494
-0.8733664026686268
-0.7527240990608461
-0.41890096023371415
-0.2583854073805052
0.6720079127177077
-0.8602339008754707
-0.6320972770511004
0.8532184014006292
-0.8778753123592802
0.38640809171021284
0.20646488195084567
0.2266626830089924
-0.18139348236751163
0.174547822926568
-0.5120633671051158
0.9266379864200334
0.8508568355279549
-0.3004083872455552
-0.46119794427240746
-0.38497499114729905
-0.6653477423217375
0.20830082407039296
-0.036503622497267685
-0.49924350669313
0.7948152206593246
-0.8614342285671299
-0.9342364697551313
-0.7609402152191094
0.5068398692989529
0.4786153203821455
0.9104388337665343
-0.643522371052528
0.17214000710427269
-0.8550739456969694
-0.8562951334965359
0.15678980440565904
0.6739511688010535
0.4828117947923325
-0.5228137682970964
0.8320567591956376
-0.35690135678885593
0.9674541832570538
0.023074973038989643
-0.817339497535069
0.451366472599676
-0.6546217777051822
-0.4357019545991896
0.826617119237127
0.899532183850037
0.7105847638048552
0.7932943033977664
-0.6615303787289377
-0.051288752887967526
-0.9171494449603814
-0.19551733973822238
0.34328233127874563
0.8899677229315959
0.9069153468371549
-0.45173660072156996
-0.23908061757553578
-0.2730690473536903
0.7364437937132486
-0.05140403791688408
-0.8517135771796096
-0.2723102444974046
-0.26299752056654624
0.3055211373054929
0.7708520323794403
-0.13635549971140937
0.11119251175569622
0.8526546784515789
-0.983468911519066
-0.2151656865113616
-0.02544039456589342
0.011599535142668538
0.4135781036814632
-0.042552876252269556
-0.5030486179667715
-0.587867101799538
0.7871118781250221
0.04796222734453237
-0.858636533752434
-0.6545453083024335
-0.06141489334825856
0.005793227027607539
0.48435970085824764
-0.1790622349572606
0.2371606714643526
-0.08301484460093733
0.49189999422732367
0.7239048396365202
0.9097622137212475
-0.17185557273880692
-0.6296847892487474
-0.7265274676890292
-0.663267185146134
-0.57888647374047
0.6825414061789934
0.3323357677768253
0.30515803966499844
-0.2610963812758844
0.7476240735750823
0.11913956371698409
-0.4839293797992481
-0.9104915611424718
-0.8082291994580393
-0.6834963393801539
0.14153813117667413
-0.19511001681188156
-0.32644597135449005
-0.6504657845969772
-0.7920603628097733
0.23753097486701735
-0.16904038337010774
0.390781414616991
-0.06260835333957693
0.21126338273172274
-0.045958469674006075
0.22915346680957738
-0.16720925427032096
-0.5138677311195645
0.10330872288994963
-0.021604185630525796
0.46722245656778694
-0.8348503752620064
-0.6090808071156171
0.3519128402833034
-0.30360406324083256
0.5415682232846393
0.23342722576460462
0.8719625005864613
0.3662857886687534
-0.5436486637697879
-0.5286376694472019
-0.8918255443926126
-0.9508753559554455
-0.8737472013093528
0.7270916037973918
-0.45869218186927596
-0.8112837803025577
0.5018512128819976
-0.6048861869305249
0.685572074979331
0.43243902397566014
0.009055815812018864
0.45694341782023407
0.3184157188865495
-0.8731915279463205
0.4115759191586017
-0.15544879122406097
-0.39731823736836147
0.022751659737658914
0.9998111301643817
0.9242221634221457
0.5725570002570033
0.6079563278590696
0.4366470803054745
0.7785180295559813
-0.30771270190109057
0.13281620060310373
0.6560787638629031
0.6507141118259803
0.2524214215011915
-0.3353330859523016
-0.942792803528977
-0.48693222955791415
0.19533908058054172
0.22359686359510222
-0.4129394912968798
-0.29125825279156414
-0.812541202051885
-0.3948955624202066
-0.7446117625209208
-0.7900852274601011
0.9335268659001346
-0.400589152819425
-0.3203472183187479
0.15506641304298108
-0.6934423964713785
-0.6791523096796057
-0.521135918706128
-0.6934076715567821
0.8099404673642792
0.9355800125718625
-0.019854659262347862
-0.3031134472433803
-0.11664692938146914
0.0020874344167685077
-0.7113839787061804
0.8247911822177596
0.16806378607598282
-0.5646538503536205
-0.04477473541477228
0.38274354569955626
0.970977419457481
-0.5325902113748873
-0.011846371527975075
0.47055428022119816
-0.8897875156857469
0.9050516197800489
0.47693786646400826
0.1950263157757588
-0.6950500842538054
0.5682000515945869
0.7030907173005532
0.660376369020685
0.48516418477531675
-0.5804625445504508
0.17424075956226437
0.403661822076568
-0.8206327891581193
0.9567780570029072
-0.258043412617607
-0.2994506560150687
-0.9293891847746363
-0.16186595709616713
0.17506420486992114
0.8036165952669714
-0.8492123819153328
-0.5486463675792035
0.0019761717788331357
0.27189426657235516
0.04069733795254127
0.70474967691347
0.49674260405136095
-0.513136606769214
-0.7031363914654103
0.959940032334397
-0.43784036727296805
-0.34436622344215273
-0.3872964512085393
0.6866822409041367
0.8357493570196304
-0.700006602604563
0.10565956210158811
-0.8486410337325889
-0.35732068333799116
0.0980208343946598
0.23492220707741618
-0.39460633215210716
0.6161709973797673
-0.9584619180979046
0.9322868301554679
0.4188211187174886
-0.23064229783248646
0.7429550527192503
-0.512820723360131
0.49530784788504145
-0.9639618607584011
0.5412959678393456
0.35359101345689137
-0.0873528755609494
0.5688570203164844
-0.2626310162092862
0.9387782138688319
0.9706371582419457
0.99023121965004
0.3662034823385689
-0.4782170440278313
-0.5099950110958655
0.6686737940500858
0.2381264870976536
-0.870188066162489
-0.6478548663284558
0.05565862126872845
-0.8879846459288088
0.012355924243108607
-0.1257435186557876
-0.6536628667366069
0.26445140343202045
0.817263919578018
-0.1167216250310581
-0.2195690074925476
-0.1493915353697477
0.3864821799817433
-0.5798442364355156
0.07889412464375223
0.7813694471086834
0.15719263327386068
-0.04833652642176389
0.4351448545282417
0.15446731388155666
0.0782006008804208
0.5650702582524099
0.5490237376605298
-0.1438025423050846
-0.11715623520405871
0.16999681473920258
0.335497513382784
-0.9267796493153575
-0.8951411685603914
-0.6141561622046752
-0.0993985725383999
-0.7298796382021837
-0.7060440527564524
0.19374021501839178
-0.43810357220567164
0.17167165019398656
-0.3769595309707783
-0.8763914333939593
-0.40853566089869653
0.046031111912344436
0.44747169900406547
0.5048106473298368
-0.5683037879185688
-0.7296912726009566
-0.16281987692324207
-0.911790522885882
0.4661349544392288
0.16533463910158397
-0.7667743575733637
0.06140271121921548
-0.8624782950968688
-0.38740526543684495
0.5203466319752437
0.12125195235492381
0.19176908844233664
0.738461756710503
-0.30056039606408214
-0.6954776654427728
0.386035713204943
0.2824626069045568
0.9500355984011921
-0.06486898541109531
0.4924551887851305
0.6169700257323851
0.9373774676023832
0.9354130540598564
-0.49669316753386306
-0.6058368121116551
0.5702048251124114
0.5989583092512332
-0.4914573307081853
-0.17200099232187283
-0.4374954277851488
0.3983116001095848
0.5884662852566214
-0.8248176092001498
0.33006109479017876
0.33786592341392074
0.09271051435747069
0.6256207035741845
-0.7858836494728452
-0.9699312699252769
0.008054682170688832
-0.6229420420426774
-0.3217722506354741
-0.8824359990680766
-0.8645842924348872
-0.2991591172298933
-0.2996314308891599
0.22073342324295941
-0.44503777761401775
0.5340448678110477
-0.8395825262375036
0.48970675588583923
0.6483095917635251
-0.6151688358334673
0.7711941244612182
-0.7908374687851427
0.766269108657361
-0.16838552829858378
0.345894714907365
-0.19193250337456247
-0.1011684809657567
0.09734428631257575
0.08946248673131452
0.1893913078274223
-0.008035675810381449
0.9713116310108609
0.7577579447124931
-0.8234408888437277
0.5201156791314998
-0.9435387812886156
0.6899842879100944
0.02629671530697153
-0.6763347383117171
-0.2962585305685119
-0.6432451416766867
0.4534367544326905
0.43145712685755067
-0.3533385481207758
-0.19311941195558946
0.443670345903741
0.8177884807755715
0.7710931631110558
0.21986977629152427
-0.2761041450105395
0.9714082160000623
-0.40908617330985786
0.6685906248029503
-0.12366345780865395
0.36917623883775463
-0.7918812172893057
-0.48198432827061577
-0.7597333411160383
0.7592601695517904
-0.9543131811903758
0.8490567745142568
-0.43517449096135663
-0.8740258235653617
-0.5804169334951068
0.18209729537244645
0.03978237853776512
-0.47920325695335775
-0.6656269385966689
-0.43794552752980964
0.4260961868446269
-0.1302145107631798
-0.26341766307066306
0.022014736387979017
0.34248657261958515
-0.7076313043849973
0.28192535064407953
0.6872564821969309
0.06536036969985326
0.8570377814855117
-0.35946564469101516
-0.2860516953964656
0.3706238606744996
0.2714344483736917
0.8908969982716592
-0.916557202001617
-0.2716429848034001
-0.5850456265535298
0.9516942262071135
0.779019290373621
-0.8970284925350118
-0.3839326302620567
-0.5189095239688442
-0.6399778836609593
0.0047472626934355056
-0.5036117028385816
0.09088477901405878
0.9211481115827387
-0.28458072197101725
-0.5859150765586885
0.13752247091638092
-0.30800767963685294
-0.8888253989156891
-0.6887100900539971
0.8278706361837604
0.43884756160653793
-0.05666176847497284
0.7775578475887714
-0.9975722008474537
-0.3462566593802656
-0.6348869818430376
0.5973100010412857
0.4403967937125315
0.7922992256977688
0.41775683581985557
-0.31506072394301166
0.8502632859864565
-0.9231807546881627
0.6957309790691888
-0.599454867806918
-0.912404238586968
-0.5009213830680452
0.9499717731053805
-0.05691928163117588
0.3790923016479295
-0.11171544416010937
0.9743106273364026
0.1744365432917745
0.2321067331829132
0.10798613746206787
-0.19104201766973827
0.28609635063290706
0.5315173127574628
0.10296486845443753
-0.4998732597716613
0.01687330796424913
0.1960262462806721
-0.941805749733664
-0.4925462877252724
0.5833030907508536
-0.6382484630731748
0.5447601908381594
0.5273155482516321
0.8282369443013371
0.6272774582067377
0.1012239365966574
-0.8149980412167614
-0.7728197137076764
0.8776616143600899
0.9874236888867483
-0.3599950017888851
-0.11255848164512816
-0.6998290628992909
-0.9277288063400164
-0.07139493242547568
0.8277543793839017
-0.18838405044083673
-0.6492508693246748
0.7440000268939708
0.8037119414914637
0.7895737476761799
0.14814970192607735
0.787329323486182
0.6976992678761502
-0.09409129168343133
-0.2379368985548167
0.2520696975643242
0.9681831330398256
-0.8427807973396495
0.5088518655638274
-0.6984684414677866
-0.34779737529710264
0.5233844951641868
0.37876509650349677
0.7591624654490863
-0.04494596723266686
-0.01656623677593183
0.7820312478063285
0.7789494584773102
0.3697853237882516
-0.9445771715549784
0.23454673476841914
0.4649019101349492
-0.35279214281600146
-0.9129278906045228
0.9629855954252378
0.10896677582014913
-0.13825096609953236
-0.9072226888618995
0.17433474179882902
-0.7855998078903228
0.13204151549862297
0.05878756311249722
0.5285642798566896
0.4527528430443277
-0.8835918658610253
0.9280618726948437
-0.027376187060643264
-0.4657725443021874
-0.894272266157593
0.1737976873432019
-0.9628735414202103
-0.3232132101275387
0.5476974201403622
0.9571316213958085
0.7358820322760198
0.11318229933939583
-0.850739693059207
0.526807768458643
0.853057575894228
0.05366613828042022
-0.027859060100003274
0.4190716158653067
0.9893802635085127
-0.30636457346436186
-0.7397535159843605
0.4082585847737594
0.9790775321466545
-0.733575506128358
-0.8879070397700708
0.44170089398195533
0.7348366766840526
0.17819547177111628
0.7060479332540759
-0.8501957582152941
0.4570395435831991
0.44129285736928203
-0.6979235583632986
-0.9258955092182417
0.35285805557263505
0.05065002498619431
-0.3407292121849592
-0.14169287935516084
0.6752902645665333
0.8325014378760882
0.4351665678468839
-0.3506321955779348
0.7651811665899266
-0.3777568840807328
0.3061242181811581
0.7968042221548259
-0.17688436937740648
0.5932651192730249
-0.5841500124035379
0.16095684922535836
-0.40777284813214854
0.899540266968373
-0.6451083036717571
0.6095579347562357
-0.8143740253777589
0.9046715112897683
0.6933326232487966
0.7668074802404945
0.46814110935208353
0.06003138862657642
-0.23898679382221166
0.1032964114652557
0.8397829274057147
0.9812173100673831
0.3260646916857495
0.16876898545971408
-0.18988482636215398
-0.30676671118393983
0.12243897073355892
-0.04218842433549286
-0.3601002039834744
-0.859376909974868
-0.02789509088083486
0.21450140923841254
0.32949808942479275
-0.993716520077212
-0.09897166419150194
-0.06933821878975555
0.20825795951420512
-0.36793910867116897
0.8036662808027708
0.7027944424611852
-0.9833455418140173
-0.9600880847288153
0.7537680266879923
0.8586617685972855
-0.6688959663006473
0.349497822100046
-0.7063703151803451
0.0524167377366378
0.727932505904229
0.09177643314589257
-0.6547935233816076
0.7595654978399757
0.7906273137834179
0.4205628218660411
0.3515764707960858
-0.2606852453653281
0.9625169597500596
-0.9790921412632871
0.5267236502537436
0.6480666171842056
0.2541443718743919
0.7286164618234545
-0.14605184107721159
0.7913746621196864
0.41590285579104
0.30723142214129506
-0.2566666502906896
-0.8123484005376338
-0.6497843608561615
-0.3547150316294976
0.2778880540823412
-0.7329172143123237
0.3670085375383756
-0.26791893968024394
0.8540587644810826
-0.3873452987319763
-0.5698430572231836
-0.6354088729478335
0.6117415393448509
0.49404019055009885
0.15379502646056675
-0.687007076166521
-0.9220676080231438
0.5610330180628689
0.7661419003913779
-0.5063577103689538
0.38487087191911984
-0.8254589815324729
0.17048102804661558
-0.7225982067527805
0.08946717007003957
0.06099972725352876
0.5936139878484012
0.6602227152873155
0.26622391386411004
-0.5724189969938576
-0.05714700837157771
-0.8837810468608032
0.3832763889323121
0.42839346426900793
-0.01365796911395023
-0.900999554646817
0.939210373160386
0.808268568428786
-0.6148510127352138
0.5727223719257004
0.7289297067791431
-0.6869538989485662
-0.5532078902470579
0.19813920261403828
-0.799211573633239
-0.4938229682471258
0.23428288885239712
0.4096100346168514
0.5197002155355159
0.09449719301694381
0.9572371014230854
0.7501543136284632
-0.8878499884854982
-0.34290372773853806
0.13618454407517722
0.31327355629235654
0.3382451140691063
-0.5103444781521995
-0.3893589799108397
0.4748037233283702
-0.2694524230784763
0.561971692196584
0.8108998943751107
-0.731714567615678
0.8272085667040343
-0.636934058600404
-0.763876005957884
-0.6966655295650612
0.8942856245560722
0.2840715669319145
-0.24469976776154811
0.5464450337864597
-0.15064560947132
-0.46728078056660416
0.9964701567698544
0.2875865951170966
0.17433160010256565
-0.37074450405791026
0.3831320752333247
-0.604546309446149
-0.38877173393720654
0.8356967455150401
-0.7642940791379365
-0.3212132813333357
0.06278319975479296
-0.08904146107005184
-0.6467974058564574
0.4274255789659702
-0.38263896808438824
-0.16206023505679212
-0.7992091204356278
0.054161752341360225
-0.4303399642634369
-0.782163661303771
0.6581754382222655
0.755664779472129
0.8287638112045159
-0.83656547201362
0.6145312776855718
-0.23010189487668553
0.15262922684108715
0.7425206482119542
0.01992432087605267
-0.503823104675476
-0.1469941629691316
-0.9862660644858459
-0.384921651968835
0.47481246446362313
0.05398265682002146
0.3485751224944422
-0.04716365847911819
0.9717558771365675
0.48454831971971823
0.5462201050671205
-0.3461155162268881
-0.16374423426118145
-0.7112044134873667
0.11008530748470902
-0.6749872342252521
0.5014670702199928
-0.9367356820012811
0.3799942337840989
-0.8133876631148662
0.7160777416841599
0.17527237661431316
0.33944049776571306
0.18866772451122715
0.09322427567821934
-0.948077884483127
-0.13753068379202116
0.70891687744017
0.515007015270476
-0.9904976225644768
-0.11418492401387503
-0.32851840855512715
-0.5670043366243303
0.9513129560146969
0.32849655376333287
-0.03582335270241632
-0.7749520298206418
-0.5299107174976396
-0.2571946696349796
-0.9305835106650764
0.5848769424641604
0.7634613184173749
0.28655899870593937
-0.7448697979758099
0.40627699972114284
-0.6457181249033566
-0.7101250549818723
0.6485408309525895
0.9309736853904438
-0.42306243418998735
-0.28685804076968524
0.6415399208359926
-0.2743136265683146
-0.8611954799738262
0.041545116828716644
0.6482848322100712
-0.7298485818568199
0.6242232799260381
0.8667903434842703
-0.6351524566207312
-0.21408118785663288
-0.04618627251854335
-0.569693864846829
0.8330192340983416
0.7351954017596614
0.36328415609398923
0.39749476446208165
0.5643209836294893
-0.693328596042601
0.4122633372570026
-0.023443342669673406
0.08832732400873278
-0.8252097458480987
0.798441844842821
0.7436879960457325
0.6679570631024538
-0.1453004911510929
-0.7524577146534244
0.5158565063832072
-0.09491680802343216
-0.4610115398730332
-0.9022079932847715
0.06504163478929592
-0.5488975880278191
0.06581667444166639
-0.4143639666148988
0.6135686671177247
-0.10996305932847816
-0.6520289151965486
-0.43849539938285975
-0.3508856646221432
0.14123321201225258
-0.9216265006450259
0.2004229561372508
-0.6851369301116639
0.19261941246812841
0.4187612847333657
0.24929975221899459
0.9527601557475218
0.6389784262181986
-0.8941430582383028
-0.8602734430541381
0.6492923405814586
-0.4520590693399982
-0.3968759706728018
0.13322430435292754
0.8811359411230317
0.3614384712962204
0.20043023788136294
-0.5592285407270119
0.2158205902537429
0.5115547046917956
0.8232048941755923
0.356426749385772
0.8830643790211521
-0.20501052844838696
-0.7942950290531638
0.9681219273437502
-0.9269307125791217
0.5360160864997474
-0.46594143383527653
0.40252145642934845
0.14301626574965498
-0.5502216460467018
0.7894792922520784
0.2739725564080886
-0.7211322581871493
-0.9823850453831735
-0.8983271671487774
-0.31724455024803166
0.7211276938807494
0.5676991004567378
-0.6408116674018447
-0.7700444515653257
-0.51617939050752
0.7913179446661356
0.17422203174885809
-0.5638286956004197
0.12616522534805075
0.839023398588365
0.9899787499171488
0.488177682222398
0.08834263507419626
-0.14282337331672967
-0.7094834178387481
-0.9650366166226967
0.28020278064956616
0.000594319541742383
-0.09108139805079873
0.6107553310402059
-0.12421480232034976
-0.9325317566062765
0.6545004665427072
-0.5608653778046249
0.9724275329143968
0.048043625159594816
0.23719545528348052
-0.32301821562037336
-0.6076324395939676
0.12189934671051827
-0.8469907091894711
0.2966434232529249
-0.9634519559223171
0.7275439674818578
-0.08206381235803861
-0.8165511505446772
-0.011276746507524082
0.025723063061707574
-0.9886818781007083
-0.23796347444812982
0.013845914799816228
-0.027031043843777303
0.3292989411804004
-0.050450288082952044
0.694960119513091
0.6557262607232586
0.5731736095457469
0.9613978842056334
-0.306008000103245
0.34073798006445966
-0.44830621054235986
-0.4990759746737592
0.840641064650379
0.1953855726928726
-0.11512234492875306
-0.3933307860932602
0.047429784606962455
0.5745632060399184
0.13882286957658763
-0.5001125524019676
0.8997154943800509
0.16381990442638572
-0.23185623879382677
0.47112574482946123
-0.27354168357949793
-0.04360127537288805
-0.4357278451961375
-0.17086761377195114
0.883357709283352
0.7861179876516342
-0.6989394180087265
0.03010421947862918
0.8468421993343225
0.20000022120203642
-0.126792309635835
0.15171442697399318
0.6635062140946546
-0.03581851268925873
-0.6795836755676448
-0.6303109911232145
-0.5742114536400955
-0.1675949972938322
-0.6996148791991654
0.34351687508489515
0.6159402016405384
-0.11054903060920096
-0.0027923944357206576
-0.6145083745539586
-0.24777357409606227
-0.6791027405840384
0.37533113584630495
0.09047038976222121
-0.5952054022388762
-0.8106211998344972
-0.7057102678257958
0.8821400692910324
-0.7668981238036765
0.5066770550730326
-0.6824302795663453
0.4170123209345036
0.6819225545279657
0.172607611905208
0.6932797157584247
-0.05892666531915314
-0.9822955719752069
-0.8297521444634799
-0.9397531674317967
0.27134207304382074
-0.5109033514686558
0.3203173159220021
0.23099243283356552
-0.38721034158538803
0.08511146116348245
-0.6044218133376511
-0.2249380007374011
-0.8202777853341454
0.28359630526943524
0.7564117684193652
-0.02300060614792243
-0.6784805951964099
-0.29398529646303495
0.34284264217115457
0.04316303288191237
-0.29353416692862555
0.7931249058303345
-0.9605638171832311
0.9726108685812471
0.6940081465744119
-0.10424496173254294
-0.5438636229466727
0.07110993498129314
0.6242830615766726
-0.3671695452121826
-0.9733166261861295
0.0013511118872284733
-0.9387672768231654
0.28763993547400624
-0.04136674457667833
-0.6033809687200862
-0.3783541184398671
0.7479231184296109
0.7170289902379032
-0.2162365022643995
-0.7189276035595955
-0.19589926656657308
0.9432751238181716
0.07237862816796437
0.5624781041706362
0.05575705869202707
0.7605508279113136
-0.4986121988536145
0.9432575346597063
0.9629823932640562
0.6854647698365492
0.5447954732871814
-0.8457984899362998
0.33461674877499226
-0.7658542788126586
0.5824632753158534
0.3410917406647185
-0.6097419012725445
0.3615364918779225
0.993034731560843
-0.02111211124920165
-0.3849756910538098
0.09758290072933118
-0.591914426841943
-0.868689860641245
-0.3186994462178536
-0.03169418059303797
0.7910634266709231
-0.30726049242670794
0.6992981550456348
-0.5684436228799987
-0.9792345906458373
-0.29486452014307907
-0.33253818357921694
-0.6313854280001572
-0.48644455758513305
0.3818292783153252
0.8498567527842293
0.7807879591777032
-0.37694151506207274
0.9768967155261972
-0.5379264328443807
0.9040025739995905
0.1671274154885305
-0.9532120740006638
0.6853920496539458
-0.0506120870791007
0.9462108376914296
-0.7707360118168414
0.17235878604945287
-0.626377272979985
0.5257439764856866
0.06167267612525196
-0.4968025591784748
0.15731402793225135
0.5570699387859133
-0.4706164142743394
0.7141961198429392
-0.2480701258776794
-0.6920847638538119
-0.089327966620381
-0.7482759332954536
-0.7032336905827798
-0.13308168957444932
0.9873442938642703
0.566089789197892
0.530148221188488
-0.9098910963125144
-0.7536398436774507
-0.8016605206228296
-0.21024003850864115
-0.2636445861128309
-0.5587545374606602
-0.06149775550710013
-0.6692668602927156
-0.14922268165813857
-0.4784153372225477
0.4528145892885713
-0.4986936145959153
0.7190676864961634
-0.5755692963762447
0.8592745392515251
0.27133165558981553
0.4928845150397685
0.9121123561559725
-0.6086578345217446
0.1263527601213621
0.8651109115819637
0.23166946489356466
0.9624262959563801
-0.06422895610225599
-0.780822985138391
0.18036536226667788
0.8668514497417916
0.4232630248550193
0.16891456450434994
0.3230376213324262
-0.8406614632910907
-0.854498052754662
0.9850307404975991
-0.2389662536304651
0.6397528992906263
0.8666777857196033
0.34825519321090104
-0.5188032104022711
0.8154770929306219
0.6814941338128473
0.5315775337457473
0.14802284074262828
-0.5497007899943047
0.6425131772078645
0.1155997431106166
-0.8684699398892908
-0.18270039952650508
-0.5043051561224887
-0.6470685051248184
-0.8515365241473065
-0.9429060796961712
0.3590117649153557
-0.4606835132499729
-0.5995509783861026
-0.29055139122625184
0.8793723527992945
-0.7673502648879418
-0.7511891408731548
0.5456588253709982
0.9113630925322338
0.7084612779472559
0.6390747056328454
-0.24906340067423693
0.326040811646634
-0.8199598982076124
-0.874559662954498
0.6651656849753083
-0.32452684845988267
0.21101666080398385
-0.2502040334310278
-0.437137594036729
-0.8304193018107009
0.633442397760686
0.7852968314852367
-0.245967870210541
0.7498186567699789
0.8611127276054866
-0.7104636970589235
0.7733151303888899
-0.24267106117676707
0.1267382770589729
0.6956478293880084
0.9130751494756308
0.8612851645923996
0.1639101172316082
-0.22786317425665525
0.28125394683910154
0.15936208132494056
0.07977723695115824
-0.8007903034222057
0.45723775595495986
0.18859823811708964
-0.4973399818021309
0.4845494624614668
-0.8038084331873314
0.3095724773403137
-0.7783437465800671
0.4662983802009646
0.9352666460953569
-0.03963092938937596
0.23898214213258573
0.21959050005176506
0.735852873234643
-0.10248097269965428
-0.4780773002464511
0.11487705267221449
0.5834311557470233
0.4421444969210697
0.9337680496612624
0.25810936380619354
0.01771812114316429
0.7286508084520615
0.011652721759544127
0.9539854054499675
0.836626268113793
0.4983916710589098
-0.7554393317253589
-0.33446555311287574
-0.6779165101123683
0.16802883418576564
0.4609375536806495
-0.19096543329207094
-0.9527994839972691
-0.25038198968421543
0.005893202705412159
0.09941830536258656
0.03373328626491445
-0.05922543813047065
-0.3536851785328923
-0.7106338927094626
-0.8154877552394673
0.9372962554169699
-0.719870496083727
-0.8337265388652615
0.004008270750396559
-0.5312890784089281
-0.0499557398799122
-0.624757830948742
-0.49760262136547384
-0.6236543325685333
-0.23182801679281173
-0.14216556325058116
0.756297005098818
-0.5796550878761464
0.20834122951206768
0.054057887689997086
-0.3950034859299343
0.7216747644577726
0.05001477896865003
0.37593172101972483
0.6903510689974579
0.4780354161246567
0.5617354184869985
0.04975531050747595
-0.29438000371477524
0.4540996727634705
0.7695078395028796
0.8769338055785796
-0.9382317726271809
0.40345680723497535
0.4527582173188327
0.3997127370279987
-0.4170942904102868
0.9425861546972909
0.8809253047772916
0.07136893118369136
0.3067692159924671
0.3793975712150017
0.8518895990580779
-0.18253918017942206
0.43996105771252303
-0.46317579689518706
-0.3460064694119176
0.6380624458866824
0.6823923595332619
0.727621362473226
0.8278696928489793
0.9761407581511892
-0.6611356755054858
0.44555914329549906
-0.19257143600467064
-0.5042281769311594
-0.7847742531541593
-0.029135329467964377
0.9175287502241176
0.9064664737476209
0.9932499571518358
-0.6683111236905008
0.07787246709490736
0.24841527236308192
0.511004144355985
-0.11153162087821711
0.6706529873517086
-0.24853403179608602
-0.7672680949278416
0.5433154962299818
0.945769061200717
0.6852330418345771
0.7530494656128419
-0.8670954638808479
-0.08098517228722435
0.6757204877560186
-0.3390208690983598
0.5312295038710992
0.716053670365205
0.8901383988940172
0.27624875059055487
0.889767740822651
-0.8692108772766816
-0.3294965697939498
-0.9649406397563105
0.6108572527309881
0.5358347094368126
0.8451174404252983
-0.1529245385053486
-0.9744665673194208
0.5232840156392522
-0.869699745477968
0.4220120630143287
-0.19721383497914613
0.6782756248512594
0.8948666269633989
0.888000693981094
-0.18277734950800295
-0.24330464285453823
-0.603421603454469
0.6657715394048163
0.45460710261252246
0.06651305281662778
0.9207544284632387
0.994873641965613
-0.6960155548741889
0.9439070645326817
0.5376745134590877
0.16521459355258905
0.08688913098877182
0.2455249133441495
0.5435749909863314
-0.08556116247462753
0.9931407390226663
0.7433300326309331
-0.9035810816520828
-0.7165686066940242
0.9563751642768703
0.7228689179013237
0.8040867430602241
-0.1251388187332192
-0.8195362665003654
-0.8739053361354236
-0.2218790806813966
0.8156058225117637
-0.22367575444588206
0.12075092276472676
-0.7589080319168553
0.5601635901664321
-0.9150792321975749
0.12632365540896706
0.823030533353257
-0.8919894327309403
0.5890333910239458
-0.5297193357613712
-0.5308880120721409
0.15324319672278142
-0.7106093898263679
0.5265547099971037
-0.09722444297869215
0.9604897634942335
-0.8344287415097833
0.3855836823393146
0.14280495493911505
-0.16760048057116816
0.28080887183215064
-0.061352909551877666
0.8107651969625485
0.2077819211913976
-0.8747507092282996
0.5156123477950696
-0.5827300469041525
0.7430639015772036
-0.9205998566157061
-0.029680831774366867
0.4041650446742404
-0.1448734854436513
-0.7095486406702458
0.8537515022894668
0.8774700515206204
0.5751640677484962
-0.9122008050931127
-0.8413951192241669
0.5947137020052724
-0.13541603357151089
0.49535279436802315
-0.38724973021030884
0.7193474141450813
0.41303324303469324
0.6681537259418577
-0.8683679176997952
-0.6234210069135209
0.7862994962964136
-0.38236082479257005
-0.3056881204764037
0.5329605023468247
-0.3269330893678042
0.1635124433119004
0.5421486179831367
-0.11014749923354228
0.7171423495953098
-0.0849996098309842
0.33704184402260196
0.6219535008431865
0.6682263370430546
-0.8775392544684297
-0.781245176522106
0.5331390884239626
-0.6752593025791842
0.2471587155060302
-0.703200572898073
-0.6122134014402612
-0.4548241133566979
0.789016923007442
0.8037668082654883
-0.06166782690168349
-0.3435329909388414
0.43166690365583893
0.6435688599101426
0.0013177749939050631
0.5702480917417778
0.067789998664195
-0.6704114362520635
-0.04686948590752471
0.18802978801315162
0.39250150192377853
-0.31922444587223997
-0.6915749354980507
0.5120110136224638
-0.714697315967977
-0.16411483774157065
0.5052142027079267
-0.7494977977026476
-0.34627749243489014
-0.22252888730153808
0.6965067635059183
0.37466487084483924
-0.5188539730433595
-0.9939938737789551
0.8419935083928394
0.36523968442759003
-0.9777600122550358
0.9906938179415608
0.9385163299043799
-0.5471019628381122
-0.549577765554031
0.6679501432200763
0.4311051053854751
-0.0892408795886841
0.8100864072816678
-0.7034073996359576
0.3715490139686366
0.8826256806614525
0.752191223550394
-0.12635204084254048
-0.6837515348172645
0.9543810022643975
0.762100884406973
0.9658127824290601
0.2467857951498169
0.31952804319624195
0.02009533005683073
0.9426412703304876
-0.4142320795375616
-0.5844138008969462
-0.26390768464550307
0.6722061576353062
-0.3728684246936196
-0.9433050089255126
0.9957698382296201
0.5142290524635622
-0.8233758467428487
-0.1448027610188023
0.7790529630967487
0.3105448154339052
-0.8818203887681275
-0.3403842575113565
0.07848368665372485
-0.18723286425936791
0.8745240860189141
0.3201319804335554
0.327710485583087
0.8522296060893271
-0.07916379058997514
-0.8871953352073711
0.20755273927771944
0.5597183236178025
-0.9694820792009338
-0.6925566800134164
0.01674713678755846
-0.4645971442086134
-0.6461986712778867
0.20399626898081769
0.025210434209670174
0.9129577641690507
0.2671709872826238
0.522374417912334
0.7814836637197142
-0.5793541560291711
-0.45472930956476776
0.4947451055184553
-0.03654658891905038
-0.3477691429974987
-0.2689768239769794
0.6648777152469116
-0.5871019880385131
-0.7737404516448072
0.4701745581496992
-0.2764175580320467
-0.5478377339691483
0.35651579753574825
0.4710370492094951
-0.5051043411036531
0.1294040507843648
-0.33873596239105885
-0.6224018941824581
0.2366438701504785
-0.2488208426736327
-0.09374246276602172
0.41744379290202516
-0.08502988354576346
-0.24333461476911356
-0.2986961956462897
0.8298102061042896
-0.46915553106977104
-0.21539191514729672
-0.8410452501708534
0.7910308457688242
-0.007103698897301891
-0.4407713219081453
-0.8592998207645746
0.7469719375858612
-0.05791729500282461
0.06448286624695809
0.2975573396925275
0.42818805924558023
-0.18360282375209702
0.005488794497259253
-0.2752846811371885
0.14363976879928386
-0.5857581867704069
0.8200165243861619
0.25616403736041926
-0.9857649849234844
0.1293733519985798
-0.5852727146175938
0.7209594291054333
-0.7425456982336123
0.37551406734669235
-0.34919670600758823
-0.6218776285463947
-0.4017879694482023
0.5000957358945401
0.5510345685592815
-0.1691238927883696
0.7843452545099845
-0.35959363899942676
0.19373707648116323
0.7694400110373234
-0.9194713741180791
-0.3819860730208615
0.7787727743980681
-0.7942815344092857
0.4429418242770533
0.49819475576116257
-0.5546224194468639
0.4304604763609452
-0.551502630298137
0.6705806751950054
-0.6424567170273261
0.8803231880025468
-0.5115472350179688
0.7960731308527915
-0.29799985232264126
0.2837881151719952
0.8327422561707956
-0.7209312323020394
0.014306267060050448
0.7549306754822513
0.25744430617307756
0.04072610809588273
-0.42270010499555455
0.6717517194529015
-0.7297924200677486
-0.14159257609988685
-0.4883566598926088
0.002714397819889358
-0.6678258106572654
0.028331340206468214
0.5333362367204333
-0.6393397540690962
-0.10375014878986089
0.6829219920167358
0.17492475753684267
-0.8637186964815886
0.8545820085614881
-0.6863722511978618
-0.7417581427599571
0.16332281407387006
0.6395536127771959
-0.6815203723500065
-0.21498117997037447
0.40176440378014866
-0.28432156013442067
0.08384951821175846
0.8631178104407002
0.015938062845014533
-0.7478177737621192
0.18292908092012872
0.3563780598876174
-0.9344636677025102
0.3451340409814325
0.8805337017235242
-0.3409625356137169
-0.90776882512858
0.532560332308512
-0.7897292223171546
-0.9436184580245695
-0.8092692846630984
-0.16938321334094875
0.7871314396280142
-0.4847576379563838
0.5753974321371151
0.8489642840398715
-0.5889334393765713
0.9709217366000609
0.6231424618616872
0.353842058772458
0.4751317445184926
0.3923625155480097
-0.0936810101695833
-0.6163706858730145
-0.8971010496432783
0.700719693936124
-0.8584590105136152
-0.664723700297551
0.36004917268744707
-0.9195982819873287
-0.38491554304638553
-0.5739449506832055
0.49560046368312105
0.7068359972817972
0.4151683838201221
0.7534854270002644
-0.7490635950411599
0.43643727240828856
0.013959781108712432
-0.022769142039033685
-0.36962814538998456
-0.7496446697666859
-0.25415111745192487
-0.5636885957851716
-0.5815568782469864
0.16902000831689934
0.34010550700386943
0.6931465068437914
-0.4116919042804179
0.45186350644319595
-0.7121850305224242
0.9761201916576892
-0.02640909276274095
-0.7763813683015532
-0.8206649923508342
-0.5781924599974662
0.8008209662246766
-0.6682506756556714
0.9989713798490334
0.06517332849010038
-0.3891334349881037
-0.29429580450472104
-0.35725613347373186
-0.6991318468380352
0.529103461901701
0.06596885424241838
0.6682310089434857
-0.4600321363599711
-0.6438344327343757
0.2660665743688144
0.44089098563025897
0.6875406055772872
-0.44166832642821885
0.7185824310983555
0.7380319937887718
-0.6677395610456176
0.9009686758637874
-0.1458535750204757
0.47374813424787043
-0.6631580909885488
-0.4529344666170405
0.24264493919650665
-0.5628956175620969
-0.89970487185147
0.902869315967094
0.12629854609787605
-0.02287878855495462
0.6940937173357533
0.6716792524497639
-0.7369551147585456
0.1945593853812897
-0.4946385726493885
-0.6012311714183554
0.22795160553647897
-0.05519453950774156
0.5610225373065654
0.5977621241660744
0.7260129691025363
0.08777802743188512
-0.23598327893281623
-0.7442915364195126
-0.4946253332305359
0.10314890082645345
0.14708187698381048
-0.30937544599318034
-0.1957858338533438
-0.14126506466568922
0.24817737922978367
-0.5661988915346128
-0.33156741997409345
-0.7354003547980101
-0.9150569785105758
0.8871754416395625
-0.13837274169905012
0.4497399872113992
-0.29904215994266936
-0.9847092055804068
0.8269374470109945
-0.37937370145161853
0.24739464425235602
-0.4054149552512254
0.28023343547031865
0.013366655198342015
-0.25802198714098723
-0.707605343490119
-0.12425351266148232
0.2688273391141909
0.33137606651503515
0.4964327934288153
0.5670820437692763
-0.5396332215608739
0.09403176819715053
0.0643189665410333
-0.8212013023044684
-0.8827073878094371
0.5257690602992853
-0.5968792135204697
0.7686910084465106
-0.4233641843665341
0.21112394754439623
-0.47889570867355724
-0.6099850378063636
0.5941498160739238
-0.1353252594679477
0.7426371084612962
-0.6011495973386694
-0.14508206336962504
-0.738415428207565
-0.767463209205556
-0.7875652857453144
0.3425481063911644
-0.2858205948922812
0.323403042500483
-0.5262134607051845
-0.22827112658202608
0.9485430200365508
-0.8858472236273625
-0.5906648513382935
-0.8270712986741302
0.27456333105324093
-0.7518480362105049
-0.32781693213209806
0.04625550481772489
-0.1465160225844424
-0.9859539196484082
-0.8120234633327912
0.06591619496089485
-0.6551232068746522
0.5564068410869705
0.1518250614128247
0.07989730098306747
-0.5173224065404016
0.516568594946748
0.0412121514653927
0.46947868132840687
0.6356947508835906
-0.48748325199982756
-0.8063189436309122
-0.5319787818354151
-0.06795745547823451
0.6710712675218757
0.7450524071653748
0.2060699330134892
-0.11109941100887655
0.5097288362373074
0.4335981194767844
-0.01803048373894489
0.5371758730990208
0.6042891527790282
0.7359935081404938
0.8766182772080118
0.008629892204228495
-0.8674309630538375
-0.6039241540039648
-0.11728029267174134
-0.41131536237648625
-0.0657093948539813
-0.859940614437988
-0.19750213991941767
-0.4422281104570902
-0.673361253767021
0.15421034252552657
0.8749209993589997
-0.551584546690991
-0.5423475608632986
-0.8263303321064217
-0.8986550188640279
0.41863741827017376
-0.07657225338510898
-0.406740920981314
-0.5444656370179648
0.6228158955183198
0.005633570655537934
-0.7976185668820115
0.6520142352475693
-0.5524410787250982
0.08933744225716866
-0.15793473096914012
0.8172175387045981
-0.47398926778471107
0.9089769340143159
0.8590610994897792
0.10846648579538853
0.1796533548825927
0.5408837885602304
-0.9461130503443458
-0.03237562110930603
0.961379298705078
0.4781336201668247
0.6612193946135854
-0.04527341208656077
-0.38925565783595584
0.2325057398510617
0.36957598637840494
-0.2560659715301239
0.6363623790451047
0.7641133324173452
-0.34118319509594097
-0.8281313056875372
-0.47938381076716663
0.35335843104050824
0.4545995320863325
0.30140753336789516
0.8065312219707228
0.16630612584270366
-0.3338519771594366
-0.5342108746771628
0.30400674922722226
0.467604026974207
0.8574650103816899
-0.4948753093031384
0.9703959712638497
0.24647109876022633
0.9215024272022285
0.8595573344454626
0.76119872639852
0.7879122459199241
0.41355401438472317
-0.32824600098828904
0.12115640985373832
0.2827845795158561
-0.14006156048126495
0.12573900935899163
-0.48341857411553524
0.7989832406503807
-0.5272493614929172
-0.455337944367908
-0.788940203987095
0.9965382017872486
-0.3616252326466307
0.652719021553821
-0.3058626205020176
-0.17379310196582565
0.21051802043833523
0.6005545839535957
-0.46253534561118803
-0.26337833200287974
-0.3109154171993771
0.9756900306353848
-0.04183019411395872
0.01676943724011304
-0.4312140128492461
-0.34987518290597497
0.8348585812806693
0.6997565855558627
-0.08903195382066897
-0.4767949824356601
-0.8794011914927142
0.46911489179684884
-0.37978956069162106
-0.873089302997472
0.06460117072540816
0.0016081827685967554
-0.5647268905960887
0.16739154307474546
-0.9003779317336569
0.2256565700459947
0.07435464967514394
0.2519237288823788
0.0075149060011507895
-0.4779746930467952
-0.46551493606117544
0.7439705009815909
0.5784646056301987
0.6245898154973708
0.1273245742415019
0.3831605552376298
-0.6344745720697971
0.03317043944960729
-0.7372868099257921
0.08363627533389972
0.22699268473038003
0.8239246442818071
-0.7489573813914439
-0.03798016178214003
-0.23727034828831428
0.5487804311086633
0.3519053512029713
-0.20390546712298407
0.8238223283384445
0.04182170882343361
-0.9994991442387262
-0.15685007152839892
-0.311929547934485
-0.3693029070544145
-0.2755943176756577
-0.5197085735038391
-0.5942674239871781
0.1742273414906501
0.8650160799952473
-0.3230498278410623
-0.9045647597511519
0.7578274598982484
0.7205546511963421
-0.34069849802774166
0.13400799147879727
0.6805011804166088
-0.13848198374379384
0.26263783970655274
-0.41484805530449176
0.1831002302888094
0.35178796376779453
-0.4850309227413163
-0.044886668222240855
0.06535607827347212
-0.44029568434187305
-0.5447313306012291
-0.574233236238352
-0.5305477234421423
0.656943143009068
0.8886977517308066
0.9708866246882748
-0.21266805315343618
-0.5502785660514324
0.43169429701153694
-0.9977724852671226
-0.619748230727921
0.7985102185472732
0.04419570444567644
0.6832104455437802
0.5466134415254806
-0.3408334251706371
-0.7757535295976932
-0.2158457990396847
0.8141797864234201
-0.13270737883742534
-0.8108787422315014
-0.8703428258450838
-0.9419013331781119
0.3287208262553596
-0.5985451208677692
0.4214160794929842
0.7505660742663613
0.34671361169237835
0.4870801380694829
-0.33077004729752457
-0.43283475508143954
0.22074645859640607
-0.42939849324045376
0.00233500100653794
-0.831596799880165
0.6755859097762766
-0.12060837377701206
0.1810794763546042
-0.546195481381758
-0.1196843365359912
0.3497141257278886
-0.2433057917418988
0.28328116932010894
0.05744858704511735
-0.34223757982200675
-0.4678297254954731
-0.2993098267816574
0.9268738978653595
0.12385333025838308
-0.12014681950681494
0.13716280747757614
-0.10211494203253335
-0.10789969907306007
-0.979297632273161
-0.3645564095934919
0.3240523144305576
-0.3392979278339334
-0.46547219425395236
0.8646372677377925
0.6982779034587865
0.8359742789629365
-0.5774355492515302
0.6797594947288725
0.6825331828333672
0.7582124783098438
-0.1852036706747313
0.8939163778613164
-0.11306930638615675
0.3548738508871221
-0.33573308704002347
-0.2712905940093058
0.8347779414562968
-0.6982819289606956
-0.5978077290291826
0.2760733481367348
-0.5162009444795936
-0.08454451384779849
-0.8641657190242438
0.07782547091093428
0.9084238486334568
0.39508180264684944
0.5515731712557297
-0.9056278579809491
-0.888422673019134
-0.06888893179848132
-0.4664515902376136
-0.9918858853885686
0.3849176479434695
0.12846004313762416
-0.3450813931641896
-0.5142851619618947
-0.4735379112799818
0.5301873614027097
0.03860851115949382
0.3337127001466067
0.03593813534037271
0.6206129452062719
-0.19147076168531285
0.9218783716791685
-0.5775991534424405
-0.8605753402153227
0.8572708327000453
0.22257984420878585
0.31419056103975973
-0.23482483315660496
-0.5120821540507503
0.007557614048109285
0.4715739428396635
0.009275258363578454
0.2642043626910451
1.2341039675733967e-05
0.7545571097644628
0.07217238076065735
-0.19008794203455226
-0.42406022652182784
0.06318981842399762
-0.29818763036724905
-0.9672176943631674
0.45101175531440174
0.566211386906885
-0.5376988939453877
-0.8587691353334164
0.12846218163892864
0.8621184890192248
0.18575587837444396
-0.47594688385890893
-0.8340396808173758
-0.44187126914067987
-0.6170231772522037
0.7692473521645911
-0.664700955492598
-0.8701938607451618
-0.43263203613390955
-0.07687254667904986
0.2596217432861041
0.6363451441047203
-0.964371107029748
-0.03572573532077339
0.6222775287313929
-0.2005077953013099
0.2751987196711041
0.9897548534849481
-0.4079695713364333
-0.12501603440837528
-0.35260045829974707
-0.8172865269899612
-0.4196802152705241
-0.9433132752527864
0.4860533033472201
-0.6758758226385362
-0.8583586274062087
-0.8343492850656768
0.22314108327009974
-0.47953845469913303
-0.08771584319922865
-0.9451144048329332
-0.8029191986500297
-0.11412474478423507
0.08006062085356058
0.7081746734686849
-0.45667111078549283
0.10414598644953377
-0.9378283593725407
-0.7232315742543245
-0.13260049455660528
-0.959865140156567
0.10153488192372517
0.9949396952607779
0.8272057614655817
0.5547112310775728
-0.26491412448407936
0.33738419590573177
-0.36470404079112195
0.2123429428960597
-0.6961019112138778
0.6291459604805008
0.5606500085779644
0.7288001019491694
0.03544309953139413
-0.5411705943533749
0.5688960031006525
0.3966114643707883
-0.627964558622212
-0.5548908426383772
0.8917218548143215
0.6262529953217215
-0.0694442554641459
-0.32230826475919305
0.09369191224519802
0.7272195632571679
-0.6056806570801179
-0.1507217145824089
0.48628326837204794
0.004233511513703547
-0.027278443843487876
-0.794462716163755
-0.2692292393501001
-0.9685666867294849
0.2661296295604676
-0.4656836870403429
0.3930478699546349
0.4986771188885082
0.8429839978846945
0.24671091557705616
-0.9447529041834573
-0.43471979051543275
-0.1586156225935822
0.8306692312349613
-0.2378100094671851
-0.5368799055864497
0.9571411565263044
0.8785739485943993
0.3773048757378168
0.13885438351401191
0.963318322624815
-0.20603450420932234
-0.09863673818072227
-0.818155174763566
0.35268817395552654
-0.005022993280298094
-0.04645944689616632
-0.34846093533965017
-0.3055772115116602
-0.04258442980878829
-0.6525602131845671
0.6378858130381939
0.22735620232048714
-0.1731415004787784
-0.6196157381986016
0.9480117097185257
0.47240623437741247
-0.4402505697412087
-0.1342490482639176
0.0752412338164754
0.839961820426997
-0.2083306533125946
-0.3733462545984063
-0.24495262604590384
0.1330400249301742
-0.4020060665909251
-0.5682378272652548
-0.832581172762715
0.26657765146350143
-0.9975190898206658
-0.9907850964455269
-0.12772147971431314
-0.02609757989696604
-0.02393202848639242
-0.942102887634964
-0.390123168060702
-0.469442108941621
-0.291225365619626
0.06909940961934047
-0.44038577509086996
0.18043285600527414
0.751976892608551
0.1944388023279604
-0.7312298737427816
0.05527442839286434
-0.11181683034220025
-0.6675067930791605
-0.5740867065236293
-0.4433794886609075
-0.37173256100562235
-0.6669440166632747
-0.03370220632867138
-0.7840504480653356
-0.2425995146279718
-0.5626610605086215
0.08116560022148067
-0.8424448008336318
-0.2666695754701911
-0.914057558213595
0.020804786069601233
-0.6886864554207235
0.2758329792736862
-0.48422279374184773
-0.4976911578494787
-0.6503670492561933
0.07854115433433706
0.1944533408305944
-0.46740248681526686
0.12382606399755769
0.0629748712535747
-0.3910106434661762
-0.6087458319956518
0.9623185200126232
0.2958928240336829
0.1789875827489542
0.7974908755279608
0.22697311399999887
-0.1254258904013541
0.5790381819727484
-0.9011219633015601
-0.6165720330212054
-0.9474811713589424
-0.8517222338352113
-0.45794571141949403
0.06974526438696338
-0.9762281445163243
0.3425609808541976
-0.6532030785744289
0.8393333494257147
0.9753590621179462
-0.21208171060920034
-0.3567243780255789
0.44792479976921795
-0.9174957507825412
-0.2521151525275225
0.050755132964267036
-0.1608777978436282
-0.9455293229974835
-0.6567673950435169
-0.4178614903900957
-0.6097463615812035
-0.8124292897018215
0.5608146235888314
-0.019083012786273557
0.326228240702654
-0.8893006966240746
-0.7626987795708198
-0.2798058443429874
0.40131611854627747
0.37856437074398697
-0.3085041373389672
0.6071976084960782
0.1390347847249287
-0.7469418030421155
-0.5832653618221479
0.11138486750408583
0.854112427827862
0.8263524125330737
-0.1851823428650512
0.7600623911632354
-0.12753771462610675
-0.6513670597651047
0.9678200593219681
0.7226504495170927
-0.9788327837374724
-0.23218502231223748
0.5357326001942884
-0.6196801310445266
-0.7216180397935861
-0.25041155549394545
0.9543121502204042
-0.17181887157418552
-0.8587127573499569
0.2619204896931655
0.39539795803963806
-0.6104334846824644
0.24573761173680042
-0.15183021550029774
0.5975865218449399
-0.6180489442494621
0.5875794946660184
0.7433538555173416
0.45409576505778104
-0.05146709400548222
0.16360162227810138
-0.10079041692435231
-0.57027089337063
0.3708508674965527
-0.8538956107038522
0.703134742317894
-0.8178400482372818
-0.8015264449263051
0.21873381373247525
0.5271195521365604
0.05491285907211374
0.4086268557154351
-0.26096148201287317
-0.44419383266160795
0.152417824754705
-0.8074514286101968
0.674233583954009
0.730452006259271
0.9924406462593838
0.9265968618775551
-0.8644021651335809
0.23764072311034878
0.7043147611663554
0.6923475638419947
-0.18421193454937268
-0.18847913803620164
0.0033699549583041666
-0.9138262298334603
0.22954214691537045
0.2373928295114507
-0.0052093170218527884
0.8821149984836967
-0.14630115073732997
-0.3907936831440053
0.5518540469396154
-0.3540214561006425
-0.5396480951654641
0.8643573340509811
-0.6169099468583241
0.39487082670041684
0.20661962354310748
0.6373590949056345
-0.7673808147197883
0.10785018329623086
-0.568421085263175
-0.6353481329347812
0.9892170601455132
-0.9788579883799979
0.34761055955831943
-0.6723876046081985
-0.2775778039388981
0.6425877752396112
-0.6810777636844054
0.16425959080656893
0.09622437831080055
0.7884849138907386
-0.5633150297958145
0.29793038240630065
0.18381831718687214
-0.3321176091440021
0.6288474661785277
-0.002160797956201721
0.422412216117227
0.21095955735922622
0.07810237524178709
0.7440944620699204
-0.18127599881318646
-0.21819167198485978
-0.8857527571025916
0.9717510305505499
0.30957780108802835
-0.1981801377335901
0.6440552856845412
-0.046080030602811295
-0.06265374554512082
-0.7146063405083667
0.2397341782557234
0.517743735526476
-0.3394324293745228
0.7384903476975786
-0.06122114795967848
0.4715312782677048
-0.5028233136193323
-0.6775679682450717
-0.5480779186685623
0.6894687621798323
-0.7269877145756893
0.6344578931197937
0.9268876640965389
-0.44369913314495313
-0.008552822152386952
-0.9838799419698185
0.6621091782086368
-0.8194932275815745
-0.6613681559447515
-0.24901883698870764
0.19500622308755755
0.7686165763134287
0.6530144291805526
0.06341546211427462
0.03817926817928097
0.12488032145148753
-0.968463873686904
0.030257109771471002
0.06984841883063475
-0.21966866020837617
-0.7184084351830538
0.3374079905709042
0.914593780700417
-0.4816514945587884
-0.3317531996399037
0.49733722030530036
0.14174121412400997
0.8390260796934179
-0.8439396440002738
-0.45208132412587587
0.6185747461588167
-0.14991768534207783
0.8946997517473771
0.6336517241238306
-0.03356216370678089
-0.5463922544833089
0.5419655793901068
0.11687434634428895
-0.22649221241141326
0.9215139620976829
-0.5773023712588397
-0.5101042601046613
-0.5429750004742708
0.7479465589860534
0.6652586103206679
0.766384120833963
0.6089182290936979
-0.010510714818382727
-0.8926079794052428
-0.63146423854307
-0.6309706832271962
0.931853757196184
-0.9620874246483304
0.4399070920643051
-0.3892679795673013
0.6499355663737949
-0.6719522354435732
-0.11538031600728083
-0.0670097064110513
-0.1835027859980336
-0.14354109578956464
0.06439148738602252
-0.12858172638160337
0.4743442862870215
-0.895597025474099
-0.42205455385462276
0.43190804883071854
0.0975007895633504
0.0027438289436723107
-0.33165881745440795
0.09407190424026335
-0.7010496242870594
0.8388912067470462
-0.25433445714199254
-0.4614008776509879
-0.04354903342285632
-0.11414155918922742
0.8363154343294594
0.23076030222793853
-0.8473899025870482
0.6078213459692825
0.972434326305035
0.10168479968401534
0.36201251958935177
0.2095748793357317
0.12157722728936249
-0.5996132136208194
0.6302046101669285
-0.11318418989042867
-0.5278576916625561
-0.5209235654782018
-0.6484781137027353
0.11954406687996966
-0.3029608539930613
0.8107460874216943
0.7199983786330364
0.9662304870999607
0.9223549889490372
0.6128531994091857
-0.1699481859350389
0.4139429164573247
0.11997133927844494
-0.6608677101588549
0.40046088288922577
-0.663616867440187
-0.3210923086480544
-0.6314118645861593
-0.5527033748137036
-0.7637572690728898
-0.451716161036841
0.9577154221168527
0.8248589435375702
0.4674783786739227
-0.6289363412139453
0.2564492709241417
0.8489173885460723
0.6776004806675089
0.9708330444404754
0.03712037777602695
-0.764535397220377
0.7933729269248209
0.23520709585842647
-0.9570049710635455
-0.6440914944422327
0.9033288387252401
-0.8868868932014633
-0.3243151779193052
0.016523322910815263
0.45325265785389734
0.08616217808752946
0.43097083897493804
-0.9007234008190108
0.6075358823248895
-0.3326315396884356
-0.4480568295747911
0.6003536906124651
-0.3037246397447617
0.9871117243476717
0.382665475038104
-0.1657819028412053
-0.7882647198612986
-0.4148975310305514
0.5264318044810656
-0.29832462609919275
-0.9182012517712297
0.11714778456255859
-0.6816433574589857
0.33970612475872897
0.16143733920630998
0.8958244981307806
-0.7796376541709826
0.4884625044966111
-0.14817796670427796
0.2236157643668948
-0.8395798666152581
0.9795043250237794
-0.6045044165294238
-0.14089077952686657
-0.03040849287256142
0.7707674742094268
0.8492712866971619
-0.5733617722241477
-0.8534847575869118
0.7828725992173651
-0.20590589114946956
-0.2117856820935553
-0.4187397270151443
-0.9969123622671827
0.7770850402857332
-0.49615786569533715
-0.6912896995299993
0.6964244921562799
-0.9288223990306557
0.6027925437726858
0.3084042931140798
0.8041776703738825
0.6887207181481516
-0.09318108812742643
0.8519309674904201
0.45844046671977634
-0.55625488197998
-0.5706193624957667
0.41307253900288465
-0.30282501648586835
0.24594420945390127
-0.856432949962245
0.042024665909699
0.15191117944581878
-0.48343200336079706
0.9612002476124815
0.8600360411860799
-0.5236955978747027
0.4391786798418509
-0.16809309657808358
0.6613321646906323
-0.37995350579356146
-0.46891881281029013
-0.03373476226689265
-0.805611137081548
0.14372445960394664
-0.974835170987014
0.19341790040559137
-0.6655945056766559
0.31494588986353
0.14582838876127036
0.36164809321156555
0.5419593320192546
-0.04515045634718606
0.4040264433404137
-0.31703936927028176
-0.28602726738360107
0.08974120545085418
0.12283348678212613
0.924643982781082
0.01782503458900675
0.3201352245109155
0.752185206663833
-0.9615863020830833
-0.9955668436953624
-0.7074467895765373
0.9054746541181098
0.11690486242200304
-0.8485786792417718
0.01622400419958181
0.1862586527363903
0.6507475996002385
0.7892286115046785
-0.09403823619231533
-0.13227797963166732
0.7998406958621893
-0.1989543724994427
-0.15755494817300142
0.25268611927724405
0.014410692531034552
0.23529165021281506
0.25718211609594066
0.8485185097660704
-0.4983336436426533
0.28834734274879636
-0.14278898421080277
0.6756692551312431
-0.8686625318756271
0.7242234461514632
0.14714336984386267
0.007957439424994606
0.48857622871206763
0.6926696682956992
-0.2841533556516749
0.1476536087250575
0.6899304616012336
0.799232617890536
0.6589668604777927
-0.2498755785804394
-0.5998868501446593
0.7488447860576197
0.7930694537004155
0.22539725042928027
-0.47873423039164265
0.4093336846401041
-0.7866219269163923
0.16499438399751676
0.5297174924625818
-0.5987065911205358
-0.817071333137082
-0.19038877848093017
0.81809243100803
-0.6219190081404851
-0.8371212503016927
-0.14947583791737973
-0.8487187992968661
0.6130345852207013
-0.611156995867673
0.369563030049453
0.5688255751463656
-0.29543328365001886
0.7469831788103867
0.9793546825291961
-0.8431537740274153
0.8876471557570977
-0.01638195483326199
-0.8276965755217411
0.6927960758869303
-0.07872083873728974
-0.7993556442669267
0.09136500907924461
0.7410551923870821
0.009954496806802604
-0.6645927436348624
-0.43336285773250105
-0.1724578983213121
0.61453437192726
0.04004734055956516
-0.33056510936440353
0.009102708501466772
0.4142489867714778
0.12046908622318186
-0.9607626988209779
-0.35252891771089745
-0.46152514467061123
0.37283755123147855
0.7097920774528956
0.7269883709292198
0.22636086769317298
-0.12497884859810982
-0.8867108378065884
0.9110897988677487
-0.08662224348123293
0.0039448906614447665
-0.06781377820667944
0.42721787995644167
-0.6119520564119352
0.282391456287141
-0.41047757539823015
0.4319890882638049
-0.5276689032501964
-0.30979491339300425
-0.6207373427594525
-0.4301663749006903
-0.006399931422383265
0.22727247415998741
-0.4796110290589084
0.7040150892885064
-0.6199558146799675
-0.7344058412624355
0.7418206847105568
-0.9799888555198923
-0.27560135217983284
-0.805112682438035
-0.5664152676060916
0.7575408290009467
-0.8483828445650781
-0.07563303132768162
0.9889848233165504
-0.34061815444930366
0.9785968227779216
-0.4349491052887562
-0.89151004366098
-0.05302145077135534
0.012153208732565757
-0.9124120424423992
0.007236011902943318
-0.4622128904182101
-0.515863514240045
0.2553217273880155
-0.11644127049925723
0.3161958078355305
0.7696939136652796
0.7888344729003207
0.8179144357326504
0.4459457047369497
-0.8945619884276155
0.2117030435646483
0.942208620990709
0.5550985769738974
0.743327207140801
-0.04682041090520106
0.49234373375004536
0.8511131837850625
0.06947626899171944
0.10475213786958282
0.8225779237028452
0.8033540230116774
-0.27201707476293313
0.39218261388608666
-0.23296297776513986
0.30391545372709494
0.7957355624632112
-0.8030625502349966
0.2238604223052023
0.6463114468770028
-0.09594200973352751
0.17382616254065675
-0.29047484573057303
-0.8796626238031997
0.8318703015720534
-0.3058630787683909
0.7834601078203136
-0.23938118144883935
0.8479368283737503
-0.4327161695041237
0.14711074671492086
0.38344436055380426
-0.5106011605405831
-0.1492738465167185
0.3651188823629645
-0.5338262102184355
-0.39339467026025265
0.4179607882379932
-0.7390001257317795
-0.7729507668968061
0.6721935235274954
-0.7209750784600473
0.0325692039434633
0.43463935263092135
-0.5554633088070975
0.20107788114283087
-0.6030118832792399
-0.243540303876993
-0.6264457990489554
-0.8973706107911548
-0.8432445878909862
-0.881694954124904
-0.562605588586758
-0.5287318403902168
-0.3642897289783351
0.47004890246071707
-0.5277556344018024
0.2766073512956917
0.3413323880452106
-0.6891394293112274
0.6950471387541224
0.04855284065656984
-0.5431507962130495
-0.39737532741231085
0.07804341274057203
-0.43888171520829844
-0.34536266192478604
0.1962565716279976
-0.27643531994816084
-0.8565519195994611
-0.8309906109131879
0.22213099683910698
-0.07972102736977704
-0.6835395789629879
0.6178136478754754
0.07864939644084523
0.8982975983728352
-0.5668071876068161
0.4256351434307033
-0.33037406331571817
-0.8456172057556373
0.39876804234050667
0.6853096741794429
-0.5397031373002303
-0.13923244728738315
-0.4854554834166154
0.8756532247245461
-0.5190991886462355
0.6726636037950773
-0.39446329257061175
0.6271184989433518
-0.29712864434653574
-0.7512030795203337
0.7800521325492167
0.5165674838583634
0.2948671274362744
0.5424374948434958
0.5454537681766867
-0.20193736276012864
0.9673022579303301
0.4535017508272685
-0.3488039326680088
-0.8789174040648833
-0.20817523602496846
-0.9047448541497038
0.13115137173835278
-0.06988568412396035
-0.43063118130067846
0.44595149035811654
-0.3004052161493125
-0.45123227365993634
0.6595123335778159
-0.33495059668376537
0.44800940440030246
-0.15627490338373495
-0.74637176706961
-0.14314569426538393
0.5085155295758181
0.35286956047320506
-0.8377394933650606
-0.9653949886886057
-0.6052194730930447
0.09386428813604097
-0.24689236305435913
0.27420988076546826
0.36293443070429143
-0.7731157560673108
0.25327329532250653
0.24749456182943574
-0.45439792910133137
-0.010861229711077058
-0.041694120603493534
-0.14354339096493596
-0.2763498470264698
0.8775645934589071
-0.7762740837181714
-0.6887392006616428
0.3759585291517471
0.1881141625577778
-0.6961185547709199
0.8707806318078599
-0.033718486643270484
-0.3762037466312913
0.9660323673993918
0.5571992415011082
0.851203797115401
-0.7332910887885504
-0.4944166158054941
-0.013700251141731234
0.020023989168127976
-0.4214567935587685
0.06822386758896726
0.8439658703526969
0.3481754995670372
-0.2690887833657145
-0.7014418512677019
-0.22845578800930122
0.6872725977064345
0.9728139630591637
0.24267208005270313
0.6585844846237232
0.6385714367316742
-0.5833844817916576
0.5524607561600166
-0.8384007180493847
0.2343478907658456
-0.21398602978453973
-0.1660130794473509
0.015584361173974326
0.2967553671977159
0.19851105016696402
0.6609350780142493
0.10360586896685309
0.12666031481941298
0.020325588507984715
0.8413233095887591
-0.4719025987726342
0.5713771808953578
0.19585110500590752
-0.17403054977428112
0.03603800276999869
-0.06106835392387233
-0.3511350093653707
-0.7232767642208215
-0.13492593061295133
0.8552687902226117
0.8073032478923854
-0.8569803400569027
0.9866376668791261
0.1201333106150051
0.9814958031476784
0.14285386390804056
-0.9998282523934949
0.952088683785882
-0.46381702480117215
-0.33444200018102177
-0.13089420421437814
0.28404666875887896
-0.09887849677922622
0.9751150196899816
0.9378935544233102
-0.1488779421994506
-0.5903788847553681
-0.10319953160242856
-0.683880971943319
0.31894199812306656
0.9579083360349432
0.5719630750444173
0.431300828437889
-0.617901803023764
-0.284555334568388
-0.044098608836592224
-0.2770271112504721
0.6324692260650404
0.24761980772655767
0.48690921218904926
-0.19707646215539598
-0.3113892893048449
0.8927168628467868
-0.31266300116697465
-0.11388227059304934
0.5203493689710466
0.8171250172009841
0.9149287982912524
-0.45971718618207524
-0.5074448312886761
0.5465462655206255
-0.14300266062655265
-0.6209545309162616
-0.5490967156335278
-0.7883506098020683
0.7007645277713823
0.9143612887981729
0.7939723701320378
0.980102419985003
-0.013984579882011072
0.7803051087559463
0.8138632119424472
-0.5145574653623477
0.12293867738242503
0.6550634603532932
-0.3977414052528665
0.20937208382350891
-0.9529012837876818
0.9360394490334998
0.9305874733684492
0.012407078780824587
-0.5445411968316585
0.5147139458798029
-0.2266820429311851
0.7394078979184979
0.8939638029308867
-0.9803790490737934
-0.9658892184924788
-0.32009337921461833
0.2347662820154417
0.33893991841933824
0.9967606006175838
0.6809510245151145
-0.688480983841049
0.36182040616768063
0.9895037065706316
0.4907643887805895
-0.6049100763429294
0.6363204096280017
0.6582745355233937
-0.59905232335396
-0.5016407212141578
-0.30014449763082296
0.22103021603072204
-0.14904288393949283
0.596262837759669
0.27773386081947105
0.5540302349649573
0.08699483523201201
-0.3422076366759057
0.910727194686376
0.9713375904632688
0.06658682031929053
-0.8302483581385123
-0.5452587434584357
-0.25488523627996806
0.31703540018695264
-0.2660847252834826
-0.3353889311382796
-0.16542686454854838
0.9482368156316594
-0.26677996648823177
-0.9399004934773372
-0.12708988732451942
-0.1269050242083518
-0.37804915302114694
0.047972250805984995
0.006610807174899147
-0.9266420438883343
0.7472276841630427
0.9845883419904211
-0.23718677108314412
-0.6881709752079284
-0.7195703385115628
-0.24982901415364167
0.4392138809619994
-0.8435498295096704
0.327208276096272
0.6299511689836885
0.3955613141515899
-0.26142804466809566
0.14153713844348093
-0.7987583201216688
0.11435654762700054
0.2577771764532515
-0.2007150824429178
0.7729250585315786
-0.2156015037332999
-0.9773243826154023
0.894742855173132
-0.5341709447848539
0.15373800953777383
-0.8015951874935936
-0.9842297140125247
-0.7273137667750917
0.5329568033568512
0.32027271043708216
-0.6295480995334428
-0.9892284271553398
-0.917375222367045
-0.9225814667048506
-0.9312229394828906
-0.24166198574742048
-0.7879414776236255
-0.5502306197277276
-0.5200397462917026
0.5407317698714653
0.8489790208844363
0.36158860808576754
-0.9994920065755033
-0.61014300187277
-0.017376558437078193
0.2046244713475005
-0.5655677267331416
0.9288236004433748
0.22135590431231011
-0.08016968351044951
-0.617672943596749
-0.21549285802809748
0.6456352056358847
0.2718478326807179
-0.5491097523359147
-0.6879853719603612
-0.22159586142953924
0.824628762049175
0.5715604827496972
-0.9703020503251956
-0.18732323481139979
0.8606337356697635
0.6196047017924793
-0.6555325784655321
0.6761537135794753
0.4739699119913914
0.8048574215820725
-0.549693371721345
-0.0541871134197629
-0.05002400332251633
0.07389115325465379
0.4063828420944917
-0.5848542543961404
0.3067107692345157
-0.8558286002689934
0.4335048861607569
-0.00971907303908992
-0.377296801232631
-0.9779333874538059
-0.8962913517525595
-0.5705384452895137
-0.6879731878509341
-0.02298028833741106
0.23513459625218247
0.2746473478033673
0.4460071386073323
-0.9988397079637712
-0.8712163905511774
-0.2975176877680019
0.8633758503674103
-0.10372204195053869
0.11697983393821887
-0.6477170267362671
0.04127252046559704
0.06213929262548268
0.7186641487442893
0.8266061095354462
0.024614691909389697
-0.9765053734264915
0.17497094085256282
-0.05400020878814038
-0.1521802726677084
0.9108229824486409
-0.4402706381534973
-0.0061496118741977135
0.7781756311199219
-0.6107944523232733
0.9689297430769124
0.35620304920562407
-0.325901278806092
0.9770741380102577
-0.8972607737521119
-0.17481334698221307
-0.539464377974384
-0.9081169451236046
0.778910619320524
-0.2747897699796704
0.8895088387871133
0.6707242649627463
0.7909862333202082
-0.0888886047819406
0.1303676142464858
0.13174829054618886
0.7442952182446629
-0.487523857637957
-0.3290766477487308
0.1984324698512645
-0.10351716633699892
0.2983137501572459
0.7783496608870253
0.4851611574603214
-0.06427015236688072
-0.6913042283160336
-0.3901168925489855
-0.8354282547734564
-0.6738096435379344
-0.8016712119377771
-0.4760709559614036
0.7567907042990463
0.976836139025933
0.837113967732454
0.7772171442088902
-0.08425212865236609
-0.6699038962690711
-0.6851111615851917
0.7714020848773047
-0.09603563771465096
0.8401665617316962
-0.8223538622137148
-0.8849165093421252
-0.5899238859148284
0.6196073009837249
0.7449975192735301
-0.6686739720803059
-0.6462040904324375
-0.9170947836735741
0.4558130941789966
-0.36397717542765573
-0.3012849848101131
-0.9830153929044279
0.23506511042325595
-0.419831096374085
0.7817388829804666
-0.6593552072023137
-0.17897625954001883
0.2563213488259921
0.6546736833698787
0.23112649869828217
0.35894810229186747
-0.5592431013919303
-0.44055852425081987
0.6111159367791126
0.8762310880647655
0.3330491100599433
0.42960184029623716
0.6319845499365062
-0.7171979225121632
0.8331710672619952
-0.20314219478632323
-0.7671385308077507
-0.5603931492228094
0.20040039784349672
0.7315681450448406
0.00782695934555222
0.5298194699167402
0.5948151773579655
0.5617182499019309
-0.14164701879657193
-0.6153958502129282
-0.11148348336306158
-0.9331577012666945
0.3443187465446178
0.028372835449281375
-0.5029628149436118
0.9548254484533927
-0.309007996946044
0.40110577076580944
-0.7472406224837278
-0.30144247931842183
-0.43784616653743624
-0.4261102398381491
0.709456766267258
0.06895486204951395
0.6405738589380507
-0.05916608332414364
0.0031095222188859406
-0.9846681871051353
0.231693126907057
-0.8057495352267976
0.19598056815488452
-0.3907024576395428
-0.7857993575968953
-0.6902902571323877
0.8940835572289489
0.6437688512328801
-0.34903160738224837
-0.9670434975370403
0.7382181650973154
0.07029633010043446
0.4778958244142759
0.4319920306621352
-0.4499582618315332
0.46392746987099187
-0.0944526735852056
0.6983886262782071
-0.27920798877024144
-0.035475555175607854
0.3223161925104965
0.4485438804755735
-0.3734982312747004
-0.9783316498774672
-0.1891084205987863
-0.026242154321608036
0.610612231287939
0.9537037524718
-0.6528841810298949
0.46937877955902585
-0.8477798646484045
0.5613142563871036
0.6633500518222057
0.6753007264832593
-0.21998168176425614
-0.5942461960077001
-0.32242239042888987
-0.24800300809263365
0.5594255971452178
0.024918751198208078
-0.9015442044928501
0.23636789509821554
-0.9511617250112605
0.19636559471165405
-0.3313389091050054
0.9832463628190318
-0.5365057451221953
0.9615272149744627
0.07047685001721615
-0.03860161857735522
0.8625918785065012
0.3421107696703942
-0.7761919457342743
0.5979369978726856
0.6075792216945777
-0.6044577598389178
0.6715923238173584
-0.5422215903820222
-0.7831500476399169
0.31591602642781824
-0.748875360492204
0.6572026068492962
-0.6528237958878249
0.9300900426148231
-0.5272040867417975
-0.4645451396591993
-0.8101531646531046
0.6096172895779401
-0.8070757763695964
-0.8883891808101056
0.7909222566291061
-0.07404767530348688
-0.5678379276587482
-0.09937871249953889
0.41729750072456473
-0.7809120143522701
-0.5448530744913096
-0.7690861921860221
0.0767756834756701
0.7182442029915455
0.020095373751538137
0.5208241033767336
-0.9643747913296798
0.5455584259005075
0.5026680086097752
-0.04647199760336185
-0.12133212716935615
-0.3907338095530537
0.8131169529302149
0.649028583925048
0.576045513497601
0.945321300967324
-0.19887085375499858
0.9402192045286852
0.9434390693391221
-0.8563779200788113
-0.8446446480129781
0.0178677034669803
-0.6834568562718717
0.3065009122766824
-0.9555502099044355
0.39682686446015136
-0.8896574811905607
-0.42315512947581935
0.024362449702420852
0.10104395555048407
0.28653116329608164
-0.141950915757715
-0.8730667534844432
0.39613053541111043
0.1949435479631063
-0.8190905528431256
-0.8699241427007507
-0.30696007496650735
0.3263986778453092
-0.8353649283468667
0.5994561237342328
-0.7567250269777512
-0.11143935616818545
-0.7653022591007053
-0.13639165597715253
-0.8000705723425185
0.6177288003021881
0.17027804222829768
-0.8862011163320984
-0.775574831082158
0.5475395943270807
0.03679389508134445
-0.3449167037733163
0.656188637691349
-0.4582775375841801
0.39537298176632985
0.6198327258972143
-0.3350967925148429
0.595374839141247
-0.033782873636549526
0.45512696856862367
0.3208596655128342
-0.11976573051418749
-0.710714933366688
0.7925563582663855
0.9833031424864567
-0.8383153604382318
-0.2685730828587063
-0.6825737014239743
0.7075376255427139
0.2906704552948456
0.026594669090527878
0.2981717610147334
0.4677875714004276
-0.6842491903372723
0.40781646249147596
0.08474091341323486
-0.8179752607638031
0.3690260213836174
0.1369895386697877
-0.5061801625487519
0.15173094280852983
-0.8473963283017543
0.3734725112502526
-0.5521356687962822
0.24954990951309886
-0.4427477738492258
0.9564493536866419
-0.9239340696323373
-0.18320770958506194
-0.6971104906148973
0.8521704714918006
0.4184970766396858
-0.5612143708826791
0.2476352463303404
-0.8378576632062626
0.014881704485204539
-0.9204224645637848
-0.9077269831890946
0.13069139829512855
-0.19453416765390696
0.294361406384702
-0.5790145237532975
-0.588129304876658
0.5784432182566295
0.10033882909603209
-0.7727451315245333
-0.2350340234627426
-0.15828012087095145
-0.45542890606527675
-0.5313410918481212
-0.4430718662699038
-0.7836265978601147
-0.9836971970284074
0.029274500461214714
-0.12640932845112118
-0.7118207384999424
-0.6492706235812433
0.540736093060296
0.18134898536028143
-0.6220176521271901
-0.49944969201081024
-0.21107596658961603
-0.6468368086902418
0.4969794481081149
-0.27088927687098274
0.4613507838844382
0.354228930986243
-0.25892571216115345
0.6474600799327095
-0.7958573012291894
-0.7260698724739298
0.1699203013124817
-0.8170425269333441
0.7253917863288477
0.22339174337851464
-0.41055016415418666
-0.5964156254961468
0.5548788678587837
0.3365366082262391
-0.5835287099813842
0.6344047885112951
-0.2875956515394342
0.4522600519231008
0.8620871575428697
-0.9441927555044312
0.7461068278587604
0.347588340163717
0.47016984493257485
0.035479319481195315
0.5845919869691087
-0.906029920737109
0.24403105275569592
-0.5686653358496945
0.512736418245044
0.5156544503044531
0.962676419303075
-0.06850749372934195
-0.3839697509689002
-0.28605669966369507
0.8889400040218847
-0.053244957635325774
0.5551932334732261
0.08855823149546116
-0.5907832787686702
-0.5684076923115862
-0.28396141644938266
-0.47530114898138365
-0.7261972791362068
0.10295760749750715
-0.9372576617372579
0.20982348939067408
0.5567026576963392
-0.2847417415318281
0.26717245405725265
0.616730308777895
0.9582811051825666
0.869690229741914
0.9022384401924974
0.2570018452243248
0.3669200715246228
0.0934854582015181
-0.9206209127223486
-0.9058117056418968
0.17120673901146
0.9886800105775635
-0.8633082525898024
-0.208705199770441
0.8725079684611092
-0.27042239923023614
0.7243793806313272
-0.9102424176699702
0.806054518505479
0.9925177816077413
0.19859951669781495
0.15440600316526387
-0.42491945385234753
0.584666961656052
0.6110981433822789
0.8368971697752721
0.4200883988204489
-0.9581363481363114
-0.17971190058597886
0.4833734135833574
-0.13749907834781805
0.9863185117856696
-0.5917344827208262
-0.06479442849000927
0.7755959940886916
0.06059707644730028
-0.791646155589447
0.8747539148184886
-0.1639676571292743
0.7722841781913232
-0.09399036335530586
-0.23089621458798626
-0.979886516648079
-0.3183654284917048
0.024150306300110946
-0.7284587255242985
0.37229687071783113
-0.6656397310047182
-0.9807796866856866
-0.6500278076506256
0.03517503850516435
0.20769471925893002
-0.40085317196607373
0.4853857718145973
-0.8650847657597138
0.87492674666911
0.6654524298758588
0.15440484422603418
-0.8652898306914043
-0.5428864158692335
-0.7230478735727472
-0.7795016292439243
0.6786461976883826
0.30682306496059963
0.9468929004614475
-0.12796211235955757
-0.7549293367645065
-0.0029513193660826165
-0.8634986262796869
-0.8312034799330215
0.24045224530937181
-0.6940751719838067
-0.11157098934738907
0.6558957439451156
-0.4322772570521922
-0.16933480972384274
0.8199301102704695
0.7990597057840816
0.175697144738433
0.3111644420540489
0.5295852058094626
0.44092238568875186
0.1606134356710358
0.6615821161476252
0.24258002024387304
0.01651712714508169
0.8264634858384425
0.6030783921913487
-0.4838468415004855
-0.7141401310504034
0.009886461033631333
0.9716279305450655
-0.5054734040792623
-0.29865069947759704
-0.8922622943284373
-0.2677185678060854
-0.7855138578332668
-0.607818449196879
0.6212661320568542
0.8367300696954887
-0.21135552743915387
0.7358086228961207
0.1755387923723737
-0.5999310261150024
0.5496836229962332
-0.8307066883143077
0.6090882349096105
0.010183758035652302
0.8869140869732763
0.9536044854454686
0.3869359156055703
-0.46332653045203154
0.8236894050656136
-0.6164642648159824
-0.8280752551249024
-0.8179250413100534
-0.5809324113874226
0.9949005275415572
0.05148202893697906
-0.9313070882159171
0.7275633986605377
0.7218043214096439
-0.7603405619270354
0.7870514767567385
0.44267203851402215
-0.8752837539551901
-0.43034403261745124
-0.755507178353837
-0.9895838265674048
-0.2140919256814784
0.6205448384112704
-0.8198920222079802
0.9376216615228317
0.9992310563920259
-0.9019974362098573
0.0015307292000683592
-0.015965521577268493
-0.8238936645571213
-0.298159724075695
0.4598217394595434
0.2755041819513935
0.35041894151614184
-0.21023316991987073
0.40196726983417075
-0.13407891239062608
-0.8602485662348791
0.0627221506386777
-0.2971253871670083
-0.8060684218415672
-0.7596777421145047
0.9850648237982842
-0.7861212885789322
-0.1382339005851223
-0.9035431537858731
0.1005428089137228
0.7918962381914598
-0.23851413236266317
0.2444933181201916
-0.06952338916945577
-0.625692011209968
-0.358225348367887
-0.36519683392985725
-0.6071415977005348
-0.2354758274564115
0.5266046890872613
0.5650734332049419
-0.19143523981440946
0.5960463486961618
-0.9065294185923152
0.6587083201874415
-0.0003403082189208373
0.9842377265423845
-0.5170341614061944
-0.3084332855220344
0.2293363810645801
0.13084934106713586
-0.6754054732017236
-0.9203128794031419
-0.3321034925161883
-0.7228126623550162
-0.6682408539865996
-0.5519012713021643
-0.30167796922642043
-0.9567189351372136
0.7708270981853333
0.6533332558267471
-0.859561312510279
0.2056089208470484
-0.8121018112226568
-0.3488143979631009
-0.5541816913957895
-0.426783117196625
0.5430334618667583
0.3903452276753787
-0.5328402996218802
-0.7537413845398095
0.334695259364276
-0.49865668979424815
-0.14299345467575275
-0.818652416149624
0.5383982323059939
-0.22237462479070458
-0.5157088765167324
0.44544649066326625
-0.5022978434922631
0.258164117718521
-0.8958304907932579
-0.9946034685270739
-0.2531290434173834
0.7337438638105975
-0.9716398212721875
0.4470366195588864
0.5170757103358368
0.3236589175666851
0.7984237153639633
-0.6681816602111357
0.5331476387940632
-0.9235820601196776
0.8526561942594741
0.0023631687071843377
0.17726331406085793
-0.39899612237885274
0.8258447637967052
-0.8237539796947457
0.9106160406036192
-0.8968811697792018
0.025561757570351507
-0.1692561292702821
-0.4647448674840491
-0.6031342535814832
0.5943031011238107
0.29637374922464255
-0.9972553642832982
0.05620797147595957
0.15970651546511716
0.8522420166850309
0.5213160386777456
-0.3158758681693745
-0.8681037650635428
0.6043300774759486
0.42979501088673144
-0.7757677687343223
-0.716785283577724
-0.7873419021018742
-0.9812320444151919
-0.6801550804867493
-0.6021565064678607
0.7580099158197864
0.556318496354455
-0.697051664393161
-0.10470484661305646
0.7248492661152552
-0.7427646258996765
0.25144204657668134
0.9244183849529644
-0.8102445145940624
0.2624039969643259
-0.3588257674293236
0.08519896532985727
0.24298083259199554
-0.3665159523937094
-0.2570329489530654
0.571593235486153
-0.3488032717759022
-0.9393469674733099
0.3457387560686851
-0.2607911799104228
-0.05962877156519508
0.7943494679011023
0.2888149203920669
-0.948058871311499
0.7431344391252899
-0.9707938739695068
0.09755081989046177
-0.0010122398664038634
0.17169332730961262
-0.10793237916923748
-0.06892841027688568
-0.9334716901318993
-0.6764102025552334
0.38356518780617654
-0.6222235984244999
0.20298414258469522
-0.9954561747153794
0.24485802967544146
0.36184847879348636
-0.9609086805770153
0.11256241885084406
0.11983350247859081
0.47211938234044104
0.014964493369743703
-0.21165373915349361
-0.007143976302083521
-0.223090168220748
-0.24346888239978193
0.9648100385941609
0.7776353838710397
0.7922384631175752
-0.7073961394724049
-0.5997704484348407
-0.6519345128623584
-0.4566865908948423
-0.8336919214306202
0.2686369180741901
0.5485808777776269
-0.5286029556924345
-0.14791444345404514
0.12583496448288556
-0.8876464011212646
0.5535900273887353
-0.20124457135502016
0.2846160113904328
-0.8909223041776899
0.7020870532932322
-0.24593956437946174
-0.09004698586292048
-0.3782241508267228
0.41941562515254915
-0.30991471832684203
0.9540090985956207
-0.7872759311662194
0.08129492584904696
0.765246980320861
0.981435470304485
0.8585956652207449
-0.02321955222062666
-0.3210639266232018
0.4658463735438205
-0.45506917592754625
0.03741579483731661
-0.37896275186246364
-0.060594388537390076
-0.5207073599460375
0.5313084668548722
0.9296770908911556
-0.1626218178280736
-0.0036022012863303754
0.30083499244026335
-0.8261131807512732
0.2905270869953853
0.3394863200617533
0.44817346393062696
0.005789141089839855
0.05040530042174263
-0.8647076312875703
-0.8872571271757599
-0.1467671500422243
0.21235320281793868
-0.5823602925507454
0.6617508511398398
-0.03676743062855081
0.215068596037429
0.5013199990158772
0.49297090395174714
-0.1197513415023348
0.6507417493368413
0.6695580378050348
-0.9153955700794434
-0.8464286447762752
0.3248998683357438
-0.5090752267727865
-0.2413627631226989
0.7146126658445464
-0.6241517419048901
0.7659233041988327
-0.9618964908509271
0.7786691858444623
0.10033064995429508
0.8842615169274524
0.7711161492181144
-0.6478874089006348
-0.04631277135593037
0.05508834007338037
0.27710282295250077
0.1338248324896143
0.32318804737647877
-0.023127063986188023
0.452810709014396
-0.17617552475261178
0.6370763558175141
-0.8298984485196403
0.9462704097574444
-0.4353018535390585
-0.7693275494480278
-0.2761032001271704
0.4211986158939123
-0.012850156286104975
0.16145247201657487
-0.3155194870368141
0.4247119772041097
-0.6324918585539829
-0.2105629987244031
0.3285746161472698
-0.13523476683239055
0.34935013367584045
-0.28845871446045535
0.4195880572812658
0.9603097065563166
-0.3382873930255603
-0.17094597134552036
-0.3769612952228991
-0.8045086940114516
0.11210899526062512
0.13952142733177308
-0.6021216703446655
0.2966503685701938
0.8835273422217997
0.10260113615983046
-0.8127900234057723
0.7041032838037473
-0.43136700918947635
