weights_pso
-0.07284911271704168
-0.09654600921355067
0.05772960633858288
0.011216382661825723
-0.36472709480895354
-0.5430768780504514
0.36023636599326464
0.24542156126933215
-0.2170652959758486
-0.32643924786689477
0.23763153511498236
-0.06633761164236916
0.1302571330281679
-0.313307606848018
0.321988631512829
-0.027589391314496777
-0.2769027732153484
-0.16348397389877292
-0.06587388296916842
0.011387742261341269
-0.14405410209942068
0.6082595593932347
-0.0986927403672116
-0.5062102377708013
-0.12160791247672521
-0.7605185359366815
-0.20963131014146189
-0.13978022925367328
-0.40949807741005173
-0.274714969781591
-0.1371428499009189
0.6266576790491665
0.25019925705250784
0.1865542294143805
0.1472468176379797
0.3252088534487555
0.13315641356714053
-0.47257391200822274
0.555682237973058
-0.28142776042628004
-0.08157095052268064
0.3077558739315452
0.5097528513002675
0.10184852661133283
-0.11728112297754939
-0.13898947362263034
0.6462396754618018
0.14242964783695605
0.4334367783875647
-0.2284727435480248
-0.10666367352781717
-0.40420298682836003
0.34146267063488617
0.7216382466494518
-0.5999377122870234
0.07566787105165496
0.42297878761952923
0.22563612294797805
0.5162639680475842
0.06503341312679481
-0.16367110484393724
-0.3585035391796581
0.3521605869065999
0.01607780251955684
-0.4241947194155439
0.2148368594892805
0.2857862443759651
0.4994932677607312
-0.5613352997099966
-0.46300242186067464
-0.24632096649545657
0.11170628471492754
0.21828439341943381
0.45451655110832706
-0.15922969092571215
-0.11140915426763866
-0.30794029287227564
0.25992796760196174
-0.08697262403818162
-0.09265258359863604
-0.646385162758293
0.18623611005485174
-0.3585531352705102
0.08536678860553494
-0.7133913200565621
-0.6250655782528916
0.30035010291247827
-0.15914638878387333
-0.3180433616826121
-0.12285253766883576
0.14473558011277432
-0.19003686109982115
-0.2277972267235322
-0.5773032120176337
0.1402923684177409
0.5150391657848523
0.10569257521189446
0.3625303436995203
-0.04270598128092553
0.18872883612423283
-0.81653426069767
0.28882375873331173
-0.04009344494375723
-0.333227771348392
-0.13415845816833882
-0.3193851001072655
0.027925009485845434
-0.647888650865254
-0.11838624085635681
-0.11984195535124695
0.2705959435272532
0.008039222537301336
0.41668427365236776
-0.054798982992177045
-0.22907328206948924
-0.2154329109631744
0.038871692444488425
0.3020123736492741
0.4042822601487481
-0.17180202446474302
0.21526573554492365
0.2259215330672481
0.1527961936957069
-0.08872362200941111
-0.1896211365200503
-0.5449272283381388
-0.5380373852105043
-0.27446705457141385
-0.0671404183340795
-0.5110458056222228
0.4537567659761067
0.10481406268367169
0.20775679581285283
-0.6885899184979695
-0.37290773102633523
0.31787635461137975
-0.036653460668649364
-0.326226274415591
0.3303464084943676
-0.0465440019667982
0.08865759694169476
-0.11812947985359823
-0.23910457747076544
-0.26883940175402554
0.42495244653360253
0.050734291708505026
-0.23851737675388648
0.46413013224250244
0.2221469808061899
-0.20795905007309132
-0.16864036764876633
-0.050942025688464995
-0.09544081016987233
0.19736447887728298
-0.3385087151971225
-0.04880905822498785
0.20172005407379165
0.444266573995226
-0.21078359120351697
-0.16473266071686307
0.3448512171698517
-0.28061579139109843
0.39289658215316214
-0.5123051696365908
-0.12636132196126137
-0.09469701421311506
0.7003885791711085
0.5727875800273062
-0.5508644604792174
0.24526285386054197
0.24998883799554927
-0.14204513167532237
0.1290393030785039
0.49403505596252656
-0.2181377193957958
-0.2496079283612081
-0.36890949268123496
-0.0651943029846396
-0.029802244653421277
0.21806060368995886
-0.021605017851374062
-0.12776688104979197
0.43124182771448816
-0.015823579148774355
0.08357155663378302
-0.15457818791338557
0.11329211376750137
0.28488580349646964
0.3209125976263952
0.3429667179597928
-0.21613915467292694
-0.5287626651317322
0.07841058751600283
-0.3763162711918502
-0.2592560147405977
-0.5887629570357369
0.04346420944963375
-0.1332040172361167
0.02782941166960964
-0.08270031963383044
-0.05634595337185347
0.10120703260637588
-0.012596912471744744
0.6727272859652091
0.15587985007769428
0.0018264260344046277
0.682313477510012
-0.149260935021186
0.12752668533431805
-0.0783938872641196
-0.08451422939071869
0.08563675535194068
-0.2963493462451766
-0.2559093612259725
0.482217101443781
-0.7567739137850953
0.06579657297311738
0.5023209120442397
0.111671060800034
-0.2273850990573357
-0.5954518124949426
0.14600575352602813
-0.3097938037918234
0.13459198180637916
-0.26212790908492434
-0.7031882654942054
0.3611452580458956
0.5236782760255219
0.22780660673957545
0.29073698563840666
-0.4531662696691849
0.0574897958239681
-0.119357052909822
0.16738555500273616
0.18566262689410196
0.14551801176269927
-0.2963825721387647
-0.26669417915744714
0.9161402448882019
-0.3591275540591781
-0.1466208167852942
0.14604789046258826
-0.4337087270896446
-0.3386236059888205
-0.12434574631265052
-0.3686367341701862
0.37484298549921735
0.03609703793434989
0.8662738413997415
-0.10599122837999612
0.5236346969873377
0.08275270456146185
-0.14795831181638952
0.5152049156172799
-0.0771413732901138
0.3469507051188178
0.11634542597318535
0.21375204632875866
-0.04321406156663812
0.09334082434948433
-0.2931335328369207
-0.518105811145053
0.009036511908198984
0.0264904763267735
-0.0919942957447789
0.4630137908903051
-0.31102165160666506
0.4220482023246144
-0.225739120922326
-0.23168486653637724
0.049466867767728434
0.43172873783984017
0.26322784720354575
0.5331171712743541
-0.7271812236346914
0.20377624932163702
0.5413206830054702
0.15696279658731488
0.6062989243119882
-0.134688377042913
-0.1845227059383412
-0.33157145520323544
-0.06736244720607949
0.13870762466400033
0.8443401208483207
-0.022749246347044165
-0.40248203476383276
-0.13310488022262712
-0.8110276728433546
-0.4142756407894726
0.06494728129051802
-0.3955354541900241
0.014254108091804442
0.21655694380641308
0.671791517784209
-0.04838798939617633
-0.35583342827444353
-0.3788614061243226
-0.42789231076696943
0.5074985037956161
-0.010395452965285072
-0.6649704400364874
0.13949064165419592
0.4675386895515577
-0.2254686004135254
-0.3740209735332196
-0.40645246634358684
0.07005430427966919
-0.13080420141131932
0.6270412037035715
-0.32819344111006415
0.30000475228972007
-0.09990530756444417
-0.19804571499486986
-0.05166452046676637
0.17241414183680928
0.24667726575870724
0.17842332127723748
-0.0861235533613506
0.38663872250832115
-0.2716103872305446
0.17756056394759423
-0.12346475986159144
0.5898140223594861
-0.16735580623187846
0.20475652811263007
0.1660940438628871
0.2592046725820265
-0.6345352512558672
-0.34725989526020834
-0.2861712785284623
0.0829108321578197
-0.10733333342334514
-0.2540610293070669
0.21675912409920545
-0.05041833553344326
-0.2067851780548192
-0.04784390400730102
-0.4966963654077114
-0.3602726964256205
-0.15594921285922375
0.5784986748369605
-0.33448542229426487
-0.3328229563254913
-0.08796266814606529
-0.16401641350705792
0.15377992485783876
-0.03254762594282448
0.3366714612312795
-0.15792153028124134
-0.04553147105816101
-0.33768020368872104
0.08577351259837522
0.561630251259146
0.046359526649069754
0.3309877367685426
-0.2824177318737814
0.33732188518439543
-0.32952829680981316
0.10224526289282057
-0.5578472330321802
-0.3210596872623763
0.25255320018325544
0.3035704280276107
0.29624942198003823
0.2507491635671356
-0.030679200910725846
-0.3145079040897182
-0.18547085292650312
-0.5788749845684756
-0.5541189611848202
0.08530505402994905
0.20703727817737913
0.7814717850798626
0.1723685402543478
-0.10184619081465467
0.1335616452025398
-0.2689803713551644
-0.7289037877261317
-0.15173592985739776
-0.10090548054269138
0.029369413200747124
-0.2944384058148135
0.31032535890658663
0.1624272944395987
0.36556664749093565
-0.037482176768115646
0.2920444317115399
0.3398587226217517
-0.31176848154106457
0.6046257182431924
-0.4674618607195051
0.0739485890216283
-0.16240487901940778
0.5319654205817175
0.31945580223047626
-0.5069153968166548
-0.6822662281919034
0.3304558317803801
0.4478247596379903
-0.27665960098970543
0.0811006722776871
-0.5770255849861227
-0.21634790100702625
0.19464041018841466
0.07234090641328797
0.3575365153800944
0.6461226661921912
-0.04265184230389462
-0.3783803368501017
0.03327695238252812
-0.3677089697944793
0.08428477850906577
0.20561320938106462
0.26224325126159925
0.03498756887137611
-0.18366838971441918
-0.1873907591072074
0.4174108534819546
0.4639517010927712
0.22000738531900807
0.245323373608672
0.2504350712405784
-0.07002634337484336
-0.664194026218372
-0.11652125401480977
0.345469112603094
-0.33365075226802954
0.0096324035796707
-0.551281329348423
-0.10817718736805962
0.5562167629595227
0.2083088513367494
-0.5594128990412506
0.09560092533443011
-0.2963344423473327
0.07742093236105226
-0.022431622381890726
0.31217340869788396
-0.020002970566137413
0.4788705669995709
-0.006491303973780193
0.1965534623711672
0.36785264125876677
-0.23256869434596528
-0.3495233980379001
0.039443751399448196
-0.3300863732514995
-0.011737464175667863
-0.16701515468524641
-0.409743903152117
0.19991205428433328
-0.16636661648067394
-0.63026172071547
-0.029499890952213025
0.38313731722952626
0.12462556423980893
-0.19784291915134797
0.02623166553317047
-0.6386702234584697
0.20559222456669943
0.4743382476440163
-0.34207237432131216
0.36581970501142
0.34102899304172213
0.24527776217479114
0.34070823505352577
1.054619672318151
0.033886796146025716
0.9488463415659419
0.015572543596558675
-0.3862652814540265
0.10486047747285733
-0.16177056858656882
0.38012392355966673
0.07371346604519785
-0.14872281983717234
-0.5602660974747163
-0.32674594700979276
-0.13031480937699352
-0.6276223133576421
0.09324645466770545
0.21601974503010207
-0.3067177787950744
-0.19720371181796295
0.5198803772359262
0.3180485580672564
-0.1938419377717359
0.6139820307053806
-0.9451085771593524
0.48237079813357275
0.6645327536307425
-0.8748236756961549
-0.3684890792992983
-0.5482312581426986
0.21006170727680668
0.6755148866240357
-0.23717629059545942
-0.15320850097180627
-0.21849782733724318
0.3099669580892886
0.32761807038609203
0.179252367151591
-0.03822774833953072
0.42774994298577035
0.1009900133979767
0.07451252641338393
-0.23358752061903776
-0.21300853307289108
-0.05221212280165269
-0.24370843448218998
0.31711614555740275
0.06983401102065381
0.13822196189258762
-0.43079472756765913
0.1734532232470872
-0.05072961925175287
-0.2827638557476537
0.11507622582501663
0.3803205698485706
-0.012795066450053818
0.0936819273587557
0.2307389256375481
-0.13330578350549546
-0.38091369803371383
-0.007553953041289616
-0.8021934565616937
-0.08596249102244255
0.11372443004896785
-0.036195703431290256
-0.6178206753541488
-0.2976097120011216
-0.07946048985564205
0.5487507297816301
-0.12731631333719515
0.07247557285161267
0.5197548465075678
0.4042961810321542
-0.17072861551820712
0.28865714027615075
-0.262881598053833
0.3386680881445593
0.006377239680622946
-0.5363844921178583
0.2707424069492224
-0.24783971918231112
0.05336603755748998
0.20728866141324556
-0.3175666222887321
0.3712176568896008
-0.34198784206953725
0.08138314990936855
-0.10194534287454989
0.3495967854835137
0.3314236042422454
-0.3694258905297489
0.29716683239947284
-0.2171365190187132
0.08053610027244444
-0.10953465706269812
-0.19796058250173312
0.01116557733529102
-0.14229757987272817
-0.28465844744898405
-0.3944516934557782
-0.6997910128801508
-0.03470188547098396
0.09976899089320058
0.3277159577643025
-0.3544232861879206
0.7804056625430524
-0.5666387340127451
0.12178145311734064
0.10522328301847536
0.647384638647279
0.11564969194304807
0.7241779151102848
0.05846900331383396
0.04948953343755419
-0.1280504264487686
-0.3005245906589572
0.8885225505274258
0.11704185714295659
0.16798933359811202
0.17647212358551884
0.877449292703201
-0.010773705667369963
0.19472845772221525
-0.1658618732171788
0.31095685106123144
-0.3864876961888464
-0.01228036960741147
-0.372665697797574
0.37757339190402844
-0.19023151517781478
0.07260623201215018
0.27995994031825633
-0.022620720023172117
-0.5766540760893218
-0.03842202717654855
-0.22112544743560236
-0.27441430728748106
-0.3528030355259521
-0.27100594277442774
0.08488763823431407
0.09229469294293956
-0.4793590521083245
0.27576458702585555
-0.19235454471397992
-0.1494318545594418
0.04986510947028576
-0.32485342090090924
-0.10744822592426662
-0.10518379815623076
-0.23668344340015485
-0.2753885193965449
0.2618308802393679
0.03557106786989462
-0.3771074711490213
0.6624954160525949
0.1861874762874287
-0.45930092976727366
0.03449387659442177
0.1186396620465714
-0.07329182808897111
-0.13717938699423235
0.013851349798982232
0.3202142161825668
0.05540898645791186
-0.5804928958254815
0.6001717817591166
0.5027195119279313
0.4625719375261509
0.308508490631162
-0.47310558283357473
0.31716729487751966
0.048656758064675606
-0.16178639064932396
0.549420262568777
-0.2789411326849885
-0.46685999485031376
-0.30263821217322373
-0.21775447772310802
0.12788817020218363
0.5622288084617525
-0.006790756517862139
-0.34385311419243736
-0.12787618267485515
0.15372687496146195
0.08029285429115865
0.24340235128900092
0.04443270220361918
-0.7204173359753717
0.32381875651344416
-0.060619302604170956
0.1550294486417416
0.02687539955198589
0.18088262345062672
-0.06335397698030074
-0.07536989605912013
-0.5572098269647072
-0.6740754670270033
0.1523050592355409
-0.30357396622776345
-0.28020172287619843
0.1900032691364961
-0.23556153265950286
-0.4163539718860708
0.21939354966325234
-0.42127577914971853
0.5720563096258542
0.09817315553897857
0.19759326726548124
0.4302378914753002
-0.21740121402587978
0.4667686693758712
-0.23149712414453544
0.008188410600894263
0.41436688394281607
0.20656271001346452
0.09090592715780954
0.3090459696049804
-0.19957690569491204
0.3392887976982202
0.09566091013615487
0.02453461273062846
0.36319526809001396
0.03249446544024226
-0.49472837396136476
0.2216531942983842
-0.10894979991419779
0.20807979585939593
-0.17901659475480014
0.09526947234245556
-0.6502308500787881
-0.3729196162264732
0.15740746244063628
0.576787654116695
0.11236162832038157
-0.01960478731798116
0.2031699228961573
-0.522630670774946
-0.4987113804902627
0.3339116343988349
0.2028065877732822
0.09357939130469974
0.08387837717625425
-0.19523803788877292
-0.004987155839099857
-0.16680872913821126
-0.31762221510802846
-0.1382478390980781
0.11475460403255967
-0.1675765082375513
0.12419425235952754
-0.12358076752956373
-0.6655459948254947
-0.03239111539925969
-0.10677309494883498
-0.3387756288631704
0.11621400833619375
0.2907854484200132
-0.16069005225646837
-0.2844753418873474
0.16249206054213092
0.20472021251286218
0.7103615692180024
-0.2372675539155043
0.40955808140481037
-0.17155247896242787
-0.6639453919591034
-0.14275011822419365
-0.08442795972868938
0.06217391708929743
-0.07588142101641784
0.5283295493996332
-0.4700077648687927
-0.05560389640208661
0.6169634895157846
0.08567006069976414
0.701299584667324
-0.21363659137128907
-0.2529562922544067
-0.3424182857910461
0.2267579329496065
0.04722565573562438
0.10637835659966949
0.1971557172284282
-0.20219273999584714
0.17638674847111255
-0.24421364642888035
0.21889966791464938
-0.10690972607407748
0.15420627117423383
0.18124272806529737
-0.1881521772060718
0.19164960531185773
0.6029409833849898
0.20706399157080047
0.03906631209207413
0.3298086529771077
0.6357802939762345
0.8339649876183971
0.2650892835031111
0.1110712136516538
-0.24578863372547782
-0.2960405319955795
-0.07819595234331135
-0.3094294568450947
0.03590792829497883
-0.5628735996202933
0.33740782536845293
0.3475327856125672
0.07713713388143502
-0.476949012049536
0.11748703681061118
-0.4581253745471735
-0.25792569551789685
0.05101777968396814
0.1020614609342252
-0.17569690343433914
-0.030307979990170975
0.057214979609353636
0.21366499758614607
0.414455718058344
0.28967215199603485
0.5900425063397496
0.3018454315082522
0.40213592714926955
-0.06562938549080441
0.002990542469007868
-0.35191614605345933
-0.13597339396090483
-0.008816306070099441
0.18149591404037557
-0.3303663621824789
0.6480459241275839
0.15153975848260606
0.4292456324987445
0.6587695413295807
0.23622152395152246
-0.6411781822474792
0.2127053173483024
-0.4193652694034245
-0.0757660504154331
-0.1305466416236139
0.838694368927761
0.4313089987629334
0.36216710728950663
0.4059637456819138
0.15113527738362229
0.14288022135967898
0.476006710340956
0.4133769850123266
0.30794643065890365
0.41765017315528413
-0.43060574698322474
-0.23753101308321029
0.25810234264927434
0.13007087053422967
0.008612811222172102
0.30342516074993864
-0.1890666916466616
0.5813612782491367
0.6857504694629672
-0.180587792760178
-0.5828726495937325
0.11743273062453673
0.08030539205221701
-0.13196452534429726
0.5739880570078413
-0.017505744656030397
0.1332489461221432
0.18407932912059896
0.039297357605979605
0.07144075485153678
0.32294432151415614
0.23554126776350084
-0.3281662791137845
-0.04331664618638526
0.04869132095153669
-0.5672058198802369
0.26588422351363816
-0.6862202915953981
-0.45635812129328845
0.04815561920270621
0.09802876480676234
0.05665208796229688
-0.656931370454884
0.29833505385386405
-0.47631556250588647
0.6454703852285932
0.023921335336034223
-0.34285378699223384
0.03818040260099465
-0.4276289595882588
0.5074600109454794
0.4868592466046016
0.5338935704621931
-0.6154456361426064
-0.016010577137301384
-0.30185017135076236
0.1492035562524345
-0.0737267149458693
-0.4939424104987085
0.10578934170095455
0.21330052923557702
0.10917812646216676
0.32334896527177687
0.6394720814437083
-0.2483065421931729
0.35424976232739475
-0.402181546552201
0.049956804879902485
-0.03485851310454586
-0.22840618041121963
0.08557669167881941
-0.49495058423504035
-0.5275816307676391
0.09188840770031265
-0.2536488067842168
-0.18154699921515033
0.4220569397451329
0.5168948872435447
0.5805073955742437
-0.3463686357356284
0.4324526168627951
-0.13341938100351905
0.3404975306837913
0.47613874337622514
-0.011933365451255467
0.00027092734915480307
0.6011744237188443
0.4050145633981752
-0.40846993989893127
0.19708723318253363
0.37964753319417077
-0.2899839439652459
-0.23573014873113926
-0.16714097020088434
-0.0805653473812186
0.07434069524056032
0.2800029329710154
-0.5228189595565936
0.2388116946617857
0.5190825726616354
-0.1461820186016365
0.2448809945501271
-0.07452007011807517
0.3881367028169063
0.3741884892334269
0.35307764273916065
-0.8022134715711189
-0.2433414250700566
0.06954988533162638
-0.7193608649503578
-0.7769544652007029
0.2546129369629033
0.6543038591121991
0.3356423081247022
-0.1576581086971501
0.34286077296897005
-0.35307791820465173
0.08072050443142118
-0.7407623571492553
0.5614003991733116
-0.5464156286812866
0.2270625633397597
-0.7092370915059336
-0.4646170531457509
0.13055242344459453
0.37736874623630395
-0.31737265308117096
0.248083707173646
0.3429010291899268
-0.24330642135092337
0.26024301940428635
0.42031426108029873
0.03759636471307261
-0.45976845707639374
0.19415274822969308
0.48100882396255584
0.3234058108255797
0.28425842565178977
-0.2682156731986574
0.17552062081004594
-0.1452437582516413
0.024184977889464797
-0.16698569866832239
-0.6591635090927714
0.21655493786329594
0.030965919711363997
0.24498306497729874
-0.034652373942404176
-0.15939800243304872
0.33616487302081993
-0.3503170983411233
0.4468610894287979
0.6275690169938574
-0.27847724472849467
0.6723887346218193
-0.04685269143600718
-0.03448913917240098
0.38071330908886164
0.16581212030011624
0.05322086305808461
-0.20004030135520198
0.1751742113182442
-0.056582274356954856
0.3121752056149127
0.12156158374530343
-0.492243834559156
-0.039279027958721235
-0.09905107281069693
-0.5555103734762067
-0.2077442135822999
0.4012717643728885
0.22098167325340556
-0.45439624872821155
-0.28428974455127975
0.04019161710038528
0.40679759672506277
0.0993838486472272
-0.25843804972376333
-0.29837844520969126
-0.7103784168684042
0.1648651003385501
0.05593536226957966
-0.724744843679245
0.7852457961770949
0.35554783778818017
0.13679595721508275
0.058193108665430836
-0.28747377942871266
-0.6864947817882037
-0.05679610769923022
-0.09856685047054936
0.007324363455402386
-0.19611947988985357
0.4962208152988177
0.0978666526939245
-0.6922826950265542
-0.2175844489983727
-0.6827738359099481
-0.5657921665436138
-0.21838584821280868
-0.14200937275668582
0.09966081746220307
0.041102237767273335
0.0403557226417192
0.10061586144942272
-0.14190396434105734
-0.1337625038887067
0.09069712258162613
1.0779404619169088
0.15228762461696932
0.5781327555574806
0.4703015937457142
0.2783985208090903
-0.06523389551827871
0.572649706238378
0.3994190392364323
-0.3188211595110668
-0.27530241687401064
-0.050188767748909256
-0.07954995620917404
0.46538182265285577
0.014839195772219108
-0.28463818796621715
-0.5636020632104951
0.657305089589308
-0.032120505703365394
-0.5824010363308758
-0.3963125840680228
0.4083982221571367
0.1742124889718942
-0.22018911449587444
-0.21435320546118142
-0.3775029185484158
0.28324809626924147
0.4999236088492729
0.3989286705551446
0.2729075531918882
0.026941668521012527
0.4793703362539605
0.19945653922781517
0.20758577795020883
-0.3072596737823503
-0.07313955043637294
-0.02242792722957697
-0.08317737694771368
0.2467184982901114
-0.36119529058941663
-0.16921039306581917
-0.40956495111236235
0.0601651368893892
0.2543197163144248
-0.18560989234105962
0.4274836994385065
0.382670968734192
0.18394303218334837
0.4877770011849876
-0.11425480220357541
0.14329153457814253
0.18177841326547214
-0.07264720878138452
-0.44670359623690403
0.02645608071377008
-0.15796765583110953
-0.2434921297813779
0.45105119295081975
0.7753124265849236
0.06293261134700906
-0.8880001687556468
-0.10037933739248127
-0.08263605558962349
0.5766084635893092
0.41144263474104964
0.5476853156876696
-0.22423882396423758
-0.2697737530279351
0.2325975609616668
-0.5660145273790514
0.3534484137275757
0.17293404350592076
0.22739880813198532
-0.11668445143769844
0.17019126133605886
-0.5029684562213185
-0.2477027635740134
0.6484978685603107
0.5380741393827332
-0.04495712125436914
-0.5382533451767716
-0.23602242760460793
0.4353032601253615
-0.06321640105663427
0.41241659594339375
0.012213847170794677
-0.22337351735705718
-0.367967177119169
0.2924868257159425
-0.17271643043228166
-0.03589333676508117
-0.7752169465465916
0.518396393811883
-0.2672820250204272
-0.1691552725950909
0.4406485075293497
-0.20010972916203176
-0.03062828670322191
-0.13386761099905728
-0.17980791100882537
0.21433684574067174
0.42183900111260353
0.05240874264906931
-0.05601344009189499
0.2132192045807922
0.33949485961265247
-0.16325679915250266
0.45293962827928813
-0.30235408601339253
0.5911991671925949
-0.4690459047916352
-0.043241270216744905
0.07301824568546228
0.30134805220339667
-0.6375104780735524
-0.1526878029937336
0.09580174898267801
0.048128797690085316
-0.06854900576949412
0.4667834984678537
-0.22955721450259747
-0.11681319683920142
0.014896072443081993
-0.37584740983015297
-0.030420581728483265
0.3839924145347408
-0.49226883758536355
-0.08788797902483807
0.03416974179495941
0.3412502554603318
-0.27588253081605996
0.24014959254414384
0.082569699374783
-0.018502031604157074
-0.3908073007198792
0.1928740721501271
0.34243773672695366
0.05838119295494372
-0.4310625977479975
0.2783084719249054
0.36999914750534774
0.2124694548641119
0.458049934050202
0.13451502316958483
0.05131554788111977
0.14590746918371628
0.6108025429430061
-0.2637741304152809
0.06981886087641762
-0.11183453978015737
0.502150572050891
-0.5438305598443416
0.44740399518595714
0.33520839913749606
-0.06053625462607066
-0.2899096801504949
0.39342102847318694
-0.25770071790920657
-0.0009291004792678256
-0.2380699486289316
-0.4289579908866334
-0.35146586143903935
-0.0513970257828421
-0.6455135038742907
0.1856206356093609
0.5424625387517923
-0.2941284143609706
0.27305154026977146
0.11769833708104899
0.10826275056121397
-0.6893786689876066
0.15013630444446124
0.04082690507785203
-0.17663481455292157
0.5977575707312691
-0.1914940031944869
0.25764774023275505
0.5704226086813625
-0.02166227123861946
0.38035019343204346
0.26840543751902896
0.3953940872206136
0.10594406257830652
0.10266055176008909
0.15426327871636383
0.12787828238206192
0.2020262304073142
0.5845901641184743
-0.19569890931058026
-0.6934032458611431
-0.22676221031981048
0.41637539697197357
0.7900784187945326
-0.0943064296151081
-0.3680364673422931
0.06843696562335987
-0.16498842251242662
-0.24741092002122073
-0.0524961201463944
0.16164445518693243
-0.17023093620646504
-0.017440543352589336
-0.0766539704906947
0.6441811831546417
-0.0560837509817095
0.06038819152009721
-0.21407837231875992
0.25626921486174387
-0.35018621284756674
-0.25882454563114665
0.44918612253644186
-0.04936733835000531
-0.5786780189454481
0.0864769843378624
0.1478886934875246
-0.27152628263632395
0.1697780611927499
0.5248153117233673
0.0675469287826621
-0.4769715252544223
-0.12260816589294105
0.046116022846907606
0.02360729048043613
0.019173491187679564
0.27503951205566446
-0.08754348733565423
-0.29932946363414764
-0.4667825343097743
-0.4097797283341275
0.1324972299419113
0.20618975750841317
0.266822733169799
-0.28893862852258684
0.190961724310756
0.4135823704204033
0.2397561397778106
0.3267886145006152
0.5143160839114918
0.050785838829810484
0.3432404087904961
0.4313142555738774
0.05995932012012446
0.563934092556576
-0.2847864776578244
-0.17918302162302932
-0.032308143300865406
-0.11378104960970467
-0.2448312329514663
0.09553113702477967
0.3525756034393113
-0.14666327611551053
-0.05476931459206442
0.34473118455565654
-0.13243535102048162
0.43852987282341777
0.17551659970834327
0.23588125979223235
-0.09679360817410827
-0.20897998500745762
0.09971596864680081
0.24885407804262347
-0.1780099516920599
0.1032506251681059
-0.0155305217943232
-0.4787004991815761
-0.733158607141957
-0.1881205641219089
0.10158943398058448
-0.15939931060035092
0.15778268559140893
-0.6087868022910116
-0.2971926244237701
-0.12531802152983257
0.35427128652004164
-0.21308978547684085
-0.3056753903774101
-0.2507786646984163
0.4569481968132147
-0.5075848145238158
0.09191794491583692
-0.3126154214717822
-0.09507878804653883
-0.5841264810977327
-0.3949677215923649
0.16043783318540109
-0.6362826146184376
0.5294292383816105
-0.10160539177423439
-0.07648524639120073
-0.0280655245180098
0.5810987340704477
0.3320447538405134
-0.029363977611296728
-0.18341760762070664
0.1843020914202538
0.35995638795212914
0.22716174470781098
-0.02659887503105461
-0.0445856259468992
-0.14688963015166967
-0.3547631688846997
0.09328747891265993
-0.3427164710446056
0.20999004537384922
-0.013948466875154997
-0.3361678484030707
-0.5896278072493587
-0.27832381842478254
0.6244642473415475
0.3631316982812879
-0.05360512124326842
0.09692234996538347
0.1203973047212322
-0.6646052400594351
-0.013334083304453511
0.27645840858085
-0.18882265773810678
0.3240447295566327
-0.02669234619179102
-0.4366740956845648
0.12308766208225042
0.31522343243947604
-0.3848305697119238
-0.011394092312845805
0.10751775763911395
-0.34165895594004664
-0.0479858056921844
-0.08412817859934628
0.09230382533720959
-0.15230855490321862
0.19137466974008627
0.6561815381678391
-0.40938021315905726
-0.5773602720944827
-0.3133356740752454
0.3295002062844573
0.04150214676954229
0.17853774866577327
-0.3577927162606236
-0.09210081868022403
-0.44802766510434877
-0.279308832000892
-0.39662995173904747
-0.4144155673320512
0.09016499719876139
0.2274599836649608
-0.24992141583466485
-0.6882705618047213
-0.2200127244979323
0.12458538899162824
0.28368667133371056
-0.43262256765554835
-0.3127201126853627
0.09315323467654664
-0.377727250069251
0.20473425109497292
0.07964935821753363
0.46108550648145435
0.47631941717367904
-0.21304325592719237
0.15363675292491966
-0.49443295634175405
0.6727689180790395
-0.4134948038915267
0.16524350268139001
0.4182932489085239
-0.2679332967690949
0.22451826297664013
0.6175333002119757
0.04896660996947042
-0.5414384326542785
0.1478501946549353
0.30953746372648566
-0.06410185801736032
0.126373261133403
-0.4542187845881904
0.21525208050528302
0.025644150559655965
-0.4644378850262395
0.0984977834340923
0.40479397282158985
0.35152846906077595
-0.25003723692777874
0.6002019085219475
0.03163796987290064
0.16719813363476954
-0.13234969655258352
-0.38091033063841007
-0.13480727264277312
0.19106873577802153
-0.412024525756349
0.0030773610486565972
-0.5064977081181634
0.20305618303361575
0.15319285836916663
0.4766446163238172
0.3197490555553306
-0.4074548739783741
0.2008823562764114
0.5406341696709684
-0.401905027284956
-0.6270761818251539
0.19654223504071158
-0.3393703810773744
-0.13817887199276974
0.5246639212202258
0.2753997094612095
-0.3178786598589315
-0.35412010681402156
-0.012300775377019468
0.0547135001325188
0.2334971290672803
-0.35614236426513823
-0.06307435126513426
-0.3541287182112253
-0.1763050816535679
0.6297742482857771
0.3706654705619641
-0.02821922278662858
0.4614125233004424
0.11933758934996672
0.22425172792692033
0.25695076393238186
-0.23832436611076255
0.14547114431309363
0.29305359072726633
-0.1181676725631874
0.07474115753064749
0.8125172561412368
0.2743999476013822
-0.21736542561653316
0.09808159973435959
0.23231280793727824
0.08512838174699862
-0.7242619134190175
-0.26362774261533584
-0.05171706384481432
0.20590102429954707
0.17600675174476713
-0.681005781032788
0.33720471478606795
1.0128768316681207
-0.47327154816039346
-0.4463959061855258
0.3459265366673347
0.1347334270451832
-0.007998453625772428
-0.010684532559967853
0.20046689268292694
0.06551761312587709
-0.009861438804328488
-0.10714405029639423
-0.4764088736203982
0.2278922951260135
0.30666700301804645
0.2759899937854664
-0.0054044635981404755
0.23466969430484458
0.26657297236405014
0.25934100173236296
-0.2678596384702191
0.13907811631993572
0.10690726043678635
-0.3006666440228828
-0.07335108192739483
-0.3527992107219192
-0.4178796558321355
0.13622478608908975
0.3805784866317228
0.3926768988379148
0.4513099405234816
-0.004322390556395743
0.40166884116109003
-0.4261491711799165
-0.3194891251722036
0.2108345978553652
-0.16686306165431317
-0.15510491454488343
0.4206826082654384
0.28744942173362564
0.051689708398733714
0.25531735417809465
0.2006732118408169
-0.24024847929400078
-0.23430305692107117
-0.32949804369837116
-0.14329833314446128
-0.11346130909511765
-0.20132542695423983
-0.21368785355390807
-0.31658486136924113
-0.3541037638408931
0.7827883609115576
0.2691518498154515
0.1459964014788768
0.11029139331828748
-0.2516055248684212
0.06831607582005089
0.33825519099064527
-0.05165852915585788
0.022278220411071532
0.36517133087047593
0.2123318725058579
0.42442423751089814
-0.2988482915600693
-0.5921751957558627
-0.06778643721844532
-0.3478470290762869
0.1926448840796487
-0.6434232205048976
0.0734811535073825
-0.3971532530162234
0.13175629533050284
-0.2203699088495754
0.00633580115606279
-0.41631251775598277
-0.33520349516569825
-0.04099895082357521
0.5444884891874986
0.1912703897139811
0.06662959890611417
-0.0705250706554888
-0.2869538877921548
0.6237475798124869
-0.4195970608870742
0.41265998802542253
-0.3391665129992567
0.5444641093370347
-0.08016721558281302
-0.35370888168284575
0.03383336862938867
-0.6679465686717545
0.1643484035367573
0.14999138890957692
0.07442073395191483
-0.5601766508742112
-0.14753331043413062
-0.2793541675598485
0.4482186074000535
-0.3706940462474331
-0.457959820910174
0.2888302436173215
-0.07190057072730519
0.34262987752786683
0.5174579446786357
-0.4530644148949726
0.06262725633462461
0.12774772896234976
0.47177269380811987
0.4700541250340613
0.0002682186956791054
0.16262321403779795
0.24852124287577365
0.49413475876422597
0.31022877952432826
0.02239607329638031
0.37011524061634
-0.0006872234934019823
-0.06303923413014517
0.007620791143396414
0.054836954307461695
0.4181374635267711
0.7741823760644998
-0.3256135425144933
-0.17175598417793314
0.04443856122780637
0.04633980265888856
-0.1529530700667501
-0.055118831267148075
0.6580288842058333
0.21603099911502194
-0.24986073758853006
0.4436388976826626
-0.09301431132643671
-0.16061998737821193
-0.2885561161249477
-0.06715102537944985
0.3658441782348727
-0.33158901327534485
-0.14834533806780517
0.7655790744382801
0.5796899393770116
0.06652255786467355
-0.17149382286202589
0.3455005984371497
0.10932723931971168
0.33027667362615687
-0.26802433483812854
0.1447366701198966
0.0033107944543850094
-0.243426185517088
0.11185073257192833
0.08608433078131436
0.5193341626997923
-0.1322661272283602
0.4396877070392046
0.2199438997436555
0.03991746647869126
0.04862936621268134
0.32072156461431833
0.021829070370003142
-0.2070797640109707
0.7082666693899418
0.10950348748630064
-0.05990787056798584
0.1250844458475781
-0.10899545970644539
0.22221014279250037
-0.09382118874947239
-0.038488832295990316
-0.3214457452251641
0.7772824604029439
-0.1580543155113404
-0.6816074458051247
-0.5190203460376732
-0.5422318465998444
0.03470743710881127
0.040195583147968075
0.13427907366777006
0.10983880884296732
0.3290912014679009
0.05976155325161575
-0.3709359709305466
0.13994136257223627
-0.5032973718295807
0.29963981469031986
0.09068132285230664
0.09233276761096343
0.31445332695914385
0.4064788427320166
-0.5158566108830603
0.12909491210225704
-0.5916965243837231
-0.17346812587162067
-0.20956283776805298
0.24139307884031957
-0.5351795480003687
-0.1682916128956434
0.5163728526301108
-0.1799806954903526
0.2178393117261893
0.109951769047502
-0.5305618764092701
-0.11705804664475379
-0.33565572241984787
0.22114517661055888
-0.06933542296524918
0.5025250256014712
0.22206575277094256
-0.14411820595133734
0.025092213234080472
0.2577308472723563
-0.030425111482211598
0.5925141235675382
0.053933637812931784
-0.3494719379505938
-0.23469436175339412
0.22671201532034463
-0.5312351650031971
0.2174933159714705
-0.23264944865317258
0.20515746570993912
0.8975941479504553
-0.6768024417693862
0.5292150387861846
-0.26876706339058914
0.37118858371856
0.17840255954248024
-0.2724489657760732
0.10567823777295696
-0.5362052306111509
0.589773787793359
-0.03856569225964234
-0.3070658486750012
0.3817116250350636
-0.49514803348775605
-0.02670506544542035
0.5191313981233756
0.6407034055599641
-0.42389975968217747
-0.35927477944005687
-0.35393023308941185
0.05616773936740959
-0.14901150054510912
0.4839666777449811
0.5043238386562563
0.12552024551257956
-0.10446913872260728
-0.014679652462256516
-0.013066479679413665
0.5591115347561857
-0.25358471289154666
0.012396845856679724
-0.2609915781045888
-0.38152402001973934
0.05089475234741169
0.3191831351440943
0.1521710898549017
0.2684016592212652
0.7944607643669483
0.6565226104285292
0.22309810422833268
-0.25018934292291817
-0.34525410223096853
-0.16186128015261889
-0.04502989730741505
-0.12032126099393314
0.050172215243292066
0.44485755105330826
0.1506210419837155
-0.003550509587751622
-0.07655432080634458
-0.28598895536139246
-0.5642127096354816
-0.2860058401961715
0.15298221081196997
-0.37806842510410066
-0.16190408444349227
-0.09151923360547164
-0.038107413022976835
0.24260870032161988
-0.2797056102730776
0.14117419339272877
0.09110469975627612
0.3318970747470882
-0.03840835699477223
-0.0955208054334598
-0.3302247018286847
-0.8844167663512609
0.5738193558028108
-0.1512909454670299
0.6785010321088745
0.22578042379778906
0.13645876245677885
-0.015136740274598338
0.6495904641953325
-0.5723105025252955
0.009108910420279786
-0.07565478866307367
0.13168491049450143
-0.07114624448538087
0.13375533037099038
0.12522016238646716
-0.25147504527192527
-0.3006187615360738
0.05246094289662102
0.14393909506607439
-0.09715258469943912
0.129924259572229
0.6240102985697306
-0.8354737631725706
0.34388040144331383
0.07218017611003015
-0.024993057927793532
-0.7145572145485728
-0.13385694060020883
0.3096905539215543
-0.4235200652504935
-0.0806971866912376
-0.362480997161757
0.5548306481498734
-0.3089125320911813
0.21623777240152978
-0.5649352667749706
-0.03944333752092889
-0.27861081302681123
-0.1252634509642197
0.15218749995868538
-0.24869621910265022
-0.4443766667095697
0.12124391955967993
-0.19440948383434495
0.025285533731829582
0.17827865584652264
0.07299614315640726
-0.5277853022640715
-0.08016439032269253
0.018094133679097516
-0.40983052979802326
-0.3137039138476301
-0.38105511352274674
0.3354919056810116
0.5791678129991955
0.46625678621705574
0.41025714855859935
-0.21851805705040442
0.4677405951607142
0.3256206861169053
-0.0200753027572445
-0.17789391643355904
0.28752484618821383
0.10592783087755078
-0.3717908341998263
-0.04879259989912004
-0.0466397688900635
0.39786382833700684
0.06687039964535996
0.3193877243264533
0.4291301157329573
0.026582514023345546
-0.2999135338405013
-0.5984442238415268
-0.31386571375131006
-0.17275757144603024
-0.68805115322292
0.05014498727630126
0.12274159730617201
0.4130883841752076
0.3322080475555252
-0.32884636080777147
0.1307862731839531
-0.12266927139750065
0.0711525388624649
-0.6606930261388125
-0.06600158901326768
0.060374030421474864
-0.012436856432290838
-0.1945870918206092
-0.029345206634946754
-0.10408056733641731
-0.292401918638622
-0.22093480231741028
-0.6729670554049075
0.19920905413843515
0.01723508024800999
0.03218299845616719
0.2960205333543299
-0.20297141941832683
-0.46983907132973246
0.6446023291191769
0.31306379182338107
0.4408780014663062
0.31628154438746436
0.1647071735698491
-0.14256212473653745
0.176003282511627
0.3078292970180231
-0.21591727872931935
-0.15827042125655005
0.31173468198347437
0.2094826541126651
-0.08448702927634641
-0.23562319491160663
-0.14371093460320714
0.001960472939659387
-0.4381088655786521
-0.0060470040846746596
0.4902918725263809
-0.1781413704591279
-0.21753583925320377
0.05018623684809782
0.030297987625025058
0.08430456788437246
-0.11119472110346053
0.43909397480053003
0.1406239384888832
-0.48433353117026395
-0.21602104875787667
-0.4307213367716484
-0.3782420107894954
-0.24435894263709387
-0.2970378048758258
0.3684818414226325
-0.17358432758564663
0.034036639900845204
-0.4719177308118178
0.4157233307536721
0.4448033041407282
-0.11152888887629107
0.18107779757546758
-0.057134800131270654
-0.17540587705141375
-0.24445453169223239
0.21993570455646788
0.047556765602205085
0.49426634227720107
-0.38519290645729914
0.0172813057212661
0.20766397839653444
0.3828385062738223
-0.6270770266387312
-0.11039517326899394
-0.022778582154297622
0.20827906126620208
0.24923897022280017
0.634471557359799
0.4291442387240747
0.36373895522417715
-0.0035981033662227406
-0.5114531526979481
0.5761099190235075
0.15118270931232106
-0.7796302332392905
0.12924442436647166
0.4698683093348379
-0.006487644326957333
-0.16327044756278866
0.005228654004613384
-0.403682906137703
0.4799282504306944
-0.16452924278878442
-0.2041095872687642
0.16574320425986663
-0.11307410053712826
-0.277487349955343
-0.25746352603498585
0.37441959184947954
0.08403910043209921
0.06472544944174366
0.24728060354342649
-0.27975938107793324
0.2725989300498546
0.15798830633747804
0.11958197454427574
-0.10787043357283876
-0.07933483947108545
0.154553268399975
0.6023343435183517
0.7165184388302144
0.18691318278979768
0.2653755122205781
-0.3976798582441585
0.2481720039484672
-0.056599249280158956
-0.2186783802317862
-0.42351428799302887
0.2503893094152131
0.15369360942103744
-0.12411293842040434
0.7336041523212167
0.00867049905107681
0.4269933664811359
-0.08705519407776209
-0.23803314419916677
0.05409838201533275
-0.5984340508291065
0.09551822153711548
0.17083776287027658
0.11189363414384529
0.46895513931398874
0.29615738035213973
-0.48882430711394287
0.519921777789588
-0.39110836920045433
-0.67720753540275
-0.07262994134643712
-0.08182983892765996
-0.3806122522005565
-0.08094510220779357
0.027233060246193184
0.620609277007907
0.605829873533371
-0.3111309781205773
-0.007729579550971441
-0.13403675883646962
0.4233822272604492
0.4885126137607628
0.09914159897650697
-0.41978991341512256
-0.0016409993749631616
-0.3902152663828599
0.0816156415057867
-0.7153186545868881
-0.08737810097954717
-0.3387157105002421
0.2854285964223013
-0.07371488866818829
-0.03387971713117943
0.5058889251050079
0.04223200754543532
-0.17557934314258494
-0.13171160960079217
-0.0232582550806864
-0.48318913060240676
-0.32249289248040747
-0.2802267042544396
-0.44896084697324834
0.3578561507696407
0.2666524184685796
-0.08288176936317145
-0.2812326068035155
-0.33915876404563483
0.2699471692726791
0.18117614023771825
-0.2797428913032877
0.709337696234973
-0.16248545867666148
-0.09674289444672245
0.05957975244698625
0.29712803810120264
0.5817699429957903
-0.6406948772263408
-0.5816176588264044
0.07542192883733921
0.5814106718694317
-0.4770453404375978
-0.6047407587923945
-0.07551645340134837
0.17679297908929473
-0.18666445690835703
0.37885696306294026
0.27499245102971603
0.9189093477300524
-0.21930390807882189
-0.096400512169624
-0.47429508598418546
-0.3503908472261537
0.39962923403659245
0.5783699453147036
-0.3137045684905025
0.47713273651988447
-0.17323693408997015
0.012189399814804883
-0.5102199343241948
0.6426913329360016
-0.08834327502611121
-0.32896217766119257
-0.3999786496610984
0.330817005756075
0.36147258067201726
-0.3754130430509585
-0.6891960608730523
-0.03204828166738305
0.08156430105570915
-0.5140384009608164
-0.1417540660447647
-0.6763053918921389
-0.5940777828444498
0.13277018817794678
0.49107306142480145
0.014493889824334444
-0.15595477754314302
0.04637297671045346
-0.13784429517000077
-0.032161228325451735
0.05456824462969531
-0.4294558552800957
-0.07599331205151212
-0.08889143195148592
-0.4164075067518143
0.0707673236506997
-0.4527435333464655
-0.4042491545858133
0.10830798478609081
0.08509761615824393
-0.05282013084282182
0.49987388707502306
0.13223909220327948
0.3583548170151854
0.5135195379976999
-0.19762989923414326
-0.0927188948805172
-0.09477047316015196
-0.5356051221728779
-0.11256267049131734
0.04690059845583022
0.15985640545719848
-0.3943772539625034
0.9293383434247973
0.5963966176665066
-0.18957948271515437
-0.22489535517660006
-0.02700582862704562
-0.27771690352178824
0.5444180839668996
-0.030705347309547732
0.01732128154454199
-0.11867745903101033
-0.2841745809401814
-0.3534606656894262
0.033250006348497625
0.16426667695610978
0.04695975435986979
0.09868333096972785
0.17202423365521424
0.16417662269291128
-0.23396658048277308
0.30061468803454144
-0.6185364473962828
-0.4706699186266454
-0.11421918185171895
-0.3241028649435885
-0.041441868361528314
0.1943877313684281
0.5216886194696151
-0.17011280496528072
-0.0009385349178957516
0.5775153204714094
0.2310610651615912
-0.2639987639342931
0.5517164123798167
0.836970583543867
0.45627962026025176
0.24557135951197331
-0.1532937667313785
0.16751027137579805
0.22014096443794567
0.10477638698212
-0.3782326906482715
-0.5265764044539254
0.10379731518642706
0.30885804124392296
0.20673328451104678
0.1670977725087489
-0.23070900774526695
-0.08679373769205469
0.3255026551449529
0.2942388459056706
0.4424365010569591
-0.07878839149895811
-0.04051071360825022
-0.47915319638334125
-0.07703613704406038
0.5809031106697625
-0.5258021941858071
0.4181705258970844
-0.11040354222183241
-0.06302085763755946
0.19254019897396532
-0.18782265688402855
0.004459760377903177
-0.05465124074250793
0.29743431088954575
0.4594004992982849
-0.6550904168298335
0.6630619254535502
-0.3006691553905782
0.7252741123085126
-0.13509738653498946
0.38115845598209136
0.0490766042651776
-0.01391887285666702
0.5465822775156864
0.6129184209572868
-0.12835074621451462
0.3508380834199118
-0.6569902111963696
-0.3048715368016656
0.10121010720881635
-0.19757880306346753
-0.6403448193793887
0.3603398551831159
0.9875549349194319
-0.07391778740946818
0.40318558558607953
0.04270386303664053
-0.09244140513181638
0.21157211559035835
0.3057998655505475
-0.031637567781001644
-0.11703334615533141
-0.058804643058698945
-0.29272287809670605
0.16012263615504638
0.15870893931590693
-0.5145319334612005
0.23488173147780397
0.32449832336266154
-0.0900665762963442
0.6469709481959858
0.10869581138183088
0.12472506157239197
0.15869249066694313
-0.4646042245195175
-0.12074407481448343
0.0038135556962206863
-0.2838312773555684
-0.2691500005410213
-0.4245134271627355
-0.381175707111162
0.2282986352637706
-0.6318143888459123
0.09427559542829643
0.17157381770216018
-0.3613221835706949
0.30799465738928433
-0.024029833134221953
0.046564265963457564
-0.11173345289841075
-0.28894915382409875
0.3447557789879637
0.015285916309564995
0.17422295592137083
-0.06287310673280307
0.20479804330675047
0.03876090601560594
-0.3535721054355786
0.07819870794030827
0.08765612065130153
0.2822552944888789
-0.1354294307303693
0.4590761908321667
-0.04764642795275769
0.011908702575158308
0.09742585939796874
-0.8464444884630005
0.45735778265600424
-0.33331685478267714
-0.2098792422861636
0.5280854125925752
0.32862731115257376
-0.3297578264809883
0.30095869733562625
0.17725610292771687
-0.2368582855474498
0.3634413017050046
0.0789192081757986
0.2169773550262514
0.08329560381353221
-0.5198794936176317
0.480557815003828
-0.6994299814661773
-0.5398389405773097
0.1829156777648751
0.9476551875791279
0.1598131220201295
-0.17139408487992058
0.033344664849203065
0.09858569741911873
-0.05210732750413473
0.1722154689433381
0.5509384876518045
0.041285071091150524
0.06802611120059623
-0.2531816537741963
0.18389765863826119
-0.2886325883035613
0.22755586651249185
-0.3778752800069435
-0.33616075931772366
0.3345270821952799
0.4691497303921647
0.18299085298722853
0.12450153952798672
-0.049655623605693026
-0.1509633282705142
-0.1264584299244316
-0.25215716884236616
-0.29571817452108723
-0.08905310503834214
-0.28949032156042653
-0.4909681632194805
-0.016127316892234775
-0.05599557225238103
-0.3956707015998914
0.023106314963457004
0.8347386224765854
-0.24125546113010843
0.4814833479712173
0.5782557587470032
-0.27573858661706596
-0.33823447652361305
-0.18241772893769578
0.4370813066860526
-0.03871156667639031
-0.18807863672488204
-0.1700598844759017
0.05041956664507196
0.040754381798655016
-0.11344440157649463
0.0010211649358886474
0.28918600974687975
-0.03414449805893943
-0.1703697658985774
0.06482885731694427
-0.2410450806723037
-0.29817807228079907
-0.2605394210034511
-0.3293818556383527
0.25593239846612714
-0.23975240485577692
-0.2797372887444681
-0.01982002499393783
-0.5368435989153831
0.5125100426525552
-0.18446223962911426
-0.4118852909792062
0.3218708142366935
0.3885266555076824
-0.7938653757118599
-0.4755174389427347
0.0598667560860494
0.3543897527925452
0.24685801466116136
-0.10267770755062078
-0.20221547211985963
-0.5451614215035845
0.34637461028445066
-0.2287085185610125
0.3081329582703473
-0.3862790380140802
-0.33008017169068316
-0.4157305701476861
-0.1858742469643994
0.01977218705162559
0.35415513947733146
-0.3299172740210263
0.45890731351324987
-0.1106270855965086
0.03940719535983026
-0.37855487378448904
0.10559598256634366
0.3296092919251908
0.03317556848515707
-0.33009064568641955
-0.3516218911591485
-0.4642522976906615
-0.11093983275568688
0.29419817621328836
0.6975363597501412
-0.4421094000134388
0.3523571655477007
0.5410380256669767
0.09604923297372445
-0.21235019196999508
-0.6661839911790643
0.2748412641952884
0.007821770256285698
0.6303892174933796
-0.19329147163922783
-0.5543047453747287
0.16956472581322973
-0.3762927912582846
0.5413750790360742
0.5587037279005533
0.3630974633286894
-0.506901217795044
0.7319956637464343
0.21496225488616758
-0.06893483532326215
-0.4475652225931293
0.2568464242858878
0.2936277570314725
-0.22707604364547243
0.32494668673610483
0.1254600602977592
-0.3239652544711893
0.4847171297381336
0.5796171069655853
0.3214035170092149
0.05587078985717492
0.012859124318799453
-0.3538516814861503
-0.07305012979557338
-0.22840932237989423
-0.06204154693720059
0.2707216639265703
-0.3788809791344204
-0.024502232393994423
-0.19366353035521178
0.16247987199898456
0.35310666800336754
0.1907667317112933
-0.3455074230348245
-0.3061181215317774
0.5121594141641522
-0.6266537364636942
-0.43962878041105025
0.0018979963506016162
0.045177619714548235
-0.6297562755032118
0.1752682981442493
-0.10427330577913442
0.5541638600754337
-0.3892843741192487
-0.1943853274327104
0.05470068706659115
-0.012371461815263857
0.1232119942996155
-0.4244083737041977
-0.024191881183901087
-0.02363498917737288
-0.18446465169341314
0.2630312650429049
0.9540878078868197
0.3777746450901211
-0.2404705585844521
0.2112945014366536
-0.044148883543108065
0.01045174619821717
0.26438657939585425
0.57081411408564
-0.19128757111274436
-0.29228931669010333
-0.025037722640280383
-0.16201015938687097
0.35924459971254946
-0.403151848959187
-0.28799490837335895
-0.5471444750375553
-0.3580089415291774
-0.09957297241689844
0.3793042434509884
0.5748897881019572
0.43398306906242984
0.658973180195525
-0.3994282443635481
0.16608243752603397
-0.1607867473022628
-0.4268569791859936
-0.3030911598296831
-0.3952160155913542
0.18924233116204495
-0.19480547070415002
0.5105111190116208
0.5506610183851203
0.11438660009770887
0.29337158881609204
-0.11735746934293885
0.2241045726692944
-0.1596102918560943
-0.40721022122617634
0.3150901853437856
0.16865708843184224
-0.35191766572343147
-0.23382631783256091
0.10027747276175623
0.6548044606560454
-0.2936113047439505
0.47807128285396544
-0.5296032232493779
-0.039667155558787484
-0.4957197148721741
-0.22540254067698642
-0.18346693532744612
-0.3702524291061897
0.18800418797837246
-0.30191965051701297
0.18779730187825616
0.1718195274022372
-0.1396705677380598
-0.09450962534880793
-0.018891581667387875
0.6352709241146084
0.09778264931651319
0.14495597011091718
0.5915933513998685
0.27464741970140555
0.21763307263920598
-0.5130474507691346
-0.047408247070832854
-0.1887072440909383
0.044834882763589004
0.6746359608432398
-0.31891059728812493
-0.21978397124435492
-0.12923962047729784
0.14845858620798574
0.3374987796595788
-0.22862312067412152
0.3991766404120139
0.4318734009241801
-0.2782656222618405
0.1168566853551773
0.3059789691680546
-0.09429799867272366
-0.5151567762241063
-0.015558753830222163
-0.4382426187818469
-0.23111937490614953
-0.6581499891614359
-0.424530368318185
-0.07786529046454872
-0.3672675381633634
-0.1458510611514709
-0.6403673343600963
-0.13505836154055958
-0.39309345983520927
0.25112870619448713
-0.086739846187561
0.4658347015328863
-0.1516366467079039
0.14125368025690918
-0.6097030686110291
-0.012660923245374303
0.41556712056289524
0.09156554135083705
-0.056918021446781666
-0.14829088599891985
-0.8934901222905416
-0.1231607589952548
-0.17190278298501022
0.16524023523083725
-0.41563490858007734
-0.11653970139900831
0.17728295313463438
-0.12157858080352262
0.028103784835040536
0.013125748856831935
0.8779711029128991
-0.3119444814099259
0.12288908519614125
0.8401922191332343
0.23578856478596255
0.09106439702640973
0.6151373524760021
0.12953050062578236
0.06464670130479944
0.09821761175922382
-0.11441686516594726
0.3338648952221798
-0.44035998071533095
0.03976702826395493
-0.5525149395549918
-0.3036981655624597
0.12078888016343663
0.09393158338508718
-0.27464393195559444
-0.5438983380222584
-0.10762525477651624
-0.3548516722373414
-0.3494807367575566
-0.0770658520093947
0.2097558053054422
0.2729012472888988
-0.0992215850720664
-0.7695882156288001
0.7752173687857172
0.1457958082063126
0.4745989973313116
-0.148704812714948
-0.0725808784500049
-0.29689139805346804
-0.39402712616068863
0.09591114888324499
-0.3079995385970622
-0.1949606568710715
0.13064914298932875
0.48232577607046045
-0.32024031501727845
0.13282742811006445
0.07678797049691204
-0.010663650527749494
-0.13851918452661033
0.03360460334736123
0.058188515342881525
-0.4128151017645782
0.1401469111493854
0.6317585121103998
-0.039994086992198044
-0.6214058055313139
-0.23472577215280926
-0.13000590957515057
-0.21800747444997523
-0.21341325611823692
-0.014008420017048794
-0.1271227444345454
-0.06272282716626135
-0.06581570024397419
0.14909085137488307
0.02184753956237175
-0.35438677024427817
0.016782953177917222
-0.5166833811785031
0.23131152013939285
0.36784111438964107
-0.34018006989730437
0.14963031722446052
0.5467963749239104
-0.2495014117867013
-0.13469976750846704
0.25937583673001025
0.16121741497953662
-0.026723119434044717
-0.05376636751391789
0.05301974655835481
0.029893455624609048
-0.4239998693860351
-0.3044841744074834
0.00029346299563080407
-0.25765988938746653
0.6698594185225922
-0.7031672978734167
-0.17057500148385887
0.0029237056045316088
-0.7230462960217053
0.29273714795760974
0.05795182308130821
0.22313890050249185
-0.37545450931939295
-0.24509099880094704
0.039439983782868115
-0.052999055949003296
0.04760108695038902
-0.11187596482770559
0.1743107710477854
0.18763868363516978
-0.22759954151430375
-0.08143087981046954
-0.1329079177885681
0.5601473891211202
0.4518210821440451
-0.08954538090763357
0.3723713186030841
0.025607152050984038
-0.399182800565952
-0.5874479190329769
-0.0942186928357708
0.217246484457
0.0009796194529895267
0.021937728944063598
0.07180015531216812
0.5630832626785128
-0.03559764421702901
0.17731960132225238
0.11346238384771298
0.10005761670413536
-0.009563086508995955
0.415949341876363
-0.46286450513895483
0.16888982214606948
-0.44693523909019467
0.5325186978382217
-0.22806023352786486
-0.08827287217092784
-0.5698885796148426
0.5531226902634089
-0.19272604208544866
0.3469253575939847
0.49767808522044066
-0.004381848360712935
-0.5144126147372596
-0.43343839480772167
0.10127463222292656
0.01860572142624775
-0.6622454590289972
-0.07731112499011174
-0.3479656113337188
0.030906521414632047
0.08473496533774788
0.32155974077804256
-0.19804625586310606
0.16215672962691507
-0.1908223655071782
-0.18239530176904764
-0.25785916240781864
0.290140650415644
-0.24951283728966875
0.3872019987633258
-0.1628055754618517
-0.01783938931287595
-0.31543962445035845
-0.3962786801771909
0.34480973861872716
0.1725033053744661
-0.014438409336512066
0.0026977619847599332
0.19854380286768594
-0.09325119550381179
0.22371357179951898
0.2795922270188173
0.23186270622114014
0.04161787588488041
-0.3145574507359563
0.007070842260242294
0.09225848021458238
0.23929439211235298
0.06076056138266386
0.24044759786770847
-0.5526779528817103
-0.0045954358137054495
-0.45629631170840335
-0.2157748785104597
-0.22457179752631481
-0.4603972909737318
0.15750509487240447
0.30547843354534776
0.27123764883028506
-0.014430611304513315
-0.07000083409361939
0.3745381405327334
-0.28777213050528827
-0.13760415265837464
0.6632971631675448
-0.05247295470859274
-0.5243144399794506
0.5621684258710334
0.8531972282312782
-0.5320501877736752
-0.03474263656082736
0.09091905099274418
0.22677059614392078
0.2878021910597769
-0.5017474858747235
0.34437242311122546
0.5437265219890908
-0.04499993574514032
-0.744025670107181
0.2912200045356786
-0.4501060896676386
-0.05282070752021761
-0.45659730106845065
0.20627261597920316
-0.4895192138028057
0.23960087759344678
-0.17982115305298946
0.0006966301072179895
-0.432218625054141
0.20673081379011238
-0.5004442297406949
-0.5044703277140318
0.5011182460418615
-0.3146434773616962
-0.225717637186008
0.8415578340122523
0.3373083898256916
0.16778597836854553
0.270126332431129
-0.15096437459030265
-0.24127646038625472
-0.3998485338267194
-0.3358302904126676
-0.003917412661729549
-0.3902620090165277
-0.19800317316839783
0.2282843446324213
-0.2577742277236909
0.497170843822752
0.10681004868648288
0.6023594781738596
0.20158027262167028
-0.2665695469489375
0.006588620938592582
-0.10669383256563411
-0.271470088324106
-0.1408173733443524
0.10210264803265498
0.5670680795473642
-0.1303757900217248
0.09611634462320974
-0.205022639321358
-0.6374811793451904
0.520669339324241
-0.1374056577427477
-0.12032085424610271
0.10019577576977229
-0.5662640244373445
0.2508396720907803
0.4141923528578239
0.3482195428425698
0.18477925941145498
0.6741665792151637
0.5599244575191458
-0.2991227651327589
-0.1354932976529954
-0.6200312701369213
-0.034665440907911786
-0.19531524891217766
0.3292671772907902
-0.18881330432917545
0.10369352931799823
-0.13788086112521164
0.12144975645825584
-0.6281243156728448
-0.06717206841397563
0.011816680115805046
-0.29889083968291685
-0.40169095833834734
-0.29951076158117174
-0.4204601495166253
0.20232578728312428
-0.23281205565135168
-0.06369426164324948
0.04240670768247027
-0.3022394884154307
-0.33203848937156144
-0.2775606522283411
0.03197025449386153
-0.3246851880410314
-0.1423689240124102
0.4415191129912465
0.016390255371469733
0.06888826116946037
0.007109772862660568
0.1866300359153276
-0.20077765393656913
0.10734146726922868
0.10186039496124849
0.05792103622977575
0.6148275284627517
0.1318586333438125
-0.06739874949112808
0.37369792528676793
-0.33973196592652
-0.02038378597952358
0.6275731118011462
-0.07731872233140405
0.1318377086196229
0.3277297735123598
-0.6877333577828418
-0.18450793031656976
0.6211070025305607
0.2966645564384347
0.4519523483553311
0.16336964776986612
-0.1385531076581552
-0.1956080707704842
0.08970404333708822
-0.8154751165996323
-0.41825025435077856
-0.34076497801854205
-0.2585753800890823
0.09034556451216808
0.1521860779544586
0.29714588800083036
0.311870333650316
0.29772425531758684
-0.03737367718791354
0.04685748572771115
0.23135579826801275
-0.05027430752884709
-0.1655148242367783
0.3069380988009924
0.4646741488130595
-0.09285690847105178
0.10776537779213907
-0.28601765813186747
-0.318483999279068
-0.6712122136689159
-0.03826805943383499
0.34092823435763703
-0.1853078900777247
-0.5024205719212577
0.181398414148176
0.9096245827233098
-0.6303876150454425
-0.3270905922025815
-0.5732252757571679
0.7294307064248264
0.8189278178800183
-0.2239471105683538
-0.2703495966059125
0.6022573395653614
0.016003000075443814
0.07265059799598947
-0.5279248301158209
0.13136925212590944
-0.17971485323798828
-0.270625023227867
-0.2825174763320887
-0.5031506086528211
0.6569825243990044
-0.31012899733338983
0.29630918172581405
-0.7063762941218529
0.17774693133247424
-0.10641883172051461
-0.14769703872623222
0.43441041857707974
-0.1722563891422405
-0.1048955773941574
0.1397280850270803
0.4418791285295047
0.07051787615145762
-0.3569445724160607
-0.11353560299977143
0.11154852294709398
0.3621638991149532
-0.5831117680519463
0.16440490591564977
-0.22145754595873307
-0.15213298196369954
-0.32571471607085234
0.6301839479220359
0.6217644204241654
-0.22757386715535244
0.7460489907937815
0.2659232702188067
-0.20847368467016542
0.09196783702055925
0.22617927351097292
-0.31882474585443105
-0.12607182602284225
-0.37473973145261064
-0.21800087904702506
0.502576732973274
0.27462679277908947
0.35795999532160766
0.06296204694908922
-0.10281695944806915
-0.31043274898260764
-0.30908783261579653
0.2158624640725004
0.6755782242026432
-0.0889282881905841
-0.5055876213970966
-0.46484035490916026
0.027491206518547483
0.29822593555625654
-0.18675924326093898
0.039377981682996596
-0.1151947603917868
0.3290072276108803
-0.05812590132090578
0.2728690440620046
0.2865560088529153
0.24124131767592058
-0.48801351333921217
0.18785514325696112
-0.19350315253126277
0.09884491746309984
0.7762702819188206
-0.1383910415577771
0.5196474615499597
0.2772772877643125
0.19993449983993453
0.06632316934124935
0.0693518640992487
0.4219415598495642
-0.18927905664513012
0.06102587963034998
0.03464935180283117
0.18471099217167852
0.8533377063308484
-0.27651265497985167
-0.006170950981432301
-0.2573607894593336
-0.13547648775567972
0.30551131698127876
0.15344031351978904
-0.02707151482850539
-0.1849804533186361
-0.6806228619606536
-0.16042012289196278
0.6343860583611718
0.36520123314579356
0.06717892540135335
0.07062294608303755
-0.35278116731327075
-0.3411123335532279
0.20521754470031695
-0.39052710163978943
0.13401420765765024
0.07835399007096995
0.5342037338078209
-0.29174072040589794
0.1221933838751354
0.02778678804852127
-0.28859924794855435
0.13233812697894506
-0.19604094155085575
-0.09185983036165622
0.18892781754821256
0.3383918759579981
0.010346026558894059
-0.09322536343380194
-0.17785322956131056
-0.3372525918357077
0.028296275709586646
-0.26962214734988155
0.3902277898700948
-0.3370286697494627
0.24596358993628684
-0.2450051203390875
-0.2679270790258242
0.22666843781535614
0.05729893009389146
-0.3238194381395168
0.36545580764620644
-0.3345615733185758
-0.3315050705520535
-0.23064950864254183
0.2274140011747391
0.06143651762174307
-0.5084150208555546
0.36680997294585904
0.11688786628978054
-0.002423096770273025
0.08996596883232477
-0.5282953865930426
0.3870136406154779
-0.196481574987251
0.7944465867501899
0.10866533163914147
0.31387694289829365
-0.32093952610754434
-0.057629185339818215
-0.04226336904538248
0.08516779731045163
0.14292558199638128
-0.17433831244182263
0.1091753086798944
0.2261510421797982
0.05850270398783365
0.576138275643405
-0.8442294377060853
0.3007153871077357
-0.3552368107936633
0.06178729221988459
-0.4432852722682377
-0.04985488814421249
-0.14288773139452757
-0.41006806282453917
-0.1786334707263968
0.020720757020805395
0.5106193410745088
-0.29322769134754545
-0.046005096332947665
0.0302167482494577
0.3051353438101409
-0.14699075037111986
0.2669599222413578
0.31749031092153607
-0.31337204625712384
-0.2267985451035249
0.16154764850099673
-0.0893604278050172
0.21449941267768924
0.14547034063094216
0.04493390024253297
-0.46105375037555985
0.01592992764612445
-0.013967521990504899
0.13482702090560417
0.32702487134926717
-0.24096124909798186
0.5562999856360465
-0.3304004210589905
0.492544745234971
0.43081215209854284
0.11037132391600647
0.014764269427153389
-0.2957472228635272
0.42529787607929875
0.22525082273040498
-0.08628140594075559
0.40185877056600167
0.06307747752728003
-0.4168700823728842
0.02682187618305145
0.5633633756756211
-0.1800248841476766
0.22387414761101287
-0.1662037647384158
0.5861691589945679
-0.34316163703000563
0.4932676353407675
0.9095283459040997
0.4702332590256286
-0.078596005411465
0.34740831521894494
0.12391997009435449
-0.6863126340438235
-0.11618420922358197
-0.42226053578291467
-0.910740068812968
0.03685392808197929
-0.3256817896591179
0.07305879284764488
0.046252852484656194
0.5176114223869327
-0.1523859478413334
-0.5272919222704255
-0.08692733354556376
0.33438855389225974
0.5558311162790156
-0.4115501250988205
0.5577004395055999
0.510122163696532
0.478706497815444
-0.07135185577650763
-0.3101597715946445
-0.20679036665158057
-0.17274022958470217
0.1082913637150408
-0.08207347278047343
0.0294037338330737
-0.723655855026719
-0.2150223424633057
-0.47401561152928945
-0.0975427508480167
-0.35887729839084126
0.17996809005564324
0.08468884410523564
-0.22867957876974498
-0.3723365078693462
0.6280685981904596
0.22641953579752175
0.4704103029166328
-0.0768318486567765
-0.2313394231463664
0.17069226333257692
0.27942661356231485
-0.28624168972110725
-0.00039378814937559794
-0.08340016529917042
0.21019372575816794
-0.2707714602179437
-0.033737955327465846
0.031332767491729537
0.4229801509101972
-0.6191367043365221
-0.14785143405534426
-0.4784734251947921
-0.13466356536291746
0.043360043195025254
-0.16655103728175052
0.41908399414383535
-0.28347723351460236
-0.7525167120141335
0.41600510819264575
0.3656895346783473
0.31803211960374017
0.29480108303895247
0.3580306066031874
0.11157146326837328
0.24444556415148078
0.5662936480248131
-0.33873486812454245
-0.23170435744348422
-0.12765707489998432
-0.8110933981773
0.38154395524675366
0.09529599884640044
-0.3535355662749774
0.43943189709823605
0.25066843266838934
0.3023701155553126
0.10211179692441537
-0.5685159459013543
-0.2288251046182539
0.045186063121661006
-0.5383979121899297
-0.15624546653553717
-0.5212766088610626
-0.27455799265361264
0.19376756322666447
0.07829489554994307
-0.22600445875748013
0.6714638208076277
0.01919818024116827
0.3342003834359006
-0.123529613200044
-0.26320968027735947
0.2276925615602087
0.46631765712318074
-0.616396110195148
-0.06764587453864489
0.5581362697365571
-0.1556127533900812
-0.5399836771154785
-0.2983758963671248
0.03569841085510449
0.41347660986892026
0.5126953032593973
-0.47276378691795584
-0.002399833573877681
0.1312498103747177
0.02683277837506362
-0.21305552931401897
-0.1331668151740598
-0.026725412590127232
-0.561303547203751
-0.1289341943504459
-0.163233359635613
0.26946458237281196
-0.08621465614561542
-0.11330902014906398
0.4086122106701457
0.2538006073859526
0.12228625758338188
0.023855096892305885
0.1490880558773653
-0.021167193752184028
0.43086518833525045
-0.07637952846227433
-0.11221176221102208
-0.4937418994260337
-0.0028314607918774625
0.5532582218411575
0.3639532771844327
0.2059994404671025
-0.10525831967495697
0.13071213709836946
-0.1809451053095027
0.4741314752205547
-0.5395720727399806
0.34568983598419994
-0.7127948791501625
0.06733130524361332
-0.26785604370157584
-0.010194188833409659
-0.12779887976930535
-0.2172389740603913
0.09112329014289508
-0.5157125446878816
-0.09917647429310399
-0.5272674744861298
-0.5101228390834568
-0.13403942516545933
0.10349823938222713
-0.7450099145631318
0.8993076660386488
-0.14104339808360428
-0.15305676974143317
0.14897027133431326
-0.3713914872923896
0.6311542443004706
0.2642681388991524
0.37667168151000235
0.3227667346070971
-0.2357075228449782
-0.13646933989167045
0.40274442428484875
-0.5483194086231965
0.1982450585942913
0.053868337766019125
-0.11434475783683715
0.2354602454875773
-0.5588561383999585
0.5064928909795442
0.11181058108501454
-0.5752341411960252
-0.32286475149115046
0.3907307961782386
-0.3666783593802509
-0.04189237133853194
0.027156702399061917
-0.1972121570740936
-0.03914853780262103
0.1712357727014171
-0.2923678885252631
-0.2549001568924046
-0.2502396789749416
0.006362397270931236
0.3587447114734609
-0.3352497010426109
0.14963211155907996
-0.11610824624307482
-0.8497302530782327
-0.3362031003475819
0.1819868865614853
0.2518342482498453
0.35398253229254284
-0.4377705762715511
0.33288613430067804
-0.28241436737729403
-0.12632239282187593
-0.0593355583982839
-0.39668216962639835
-0.31633096460046434
-0.3243733862192152
0.013214916995675617
0.4638444781534749
-0.14032622791164898
0.5247555200575603
-0.5861171993851049
-0.13841462773853316
-0.19929072149885196
0.6744556378269657
0.3270900884284752
-0.035519469159158754
-0.14724568597403784
-0.3853668112800523
-0.315603968524098
-0.10557611386378586
-0.3600026128045148
-0.28784144183456223
0.48310774080547725
0.5824223935358251
-0.16534308388757832
-0.12749652526821684
-0.3861539437474038
-0.0068333931540241425
0.08542225488296566
-0.10159527364758722
-0.016725686298305262
0.3836603186604842
-0.22012789364107027
0.0840408077277994
0.1487339397735874
-0.17387110560162544
0.5723166382803446
0.004635896427322133
-0.2876646638162326
0.42863511079595346
0.04946783831650588
-0.12998497786272054
-0.0017885457086469767
0.194400681604151
0.01073005704404956
0.6776971271254026
0.8665154009610649
0.33800754844133246
0.06582596596344509
-0.2818555870733984
-0.48807151552706896
0.023346008679318336
-0.20654980861402364
-0.08434099187738779
0.5142996719685545
-0.040979406058092735
0.3928668178054926
-0.5357671457574078
-0.17916658895647444
-0.47672025732632806
0.6033495977827358
-0.3141863580256383
0.12689336679534316
-0.06479578487547152
0.00619045237042157
0.06884645321681344
-0.2442767793215885
-0.4223943530258113
-0.4423546872917771
-0.13777398321571857
-0.4832364087959033
0.2490764362331358
-0.2536335379068942
0.2831603867716191
0.28404718250909894
-0.0367509031897022
-0.23669172014198694
-0.12523070411755322
0.40481945568060684
-0.02254806112587509
-0.08186159422375335
-0.1755261108170909
0.13624220713670102
0.3978001345276144
0.030987169600600672
0.23019376993893778
0.24194098410336998
0.38765838961415894
0.035502164808059976
0.45704117837560215
-0.49291135787606466
0.06990713413891818
0.3774909183423799
-0.4050259126956454
0.12078927653731963
-0.3147962528767656
-0.14850666954764763
-0.21278707462730068
0.15900720236506627
0.04935195544070249
-0.40186131787766033
0.4641341054621312
-0.4679944531627632
0.31520037891485697
-0.11269144868733748
-3.044784297851601e-05
0.43196516046369876
-0.7511648205191839
-0.38929153024665286
-0.13581328556252772
0.44915381424799655
0.35669399446130456
0.516953279896196
-0.09909655868335994
-0.21578486537118227
-0.33623883405887095
0.30413844045818805
-0.09781726193503563
-0.27375043633086915
-0.004976726735434392
-0.48561027977856785
-0.08795086189453336
0.08110646585367427
-0.2575013862908138
0.19309219321818477
-0.6849705950481262
0.14766033512432128
0.12683575364067876
0.442048817951152
0.17847418926647374
-0.4602271395546281
-0.2479986457038272
-0.13914379798844945
-0.2978661208069586
0.2672478242210904
-0.5186534895015764
0.22208880797116834
-0.07083265292331756
0.3389448063175728
0.164275095149071
-0.377078413573311
0.3333684810026436
0.5415656188573257
0.7218198970622303
0.05229477898086866
-0.4040827923773479
0.04365372562311835
0.6883602598864659
0.45724981813053184
0.05441159992552017
-0.15268045798842078
-0.11141931491351698
-0.14963443097842768
-0.692483844833444
0.14006340952760973
0.06624369379047672
-0.1362106380752171
-0.3329675435589046
0.11816711446743536
0.4304641969599999
0.06027668176204936
0.22720745694002456
0.797557001977561
-0.15830130904313097
-0.48358068380984937
0.4173446475343114
-0.12399040108373073
0.1159207947374839
-0.008668641307146114
0.14492023302191512
-0.15409680150751728
-0.08661007344963988
0.03241155706052751
-0.3991245234099803
-0.36600041058542504
-0.18648427892058533
0.19620676062474524
0.003040599433501698
-0.2125241110035755
0.011287137929092235
0.014244090445524896
-0.37591558120972424
0.41788615006512275
-0.19422232540137774
0.3381233576232664
-0.274764599081263
-0.055460821097999796
0.13199593380411312
-0.04347038295647485
-0.18232861315688675
0.06087896017022143
-0.03262777999717072
-0.19453906973333718
0.3089993096048406
0.3025035927733025
0.026058392926238388
-0.37539818470323155
-0.1297633535750245
0.22207302386549435
-0.21138698753380294
-0.4265007338553767
-0.6169124688094577
-0.19787016154707787
-0.2025640854048481
-0.12487752806965668
-0.19460137504926137
0.49110430214791606
-0.1835287483159459
-0.719705851993236
-0.2496438504481526
-0.1511041692192719
-0.16328703960074506
-0.3592047640419834
-0.3251915317813758
0.053654140406885736
0.5328469494073087
-0.030282757975291223
-0.24229696111690957
0.35860970804851355
-0.3131009145868466
-0.08490010589302782
0.047315663645944105
0.4235248082181808
0.174269171281444
-0.050843723210032936
-0.7263576606731657
0.33666418703579754
-0.15348042791433075
0.2796804313408114
-0.09836367250153433
-0.14464896881224565
0.19998727733701788
-0.4144038806258095
-0.06008264338396393
0.5236301961277848
0.059899434962583493
0.1365933116613488
-0.23782267466226034
0.07976235382823715
-0.5672210757520179
0.8132778164480939
0.21129119711543012
-0.25745178304014255
-0.015869625995375766
-0.46818197649861826
-0.2606891451798729
-0.11307557056578865
0.18358597163793586
-0.41258691980302276
0.4749247984977049
0.17266424143565534
0.005476135125428268
-0.5564317382985767
0.2639706345611093
-0.3767634741351822
0.4444981938087607
0.5345207933258357
0.046010858680551436
-0.5930279134968874
0.11720705562879932
-0.10578202147185096
-0.1145361146637095
0.18246137398704965
0.2993438575089641
-0.12939149479522002
0.1645623153129062
-0.05688657215200539
-0.03607463934511395
-0.1498052386383385
0.05642787016555284
0.7827264080453918
-0.05168555291751868
-0.08398416299923166
-0.1216643851439557
0.084774430919023
0.08511527579556087
-0.25938180422311385
0.18748124578440065
0.11393425034122508
0.09893383309753051
0.17754432695947173
0.41486819767403516
-0.04356599531982274
0.040332287760478695
-0.4638106763100697
0.3749249843939855
-0.415786938293477
-0.04722705310313302
0.0599235264141749
0.20234248250289194
-0.19497311282755622
-0.1832415505918362
-0.551098911713132
0.07552914479912906
0.4462235078971826
-0.3083824617460685
0.012749875673995596
0.10458521124502299
-0.31403045053164785
0.051356763300258956
-0.09869419959192641
0.27356867182382255
0.07708414316101476
-0.2644047870747879
-0.016975421949400875
-0.5521366448842141
-0.04525783433238684
-0.2075148209648108
0.045812871849931026
-0.3225215795844226
0.28550157135552906
-0.5240997588771426
-0.13146233102100713
0.09345273680801551
0.11221735515153478
0.07872063799114133
0.3791034394546285
-0.44470078999960605
0.2348575101477636
0.2156532493863438
-0.4054940908056103
0.1857179831229375
-0.011484829974064322
-0.2241993184751571
0.1739477179433034
0.461854967428997
-0.07783225012851537
0.2625639248291943
-0.24381959481134885
-0.1941605884166827
0.4924693502434399
-0.03152529011714346
0.23468590760134372
0.09949766986348403
-0.33085783325439483
-0.08071988121412683
0.32353471398705164
0.02362896411586931
-0.34084917296923406
-0.02553017872850936
-0.7165410807169555
-0.0021739784069204097
-0.3849543146829143
0.20281204820796822
0.02491872601416471
0.2985339937643952
0.36097984322972937
-0.14915949266574507
-0.15288906169914476
0.33866067845230113
-0.007425465792958799
0.15349475914498928
-0.14996631651809883
-0.3333591546224779
0.42456327938539473
0.08324134566584311
-0.6868818807258098
-0.37077955906518034
0.020360940878303656
0.01642958601867973
0.20804231295796144
0.21448013130730464
-0.5851699795251415
-0.5320530313939222
0.03849066765211203
0.4652543423363184
0.059120585178710515
-0.03715102547588888
-0.4514199499689815
0.33912007793503546
0.2946401587113711
0.1617630662559173
0.017273262390341222
0.24849934307140625
0.44168131847579306
0.009924096809041428
0.7781150081468761
-0.45064620499412117
0.002770271107041316
-0.30585789148039677
-0.5032778611744563
-0.3939976523212161
0.25900276578843706
0.2755235379676932
-0.4604940049845995
-0.29773059529643575
-0.4796867114719777
-0.5315782284994855
-0.33065549998245397
0.2557285292848511
-0.25235326182940665
-0.2562391983323877
-0.9499998026498967
0.585984626958932
0.40160816798918075
-0.3026327951534983
-0.1499719695830974
0.24931262971237134
0.7710719139095279
0.3095345001278115
0.030359195259128165
0.054256685009568484
-0.15411463679708018
0.4393240714125486
0.003117560388830764
0.22044835303039428
0.2569732477212402
-0.467392664767587
0.10355304307144807
0.19109980710829194
-0.319919402028489
-0.31045794437460267
0.09693518314909778
0.16773773721049806
0.005160252718183829
-0.07577385283630765
0.7206816790982383
-0.5902584910983479
-0.6187006136182107
-0.7908410082456274
-0.01905165288066531
-0.3526022806833856
-0.8708280514565269
-0.574362990940722
0.3248022147275681
-0.2311008766201233
-0.6212799436358885
0.15872816760241826
0.4486974320714616
0.3407678973944338
0.809003349022403
0.2890297200435153
0.36955079138548946
-0.4835157554158164
0.44180254740514074
0.28882616470222927
-0.3007666167816613
-0.07528499066506748
-0.6377278169074213
-0.1298529242051435
-0.28238104420417265
0.406778570705671
-0.31624659443146785
0.07407630204228849
0.6751416381640237
-0.004799257192891272
0.45718448626915886
0.1428338050739143
-0.6585195201641838
0.031796283858225645
0.15218135824512874
-0.11370950544115535
-0.6345585947494735
-0.2474470944827419
0.3444356131188651
-0.6731422917117795
0.21114513673112148
-0.34289565508393444
0.0008670254804013523
-0.4959532835247999
0.308832040743027
0.03576168541708958
0.3896887311916405
0.2042738173408672
0.2944031633055836
0.029890253691451773
-0.03944374013492103
-0.14817626059419292
0.10522790712546348
0.2423582992030684
-0.20053079753316944
0.12795866141334464
0.12364950469713296
-0.2072141831192435
0.02804480443900868
0.2622981127789017
-0.2614356011724512
0.21268964819497524
0.07427704871568787
0.11764521719044906
-0.34243223466280154
-0.2682706420238821
0.18414637511374407
-0.22174016798304555
-0.007319905229714351
0.1603385267800431
0.42888228385746374
0.13553674778144667
-0.22562882497191514
-0.31541803617253544
0.08293427007644084
0.36864286102634414
-0.23869230526287866
-0.05496756545674144
-0.09278357657540166
0.28423664817474126
0.23422143302009918
-0.2612616327379077
-0.2639479160447255
0.28427179704000904
0.08217250669742526
-0.29374705275194324
-0.12915668229464541
0.25449749856963383
-0.2176999426122692
0.03736658260148346
-0.04346092538682905
-0.2188406923174704
0.13014210317570724
-0.13378516627201004
0.09116629910257534
-0.7180143957799002
-0.171565248828706
0.2212144323187832
0.11570844151454458
-0.26958063777229235
0.3317537523077717
-0.021944726285276026
-0.20687715598802617
-0.10326800802102232
-0.22655021945629414
0.2054353724113635
-0.2036084107222166
-0.017920911202417185
-0.10221823459440418
0.3100332212685383
-0.13586824842955716
-0.05361514435523562
-0.7287022335719983
0.20095118623131078
-0.07684820360416542
-0.14471522349796465
-0.011468078003275452
-0.004300288249208247
-0.11696645724721202
-0.3140355459503994
0.10473024202367193
-0.08947959685296844
-0.5790927882443255
-0.05414716592326266
0.18665108381599085
-0.3326854851139822
0.11875130158881025
-0.6250631711281894
-0.569062535969963
-0.19128184333971068
-0.4125875099501917
-0.43333090741294933
0.6132940791130371
-0.07103816508530734
0.2613818831720025
0.13595261949887374
0.6646702513679756
-0.4491567133796908
0.22889995444993927
0.338253922406885
0.3601776078102383
-0.18003329807678692
-0.014730487939766964
-0.26763323949748313
-0.011038638931070276
0.45338983835875524
-0.5135518708900396
0.52671592942192
0.009262448476583009
0.24469390247339007
0.7726927007374826
0.1518893512388331
-0.05765153463364667
-0.08105185095614938
0.03505045150361467
-0.5380970986369862
0.07421687004660042
-0.508471087406508
0.07656465557293869
0.057891574785459574
0.2654250309552475
0.1819977962588968
0.08680244603123753
0.3619820389211527
-0.058950375597556066
-0.3043693229514027
0.5291799228964166
-0.47802507643015185
-0.11762154594087532
-0.5831595241194499
-0.4216138375125022
-0.15308112209164287
-0.16333516414541385
0.5417870132539777
-0.43512596828363664
0.08191667165780306
-0.34163918787837105
-0.03904808310911793
-0.3160924251551593
-0.12270437196547858
-0.30796465294737974
-0.14086690614693453
-0.1910392958441029
0.24845074306346374
0.1896772021467462
-0.19025739042909692
-0.13829390493252816
-0.34630025740413883
-0.43937418489667784
0.5922186407867978
-0.4734562237302309
0.3789777799181509
0.29292288168545993
0.09684376530075975
-0.09696279156416013
0.24457511588650516
0.3377384779425633
0.02634262770109965
-0.6415359591837106
0.10020307923493453
-0.01725515345373901
-0.5274927401917631
-0.44709637271995434
-0.24959544356804664
0.38788661902206706
-0.5237712289838976
-0.24659072088623205
0.1801263768356221
0.021490344903231727
-0.009728978273563492
-0.29488946206593153
-0.6254100633877305
0.08254968105142904
0.39497798187003086
-0.46212261041650743
-0.3161553650341534
0.09844382067924172
0.10533836284095409
-0.29108649626315164
-0.5372431246923548
-0.29356031381951747
-0.009978178834064377
-0.24272246887057958
0.6013350388170156
0.040653455710888145
-0.19554571757543754
0.43865457275519254
-0.5883988580796387
-0.45539833563697196
0.6257400333620167
-0.020573954795582442
0.1845096569892891
0.040058543880128826
-0.6131896336474599
-0.3071147817232447
-0.19443927027825714
0.08121909664161099
0.618604348804808
-0.26235071308921526
-0.31807052049675294
-0.2725918480690504
0.46433427306719255
-0.05886901901799138
-0.39041920097515986
-0.04015277833400704
-0.159055202611284
-0.028628677803746762
0.13998904875668136
0.2897268525659851
-0.49584338353297996
-0.4895546241753725
0.04106427102482137
-0.26701317145202275
-0.5437313788286893
0.302895905759649
-0.07980889819009389
-0.2619281829319167
-1.325157384463448
0.1952060362476627
-0.1367516456177937
0.26423558302324657
0.28446685173151026
-0.6389279544445072
0.0017063277551095622
0.05990557287510206
-0.011730391014614682
0.6431794179291446
0.015431835193951625
0.2337298601140074
0.4583172531689513
0.17734064396929508
-0.36118286313228526
-0.028623268729502525
0.3269752968445129
-0.2368452242360131
-0.041256756704004895
0.3946973933562437
0.2162424874283421
-0.5266808213132534
0.14274807710679818
-0.0856856820135759
-0.36416662926949855
0.5247049605895001
-0.5915090380323151
0.3871058823222932
-0.02723952667655055
-0.1537411118423922
-0.07193362598790258
-0.07105621822848582
0.04130936154321139
-0.984324972380359
-0.775780362586582
0.6055128631460833
0.48317114065930644
0.5723206634782391
0.19910824453576198
-0.38337247808862035
-0.013343038063897389
0.01936171206219889
-0.0008301643627383225
-0.22280976352786389
0.667504477705487
0.31637392763618827
0.18485023428684574
-0.2511047054366078
-0.3177962961540163
0.12666621424964747
-0.006109909907476513
0.6542150745365356
-0.3055535031133608
0.14253492881222032
-0.395775500743026
-0.32142818177759047
0.1940227858725465
-0.08913197431575252
0.12633355775493155
-0.3248615414491343
-0.17268838762563543
0.1900678991299854
0.05392410467822151
-0.25736056616692243
-0.42737085080437726
0.23613495529107442
-0.13601802485108958
0.07629098371512841
0.09948043721306529
-0.1930780960357989
-0.51448541302159
-0.07380840269069706
0.23797575089064577
-0.2921978880987851
0.4780237543785915
0.4722280236269036
-0.19483868508090277
-0.457630231039573
0.4069923460075577
-0.05040513888141308
-0.42586602286781194
-0.2680041235291658
0.07668619311200592
-0.28637894307157075
-0.12307115211211433
0.46389567440027235
-0.36428013390472247
0.8192514653782074
0.3499048714239362
-0.07468184927830449
-0.2626549483920797
0.03221642047246476
-0.3050704897013407
-0.16797859745678573
0.2938454778432299
0.08947136753188074
-0.3069355034227757
-0.19971923934905145
0.6979794125827835
0.24783867331287454
0.14224455677053985
0.6738696591377842
0.0015461277539121578
0.05733486110295706
-0.30545562963507894
0.051122242914553105
0.05932446116308439
-0.2655954169319029
0.33470801090626673
-0.2659264633932072
-0.15616717434970778
-0.15955570894547869
0.5358435251271398
-0.24550858292864094
-0.1795282119315553
-0.7596623278875806
-0.030710823478132063
0.12910409166356077
0.30264340583149785
-0.13717171581474336
-0.13670129902850958
-0.42854309132343554
0.176962150889064
0.23286313998732916
0.17285212558221977
0.1715856314530142
0.16922266505756667
0.5739485075066699
0.3523678906895628
-0.4193354837443079
0.17678157299412137
-0.5616178333281526
0.07238132410593767
0.015130256180578412
-0.33010726385564865
0.08523266538143563
0.5960776829636746
0.36515768634962037
0.23133161076787526
-0.22281599607011798
0.023876309238023443
0.3269303994502684
-0.025428985387217433
-0.26219756635762165
0.3234121821326979
0.1882399475859372
-0.02988577870288066
0.13611193438406038
0.723664617243393
0.1210098413739648
0.48895711099263184
-0.19679971407100555
-0.04836383495702518
-0.11016630292701632
-0.04490506002509611
-0.3859381439573739
0.6758556515937919
0.20145348442112126
-0.3903998921683057
-0.7263017805000608
-0.10173007213256934
-0.22679855269590884
0.16787803638403004
-0.13440093870585615
0.1271295639279152
-0.06173280021420111
-0.14316537548919744
0.10200165975258386
-0.5015533394149947
0.4392518921760849
0.5408366064943362
0.06442610782572565
-0.06495685002108317
0.16394930808768982
-0.3365031799603066
-0.27867452467606646
0.04391869404521856
-0.4664482114025673
0.08080255889102297
-1.0124860650876517
0.11106439388668914
-0.16331873248087417
0.06494347323494316
-0.23271881229609956
0.4619992426171394
-0.048153947179837946
-0.7010760942330821
-0.40383965378546666
-0.2986984095723788
-0.8320084701432944
0.15929731828917607
-0.059658698436075235
0.026261798996840606
-0.3169353887644961
-0.02265097885854088
-0.36776174657220895
-0.4344267563383277
0.5600322260587745
0.11939577604303502
0.33767237967151387
0.12434069132758455
-0.049144064713915823
-0.17673294398836945
-0.06316070465672652
0.013497956227590603
-0.5603889923186633
0.44324295542638625
-0.04243003500642549
0.057390116387684625
0.03647315196431485
0.6862507204813378
0.21168527452547609
0.6645143092361323
-0.33236734305886034
0.5188619418635462
-0.5392591540592567
-0.1850751915919781
0.14433818033118342
0.2843769745632065
-0.07487228175585695
0.4622590448138278
-0.08548848810542935
0.20459072783582952
-0.033736365182020445
-0.44009380349125393
0.34644417351409773
-0.17673561114030564
0.01767088401485319
-0.2035372488497616
-0.7229302149588007
-0.6977294012313425
-0.45377172993745907
-0.1475210292746957
0.4037131454088227
-0.24970442502073384
-0.28624347436945086
0.06509638927991647
-0.2855407855882887
-0.5167591420501113
-0.788062686061249
0.28349560108351224
0.2980872876888159
0.02077007417485415
0.5057832907313811
0.04625895546578725
-0.20441229537576183
0.509325847363395
-0.01817467102275785
-0.027724097792752585
0.026372005176913918
-0.34303198044993993
0.5538341493218266
-0.671166753324042
0.2187391591995762
-0.6942281731975622
0.1308599445705222
-0.23617578664159344
-0.24786375767807153
0.15748936226856272
0.12411828277239213
-0.10881710630969416
0.32890987783945935
-0.07612971318573013
-0.2830754278201338
0.20509032992470722
-0.18971370384034994
-0.3934547099526642
0.5694995449963212
-0.10823965537542228
-0.2849229213446341
0.20208226513153446
-0.21267553587426158
-0.16673673829045607
-0.2529120674591523
-0.29432856104868804
0.5900663511082777
-0.2413687131093239
0.3692375071576417
-0.2935217642976618
-0.23675223768380993
-0.2941245711709401
0.13771057601894202
0.4186121102249341
0.14479061019648704
-0.5359874663788676
-0.07468409235296852
-0.15808077377391833
-0.4682778850613404
0.3916784963384523
0.049072820422288194
-0.2744703724160926
-0.34998092426619215
-0.008343991687723464
0.38257843629635946
-0.06376538171187489
-0.27858972917646047
0.20855304075466144
-0.545765305575891
-0.07400468578179774
-0.39106382626519176
-0.09062108430632947
0.21925141954502494
0.4150750530729046
0.489525237535799
0.03778561137188552
-0.3293394354427977
0.2381699733076958
0.005142530500664192
-0.06026271475683595
0.3564463825653911
0.7926451505930939
-0.6458986015176497
0.28405930338734436
-0.05894941484789593
0.24481193105000643
-0.06664919848307196
-0.2625422242210703
-0.32918230010595945
0.33600315740108533
0.22744415068340862
-0.43185850549294025
0.7040861809252615
0.24198264485451035
-0.16111507585077264
-0.31886295298715955
-0.4239815669844466
0.15137699059642584
0.01921139920227454
-0.20450242092312107
-0.1840893547434407
-0.7085438377000628
-0.4512841744363091
0.45098480181975154
0.30434829926116097
-0.235924804234442
0.22512747045984743
-0.08639941378856562
-0.43024775787142444
-0.5022840756625323
0.48537594669587764
-0.005955734542598382
0.29701962349901084
0.10463422399579919
0.25469454586844564
-0.1437136515254084
-0.037483735510041326
-0.2835251118868371
0.09632580789149911
0.798195507324302
-0.29625833974321836
-0.28134549934189834
0.11385520405934019
-0.4325055852049683
0.20962461787659342
-0.028623309322238256
-0.09434297671607818
-0.607130200233131
0.06779241872302412
-0.679695262760866
0.4421636556063184
0.39157327562245986
0.0683835506148331
-0.12502927328787572
0.23190364090972063
0.14092719842887644
0.2779909639216074
-0.6199704427419163
0.6058527902691715
-0.17604859629704042
0.3264513114609709
-0.03695758830448034
-0.19236917040678284
0.007599477623197175
-0.21976142115804428
0.33056264709944194
-0.5307475552006554
0.16770179405429708
0.1359067199462723
-0.2588423559840308
-0.5790558953466872
-0.12881446987839626
0.39535742028542226
-0.33935726868373745
0.0063208298072308785
-0.08242427286374684
-0.03625284864981918
-0.13526520435971004
0.28476071599785613
0.12613247536631922
0.004074410497826349
-0.34532781730446194
0.1302987867699996
0.20727518370587222
-0.2329480547568752
0.22155442148310137
0.24084057397616004
0.015037314192214152
-0.20474513334172253
-0.08170828827495577
-0.31137138177650536
0.9849983423923543
-0.474853445032899
0.039304411083601457
-0.515846491499133
0.10153021326983648
0.29287448065054794
0.13822874023589182
-0.6260590587503437
-0.09041925204827411
-0.6126099452055586
0.4549732748437873
0.3374960750989301
-0.32629364130314065
-0.5030391092136542
0.3870663656714344
0.4867814266397213
0.16233335318837602
0.34381551845761776
-0.14766215349513148
-0.30760937439851227
0.17023392284062944
-0.562955318507921
0.34390206948494995
0.12800844945309836
0.3813405923795584
0.21886055972402824
0.4608983500871271
0.0012115735361995705
0.004255627402754547
-0.05971817356411765
0.09151575288093755
0.04644337969018005
0.5360960984103438
-0.1227781274486296
-0.12880232333335873
0.2580360907888965
0.4423502286130825
0.7173246798890313
0.038542619726664826
0.0046599256669063675
-0.3399143588517274
0.04797220274702361
0.3898997055670381
0.09164284916048218
0.06629696744812855
0.06358066107047432
0.14449328600899417
0.011044548853742257
-0.593520648656014
-0.8814571252366856
-0.21269382186941463
0.3420215419733089
-0.2888051638948078
0.3862922961124237
-0.21920356165548036
0.33407599757823087
0.7010721688714704
0.14391157121249465
-0.03618855223567227
0.5507958637885261
-0.13767141305250324
0.10342645362651166
-0.33457477585072926
0.06739421829432148
-0.6853448149218965
0.3100155209312876
-0.2985673081540576
0.09263043935308071
-0.12043847588948371
0.1718368651342952
-0.38099923352780507
-0.1547283647970204
-0.32739070427582356
0.24136646598640837
-0.078576648454276
-0.04627893342700009
-0.35072643870984427
0.0018495096178840467
-0.35260966729644255
-0.07443479235341954
0.1649616364245338
-0.4757187929533013
-0.25428143678333026
0.5583293327718593
0.3933348265291264
-0.2813918450167266
-0.15603234520283288
0.1808524947339534
0.43776925196135646
0.29646723164656913
0.29236584676701266
0.01903969217316826
0.1585869530327995
-0.15452949989391168
0.3369243928449421
-0.3354522260174899
0.5966949495003226
-0.16190610250327783
0.022470441122272783
0.6777517928131731
-0.07235090903804492
-0.44935177999790726
-0.23117594940730954
0.25612940543258356
-0.06274367587601204
-0.10204520351896734
0.2564215150436904
-0.43915524925524185
0.12447182523818767
-0.027215502073172443
0.13436837519159306
-0.23443236872210033
0.20299117589368632
0.20656986523487675
-0.08845771970587109
-0.08822946784762041
0.08990164337475319
0.10553039529931962
-0.5876219671892089
-0.15699666415006316
-0.1711901720015704
0.24735880071905686
-0.35924771035832775
0.610882492929335
-0.4660578149837759
-0.12209459765329611
0.3231069734693005
0.4929574140171857
0.22047693023709705
-0.7301261167159613
-0.07716427823529623
0.18255470469072985
0.32865529893554934
-0.35129121320779444
-0.13123234504210773
-0.045635690886364065
-0.42083673254085713
0.6297425857907608
0.04359261818764741
0.20357258981466808
0.0489936408363913
-0.15546566535741502
0.39717155050912156
0.5014119018502936
-0.7767817875913583
0.08872106602846894
0.5494533166224056
-0.15465729360466018
-0.13223948613757555
-0.2722717311982306
0.1970191013902892
0.21771348053218967
-0.27389307514169803
0.07973913872207798
0.0962917736372482
0.22021854764657084
0.149219508929778
0.7406094992955701
0.7109941655293178
0.5226483445740977
0.029641889516620307
0.5168138797559609
-0.30547793624303043
0.45037625803635695
-0.40980523036252015
-0.8678836091436603
-0.2734737432046814
-0.03478169033258496
0.13236824645448247
0.1921512201287054
0.05886527467632217
-0.22628943525165424
-0.14559244074685104
-0.4313489990272411
0.3674340803556653
0.30102369175013693
0.7559431252669837
0.4237781765385833
-0.30032786328261135
-0.08668044975671264
0.1414835998088018
-0.26904565126408103
0.5319403673558082
0.0343883806459753
0.08864452913559454
0.29302544725306445
0.08195639448395134
-0.3057904258389313
0.3615699433668552
0.2744816802076484
0.05826833334762277
-0.5850713313944774
0.17474249127551975
0.0007811491165633154
0.10481095334153541
0.020134573599652327
0.12983858009520952
-0.055420485949681984
-0.3231192642377853
0.3594945012658009
-0.3189782939062271
0.12031027581263393
-0.13520300444856906
-0.20397550132768724
-0.8085855354727391
-0.5471860041663237
0.0865076831371906
-0.15371239070027057
-0.013490395086145607
-0.13974937498248935
-0.3707913408552387
-0.3207254907868627
0.14525598765182293
-0.467886214118503
0.449290985370263
-0.4223867355864671
0.6592801483669151
-0.35562298661186637
-0.14064844122472567
-0.29807147501971487
0.151465689298672
-0.15024500486128503
-0.7829144466024393
-0.05269882961823069
-0.37107107545724954
0.6020123789819102
-0.14697328488321848
0.1982397010364409
-0.4810041555832492
-0.1981365847511762
-0.3429780209435244
-0.32155068744018306
0.42080658318054665
-0.21022814871659848
-0.4481482081260839
-0.11886820066907411
0.5044993516465425
0.1952580680696426
0.12929723931240014
1.003096283442939
-0.641551000438256
-0.12171876998652893
0.1310711448923993
0.2202538918636244
-0.35095578424109086
-0.5869357374846421
0.2825468676413387
-0.2074982129693296
-0.13168185528142168
0.10944415498503297
0.3928808384416489
0.46869548471621847
0.2054525099655169
0.4046001592082498
-0.43949399212238593
-0.6244531426446144
0.3484096286816108
0.2253300696837244
0.6013120315633371
0.1047114842340758
0.1345047138826894
-0.49788635450833524
0.0731271098006816
0.1567285225453411
-0.34587201109939447
0.07958028045392676
0.44360061288636377
-0.00018911334447725667
-0.34534807810394047
0.4748437369540881
0.30864219087144457
-0.1454737314415479
-0.20223612664462967
0.37710613336702103
-0.866544336849367
0.5070259473524739
0.23404739672719205
0.05070307026675522
0.2700283619662296
-0.015536809383051972
-0.042932610012485335
-0.13418805459000294
0.1483173052844049
0.3786041448067773
-0.23966299166187338
-0.5041173585922984
-0.5345031027309463
0.4408670745043658
-0.3336441204818113
0.3934180824155192
0.3163082455405673
0.021247296586386966
-0.34256220987297814
-0.21975402006641667
0.18981826255484271
0.11405667530709146
-0.18938240851601043
-0.17108821244140293
0.1435519685216859
-0.11212860490761394
0.27057730622095727
-0.11444044713146662
0.08856009499347853
-0.6156497832294776
0.4948440059693521
-0.1556629706686424
-0.5401907734027885
0.5551672601930816
-0.19162812171547192
-0.37216487314407787
0.1745989196999816
-0.33667804651984284
0.13003735535507516
0.09046936897732424
-0.22807343307870132
0.19594080117710408
-0.22074507556155248
0.5162887217203755
-0.344374927703583
0.6753827958963123
-0.010278298896082618
0.4474647316270941
0.4336601853185177
-0.22166757594978714
0.3896518873960398
0.6315005885828696
0.19878292021547717
-0.1976895940172923
-0.24753812653100082
0.6093026341332305
0.6836225976816733
0.035281858702042736
0.09276836777197142
-0.006559757951975409
-0.07360983776698017
0.6316025801230725
0.4104563219665617
-0.276908905507747
-0.13797703309284684
-0.39593177434453786
0.06741942748267254
-0.4296740374848279
-0.5243576541430224
-0.08644269778412988
-0.1314048087880397
-0.5058989425619222
0.08698352415382432
0.13893238881398734
-0.15896499159352176
0.2042071098013074
0.06158838892944776
-0.19285455838820093
-0.20428733462870205
-0.7285538878968443
-0.32015592551171285
-0.30334215983719376
0.3590064498576168
-0.058685119149592485
-0.42519396728214015
-0.06421865761685425
0.1705852158673241
-0.016884295360013638
-0.5144092542712527
-0.5603900988987537
0.2134728856358335
-0.10251067935060927
-0.48402027492498995
0.2227824966221677
0.5164182263110401
-0.6597282864318513
-0.49373922010744653
0.050011369231790656
-0.12445673195029841
-0.3324235787719457
0.3917064275929035
-0.09830648347277535
-0.4122619314137608
-0.17716675540454271
0.20694180564815892
0.5373042057396362
0.25252197359911377
0.1623612613763276
-0.3461013281950586
0.15708527428974983
0.22387616656237835
-0.10882844356773821
-0.0925163883246856
0.13845386365137682
0.4460814585660783
-0.5493107009832867
0.24327443410446947
-0.5070507743548479
-0.26846808676356815
0.1023573017622409
-0.35722270342496243
-0.21997042976615022
0.13249437766545827
0.4890584636826802
-0.13072841176380393
-0.16586925288085802
-0.35455962151398884
-0.05430345634289944
0.4323647264623782
0.09281972569498408
0.42410863117987724
-0.34828068795356776
-0.06910484668281044
0.38553828793630196
0.11318305694102004
-0.28528676129075436
-0.072473128274593
-0.6202021969993223
-0.15130818883289796
