weights_pso
-0.07284876592409896
-0.0965465219089163
0.05773024830713693
0.011215097215682535
-0.36472758441390296
-0.5430772765520728
0.3602362780661652
0.24542152351248264
-0.217064945087031
-0.3264408894968493
0.2376313087275366
-0.06633804707102153
0.1302573607300787
-0.3133067632477505
0.32198866906011586
-0.027589584714770837
-0.27690355015331836
-0.16348327018569625
-0.06587388354861877
0.011387980567272542
-0.1440549535799013
0.6082592572902124
-0.09869184221170182
-0.5062108207343083
-0.12160773519496562
-0.7605180705668145
-0.20963109877434122
-0.13978108528958275
-0.4094980467736099
-0.27471433828873965
-0.13714226228416784
0.6266565684505754
0.25019961608001284
0.18655283924887744
0.14724533019889188
0.32520750270752846
0.13315615171131012
-0.472573223463793
0.5556811174308555
-0.2814271713405664
-0.08157108837536269
0.307753627117807
0.509752806515948
0.1018480137383587
-0.11728104957668511
-0.13898904381559316
0.646241188630824
0.1424294327633514
0.4334356499666341
-0.22847373133229154
-0.10666292081225545
-0.404203073096924
0.3414618752653544
0.7216375909568736
-0.5999364134553641
0.07566980250589811
0.4229788509672338
0.22563599599062273
0.5162632343588068
0.06503409427872148
-0.1636700517458219
-0.3585053228533316
0.35216241123366704
0.016077126398860324
-0.42419480389367475
0.21483775817051814
0.2857860252259718
0.49949236520815715
-0.5613365159823309
-0.4630019067637877
-0.24632102263207784
0.11170690972321035
0.2182837644733365
0.4545171540771616
-0.15923017724016397
-0.11140900375105792
-0.30793958058362264
0.2599276403425177
-0.0869732047589745
-0.0926527282538233
-0.6463852481418688
0.18623694195456775
-0.35855342579117555
0.08536681938745985
-0.7133901607376999
-0.6250665361824743
0.30034897287208706
-0.1591451362078429
-0.3180428150708408
-0.12285089492455879
0.14473571397605703
-0.19003666312415274
-0.22779717387969464
-0.5773031523099769
0.14029099230674688
0.5150399713130676
0.10569200419505542
0.36253189521243556
-0.0427058248858081
0.18872960525790933
-0.8165345533996863
0.28882384046271203
-0.04009301300585511
-0.3332267712455478
-0.1341586303412375
-0.3193847261102036
0.02792547657943937
-0.6478871505404366
-0.11838564543854557
-0.11984107435486253
0.2705953690542236
0.008038450527969254
0.41668308925292774
-0.054798579501863086
-0.2290737159434635
-0.2154331122065012
0.03887245549460657
0.30201350951295347
0.4042827448543159
-0.17180130070593466
0.2152666798186878
0.2259226383708438
0.15279627851002112
-0.0887238564435422
-0.18962118080791887
-0.5449272774663462
-0.5380374043897249
-0.2744674867647344
-0.06713966287342328
-0.5110461902461203
0.453757192444137
0.10481288167418143
0.2077570590471512
-0.6885893414890236
-0.37290775592952674
0.31787547094242036
-0.03665421548102444
-0.32622620938240066
0.3303470927499071
-0.04654532706402426
0.08865807775522389
-0.11813017834018592
-0.23910322773716872
-0.2688399200473158
0.4249535011179185
0.05073424565796684
-0.2385179111151841
0.46412973870886615
0.22214765952438606
-0.20795865464730456
-0.1686421301882591
-0.05094173385217502
-0.09543931689848346
0.19736342443738078
-0.33850833487161075
-0.04880830975054421
0.20171978058727877
0.4442662475296205
-0.2107847606781707
-0.16473254682747684
0.34485218689022373
-0.28061595541263606
0.3928972348680216
-0.5123050433623476
-0.1263618765285777
-0.09469506795494016
0.7003877468725318
0.5727885835194813
-0.5508657640216867
0.2452610299410331
0.24998868690220416
-0.14204473952292
0.12903988591300927
0.4940356730605546
-0.21813810849524534
-0.24960821425074753
-0.3689106255905541
-0.06519364458380728
-0.029801196317583274
0.21806188094220777
-0.021603692989442612
-0.12776839612780685
0.43124113295439587
-0.01582376911737839
0.0835721852659048
-0.15457848510670003
0.11329384136016354
0.2848849415873403
0.3209133487126335
0.3429665660467161
-0.21613755978419041
-0.5287625765790588
0.07841040956150362
-0.37631668583951056
-0.2592551437897407
-0.5887637502386984
0.043462904171947606
-0.13320188448506154
0.027829559598031614
-0.08270121857495427
-0.05634658264658993
0.1012078837395906
-0.012596371157986142
0.6727267868876033
0.15587867745295875
0.001826129969156773
0.6823124471551523
-0.14926149768491262
0.1275274722366618
-0.07839272424109735
-0.08451431764850598
0.08563850588611731
-0.2963503422843116
-0.2559105522257447
0.48221609897434803
-0.7567737882797282
0.0657962697978086
0.5023208875066293
0.11167167771021563
-0.22738517000545763
-0.5954507022735699
0.14600610577278914
-0.3097943876594304
0.13459041794530163
-0.2621282328674872
-0.7031875616616226
0.36114519614074125
0.5236781543482102
0.2278070517781792
0.2907367347079568
-0.4531646943855879
0.05749033910443319
-0.1193552473964467
0.16738611140261744
0.18566281862024234
0.14551797379554243
-0.2963823642217396
-0.2666941516306107
0.9161390169730137
-0.3591273671191866
-0.14662138345363684
0.14604648337231516
-0.43370844710132
-0.33862375986744997
-0.12434486703307425
-0.3686373485518681
0.3748413295583128
0.036096105303635044
0.8662731056970603
-0.10599070443016907
0.5236347999381661
0.08275345314879656
-0.14795996481521198
0.5152062233060424
-0.07714128469114405
0.3469506321665739
0.1163441231458085
0.21375214587454702
-0.04321492375041775
0.09334102038497503
-0.29313289176633367
-0.5181055725523056
0.009035522243054813
0.02649178012498897
-0.09199485131016405
0.46301294304086815
-0.3110232438823621
0.4220480480591475
-0.22573891753538775
-0.2316857060075716
0.049465445422049316
0.4317270732992389
0.2632285198961975
0.5331171517919858
-0.7271810074600811
0.20377489321109302
0.5413198044459004
0.1569624721878948
0.6062994759448705
-0.13468801123460786
-0.18452281219300468
-0.33157165230503566
-0.06736225953220712
0.13870632265445507
0.8443399789792386
-0.02274943829947497
-0.40248350853413517
-0.13310333026457186
-0.8110290372069422
-0.414276009865567
0.06494797688119337
-0.39553445766590034
0.014253386964617656
0.21655728613276798
0.6717914474554274
-0.0483887470383532
-0.35583326469747284
-0.3788612605913491
-0.42789402712255115
0.507499118018572
-0.010395768033750814
-0.6649702028303669
0.1394902454130285
0.4675388457364039
-0.22546870207746397
-0.37401992138132667
-0.40645250516624787
0.07005324253370482
-0.13080512856282098
0.6270407882760148
-0.32819410803529603
0.3000048958235819
-0.09990607328418256
-0.19804419261935902
-0.0516643558669584
0.17241373130184373
0.24667709892379958
0.1784232605661274
-0.08612263810305787
0.38663758006377386
-0.27160857006273326
0.177560720158941
-0.12346522128696788
0.5898133922592322
-0.16735567727913564
0.20475687791146283
0.1660933726239172
0.2592059496730877
-0.6345353991240364
-0.34725932396638975
-0.28617070543818646
0.08291119143124168
-0.1073341012042644
-0.2540613044082303
0.21675899075218383
-0.050418441971914134
-0.20678476671653956
-0.04784501182791184
-0.49669598791212344
-0.36027233715096074
-0.155948940493088
0.5784985353956277
-0.33448700187238223
-0.3328220062433089
-0.08796293143615426
-0.16401565251900732
0.1537794497725552
-0.03254805615319422
0.33667085863212015
-0.157921123663219
-0.04553210995639805
-0.33768150962514326
0.08577338418971694
0.5616307309897304
0.046360006002105804
0.3309886596479265
-0.2824198316068886
0.3373225735458459
-0.329527569853404
0.10224550575497138
-0.557846802012325
-0.32105821133322915
0.25255427471036307
0.30357072985430933
0.29624894088402276
0.2507497880159238
-0.030680450819052983
-0.3145074691831663
-0.1854716921634067
-0.5788739981739919
-0.5541193068834678
0.08530433403113512
0.207038240235597
0.7814724864690026
0.17236703740299786
-0.10184636829709576
0.13356239247520907
-0.26898088990579216
-0.7289051188639415
-0.15173575689262675
-0.10090640554893757
0.02937016005784126
-0.2944398765800988
0.3103249987155095
0.1624272665870102
0.36556549520030307
-0.03748100911554573
0.2920445095575558
0.3398587876645119
-0.3117679139248143
0.6046254867475743
-0.46746174442626404
0.07394779185785362
-0.16240493593838592
0.5319646899966811
0.3194566755341905
-0.5069151413831304
-0.682266484840217
0.3304546354366885
0.4478242111174282
-0.2766594618543304
0.08110060108526089
-0.5770245557875673
-0.2163473399519171
0.19463996708356182
0.07234103268809618
0.3575358307341956
0.6461215270216327
-0.04265201717191818
-0.37838105326019417
0.033278081794419996
-0.3677083336608426
0.08428488825787843
0.2056126129595657
0.26224274659136837
0.03498799228112752
-0.18366750139517607
-0.1873916838764177
0.41741135106591576
0.4639517437728858
0.22000728736638728
0.24532378492293305
0.25043449768342724
-0.07002650881885678
-0.6641958699405589
-0.11651936602107527
0.34546904302257114
-0.33365066568639656
0.009632773287226728
-0.5512817864055061
-0.10817601603317553
0.5562171336550551
0.20830897015989272
-0.5594138404865288
0.09559955354222492
-0.29633400869137666
0.07742088206273173
-0.0224324399803121
0.31217265996241617
-0.02000304523846904
0.4788721305049552
-0.006491397002821409
0.19655313399106444
0.36785389854782113
-0.23256918411888763
-0.3495235404537987
0.03944249009660715
-0.3300865368846917
-0.011736424956373986
-0.16701689755594304
-0.40974354485065134
0.19991270467508065
-0.1663684276289175
-0.630261825051437
-0.02950029090368342
0.383135528606809
0.1246246703279518
-0.19784270289969497
0.026231111993893063
-0.6386692141137174
0.20559051878994888
0.47433731856903316
-0.3420720178881149
0.36581816440219456
0.3410297328597404
0.24527692725195163
0.3407073460932377
1.0546190438342726
0.033884779564855444
0.9488450436904567
0.015571939834637909
-0.38626576912545596
0.10486149201478345
-0.16177178714139068
0.3801231093974629
0.07371288298992884
-0.14872243276744235
-0.5602657733652635
-0.3267456228315062
-0.1303165532803251
-0.6276224698806451
0.09324516857251379
0.21601940433546826
-0.3067177677780936
-0.1972050991016244
0.5198811541883952
0.3180498466675387
-0.19384196604295334
0.6139819947513508
-0.9451084085459959
0.48237200108743417
0.6645340039329519
-0.8748222201089849
-0.36848782004152025
-0.5482305873807529
0.21006115526955702
0.6755142905935857
-0.23717571670084067
-0.153207311668319
-0.21849875947401612
0.309966827645551
0.32761778419884724
0.17925369343126563
-0.0382275441148218
0.4277490279038711
0.10098986548182186
0.07451190007911478
-0.2335876818985209
-0.21300780581067838
-0.05221315742333998
-0.2437096992811206
0.317115449036577
0.06983497282919657
0.1382205669782493
-0.43079464605967327
0.17345338976350996
-0.050728644730907976
-0.28276581828366903
0.11507624681197773
0.38032037785973927
-0.01279560199219871
0.09368043050951572
0.2307386596250616
-0.13330473477129476
-0.38091193619151226
-0.007554054299164613
-0.8021941344318775
-0.0859645068622123
0.11372485059134903
-0.03619434588885222
-0.6178195450485066
-0.29760871100769876
-0.0794615132482618
0.5487511524084773
-0.12731624102509248
0.0724758545611467
0.5197554492876221
0.40429752172679434
-0.17072786543268098
0.28865683740937714
-0.2628818656440082
0.33866810383223167
0.006376761276909648
-0.5363848329675908
0.27074345821809787
-0.24783945171178334
0.05336486868211696
0.2072899785891607
-0.3175664864335405
0.37121843299309476
-0.34198798496410643
0.08138449578692784
-0.10194550504105335
0.3495969453616898
0.3314232911364952
-0.36942467984618294
0.2971662046829818
-0.21713674192530372
0.08053754232586521
-0.10953402956898023
-0.19796153391947857
0.011165099266480585
-0.14229760545589448
-0.2846595315609324
-0.39445142635184766
-0.6997924621571601
-0.034700722228367356
0.09976907834106803
0.32771634636495617
-0.3544233644196318
0.7804055441741161
-0.5666400036027744
0.12177961689957942
0.10522336066693379
0.647384397280981
0.11565046966283601
0.7241779985624724
0.058469011113416694
0.04948842803046915
-0.12805209869774622
-0.30052520788504233
0.8885221053247448
0.11704072548603368
0.16798893903028267
0.1764725914216064
0.8774491779912628
-0.010773008607113829
0.19472907661196023
-0.16586212594644273
0.3109583600619529
-0.3864886388569528
-0.01228045179692584
-0.3726662415055778
0.37757317587220923
-0.19023134986851128
0.07260533863483365
0.27995947575812097
-0.022621044168630547
-0.5766526636707969
-0.03842076561995143
-0.22112567629084184
-0.2744138360556453
-0.3528034483815445
-0.27100568099158595
0.08488841652283341
0.0922955486531179
-0.47936014738761107
0.27576440094352483
-0.1923533098952573
-0.14943209318560297
0.049865319752935074
-0.3248527802056034
-0.10744956024914679
-0.10518435077913059
-0.23668277780753905
-0.2753887179231351
0.26182830987664785
0.03557138822080515
-0.377107374646552
0.6624947539498677
0.18618660608116003
-0.45930148481795774
0.03449369073622928
0.11864003594687778
-0.07329269140890682
-0.1371779675651068
0.013851750139162908
0.32021303241374344
0.055410065393777026
-0.5804934349562495
0.6001719413072922
0.5027193089445187
0.46257188579356945
0.30850773707329915
-0.4731059920254263
0.317168521558003
0.04865631303722817
-0.1617875168340528
0.5494199826987786
-0.2789415937166192
-0.4668611196147339
-0.3026381019016893
-0.2177530978835937
0.12788744516059966
0.5622284847401339
-0.006790331941379928
-0.3438522584708909
-0.12787788331018296
0.15372822281764795
0.08029305261171725
0.24340202931074567
0.044431585313388935
-0.7204172315294047
0.323819249654097
-0.0606202267677681
0.15502986429420423
0.026874273011409107
0.18088209652930332
-0.0633543315744599
-0.07536843399820221
-0.5572095713799219
-0.6740744396369169
0.1523061175476303
-0.30357363045836566
-0.2802014515914613
0.19000422232798395
-0.2355602709858939
-0.4163536359897008
0.21939355610968933
-0.42127600853562164
0.5720567425051142
0.09817294680117569
0.19759329325163488
0.4302366958410491
-0.21740167257037232
0.4667687628983647
-0.231497818657224
0.008189734303172602
0.41436783917992337
0.20656166903312367
0.09090607914220004
0.3090454872321722
-0.19957558942531015
0.33928881379846276
0.09566058672812694
0.024535682034068484
0.3631962125022986
0.03249479372675585
-0.4947295221487416
0.22165365228499487
-0.10895100635071488
0.20808060736439554
-0.17901626920550145
0.09526920828018413
-0.6502307329488142
-0.37291908562849263
0.15740674735876248
0.5767875856214442
0.11236024710642196
-0.019604078883058786
0.20316878046907835
-0.5226316756706963
-0.49871131010699427
0.3339110666369929
0.2028058109017526
0.09358031607617698
0.08387939546518226
-0.19523588427746047
-0.004986339014820401
-0.1668094877509578
-0.31762318745260715
-0.1382480652229574
0.11475493877602029
-0.16757678158926728
0.12419243238410448
-0.12358066045776694
-0.6655454199798578
-0.032389927221816675
-0.10677237347900831
-0.3387766974994509
0.11621335617175532
0.2907843892089663
-0.16069244548159814
-0.28447433594674953
0.1624919559818379
0.20472061742410486
0.7103606392116365
-0.237265870805844
0.40955914916839503
-0.17155110731623466
-0.6639449889207296
-0.14275144270183635
-0.08442837129871322
0.062173806670098995
-0.07588036525360278
0.5283293746128208
-0.4700086856520084
-0.05560404392520077
0.6169635394930648
0.08567038644108987
0.7012994637269754
-0.21363630008950152
-0.2529564986774911
-0.34241790543487954
0.22675931486883305
0.0472256295163553
0.10637810929464442
0.1971562237295111
-0.2021940060922781
0.17638828161770173
-0.24421247033348864
0.21889922073867413
-0.10691049678338256
0.15420607533781408
0.18124322672448787
-0.18815270449917657
0.1916491803514403
0.6029399411647381
0.20706444947084618
0.039066274454176715
0.32980968686455625
0.6357795884348895
0.833965066752806
0.2650894482098202
0.11107033120851606
-0.24579000856234728
-0.2960423790687908
-0.07819641208825426
-0.30942870794866467
0.035907111154820905
-0.5628732696457056
0.3374060913788917
0.3475328767341255
0.07713879322070949
-0.47694862495730006
0.11748746596769792
-0.4581252084027103
-0.25792456485503307
0.05101870186020191
0.10206299359177544
-0.1756972379737698
-0.030307398701667976
0.057214086296760336
0.21366612484512226
0.4144543436403644
0.289672758036122
0.5900421118801504
0.30184664184946103
0.4021347707582441
-0.06562934822683836
0.0029910280445834517
-0.35191562482475597
-0.13597266833334418
-0.00881624578251483
0.18149559824315611
-0.33036561437235673
0.6480456379175825
0.1515379808874555
0.4292454021810472
0.6587684382712936
0.23622229366488165
-0.6411785793406818
0.21270621283565783
-0.41936344927491614
-0.07576518520904733
-0.1305453148822298
0.8386943752661318
0.4313092239057671
0.3621665215653728
0.40596311844881405
0.15113523086612662
0.1428810761115238
0.47600574540177726
0.41337803975537657
0.30794658615687165
0.41764928092276765
-0.43060540278746107
-0.23753038201751675
0.2581025127705843
0.13006925697684915
0.00861315183548276
0.30342431149516613
-0.1890669526277407
0.581360858160708
0.6857515202819484
-0.18058795551108914
-0.5828733106770795
0.11743366206338664
0.08030380112064141
-0.1319647699137482
0.5739883724297196
-0.01750465119652581
0.1332492046982124
0.1840789200769165
0.03929868976270791
0.07143916029165163
0.3229441425256556
0.235540254438837
-0.3281653645229854
-0.04331761729985045
0.0486903384627487
-0.567207231068842
0.26588621970651416
-0.6862201341492012
-0.45635844191060215
0.048156423307104144
0.09803014112633343
0.05665291140343424
-0.6569306694781523
0.29833403265051667
-0.4763154904559698
0.6454726643794741
0.02392331111369654
-0.34285337075542854
0.03818127568518175
-0.42762888402590854
0.5074610435415393
0.486860857866304
0.5338951510961752
-0.6154447318711962
-0.016009651434430835
-0.30185123340772735
0.14920286257434626
-0.07372808692123846
-0.4939426795426625
0.10578970677732683
0.21329985674334803
0.10917782674823161
0.3233480900074671
0.6394705666114325
-0.24830572710752363
0.354249929340048
-0.402181071545651
0.049956196708295104
-0.03485812532891297
-0.22840649048595787
0.08557807906173909
-0.4949502442131278
-0.5275816586236411
0.09188844015146407
-0.2536497609104742
-0.1815464657720122
0.4220586877005447
0.5168943492740308
0.5805074269685073
-0.34636924271303254
0.43245184402340303
-0.13341950786654286
0.3404980793642021
0.4761396054122858
-0.011932494961409076
0.0002716770334342761
0.6011736300568447
0.4050140104613162
-0.4084689991981596
0.19708663087593506
0.37964785140127255
-0.28998238858801023
-0.2357300741976791
-0.16714178897300458
-0.08056371952179556
0.07433889731468994
0.2800043033786151
-0.5228190679549426
0.23881127907897273
0.5190815290549841
-0.1461820484548821
0.244879739754954
-0.07451876783251898
0.3881368417732522
0.37418925241561724
0.35307743348745557
-0.8022130134666157
-0.24334243525122104
0.0695503633850302
-0.7193608742455142
-0.7769534735286718
0.25461192694745516
0.6543029563556079
0.3356410658644862
-0.1576591711206981
0.3428617331181989
-0.35307828654743567
0.08071895618838204
-0.7407618846239404
0.5613997611437006
-0.5464148504212353
0.2270621201817064
-0.7092361930695733
-0.4646160340918277
0.13055259834390828
0.3773687188532301
-0.3173740045481719
0.2480841004354123
0.3429026915035476
-0.2433060910718942
0.2602436022484797
0.42031385606468846
0.037596915059267294
-0.4597692849726472
0.19415387485749325
0.4810090749915772
0.32340633655802714
0.28425917586567073
-0.2682151358812545
0.17551920428963552
-0.14524192404508737
0.024185133415146068
-0.16698744934130166
-0.6591626233795866
0.21655506205846045
0.030965100659390257
0.2449831902054029
-0.03465105067915243
-0.15939822888830865
0.3361639699490865
-0.35031679583556335
0.4468614007270825
0.6275691045308659
-0.27847663530184025
0.6723900668494053
-0.046851770366848164
-0.03448844480773848
0.38071139297833284
0.1658127309736966
0.05321959281957641
-0.20004074579156222
0.17517425279666382
-0.05658109866736588
0.3121745739192227
0.12156149427280157
-0.4922434751024471
-0.03927994872634028
-0.09905061091786621
-0.5555107577633089
-0.20774486663041766
0.40127221319831413
0.22098373162319213
-0.4543958379578624
-0.2842885226473633
0.04019084019675308
0.40679673276354733
0.09938482981144871
-0.25843741515197993
-0.29837971926434204
-0.7103782849816406
0.16486497046335874
0.05593575975974573
-0.7247449026623947
0.785245660923746
0.35554682139153626
0.1367953467533016
0.05819253537972876
-0.28747437493430145
-0.6864945011388787
-0.056795334939479296
-0.0985664159194526
0.0073224701251132585
-0.19612033757017616
0.496219911251889
0.09786518649610088
-0.6922823634350752
-0.21758361674652013
-0.6827739060766015
-0.5657921501127853
-0.21838449163187051
-0.14200935365654854
0.09966121754481336
0.041103272731932435
0.040357786149753154
0.10061630638790058
-0.14190464774702782
-0.13376288259830174
0.09069739862241814
1.0779402077497102
0.15228897683234946
0.5781324798656632
0.47030178912993387
0.27839775707745523
-0.06523282556843445
0.5726503055641304
0.3994192663316115
-0.3188206523758196
-0.27530148817284217
-0.0501879157331574
-0.07954933122500403
0.46538292459878794
0.014840588720147076
-0.2846379559700763
-0.5636017067662179
0.6573050598051561
-0.03212050402678434
-0.5824008026497344
-0.3963128941602917
0.4083990812620622
0.1742124856872957
-0.22018763029705488
-0.21435409540820702
-0.37750398322840045
0.28324918202477495
0.4999236966577775
0.3989273168345679
0.27290817094668746
0.02694057901203337
0.47937034256062167
0.19945827331697946
0.20758542521082315
-0.3072618878968075
-0.07313867309852798
-0.02242643740628548
-0.08317712225875772
0.24671908769682432
-0.36119530343123435
-0.16920994800955627
-0.4095647615169498
0.060164437168105794
0.254318513753438
-0.18560956916764906
0.4274836151600544
0.3826717082572508
0.18394209987926555
0.4877771347561258
-0.11425471127549232
0.14329298229627985
0.18177843745350955
-0.07264672388220153
-0.44670304572732944
0.02645568744050852
-0.15796811757970866
-0.24349200359918816
0.4510515295032627
0.7753114728664211
0.06293389538582057
-0.8880002811584156
-0.10037824107538684
-0.08263580638094366
0.5766070996211227
0.41144304048137437
0.5476870506588232
-0.22423850683759006
-0.26977410002197105
0.2325982033052304
-0.566014085657467
0.35344889585284556
0.17293559925304766
0.22739833493900977
-0.11668536453732856
0.170191265487364
-0.5029684480658527
-0.24770132079315976
0.6484970584437417
0.5380739960196276
-0.0449570962288237
-0.5382526096235135
-0.23602137812677318
0.4353033329273951
-0.06321703258351526
0.4124171431016825
0.012215180771811773
-0.22337379701167978
-0.3679658667172464
0.2924876662755252
-0.1727163142336983
-0.035894659174946976
-0.7752166145910554
0.5183960332374766
-0.2672830014962373
-0.1691553978934427
0.4406473908109908
-0.20010981934773198
-0.03062833261004227
-0.13386740704797986
-0.17980876103017118
0.21433697977248414
0.4218375480190681
0.05240938411832134
-0.0560141027536246
0.21321940668757441
0.3394942582089046
-0.16325587631389157
0.45293980554271446
-0.3023527261644263
0.5911986520202832
-0.46904561637658415
-0.043242286960212775
0.07301729921144218
0.30134808282940545
-0.6375103953719489
-0.15268750980284887
0.0958012238134763
0.048130656008634594
-0.06854780396529947
0.4667841485963165
-0.229557116705958
-0.11681547140667564
0.014895226028861334
-0.3758472471414256
-0.030420913088607032
0.3839933989856171
-0.4922679453142825
-0.08788766363073565
0.03416926926578004
0.3412515166001349
-0.27588276573586695
0.24014925937026194
0.08256932381710745
-0.018502145569692194
-0.39080786357410136
0.19287340894274474
0.34243749174765503
0.05838004100839768
-0.4310635512212581
0.27830807092674403
0.3699991580489811
0.21247055475072596
0.4580519840466655
0.13451367420720495
0.05131554584090376
0.14590813960500162
0.6108028058182743
-0.2637754741701088
0.06981949629693694
-0.11183537000011076
0.5021514493030347
-0.5438315329701312
0.44740466774402865
0.33520798516816364
-0.060537075277199245
-0.28990889209561393
0.3934195727709539
-0.25770025810253017
-0.0009278452230513624
-0.23806922065508898
-0.42895832294673486
-0.3514662898412946
-0.051397717356665144
-0.6455130024978485
0.18562067687605288
0.5424627940279304
-0.29412903508600946
0.2730506866138345
0.11769891592285285
0.1082623876836083
-0.6893781098564249
0.1501361696904889
0.040826703920492084
-0.17663446271275965
0.5977575247193079
-0.1914935273394638
0.25764624688194165
0.5704227011918
-0.021663622478900083
0.3803524963593512
0.2684048451142442
0.39539286420168684
0.10594448169278843
0.10266169720185178
0.15426448068343468
0.12787768697098828
0.20202599757959433
0.5845900936679002
-0.1956978680284158
-0.6934030930512038
-0.22676239068035445
0.41637453904776933
0.7900769783225985
-0.0943065680710265
-0.3680365328805153
0.0684385393583682
-0.164988646704529
-0.2474097208270204
-0.05249543496220864
0.1616443326041793
-0.17023192407485824
-0.01743996065724471
-0.07665522746661224
0.6441826850622466
-0.05608228722812576
0.060387299526323046
-0.2140794179763677
0.25626944259431667
-0.3501877655760926
-0.2588235985508883
0.44918726751969107
-0.049367128299037354
-0.5786765870805174
0.08647755172006825
0.14788826936911265
-0.2715252705175667
0.1697778199368603
0.5248147267976032
0.06754721079715025
-0.47697038435989186
-0.12260768394791585
0.046114347765881435
0.023606488113358363
0.019172510509521117
0.27503850554761705
-0.08754400300105597
-0.2993293958464965
-0.4667810980971444
-0.40977797880011624
0.13249761008533348
0.20618883287359813
0.26682352635567635
-0.2889393832260792
0.1909615935128031
0.4135816499703515
0.23975574768995941
0.3267897667834933
0.5143163935318988
0.05078638942723322
0.34323960416204735
0.4313145756536515
0.05996028145136133
0.5639349663979184
-0.28478618440467923
-0.1791816338413495
-0.03230789533639317
-0.11378007376727356
-0.24482992182137858
0.09553189831999126
0.35257584384349333
-0.14666425499734018
-0.054769870958865076
0.34473098559509086
-0.13243613789854497
0.4385293342613053
0.17551628154894855
0.23588010371576032
-0.09679500649836258
-0.20898054144719727
0.09971567256088282
0.24885383519582246
-0.1780104428102087
0.10325066144787848
-0.015529986815732193
-0.47870057068463673
-0.7331600564914107
-0.18811999096927565
0.10159095760733149
-0.15939907740947484
0.1577833719685737
-0.6087862497692088
-0.2971946315392038
-0.12531722541949383
0.3542714210220604
-0.2130909064613783
-0.30567480721004286
-0.2507777360250487
0.45694807377279895
-0.5075848909368116
0.09191765005848518
-0.3126156918649794
-0.09507870977794787
-0.5841278417647761
-0.39496704099374874
0.1604381221834802
-0.63628135016657
0.5294283226312282
-0.10160689034589021
-0.0764852389609086
-0.02806552641143072
0.5810982714676517
0.3320452592867876
-0.029364441155704548
-0.1834190025398796
0.18430130785121823
0.3599554567669639
0.22716043217484944
-0.026600094242550307
-0.04458444965229977
-0.14688910760074195
-0.35476459872850347
0.09328583848221382
-0.34271845017230995
0.2099904415125399
-0.013947921715301608
-0.3361681099906509
-0.5896286045733675
-0.2783234685970885
0.6244628783607499
0.3631315790645595
-0.05360615309477313
0.0969219654963303
0.12039826347699156
-0.6646040998342381
-0.013335254134125951
0.2764589071307173
-0.18882215227657798
0.324043841958026
-0.026692924957406685
-0.43667410005890706
0.12308675969873513
0.31522443033299347
-0.3848295251144486
-0.011394997162224797
0.10751749839922124
-0.3416585387164146
-0.04798564226099352
-0.08412819991221714
0.09230292488843837
-0.15230866013675987
0.19137578303524627
0.6561818308528583
-0.4093813146297402
-0.577360551595132
-0.313336111443706
0.32949802579719367
0.041501603431354846
0.17853794707114953
-0.3577922769839124
-0.09210162167015637
-0.4480268732253632
-0.27930911275425324
-0.3966293915594389
-0.4144149527923898
0.09016350321573743
0.22745901463615598
-0.24992137103277157
-0.6882703872808268
-0.22001419006004194
0.12458607193715411
0.2836865002733279
-0.43262289268314263
-0.3127194931342419
0.0931526745059873
-0.3777273139302004
0.20473426115920557
0.0796497023574947
0.4610856717384988
0.47631942346037587
-0.21304236099574306
0.15363670563078463
-0.49443251912615793
0.6727678397537905
-0.413495261392102
0.16524299910442009
0.4182943402039974
-0.2679343553721225
0.22451738473484134
0.617531693374151
0.04896749312080955
-0.5414377748416067
0.1478513552158275
0.30953714138505195
-0.06410215298029058
0.12637322417545566
-0.4542179942948105
0.21525166606833807
0.025644218866498442
-0.4644363638449851
0.09849706894953461
0.404796270666647
0.35152747417817104
-0.25003910564439397
0.6002018220536459
0.03163917076162222
0.16719794438921634
-0.13235086016771305
-0.38090941249964977
-0.13480788210461706
0.1910685808231948
-0.41202397723010126
0.0030766051386520612
-0.5064971356000465
0.203058489105028
0.15319327028430063
0.47664570325722583
0.3197486462046207
-0.4074560762927517
0.2008833347841453
0.5406331595890945
-0.40190532396272916
-0.6270768277046945
0.19654278456221883
-0.3393700162836343
-0.1381807320399208
0.5246643904259346
0.27539985965656505
-0.31788028406304747
-0.354120635943709
-0.012301290411123288
0.05471321046002643
0.2334967872304894
-0.35614385422945777
-0.0630728453946549
-0.35412808832423104
-0.17630635949725465
0.6297744660549595
0.3706654423870351
-0.028220301676439512
0.46141308690771704
0.11933716373996611
0.22425099787199787
0.2569516424308806
-0.23832350102364297
0.14546940026828717
0.2930549189283312
-0.11816797571649468
0.07474128060413616
0.8125177465509915
0.2744019521648404
-0.21736606657396937
0.09807993442233834
0.23231454581429364
0.0851281202158797
-0.7242616740909563
-0.2636274256118596
-0.05171662704252926
0.20590078970805364
0.1760067037147317
-0.6810048390438177
0.3372052997469634
1.0128764768303122
-0.4732726756700834
-0.4463969512504003
0.3459263614884013
0.13473467090783425
-0.007997825740099938
-0.01068391534967371
0.20046835217748393
0.06551764244445026
-0.009862215772241428
-0.10714383142709126
-0.4764082358340675
0.22789239112788404
0.30666606017588766
0.27599177800628644
-0.005403982277112174
0.23466933745033677
0.26657190393050473
0.2593397207725362
-0.267859783667958
0.13907838915299897
0.10690576879202997
-0.3006665249762035
-0.07335177024687072
-0.3527985978450573
-0.41788019350595973
0.13622665080753468
0.38057698894399683
0.39267732488610657
0.4513098938144951
-0.004322537867928893
0.4016680139413478
-0.4261483192223078
-0.3194890656714831
0.21083474004936814
-0.1668621478054755
-0.15510485864062842
0.4206823290685017
0.2874488252137927
0.051690121268974196
0.2553179640965889
0.20067283263267538
-0.2402478284828027
-0.23430248505504356
-0.32949697603376094
-0.14329956540054267
-0.11346172967495408
-0.20132639545605918
-0.2136877169700651
-0.3165846250146958
-0.3541038036059939
0.7827899575921908
0.2691523067042989
0.14599553335527432
0.11029064719918387
-0.2516071916154967
0.06831526743804606
0.3382552804234463
-0.0516580097115729
0.022279613159812802
0.36517137167845515
0.2123322456012851
0.4244232725233225
-0.2988487560634768
-0.5921762457397524
-0.06778811609508317
-0.3478474261212861
0.1926443843064746
-0.6434241093019462
0.07348123481716376
-0.3971528967158279
0.13175656380716985
-0.22036878012419728
0.006335756980282683
-0.4163129795643676
-0.33520499522416064
-0.0409987948541605
0.5444875365807511
0.19127130555383154
0.06663025684817912
-0.070524661384938
-0.2869528589130989
0.6237473891350266
-0.41959653727445967
0.4126614056605788
-0.3391659490500951
0.5444631717798991
-0.08016749232531681
-0.35370784291454316
0.0338326479003167
-0.667947036617866
0.1643478389705814
0.14999184644910127
0.07442133216121198
-0.560176079742635
-0.14753451531793446
-0.2793545535307726
0.4482185313984385
-0.37069368105149764
-0.45795968159209627
0.2888297301336183
-0.0719004583687782
0.34262988730163996
0.5174582186629975
-0.45306432406603475
0.06262758942310438
0.12774772182532415
0.4717729427829896
0.4700544862529735
0.00026954966336652556
0.16262190263224238
0.24852298806289078
0.49413373447845044
0.3102300381209355
0.0223963696651713
0.37011575909907946
-0.0006874969968514965
-0.0630380427292209
0.007620180551398675
0.05483575392575822
0.41813696674821765
0.7741818704753608
-0.325613953250448
-0.1717542884327509
0.044437749177713246
0.046339286892053334
-0.152953074177203
-0.05511895721166676
0.6580282884140518
0.21603119585054584
-0.24986078857546548
0.44363937997921404
-0.09301400094848215
-0.16062079002287577
-0.28855666815224024
-0.06715075612806055
0.3658442382831803
-0.3315876560905382
-0.1483454135656138
0.7655787543025983
0.5796890288615831
0.06652325257343687
-0.1714934813560843
0.3454995080916772
0.10932849413582443
0.33027577006530123
-0.2680250070104472
0.14473615421003438
0.00331073000983455
-0.24342622906141037
0.111850442534362
0.08608351400891415
0.5193342527350959
-0.13226529298923503
0.43968913947186616
0.2199434159870412
0.03991719665808348
0.048630786050816
0.32072290795680464
0.021828915000204174
-0.20707860688938146
0.7082657120989931
0.10950388705000871
-0.05990874535931181
0.1250848727894054
-0.10899492341050443
0.2222108031329883
-0.09382126791791016
-0.03848871144134641
-0.32144659321408153
0.7772828137844341
-0.15805473104044507
-0.6816074059156931
-0.5190205060284224
-0.5422316405147045
0.0347067354343045
0.04019681449461896
0.13428023134480052
0.10983972859559216
0.32908966354935754
0.059761074858684704
-0.37093585934808887
0.13994121508815363
-0.5032982345847832
0.2996411395145438
0.09068053926794609
0.09233247563538159
0.31445259919321755
0.40647892934927715
-0.5158561557711688
0.12909548424472955
-0.5916978535814135
-0.17346781527134134
-0.20956371648667543
0.24139312527109927
-0.5351794723125035
-0.1682914492543806
0.516372215154886
-0.1799789409240539
0.2178390154430474
0.10995167017632544
-0.5305621427860817
-0.11705664478696833
-0.3356556754404454
0.22114526551705171
-0.06933561610456225
0.5025250294564371
0.22206684488655856
-0.14411839085828232
0.02509273473911173
0.2577306978629791
-0.030425072808574562
0.5925142654845161
0.05393436788638614
-0.34947137851870524
-0.2346951147347686
0.2267123075912996
-0.5312346671864362
0.217493980306399
-0.23264862966570551
0.20515702840911762
0.8975942647637751
-0.6768013329004317
0.5292142751852559
-0.26876718336467764
0.37118840884860205
0.17840230793145997
-0.2724506848138543
0.10567826138930562
-0.5362042274581434
0.5897743636560162
-0.038564569909721715
-0.30706567575113386
0.3817113533574411
-0.49514792726950557
-0.026704069795079877
0.5191313001848498
0.6407029382754972
-0.42390014970505696
-0.35927350278442133
-0.3539312188448425
0.05616758219056965
-0.14900979868150308
0.4839683368436414
0.5043237289217781
0.1255209517249795
-0.10446882620906452
-0.014678605849275305
-0.013064806384234224
0.5591125560963883
-0.2535843625939616
0.012396876294386721
-0.2609908780315935
-0.3815236518029599
0.050894683886851644
0.31918319817281854
0.1521708923425706
0.26840080300008307
0.7944605059231793
0.6565226559963633
0.2230985859921191
-0.25018836115949966
-0.3452559364114713
-0.1618597966075892
-0.045030620571956045
-0.1203224867488876
0.05017260610964737
0.44485713947843225
0.15062109097157547
-0.0035504220680703815
-0.07655264631563516
-0.28598841555318405
-0.5642120302431607
-0.2860069346417962
0.15298105920075492
-0.3780698219911844
-0.16190366583053484
-0.09151984973338712
-0.038106450720129116
0.24260796990961653
-0.27970440553349524
0.1411746262519785
0.09110567060881519
0.33189719164992926
-0.03840914410580413
-0.09552182528613172
-0.3302234236868479
-0.8844173297948045
0.5738209872419245
-0.15129029751165407
0.6785006154212817
0.225780098142285
0.13645877602830153
-0.01513578061742056
0.6495922045453139
-0.5723103357046957
0.009110545642172257
-0.07565594755160995
0.1316850255531017
-0.07114585267571219
0.1337546279622951
0.12521943460705548
-0.25147483410210053
-0.30062001798398613
0.052461530116060896
0.1439385750645359
-0.09715211995447022
0.12992558873351612
0.6240099122200673
-0.8354729647525139
0.3438799861714331
0.07218019811945353
-0.024992153795517228
-0.7145572069174401
-0.1338571496028077
0.3096890885969398
-0.4235201624703364
-0.08069825011657547
-0.3624811431821467
0.5548317222232628
-0.308912161786442
0.21623821457035586
-0.5649341687229108
-0.03944542713680367
-0.2786093972395339
-0.12526461317725826
0.15218785893558
-0.24869611028247152
-0.4443755756176422
0.12124442448334675
-0.1944104193173881
0.025285347601541004
0.17827845929502856
0.0729949954103502
-0.5277858501864966
-0.08016408926344967
0.018095067540476285
-0.4098323052826303
-0.3137026718823095
-0.3810554384160023
0.3354926238616635
0.5791668822516066
0.46625813408336625
0.41025751749601586
-0.21851945886782984
0.4677424725396575
0.3256201263345505
-0.020074469301829715
-0.1778932401582175
0.2875252705296149
0.10592838261468868
-0.3717916995814328
-0.048794540651878514
-0.04663921724636099
0.39786374105630534
0.06687119425729608
0.3193878669091286
0.42913056749401823
0.026582499522699754
-0.29991452042249517
-0.5984448768955979
-0.31386682322509185
-0.17275682173085477
-0.6880511557077408
0.050142845002134305
0.12274249226796746
0.4130882826411313
0.33220694631111125
-0.3288456435405729
0.1307862550335028
-0.12267087872926351
0.0711533599136386
-0.6606922031799161
-0.06600259210661069
0.060374249693177715
-0.012436802846680252
-0.19458699782007297
-0.029345483445526045
-0.10407971104364754
-0.29240289314156365
-0.22093567907174677
-0.6729668637976427
0.19920897871927729
0.017233574735289952
0.03218326855884676
0.29602100141036014
-0.20297227327238476
-0.46983933021757845
0.6446011933728223
0.31306389730642437
0.44087890853480577
0.31628085966164543
0.164705984095966
-0.142563295747884
0.1760024818753548
0.30783023517150104
-0.21591643051666418
-0.15826981089681444
0.3117360296645871
0.20948301636478311
-0.08448748595654774
-0.23562288451272415
-0.14370913452627596
0.001960875881588534
-0.43810710015616017
-0.006046879001858489
0.4902923265406095
-0.17814229513567037
-0.21753500665739076
0.05018523226131805
0.03029806782207796
0.08430439917377591
-0.11119267714315761
0.4390932569593742
0.14062506029518304
-0.4843342033508765
-0.21602134710304938
-0.43071976372886256
-0.3782418907758951
-0.2443594576803827
-0.29703829034943435
0.36848233759328486
-0.1735836992186947
0.034036603711860854
-0.4719183398467221
0.4157220886374738
0.44480494491694655
-0.11152913248445792
0.18107906082549777
-0.05713453167279131
-0.1754067952384512
-0.244455669668844
0.21993460646057142
0.04755682835642445
0.4942673826253823
-0.3851915477562828
0.017280983421886213
0.2076647556777654
0.3828390313141432
-0.6270772155868892
-0.11039503425616555
-0.02277866421073532
0.2082785521121782
0.24923885630199621
0.6344714019545727
0.42914425784421356
0.3637384110393812
-0.003597064621072745
-0.511451615594914
0.5761097891983729
0.15118338259117087
-0.7796313594153091
0.12924359369681296
0.469867873005379
-0.006488227477210326
-0.1632695614414606
0.005229020065975691
-0.4036836501741715
0.4799283295951938
-0.1645283855670819
-0.20410835203532737
0.16574241474655826
-0.11307365722386749
-0.27748747765001036
-0.2574640189627179
0.3744195666070728
0.08403919166837522
0.06472454263767982
0.2472805161396966
-0.27976018102798095
0.27259785690928184
0.15798858680449132
0.11958134137326655
-0.1078693557802621
-0.07933582377468008
0.15455324866889664
0.6023333064806272
0.7165179067734799
0.1869133689921549
0.2653759500801186
-0.3976785895508181
0.2481713257985077
-0.05659867442310972
-0.21867834069371675
-0.42351414540112975
0.2503885438295192
0.15369293618506816
-0.12411153380103608
0.7336044342250319
0.00866943501560918
0.4269926672322482
-0.08705548840024786
-0.23803281177687804
0.05409923508026449
-0.598434552620592
0.09551807228769003
0.1708378146951753
0.11189433134971719
0.4689554507180343
0.296156787926862
-0.4888242909564467
0.5199218068479363
-0.39110778502635785
-0.6772080575061129
-0.07262916601762659
-0.08182785654811964
-0.38061069188248464
-0.08094538747948625
0.027234825764974258
0.620608615771805
0.6058295948546212
-0.31113096682148506
-0.007727933484720087
-0.13403825082045315
0.4233821461367382
0.4885124018036708
0.09914110963530999
-0.4197901849334842
-0.001639900624219217
-0.39021464591588345
0.08161463896060898
-0.7153186690132538
-0.08737934780392673
-0.33871641892573295
0.285427512399756
-0.07371399585845059
-0.03388094145897585
0.5058882481502522
0.042232382970737385
-0.17557863879398142
-0.13171226342644998
-0.02325997887152655
-0.48318848535390724
-0.32249245006392047
-0.2802265938146417
-0.44896156277547966
0.35785541258443004
0.26665160399244814
-0.08288138151868846
-0.28123388164139956
-0.3391582389690102
0.26994666151787744
0.18117629427853013
-0.2797421353809532
0.7093369116466226
-0.16248579683287528
-0.09674371212853439
0.059578314066628085
0.29712734793798523
0.5817693102863624
-0.6406958233403494
-0.5816172783998904
0.07542047308192223
0.5814110229902271
-0.47704435931908323
-0.6047392614053563
-0.0755146931523747
0.17679455276574796
-0.18666289199555983
0.3788569536018962
0.2749937279685359
0.9189097672685157
-0.21930485077787282
-0.09640153638719634
-0.4742946744392841
-0.3503908351925869
0.3996289932444275
0.578369835405088
-0.31370442814894567
0.4771337041747322
-0.1732372511142121
0.012190294326420251
-0.5102193717552205
0.6426912726786369
-0.08834248540189957
-0.3289630872152056
-0.3999777440804672
0.33081618042418554
0.3614727356429364
-0.37541211514542416
-0.6891964998811314
-0.032046755869958005
0.08156614756379585
-0.5140379549437959
-0.14175517388429784
-0.6763041457591352
-0.5940772308902716
0.13276929269566481
0.4910714074864094
0.01449375684195386
-0.15595409321750747
0.046373286009227715
-0.13784311745133446
-0.03216248885926258
0.054566552679012316
-0.42945601902252223
-0.07599265316693318
-0.08889012881427373
-0.4164076230717519
0.07076569609552304
-0.45274370620481585
-0.40424891723410705
0.1083071521844002
0.08509948089952235
-0.05282056803772179
0.4998731601757537
0.13223823327396428
0.3583538772985548
0.5135218463143285
-0.1976282974077008
-0.09271754778865057
-0.09476913858240461
-0.5356050536033418
-0.11256285619005581
0.04690150943028473
0.1598566752473659
-0.394377651380818
0.9293387924258816
0.5963977450906122
-0.18958127058934848
-0.22489512407139392
-0.02700529310314569
-0.2777170210309753
0.5444167494095165
-0.030704796020050155
0.017320934704740405
-0.11867633108515578
-0.28417486756330257
-0.3534598992895654
0.033250260761656686
0.16426538295493515
0.04696020392371985
0.09868440593102386
0.17202460034151168
0.1641753201403625
-0.23396720578775398
0.30061393237198475
-0.6185363791897824
-0.47067196535067113
-0.11421951002664912
-0.32410313253632467
-0.04144309774123352
0.19438838257874658
0.5216886320716808
-0.17011369089551237
-0.0009387393752687657
0.5775159284721711
0.2310619698421546
-0.26399828920911794
0.5517158549503254
0.8369715168582449
0.45627901452399156
0.24557085614256238
-0.15329470046083674
0.16751136793283333
0.22014042372531728
0.10477538541895154
-0.3782343310717167
-0.5265755805725081
0.10379742771209391
0.3088565281971999
0.20673330534767181
0.1670974817569078
-0.2307080351936949
-0.08679435638154404
0.3255017826665055
0.29423888174435797
0.44243626672729786
-0.07878878133438101
-0.04051007501797046
-0.4791515839994418
-0.07703615669080205
0.5809016478152536
-0.5258026311394733
0.41816996981773014
-0.11040373100362427
-0.0630204401782031
0.1925383849479592
-0.18782329940449935
0.0044605371233514875
-0.05464985781185725
0.29743346802177634
0.45940104656819036
-0.6550891246594839
0.6630616798290917
-0.30066842354535966
0.7252739434311031
-0.13509894498244512
0.3811589539353788
0.04907672855868755
-0.013918697639880673
0.5465811763015042
0.6129176265188685
-0.1283514402648101
0.35083876771522204
-0.6569897509070495
-0.3048722404427392
0.10120976796763913
-0.19757976354741127
-0.6403440651899945
0.36033993077345355
0.9875540389328882
-0.07391649464863723
0.40318538023696027
0.04270459709540339
-0.09244137029315874
0.21157339066648345
0.30580040183921725
-0.031637850695698265
-0.11703151484171746
-0.05880379213681084
-0.2927219337955191
0.16012307932379802
0.15870799306858058
-0.5145304336841946
0.23488099398559747
0.32449987760682475
-0.0900664810587572
0.6469710433267505
0.10869485430798705
0.12472540686566914
0.15869231889782057
-0.46460443938438756
-0.120744467029337
0.0038139625197592
-0.28383196371369024
-0.2691495532526737
-0.4245122640491033
-0.3811750835091568
0.22829804915511595
-0.6318142386992556
0.0942744776410292
0.17157272726852268
-0.3613206384552698
0.30799499044191936
-0.02402984683246156
0.046563101423303464
-0.11173344375947447
-0.2889495649902966
0.34475440516586253
0.01528494643226614
0.1742224333103661
-0.06287290915100933
0.20479762726517342
0.03876064260741141
-0.353573250151129
0.0781982684425135
0.0876558975708756
0.28225635271437904
-0.1354281878141994
0.4590776854838263
-0.04764507591516855
0.011908892201839006
0.09742615487981182
-0.8464442608851347
0.4573586560682332
-0.33331683904356907
-0.20987905310817004
0.5280849917740569
0.3286269155792317
-0.3297578192991847
0.3009597020250518
0.17725517244721467
-0.23685669167532206
0.36344154602628304
0.07891995114878955
0.21697673947057794
0.0832963314227525
-0.5198803611316476
0.4805590380663678
-0.699429962621624
-0.5398391797831977
0.18291471915022933
0.9476561493195256
0.15981176897182367
-0.1713938315528907
0.03334432279583912
0.09858527828496674
-0.05210776128319864
0.1722154145719466
0.5509382081713118
0.04128446589107296
0.0680255004496814
-0.25318082599499153
0.18389790145717178
-0.28863220491844005
0.22755716089666658
-0.3778753146208697
-0.33616073987637024
0.3345279013989361
0.469150371215503
0.18299132998201714
0.12450128065004377
-0.04965709383791999
-0.15096323872079007
-0.1264582336417878
-0.2521573487652946
-0.2957195942229595
-0.08905266930422111
-0.2894895276503658
-0.490969279425692
-0.016127364021716578
-0.05599604595419707
-0.39567083338061443
0.02310519758443479
0.8347387673380507
-0.24125559876015687
0.4814836032327632
0.578255198364266
-0.2757390014224315
-0.3382345532457662
-0.18241790566540617
0.4370801644985757
-0.0387124463723531
-0.18807926071965872
-0.17006113077917398
0.050419531363615655
0.04075472207440354
-0.11344576360411471
0.0010210559050721493
0.28918602044607744
-0.03414402776973175
-0.17036975850416614
0.06482890584806175
-0.24104476092361865
-0.2981772333552621
-0.26054005071945485
-0.3293809937438003
0.25593233456058667
-0.23975180967684548
-0.2797390448478499
-0.019820130653651506
-0.5368439291380531
0.5125102865076115
-0.1844625604008686
-0.41188444893495024
0.32187127139145194
0.3885274011313536
-0.7938651382235762
-0.4755180701381845
0.05986696518650809
0.3543903352338277
0.2468581129223977
-0.10267696846726623
-0.2022151211472838
-0.5451614945826612
0.3463735836797723
-0.22870906607616276
0.30813356182475427
-0.38627860493580596
-0.3300812336603999
-0.41573057508115385
-0.1858741203870543
0.019772337761281882
0.3541548865590438
-0.3299159659219537
0.458906579684962
-0.11062807178056178
0.03940690143597616
-0.3785561172726951
0.10559786393727813
0.3296090994985796
0.03317619457873107
-0.33009051386404387
-0.35162195818855674
-0.46425302480116376
-0.11093955122370293
0.2941988925664345
0.6975350633912037
-0.44210891167658556
0.3523564767549347
0.5410383631439725
0.09604799270563513
-0.21234919133318647
-0.6661846431990031
0.27484160744847147
0.007822020734880473
0.630388841593088
-0.19329084044744502
-0.5543040560190468
0.1695653002609193
-0.3762924807606246
0.5413748102953683
0.5587032579834853
0.3630978643686829
-0.5069000250104602
0.7319958490684005
0.21496248799141987
-0.06893423383025653
-0.44756460610561744
0.2568456584713742
0.2936277501986067
-0.2270774507622768
0.3249459616813357
0.12545986231738399
-0.32396563941625317
0.484717711557437
0.5796176624936624
0.3214048423342656
0.05587025506116721
0.01285978847175946
-0.35385176152853437
-0.07304941303286071
-0.22840961563450904
-0.06204148474550021
0.27072071937353764
-0.3788801648796889
-0.024501682515587767
-0.19366228274621686
0.16247997613011297
0.35310581007460545
0.1907674371440504
-0.3455075130268862
-0.30611727923625454
0.5121587588554919
-0.6266535032053221
-0.43962889332883426
0.0018987617881384626
0.04517764806317499
-0.6297566033461276
0.17526815199714724
-0.10427375322370307
0.5541627452189415
-0.3892856567581158
-0.1943860343750003
0.05470100543049948
-0.012371189949634103
0.12321171258686944
-0.4244086782028701
-0.024193142576894994
-0.023635246236378124
-0.1844643967480414
0.26302992338293474
0.9540876883024761
0.3777752728541519
-0.24047263589226
0.2112950020056293
-0.04414941727490471
0.010451883407456371
0.26438671125780594
0.5708135454779146
-0.191287189647287
-0.2922886271407396
-0.02503712596602916
-0.16201021644913302
0.35924385464302067
-0.40315115844668814
-0.2879937261133331
-0.5471445882706081
-0.3580086622568017
-0.09957228642313846
0.37930473913817064
0.5748908672358911
0.43398350652166223
0.6589732323562891
-0.39942864203633194
0.16608164861068475
-0.16078714129408656
-0.4268567274005136
-0.3030902411444945
-0.3952174712561521
0.18924334964918244
-0.19480424998238985
0.5105108000724792
0.5506602978448888
0.11438755216804766
0.2933718533956808
-0.11735656510449775
0.2241032626605133
-0.15961001060192576
-0.40721078797384574
0.31508888300849924
0.16865743039804743
-0.3519177534237091
-0.23382659688032517
0.10027761024611413
0.6548047780104749
-0.29361048736314604
0.47807324188600725
-0.5296044866529117
-0.039667481930843136
-0.4957202052038919
-0.22540320691420468
-0.1834675334580626
-0.37025112092012
0.18800506637728576
-0.30191950960534847
0.18779701023317302
0.1718186424189648
-0.13967062963430846
-0.09450986980490234
-0.018893008845995263
0.635270709193859
0.09778370415481433
0.14495680977564532
0.591593873392805
0.2746470853152518
0.21763258132797758
-0.5130482443062524
-0.04740809356416127
-0.18870657719361006
0.04483280915175761
0.6746362582391444
-0.3189098899745431
-0.2197832694813739
-0.12923845149584035
0.1484589382733565
0.33749790397577006
-0.22862357192733895
0.3991762683856776
0.4318727495247225
-0.27826606884274224
0.1168560811318696
0.3059790186643864
-0.09429809802658946
-0.515158269870452
-0.01555885080930743
-0.4382421092658496
-0.2311193042435967
-0.658149217960042
-0.42453002767514825
-0.07786608528695271
-0.36726640190929805
-0.1458493250512449
-0.6403683656954422
-0.13505903993527427
-0.3930931024435705
0.25112885071636304
-0.08673943669082762
0.46583510234453684
-0.15163860241621077
0.14125388165428865
-0.6097037830456862
-0.01265929465056687
0.415568157129497
0.0915639370046508
-0.05691760169984977
-0.14829155199502012
-0.8934900817999862
-0.12316020119989539
-0.17190222589031195
0.16524059852498
-0.41563475662401944
-0.11653875366052564
0.1772831816091725
-0.12157785551088694
0.028104687354999575
0.013126285596829776
0.8779712147857972
-0.31194376657515904
0.1228893375393784
0.8401921087365042
0.2357906303851531
0.09106497166762936
0.6151371057959367
0.12953037632072342
0.06464713047340351
0.09821825176254871
-0.1144155036092167
0.33386523244160726
-0.44036066743240876
0.03976780513364585
-0.55251538180138
-0.3036969589955507
0.12078978526949867
0.09393166301533447
-0.2746449485114326
-0.5438986015515989
-0.10762540403974259
-0.3548514716888294
-0.34948042667677354
-0.07706412882877087
0.209757870152008
0.2729003656981134
-0.09922041492178922
-0.7695890663676143
0.775218683096298
0.14579596366456907
0.47459733583568464
-0.14870362117141822
-0.07258110096778259
-0.2968929260459035
-0.3940268180043259
0.09591197970377908
-0.307998507708138
-0.19496033043604108
0.13064893314726342
0.4823255653932595
-0.3202403522853242
0.13282768447433646
0.07678726001661332
-0.01066545054003903
-0.13851869867101702
0.033604642613849656
0.058187578474036696
-0.4128162823359638
0.14014706404543034
0.6317598598501822
-0.03999341894123199
-0.6214053549845727
-0.23472437527200296
-0.1300050924498832
-0.21800723292439758
-0.2134138623541527
-0.01400892955254884
-0.1271214680155359
-0.062723564425924
-0.06581414712234436
0.14909072567719403
0.021848143436450865
-0.35438515757627437
0.016782982014635073
-0.5166819752059711
0.23131149919911906
0.36784153659749996
-0.34017856232983573
0.1496318606411895
0.5467983494292418
-0.2495017090278975
-0.13469935386204668
0.25937649259654527
0.16121811275290032
-0.02672386114024207
-0.05376672389116469
0.0530215305549591
0.029894402641661065
-0.42399928095149925
-0.3044853305483068
0.00029246982751287534
-0.25765946937556766
0.6698591109165191
-0.7031668145678566
-0.1705737226023786
0.002924150417226445
-0.7230458627384669
0.2927356571150034
0.057952398747980374
0.22313820673100876
-0.3754557644456986
-0.24509079654130947
0.03943903028615868
-0.05299921729697978
0.04760128935978484
-0.11187602766201224
0.17431020836876193
0.18763964034683459
-0.2275993382479525
-0.08143073279826077
-0.13290791299788232
0.5601468653608362
0.4518214681718272
-0.08954531881874091
0.3723709547556538
0.025606928877622198
-0.39918284208965876
-0.5874478795287464
-0.09421867734025516
0.21724640677026522
0.0009802286928497087
0.02193778181058861
0.07179997204742469
0.5630825476460442
-0.03559801691276037
0.17731820030876969
0.11346254416705172
0.10005648274771993
-0.00956398340713409
0.4159484365700581
-0.4628641023019793
0.16889053091905595
-0.4469353454552355
0.532517719151244
-0.22805974786832836
-0.08827413763783265
-0.5698899504934115
0.5531238324193469
-0.19272472994180004
0.3469247090892947
0.4976777976787686
-0.0043815921414621095
-0.5144133094856925
-0.4334386532004429
0.10127512954423486
0.018605830278214257
-0.6622449525188893
-0.07731156257618481
-0.3479671764868763
0.030906981377044514
0.08473371654187874
0.32155787026814037
-0.19804645770145124
0.1621559875074005
-0.1908208129219213
-0.18239551919750374
-0.25785825461728346
0.29014072910258065
-0.2495134489051643
0.38720299391171226
-0.16280728199369182
-0.017839883728117286
-0.3154401169642652
-0.3962777665463946
0.34480888969229245
0.17250346210506218
-0.01443857461528114
0.0026991231653927536
0.19854361161420994
-0.09325213006921346
0.22371358284056694
0.27959068996764597
0.23186372206660233
0.04161735278844284
-0.31455810130645234
0.0070713700495627155
0.09225799600628105
0.23929533396205357
0.06076113234436757
0.2404477873170439
-0.5526766732431913
-0.004595728772631165
-0.45629575678313705
-0.21577478215600548
-0.22457122588497952
-0.46039772229560466
0.1575069437384674
0.30547893354730393
0.27123756175193103
-0.014431105214041192
-0.07000016275176722
0.3745378245668899
-0.2877712469774547
-0.13760204792604624
0.6632964588569848
-0.052472083754900346
-0.5243143213929121
0.5621677476901548
0.8531969117382627
-0.5320502166981793
-0.03474222633046744
0.0909192094289636
0.22677001651048095
0.28780190608082934
-0.501746975282714
0.34437264810386525
0.543726515783435
-0.045001135963913225
-0.7440251788156004
0.29121822950875115
-0.4501064093328401
-0.05282270812377738
-0.4565963922888806
0.20627214002222463
-0.4895199862278168
0.23960219649998532
-0.17982253114063843
0.0006967655758389371
-0.43221931906049205
0.2067301949367074
-0.5004460985506952
-0.5044700137740908
0.5011188676272297
-0.31464328546616555
-0.22571790862568353
0.8415570835034877
0.3373072291991718
0.1677850473411426
0.2701269424858325
-0.15096565139669033
-0.24127599187346943
-0.3998486765806656
-0.3358297010105217
-0.0039162144420821525
-0.39026087328266296
-0.1980045599798909
0.2282834931628796
-0.2577739085126481
0.497170376017973
0.10681026003486667
0.6023590706106624
0.20158061177404257
-0.26656808266595766
0.006587809439003226
-0.10669376694583187
-0.2714688872175926
-0.14081646433477832
0.10210339841345897
0.5670669695239545
-0.13037381199484188
0.09611581274042182
-0.20502350692581697
-0.6374827225339706
0.5206697836940962
-0.13740658349163717
-0.12032113417758106
0.10019460268690218
-0.5662630037134293
0.25083936122910033
0.41419152723493663
0.34822061448508423
0.1847788111560038
0.6741661250704133
0.5599245343008449
-0.29912371267380444
-0.1354933340063405
-0.6200304738227165
-0.034666241708693535
-0.19531604423000404
0.32926817704678385
-0.18881252462225914
0.10369345784749655
-0.13787932589181934
0.12144928309129842
-0.6281250015126194
-0.06717259531963751
0.011816430702375006
-0.29888962846748374
-0.40169059928217804
-0.2995104634666542
-0.42046136234973347
0.20232573333309217
-0.2328122353893031
-0.06369497401417783
0.042406386193427646
-0.3022384244649522
-0.33203891506495053
-0.2775602198320825
0.0319686421794003
-0.3246860465547142
-0.1423684897535072
0.4415195533272083
0.01638991695066389
0.06888836019751317
0.007110428451162408
0.1866292514485333
-0.20077831276147273
0.10734269427131835
0.10186140504681773
0.05792125290637678
0.6148273506378388
0.13185880151560922
-0.06739913195735212
0.3736972086485674
-0.33973123559014595
-0.020385774929379055
0.6275724896065842
-0.07731754798812457
0.13183747423878583
0.3277304956562354
-0.6877331109185174
-0.18450889398585668
0.6211078829449812
0.2966655213943137
0.4519536542350702
0.16337063410739366
-0.13855347813696955
-0.19560785151511662
0.08970438546986016
-0.8154748010526067
-0.4182502055703367
-0.3407643850109458
-0.2585755818235756
0.09034473993412387
0.15218706526433687
0.29714565090188044
0.31186973627242254
0.2977238739362455
-0.03737458749928526
0.04685610343506738
0.23135587766719845
-0.05027496444711398
-0.165514004431411
0.306938026683804
0.46467511924833504
-0.09285723925387417
0.10776587183497467
-0.28601782190824426
-0.3184835232234567
-0.6712136524989952
-0.038267799285600194
0.3409275740641873
-0.18530836446536633
-0.5024198997665464
0.18139803075356858
0.9096248245449866
-0.6303881978355246
-0.32709052714604014
-0.5732256328331147
0.7294313870112964
0.8189276158422336
-0.22394757835288454
-0.2703498902056442
0.6022570233403162
0.016004337549534557
0.07265072755409072
-0.5279239469656843
0.13136796736735445
-0.1797143192151897
-0.27062530988296607
-0.2825176218678783
-0.5031490546392284
0.6569837189218932
-0.31012820423076015
0.2963097107549579
-0.7063758777342614
0.17774720075479977
-0.10641855746771435
-0.14769666201718631
0.43441015046885534
-0.17225672277281168
-0.10489702787420019
0.13972671076129448
0.44187867098468325
0.07051633644277282
-0.35694371018024007
-0.11353527057372995
0.11154833791958595
0.36216387348013335
-0.5831116683188697
0.1644056562020163
-0.22145776368939094
-0.15213383257756918
-0.3257142277779625
0.630183233761926
0.6217646490848243
-0.22757265567558754
0.7460482533912218
0.26592307154890055
-0.20847444631084058
0.09196770935767346
0.22617829633044317
-0.31882582955444033
-0.12607162090955704
-0.374739217229452
-0.21800144230615487
0.5025764653335469
0.27462621487595557
0.35796124389265305
0.0629629597978782
-0.10281774844938416
-0.3104328401832581
-0.30908744101746377
0.21586200106907344
0.6755774053347772
-0.0889290251495984
-0.5055880923883664
-0.4648410525872641
0.027489778051076316
0.29822603137826154
-0.1867596060331624
0.039376549336135255
-0.1151952505017635
0.32900664697906373
-0.05812554348284029
0.2728685990338915
0.2865565049830047
0.24124147251725359
-0.488014037846812
0.1878546723123303
-0.19350248396048164
0.09884404075503989
0.7762709583672451
-0.1383925798910242
0.5196472957678268
0.27727542498604657
0.1999354346912154
0.0663230002807558
0.06935135461780807
0.42194145284505696
-0.18927870562589422
0.06102535074711026
0.034651315664312635
0.18471060268489184
0.8533373983557196
-0.27651341514583455
-0.006170041431925589
-0.2573600703863146
-0.1354769539141974
0.30550997698047216
0.15344140973893322
-0.02707140694434115
-0.1849819827284965
-0.6806227386805823
-0.16042097045634
0.6343861316305851
0.36520067529378564
0.0671790508153712
0.07062362815394105
-0.35278279052001726
-0.3411116379739971
0.20521602699493438
-0.3905266419643984
0.13401462224671634
0.07835497923929696
0.5342032520508736
-0.2917416943011153
0.12219354605560681
0.02778728473003007
-0.2885997138994195
0.1323388963498527
-0.19604251706031867
-0.09186084198300506
0.188926035685661
0.33839090964080276
0.010346350300487216
-0.09322630260754734
-0.17785257001116167
-0.3372526341909983
0.028296014983006695
-0.26962241308973517
0.3902269274452625
-0.3370289300871929
0.24596380555155464
-0.2450058247202241
-0.26792744451696504
0.22666865607495257
0.05729907878126782
-0.3238194544937385
0.3654553565413958
-0.33456061288984057
-0.3315055620120845
-0.23064917266852628
0.22741347317693753
0.06143601910435397
-0.5084157606850536
0.36680916613569703
0.11688609895390499
-0.0024233759059158317
0.08996667126480484
-0.5282944841760172
0.38701426213733314
-0.19648164962610543
0.7944460801982199
0.10866624511305965
0.31387664520894804
-0.3209388982788651
-0.05763023134483503
-0.04226321940980736
0.0851675610028625
0.1429249398767751
-0.17433713561415642
0.10917456421737949
0.22615067557519464
0.05850171016694035
0.5761396876188233
-0.8442295089259299
0.3007135412094849
-0.35523718591395653
0.061787694225899546
-0.443284320593482
-0.04985596837399674
-0.14288682402089184
-0.41006825551205817
-0.17863315520526257
0.02072025476860543
0.5106197558753242
-0.2932288326272616
-0.04600564687470786
0.03021639680504436
0.30513662181910683
-0.14699017893580146
0.26696063963600447
0.3174906363155448
-0.31337215159316745
-0.22679873885508955
0.1615460656040257
-0.08936042964742359
0.2144987322198235
0.1454711684348752
0.044932432792057005
-0.46105313658263536
0.015930739797826596
-0.013966557143364682
0.1348255007253081
0.327024446038791
-0.24096073747129404
0.5563011311802141
-0.33039933304929425
0.49254342767830167
0.4308119227027319
0.11037080934976361
0.014764313652321517
-0.2957476946558086
0.42529726834864584
0.22525231885860128
-0.086279792481066
0.4018580250911461
0.06307676009968831
-0.41687056639395337
0.026821703332137917
0.5633627174267695
-0.18002605490456003
0.22387412563826015
-0.16620346968507077
0.5861705678498252
-0.34316099995734956
0.49326718961712374
0.9095274805633634
0.4702333376743837
-0.07859669687667376
0.3474101959535655
0.12391994986749037
-0.6863131252459345
-0.11618338690256699
-0.42226134198664206
-0.9107398036623547
0.03685294961610228
-0.3256827317324541
0.07305903796726079
0.046252827320532576
0.5176112596012469
-0.15238737113234763
-0.5272927288183586
-0.08692596745369359
0.33438789689755644
0.5558315464930972
-0.41154845628054787
0.5577003169372293
0.5101210483041635
0.47870649809207294
-0.07135272335874657
-0.3101586945825019
-0.20679047804798717
-0.17274152387158143
0.1082916466261372
-0.0820741564423158
0.02940361221295729
-0.7236565558422776
-0.2150208448806789
-0.47401601003738786
-0.09754200399743364
-0.3588767377236811
0.17996813395865796
0.08468896062269543
-0.22867934079201904
-0.3723367209772046
0.628068312561565
0.2264181978645658
0.4704088290303697
-0.07683176884524219
-0.23133996079376995
0.17069193198578736
0.27942728000962086
-0.28624024868057796
-0.0003934832148596719
-0.0833993106374187
0.21019388774985331
-0.2707714052494096
-0.03373868713872222
0.031332562811506655
0.4229800143320928
-0.6191374822594091
-0.1478512413727522
-0.4784736022958118
-0.1346637876880768
0.04336129717294143
-0.16655005501660872
0.41908395500502416
-0.2834773205721121
-0.7525162668810741
0.41600422883097926
0.3656903627079694
0.31803132432668474
0.2948007083626677
0.3580312371852229
0.111573293984594
0.24444698112018576
0.5662952904708439
-0.33873692844469155
-0.23170313294043787
-0.12765739561862147
-0.8110937080254061
0.3815446629334245
0.09529718149707518
-0.3535361319835717
0.43943224496972777
0.25066842315217586
0.3023694438598615
0.10211044972896373
-0.5685147659620023
-0.22882513393045167
0.045186369705222953
-0.538397583756295
-0.1562468705671591
-0.5212763232019233
-0.2745595153228192
0.1937682340326335
0.07829460082019944
-0.22600285451109622
0.6714641484940828
0.019198924656236634
0.3341997479594445
-0.12352909287444049
-0.26320844344201827
0.22769146544834928
0.46631897975855335
-0.6163974954285731
-0.06764663472994509
0.558135647155678
-0.155613467677951
-0.5399852035478787
-0.2983761488065275
0.035696996952099366
0.41347788847206235
0.5126938232488637
-0.47276575574549506
-0.002398563442350168
0.13125050463426216
0.02683400095969901
-0.21305520286010793
-0.1331656109589518
-0.026726311106762615
-0.5613029866772401
-0.12893320254735638
-0.16323452839435396
0.2694629145264099
-0.0862132926394438
-0.1133085758083931
0.40861103127107196
0.2538000987244362
0.12228673724570864
0.023854157624864553
0.14908872864550451
-0.021167953328784996
0.43086635460327477
-0.07638041507633549
-0.11221220062625342
-0.4937412312919372
-0.002830527277084787
0.5532582831982978
0.36395301890642545
0.20600010917132588
-0.1052588763208085
0.1307132758725214
-0.18094399957743817
0.4741320217269143
-0.5395706029441701
0.34568913354812536
-0.7127937272337685
0.06733025882643517
-0.26785624217746246
-0.010194673822604082
-0.12780028578303032
-0.21723881155698996
0.09112431372205561
-0.5157124635934492
-0.09917732568555242
-0.5272668126879332
-0.5101224763229809
-0.13403951216313503
0.10349720558791987
-0.7450097265790483
0.899307319768489
-0.14104325526778838
-0.15305815338258055
0.1489699091350671
-0.37139225217897365
0.6311530302551107
0.26426800022761227
0.37667280278413057
0.32276848892177906
-0.2357076261627593
-0.13647035979363112
0.402743290111674
-0.5483182170906774
0.19824465951989237
0.05386696179602767
-0.1143445435320817
0.23546084788032903
-0.5588571222270384
0.5064928312715969
0.11180958028315062
-0.5752343193293227
-0.32286626033896965
0.3907313078249182
-0.36667837096320266
-0.041891350562316826
0.027157396583539908
-0.19721135360089093
-0.039147036877310935
0.1712357156154247
-0.29236961379963566
-0.25490197002099907
-0.250239329852791
0.006360916478085349
0.35874525886022884
-0.3352492611536009
0.14963199263004318
-0.11610776347128487
-0.8497306426255594
-0.3362027384775627
0.18198629341230418
0.25183617632326055
0.35398301175823504
-0.43777032885515504
0.33288644901825687
-0.2824151574054912
-0.126323934611909
-0.05933654110479039
-0.3966824491951724
-0.31633102587055245
-0.32437334837698295
0.013216460970084224
0.46384460561569446
-0.14032758089461297
0.5247563946521262
-0.5861175597526928
-0.13841396939028738
-0.19929002919209918
0.6744543273100443
0.32708967965827995
-0.03551945048240684
-0.14724798322814328
-0.38536833834713663
-0.3156036105828503
-0.10557443066827273
-0.36000218492456126
-0.2878420322482722
0.48310828453549165
0.5824219612300656
-0.1653421782956605
-0.12749581116591294
-0.386154439803948
-0.006834039842374629
0.08542343321951104
-0.10159429202976775
-0.016725350369993983
0.3836601710539144
-0.2201288928694387
0.08404020209948596
0.14873384015459848
-0.17387007001714413
0.5723171402030417
0.004635418669344785
-0.28766569363497557
0.4286366493747981
0.04946762850127341
-0.1299861911493554
-0.0017891754065771717
0.19440265997118966
0.010729075293845761
0.677696898656277
0.8665159340350952
0.338007925920929
0.06582701847090837
-0.281856435872705
-0.48807173047491026
0.023345828927606064
-0.20654921261902726
-0.08434029331005682
0.5142993964142561
-0.04097978368633851
0.3928668826023384
-0.5357663969365157
-0.17916557565712085
-0.4767191580334883
0.6033510809286677
-0.3141871972284987
0.12689341744462457
-0.0647938367094103
0.006190289955223056
0.0688464131424581
-0.24427650190630007
-0.4223953097839807
-0.4423556994781532
-0.13777376509583864
-0.4832370671730257
0.2490764191052687
-0.253631989755441
0.28315930927749516
0.2840471264959237
-0.036749807352781855
-0.2366912370287971
-0.12523147346006303
0.4048196058506112
-0.022549262634381537
-0.08186211744051777
-0.17552481531125175
0.13624166417904954
0.39779960078752213
0.030988519501680786
0.23019397472245115
0.24194074620825276
0.38765844286459067
0.03550214013097924
0.45703956652270555
-0.49291401319117356
0.06990700637299326
0.37749049382706373
-0.4050271642901925
0.12078928004553525
-0.31479712873781707
-0.1485057993538407
-0.21278590581366605
0.15900831990259662
0.04935233897315991
-0.4018615037812508
0.4641336240776977
-0.4679943723791829
0.31519945956263823
-0.11269110398862606
-3.051493668569653e-05
0.4319663304763486
-0.7511663154593013
-0.38929088233944814
-0.13581326834870514
0.4491531641033093
0.35669357249540556
0.5169537371775759
-0.09909622052714202
-0.21578591877232428
-0.33623926513901
0.30413808873873277
-0.09781600022308858
-0.2737509336173602
-0.004975215699408177
-0.48560999115309644
-0.08795133579586781
0.08110767288884879
-0.257501764191589
0.19309140501614971
-0.684970210371965
0.14766081035706446
0.1268361802542286
0.4420499840854225
0.17847383951978907
-0.4602272016978336
-0.24799939958012207
-0.13914432022006323
-0.29786570401282897
0.26724814877551445
-0.5186532788439653
0.22208815072681362
-0.07083307763807502
0.3389458099815937
0.16427584924964303
-0.3770773953821978
0.3333676320000018
0.5415653077511368
0.7218204007693855
0.0522963807916192
-0.404081651512082
0.04365310265819057
0.6883610334489748
0.4572500914798734
0.0544133319157149
-0.15267905046908645
-0.1114200715395716
-0.14963564749116764
-0.6924859979789881
0.1400640500753796
0.0662439339726798
-0.13621064277670805
-0.33296626444112676
0.11816700900369441
0.43046568242755073
0.060276083113585205
0.22720724897163697
0.7975575746350523
-0.1583010380486274
-0.4835802866397769
0.4173436863586138
-0.12398944720164573
0.115919248622695
-0.008668248929942446
0.14492087292352562
-0.1540984161454986
-0.08661030138810345
0.03241065574193954
-0.39912615803123624
-0.36600070042450095
-0.18648541771706623
0.19620728295480036
0.003040830144130778
-0.21252444093108336
0.011288370301174569
0.01424373068916126
-0.37591617049458953
0.41788623431533456
-0.1942223964777303
0.33812349294768185
-0.27476485195885775
-0.055460301669903164
0.1319962631967642
-0.04347013242107242
-0.1823281139096966
0.06087781158498294
-0.03262714245117812
-0.19453953065116006
0.3089995587357622
0.3025026597459227
0.026058841129800246
-0.3753979940906302
-0.12976266090075714
0.22207365823116176
-0.21138628975312293
-0.42650074937389365
-0.6169120721559408
-0.19786937014520758
-0.20256323049036676
-0.12487836806281759
-0.19460134178801147
0.49110350692557236
-0.18352780435931176
-0.7197071512618097
-0.2496437130997707
-0.15110479033897023
-0.1632876274220997
-0.3592037682095434
-0.3251905574222169
0.05365515355226293
0.5328473716032688
-0.030282127120820616
-0.24229825569601013
0.3586093610229721
-0.313101348027552
-0.08490003291930313
0.047314465398563633
0.42352474757683745
0.17426774448077378
-0.05084318301804573
-0.7263576958757711
0.33666354893083555
-0.1534808786105032
0.2796797687216072
-0.09836274200501106
-0.14465008567913581
0.1999862365904488
-0.4144027982956946
-0.060083285387936225
0.523630808635455
0.05989923218271137
0.13659244900156198
-0.23782336958748404
0.07976195366087453
-0.5672201622243059
0.8132769670578964
0.211292330424205
-0.257450829192443
-0.015868359588046207
-0.46818200369463764
-0.2606893071668203
-0.11307661247036714
0.1835854586647897
-0.4125869160009524
0.47492403968465496
0.17266524869573624
0.005474811689132445
-0.556433846724452
0.2639712760106569
-0.37676356926158727
0.44449938881310685
0.5345211861746738
0.04601167362315545
-0.5930282957956646
0.1172059152876016
-0.1057833253034832
-0.11453562064352311
0.18246016627470946
0.29934352546573345
-0.12939071825507692
0.16456258372520166
-0.056887089376768875
-0.03607410469047373
-0.14980603326967293
0.05642905127088492
0.7827262737535648
-0.05168464252098989
-0.08398327622446564
-0.12166448815601143
0.08477567941363022
0.08511579087958332
-0.25938040784102745
0.1874807923809544
0.11393451332820885
0.0989343685954032
0.17754564488843033
0.41486948609202884
-0.04356624293656503
0.040331495289742184
-0.4638106309017992
0.3749250014539718
-0.41578832516073105
-0.04722667554141914
0.05992307853166099
0.20234337613299477
-0.1949726337156629
-0.18324172693754043
-0.5510986905870395
0.07552832279877626
0.4462228348402266
-0.3083811728911521
0.012749147925562932
0.10458442519909017
-0.3140299010896039
0.05135813904936019
-0.09869467463311467
0.2735697413473478
0.07708418990893094
-0.2644052495657997
-0.01697445125681918
-0.5521370252824591
-0.04525798791184756
-0.20751376931282284
0.04581302622503697
-0.32252174994209465
0.28550301185402477
-0.5241000919389783
-0.13146098169670764
0.09345359497904727
0.1122175450781545
0.07872098160270559
0.3791048195637194
-0.44470042870247856
0.234858320176267
0.215652262046047
-0.40549377455181257
0.1857182719713192
-0.011485337979854177
-0.22420050341518946
0.17394740431616884
0.46185483514905284
-0.07783303666334793
0.26256534795599806
-0.24382027551840105
-0.19416013387999576
0.4924696981196779
-0.031526718707676774
0.23468458336846673
0.09949551018806022
-0.3308579452996222
-0.08072128778923289
0.32353418465118977
0.023627372850177106
-0.3408487523325777
-0.025530034605162347
-0.7165412404517086
-0.0021742185361475676
-0.38495565567525314
0.2028118307920014
0.024919270324965964
0.2985343684875583
0.3609795956782336
-0.14916052303538357
-0.1528896722058923
0.33865912659741104
-0.007426358453426643
0.15349654253799103
-0.14996782457561186
-0.3333602934804239
0.4245635414462668
0.08324065097420082
-0.6868817468224813
-0.3707799109441751
0.0203599569672949
0.016429710293311268
0.20804213353872394
0.21448106771339456
-0.5851697916297106
-0.5320527431823019
0.038491261320239875
0.46525442582088333
0.05912058711640297
-0.03715189002779078
-0.45141976349651564
0.33912018569247054
0.2946404489084416
0.1617634856143087
0.017274434045165446
0.24849998290409658
0.4416811494110249
0.009923710555047338
0.7781144122566213
-0.4506460685982383
0.002769778339855345
-0.30585789785980705
-0.5032777568905432
-0.3939985362488202
0.2590023466103129
0.27552359258957665
-0.4604935214841796
-0.2977298978103986
-0.47968671652551853
-0.5315792607426133
-0.33065514665485934
0.25572853813683327
-0.25235337079900144
-0.2562394414751591
-0.9500000123777856
0.5859838422830504
0.4016075280814885
-0.30263114704901095
-0.1499729347093789
0.24931285017741486
0.7710709001455934
0.30953404189263906
0.03035877887007365
0.05425706200523125
-0.15411473672890674
0.43932459657521145
0.0031177404508170325
0.2204489040180246
0.2569736508667988
-0.46739433882302583
0.10355366491984708
0.19110052294578064
-0.3199191248026408
-0.310456823957634
0.09693586928863436
0.16773867935012346
0.005160416938391089
-0.07577427512577968
0.7206809883210232
-0.5902589355058545
-0.618700792122091
-0.7908415244553495
-0.019051008943544875
-0.3526006324480398
-0.8708279792977409
-0.5743618869128676
0.3248033808500481
-0.23110124835985146
-0.6212795388579445
0.15872783483980502
0.4486975263086287
0.3407689224942973
0.8090028951496873
0.289029271950252
0.36955023417402405
-0.48351639121613144
0.4418030431817749
0.2888263046155069
-0.30076486958966286
-0.07528479087530124
-0.6377266183480569
-0.12985346169535675
-0.28238068915211734
0.40677969493708144
-0.3162443687346993
0.07407588898780769
0.6751426156940759
-0.004797807199490239
0.4571838692282435
0.14283315997082716
-0.6585190572846876
0.031795948996393784
0.15218123523181382
-0.11370899871346571
-0.6345585525618022
-0.2474479867619726
0.34443609893717747
-0.6731414612852675
0.21114537397028796
-0.3428960015578362
0.0008671736412735405
-0.4959545909591261
0.3088319008599164
0.03576048958321359
0.3896885262924248
0.2042730611422745
0.2944038505392214
0.029890067095581927
-0.03944265507970753
-0.14817714010815208
0.10522826662059125
0.24235933076185295
-0.2005324435841203
0.1279579493684019
0.12364923936450144
-0.20721326851705552
0.02804540821669868
0.26229808602683546
-0.261435478596962
0.21268977885702106
0.0742770207508392
0.11764554179989073
-0.34243256108019493
-0.2682706040123354
0.184146149072058
-0.22173969639312927
-0.0073195221580174144
0.16033870205576733
0.4288829199615984
0.1355350643473924
-0.2256276343715313
-0.3154188168626288
0.082934725431463
0.368643506202595
-0.2386927627542199
-0.05496687886740529
-0.09278413603145594
0.2842371897838252
0.23422159559851496
-0.2612605231142247
-0.2639472025568251
0.2842709554777448
0.08217135558886718
-0.293748827147388
-0.12915553899751295
0.25449779606025885
-0.21769916450849403
0.037366815841748995
-0.04346204013244237
-0.21883961061723964
0.13014152338798712
-0.13378484257521245
0.09116673445271602
-0.7180137485675143
-0.1715658302579156
0.2212142167841737
0.11570737907347929
-0.2695801129504868
0.33175378678453604
-0.02194552870680182
-0.20687752923821068
-0.10326960112615736
-0.2265496845151529
0.20543546739173588
-0.20360881771868058
-0.017920575857111546
-0.10221862879964355
0.3100319806595087
-0.1358686170066838
-0.053615453459496296
-0.7287020752138489
0.2009499329916561
-0.07684810216776582
-0.1447156614861286
-0.011466762524722281
-0.004300239519740287
-0.11696737538083928
-0.3140350925922067
0.10473010265419139
-0.08947907498039762
-0.5790924086050142
-0.05414643746846092
0.18665016721716943
-0.3326856941858427
0.11875153488775089
-0.6250645887858444
-0.5690631483704456
-0.1912818020165581
-0.41258803736208954
-0.43332988613252865
0.6132936341789702
-0.07103813909017262
0.2613812281352063
0.13595262939909267
0.6646703741620823
-0.44915631432719794
0.22890066654491248
0.3382541039993779
0.36017779070314254
-0.18003277347268243
-0.01473113839312419
-0.2676341841861529
-0.01103745473258571
0.4533887352596973
-0.5135522532737483
0.5267171242689518
0.009262144593012486
0.24469536347477333
0.7726924291902736
0.151888137484673
-0.057650849268315034
-0.0810529799890185
0.03504960445254361
-0.5380968686187234
0.07421806982184424
-0.5084710497824014
0.07656512312746203
0.05789248124498468
0.26542510664643854
0.1819973950068222
0.08680305141693055
0.3619821764514721
-0.05895108607596867
-0.304368466435138
0.5291795241379658
-0.47802446805875776
-0.1176227517854184
-0.5831592599315577
-0.42161475419540595
-0.15308091771277482
-0.1633358986477803
0.5417862960913501
-0.4351255991804251
0.08191512807651631
-0.34163855184972064
-0.039047835413126966
-0.31609339330142333
-0.12270428207029822
-0.30796417078920973
-0.14086751087956878
-0.1910394145426087
0.24845035157349016
0.18967709194395113
-0.1902572687954498
-0.13829294388273997
-0.3463005752212749
-0.43937471017556406
0.5922198946051751
-0.47345520482848186
0.3789776132146108
0.2929228298567181
0.09684517754955074
-0.09696267724071418
0.2445755576840553
0.3377378904429955
0.026341748764061982
-0.641536304625043
0.10020219319064672
-0.017256946129557436
-0.5274927087600192
-0.44709646446954054
-0.24959734979613135
0.3878873069514638
-0.5237695491371357
-0.24658995487338206
0.18012535465930563
0.021490131150451112
-0.009730282646305212
-0.294888500620861
-0.6254094928037377
0.08255024219220557
0.39497888652849983
-0.4621235337677961
-0.3161548829369816
0.09844260887994415
0.10533806600728791
-0.29108530725678333
-0.5372428054876103
-0.2935595387752104
-0.009977043618092131
-0.24272104430178518
0.6013348276476365
0.040652697963393505
-0.1955452553142197
0.4386538540190655
-0.588400339400531
-0.4553976499396314
0.6257406558870086
-0.02057355827771021
0.18451005531063416
0.04005863645634432
-0.6131895125343363
-0.3071155449710615
-0.1944404176310015
0.08121778743949343
0.6186048225514702
-0.2623516143341581
-0.3180696593197848
-0.27259159966269275
0.4643332552203215
-0.05886942605434151
-0.390418529503653
-0.040152193478479266
-0.15905474530851157
-0.028627842878518214
0.13999040986366962
0.28972705286319117
-0.49584228416325105
-0.4895536284142119
0.04106472115618831
-0.26701381387709217
-0.5437304659385023
0.3028960876463963
-0.07980780016787058
-0.261927688760817
-1.32515717534719
0.1952070193536878
-0.1367520204675029
0.2642366813704039
0.28446750046726577
-0.6389273405394952
0.001705578325003883
0.05990633586751989
-0.011731145538319047
0.6431802521721863
0.015432415726576724
0.2337305614535226
0.45831707704796615
0.17734042953928555
-0.3611830933229644
-0.02862437138638884
0.32697494458378845
-0.23684642179203633
-0.041256470477414445
0.39469733887937763
0.2162438886104139
-0.5266824339390628
0.14274821880235605
-0.0856853707347864
-0.3641662134463763
0.5247048987835364
-0.5915080607820554
0.38710562228996037
-0.027240033415293116
-0.15374194352903214
-0.07193451934385268
-0.07105690484058352
0.041310993795013635
-0.9843257427433646
-0.7757806716654476
0.605513704398058
0.4831713518604189
0.5723209807812409
0.19910889091416928
-0.3833716022077535
-0.013343089482596176
0.0193600823762536
-0.0008293930206935787
-0.22280963315995253
0.6675035467909407
0.3163751434546224
0.18485100234401838
-0.2511042100029218
-0.3177966400942932
0.12666646207659668
-0.006108805629336429
0.6542163713479565
-0.30555412585980074
0.1425350806499878
-0.3957757885240686
-0.3214273860431734
0.19402289585636787
-0.08913182734921259
0.12633305781299708
-0.32486161623506815
-0.1726871747249521
0.19006845539033546
0.053923915730379295
-0.2573606042389313
-0.42737053388951646
0.23613532736635356
-0.13601683739748216
0.07629000728319771
0.09948089058742274
-0.193079049940919
-0.514484873708477
-0.07380717338981665
0.23797595036833988
-0.29219785942170734
0.4780246078098252
0.47222823406728254
-0.19483837126811043
-0.4576308666507099
0.4069925135475017
-0.05040539023708611
-0.425866437863152
-0.2680049656236084
0.07668675443813469
-0.28638074357462356
-0.12306980956587467
0.46389650354758566
-0.3642802360764775
0.8192511655178972
0.34990485025213797
-0.07468206736990596
-0.2626540818304413
0.0322151916675318
-0.30507122864096914
-0.16797876653375224
0.29384593568670253
0.08947020736251755
-0.3069359035270607
-0.19971880302909134
0.6979800045611634
0.24783898971462026
0.14224339550504805
0.6738693718278383
0.0015453240591101916
0.05733612044222785
-0.3054561728610031
0.05112300917471015
0.05932540650418489
-0.265594364161844
0.33470944177833434
-0.2659270711060401
-0.156166950376105
-0.1595546233776363
0.5358438920277414
-0.24550919048983275
-0.17953011350818732
-0.7596619286474146
-0.030711428003309994
0.1291035862586591
0.3026434864132975
-0.13717045239483444
-0.13670061088778254
-0.428542634681121
0.1769623024876353
0.23286188901019272
0.17285087133820137
0.1715854111254172
0.1692229671173771
0.5739475056609905
0.3523670955107277
-0.4193358683014515
0.17678292674467633
-0.5616183336347013
0.07238185648561099
0.015129691562401005
-0.33010613778376596
0.08523072320396011
0.5960787975373464
0.36515610713061186
0.23133269904228193
-0.22281422973919146
0.023876467089271162
0.32693015780231743
-0.02542828579753162
-0.26219820467367067
0.3234129972897087
0.18823868586386988
-0.0298850044735356
0.1361112955275374
0.7236653649183239
0.12101128679188042
0.48895770234963726
-0.19679892991347342
-0.04836364296825826
-0.11016727944401644
-0.044904621429966214
-0.385938502998544
0.6758560536403555
0.20145354112885105
-0.3903994446924346
-0.7263013704882237
-0.10173150264349261
-0.2267989043373401
0.16787817917739073
-0.1344011937574041
0.12713023272940435
-0.06173139945602161
-0.14316549777436666
0.10200176586567468
-0.501552658159459
0.43925120568380044
0.5408365089955877
0.06442535447791659
-0.06495710212323666
0.16394931758139844
-0.3365014833338141
-0.27867264075105486
0.04391862898065956
-0.4664470821399768
0.08080159940276739
-1.012487211126387
0.11106325084498558
-0.16331716924177084
0.06494407021273195
-0.2327205823770274
0.46199882380188567
-0.04815286111410063
-0.7010758556375298
-0.40383907762615784
-0.2986981337093145
-0.8320080709952575
0.15929785118546072
-0.05965829871769755
0.026262707268268452
-0.31693464472790245
-0.022651047378111737
-0.3677626647272948
-0.43442638055998095
0.5600324526397331
0.11939620835636326
0.3376737986346403
0.1243425166314804
-0.04914380016371552
-0.1767329380046105
-0.06316001667341202
0.013497383320688991
-0.5603883371370557
0.44324215201859996
-0.04243109466898537
0.05738760891496202
0.03647137781765603
0.6862489106654206
0.21168649385716973
0.6645131031335861
-0.3323685445097983
0.5188639102095209
-0.5392592471956555
-0.18507580002595167
0.14433805392551732
0.284376292770434
-0.07487300399958484
0.4622585580686689
-0.0854891329971694
0.20459055720551195
-0.033738239578843435
-0.44009444959289024
0.3464440863672103
-0.1767343422527001
0.017671344515970678
-0.20353794052514246
-0.7229302166373562
-0.6977288831866754
-0.45377222551065405
-0.14752219359988764
0.40371235806978645
-0.2497049526730999
-0.2862437089691614
0.06509599741724721
-0.2855409229044383
-0.5167589439672294
-0.7880636984501297
0.28349642429959193
0.29808800952812387
0.02077076126879132
0.505781901151775
0.04626007536545302
-0.20441287777885947
0.5093254253870761
-0.01817559262516165
-0.027723888424269514
0.026370480536926293
-0.34303183587628866
0.5538355356376156
-0.6711671004303084
0.2187392092315361
-0.6942285168759216
0.13086014851468314
-0.23617665562840706
-0.2478639877923191
0.15748971303394638
0.12411960472517021
-0.10881712669484003
0.32890912377794557
-0.0761310773064666
-0.2830748447280858
0.20508938123031376
-0.1897128376847474
-0.39345600044457424
0.5695003671242584
-0.1082392245959084
-0.2849237806725398
0.20208271516833834
-0.21267677985777456
-0.1667381226075854
-0.2529112298548961
-0.29432904265739185
0.5900666896656187
-0.2413683387586354
0.36923829995021784
-0.29352182384982906
-0.23675234167106798
-0.294126173726154
0.1377091781921629
0.4186118086906733
0.1447912203680378
-0.5359883337326291
-0.07468494084321592
-0.15807944382594558
-0.46827773622237284
0.39167661042586704
0.04907294995150754
-0.2744709075612295
-0.3499816727948421
-0.008342711379317917
0.38257851387541536
-0.06376672553126705
-0.2785894397965353
0.20855218173815598
-0.545764250688392
-0.0740052949191472
-0.3910639850878841
-0.09062232747050088
0.2192524062889281
0.41507544587919887
0.48952592807673967
0.03778502028024309
-0.3293405814606557
0.23816980060103557
0.005141286796348367
-0.06026399350377771
0.35644615918491523
0.7926446395192791
-0.6458984248480444
0.2840614035260647
-0.058948650653590604
0.24481241530117973
-0.06664752773352638
-0.26254229884471864
-0.32918335187243186
0.3360024308432993
0.22744480761496985
-0.4318584829259766
0.7040854354017535
0.2419823617552982
-0.16111676462645796
-0.318862563947915
-0.42398365393109166
0.1513771908236113
0.019211027539131946
-0.20450300350537798
-0.18408917275025155
-0.7085435414014238
-0.45128450641776247
0.4509831364442041
0.3043489109375348
-0.23592581152043657
0.22512676691836175
-0.08639929501083216
-0.4302474860861039
-0.5022838488308056
0.4853767277219407
-0.005956009621437725
0.29701862149612246
0.10463335134958766
0.25469405194166306
-0.14371219512109873
-0.03748343005986956
-0.283524882798505
0.09632654233754892
0.7981957993534121
-0.2962590679505118
-0.28134677130541863
0.1138558108560067
-0.4325046472740085
0.2096253368594807
-0.028622212932488653
-0.0943446250439836
-0.6071304188878337
0.06779279365026444
-0.6796948941113848
0.44216360870556004
0.39157452921394204
0.06838296404275009
-0.1250285092030849
0.23190268916503068
0.14092733632726628
0.2779908751565685
-0.6199706684218129
0.6058523306353378
-0.17604749719027263
0.3264533387796195
-0.03695733532044785
-0.19236932540330068
0.0076004326129000925
-0.2197614858256642
0.3305634011769353
-0.530748285534639
0.16770375843325427
0.13590595883914552
-0.2588432506681152
-0.5790563259667699
-0.12881376361314986
0.39535663774289986
-0.33935665611702803
0.006321260336855857
-0.0824235744826876
-0.0362523046216896
-0.13526449706802054
0.2847612177244747
0.12613287384531569
0.004074837533162922
-0.3453274914048963
0.13029888994166908
0.2072745814572493
-0.23294784211548475
0.22155479992070753
0.24083906538518288
0.015036954813318808
-0.2047440766049416
-0.08170753987448891
-0.3113708989176957
0.9849981164980401
-0.47485313151830855
0.039305882041962246
-0.5158452218770667
0.10153035404758792
0.29287488183089866
0.1382293528846813
-0.6260582255121266
-0.09041911211856549
-0.6126091745183501
0.4549719660080153
0.3374961824241717
-0.3262937391943976
-0.5030388667319589
0.38706664736128593
0.48678127459557524
0.16233416192523067
0.34381546002803776
-0.14766118922424726
-0.30760902403770046
0.17023278800755826
-0.5629548933954494
0.343901843243023
0.12800773793174294
0.38134014824358065
0.21885972096919573
0.4608979072946397
0.0012124690630012074
0.004255084162522241
-0.059717707438083495
0.09151555454323212
0.046443398498177406
0.5360950463100312
-0.12277687808846853
-0.12880213568500917
0.25803692864557276
0.4423493087840724
0.7173237374683057
0.03854272924129805
0.004660593384115357
-0.3399138212435064
0.04797346147019917
0.3898998260313665
0.0916448739100905
0.06629664919843462
0.06357939278554844
0.14449432489845393
0.011043449356606628
-0.5935200497336648
-0.8814576749363313
-0.2126932584126409
0.3420206184261415
-0.28880370247061304
0.3862929271779835
-0.21920428346043447
0.3340752398365737
0.7010711802123065
0.14391198394857976
-0.03618763292246103
0.5507961950437711
-0.13767172505506356
0.1034261535556113
-0.3345758632443893
0.06739334264969712
-0.685344969624491
0.3100155618283582
-0.29856664002427247
0.0926311935430183
-0.12043720768232778
0.1718357618170969
-0.38100037167122064
-0.1547288895297654
-0.3273915834924605
0.24136698903143713
-0.07857605907789636
-0.04627899103394843
-0.3507262025682932
0.0018495837667102436
-0.35260950836720983
-0.07443297826971648
0.1649626151089876
-0.47571961402885543
-0.2542808851198447
0.5583297964461341
0.39333372042803544
-0.28139317364440386
-0.15603185711382633
0.180852600294551
0.4377681549189525
0.29646800324550504
0.29236559456793554
0.01903804992842118
0.15858710614554136
-0.1545287980794856
0.3369240702577117
-0.3354539498727226
0.596694171648234
-0.161905585011655
0.022471329772831793
0.6777520190201587
-0.07235224394561485
-0.4493505221693873
-0.2311761695955425
0.256128488583695
-0.06274538879537832
-0.10204441539117776
0.256422466663304
-0.4391558782896281
0.1244736841496774
-0.027214244434829078
0.1343692722108489
-0.23443191293647433
0.20299097509824013
0.2065695183013536
-0.08845708598411213
-0.0882294085727611
0.08990214621346053
0.10553001918857285
-0.5876217706593815
-0.15699724299365062
-0.17119076466169594
0.2473603692705289
-0.3592475140319351
0.6108820798938996
-0.46605762148379937
-0.12209474315685795
0.32310622573152425
0.4929561426833268
0.22047650929710538
-0.7301257816774376
-0.07716281387892655
0.18255493523176566
0.3286554327342279
-0.3512902462089847
-0.13123382628382776
-0.045636748536572895
-0.4208365775284527
0.6297411355750817
0.0435943722399031
0.20357150373027477
0.04899362126752969
-0.15546796707347907
0.3971727210694923
0.5014109881069876
-0.7767817713579207
0.08872196153573993
0.5494533200795875
-0.15465647095019833
-0.1322383689293714
-0.27227107320833216
0.1970192295773641
0.2177148526712487
-0.27389223898475656
0.07973897157125755
0.0962916108314497
0.22021922882360145
0.1492204968343281
0.7406099894341472
0.7109936700182043
0.5226489450945587
0.029642419185783996
0.5168144061387636
-0.30547722828017565
0.4503762936289331
-0.4098042837963116
-0.8678835157581436
-0.2734747493823071
-0.034782144837738845
0.1323679905715696
0.19215199313455797
0.05886494551083477
-0.2262893139132312
-0.14559355817026118
-0.43134789791605416
0.36743242345726407
0.3010222309874309
0.755942076193206
0.4237782809918851
-0.3003273385100932
-0.08668172799491836
0.1414838181405422
-0.269045987331926
0.5319402061861287
0.03438919803796941
0.08864359177107074
0.2930251691227916
0.08195563150669051
-0.30578879220458294
0.36156940512622787
0.27448123331532603
0.058267701352010884
-0.5850710851099734
0.1747436044062224
0.0007806150620193085
0.10480992156724794
0.02013541684593445
0.1298386756416829
-0.05542037405077626
-0.32311930174182824
0.3594946257802985
-0.3189793245747321
0.12031037780057645
-0.13520329700614694
-0.20397494087555743
-0.8085851128891585
-0.5471856545597001
0.08650759640924686
-0.1537115742402155
-0.013490089494740292
-0.13974961988983037
-0.3707914846949044
-0.3207264456101393
0.14525590636454996
-0.46788630921621277
0.44929104612829024
-0.42238639230813846
0.6592796322950885
-0.3556232827557977
-0.14064807100043614
-0.29807102087910925
0.15146595333011253
-0.15024426312287545
-0.7829135680734812
-0.05269911804122454
-0.37107032150227054
0.6020120963565855
-0.14697411463467688
0.1982393549073336
-0.48100438180276966
-0.19813601014789087
-0.3429793151257224
-0.32155071578019156
0.4208078052007799
-0.21022794699062305
-0.448148127424217
-0.11886870434023704
0.5045003425226382
0.19525915180572542
0.1292964198271296
1.0030959923066158
-0.6415512641538771
-0.12171679619425123
0.13107147605893926
0.220253397819169
-0.3509558867064676
-0.5869365739276388
0.2825468360438182
-0.2074996073745377
-0.13168223575811316
0.10944356479456112
0.3928813209151841
0.4686960905621757
0.2054528764239022
0.4046015227518886
-0.43949556917322946
-0.6244532440523114
0.3484108551596564
0.22532921641559717
0.6013118642363039
0.10471134276751953
0.13450460898269714
-0.4978856069376328
0.07312761677554162
0.15672918314320994
-0.3458718691250017
0.07958131847285542
0.4436009761202231
-0.00018971356551883162
-0.34534859993726474
0.4748451158633129
0.30864329399537443
-0.145473197321098
-0.2022368607807966
0.37710634133231064
-0.8665449063954801
0.5070260053386311
0.2340463019590078
0.050702322938653906
0.27002786657471056
-0.015536438527093918
-0.042932880852396056
-0.13418790683273893
0.14831765724954601
0.37860412880798944
-0.23966214230488886
-0.5041177064462004
-0.5345027116411707
0.4408664058415656
-0.33364537824085305
0.3934173858932282
0.3163080865311184
0.021247273460858137
-0.3425625984459312
-0.21975517724981344
0.18982012557800662
0.11405462105055045
-0.1893829975280515
-0.1710875255960827
0.14355178251790007
-0.11212949114246573
0.27057829459517574
-0.11444172411373597
0.08856092771266777
-0.6156493508460024
0.4948435345465665
-0.15566265530090895
-0.5401896749385132
0.5551673733377822
-0.19162867389819357
-0.37216532359273063
0.1745996964273519
-0.3366766183180319
0.1300386894812033
0.09046943249025072
-0.22807324068962442
0.1959405590585732
-0.22074555012319894
0.5162886793704803
-0.3443761327219523
0.6753844336341586
-0.010277901893965704
0.44746491968982377
0.43365989439044045
-0.22166800349330415
0.38965151361882516
0.6315003919198056
0.19878249662902572
-0.19769094850037008
-0.24753957999274623
0.6093015955558395
0.6836226993053218
0.03528319435576515
0.09276799805914451
-0.006558331351812015
-0.07361002993854407
0.6316021174432823
0.4104553183639589
-0.2769092570151799
-0.13797616603644353
-0.3959323863859133
0.06741861574614205
-0.42967438501077115
-0.5243573158318137
-0.08644362916899458
-0.13140504352237795
-0.5058982588837144
0.08698207695642472
0.13893297852306752
-0.15896492581188376
0.20420829092199552
0.06158877047892172
-0.19285564410947936
-0.20428734888844952
-0.7285538424240044
-0.3201557219061258
-0.30334178331539235
0.3590067198070361
-0.05868510153102568
-0.4251933558238971
-0.06421854754431057
0.17058546749950404
-0.016886171423340045
-0.5144106431759427
-0.5603901415170603
0.21347117491635917
-0.1025101638965667
-0.4840201949729878
0.22278169463142192
0.5164188535187794
-0.6597280517995966
-0.4937391654534457
0.050010990530389224
-0.12445592912791746
-0.33242429863391215
0.39170614389201325
-0.09830587380574171
-0.4122622832018821
-0.17716703922899404
0.20694302675888646
0.537304788622318
0.25252230428413425
0.16236188581586047
-0.3461018879730254
0.15708539349570277
0.22387493993919466
-0.10882992789220765
-0.09251660553494895
0.13845388029716427
0.44607990701665584
-0.5493106581083029
0.24327438614783567
-0.5070498893220119
-0.2684683474978567
0.10235692625770745
-0.3572229805345532
-0.21996918074027733
0.13249477691241018
0.48905890107456507
-0.13072912230345315
-0.1658691267467496
-0.3545603719984448
-0.05430217849082265
0.43236366227412687
0.09281926022260407
0.424108195847522
-0.34828021008190946
-0.0691038601121228
0.3855365460625917
0.1131819299001752
-0.2852883160636406
-0.07247278119487174
-0.6202025989693578
-0.15130904605720524
0.24405495514199227
