weights_pso
-0.2756943124689226
0.18064770402531338
0.8335247432005586
0.45547874995688775
-0.8793243082382942
-0.9066962609027123
0.04858087883770423
-0.5648938520598481
0.08613076621071292
0.1699898771511439
-0.8087629416842546
-0.2527183145058227
0.27642857717183933
0.8428060136919155
0.48102462347989317
0.5298690187418515
0.2582564699123089
-0.8808750452746112
0.6504760527512377
-0.5760565704981608
-0.6882529605804839
0.0058395516474381015
-0.7649165666373476
0.3717979163995586
-0.7315913578333126
0.3481772853518721
0.24197244270131057
0.5075664008567127
-0.8062450206946206
0.8239937826294685
0.9786907102727731
0.7009899316740926
-0.5977599958694217
-0.020146932236300596
-0.4491713122266696
-0.925294511502402
0.44725799600956684
0.13517713531397813
-0.6084939995543626
0.23924427092117861
0.1702068760334361
-0.2895639377412209
0.8595290955063712
-0.010155826157916659
0.5765956842376052
-0.9205209093488511
0.214463247141929
-0.3051101290578637
0.5577626354502025
-0.6104215076984976
-0.4369416237798587
-0.11914325227686295
-0.35962830837784243
0.7584671709531752
-0.09776365407314658
0.8179615816509913
-0.3629288964564119
-0.7731947859068866
-0.49894377866864126
0.7083383666521399
0.8945321143868361
-0.4785905202016638
0.8314840861009549
-0.5514224835006278
-0.9770391905121691
-0.8756289480263617
0.11803986082799334
0.7946265213108681
-0.2520104949030375
-0.5702061530973286
-0.8565384933173406
0.5595763736122437
-0.5288766635858555
0.7016694618360741
0.7656655099092364
-0.5594000438780715
0.7730071601678092
0.05872728240943603
-0.8074573481389804
0.8909464979303419
0.7999103402085228
0.0009557100855155376
-0.9085794991959959
-0.033413397049686155
-0.6124353380027172
-0.4916791111949108
-0.780677143971044
0.6527077582242158
-0.48279591241364805
-0.04339450573441961
-0.13682723914053385
0.4968024509060347
-0.8436403145483775
-0.24095938417411822
-0.5963428091457217
-0.5468310333061166
-0.9024322597193972
0.2467226757298051
0.2868836002431625
0.070756173121582
-0.8343844326123067
-0.4123448205551328
-0.3047883568915317
0.46677838881604994
-0.2325085908115272
-0.08840013839295047
0.8270357103148152
0.13546467427907039
0.933139203422354
-0.08776841778163447
-0.4428563624829449
-0.5998947660919061
-0.29861503224928443
0.887103860153782
-0.500357404527616
-0.8967863825033018
-0.937494836258405
0.3859778963541245
0.07308797052255533
0.9497491278665635
0.9665152959261651
0.241216528902213
-0.45569776770365245
0.5504232735119277
-0.4784728110943324
-0.03996847933585124
-0.6075450007865493
-0.76407088500631
-0.5852467811500224
-0.3788641142777831
-0.7865424835487849
-0.8892982929487527
0.9572900266398876
0.7166769432859295
-0.18304343052944438
0.9214901972550125
-0.5103481303132524
0.10775490959224698
-0.28633334947784883
-0.6590518215624055
-0.8541925420194576
-0.7225575105773512
0.7994993142080062
-0.2764043327625927
-0.023001829804692342
-0.9680189047304499
-0.8058984354851562
0.9241462233717104
-0.05124828508713608
-0.37520922584324046
-0.9723502986276671
0.3726604959129287
0.4810095858316601
0.4840743162141561
0.9445065642613801
0.37425679610422025
0.27602575471603785
0.36879095718094845
-0.3817800286410782
-0.586444237986913
-0.2099147216395878
0.7651792328563967
-0.42503490693877266
-0.560845373977771
-0.8303830388963285
0.38845181492300007
0.64405946454132
0.0956339318736752
0.5710279141578909
-0.703729189295704
-0.5686359966504999
0.40421716548799114
0.47979695754631546
0.7208203292296764
0.13707332889159884
0.3624003085212244
0.22047136635571274
0.9206683736882066
0.25027695757550017
-0.9145499684096938
0.5018389301619346
-0.0369822153129753
0.7381810021825046
0.6422380997081119
-0.31783747527631245
0.515023701670708
0.8392885977970932
-0.3873616070083852
0.3009696021143837
-0.2470365376252346
0.5387129817862031
-0.2213692045031983
0.6708756704729446
-0.11994371211515142
0.9879190682915142
0.22765686757418035
-0.45968315780618596
0.8931355998038755
0.29710934644707043
0.5889404324227074
-0.6128724590632881
0.05645338805274469
-0.964229137250916
-0.37169682037280394
-0.9547768347868342
0.9446542768335084
-0.7194447664336354
-0.346094920134578
0.9716767034903875
-0.029482667127512574
0.4788168047838881
0.5333447354146306
0.3862815221512872
0.04294857509920913
0.00913562748789154
-0.6947452323079899
0.36684582448708203
0.05196407290830929
0.6736148846090033
-0.259481823992292
0.03980265686422224
-0.9486984550445228
-0.7056432787741627
0.6556928777451472
0.9888989570138453
-0.5679725256560337
0.32467012584325716
0.7314417864078337
-0.4545965240371552
-0.7079959689532138
0.10397951803049188
-0.21315879424521134
0.8336785442791907
-0.4679966067655401
-0.8631554834188682
-0.446814428018959
-0.8540099464891853
0.13019839406144174
-0.36020527833483174
0.16126608312067958
-0.9723806290836099
-0.9919102460195226
0.042787466742832514
0.09102142878420771
0.8657276832385834
0.6345013134907183
-0.46553691150407395
-0.08349070747558063
-0.5166795572100134
0.5816347563401014
-0.8516970427596635
-0.09803922947636434
-0.376958015803867
0.7127274000204555
0.17832587794034183
0.2727850819516182
-0.6503703214337533
0.1395022492078024
-0.2910310407049759
-0.8698969454166081
0.0697897652410826
-0.7041024077827704
0.5407966554399553
0.9835285187203746
-0.759817937872503
0.5579169336913448
-0.38928233834527104
-0.6645816172173473
0.5826644203017981
-0.88810750541953
-0.461873904202013
-0.6500785251846872
-0.5397604676791903
0.4932753194165169
-0.2782153240719789
-0.9759489461611301
0.7531124405313454
-0.7039993228101906
-0.770711170799989
-0.32878337518651635
-0.3805253919293501
0.9503557071131385
0.7417447295461124
0.8798253435860606
-0.7833218382326603
-0.2045475888735666
0.6390575173311746
-0.019866565631704303
-0.08171406263191217
-0.4912563540546466
-0.7178995145886835
0.6295256845943868
0.08567040515566027
-0.048794728251745356
-0.7964779025881417
-0.49338774616535686
-0.3512777800584941
0.04936943408803507
-0.85788093946026
0.0801867117218431
-0.8563026165294965
-0.49703781353928056
0.8312421069902098
0.3436539039614712
0.000877766424625781
0.5321221712156741
-0.8543329678602516
0.822934515041319
-0.7807735472957154
0.6167051580099998
0.07691704132822097
0.5230203850405253
0.472787267961541
0.6153460860866773
0.6970085306592564
-0.8984329275192211
-0.8858086773256093
0.716767498882751
-0.6651555857773088
-0.2516010216297053
-0.01660524929510898
0.9960300461698273
-0.29349835328242957
-0.07996424578845107
-0.3810154400222041
0.7736935748488427
0.4683568401884768
-0.23734488931832343
0.3255530359912764
0.17671796652786087
-0.5707283943126553
-0.9277922258701607
-0.5755949867908847
0.02027207856613944
0.2751754034984215
0.43267054700272256
0.41842042359997955
-0.6460007166591346
-0.25696126573077605
0.8345929572913817
0.9520214822943189
0.526699232635012
-0.5877524431982595
-0.28928250211058404
0.8025470912075281
-0.36120766379320957
-0.851682084924082
-0.2202338742094787
-0.7015532219622429
-0.11594962372365525
-0.030018995357701694
-0.7128210866855766
0.06003482704633112
0.8860848076735519
0.3384687473453647
-0.4832572980525538
-0.768619315220255
0.5556338704436903
0.7104832744794887
-0.42384529017105343
-0.2385559405762323
0.7622261688079068
0.2245968814651722
0.8874261127776173
0.3271127589874845
0.45330401168975865
-0.7193129157075115
0.7485480950294816
0.6348284765478687
0.5435382953807955
0.1596944531624056
0.5161746167584502
0.300488692857398
0.7483114345204878
-0.6191523617350729
-0.9040703215619956
-0.00558206731591171
0.41320374169980423
0.9060914025175029
0.317152618644589
0.30435107379575577
-0.1462482314846456
-0.6423320107110504
0.05702576987751695
-0.7926023159680309
0.4365117251827164
0.52809736522538
-0.13450013464847488
-0.8676689555182697
-0.12376873180560666
0.09385573672037628
-0.5078976054018141
-0.35254786029979246
0.7182051942615697
-0.05930298401975076
0.6686129609946863
0.9814006872192629
0.40517636440956073
0.2271276484241178
0.946783350460807
0.5215358946213318
0.2556110026142355
-0.5939034037458004
0.3152091867038018
0.4911244828837156
0.5164621948876726
-0.5819336180841883
-0.8972892895040925
0.5791247078543311
-0.08561318251338013
-0.2111227962283062
-0.5253033330313563
-0.3539234284911774
0.9117698649067139
0.22887521320027493
-0.11350513343076574
0.9766714067296578
0.10256703186218541
-0.969451025213153
-0.5325755785129311
-0.8221306131046717
-0.8363369289746745
0.8517678086261162
-0.0778734321714758
-0.7265334265567014
0.16397009968605158
0.20169428814124046
-0.3816686535035818
0.5624601340547628
-0.9525019310468785
-0.7026278841098785
0.6801696220582176
-0.27556712417614015
0.954221036410835
0.2718874853123592
-0.2276421416362322
0.3476065486494624
-0.4696276415530798
0.20490669602884193
0.6223749515049397
0.4832915038219283
-0.8257538527638015
-0.3264885934397832
0.966209827816245
0.444319274953493
-0.40397268447328316
-0.0823700527718012
0.04454981747370135
0.9820539307028833
-0.49922624156285256
-0.9698156531351318
0.5596660430732523
-0.602280156733827
-0.8848839483261184
0.22496482597603462
0.12217471534091606
-0.7579019066221209
0.8033965368791662
-0.2721669474261368
0.2221168015629098
0.11258491139786253
-0.1753047977418658
0.3353377788873131
0.06367923433795353
0.13650654923419014
0.11138616790149358
0.8830699325590468
-0.8658434589838664
-0.8838076109187638
-0.8751011647558431
0.9560842428755691
0.8688038393447559
0.9643226467292711
-0.4520764694880195
0.49864761227246523
0.45732120461939196
0.1850184351609503
-0.18556913723893587
0.6134266565665976
-0.7956816362453736
0.7761062391821987
-0.17149924634516167
0.18300578367128906
0.7747078121040962
-0.351529883681869
0.7747397329816592
0.33925306291155155
-0.7096551104581175
0.767678649962606
-0.15992654038865095
-0.751365776112797
0.8954241061412445
0.4842294824733455
0.49478394227358713
-0.3317605967032018
0.7602189841151901
-0.8220520747259454
-0.6547342591808691
0.963051289755835
0.06630703985530007
-0.4664799436774547
-0.29651245401210446
0.39422355207980586
0.11414865242427563
0.5034657107786662
-0.7902623904723058
-0.09270742387903352
-0.22079396667344264
-0.8317671938828282
0.16161148455044483
-0.7954960094623218
0.22934805677884684
0.42077223872977676
-0.9286133854821625
-0.5283516463963058
0.5839880808726317
0.6661314947073658
-0.8704476606667626
-0.8365214776878391
-0.025580850402656008
-0.8254374691167714
-0.586605068098037
0.5140206498160766
0.5449003625962985
0.8090412165663026
-0.8000203683674705
-0.9460105405442407
-0.7528737939093364
-0.0295421651856711
-0.2806306960721805
-0.6266588492819614
-0.784888456120002
-0.09754724634457279
0.8131294411893515
0.39670001138569666
0.871559283494761
-0.58852860828065
0.9801721248498536
0.2829454808095926
-0.2283203168365613
-0.02411047128850341
0.603059808550596
0.10145580534679866
0.9554851612739312
0.018747499464896622
-0.07258968761436657
0.5945457750459007
-0.5936832390531028
0.16857198800921025
-0.37902597076222033
0.10349937104043905
0.060167968360701485
0.17127099610120666
0.3231084810178544
-0.9993286714413276
0.900506451472932
0.6611203719079839
0.6896345441759519
0.6009181945679971
0.746206686215291
-0.17860734219312713
-0.014330407657701993
0.3133298644751581
-0.10789394492247228
-0.8717068556681331
0.6688423598129383
-0.16182191245870925
0.4503011111147244
-0.8863342637199212
0.7909041371978118
-0.053516945601700394
-0.5223091177017041
-0.9883176987475923
-0.7314131709987648
0.33076809602069734
0.4359039045281674
0.5447325993495311
0.14648116360488062
0.8190957059960402
-0.6869830948207076
-0.6933341676660121
-0.5319205534014046
-0.6115887408636258
-0.8501105116895347
-0.37045314707526233
0.34579336760747825
-0.059334877924644314
0.8986048949009631
-0.35227162716391547
0.5925182470853749
-0.12561819355444737
-0.6795024139124672
0.21436019771199732
0.03255208942441001
-0.27336805173357304
-0.025601308455244887
-0.44213891059294874
-0.2325707378263422
0.7341933997718126
0.35413208960558595
-0.7715360274139056
0.3554714890049011
-0.7413451097375627
-0.79841539727686
-0.16404334590080794
0.3132853469203505
-0.3445500126861487
-0.614259212979144
-0.6090168970661791
0.9900341846968941
0.9352028854476748
-0.02638378224367388
0.3219772006971686
0.9994489110723692
0.35032338808360275
-0.45322423866036154
-0.9128812038987582
0.7022361405039004
-0.4876936378518666
-0.2262078452930869
-0.6672412997231245
0.37707502773712376
-0.43711257635337275
0.5630344429062335
0.7585320244956502
-0.4323805542131969
-0.7446126914632221
-0.44322934150029347
0.3613674786779497
-0.2377281617698883
0.3450070412427835
0.4663659382785845
0.3311206018938506
-0.42099297196797214
-0.6531937694396284
0.33839538177670336
-0.08536067236208678
0.4733466725093707
0.9912824374826792
-0.6641287725231517
-0.9622832825244565
-0.6174918702235817
0.17202662305237237
0.3533413133251917
0.20030179653826852
-0.3985045516635979
0.3449840409490601
-0.6278617348100515
0.8879098527412428
0.2897271800073995
-0.5799632482956347
-0.2939569840597991
-0.4421160376691069
0.946400647016002
0.43547195924253734
-0.2458879693688545
-0.5355984348199669
0.9322157477757722
0.5391976069884103
-0.25833871657272667
-0.8857419714659853
-0.13182854751006268
0.9554682719051895
0.596514934860011
-0.35112615832824234
0.3902481621757694
0.1826320832159667
-0.5659959469890499
-0.8830206349639835
-0.5474738146214004
0.9866119874239421
0.43492506364852734
0.5071954399243659
-0.972926673561761
-0.7979506298866923
0.4262171102249117
-0.8079133900151163
-0.678030976055803
-0.3304862184352402
-0.2885735898655102
0.17785002336043543
-0.525240113041149
0.950197941754273
0.8715813732893796
0.7967099781261786
-0.5267486808633484
0.23138053004136228
0.1068101114270541
0.13632742679916388
-0.3055952095796499
-0.10333697204916148
0.7507950099248495
0.7079445766097816
0.19794052305435939
-0.7612299773223046
0.242443983673456
-0.969690846325354
0.07004236323406188
-0.1953205293006055
0.26182035003716475
0.8368826405134031
0.0011049318764073668
-0.18500355961404202
-0.005817770429453306
0.29120323343646515
0.5893463225998825
-0.757961862474634
0.4336736751866288
-0.756800066816177
-0.767707981726768
0.6962143834959422
-0.30594217003066526
0.1745348916338223
0.20886827718766598
-0.6658384092093868
0.9469651468901898
-0.9229426739882984
-0.35171722194389843
-0.027748361356247697
-0.692907787484845
0.03661740565639482
-0.8674032150021791
-0.9163885109909771
-0.11707234220025708
-0.7339568991089644
0.9633228971015437
0.11463076523930105
0.2405779250424842
-0.9998105156764023
-0.07604898401026361
-0.6271829001889981
-0.8020969274870808
-0.24709394675805307
-0.16143270244425656
-0.3559593670571315
0.8241405353986171
0.25931743933922347
-0.3891008304492829
0.4968422255825866
0.7002211118224111
0.17889113012708036
-0.24881699110940025
-0.8220321931836514
0.730894949141605
0.5346778815707778
0.4211431116716431
0.9171427922922288
0.1935009280921718
-0.9564160602089202
0.2780088036709676
-0.5132947131915622
0.1726020028802826
0.8967220687717297
0.45083288083380424
-0.9207760565528078
0.5966958807108891
0.6409974144080928
-0.3086420709718949
0.14574887373070644
0.2238713763402671
0.6283963770557974
-0.7448227119126098
0.08392352074941378
-0.20562316401912062
-0.8980962741498755
-0.5430493531845304
-0.04919112345969334
-0.9674620047168103
-0.2708045817100462
-0.43672216015393217
-0.5768754365386453
-0.30159438451220066
-0.6117495037508787
0.19500826068920096
-0.2791614893301988
-0.2912056349264407
0.0978990293283688
-0.6568397878586107
0.9889722821598441
-0.6540082712807906
-0.2622796599061721
-0.4323859268075054
0.2791251427453074
0.1283458650491074
0.6092506872065819
0.9581368766855647
-0.42578604503450834
0.8797929481119415
-0.09062849384927651
-0.8416322892350916
0.39024707071012954
-0.9095706513675283
-0.6781288434166888
-0.12011566066387758
-0.21865017847156687
-0.4920197426301809
-0.9091489766153713
-0.9825671446376243
0.9800677958901938
-0.15527279070377076
-0.6354509298328117
0.852037729854477
-0.3433298307567012
0.6500725785377917
-0.4919348814743876
0.9358161014934447
0.009016860994319975
0.20798249513123412
0.8663539180913999
-0.3858168524853327
-0.1290317194784294
-0.9064666218509416
0.8445479842259993
-0.3578699532653935
0.7031442760368509
-0.771887221977563
0.8101888436947617
-0.791377310396034
0.8294610361870911
-0.04303395648655184
0.537770404680141
-0.7116782782612108
-0.8820864397863308
0.614467523444207
-0.9816990729740356
-0.47435371593051445
-0.45557377240207186
-0.4064107150354448
-0.6710441116735544
-0.2815746736695732
-0.808135091122399
-0.8549945874811113
0.2929464842874654
0.6114767211686822
0.122434836639439
-0.2393316222101678
-0.9034639407738079
0.017463080512859275
0.348676740724267
0.17341500490563955
-0.2269916963847156
-0.6409114510589893
0.25059562523263557
0.12042280265552385
0.7606588218706305
0.017874718960541047
0.9667666428115982
0.9416252101505591
-0.07741732124456258
-0.30372592897761397
0.6494947647111113
0.9149209822321287
0.8247730830168805
0.3350207164484822
0.9526106783290758
-0.43379031301586357
0.9149325487008828
0.57467526369046
0.8231750097018871
0.9009113015530217
0.6199981513731063
-0.7584443436662072
-0.6850517562015965
-0.3213049945530513
-0.9917842614375325
-0.5853206530872204
-0.8317894508075983
-0.6919126732152547
-0.6298595090449717
-0.6388075491796039
-0.5046268124302802
-0.7106677059382085
0.49091165426552075
-0.49340385671675246
-0.29297889319230475
-0.8657659278795136
0.7878324788935269
-0.4096662925421488
-0.8093814855355284
-0.38248154751392627
-0.706281890669834
0.5971557027278354
-0.10839425508450695
-0.44034790286204895
0.34557947932700994
0.9518372591491926
0.3040980428162665
0.9234761664113464
0.26222147488183567
0.372495983323039
0.8565030008064436
-0.29597682893360266
-0.7373315562149989
0.9781028653590824
-0.9089435063803226
-0.007440571688146491
0.8828704432068624
0.19071466401739068
-0.5875659689721298
-0.6195589545238338
0.9676078938292121
-0.4585188978226431
0.7428766474455604
-0.07416779583828936
0.8164519222236584
0.4514794265286344
-0.6765203066986556
-0.08449146477265379
0.9150418634659254
-0.8644388873528062
-0.23894386032293902
0.593683733125651
-0.08449194957993211
-0.6067352595999904
0.13177431705786402
0.6376335824307535
0.9927123785425362
0.859066842599342
-0.3014829141266335
-0.5190187950929182
-0.32482705403387
-0.8680426161769459
-0.01123101376567237
-0.5561265621716522
-0.4842450383658219
-0.1970148433166281
-0.11370023252405503
0.6468124704327844
0.09944345069309635
0.9232773337943034
-0.37199626760031856
0.33935873292667695
-0.023291443380879073
-0.37988681598778395
0.7971912310781837
-0.2922990507626577
0.16522745635541125
0.6546463048677746
0.8435676772428664
-0.3826920886114833
0.3860769868388143
-0.9871260856605217
0.054711060113082244
-0.22295664386866343
0.39577405759836126
-0.9182485978002819
0.8508257732593234
0.5916979446280979
-0.48891649572219564
-0.38364253264524284
0.7704875023532558
-0.5036993044463782
-0.27788067942870875
0.8318627521094619
0.9032934450578074
0.04544760854571561
0.042339410590991555
0.33313658789768197
-0.42564295376430494
0.9171444728754004
0.22702773012978472
0.6889769330551243
0.49050505016827817
-0.9861675324669252
-0.5442321490911319
-0.7494107143340398
-0.8137576926500685
0.7296092432927375
0.5886267716756053
0.9033675263850396
0.8861002712433825
-0.6797554921624596
0.4789654864016346
0.7573991745783637
-0.8269495885754559
0.5369224173327514
-0.17207554034339
0.994957870609664
0.30266539297588224
0.4901343173590291
0.513739595533363
-0.8458454653340319
0.6539325637882709
-0.8234729450562099
-0.11560710993086332
-0.14669411401213384
-0.16729248653229511
-0.2799358729841517
0.1113329659465534
0.9946135918902166
0.7765964072720077
-0.7150830114359188
-0.7628742779090596
0.9357764332590417
-0.8590882143361704
-0.0005715079849661908
0.5091987753589904
-0.25771780966073266
-0.9689916895295858
-0.5082261918245472
0.3275277902069349
-0.5041024927123765
0.626563980367961
-0.3620258973642769
0.623648153020409
-0.12309700461914286
0.03377294279419285
-0.6914951278668848
0.8823021142486378
0.9609418513729446
0.4097002323190053
-0.7793043549423242
-0.6703760014925912
-0.35221034672599316
-0.054100530277303216
0.6891517495602446
0.8386722236114348
-0.48885300570141443
0.3008762466365933
-0.8027284881172312
0.4707809880723681
0.6751584175330194
-0.9397848521275647
-0.7554324429935868
0.9615079972572984
-0.9502861559935005
0.02573516825831601
0.3790658187959224
-0.2909408680442336
0.6638689525826726
0.3989865146034157
-0.8620945543055323
-0.055189776329511275
-0.23642293230229527
0.06460103813509877
-0.2926059754643966
0.9777175007483996
0.5325530080620344
-0.6714147802014372
0.0850931287932275
0.9486103402966155
-0.49746581033445914
0.10942372415932167
0.41398230257448776
0.6180647340765881
0.9142571573865526
-0.7595959982693583
-0.8454078744041962
0.17188177062575272
-0.06915242490531415
-0.9167487009717892
-0.5242916511702336
-0.13025666646263478
-0.8539161818415784
-0.6770378804608099
-0.9135398329412603
0.22396116284804024
-0.9754161269822972
0.3005534183125744
0.5010606369379371
-0.9009645955072982
-0.49235185715864316
-0.9845369723565383
0.7566422778958857
-0.38958275244193286
0.06123651351487247
-0.8708818562550038
0.9357843017323388
0.16735928065125916
-0.886098530874881
-0.5822204350533615
-0.23125143417291327
0.4451795843802384
-0.7541301056581609
-0.11330939736953582
-0.6788123834498823
0.49384829716190803
0.40930528811767863
0.4740424936328458
0.39486565035404464
0.8949841183660885
0.8807257151527745
-0.25695517713601546
0.4091420388956526
0.284607160908239
0.2695265456613216
-0.9535127587465966
-0.4696506181237603
0.12410876502337809
-0.64738669653882
-0.7574414550438267
-0.29608282447312995
-0.4169284348068061
0.9768802821004756
0.032124654706885636
0.39069724095956904
0.21476592028996055
0.8456309866890965
0.04866202028288913
-0.42607946586821654
0.6758501877127736
-0.35514800549336045
0.3276655095326393
0.34072730483853575
-0.3046159702780318
-0.21213381803735598
0.6625088912846009
-0.2403478999275075
-0.1188560804854859
0.9964652652760302
-0.1630815171372264
-0.995304483810997
-0.3082860001213794
-0.35138631757582295
-0.3979180866507155
-0.38912827843719633
-0.4687028666905866
0.14528695780586154
0.8885320630743656
-0.011269178563911186
-0.02521783149626433
0.3277830986351973
0.9565100566450462
-0.16932467534070716
0.19347082687312667
-0.9768488013587029
0.19932313936824753
0.08073157114485463
-0.9301610209113893
-0.11731736382009395
0.8469785149120805
0.5732458592392742
0.76817929687538
-0.2915233564031319
-0.994071971381326
-0.4255586880552513
-0.5736295878955842
0.0860902279085134
0.19389549788484883
0.08095672400768605
-0.5231041567018009
0.5526674780356817
0.7243289424232386
-0.7392345799772675
0.8469749525077297
0.8167488784844035
0.42682450157549967
-0.8663118211583445
-0.19429545238266632
0.014610330325442789
-0.3298421665359017
-0.24838265110983815
-0.09816012558418818
-0.22323789329287425
0.028723164343770202
0.44768205029478114
-0.5458481304191758
0.04196329902057183
-0.14636438602386548
-0.6566831330586242
0.1532197416603902
0.2652812416617041
-0.5637684022383476
0.7926335972808967
-0.8464030931924136
0.7378046624809693
-0.8799757248115394
0.28322252271122306
0.9120613484860409
-0.5670706720465732
0.7931005360334036
-0.5147794154940426
0.43183562440564605
0.00944678206419769
-0.07585740258635565
0.2261815841547492
0.9920146192767032
-0.355650544498624
-0.8754292967364778
-0.22214980930260375
-0.9442321793783741
0.40131235599598125
0.7101006690641023
0.8350801149031428
0.3671097109246857
-0.1171033606704821
-0.6155121322071251
-0.34613379548928136
-0.5430456834768442
-0.11388650268009659
0.7287348401679998
-0.3335651792575782
0.4382398806087999
0.552230232359366
-0.09356502245699239
0.6624727566237611
-0.7769632152950361
-0.11162015006754955
-0.7198574647664142
-0.23926612458780605
0.5057373175987248
0.011281113690542188
0.22032811111719686
0.11080820722610674
-0.8156983639817563
-0.290305081934203
0.5570527085971404
0.584656076781209
0.28434926821979567
-0.7244552868394776
0.9763431028765008
-0.3310570369154384
-0.569110998025715
-0.9590804064986251
0.2390329096235
0.6019199686931791
0.9360663390319477
0.8522900348381313
0.6158376757682247
0.3590737597280447
0.8372057463284404
-0.18916427350972098
-0.9587988897710567
0.018787844756837035
-0.7253334864963918
-0.23219308924479942
0.33779570240034595
0.2754397252659402
0.9926562673832355
0.8766737050401023
-0.2721458647691273
-0.06147046988522309
-0.1023855528950397
0.3037521055431496
-0.4337202531607123
0.24558683325133202
0.23600039257130212
0.15345020181285118
-0.38678293686126075
-0.741098959495623
0.11872471268800866
0.9064106126941591
0.8943979657452124
0.38448926134848094
-0.3005694991958128
-0.9461583579225281
-0.9294250941109501
-0.6300047587699866
-0.6604515001073352
0.39682702249651913
-0.35779620658524824
0.0009753838608335119
-0.6612213563996687
0.4109955083685324
0.7643213266844509
0.4800436045431664
0.12055466666781745
0.9716002039553138
0.1755444102324597
0.8761321067333627
-0.9686717041335589
-0.17015155539103732
-0.676822890397154
-0.3364019644442817
-0.7355462600376301
-0.9846144364602896
-0.9105323530955509
-0.5008259007022624
0.1335994748648588
-0.8571251680200418
-0.3563260214995132
0.5350995830954102
-0.3100894020340821
-0.42579220789282846
-0.6448567738512614
-0.7572345073679796
-0.9788449994708119
-0.4918718176210404
-0.5062135208252965
0.21802160223131573
0.5679639384233208
-0.979148411507843
-0.5855330737516184
-0.11959178325514985
-0.21974775085515907
0.9859302262254122
0.7096753056340921
0.5860931247790087
0.6388421076788349
0.8074809246105441
-0.724430450455644
0.8872556546168722
0.516937809244965
-0.13242579618735273
0.9629948273006259
0.11871928251888764
0.8841474193625445
0.584215647073902
0.4709084175510023
-0.520551942648293
-0.4127591118550855
0.2858513940693084
-0.7553280849005406
-0.5895415980374787
0.3795903139124768
-0.6406615645523559
-0.584315716899003
0.4048882397889071
0.49390463616514824
-0.45196912431006053
-0.7808203155088036
-0.2521898373416891
-0.3305602644374168
-0.4161531911177401
0.3518003149950104
-0.6571792428938734
0.628784730225421
0.1493311284410792
0.047931275274892826
-0.7270394771440254
-0.1934248804739147
-0.6889894706318289
0.4179629579957871
0.48753473812607306
-0.04047216132037046
-0.4539913118057304
0.3964326325725698
-0.20819175272291157
0.7854097466682786
0.7273388504880214
-0.5405280198073628
-0.9096827200822757
0.8025231620306847
-0.4230998908255821
0.31492845434407357
-0.37374614273906026
-0.01756984538954054
-0.14948105346479412
0.8570370611803826
-0.27631891859540514
-0.25495279659771564
-0.24362469485978222
0.5582581164750191
0.9597629961066847
0.9396433413044367
0.30242479028391256
0.1856589780487039
0.5480924453855975
-0.8517948286977317
-0.44773620683418147
-0.12721193335330794
0.7936533960189871
-0.770750625188785
-0.6583150052003801
-0.30876347673228643
0.9523193493695528
0.4356017621681758
-0.4284583132081088
-0.2512165851568129
-0.31921103322590283
0.7653205396036715
0.5522664272167217
0.7132355237032415
-0.03290786999347084
-0.9872817739440274
-0.07113392127768448
0.20185850463032184
0.021172022168072457
0.725412073482617
0.6986307289283815
-0.46359471135937413
0.7250638030176273
0.9723675275870864
0.859486091841674
-0.9295009173381179
-0.8007615741700775
0.3559837613467236
-0.8533428215365855
0.06138459228786064
0.6662550179233857
0.17900295919057863
-0.5934789587162921
0.46781954506119594
-0.8664811813092692
-0.06815161065450148
0.9058928974616733
0.6597503830893419
-0.7042369078709627
-0.11420094654972401
0.15268302377653709
0.6107500309159388
0.5702208341307986
0.22917929211438404
0.3334162298818337
0.18177493204517425
0.2599098143303671
0.569842656471357
0.10816238200418682
0.9451824971748799
-0.8140048187567601
-0.19780649910386727
-0.0038250236033956497
0.8114276400472185
-0.7911651313877497
-0.9786240975570901
-0.40503287327792536
0.8350525086692695
-0.5010598793116192
-0.971525490415756
-0.1627032515385527
0.7894728190277192
0.24364986560132684
0.7510342810556236
-0.656445978121015
0.1314718203765992
0.4995049509374718
0.1318080081632096
-0.7058175908800983
0.36111722067370167
0.23632703255345167
-0.9529180301499729
0.15126074453796257
-0.6108318670071204
0.48880620304461364
0.3019011017032118
-0.9913980583836768
0.9128027812462187
0.287728879860879
0.3957533427150617
-0.3347079594857847
0.3294568246260865
-0.31344410512512066
-0.13085992551298853
-0.3663609281426945
0.6903212870125393
0.1665912447820388
-0.10599432957683375
0.664450457580851
0.7693832050494323
0.3930945698350621
-0.7395015480442684
0.8480991746750781
-0.11615161658609696
0.1775882664972177
-0.5359953376696791
0.8898532274728526
0.8919320134280682
-0.8207459216531625
-0.2420732026220831
-0.793046396687026
0.16900946270524342
0.014539285987127615
0.2000585802372894
0.9997170306619383
0.6034763246837551
-0.2983336203864564
-0.1606639319033476
-0.4945615976774027
-0.6778711544620273
-0.4897522884639387
0.9559790312272849
0.4756316672707033
0.7035049718290989
-0.7220604326181548
0.07732929496543273
-0.08040301981170961
-0.4116016468358896
0.8372293132391782
-0.7961556537113723
-0.6033011493342646
0.851400972385036
0.456553708390099
0.5560312095136202
0.14213818222131192
-0.08815668800221133
-0.2800744652077274
0.09794935743117428
-0.6543737186793261
-0.026865068865650432
-0.3784521364215012
0.7062972268457228
-0.7487400496646162
0.003571198713505419
0.012285647890603935
-0.9753473779750332
-0.3031600038040032
-0.019831079355045134
-0.0972044273285475
-0.8653353875000114
-0.4775109585999737
-0.3288873726964794
-0.467644662597291
-0.2990786880100271
-0.5045265748306231
0.8067689631605912
-0.072212881689943
-0.5205109314638405
-0.5410990342094781
-0.7169454997517746
-0.46931437033008616
-0.034531140141942585
0.005324706663476064
-0.7628080026169528
0.47460095254269086
0.6188377356117969
0.48954217206856643
0.9042386089541301
0.43145632898243313
0.16580442302922727
0.2978374235524899
-0.3347252667135172
0.35600013160330257
-0.21096834795360864
0.4265471169410828
0.0764496817820497
0.7005727388579912
0.14667571445998884
-0.43830127831102317
-0.6289988057210647
-0.11633198822997115
0.8265779772712094
0.781312437385093
0.23357348554484147
0.8025749853146709
-0.8383721759983236
-0.6443501146897459
-0.1806358143237099
0.888048492837102
0.6693072076021136
0.18124177418203358
-0.05142367535972481
0.8956756507409529
0.39092026292558546
-0.7784585095892347
-0.3034383964915892
-0.3461021690147359
0.8713380018213843
0.449387111355839
0.6428108303261393
-0.7503380013271206
-0.19358504520205422
0.35283226137992596
0.040352019151342455
0.21001449805757466
0.14991545816622454
-0.07943719390552051
-0.19822267721393882
-0.26514118014337007
-0.731685361585219
-0.15478122397330463
-0.8293141932820709
-0.8648016920897499
-0.6530784609015763
0.9590990192090629
0.1977638324224984
0.37943179911930436
0.42600411787577497
-0.9318017014523619
0.8824944596371349
-0.42642388599587533
-0.025680135942024673
0.6819321038435164
0.874786582648013
0.9882009266127856
-0.6740205073631602
0.7206295144877375
-0.9753402225511221
0.11940439807966596
-0.3314785901942763
-0.5247384846906307
0.04889600251173265
0.8634839680883963
0.8883935836420911
0.32341679715697214
-0.9285204889099044
0.2642605571885648
-0.890876551627769
0.002706085451941176
-0.669677393647852
-0.8238586208269818
-0.7788736789867376
-0.08650765227041624
-0.9382781678117207
0.3140436601546195
-0.9370725483050462
-0.6481704290032071
-0.5100546415623008
0.996083482360133
0.9742724615294918
0.6144389050892829
0.6963195563939604
0.4909729851290259
-0.05233132181113498
0.9614205148120112
-0.007177773651078301
-0.7977574002178882
0.6761523126646354
-0.5771142491298675
0.028848856411095136
-0.5025890323215481
0.38590319826367403
-0.33468990017934996
-0.7183285097286063
0.48712639129068336
0.08480350635415523
-0.376644745091264
0.4687353513553556
0.39923513811413325
0.3383518182648977
0.1748312684680875
0.3894431128587914
0.4339584916777315
0.996903434137282
-0.8727667615060952
-0.01176271634589221
0.06802985588897004
-0.27796764571958765
-0.7967458910386187
-0.6244401735411524
-0.9635985572525456
-0.990706019264632
-0.14854055966187918
0.8884716212609942
0.755525113379081
-0.8114851456109562
0.09939465471786435
0.7040268547336372
-0.4957540082097731
-0.9115933163971082
0.13243804893400846
0.7927591706879118
0.33646728611112864
0.3501609513379331
-0.8658152632205458
-0.17115102460733045
0.36937371021024257
0.11155293349414941
0.2536375372115809
-0.14213459038466225
-0.20453084531175447
-0.38880603148152737
-0.939156821285668
0.9990796262564325
0.527768357833597
-0.5430938975552504
-0.8306064320923356
0.3513678490580663
-0.7653669028447836
0.8113194217127424
-0.9120069389465151
0.665699282144472
-0.8726085498455978
0.3683643988806182
0.5720915839814407
0.5705019185049953
-0.3164672050336541
0.01729907067166625
-0.9407807256741829
0.7009456552620097
-0.5234282078468468
0.9612903630398084
0.1047962935518938
-0.3410568498861759
-0.9678715728091389
0.08364534609209406
0.49235000512905414
-0.9887840805662205
0.6616856344894595
-0.17578261224418545
-0.11029476202616961
0.7945966477662669
-0.15791125356751556
-0.25270669245081634
-0.6673486696890334
-0.6940662443888543
0.25380405702559616
0.677136081599891
-0.8963295432674896
0.6871762303105726
0.3404525250512527
0.26967740942601015
-0.6687851924504458
0.9278235667508239
0.4727779511619845
0.5872943502035219
-0.34445293415560596
-0.0309244391681609
0.7497955130681586
-0.737460658939832
0.6345066413918086
0.8916422320790411
-0.0075351368998017865
-0.3644146731529623
0.30438199446284475
0.1435729801684522
-0.37316246907706385
0.06306616126273856
-0.024390392383016657
-0.10455310615829938
0.1715569710008853
-0.26510792014412243
-0.5693034050088455
0.3523127892208189
-0.8689537377267276
0.708379657423938
-0.8252444770083311
-0.3232334624804165
0.14372737446130857
0.39821725680231546
0.29587007436396817
0.37323270785946683
-0.6495169580373243
-0.16687763313930914
-0.41028017164768826
-0.6401095883386079
0.09981544076645044
-0.3674248702677825
0.9715728841574067
-0.512292924391087
0.8465855115704286
-0.12300629728989376
-0.958003407620434
0.9174382696067211
0.7638489296160473
0.5874336297110554
-0.9419391773094627
-0.004776848747312545
0.39370210289408547
0.9197548068290411
0.6022156017380205
-0.7494243654256159
-0.694537704268325
-0.8238085310522261
0.8661051830932536
0.8043062768069806
0.08719099927658269
-0.3912877693307806
0.45669688653119955
-0.37389935819615694
-0.046545577569098606
0.8204179656221957
0.10728775033704285
-0.3842520960328355
-0.7434303515655669
0.294751507040804
0.8081126748495706
0.7499099286703312
0.6375566515747197
0.43938994928121233
0.17951084330507205
0.26255171222584694
-0.8833249814526676
-0.1817291868059434
0.42326022787439266
-0.944232332753097
0.9267485817021757
-0.6123412869797151
0.19743692221018216
0.47654656414005214
0.12860769078301648
-0.5234921186668642
0.7493799785049802
-0.04865830097749724
0.21761067239889043
0.505628670793991
0.5818436419138995
0.7248498766740796
0.6901866205202527
0.02259295567747044
0.08727417804669813
0.6401487650322497
0.08978658142468254
-0.7092368794651678
0.7487411164154454
-0.009219180591973908
-0.13201397659835257
0.42461024713410067
-0.06127668220004967
-0.42548224477702323
-0.0031642777524703014
0.7798311104106281
0.297435995709199
0.34248639319915
-0.2746262704236597
-0.9120905388945075
0.5610123214513854
-0.2973121296595804
-0.7539662321383671
-0.9038045165377808
0.47066941386190453
0.8216691895120967
-0.8015245687921104
0.5466238065905422
0.05061144503433179
0.9565685127481269
-0.6249133404308531
0.004022437082459085
-0.10090434355293953
-0.5418401377986235
0.0855914707278913
-0.8914715811004981
0.07856598630746636
-0.34955413815691516
0.380148690622379
0.40646958813446665
-0.9437114691985395
-0.1255508995209993
0.736235381168008
0.49751604328123866
0.7249784408386892
0.5529388577489727
-0.6829512796092598
-0.12711122492131288
0.979489554630032
-0.2978929710615774
-0.5298537113625046
0.20815875845292986
-0.17290334133974516
-0.6553212942203803
-0.7546643457184357
0.09074782706065476
0.3924797939541025
0.7511536663020133
-0.919056056631139
0.21561442493577476
0.2188413845170578
0.22288382373151072
-0.21372370577035538
0.612178612439843
-0.2304491733535856
0.4056211768311866
0.31224587365696
0.3831150425680301
-0.27825781019893014
-0.34129364038493404
0.6004721728345761
0.4104504187530209
0.22117504218812067
-0.42315871897707824
0.7713792155958665
-0.7016051770625036
0.9046270502210749
0.05641152282472928
0.6752425662554824
0.8199944073595371
0.41890680663301727
0.3937860105033364
-0.941053737164814
0.21603155694103138
0.7313394866707139
0.5411208097767037
0.4674807523469884
-0.4378815742904525
-0.6720361195024476
-0.11145550296124762
0.28488388706496615
0.599493357649991
0.7964872177008548
0.9685229512441456
0.6909500726146289
-0.337474250395009
-0.22839004575101218
-0.5570563186061701
0.2791843789247588
0.984264587880171
-0.5422829198613937
0.6919318881866661
-0.6951695608908728
0.7718696088775738
0.4377941290908389
0.6610331327023149
-0.026148288898375727
0.9227374753586355
-0.7882000334476948
-0.8147938639613912
0.4960588839247546
-0.3405637809327702
0.36211030140611977
-0.30268845779010256
-0.012316206784653616
0.45029025839785874
-0.8334938667320433
0.9380936824379338
-0.3383478635135502
-0.6893397221824928
-0.8460812021164645
-0.6588363765927308
0.08254224546040656
-0.2810357617655619
0.8702455011213335
-0.4742820380467041
-0.5402451885112167
0.8083471212143936
-0.8937232647757904
-0.8126848918644807
0.79439186824056
-0.5284612590205395
0.7579501207603316
0.6718317805369427
-0.9149370183360876
-0.5316357460168954
-0.02307642645590602
0.16108416788347735
-0.9676958456967739
0.8450538347410688
-0.9784054848761983
-0.8411468217397537
0.5635715431370594
0.9931556022388555
0.49510493793109855
0.1442151542435226
0.9302836613018042
0.7575443963694821
0.8514397279032868
0.5310722406922839
0.1365970054407899
0.7378441857872928
-0.32049885715363713
-0.2595488598740807
-0.5567734518801088
0.6667732811881675
-0.6304618019497574
0.0955166801650682
0.4880876546120654
0.5778920541542532
-0.36069408188213936
0.26209661729330636
-0.5435202947967828
0.4373583429470669
-0.2528236013338554
-0.19184749118385902
0.6399836415127229
0.13564817551409192
0.7166103320655133
0.3760220028881538
-0.7700439854727759
-0.3912529965985705
0.921964358423357
-0.6224801493856316
-0.05328999224241482
-0.5324817652976102
-0.37289834058871607
0.956620284049631
-0.3378210625878486
-0.718147860748235
0.07018668949732731
0.9661032737069835
0.2655429703665422
0.26370019526950106
-0.012484601335611911
0.533025828651029
0.35778959008020617
0.5267462311561228
-0.07897098001176905
-0.2754651658944438
0.02548436787706776
-0.7197072321977416
0.7747985814340821
0.6816215483371331
0.1097201236604155
0.916640256201964
-0.2313396805499317
0.7557508827629695
-0.5898515275372131
-0.8732110890092606
-0.49181884948727594
-0.9595817663462369
-0.1989959572450124
0.8380170006337431
0.5013738213762129
-0.632556344917987
-0.02395413545817493
0.9245479097258273
-0.6873318928538354
-0.78433894049981
-0.6239608523176372
-0.8966501611532518
-0.4446794815385069
-0.2540502613361546
0.6288781876924476
-0.13088885887817892
-0.0322517623142049
0.446553759779462
0.18562927501839943
0.9953528956181024
0.5053690413350063
-0.5247042670592139
-0.9488259512952226
-0.5718213969869865
-0.05248928073332837
-0.4220991273346615
-0.491262517690346
-0.40762921446629763
-0.26040929103286414
0.568312557240084
-0.5938935861948982
0.7532778870227297
0.8006579642478853
-0.6998150663230891
-0.22060155694425054
0.2756521768826323
0.9271888464405038
-0.3920346796403431
0.7432955816371194
0.14370751784852565
-0.08185607622384938
0.10637340913157067
0.4036143566054162
0.9045990880571697
0.7893496872717161
0.6947053465724351
0.9653877451498676
0.2488357828189156
0.28633980528020997
0.9017944995442597
-0.6621520852961504
-0.839109335062481
-0.61757517246171
-0.09342650534670272
0.08987153836192774
0.5773058878703659
-0.7471823106195477
-0.3917344950326138
0.5515174415082555
-0.45564423177403013
0.6272472653984711
0.6218334351793182
0.68708617868223
0.011590610197319995
0.060210398979929636
-0.43055416674937486
-0.2981851371164921
0.48787444362757415
-0.45279849918011794
-0.9920287205456315
0.9288756430333605
0.08351628882864359
0.2352520617152032
0.2975414838925594
-0.18407361471038808
-0.0723823019881975
0.7509467181159888
-0.055598314485700184
0.9354176282247839
0.16829201818974937
0.5998699246066823
-0.9409501093005197
-0.3092773660026009
-0.4614079062052714
0.635465267979356
-0.010678557223414709
0.42861192763487876
-0.7985590954523354
-0.5886867111194456
0.3871773068793978
-0.8720818265510886
0.3202761634485858
0.4394342392947066
-0.245151085616635
0.10157882103623495
0.15613030695934427
0.6661553563953446
0.8222859755059728
0.2780303296978961
-0.8433393153841717
0.2681190594892251
0.6026185999130289
0.6742028817191319
0.2507152963738064
-0.3068879036105525
-0.9616312877960622
0.6844830149737626
-0.697499780850672
-0.8463836949551233
0.23327271206200817
0.12250043057945237
0.8722738255786286
-0.5835355789783305
-0.3277204270330669
0.42886422660327206
0.30784726881883984
-0.7410511681818075
0.9364671594607681
-0.08500937528909414
-0.7450797304378474
0.08581696750837198
0.7848344653122596
-0.13126814695088385
-0.16863705539077567
-0.10642007816356247
0.30318500366048373
-0.0020703229167737813
-0.31280854865442964
0.8922661725820231
-0.3872925395054416
-0.8462917176921532
0.57659210545869
0.8881668462679362
-0.7944474630297527
-0.3923765791889344
0.8126735320096699
0.43090901199128506
0.996921711362388
-0.75505744052932
-0.4305948989816475
-0.3044171243986018
-0.17550280022936016
-0.6401898528141803
0.058506554933026145
0.08218895870496401
-0.03228993653832668
-0.2657436097468209
0.21689896742194725
-0.758714791186105
-0.5819064809448649
0.6055552244652629
-0.49683494439206943
0.5174441295926839
0.9245452733749653
-0.7085657863320294
0.22982294659314317
-0.5598771775274876
-0.07484639259595727
-0.29251992300384644
0.7339280793205352
0.6816034361491894
-0.726389032892139
0.6894217243199081
-0.8879672866028687
-0.2973078726537346
-0.23265379216090798
-0.21599286621716596
0.13865163550214543
-0.8225431043891955
-0.799286707056986
-0.9048770791964691
-0.11355914078971563
0.9257477764458881
-0.6608446167072226
0.7525700800254889
0.8553248008183953
-0.5634176902824855
0.9500295035455228
0.41192379146992497
0.8057257304703163
-0.7573661220061729
-0.3206402437486646
-0.6805287441750756
0.2631539585800957
0.18737822002159943
0.9207649050028217
0.1654723169677026
-0.9652722484090044
0.11461004756129056
0.7805957993164319
-0.3326551226579151
0.8304924429089866
-0.24250909595902148
0.025613951049701322
-0.13386984911117916
0.38076988385652943
-0.5936441347524422
0.25386503760677614
-0.10221526839306949
-0.5456956851645502
0.9206917756513773
0.8409289932673012
-0.8729179603254633
0.3664367330580114
-0.7317253094906968
0.7203399300516597
0.08363388722689624
-0.40124457585175066
-0.13358519665762691
0.36655544936309337
-0.08542751859826048
-0.7245988463155217
-0.05448143451218734
0.9540290145448147
0.9844632297894282
0.7726978677665592
-0.3684794728883696
0.29809447725140736
0.28760343853560166
-0.018744654137862193
-0.1518495051379476
-0.4752353497490609
0.30504908564241373
-0.48523664590740556
-0.47770508729700745
-0.46610016094365014
-0.5611037908052405
0.31739753378464397
-0.5071818001640516
0.6471654491613454
0.14592785495781513
-0.460446377455648
0.6153523640063943
0.6664484077806312
-0.9283953787535248
-0.8204586097899877
0.768245957173582
0.5342589283733679
0.7234306267166868
0.556764502623257
-0.5836959435816529
0.7290108439178085
0.8600767188908591
-0.58836965011942
-0.370759464609973
-0.06577440200493667
0.3667153513274086
-0.2380298165792467
-0.7300088840146783
-0.14421674552816865
0.13632865236502822
0.979279613011214
-0.02210928838217696
-0.5191850635520947
0.762807507754532
0.5608314007514885
0.5829442253207477
0.06418381847797461
0.14353879167324624
-0.6268193230988419
-0.09811297193180923
0.2565586169606209
0.39964147577784437
-0.931084533145246
0.370347127605662
-0.9240759771234432
-0.5893432990131227
-0.19039721389440611
-0.48182396341009137
-0.9662335697656985
-0.5949637950880442
0.660436170999892
0.3812329982375211
-0.39962895944707677
0.7417109417838237
0.783531605055124
-0.9688190369737044
0.341516542777778
0.4864502221272269
0.5449323073317003
-0.2900207113013318
0.7589386062427896
0.2896860410661031
-0.1996155736800902
0.36871327462432957
0.015139133341703914
-0.239868066023323
-0.5993349337129152
0.6714323131016606
-0.9219639180708241
0.6806793943083653
-0.5203810278180512
0.27945772291925164
-0.7238856883271414
-0.3298094233699296
0.7238095792800392
0.38268183227514085
-0.8104056249480283
0.46191008429676694
0.8171038096504939
-0.27163567222658513
0.315178141054973
0.4135259621878611
0.1192826514066816
-0.9520489740764362
0.3112418414866369
0.9492979134132613
-0.035975236585687576
-0.12487658000924529
-0.47572253575029366
0.1575318253795146
-0.04056369756708156
0.5426704454511992
-0.4806004245758939
0.07525246461597268
0.8661656199602679
0.5375185307147636
-0.8562216000768994
0.6401658475786305
-0.47547295875517204
0.6414344911978096
0.022434433352573002
0.9877055595918265
-0.1776835308386473
-0.3578745678419686
0.2848803643318423
0.0592771675150261
0.3444555226145194
0.37999090151143045
-0.8922860833743294
-0.40508145252352556
0.6203461781426185
0.9865754989511861
0.32214443260848324
0.16357872344786872
0.5373109024518072
0.07870210049527637
0.29924006501616884
0.8364813989839477
0.8744991745688422
-0.7527010357202957
-0.20708881985652838
0.5616025324586167
-0.7598460329811172
-0.2992865235430946
0.6863956805792177
-0.42282714343047445
0.9694867460478533
-0.29210509318987343
0.5065816341161842
0.2152968904635535
0.6937818464178744
-0.05614275202888286
0.3473081163773559
-0.4233975874882414
-0.05901886477489038
-0.2569457799608226
-0.14572831641942185
-0.8174632407141111
0.5677485160331959
-0.6216849007357603
-0.10168120470342634
0.5686556970991123
-0.023439697096343526
-0.18275080872620064
0.2803358015022406
-0.9721778835755581
0.5002738347308282
-0.3828733444268162
0.4356632141004815
-0.19004841918724535
0.3617251702980806
0.1975165297670185
0.8716300308008753
0.5289403386019786
0.915327876107354
-0.5152275898927918
-0.5089252795031869
0.9167112358173364
-0.6806594512633
-0.3009518883463891
-0.2651868646658111
0.28785228317984424
-0.6740171373224668
-0.1275666757050118
-0.5927089178714975
0.46497229362464565
-0.988479792023865
-0.659788456421293
0.23474701725587188
0.822926413281591
0.2681903029539032
-0.8583799886362877
0.2907612353151141
0.589929301949438
0.6623188464458052
0.5384232280473786
0.9675433989501308
-0.29997536766648736
0.4107073171944404
-0.06392424175292266
-0.6003785260134369
0.4218246756740358
0.060251026345509384
-0.10323505696398927
-0.49069773571210984
0.7452967898129921
0.9394946537125282
0.02274738798551401
-0.20118204166392695
0.024226471292836838
-0.6979449675392693
0.5611196601090014
0.7094271745063003
0.2706284575443916
-0.05542754692416718
-0.9397230696789247
0.7803343631623998
0.8280115899690255
-0.3784986998945339
0.5506949579953566
-0.4461686280038637
0.2119237658500357
-0.619811629815995
0.2158236583694093
-0.4557016314046325
0.53376903471321
0.22386321640477158
-0.9107524530572033
-0.08476325130518925
-0.9804468907568662
-0.4877886359170256
-0.8509263952477457
-0.8627323914882525
-0.9154381125296032
-0.9316582029612548
-0.7226778900956758
-0.24692625183417927
-0.6562367560736344
0.15143429355708626
-0.43229542012208344
-0.7055023462096754
-0.13712073200145936
0.746554495801659
-0.9086481600156269
0.05454021995711589
0.9960625109810015
-0.12664553722659044
0.376520336806593
0.08264022495859202
-0.7215349898043053
0.43707813150500474
-0.3133729647075767
0.17588255036620093
0.965014888402772
0.06844784387477887
0.7066616605071441
-0.4401675401438898
0.08891104896763258
0.6307162102678014
-0.509836463057671
-0.7816627563067435
0.8879199244159786
0.06112421146252567
-0.1956079466949041
-0.5440032960690688
0.042745794084664945
0.8240541167757691
-0.9016200066516604
-0.472745072658294
-0.8211372980827036
-0.23361924805646073
-0.23345860215150638
0.9364680593248977
-0.6160344742502097
-0.24160719232201178
-0.27780598648477106
0.6580419926649661
-0.42391079277526456
0.7569455853420721
-0.6445396359797999
0.41841678558173556
0.8570801416165723
-0.29394647036381594
0.7836357298462837
-0.45190726474414933
-0.7055638737553471
-0.028321860974592328
-0.6031317736722845
0.0764272703031692
-0.815472594361246
0.2615612076662721
-0.9327860977870825
-0.578186513433123
0.8085271030594527
0.118621468842105
-0.6796156671016198
-0.22455348112556228
-0.29783878177409084
-0.880508801234194
-0.8581019633682481
0.1111735689918627
-0.15582049137135545
-0.32964052082634043
-0.15581967912592276
0.14449152949456767
-0.11213333721494023
0.2654071477777644
0.6469486937170275
0.8338464167619841
-0.7614377679291908
0.36722034688308036
0.8630646004836728
-0.4457008047211013
0.16896358761750374
0.3161059593574862
0.7651597755167754
-0.48883824555424504
0.6898024963184746
-0.9603736621348178
0.39678427103917757
0.19482281621132724
-0.11097072228141602
-0.38295734955516725
-0.8993331017158623
0.3876538033557344
0.5688013321362138
0.42242534698243017
0.822791993783065
-0.13175847298527832
-0.28155185043436837
0.7262174664608696
0.9601731071952133
-0.3160751001901252
-0.4118305792606627
0.3935041193766575
0.9838510419892446
-0.9561867174448229
-0.9605827939279235
0.06961484291224806
0.7370866275091663
0.7082469612660665
0.942578233925421
0.4181982331685383
-0.05062091150044834
0.3692351082201042
-0.3359088045332981
0.45087047399509395
-0.2505569826316012
-0.6693111477890743
0.44891327243555557
-0.9185645709758832
-0.3033634978636768
-0.6526492336132146
0.5056569498024526
-0.30517982864504734
-0.1795827951813853
0.705280507217362
-0.18293926380408876
0.6455359873741855
0.9290343476237193
-0.5623494248139216
0.3825732007846634
-0.34548539008356327
-0.9006724107800501
0.5896765483546389
0.16825086781558585
-0.478118193078533
0.3215945634536437
0.2247071540212482
0.33421307189340443
-0.9523000182081964
0.2006079919129633
-0.8714441824913004
-0.329782312273065
0.6586466973753937
0.15615036618394984
0.38023177151419874
0.9874950906352888
0.35170502863978625
-0.3345870813317624
0.7620796459744188
0.6798685188214524
-0.574833126821457
-0.4315454587568919
-0.025729593631178327
0.5440883744046627
-0.4046570183715892
-0.2154236508791676
0.9019706333627437
0.34455861322577275
-0.4589315785016692
-0.5133930596157057
0.08085138838259232
0.8028237387479451
0.31106842985724104
0.7515687121304431
-0.3065987726411594
0.604985047918182
-0.1510633701788664
0.6608398686793402
0.4787995180953961
-0.15978257831860976
-0.454147737937449
0.48868503583001144
0.5000400663724267
0.8427248705951043
-0.035915731058948186
0.3616457582885899
-0.38219762766910725
0.7963547106816786
-0.6167999205773469
0.6941379878690153
0.4992517204717637
-0.6719808681205668
-0.39753899335328513
-0.8508599059645843
-0.4499637009617583
-0.29891253017860864
-0.9071239367821908
-0.4249859061119414
-0.0463761813318051
0.23023694537244155
0.8781662390456471
-0.519613762560861
0.456155998082852
-0.8698982358505987
-0.4699004466055199
0.18335623470450546
-0.7756884851882033
-0.01177695350903507
0.564762804900508
-0.14239769506695743
0.7758080744651952
-0.6058037457073673
-0.6941626159232337
0.25087265592400976
-0.11848588653105918
0.8382133508169869
0.7679218121676199
-0.9996388844198887
0.7274124652322744
0.685053196554436
0.4857937422162171
0.7465265636251077
0.2620217834428278
0.9250122922337236
0.9368715893362507
0.6969661211034825
-0.7237934120175338
0.5373010791670838
-0.1974856902680946
0.834675392296772
0.20272397698007838
-0.7611260168885914
-0.064222710705238
-0.5931036644365251
-0.12034064074892226
-0.05292163784389503
-0.9536815308078432
0.41975027126836495
0.11317778432167969
-0.6041899663688062
-0.7498570388697414
0.27974654242710795
0.4557719800164015
0.2102543789154625
-0.8747241407167772
0.7780194101209905
-0.6233459084426585
-0.5644676260062338
-0.3469734982200783
-0.9261676977676505
-0.6794970153227851
0.2405082524471871
-0.7350794584128053
-0.6184180171953106
-0.7764785101866949
0.08817770545247572
-0.6353309024759772
-0.8930341403609352
0.5308162560996654
-0.14993218279230525
0.9842558960989896
-0.5768117259911525
-0.1706290819681211
0.4553592425656239
-0.612965446542385
-0.5295857935126922
0.7155231339847783
0.2904297124168005
0.06293733759476305
0.5502838598418531
-0.009267230536209148
0.8435417356615418
0.622693753238772
0.9028104161242938
0.9117969124758676
-0.9851962019634739
-0.21063090632201842
0.5751856215773175
-0.4166744899594923
0.9051672589654256
0.8385497530525283
-0.6542701421581585
0.572846164323386
0.5727665191252809
0.17779946799880908
0.9552353576729706
-0.23064274866199885
-0.4693428505477153
0.039781288872954956
0.8164914284864679
0.8390962307770344
-0.3556503742031967
0.024328171038122015
-0.6664176494524605
-0.5273015646042727
-0.8843636889139375
-0.4135128132536465
-0.25105707517066755
-0.21045715916248553
0.37884179561156994
0.6563671691940676
0.5364932738730568
0.23649740169770062
-0.7881123460587047
-0.2932662913151718
0.7786862551688996
-0.1366627407405434
-0.871344870617706
0.09386602560198032
0.2568208409268482
-0.9646985219613673
0.17805341619937032
-0.04551869261999464
-0.032599092360697135
-0.16994549328340325
-0.4421658817798064
0.30263918395578915
0.512763157578134
0.7771257142137125
0.6689340875741485
0.268502752864032
0.6656455532734262
-0.7641310448901484
-0.053835553366069266
-0.8124762467986182
-0.5371184535072209
-0.6016951152818357
-0.6585787150255289
-0.7048610397961566
0.7585193918392499
-0.14901733764886416
0.7703987306675639
-0.9426543195760193
-0.5435895256743031
-0.023599578032792223
-0.16768256928288405
-0.5472787132911259
0.6734361573177712
0.11177095947004445
-0.8025451409145223
0.23458530351466877
-0.3534656581249489
0.8507045700507547
0.8970306531552374
-0.8530731747705493
-0.8038761756397887
0.662969214315803
-0.9830802993948602
0.6630092687850682
-0.4105228544793922
0.7982222907737795
-0.8821240688385046
-0.18534810132264767
-0.19347124976315988
0.8960052157153622
-0.6747639587147252
-0.1623681162287529
0.43213031972854843
-0.9195291581280154
-0.35841933718958097
-0.5967526098390676
-0.29417688524393104
0.7825387078399693
-0.8819723664080845
-0.1890231578409436
0.7992027014869987
0.7088920719063279
-0.9888931967625187
-0.1749522030640318
0.7551316260092638
-0.031563645237461024
-0.6470266767969239
-0.9692730164785388
-0.11898748463230269
-0.42801591245122994
-0.4430765079889709
-0.015723230648929665
0.060692403143861595
-0.5340270222586017
-0.9973695500163673
0.4377936215573044
0.1318736257076838
-0.9419006982703289
0.03223135641229424
-0.8269395721842954
-0.7925027493819268
0.48326105236744565
-0.6731369629965205
-0.7131585508915803
-0.26047390090563405
-0.12713883829265638
-0.20354406662774216
-0.77819267484425
0.18857097601628614
-0.09104877627473562
-0.3795176738095807
0.7020515461862868
0.5174916418188071
0.9884361461983449
-0.4741267160905376
-0.893729143867799
0.6809487011585875
-0.58578977843431
0.18906658095525142
-0.285379209251281
-0.8204764539178846
-0.21311621982057072
-0.5318149172140916
0.3790691834495792
0.3497016202905381
0.10975928155373027
0.42710021416006905
-0.9238533963681907
-0.036849774532166535
-0.42751396761045846
-0.3741589771802831
0.3039525340870477
-0.3047799330665546
-0.9446391049365812
0.9856643418685826
-0.9191653874158914
0.5631555436929001
0.06842644980658807
0.8824874571411139
-0.08665731327220016
-0.23808393728695632
0.9379381947301144
0.7869496834582188
0.09307869612349728
0.35591395162781403
0.7901749386632475
-0.3121629802908512
0.14702617128917517
-0.9180392432957398
0.9340734161476041
0.592786044610031
0.05485492538762515
-0.8927026416781048
-0.013424966519122616
-0.18262528489232532
0.645524517042322
-0.18955534377417793
-0.7038260049350369
-0.34028666075636593
0.6179524669280241
0.2346231548608173
0.9954348033302323
0.30980508990845324
0.35129205281794884
0.9904685635003647
-0.9608480478502215
0.2445341968043664
0.7556166448994701
-0.06821590182155979
0.8945147417524126
0.4534344854073804
-0.28937836068512435
-0.6318473020245474
0.13775961359146272
0.7002229453298643
0.19014924440016223
-0.13018499653320892
-0.28788483128916464
0.5876372802911183
0.9025425756190337
0.9694048793336627
-0.550326494558389
-0.3794512899362139
0.8118668085740308
-0.8750228007786969
0.5473339963686037
0.7835362794836658
0.18282261614471884
0.8467072192020941
0.5565696981003825
-0.3926418021827909
-0.9517753127142987
-0.5643757067493784
0.21575920435558738
0.23599437122576927
0.9592282634557177
-0.13142395166628695
0.20096567409321553
0.5147315761263944
0.2288624662030767
0.9444371841721189
0.34166693103354007
-0.23869283247684314
-0.5730184345161402
-0.4352698712399674
0.8905370080062396
-0.00848088153059634
-0.6185054675462691
-0.9352946581448567
-0.09647831428396536
0.9776881660160999
0.1875613658640467
-0.9229389768629788
-0.8447284709095355
0.9215411274866654
0.23509498987145339
-0.5522439792397986
0.41290803757584227
0.09823667776946321
-0.17098965060980276
-0.6731858518659404
0.6820651784955352
-0.4362212634883009
0.04333748875509946
0.05592189824783067
0.17099626815070268
0.3063075058021467
0.14716834281451385
-0.6213314341879907
0.11608227362966095
-0.3316788240728057
-0.6394202480090765
-0.3072826835272089
0.07160392848921626
0.6803764863677846
0.14493913020427351
-0.15294241956873678
0.06988808438386496
-0.2594636890002424
-0.8455261425090879
0.21608531540856335
-0.18537013370162758
-0.3256552855548198
-0.4680520657489209
-0.7974216486900993
-0.05896987720202396
0.99281420049279
0.7749370259249202
-0.3925857322529158
0.4496758469190216
0.32436941793849794
0.6412623618710322
-0.7170450907315495
0.2044388479539112
-0.8057174211324112
0.1613443309003093
-0.5240652006611535
-0.6545214285764547
0.29158720237042624
-0.4526914756621554
0.759635181375633
-0.06140394451607478
-0.3358923203565052
-0.5802029574553653
0.3492354217133571
0.2707968276618853
0.5154607442047676
-0.2544440508267878
-0.6342215201378061
0.5208701019078312
-0.6852026591078422
-0.2644940541406666
-0.030309735769229018
-0.29171708306203636
-0.6490743205487897
-0.7466115009087995
-0.6870211137683107
0.6460489059065606
-0.9592754912028965
-0.7580971284364062
-0.23231694329449404
-0.3121019517228065
-0.3744077277619009
0.7349890989221617
-0.4336718767249179
-0.19874270799710425
0.7870352904074858
0.9566556682368903
-0.7314017692910775
-0.23227304295215978
0.633826207104637
-0.2918176689707501
-0.13370841770918496
0.855477441247285
-0.06805939140348594
0.32638421283219965
-0.6086845293266012
0.4268937285596399
-0.729538415291457
0.5100911737462228
0.04903356070172937
0.013709268009922004
0.1337036657992976
-0.44262019593313306
-0.6811110011127537
0.9973225836526403
-0.44054845665634135
-0.3151371245681329
0.5922566310532829
0.7774863276260993
-0.12502201590277195
-0.3930354734616557
-0.8246409550155114
0.10871380881507853
-0.9883470605635334
0.021405393076701973
-0.7346891785070924
0.6907651696432853
-0.6074116040688597
-0.9245994968612179
-0.347068945443028
-0.9883412856484413
0.6281597490169191
-0.10145999467412503
0.8042694012190714
-0.45895558576139583
-0.812852212763195
0.3843855064861099
0.11600550672285648
-0.4031428793276979
-0.09824835935343379
0.17453749847400468
-0.2997862213093825
-0.6769168271129615
-0.8310953416874438
0.25935502851725567
-0.6268195991149703
0.657740458257019
-0.588212923351981
0.06216369345151063
0.030867316018348356
0.6042747266945552
-0.4291460690122779
-0.1942911430510479
0.4423881310626496
-0.03837407983341379
0.1997543579740182
-0.4343185241865717
-0.2714112615625208
-0.933246941497069
-0.4330688193715282
0.5609690498605198
0.5807932250676262
0.19563132441158326
0.46534080972027536
0.5601354215448286
-0.8230464441632004
-0.8306668108723245
0.09538765843640329
0.9300240017376626
-0.8486833522815711
0.5439783164473624
-0.6333145463688525
0.12112695263082873
0.246256554718427
0.18570367507515728
0.08500822951832254
-0.24367018211769298
-0.8156536241934009
0.5876232389701956
-0.263318580209863
-0.38661808711924106
0.02569158366571811
-0.031150322472835557
0.7042724402979441
0.7998039616944399
0.28256071409826755
0.44006773749730477
0.9979942529415808
0.6679001809187954
0.638846244265193
-0.2068005527155019
-0.0457440334126622
0.941440795968812
-0.7430026606408462
0.6677316571612448
0.1201594707908813
-0.5264788648943683
0.8738859372798629
0.9952257364568022
0.8805130583688816
-0.021982858923802473
0.9055924082384992
0.597012628742337
0.3916311446904661
-0.8606405217951731
0.8899918718151989
0.5257299228119403
-0.4608593149144333
-0.05727703675919371
0.27967800287976585
0.4430452828966076
-0.44280074244706547
-0.5053887593298876
-0.7180989054650309
0.6122541880606178
-0.7138886917150242
-0.5598189990126956
0.8471797234893319
-0.9413218226332085
0.057967385508105984
0.4273048224084448
0.9826345740877402
-0.21841410184069132
0.4328303104454798
-0.21589076807705387
-0.9866874453511207
0.3369990422868572
0.4297977108780866
-0.0447292585353849
0.9655484581487093
0.32733004526903264
0.12612479443572178
-0.7187828526378137
0.9118716774259237
-0.7835921789103137
-0.3965472035488278
0.179197676622306
-0.12841626603857392
0.758592402531874
-0.7344885168904736
-0.38514845772868167
-0.46038008759295
-0.9003271313099852
-0.7528118878489345
0.26778726619608917
-0.5539960896178753
-0.3465968815117697
0.5115815852189576
0.3106455568178146
0.035459013826939056
-0.36571103364144153
0.014442541068449444
-0.5908640023549248
-0.042137183766201014
-0.090724901733517
0.4996823180440826
0.8816711451576431
-0.9451307527842154
-0.06760713894651671
0.17770530293047782
-0.8588827917410724
0.05397067767797559
-0.5629562398968784
0.8627895805688959
-0.6442935364899194
0.6230371581674816
0.08512761766901011
-0.5502289079120952
0.8031862305120927
-0.04330058027297312
0.8294798896925111
-0.9342732567507872
-0.32759478825659105
-0.08601544766836455
-0.7465969281330722
0.17890600975325954
0.5045898978556815
-0.5217244161076049
0.42459148910221267
-0.7827996819671881
-0.9527874517547321
-0.5510530474077069
-0.06749902796207174
0.2159522966314129
0.18630425049831478
-0.9319085806389629
-0.1857593077118207
0.39524735377825704
-0.5918910408986973
0.6172779796433303
-0.6272088273891472
-0.3958321496695325
0.7361791106954847
-0.5532102125573977
-0.2470683612620943
0.9735444103193034
0.2557315694842617
0.7987954460142923
0.8956440311664986
0.03704667200049516
0.6167861562489421
-0.5918424688428967
0.7088729677135281
-0.40431925553671055
-0.1219556356445679
-0.16686746574378364
0.916947347782868
-0.8161868624000708
-0.3525276256108685
0.20577522385281766
-0.437156394485702
0.4241012634387049
-0.8278177617026128
0.9819741855540625
0.5673002409353893
0.3622494322716019
0.41013577015162417
0.5891234523050894
-0.21143123303853528
-0.24245017213603104
-0.19825122294999398
-0.1998331092273251
0.9335364829377313
0.2319044674753361
0.27054774406486204
0.48547668109092745
-0.5407096796510247
0.1481639044364138
-0.28047298382061503
0.3091602285423809
-0.8993291289990417
-0.4420442933405593
0.2127475703586692
0.7745948756427299
0.09925692375045458
-0.8195651752097897
0.12063102812057158
0.20164159348097055
-0.6506150618754198
-0.684351002000426
-0.7533163722336296
-0.28083793417530756
-0.4611045960419169
0.09425122394987073
0.8135320822728687
0.1792442839773798
-0.9813674665934602
0.1754841872778352
0.5019942191462987
0.5059995164747946
0.19842479608987418
-0.12320678463115509
-0.32846134410098404
-0.3517040380709662
0.02113769107291552
0.8787780144496391
0.06638863345966528
-0.6237675779119902
-0.5192948253035992
0.874453524939903
-0.26874283618363815
-0.5517510030669928
0.31708383530953355
-0.31171548109261793
-0.11399071091875146
-0.44456811943488783
0.608027594912437
-0.41243530081318025
-0.12979660697827766
0.038613576129311156
-0.8849376968812996
-0.6161155557099172
-0.8075258761853341
-0.2728930498852027
-0.6540314033610315
0.9528669824237022
-0.31407471269832055
-0.7707723840487299
-0.29591567360323645
0.27415868243720865
-0.46073739201338193
-0.274920422035589
-0.24748222511787765
-0.29154545275882304
-0.6069967802542007
-0.3242431873529863
0.019170690439339166
-0.8408500154562453
0.4514266182273188
0.9618104765411606
-0.5374275444328664
0.5239419930727058
-0.15210215170388985
-0.6897298052008773
0.7544486807093223
0.8482609700914523
-0.7414307426020554
-0.4023383714746671
0.4304438981671528
-0.5216570087905514
-0.9637955336946173
-0.8979485296792944
-0.9245638557746441
-0.7691834223345129
-0.5056539877675252
-0.0973366304826726
-0.6681129068622127
0.15430293321543687
0.4651205442234958
0.7233528980022075
0.3365197637626731
-0.8395913507804946
0.8185428243166053
0.5315057026747014
-0.6886269632352919
-0.751717665938417
-0.7708512589358689
-0.3410623601047311
-0.2812804015197934
-0.5165931928790699
-0.18146912215832334
0.3524185049394142
-0.7802491163046916
0.3214090004421071
0.5653771164688188
-0.20641528121210206
0.03430960091129909
0.7441329150626215
0.8624423278778208
-0.06251183356173184
0.06910575656597473
0.36667379029549996
0.9504480926189107
-0.026001072894934474
0.2017671565617103
-0.693588079999298
-0.8656639370322357
0.5259283550360352
-0.8794375962763366
-0.20804599923254097
0.8066716457474965
-0.9438099717584367
0.705565950551825
-0.629377480802565
0.5837696063598181
0.8360687331630914
-0.9562699688397343
-0.11669431969880639
0.2557689061762869
0.7941778341436225
0.5011712954365939
0.6580526317739681
0.4310427521219655
-0.09336608675567115
-0.9459898383448855
0.6413366777659688
-0.07337748515356468
0.5494714696189429
-0.6216616514488207
0.8514364415389775
0.2883022063052656
-0.5940013344672752
-0.834953462540897
0.33205717755287534
-0.5403028171103941
0.8039451603325922
0.20922349364556503
-0.543513683819707
-0.5804993821763826
0.4534314160531583
-0.5121245837996018
-0.20589914570528123
-0.8432234778839265
0.5056345947380023
-0.6378246408140471
-0.6765341912518505
0.027837317517477533
0.5817841673545605
-0.8813259093680099
-0.024214392832575093
0.15226675789370003
-0.09087177415061509
0.3303226553522989
0.03818316264362198
-0.33572407934375303
-0.8112158057935184
0.175470102639117
0.45251403562339454
0.2706068656348497
0.7059799612840116
0.4509280793435422
0.9993492190680153
-0.972245020528949
0.44576696369346536
0.19386780967789252
0.4209758028351944
-0.9356141187397646
-0.31315447066973734
0.5986846036188906
-0.2609034428136243
-0.5787234227068141
-0.0793652315550708
0.8285744183457078
-0.6880580854190728
-0.0448872084208487
0.23750902170996335
-0.9257291413066548
-0.259318118240607
-0.4510039471374112
-0.28419110413991056
0.11068517608790884
0.017703054555406883
-0.4952861119470522
-0.8909414541411851
-0.23186023787427246
0.9092662424608589
0.18211068182652124
0.9856034349215983
-0.7386438547480212
0.6449482150772701
-0.0912886965803239
-0.7097942828021186
0.6291054596091041
0.7725647575126999
-0.7916515424363302
-0.15405137814544956
0.32441371548161824
0.5376871008333277
0.10495517958882239
0.2959481038002396
-0.7708565608053346
-0.30321836015711723
0.48776987319562726
0.1032359795333857
-0.8353254266247077
0.9493324077072169
-0.05984934305534684
-0.6438676493278499
-0.6561431269948852
0.0022780027504210043
-0.9841845076924238
0.7760590556954898
0.1788350596501349
-0.023998454042380102
-0.19072384465006098
0.26915489089263445
0.8510112025477794
-0.13825513057722194
-0.5673127829597662
-0.08650629472141125
-0.35782768039962054
0.28934296851403585
-0.2547190304075071
0.31885071138580123
0.5590770266241358
0.07150341799921289
0.732406753386901
-0.9681500400316367
0.2740145855673435
-0.9199864792527166
0.6203933503783992
-0.49861832657222704
0.747395194961006
0.5076667018169645
0.35299157373056667
0.04104985650758519
0.3551821400607109
0.9028097699694955
-0.7740370950689259
0.858532863274496
0.7041969811975339
-0.03367936962271467
0.37533245788631064
0.7152392128054577
-0.8086820955530014
0.7066220717291214
0.8442121259014277
-0.09567673629297246
0.4255738723231526
0.9904770533552871
0.5824459864507556
-0.26415391313474434
0.09278183578601906
-0.13194107989120551
-0.6168286809384447
-0.9792506366616633
0.42395627413861336
0.46155735109047535
-0.570035965871303
-0.9081481733327865
0.5012291455621827
-0.06536028814161865
0.2577063927279297
-0.48242388032934413
-0.5830413383236814
0.040191400557308965
0.018751700201083077
0.40759364730681646
-0.3820850908514293
0.8793342963378905
-0.4386772673706747
-0.07988350342316108
-0.7527025114880446
-0.7271025231054016
0.1265342091001831
0.7822878980649397
-0.5629810892102931
-0.3199923123256183
-0.7410223133470515
0.5077472343633036
-0.28207851019216457
-0.7072590288714513
-0.5619148675835075
-0.7542651260973512
0.8312358497413315
0.5451282722876287
0.43288754711209676
0.8475033610230507
-0.7359689301635393
-0.4779031420105744
-0.20102341445377592
-0.08012187120831693
-0.6330164163848302
-0.9670539476635025
-0.010090830214998903
-0.830245534550454
0.7076395013550614
-0.21909583616101846
-0.31276601594561027
-0.4445804177057593
0.07834496854820538
-0.26659396048474493
0.4883306190722614
-0.6832895859707615
0.26261154907432416
-0.4281028000254996
-0.9665011284686702
-0.3742378883373876
-0.9583724670991289
0.13586388181112596
-0.5719655775031363
0.22138353980972147
0.6544796020910064
-0.5672411073313948
0.293469283547626
-0.9675533754118861
-0.0009839831270768151
-0.19473304853205042
0.3865142360097995
0.30400011200928034
-0.7937690589568116
-0.6124071407983813
0.891673779380411
3.680784947457383e-05
0.6329271496050743
0.2062694163872305
0.48366408806083694
0.9033427203206543
0.756064069801347
0.6026842939723962
0.4997028619533481
0.25922292396992996
-0.06232779388866283
-0.7979510547398958
0.838965487646091
0.23386264901443954
0.8095613132040849
-0.3041923791805561
-0.947015952174934
-0.2072428459158857
0.7813492092483254
-0.724520940231282
0.41198378970841265
0.16406805586928352
-0.935238346717135
0.5113656598121494
-0.961595834013282
-0.6772778675243099
-0.8650181804826023
0.325620710667639
-0.1703508517435368
-0.39820350223704204
-0.015125281329082307
0.092943824243781
0.8799418801525705
0.16125720765144247
0.33260475494499575
-0.6280732719322466
-0.12606494392213308
0.8105134351578469
-0.9645292976819362
0.2874673779254253
0.13338609864626672
-0.8349599617979497
0.6551701464728095
-0.2807306826914133
0.14567560646191646
-0.12755752902980189
0.7895209953257807
-0.9863800897853341
-0.06055065907330959
0.5235931141391434
0.03623922883052755
-0.2712166290472824
-0.9146232103578718
-0.9725908832438863
0.7283627228723013
-0.7816466239525242
0.7854938332859931
0.2444652859099088
0.5858348744991677
-0.7871921567855504
0.9985696315784292
-0.11561759680797512
-0.8312117265749888
0.49203310170527836
-0.13803465676867432
-0.07340649877053895
-0.8108168839767336
-0.20332914622008347
0.9988013243748861
-0.5911640873478676
-0.6930580053226689
0.13697285846364737
-0.9748037693041327
-0.5050493956619415
-0.7663467814536895
-0.7761669413010079
0.4705594692411055
-0.5787708901163218
-0.8853245132417134
0.29061080405969997
-0.9165511483755837
-0.1006582393344948
-0.2849889771406695
0.43366182383508645
0.2692967251174345
0.2991396161043105
-0.7910569695542404
0.8254925508235407
-0.48228812779579355
0.6456125312447025
-0.8083913380575849
-0.6733365106315374
-0.5713673346761374
0.8255538072253048
-0.8327037044918009
-0.7525581854542114
0.052397125138440304
-0.5117694774492805
-0.5801063902073205
-0.8165641674516173
-0.3594664133673098
0.29851440430436194
0.8614843969830626
0.4537650756423244
0.3944082429189695
-0.026559454699152774
0.9104317555109689
0.9083210002872661
-0.9586430952184997
-0.13431149804837506
0.24373125042571675
-0.2668379956367726
-0.10516147539980403
-0.798998944227393
0.004913342918325236
0.25149508596673753
0.6732249476395153
-0.1514104055522656
-0.10414584705090713
0.7714013317277775
-0.9284420458908023
0.427675801887736
-0.8477162706871657
0.8633850499910893
0.02013797189940436
-0.7173806352273828
0.0838326079172198
-0.9562216832514663
-0.06886551040382005
-0.5449397820588318
0.1977398860793076
-0.09947631477582797
0.28099065345021934
0.25474524783320507
0.7663604140266516
-0.5067583900562986
-0.6770363803352442
-0.34984770800035325
-0.5240632817781556
0.25117103055766243
-0.9792725894911716
-0.16528436399160928
-0.4610661968699459
-0.9620048715620588
0.24916514114593324
-0.15891103048218835
-0.8660481253714232
0.9091007010150884
0.6175409418765709
0.3868151556933095
-0.07987626765978084
0.17964742411557544
-0.5904038088974293
-0.5219573652655227
0.995158163947059
-0.17499265406446374
0.5564313810344597
0.9267809041400794
-0.3951618200127094
0.5609591245682717
0.14497270946541474
-0.5840460975816437
0.7211553045904848
-0.999073225057356
-0.22518066250514113
0.736979617579236
-0.5992268440153583
0.3106162951843765
-0.3202445453218421
0.22831513994604302
-0.6046841505034959
0.4756647711048283
-0.502834297616886
-0.8031324561419566
-0.29098362309774917
0.8217208310569839
-0.026931789257651717
0.41861033174610984
0.8319887412009919
0.38401946839194534
0.17273806077096543
0.6329715626180312
0.912570364160479
-0.7023630587175165
-0.5501211028903503
-0.9965104700854712
-0.8959545674564555
0.12150993371096575
-0.156215267615182
-0.1831910799149694
0.3130368983077081
0.10300445163090388
0.08036218099719172
-0.3284039370514913
0.14951443190354108
-0.2307060106100709
-0.9652304327722991
-0.09298246002435584
-0.3159209915127479
0.77916459377616
0.8573359268399996
-0.17630864682416303
0.7810264539805112
-0.8018528252901096
0.5569621977842838
0.8266499074553055
0.5086206114166729
-0.7626847682729778
0.7667713115345658
-0.161498229307254
-0.5585045454785638
-0.635996328211718
-0.35976010801518066
0.6974155579606671
0.8739728464966299
-0.6175721508055152
0.46888543373239755
-0.023531823782534156
0.3133836826662879
-0.09275628770415145
-0.06320034387806395
0.2290798311802016
-0.6714284423015571
0.906355820300867
0.25477282625618325
0.007056260273140991
0.4439060422076373
-0.976772566702407
0.4960263713576276
0.1384479382173518
0.9087557462791314
-0.46042456634199014
0.36709657414250296
0.7986744351349822
-0.41042148838687265
0.7925719331114818
-0.9272087722391629
-0.12694665358504498
-0.4215246306575928
0.5615249101514426
-0.04322624356972127
-0.4221179495220051
0.2115296828388482
-0.16243887132438783
0.3150002737598627
-0.7454811560855703
0.8049401894392958
-0.9563583126832078
0.8263664319948676
-0.1264238760632197
0.6460084246951654
0.7177367650069144
-0.6357682320540483
-0.5833739208996505
-0.016569445402571548
-0.39370659408404673
0.8036148458704273
-0.7035213346317841
-0.9025962829269101
0.9863689012830286
-0.5167963657286128
-0.8597319485249597
0.3984572211608639
-0.28418636885548687
-0.8691391184625119
0.3676360207689431
-0.8075524003801029
0.23203707647750793
-0.4611972509012858
-0.75731208249934
0.3699519119068795
0.6970475304060588
-0.9520990944443706
-0.8038211020116017
-0.2140091268105293
0.7385695173051394
-0.7345615702499553
0.13059252319752157
0.3625148384973762
0.3174990914637412
-0.16550151366823673
0.90631739593042
-0.21993401727256967
-0.8485953053149935
-0.40824702475314645
-0.7864444163774764
0.7023678354722418
-0.602604806594571
0.28801817535235497
-0.6109549209250664
0.579525905357694
-0.42652095551857894
-0.16524788676697288
-0.5918822395989609
-0.20914992765929896
0.7986522826387072
0.7469190777592727
0.30172133278335966
0.13707135075570132
0.7229083070133147
0.0908918849643805
0.7801227380030109
-0.48572251208772177
-0.43361132063938523
0.6918516993296333
-0.5436653675944172
-0.8361403844725981
0.16000067486853142
0.4313522949263837
-0.09839323968424751
-0.6531202422472042
0.33116491353039934
0.5618445721698209
0.41641853880340807
0.4067984817224093
0.16583121851278326
-0.4189975483655508
-0.7782283312081952
-0.717427649510521
0.06020678952868508
-0.8246462208699019
-0.93667500424057
-0.4480633976011381
0.7820142818171318
0.6299361903346987
0.23191992995357325
-0.13193068449221346
-0.9746691552946134
0.16129231966940982
0.9556924970266403
0.8012975343696809
-0.36925800988484947
-0.8428754249404757
-0.3419740773810902
-0.24874010593689655
-0.5746352014462921
0.7110706336010437
-0.5597749722358984
0.7715579196001838
-0.8036536374562078
0.10643178392858443
-0.7458070278423758
-0.5727959093594126
0.1790780605205311
-0.9249146046697823
0.22892927238929572
0.11210443336460485
0.7779510583799412
-0.7199329409846855
-0.2837900142205807
0.2056748432728881
0.2576628573181756
-0.9926825218609712
0.49146958264429985
-0.1675736078773571
0.10743349627744436
0.3256947184975698
0.33421690011373983
-0.7349754978186227
0.5297185862413178
0.633264654908734
0.8105617904783113
-0.31297482411454314
0.07840948649927482
0.34337527271078194
0.30880692362015183
-0.9922304982790848
-0.058364360066527565
0.42623155518449307
-0.1508126054258947
0.011732256659619855
-0.8623724799119958
-0.02313911503884536
-0.9249450101855141
-0.34223669934743617
0.42592363155492663
0.9652850867553922
0.16987506385272777
0.6284396967068755
-0.7899102692197666
0.006228342677450982
0.21743025085124135
-0.8110091344924744
-0.9307677397850438
-0.749901890308327
-0.269019752229102
-0.49022512086319137
-0.5770965389548077
0.27132796743034326
-0.3768417675119231
0.22253091148884985
0.22657022497932133
-0.41689409212616835
-0.6128425058005127
-0.9728609090741913
-0.0010083283009230115
0.5713035051483992
-0.31286084306213446
-0.16203036829385753
0.31326813438832324
-0.2938045459501173
0.6559181341505909
-0.8397275509279143
0.5641510676585477
-0.16345103638888903
0.48992149754712067
0.2191745196387982
0.14121834743593809
-0.5150226616250253
0.9685588708489423
-0.6477931959588024
0.830262936775503
0.7837029366685702
-0.6139234816763066
-0.6002436888357445
-0.33410274302107545
-0.3170098809317805
0.9858824452285582
-0.232206887665948
0.5061432090281637
0.6291986250752397
0.25014581467415353
-0.05266684848818093
-0.7226380548549711
0.850302705028293
0.01693345172337657
0.751913297488445
-0.4915570554900026
-0.22212507096755774
-0.30196986162729367
0.08595854131722236
0.3123738160501397
0.49073300052090096
0.2702751754418695
-0.3172643565123556
-0.16848369780280037
-0.16572636938132224
0.7691466906516864
0.8244195419256848
0.0325792724168259
-0.7961631481750282
-0.009762071297886088
-0.013863539694483062
-0.31017898046929426
0.3679041440853812
-0.865389636066344
-0.6620839178207956
-0.8472363404785894
-0.4338943937808277
-0.9747533871944971
-0.2635810057197805
-0.7285285781722595
0.19550994769748975
-0.20159671485748754
0.10270415515343312
-0.6188117752384477
-0.28767034209070586
0.1357408038571768
-0.36030742026153684
-0.06964332250957139
0.8969808802199757
0.5085052245423372
-0.31081751672976266
0.9025826753573676
0.332015397191739
-0.06557981258025358
-0.7441853664925375
-0.10306842092112212
-0.909647925611824
0.27742092801835594
0.14752153542763424
0.5938697465069684
0.14980880057177415
-0.448676995102818
-0.22648753210917993
-0.716748724087523
0.3985074052975812
0.9983090921673567
0.5033842591712103
0.9290138759983562
0.5677196899122656
-0.9961875750474387
-0.4172431100075058
-0.8125559751551032
0.3469172136159686
0.4806094677061714
-0.3747548096460067
-0.5169268053846752
0.757849720117278
0.12883613866446675
0.26202613379779804
-0.6134415423190591
0.35613183734864995
-0.5623050608286344
-0.530815104895821
0.44378241463717516
-0.577369693537644
-0.24148697793448703
0.4259241300383434
-0.003400228285238782
0.96122629660171
-0.5970415474649615
0.8764793373515647
0.7569279128821258
0.8643317463730624
-0.7778902761358255
-0.05205373802782165
-0.9896166672975266
-0.29461716824704043
0.288214844903411
0.4645738718177721
0.5032555732678166
-0.7546786919902033
0.6777174584526071
0.6150685959916009
-0.1498504261397684
-0.7013361542972794
0.01784695601914743
-0.6391547946432605
0.48279112500165855
-0.5751900038338513
0.10380812422527952
-0.6728890005917407
0.9676702459341795
-0.875299393886743
0.55587671826048
-0.9981564162423746
-0.24853202136441843
-0.6814547239168447
-0.5021687267782138
-0.8609007731911327
0.40522917593022845
-0.8774511330061419
-0.6303805726091258
0.8557343616941313
-0.9686195304073733
-0.7911505072133731
-0.8338787698916992
0.49209954566800507
-0.14656124532460635
-0.7089892988177995
-0.6714856373410796
0.9402375086688326
0.4551095865365462
-0.32347963262736146
0.5138828515668181
-0.9563209312455385
-0.6158008369081591
-0.5377050944588602
0.4807123668664304
-0.84824784727883
-0.9998103442595052
0.6308152934923872
0.8057798508841025
0.8987065307308284
0.41201036288813575
0.3200915144388776
0.14276644903899705
0.6770117372168343
-0.2785682516275909
-0.7898233258327558
0.7802776065860781
0.548048433762677
0.25897798319744236
-0.9722299369331744
-0.8516702098488917
-0.7103496435544243
-0.7856231298985625
0.1464706108814946
0.6021657649588936
-0.06546172009229645
0.9672962383261521
0.5336004422617053
0.5236181780370137
-0.547125215096403
-0.6937121289381107
-0.9625919287588622
0.8607809959187578
-0.9129414370045468
0.06867852483038694
-0.10466049383932718
0.7517159029864537
-0.5136960236718273
0.5114621200225682
0.028224388995233607
-0.8529527338695784
-0.4927718981964675
0.9961148079556938
-0.7771484649532758
0.20074436010636587
-0.8833543495193139
0.45255594259074283
-0.5600623821683675
0.44896503231164475
-0.9525254088644863
-0.2829769812105962
0.7971167566890611
-0.4841420923012838
0.2254340907480301
-0.13243698541419846
0.9490270257105398
0.9119319664105774
0.8638908734597763
0.8908259335640776
-0.4412464241572156
-0.29308039420147614
-0.32955600835814103
-0.26394624712747805
0.14301951996214268
-0.06699340759697159
0.19418543609332262
0.3894954878341401
-0.02191791990966907
0.024582347749024125
-0.9032562903086063
-0.967578094006027
-0.9984220792022136
0.672609224817164
-0.23032763842961756
0.42408808316693225
0.9594445068381461
0.20045524782105484
0.4504068110932131
0.21058583620209892
-0.49940553823358314
0.4314200069604417
-0.2427024951687904
-0.9251491766460687
0.7067720572139895
-0.6581511036771779
-0.038397468852443106
-0.06486232407960557
-0.052295903443912994
0.2902564438306856
0.335030726989346
-0.4010275829458787
-0.8619125481646635
0.3081700986491567
-0.07952347338710841
0.5447915629739988
0.5516522515721358
-0.04286548648312527
-0.4076013867807886
0.23754744189274457
0.5522369558119657
0.6759401068416586
0.5052975317202879
-0.1758078430401524
-0.29872798581220117
0.5978427433193267
0.4275136979157921
0.5231330275090385
-0.46944674097185923
-0.7774851361896884
0.35655714550711326
-0.8869462695772476
-0.5043774358259534
0.9429934227580492
-0.9676149158910621
0.1580136200297655
0.10998767522820185
0.1269634971331315
-0.4074072445329753
0.4973948744005139
0.5648338443711238
0.4417644855187022
0.2920305931620726
-0.4578164793178072
-0.11983205356911752
-0.3517761364366525
-0.1265933464891129
-0.19152950200277896
-0.2978303685620052
0.6915496051991923
0.18558794851302074
0.6262891212027981
0.7867880592375698
-0.7395091688510873
-0.23867555513933314
-0.7284223439887203
-0.3724019224969348
0.09790315255853987
-0.7637229851000811
0.3522923947718588
-0.9868994063058543
-0.37184708972965286
-0.1893276440087095
-0.7940671140752742
-0.7498962659023443
-0.06398241275644412
-0.1570004912093208
-0.5813693321770022
-0.1572742157332785
0.6767835859737004
-0.7390860614424049
0.24475682543786093
0.5552488446795649
0.39693326705613075
0.779190583144026
-0.20126970651885912
-0.5913957725581536
0.26289232659905104
0.6715354400099551
0.8838613543327094
-0.43001367871176677
0.2070064653689283
0.5291973572268556
0.8898028042035357
-0.3761773080699502
-0.8492970767803492
0.8108563297099605
-0.24443077532905932
0.9117586979418868
-0.3842497254679751
-0.3873899408086283
0.7507922139908201
-0.7448060246761741
0.02685377529563615
0.49933100132565644
0.762177818860287
-0.7570895780238556
0.5043781355447445
0.8333329330480641
0.10299948031122708
-0.019627373974409945
0.6212211798673049
-0.24916345094167958
-0.010866490064308731
0.37100061470533463
-0.6980412283795152
0.9691360130099513
-0.7633589381126922
-0.9490683915841216
-0.9056552290342412
0.8282021061918061
0.8080991506105482
0.9588206767773115
0.5924116365551115
-0.5243783779791618
0.39342026551528986
-0.41430885173229814
-0.4623499201934649
-0.2347268521992425
0.8979519758819845
-0.6775614405866002
-0.04235179857248639
-0.2205692096503198
-0.21863444572199264
-0.6118366880590123
-0.4774979675225044
0.02950839538226635
0.6598911197457156
-0.03698421796167839
-0.25875693571130776
0.9392983245566779
-0.8057513017549849
-0.7866822042576789
-0.6413628009035384
0.30216192686140153
0.5855924520446003
-0.9396592584400998
0.19977508883981154
0.5219772548592345
-0.5551216837491271
-0.07160945273913888
0.13408604436677285
0.7763903874008462
0.26071474200071143
0.23607903004435937
-0.7378593963946711
0.4359699743611294
-0.48446501435999245
-0.8334010899421946
-0.41328482886427786
-0.7533155585257354
0.9520634836258157
-0.8688074475084109
0.511365062694018
0.8548427543827499
-0.3450408657811086
0.7179680527307188
-0.5195720214097654
0.8835827027618417
-0.46737125150316805
0.020165138633637447
0.3107674573794401
-0.46153292833202086
0.6073270815944398
-0.8465690949293756
0.07074154735312232
-0.5666244297233372
0.4076779365318337
-0.9524395571560162
-0.2116037542997493
-0.05034557452920496
-0.8641740872522159
0.12713400467851055
0.6204708186018553
0.4515021210065904
0.44069820117312464
0.581517975834795
0.2035708188326093
0.9310900149434238
0.5598517862261108
-0.7070408335226142
0.3879409428811673
-0.6053801723885215
0.9449654930956912
0.08516593581504495
0.8090071785385282
-0.36920081312031483
-0.8022411914021403
0.2543581069508465
0.48845730216575745
-0.0870727822490216
0.3545235466798251
-0.8910068700921889
-0.04259108321589422
0.7529845127277639
0.9747337282466242
0.7148784551120482
-0.8074101784684018
-0.4240625155095641
-0.6619689124833736
-0.8105003994820172
-0.37976575294233994
-0.23735405800154452
0.8858366780970637
0.7705629452614666
0.6379546272060899
-0.2600327510101572
-0.7606394310406648
-0.6223441977226516
0.537583422010657
-0.1640195949585519
-0.07707136348269139
0.7047140006786023
-0.547648925586304
0.6495436438326543
0.5583850848020009
-0.3895629618740377
0.5549950581852874
0.7101176726544269
-0.6494254653643738
-0.4436648468590938
0.43336754828917323
0.54936430907609
-0.3599412759363698
-0.25679319065800277
0.7503598490130541
0.3640180877312946
-0.21076064578702258
0.9904321265264053
0.7132683267888287
-0.572904822826241
0.7006109387607709
0.8793689742315569
-0.253201860921896
0.6368432710473184
-0.011702739748608249
0.29443390987948614
-0.96615202578816
0.5261385301287858
-0.7831206336608043
-0.3469775865256901
-0.46591342012526393
-0.8473346558399897
0.4209261925421841
0.14689100034444857
-0.8246947884670937
-0.6483884295078657
-0.5407316034964178
-0.1865225160860764
0.9975832673275771
-0.22932207054983533
-0.01276038595117801
-0.3277088046311327
-0.3405156363817239
-0.32958505053065346
0.33035246112834127
0.6294444560224999
0.4467348357394021
0.24124566576982032
-0.3568676380320719
-0.9637990948918593
0.7402631356852571
0.08029709168839294
-0.46365469413939286
-0.6753975712660114
0.0770686530758522
0.4591354220801278
-0.9736842534279606
0.770229848539582
0.6580029639753995
-0.26501567535251835
-0.042056428394027456
-0.08709771654652321
0.7953484679163114
-0.9788833043721248
-0.6779706261900158
-0.5318812008525682
-0.6125915547556995
-0.37874980860270213
0.07885071787492581
0.2290244440667475
-0.32027982230888763
0.881026506001017
-0.11626261717919606
-0.8014446173756864
0.8698617462489584
-0.8004028075479408
0.08119580420166805
0.8135503397702317
0.16927498787751505
0.6988454679059024
-0.17827962622779725
-0.1296174166223576
0.28534326766045104
0.9881900753880317
-0.053040937030156554
-0.5298537861828501
0.05290843407859991
-0.6005772640696585
0.024978413602835037
-0.7100059579882898
0.5595687361478403
-0.3914240999048373
0.8355171293967674
0.08250306370993266
-0.7485130186499545
-0.4337142314178146
-0.7858596752191687
-0.8647025637652745
0.246616015584036
0.21879368675032396
0.32697941914744244
-0.9854290483578532
-0.23449171001046332
0.17666501228828135
-0.4731151009422716
-0.8257601061481816
0.29437940926388206
0.12762757355226473
-0.3086847541074036
0.8878139687792768
-0.14048634574248364
-0.711391045581315
-0.32301285204663976
0.9780997300058061
-0.6218194843876568
0.3664281491891772
-0.05203660211009575
0.9211255170704271
0.633022869178977
0.5730990736309367
0.9006376960003024
-0.2657468260248421
0.09717345547190659
0.8476385443427945
-0.5798425507432785
-0.05255276081339022
0.3850568188552912
0.19235034239719484
0.9761361757275866
-0.274061675401408
-0.6148666557744138
0.6598241342285389
0.26604727018289354
0.10384793685429594
0.09030444017765138
0.2646702920705304
0.7875903546459839
-0.1455958017390402
-0.6207873707825895
0.715237799345934
0.9219287087921164
-0.16673928312087805
-0.019364924738059175
-0.41065582511395204
0.40335641053268323
-0.7222459796218741
-0.2168572933771784
-0.12007817147995903
0.5723465221748412
-0.29518655300143015
-0.7008806317555818
-0.5443108180876557
-0.528507824098255
-0.9353814380007224
0.5309921136772318
-0.4436493508416399
-0.3541200841637995
-0.3204171449749924
0.26777235325159365
0.3187072271682263
0.14025824950663046
0.4499261216561763
-0.5140205592109124
0.09355270639179225
-0.3523066974147173
0.4412331414803059
-0.5877090131620684
-0.33867587336723637
-0.9423164811828324
0.3303304501615316
0.2336834372631469
-0.745246150741746
-0.02362621640863094
-0.6595736083186081
0.33601197013120276
-0.4082005225190224
0.7294365548407251
0.25003995050966
-0.23516792047230495
-0.6506718557608593
-0.6389370536612142
-0.6358276160700558
0.9532612301025583
-0.04360032998201069
-0.5008241963322886
0.3106637941346049
-0.7075883146281456
-0.21094126215927722
-0.7040656542730028
0.43033620921367643
0.5320481153792882
0.6015625935771138
0.6635170762570419
0.45686114279343126
0.7449296501697058
0.05122980039648084
-0.09541780571719394
-0.25659141656444917
0.7778652416843279
0.01854459474779513
0.23494572300711503
0.4883468453561346
0.5258096516923769
-0.884911708983231
0.25984532088525225
-0.8709879660260611
-0.6903435932932458
-0.5727107861481238
-0.6119428062250472
0.5944131322720498
0.40481755736507763
-0.8406127651942985
0.9615794359356007
0.4531895687049523
-0.7461729824576802
-0.2957105935033928
-0.47232544068549487
-0.9768367578765709
-0.8922182221007751
0.5026976200152369
0.194758653417493
0.8033642443500195
0.3453198896596623
-0.9618361890753355
0.7942243462899117
-0.4906949765691264
0.8739282997137403
0.5414290718861972
-0.7300601920215739
-0.49785884651471024
0.22685382091968775
0.8026181048907399
0.5248530656033339
0.1848881146528618
0.9765553888673248
-0.20987409522196487
-0.2956326079616871
0.2576294383010531
-0.3835412310004187
0.5603840450443742
0.9443468816729588
0.05159898226442472
0.8783410276317116
0.31858261254728926
0.4146215654744816
-0.5008401652712249
-0.46746464795861287
-0.21351607413897478
-0.6767549840782496
0.33171172731299525
0.01867714032385459
-0.843484569504678
0.6997166943611608
0.5323415100671007
-0.00328036669920051
0.6819665578211456
-0.21485756572692605
0.15640020961640833
-0.351198242008145
0.08297839636008386
-0.5324533680842656
0.8827648874629901
0.9133507283317364
0.23126368009375375
-0.1838646887657467
0.6411738227647028
-0.532464725425629
-0.4512254013642003
-0.1780128018635201
-0.9803374152949702
-0.556324368629407
0.6725843852527427
-0.03658463365723019
0.4439233930241375
-0.7317710418273342
-0.6199367736184744
-0.2800915517636382
0.7769877052268557
-0.03716705063555281
-0.8052901132381611
-0.379932179667386
0.6832331879400582
0.7173601594551204
0.10228148591645536
0.516969608890373
-0.5082339721731519
-0.731710946606076
0.8254985376043109
0.37697862413042826
0.6844678998010343
0.5000862194216522
0.3816806767901455
0.10641330996923659
0.2568337525079303
-0.7293417477980055
-0.4822550880099754
0.2458066093407587
0.482586151992481
-0.8046157411773176
-0.9847121209243541
-0.49711827584230495
0.8651395772738126
0.9867623384334201
0.0631021003256016
0.42597241688256515
-0.09253431051991012
-0.9974143215155784
-0.9575201006486451
0.49677420437687503
0.09815322991246034
-0.44829486430511767
0.24134565134479846
-0.906796798254828
-0.8086264567899677
-0.7852758006246094
0.9480812399256502
0.7011550317493662
-0.4713696397081113
0.44737025169202926
0.06548510494356852
0.8905107269533119
-0.623908490183787
-0.9399265874359457
0.1276040646771721
-0.6156433328489592
0.2846329883181853
-0.4199904388681577
0.6705831234222179
0.9451124862408711
-0.4004818383375546
0.8820727863958107
0.13004425470880054
-0.8143118091557637
-0.5080948224538311
0.5446329507655474
-0.38075921197681284
0.03491848177640611
-0.9291563191301211
-0.9623779973114819
-0.2541104354591053
-0.6169253862464841
-0.8775397659111532
0.2796550631028061
0.5733676212231689
0.6366304168886636
0.06439043726117522
0.6567021592009754
0.9153188933022376
0.8560942018983164
-0.3990553110917403
0.3306242137911328
0.13537862124516864
-0.6294302566988108
0.44904362786103325
-0.8517573303574035
0.08288216792030334
-0.9925417323514454
0.8948236478396474
0.4843581130776107
-0.4418119522221182
-0.935133031107749
-0.7946462539818235
0.11447953877268091
0.7031718162404972
-0.8482971283305754
-0.9010743800990353
-0.7653616581326304
-0.5239108702019823
0.14258526885620082
-0.2806724884943863
-0.5907444208808528
0.06704166201310646
0.4419225038636525
0.13463430026314405
-0.6576180154008942
-0.3060925755710979
0.059750776671750216
0.7351944528775698
-0.08939801590332541
-0.610669840903652
-0.49577915997635236
0.8356443119605996
0.6125250308696908
-0.7457977299433591
-0.4724661185372041
0.06796910254273136
0.5465534732439472
0.14858777329448958
0.00441024132437029
0.224654690738058
-0.06677945150008702
-0.11729582080580503
0.3493736126909608
0.37733791958681073
0.5661839493042515
-0.8305897975134007
-0.060159473583141665
0.5660912632511765
0.7577357100206414
0.3232687959772298
0.7731724768429626
0.5842058717522143
0.2585729217487438
0.7648383009754156
-0.003979687139026966
-0.7845212911322201
0.20513261884694223
-0.5841694457301678
-0.7682428647846116
0.1928644102888475
-0.6196451774588718
-0.15987429741738746
-0.43926287407104203
0.14340784737405787
0.9800983823525444
-0.4862412014291959
0.8846341636091581
-0.08839688603950457
0.2369670295402997
0.47286406399919034
-0.3177707300009316
-0.9682564642941875
-0.31484787847630336
-0.6428909057199972
0.809555380657994
0.2323846710804054
0.019598049590935362
-0.1400257386272179
-0.8361214481786909
0.25961738428330206
0.2243795291192019
-0.4478368325977309
-0.10735785365763473
0.4241168533491806
0.5815351052363655
0.8932021321906598
-0.7738239839361725
-0.7151955316499872
0.6405356333944243
0.4657137281573689
-0.08912881536413164
0.29648691278437256
0.7862456496830321
0.5711367069820659
-0.5364469467438049
-0.23603737835518235
0.8255274539657047
-0.20736597046127692
-0.3776820671575638
0.41114654614551926
-0.2418031709242472
0.2964325551871161
0.44771012433672275
0.41758949849558724
0.12763258470256056
0.24787908826372673
-0.12693038075620744
0.40232494643623773
-0.32105561398909077
0.9756191592592851
-0.6251532645307727
-0.4742496386368884
0.07707953577039417
-0.8166657641504793
0.4014907052046188
