weights_cmbo
0.09782790201873513
0.427635817053847
-0.019163763325671313
-0.20374868223948736
-0.48545618144369346
-0.23812487281427464
0.1478327151100613
-0.021057232190046824
0.22908325724181033
0.10652034851258914
0.030307242417846995
-0.1741363010318526
-0.33301936770610624
-0.24125357984022167
-0.47273161369464023
0.05950028943830457
-0.00801497146663827
-0.16491393474682092
-0.13310008940491552
0.09732008291746612
-0.04352836726791405
0.04675857364362318
0.15541451687311664
0.2428178644708059
-0.2694075186327381
0.4428755612531072
-0.23302364489822075
-0.13386833369712337
-0.13618134696747566
-0.16387307995345507
-0.05333354496168629
-0.37925607132601485
-0.22747352929781733
-0.12384651443602342
0.4742005188584836
-0.24089205478873157
0.3805051819940278
0.3531721706941521
0.022967036712558037
-0.09253201615322827
0.21719321821649068
0.49311435932482917
-0.12396708139322365
0.31572954445843004
0.4436147844926184
-0.306768111741341
-0.28032829963608424
0.4726495896542214
0.22055460260272347
-0.09652004353433838
-0.36384650902629867
0.16656460677876755
-0.6196905325048928
0.2267693339522883
-0.00950864889149158
0.20405257848652825
0.29196863487042274
-0.31264046441979365
-0.1916870288367763
-0.19417049696931615
0.3996925972045732
0.07955814548389849
-0.05863889414010101
-0.11783374923234269
-0.17283645978011772
-0.38204868693620464
0.23810587176258446
-0.025949546707665975
-0.1223777999715421
-0.16594546785261552
-0.2925286005581786
-0.4337939216900118
-0.33813167019373236
-0.23059321977574238
0.38598393605682785
0.09837021567213484
0.10482720032297531
0.2766367932755228
-0.2501401929697322
-0.457795067896298
0.14539653668207317
-0.22116557987085741
-0.5484342445148721
0.40530085573339464
-0.2367159952440911
0.14339337929969972
0.11194733235610049
0.005314270153007441
0.313801914506739
0.20858971437411794
0.37100097102408236
0.03281172438167698
-0.3104275404862848
-0.23077710895346254
-0.07529988070735075
-0.24904147899726656
0.15291691126086057
0.4988356076369944
-0.46255738407251235
0.48349632830502676
0.21998761836189606
-0.5721413892991487
-0.19289636918818254
0.14644258455870246
0.2088924032201956
-0.30933532521584683
0.3377517375458694
0.44410156652259297
0.07833405541921597
-0.10273191931788925
0.2523014533871208
0.3867155208027964
-0.38011621512427385
0.11595550214125196
0.3689817470508235
0.3505430825894781
-0.12046993738869048
-0.1063095872432846
0.12741235371944
-0.25256004953295397
0.006162915642143414
0.352912763172389
0.30966466746321075
-0.020497750486493396
0.503910743941181
-0.21686289161399783
-0.17757798499196234
-0.3738773872006823
-0.3956762503544161
0.27014573714061085
0.18992224846094466
0.21660664162091595
-0.25562908977555726
-0.3861236433916275
0.2695700555986025
-0.3016276020853989
0.21019769837443994
-0.4097969082672714
0.11465710877749988
0.15769154221079318
-0.1553422547049118
0.4759251159518831
0.3975326170789785
-0.28554669673655597
0.012795551808762483
0.07345706287711135
-0.08074577336689179
-0.2909424536590293
-0.06498962956143402
-0.05450864558115974
-0.1910573230939826
0.4694425742411163
0.1471946796978003
-0.1415784740093422
-0.05854911989987203
0.029517619557139312
-0.3536152436191552
-0.11753747759206869
0.4562623152654359
0.44338984790585745
-0.014709681258830268
0.11473659418925346
-0.1330444453934214
-0.4064142580008034
0.283618442977879
-0.09352603083311621
-0.36921492704742437
-0.09472533250423058
0.3109880085316405
0.04875368780961585
0.24227740911886617
0.5317782196291282
0.30251889750290767
0.5028140530863923
-0.03542219144946983
0.29533856335410325
-0.3249713513314197
-0.2835973101337874
0.3094681129431003
0.38472077218778095
-0.21152607696966308
-0.5817781735068152
-0.4620553123130572
-0.22744851025491367
-0.08164470286839912
0.4668413000207785
0.10989038236295963
0.23633967240266776
-0.3894939030752242
0.4927414738882005
-0.04342896861530679
0.004074731903868354
0.003870317194650019
-0.12980152399134848
0.007001321105773243
-0.35795775171213295
0.18089238513183176
0.2527753086631398
-0.4488290899633579
0.20842883599821727
-0.44422356272898045
-0.16827567583407424
0.39021880972821493
-0.11119367176674494
-0.18345522912243015
0.05457802439462638
-0.4859842268316079
0.2142036129282513
0.29416031593899694
0.279125378359287
0.1915499909405997
0.3388304396787299
0.3230524044522715
0.05715418841597229
0.06154570677063738
-0.20817620042118098
-0.4280610290970014
0.4805764751300656
-0.20793188133764903
-0.49527475540496035
-0.2926470054812666
0.3895252548113653
-0.07914224174575094
-0.21199731037017405
0.15647989270780252
-0.2258509945595827
0.5468130488810212
0.19110293265356332
-0.22368075211049934
-0.38784081724774044
0.2514358627989762
-0.3428044078854857
0.29414670381246755
-0.22274012377270944
-0.37061053125176885
-0.07609914329296182
0.23284543093984036
-0.23078032999304796
-0.09623066221808194
-0.17169779277658664
-0.0623692391492854
0.3019755151930259
0.2628003217799571
0.2877167902749836
0.09439900094574655
0.01082112182896029
0.04445744013265436
-0.1238138987852267
-0.25954842950959317
0.18407400605860727
0.2128972091713857
0.12922473605932636
0.05595426669346354
0.03909698781524943
-0.09138478477679889
0.18500572598652767
-0.3529696315083263
0.2018984191353326
0.5582795963834648
0.023679296447561293
0.007146139709796188
-0.2543151682503698
0.029976600935295267
-0.20954999095102464
0.07602999948969485
-0.026471735912091756
0.2052847234605735
-0.27095142199178873
0.24446509707215866
-0.4672066213039053
-0.34647792457769827
-0.3586324021661849
0.31578485332372747
0.28624453719221854
0.07937027080595851
0.05543716906254948
0.33195092707204754
-0.013098282783693802
-0.36976217680642565
-0.33842633394086963
0.36175222307977645
0.16156371755706345
0.5306585433729946
0.002029772078023672
-0.3004819428947703
-0.19302700978797802
-0.05129780195563498
-0.25184204165272595
0.2758968460205813
-0.42491669304645713
-0.10963494172440916
-0.3372681877475976
-0.1303335641480858
0.3160183705284377
0.009467750650494577
0.22260746026108116
-0.5419761441000364
0.23843344674297332
0.31132182944013537
0.20322995095569957
0.05296117739687687
-0.35828897956384737
-0.30697049338880605
-0.19958461845604245
-0.3490540985350879
0.20491473594642345
-0.12487655401274791
-0.053864295886596456
-0.2694429321187121
-0.04952193412433175
0.24211509974846904
0.1028090679822404
0.16445311775210078
-0.33273521543354817
0.1175485212266516
0.248306502145202
0.11600843701185648
-0.36436033221328085
-0.2596409411695359
-0.3553127775086603
0.290138213000801
0.16009563057554796
0.05835515494341492
-0.41858470307115014
-0.29043393078612123
-0.17884783545792526
-0.016903305137327657
0.44603035264421653
0.40861844817465826
-0.15332956983520063
-0.1793756492088373
0.04072547611465459
0.4683012955861174
0.5725879457626755
0.036891707572071115
-0.270932523142053
-0.13423142966009954
0.3847193019076595
-0.3269063819133158
-0.10038820139643989
0.06568180517154408
0.01582091643565075
-0.0934165097523691
0.4404366394367235
0.1359632317873893
0.30243161106578775
-0.34462418613835616
-0.27958649953292763
0.14839543343312145
-0.2878743121703912
0.4609157467539762
-0.10621046941726682
-0.36845820105288346
0.04435362386054065
-0.366374340273424
-0.15061851080784125
-0.3365741425277598
0.4310452136138802
-0.19725828405053572
-0.10592299718381674
0.6022441853192609
-0.2184450469630432
-0.2679490775912241
0.18335528790875322
0.10434927961524966
-0.3636786447068375
-0.3227854814122271
-0.3576169665467572
0.3290294487564211
-0.10329498367900813
-0.16898268517570883
0.22973571357278136
-0.44199336988065374
0.4510075463277281
0.20103021933876294
0.019204003003115925
0.3153005958623452
-0.15627954583224873
-0.5111453965998706
0.18093700704577811
0.13571770800322214
0.5167247984446888
-0.48283816331730445
-0.026629795015277884
-0.057919374138088536
-0.4922913000692727
0.013165122574619898
0.3394568041279723
-0.448128624526229
-0.3105167141929529
0.42551248706393613
0.2252757104692371
-0.03568709233325379
0.382042195439957
0.07988705278922505
0.12741677842679075
0.2646188610780159
0.13548450293702463
-0.059669119476625385
0.1878848436934605
0.4542007366803658
-0.0013071249727187252
0.2490148048046824
0.30102335960875126
-0.21029325214824973
0.13035942718013024
-0.3414389191647919
0.4065436064730167
-0.11352666951015537
0.11124678923046806
-0.4845203058430688
-0.2302000369123525
0.4042058596019121
0.005587946412914458
-0.30511191879211313
-0.15483446201190115
0.12042110187214142
0.11395989298404294
-0.24782804730448524
-0.11712927227062163
0.23998713172288322
-0.09488332105275839
0.4237586014849352
0.0023178079584450137
0.1913318610883462
0.3254369422330713
0.183417340956564
-0.14451585578675116
-0.05104507969407337
-0.2423573027134208
-0.3943167059342943
0.16335639590658135
-0.21270684667062667
-0.21207299301945068
0.432679487392237
0.23735048252302504
0.10133578348748548
0.22818316338964703
-0.11597238125547155
-0.1647450563891536
0.0406441593013568
-0.10087204413035343
-0.41001318018670585
0.004043992057358524
-0.46544733834168495
-0.33756603780451044
-0.07835244571651613
0.0873482690330786
-0.2064085487629059
-0.42483463263832255
-0.28824498419768496
-0.17900948073690567
0.19341752619496738
0.34457979893273355
0.3415005383518266
-0.0495388497940813
-0.14986275515386188
0.437838253141636
0.15381999752314474
-0.10602161595450367
-0.26241060444373193
0.20558164677333216
-0.05642589854469923
0.32865647455066893
-0.533081349094042
-0.1958484390788255
0.23917818470320312
0.23471202342512423
-0.22068696004925714
-0.25625547609492044
-0.4703095337315931
0.120562123362145
-0.23710549363744035
-0.0328490216869318
0.16111492920701967
0.10239637907086888
0.11728935268839144
-0.12723339233795852
0.08992897209747162
-0.13678700702547497
-0.21791029372374635
-0.1318233890288032
-0.3093512339563302
-0.555143757933189
-0.1007278066092776
0.48389244991651265
0.15062794901060686
0.4308563201703307
0.14036956411229748
-0.44890629033165064
-0.4683297004941384
-0.14883373448148804
0.21285778237554287
-0.006829415329230001
-0.22244599067429172
0.10131044868473109
-0.2964446662253434
0.14423204456697375
0.034121582581470765
-0.16808144764675714
0.13583453209306162
-0.30112781072821665
0.2744689694621862
0.3899574861693148
0.44235074799800206
-0.008715831541277422
-0.30265205485212265
0.1278108863374611
0.42700439201194934
0.3256822088870002
0.02981305020167253
-0.1320247390330257
0.26273593285279684
0.3346926692082341
-0.04325739612672408
-0.4048402973696475
0.08532492529228664
0.06806561051856734
-0.3624305866200805
-0.4238906121624822
-0.3756168436119123
0.09844760691065253
-0.39330500019831505
-0.4070034446028683
0.33771619737992253
-0.11938008292892316
0.4563761447947648
-0.3724340340549753
-0.1740101791443509
0.11014643576784301
0.4131786294104928
0.16783787210842438
0.326955895831426
0.2501419595690449
0.10952057249150929
-0.37808384901257314
0.48341070094540434
0.5467762618197509
-0.1479850369530853
0.2646204458834923
0.47252552037802426
-0.21031430577151716
0.20244054039172865
-0.25875833656120517
-0.16193408976029067
0.13308965660072744
0.510005898944884
0.24765870177473134
0.34785924051854233
0.037107741066653294
0.25809648618266073
-0.3361340468183715
0.1137295266363368
0.20887664554457794
0.13027059620602427
-0.2236019565143978
-0.14728453643075062
-0.3199483102005037
-0.3152895324512658
0.1975875132786579
0.22294899953737832
0.3463883101899587
-0.40263261301704023
0.2147038367432477
-0.05010288142626148
0.021962850579819615
0.19786817391482295
-0.2556241430064387
-0.14750595822122103
-0.039767736983088525
0.3014871404809763
0.11044868303829511
-0.27233690786854614
-0.1207014993472097
0.232666329623466
0.08743456697955765
-0.16387640495126232
-0.3495170570942643
0.1476633812342396
-0.00787211797592192
-0.5278246948064628
0.23951876619048812
-0.5881568368542721
-0.5474952124018686
-0.06446436742774456
0.19029745558723438
-0.3270540268936002
-0.11231977827764887
0.2870119044914651
0.31734834079984947
-0.27790047842149646
0.25792684599581206
0.43975304600327053
-0.15188843263519655
0.026264102992070566
0.47081306681938556
0.042901622327677524
-0.201564847142444
-0.19780637194138412
0.3252059147195138
-0.015879841864330998
-0.4765097187171828
0.3358569666137735
0.03086109412258923
-0.29586794423994356
0.25746582748319713
-0.020291207005148592
0.09769590091336527
0.14144976725494152
0.339203572312676
0.15004099566390575
-0.16216177077227745
0.263993349815433
0.22484465900480036
-0.06602001738056457
0.31653468758723624
0.2107407351740532
-0.07952328572249662
-0.2448734617774428
-0.09601937735858701
-0.17370483571695788
0.15245078771625326
-0.09948693731200581
0.07325672698188009
0.3011426399995125
0.25937403522295616
0.016976994603665932
0.3993341960257772
0.5646594970690902
0.14226808492538512
-0.06785171938497951
-0.19818984073055762
0.3868276977505358
-0.0032139401315995223
0.307691303783
0.4570597818455536
-0.35367631670231214
0.2887972197919021
-0.3412706384146632
0.4479426732893426
-0.3364612545142892
0.6265659497469169
-0.10784508963928707
0.3229391895930218
-0.2938740639512549
0.21468171445809672
-0.07612710150304186
-0.5031400580113774
-0.4528142022382685
0.11180745562906512
0.31003951423113374
0.059220544848233
0.3780805442707123
-0.4298970479756266
0.310518512378751
0.08501659373221804
-0.4100236638424696
0.39173619194368997
0.2420091644435249
0.19084842674018018
-0.12310475330077701
0.5059137055656225
0.29429273929852845
-0.3434955423243354
0.17481553022203616
-0.4810910483983282
0.4613083002863855
-0.1774539438654045
-0.04277228642257963
-0.003489876929349767
0.24852443431574522
-0.24927592613988286
0.17652689754367457
0.15744627899124225
0.3716098647744761
0.06637523623542638
-0.44722268202988646
0.4726925122852055
0.6514716921906643
0.14819510169612374
0.4081965589571383
-0.014507793017507925
0.41739249923701965
-0.07278958540647612
0.4414227653893757
0.6494296365556886
0.2681736406566888
0.17723714225707635
0.3198055454657771
-0.34076038220928784
0.44238468226520644
-0.3712129563554198
0.4961938313138873
-0.2561038977862838
-0.15683251023230138
-0.4113566005881955
-0.2185975294389303
0.18644742114708265
-0.3299945130548313
0.25814978321858334
-0.44040398039468376
0.02267318279137248
-0.23835136053708508
-0.06618431881247609
-0.12022333187768142
-0.44840848432278685
0.3475545887117802
0.12641090229397392
-0.25369420092625344
0.1151176866996947
0.24740439961495608
-0.013989326992973743
-0.08949936040799149
-0.5565395432850437
-0.12000092263083045
-0.24252642269193717
0.016929537836781878
0.45789807554838596
-0.326622105632262
-0.28369216145853104
-0.19007421700343652
-0.12563030709762352
-0.28168326528124044
0.25195573969260815
0.5232719705980634
-0.5363265907836186
-0.16397974145936944
0.4460095832186186
0.35852547534422535
-0.32757352136587864
-0.3350518281733457
-0.0072779536198160095
0.23348545103798987
-0.3155505059794149
-0.184965173610541
-0.21991546255062866
-0.3873642099732415
-0.322439805961712
-0.2728467157408843
-0.01298071501296701
-0.04523795608239071
-0.13222706679915439
0.11205019522274584
0.28179633268479515
0.06309427681597976
0.03352474310397361
0.15157892861514094
0.07291960436826268
-0.41234602861689473
0.4118473365848517
-0.02137222567184871
-0.06570606882424676
0.3662916983480221
-0.3853859469083981
-0.01453104911221847
-0.39266871196320435
-0.0770495193488809
-0.3763927197989203
0.17608319815418833
-0.3171077928745881
0.24166985268955604
0.2950550672036525
0.11867428843660377
-0.31862678756867024
-0.11881556609520572
0.3802646495902015
-0.06027948525852245
-0.2053035031485602
-0.32534069074430333
-0.4758716074103227
-0.5155921667273542
-0.11607284389546119
-0.11808037169445625
0.09204376096110156
-0.3110840521427456
0.36943660060868877
-0.3908523388305251
0.39500999269282433
-0.1557831228182875
0.47374483087709884
0.05090156921613937
0.2738557899619186
-0.18482108457158603
-0.18876971398930664
-0.23613322609336726
0.4620237368418372
0.16962441007862228
0.3702004270785004
0.24209951672726007
0.4594457792223681
-0.0522843950412377
0.3854817575990828
0.02394920317799617
-0.028205775457254795
0.12868944853072667
0.38193357688944213
-0.11291941749224078
0.4737696136174007
-0.4084326102892926
-0.09465613340733371
-0.053525260872205355
0.038872646924318105
0.2255050208979829
0.5160096446006236
-0.06028972180187004
-0.20880862186805235
-0.42386780028138077
-0.042730345426281284
-0.24809104247503488
-0.019182896754243787
0.0175518898600714
-0.0662247610328077
-0.5644372703024435
-0.34629824322457814
0.590698570067673
0.42983405610243897
-0.10840958963551062
0.2568432646591237
-0.031694588449584914
0.3518979597193019
0.20307979258271416
-0.0013191308316617455
-0.26042102625511343
-0.15115276432768754
-0.0781659674088836
0.3631735090096548
0.21763219594980404
0.16856031091900148
-0.4143027578621338
0.25671654095274127
0.16020466788929336
0.13847094049099617
0.11926059938793711
0.1441421644108405
-0.07644155990278054
0.28199135919611
-0.3454163789309062
-0.2739590773905225
0.44755800832728654
-0.21397533932584029
0.11886413621904308
-0.3815412717372444
-0.37155533889290926
0.44641329726934537
-0.45631471643084365
-0.08895779326854716
0.28107982289897554
0.13126291979733692
0.20676319022978346
-0.09045715480051678
-0.563696506585173
-0.032476948596285075
0.08296165587071444
0.3861990355365509
0.25925893152806057
-0.11500511983924316
0.34449826088575225
0.4439299185730274
-0.2187018511408037
0.18942385039748352
-0.5738507374293418
-0.18498578199755739
-0.2232872811281591
0.38787213517990865
0.09259560359308257
0.24186604551750002
0.39097825547400306
-0.14178714820968574
-0.4207526436964864
0.42385765188401614
0.27892628952243187
0.3388429073542163
-0.40312864418067945
0.2349907452427464
-0.02215232630013335
0.40413574413139375
-0.1212182324275208
0.2819862500944746
-0.3195812968252
0.5523087437874776
-0.012098132176910324
-0.04472201277527754
0.009296742603982127
-0.35073029497564145
-0.5070290883293552
0.027975595732618385
-0.21556667414289116
-0.04496440835863741
-0.18801258347525296
-0.25387599272827777
-0.19780230640495652
-0.296205085703095
0.11778448829762984
0.05663539860915147
-0.25950666024924673
-0.3754468287786774
0.3394481928462996
-0.32781327798213644
0.10456002298611748
0.00029745636652552296
0.39664738547842643
-0.3559461248523313
-0.09694836378425424
0.20610889529971516
-0.15262598954013676
0.3828384140332123
-0.11724298359359785
0.2690044070124107
0.02563972111346353
-0.4606986485056316
-0.33185198726102866
0.4952181060570875
0.2195042148972649
-0.30090049207386854
-0.1964999587676322
0.11595944422647712
0.09940537365962743
-0.2707439468625186
0.28425883873086066
-0.2661352474551051
0.38561178995445367
0.37903432712627155
-0.26970023817207206
0.04260046115095262
0.1022782155091717
0.16133183055941824
0.4337729658081375
0.213412417222871
0.266320809363352
-0.39432770398852596
-0.48481645712332944
-0.014001951261603683
0.24152617760303255
-0.015150238263393933
-0.0008045795783937128
-0.39285673582146063
-0.5741252856186817
0.16143318946404323
0.010749584569664013
0.22847412126465486
0.040338726088088625
-0.1701342617624667
0.16266604538506518
0.06506305165782164
0.16495228635131784
-0.3774770468442617
0.2682039665270607
-0.5785174126164633
0.21972413603150429
-0.3573010001822114
-0.4593023563770462
0.43652101796374976
0.29356611449632264
0.3752521060895362
0.37557048023935014
-0.11760810447936638
-0.3508881341655004
0.3667134950692006
-0.1482837177433136
0.4183688452906323
0.04157939603159192
0.06579455456893075
0.44723520955327783
-0.5275054170537129
0.25561899979424135
0.39201437978845566
-0.03369688380242394
-0.4944255253784512
0.49417632489378455
-0.010223539871699296
0.2846421315662004
0.04132260328485324
-0.27785172697240174
-0.1533586481611596
0.4933316348140662
-0.3615022374760126
-0.08336303010771057
-0.4367867446855746
-0.3665088527572544
-0.43081228908074093
-0.14475559644602107
-0.21158994464719985
0.05789613192598352
0.136415767094471
-0.27298766186454815
0.29939759445761255
-0.5375161787350574
-0.08137050242811583
0.048300726810823175
-0.013644951686599209
0.4008049785057888
0.2898063964229596
0.20847728112999964
-0.18839707940856132
-0.4184893894549935
-0.14640359663082345
0.22190533716792063
0.4597444562553351
0.2881649944572817
0.16439322834190206
-0.25280841082656247
-0.32703337710703906
0.15909123136559894
0.5164594241015368
-0.13478300367293983
-0.12320572429611372
-0.25301827223890544
0.5373726825492973
0.19166462844275986
0.5103103159416182
-0.026044547916240453
0.25471608045503996
0.2668462334907045
0.46742228764797694
-0.47566009334759224
-0.28487351557841883
0.39308087232889566
-0.10329707406346757
0.566559245410046
-0.3926054963223786
-0.062091520777158314
0.19716129577274089
-0.33709702825060006
-0.40155773965672115
-0.20159049605439197
0.02473395413261029
0.06394533786131622
-0.10984895098700852
-0.4857993416887567
0.29458088845437197
-0.2042761731753536
0.17194829507399706
-0.25682000016147855
0.5474640710703168
0.14839715159523154
0.4676534460668044
0.5431699954483535
0.2810463195553136
-0.4092361561072331
-0.22368537082249676
0.09938563455950175
0.2653796184213754
0.3522277040619717
-0.2190143312330417
-0.06798089603032306
0.07091471267941467
0.1319511622265666
-0.12547096909066865
0.18969990583992538
-0.5530884713062902
-0.08076362982584305
0.08948651355430703
0.08888926717353009
0.33865262460898526
-0.16648635833662684
0.3435935370993807
0.41002804794374165
0.1820003067788099
0.23751584232390843
0.12793746409262977
-0.04826437594199717
-0.07045750546409439
-0.23845466748030547
0.5020420898958822
-0.23694104616080078
0.21606950240147388
-0.37378121730186653
0.3411462467992971
-0.0909097409245651
-0.3178861251850976
0.24131499784365162
-0.3086508445345805
-0.4790237718953333
0.12171687923720048
-0.2163106428586617
-0.40028355639717766
-0.3597812892648848
-0.12532583256650964
0.07017253645636917
-0.12737681939911624
0.3128852886806565
-0.19719107884632525
0.11076009318056902
-0.5893994439454593
0.3741124543988807
0.24764065019210607
0.3068420826589164
-0.28848796087708467
-0.44549537102968984
0.07413362005233583
-0.21575425042220817
-0.07968058138463616
0.3600564812270498
0.2951324309410332
-0.25879419604767706
0.18237757411786298
-0.14227615696483303
-0.3604708832934941
-0.08166782137102878
0.04827992607456287
-0.16707669752779014
-0.45735134916350084
-0.05877621743989967
0.0510483363479097
0.1598027359778313
-0.30154065276051106
0.5357934444485399
-0.13797814370135908
-0.5288597886699042
0.027682057114461537
0.26206403720072213
0.28102380931300597
0.016486914253967012
0.391663249669463
0.09776999355077694
0.27594515158336663
-0.2878929747936154
0.28199912827250795
0.25774958374648677
-0.21337091134858516
0.3549791531921729
-0.0448079260277582
0.5682971293652496
0.3416390455879692
-0.23980266989433568
-0.06530196463303359
-0.03735684509091419
-0.005594207969633952
-0.42073601404686795
-0.14037906438311584
0.38672189200180473
-0.29931386194745235
-0.08041340922210258
0.4078413292376303
-0.18811379702610959
-0.306564002213922
-0.07542927543909088
-0.10150788396258295
0.6413392384834536
0.3915581737532658
-0.23864679848410858
-0.4436056034085466
-0.24003691538361635
0.1951507613550227
-0.03232016570511427
0.5891296505603466
0.10254706685289638
-0.2232927701592849
-0.2356981098471909
0.025005910879581532
0.39416507156023894
0.27057845060752894
0.05701331007879002
-0.008509433601017464
-0.22161644187028331
-0.16389700426889728
0.46477789589188306
-0.1559941218972165
0.025842787623656504
-0.2626856284808124
-0.40540124372710623
0.3505070141653204
0.1117089291690868
0.198815174137818
-0.44179042684139325
0.03590027786009468
-0.40947666134453925
-0.15515382497045163
0.39270506466204397
-0.10294313852979961
0.6217047716881802
0.3341426724562946
0.33167799536164
-0.1514766820189199
-0.3079216174528179
0.524652773545227
0.06867960902445988
0.28529202797215475
0.30288311626020603
0.3450061881498853
0.14800171164610632
0.36280211155347813
-0.0016655034008346249
0.25874592770615523
0.1337025781360834
0.20514110077613215
-0.586201923011129
0.1304951360538054
0.5921959643124248
0.42395711159354543
-0.167460289105278
0.42061219663611454
0.36343578349997013
0.05734054323534687
-0.07065249484666204
0.17885770767781123
0.13092871956142807
-0.17746747466743976
-0.2630698332831165
-0.0941172417434267
-0.23824196350731378
0.013688512308439196
0.18630004515561724
0.42098656986262445
-0.5747858103359694
0.057664947298332735
-0.15046570985520363
-0.3622088190904437
-0.18043803025996438
-0.41165054247267074
-0.16629290474811093
-0.27146728525657526
-0.30112632258009947
0.16304238600265672
-0.15220890629175732
0.2316666968498333
0.16985900099343662
-0.3232436936400366
-0.2258608708534984
0.21116383462546284
0.45093552573148993
-0.5277712282944058
0.3949879467841072
-0.08428446526488356
-0.05919511355516131
-0.33141271777338305
0.2741890252120391
-0.336749967111025
-0.09850511906100781
-0.3709421245186949
0.17518201321329857
-0.14932141878989266
-0.16315560023342693
-0.038824892956971876
0.4400277566624424
-0.22656320805187555
0.1482186056346127
-0.2667003551194685
-0.3436109903459942
0.14143543668451425
-0.32780016587322797
0.228828436925266
0.23778295845570108
0.2718091814873741
-0.11334648046457245
-0.5218904428578601
-0.3256845986294113
0.33809873247772304
-0.3575112263789973
-0.06932505441033529
0.051084521545073196
0.25326471747045065
0.14430840534001946
-0.08305152900302361
-0.09275893320559606
-0.46919822966458
0.27930226514636286
-0.22193009422274676
-0.020938713568663888
-0.3197816471303539
-0.34460906780835276
-0.30253639232429463
-0.41172808057200894
0.2757982365766549
-0.2118210180268806
-0.16974597260582527
-0.2236283842809723
-0.06678733028035248
0.29091879244158414
0.11630155064182951
-0.42199933778587895
-0.16168667753894228
0.19838926648410776
-0.30978020282969626
0.10981580284176395
0.3300437527664168
-0.25659013848182144
-0.03253985353527239
0.4296464507114714
-0.18276495397499704
-0.3079770066555986
0.28105119342657436
0.4183619344261487
-0.39077598595281005
0.4900349026813538
-0.1990221315733308
0.20014118268532535
0.14832923413854912
0.0548802938175672
-0.3897725985520847
0.26593048912271045
0.22094019358212455
-0.2937371178147349
-0.1496656173323116
0.07150615992860808
0.6242038724308707
0.05457069507421739
0.2656671321426528
0.2647637665411563
-0.6077071967311045
0.11523254215104677
-0.3212609829783067
-0.2959761033696058
0.5645613045272367
0.02855153916657585
-0.40666987531244936
-0.16879077349177418
0.008092522320245744
-0.020009053112687792
-0.14726207188152834
-0.15814407578069092
-0.08172050232646852
0.11690413907085083
0.5062020902698193
-0.362410720706239
0.04180173303096543
-0.272821313667361
-0.34241841800347045
-0.23615451852982317
-0.14798318622481788
-0.041040057955307664
0.18965224941318984
0.18441792599613024
0.2303661806918764
0.46041483518814674
0.5383353648900706
0.18072787112928904
0.23669930167592454
-0.39505261825106613
-0.32651493346027544
0.0491860056293464
-0.26066695460155037
0.27687250532736535
0.004209302859910665
0.3442719455038221
-0.15334037050047958
-0.11743697977387701
-0.14843882864008143
-0.060928342992692994
-0.184691121748919
-0.26256604624703356
-0.06134715351079206
0.5359923037731116
-0.0972257230590196
-0.13717905046442255
-0.001967786277560355
-0.08042931894015014
0.12274551886244896
0.12602671818862302
0.1581298519765939
0.296260146988408
0.11961575845361853
-0.050895068757686984
0.12995090250336158
0.32819467911602906
-0.31062826933834914
0.35186115282021574
-0.09106922491752861
-0.3213425989095783
-0.04079631933990752
-0.12579182195843616
-0.378220503584833
0.06332717226563377
0.341236568137339
-0.258880615959436
-0.1926061051554832
-0.07703497815524252
-0.40042591677295264
-0.14521374487307603
-0.38915580489986806
-0.014038495335959118
-0.42150136665197074
-0.43528881209626596
-0.5263982313479718
-0.45151447111898724
0.19164561899383056
0.07066318523718154
-0.03735387351514291
-0.3680728537343065
0.2772588139605789
-0.5774907423801162
0.20291378931973456
0.11475411726784483
-0.22495839633423112
-0.0363289885482946
0.16551448863467924
0.36249067819234393
0.41949536994579845
0.048093843944309426
0.40728637100968135
-0.3461442013843425
0.14659559714791404
-0.3315483441855678
-0.4902186608226895
0.039831911850369224
-0.10732305826684042
0.14817646649791874
0.48659306677459424
0.32505215445572255
0.48739964831970545
-0.2540529539650848
0.19192052635021808
-0.18775728109175932
0.4716794155977103
-0.0940718986660181
-0.47740982492814654
0.04740082798248192
0.15896004007590758
0.3144788781883118
-0.12674185059773257
-0.24427102581957727
0.01631885289200328
0.09115326937721693
-0.6099604423352122
-0.4034298245668498
0.21305553343680808
0.44845080844322693
-0.5253333570635046
0.3106323162804411
0.14281551480628976
0.1578082344477495
-0.15545764476402596
-0.15268427313456528
-0.08660447757490816
0.3624608840851389
-0.12922191087642568
0.40753172430620566
0.08046381385255097
-0.3755671640209408
0.40132757406149605
0.10420725615078191
0.19370634443429305
0.45758633736163024
0.3992290141598899
-0.16434813379924595
-0.4570777826198477
0.4966937245557246
-0.20969986080181796
-0.1284158205863734
0.11309324821888012
0.00859471380119388
-0.3084524264065802
-0.23164925516605314
0.16549554998660745
-0.5444267930826922
-0.47049018611443105
0.17590187793640524
-0.13601370622504924
-0.1717060987007517
-0.07080651466533927
0.09430420627217953
-0.0544738787612063
-0.39374475869022774
-0.24007379645858343
-0.5757899971972997
-0.0325072460305027
-0.1870957115034008
-0.2276948543870293
0.28221442803065855
0.4360046891215283
-0.04380504938107619
0.24889584861787004
0.16989604872635966
-0.3560695725122302
0.40768546034983594
-0.34938147343471077
-0.0969405800848832
0.04754959331729184
0.11631302656020506
-0.26443841740692153
0.19830336113073357
-0.026349217392608388
-0.05104507785557231
0.3416273800580881
0.2661213467803712
0.304443887064921
-0.11527061836538342
-0.3624902202433902
-0.08007090188949292
0.18438212163538328
-0.18436710557109393
0.42960097458625823
0.06997587554158001
0.22442068345363012
-0.045790118881595364
0.2715696066216529
0.09947967172239933
-0.30628243176988657
-0.15540497095461447
0.06440392079707744
0.26640477739121265
0.22552020679645687
-0.3188731044264995
0.358507895584464
0.2630498349631569
0.09439155398282403
0.3262978342030994
0.3241809343011438
0.6338041022560115
-0.30239042086603296
0.3363880038365733
0.2577795580326687
0.2930829250968206
0.24070010600955563
0.12483278486786144
-0.32941381763417954
-0.09153979182076384
-0.05585030881397253
0.26551085134036606
-0.04501533725884161
0.20177596627986197
-0.18907838445472497
0.3089873269780772
0.3691234898857933
0.148981902972143
0.29706855984668884
-0.05403378641216732
-0.23076591375504565
-0.42232565856980214
-0.2557056692302367
-0.4239427176615288
-0.31955186582610784
0.36408173750042144
0.2999830655971242
-0.33793685379814875
0.3680512648161956
0.2354118812008577
0.4271246477646082
0.15282076615013374
0.10174703975016314
0.4387146740326105
-0.32193212727151294
-0.6314885708745541
-0.20531470173411595
0.3037132746454128
-0.22103582344206482
-0.30862117831578356
0.18343257955171702
-0.1541333606821414
-0.23754290063764474
0.378658394666466
0.10143048454357029
0.4174484875796588
-0.11143115768266447
-0.12850879260602802
-0.3854312755992212
-0.04998797627763862
0.342477508555381
0.10181267577148245
-0.14218296274010747
0.21893513617498597
0.3876333700834403
-0.5105940403428925
0.1560377301463831
-0.19295718567498474
0.024734758032778643
0.4439845279084128
0.3546449836998173
0.2625264309973398
0.4532840054085159
0.3114790811150354
-0.4089351696501507
-0.473224497805266
-0.2311269778462781
-0.169045641839678
-0.28707605738319725
-0.20606123154691575
0.2159656726646977
0.0396683438678861
-0.2475145512785759
0.020546467037910184
-0.017641221193046525
-0.05046319196338139
-0.08675963529060556
-0.17572419721738133
-0.36441734936125797
0.15419568489776417
-0.08853422411467995
-0.2733215396289907
0.4290686704076544
-0.1465041838701551
-0.04156883888153891
0.28658208608910307
-0.32331682469074235
0.3918771754940959
0.42715530995913986
-0.3827511055383988
0.28099887408926155
-0.27135490703924436
-0.26751164363990443
0.3048280753545394
0.05674669146513529
0.40782537743604785
0.35005596752334783
0.2522997374004104
0.4761274347135466
-0.3953964975564375
-0.381462695773398
0.5552167737029753
-0.2799413759392612
-0.26388370311417053
0.3284836054611525
0.35211635724219204
-0.18423073063088982
-0.23032219539358095
0.2588853511579651
0.16700105724690417
-0.1108918800882666
0.10875061908887071
-0.15275408844656596
-0.06676134640732334
-0.11971999526773361
0.05079769719348307
-0.09940876265672162
0.24897178600498346
0.11460616498547176
0.0921737454202164
-0.43242702809131073
-0.1158365531825822
0.20803967763946493
-0.04798556397765045
-0.44269144638465097
-0.2807823887736423
0.010538136185770854
-0.5342186727557755
0.36843774608475144
0.16267192748928172
-0.444865474789112
0.4427725055647833
-0.26513648684476904
0.21670861800184069
-0.2671195221316875
0.0954180800344497
0.12246030787737734
-0.24117900422559121
0.41878976010251584
-0.0024389826444579364
0.3799610279320506
0.3823657523270922
0.47645226039818517
0.08337628527612562
0.2075098232061783
-0.5575282218085159
-0.15387685891549113
0.5276616481406535
-0.562085593773446
0.10600276674044007
0.5332636404915813
-0.3719141416610254
0.1735837600805138
0.1753247689356774
-0.18612218548114837
0.4418177699528319
-0.4724103821283334
0.19281449100068077
0.3231619993644459
0.4364122004766273
-0.38563761071435054
-0.2722905975082181
0.2756308481607219
0.2891125781034874
-0.3146738054381166
0.5041836297788787
0.2870154926939026
0.03575623696616063
0.37087738822199345
0.29104536226301847
0.04101199050111547
0.04813128203539841
0.05745682069318751
-0.5430433212528015
0.27731088068002985
0.0532721037121106
0.27444517034750415
0.019300071674060174
-0.27847284461707744
-0.27531353159252725
-0.462431623982865
0.14657220942491223
-0.2671084118251339
0.2824503105955674
0.24244784312172468
-0.4483397606281532
-0.12895609042100764
-0.21519830689421193
-0.026999328067188504
0.23626236339601972
-0.03758656758823529
0.36960788494976315
-0.5762226044908365
-0.32842832349235607
-0.039897587474532877
-0.04482278304655964
0.1690929900045582
0.4542906225094885
0.1989463747302058
-0.15478140458811748
0.5830846792606497
-0.02391876166642915
-0.20409395808257363
-0.03386397538638973
0.4193305248693934
0.34641092896623027
0.393657502042176
0.36822924654514283
0.006093645012296526
-0.04892705743643923
-0.20757957953568099
-0.2779881852262041
-0.11340548191071706
0.06458265688240794
-0.2743143184681277
0.05752585699627698
0.1682855029195551
0.23915170395949795
-0.4457681237270472
-0.10874224435702387
-0.012238707304016811
-0.34752844879274736
0.28076289488219325
0.19343262675563389
-0.24022090751233682
-0.31915339199123666
0.40697647573652806
0.2756404181151701
-0.17704339979908335
-0.4202498066949748
-0.21915964004496089
-0.05517584632543588
0.019709169425936608
0.3133849731998471
-0.043313506370517445
-0.3066484391897744
-0.20039093063643904
-0.22973644437179871
-0.24940478811384018
-0.05045723883393592
-0.3290191207902588
-0.18284364737422934
0.250730313395921
-0.23927444436244175
0.37068053507393744
0.0571422201784627
-0.1306192427961773
0.019094709345878234
-0.08118879744082826
-0.07460330791626948
0.25130889860520644
-0.28535422630432733
0.3210010480291691
-0.13370564162119786
-0.2386928472108278
0.121142031418316
-0.17429164112787904
-0.5226793447991024
0.43748763600763513
0.20088939639358686
-0.5807280694999852
0.034175718792177706
-0.12468824582409566
0.030696313430973347
-0.10335554545570091
-0.12429866538933355
0.19463332211630632
-0.37670326391602615
0.422136251757286
-0.16670928604629465
0.27308491498578197
-0.23110073486975505
0.0023056343507593556
-0.2613929885643889
0.054025770970564865
0.24094345058516153
0.4574197540987511
-0.1989703821981793
0.41376630251798885
0.22053534784564086
0.40538180950033703
-0.04408693733520172
0.37300758080445345
-0.34335948734836613
0.020713663371355287
0.4265871381651212
0.4212885032269102
-0.12330439355015313
0.437550938181164
0.1731636844500684
-0.28325048623906035
-0.12474618434397804
-0.08737940665708481
-0.22114476323780724
0.37025971643925565
-0.27741109407928866
-0.157003488844699
0.4235678533126363
-0.0011830118431360517
-0.05523642828715874
0.412364340535535
-0.25804826957352056
-0.26231938921473036
-0.44842616468510293
-0.09240228336926795
0.2906927485153896
0.2526980575863466
0.1136857241042313
0.2796125505766804
-0.17487195470636574
0.022196188308907554
-0.2194332991652455
-0.27214578382099375
-0.01340440971275601
-0.400338701507705
0.00452426185059985
-0.3700296098152478
-0.3066586987727033
-0.08493420590280633
0.0186181470908719
0.11762074122943791
-0.008472891548370505
0.12600838495619426
-0.28495434684466814
-0.15261644176139816
0.43672546962595743
0.16604839035047386
0.2814836687359408
0.0037427553671282913
-0.4656023692849706
-0.3334632993334955
-0.12582414513507104
0.07096926567833158
0.14812698809359476
0.0266363071130644
0.1539070034294123
-0.2164360611034177
0.038621437703733975
-0.3713911471903914
0.030789328155653817
-0.3707486709162054
-0.40439175950396467
0.39214225208820364
-0.16555898526256363
0.462255578569114
0.26494949602336365
-0.22261636840172058
-0.1351698997856735
-0.23275285391395276
0.3723537977859166
-0.43632503649847953
-0.26608227166656817
0.42876731162814463
-0.21134528922344825
-0.22336917338787488
0.23104306312109596
-0.3598665746542575
-0.5607709994487768
-0.1148698003236932
-0.0752656882538858
0.11813059619354646
-0.432583962689573
0.049864716514697704
0.3678293680501742
-0.08185923939195018
0.15452764374480368
0.3736155538289814
0.35613352142502774
-0.34237431442734423
-0.5166257990297076
0.16729968950553695
0.09859666929591815
0.00850541542320171
0.009702963472855474
-0.2710500269064419
-0.14003120768753946
-0.4391017760402433
-0.41361610308378355
-0.5719115485454297
0.22817388458700058
0.008072335891656585
-0.09147911670830834
0.08314750522634405
-0.26021541733203213
0.057335971765929444
-0.3167875426393253
0.03342694493977556
0.4317952993070708
0.13903746767869155
0.23435576379369705
-0.17889752784908197
0.3292854287573186
0.01808157983129905
0.12022254935014876
0.14033853723673956
-0.2340921121891287
0.25101783959475793
0.5153913368715678
0.1258110459977979
0.18773986886933705
-0.07760368664814149
0.305551660559015
0.4696097653806045
0.24720725514898523
0.46549786260805354
-0.1195375731046474
0.09506535745173451
-0.26467772637449966
0.32794860606225246
-0.4852164107152313
0.27185969074767197
0.3147868656478006
0.25738925706150656
-0.012388472675315933
0.5579851272895816
-0.026722332015412225
0.28663940186749676
0.39965428824432225
-0.4629417445216515
-0.16021355305058757
0.5204518805827212
0.2638906343363503
0.0019205753069193505
0.21444788449657234
-0.15056922698642108
-0.014614043753555938
-0.3409361153054277
-0.3698956117861843
-0.1367719992936922
-0.42008574579799557
-0.26787854316199955
-0.15268448314410907
0.219764394010783
0.345331662825287
-0.4042174162426925
-0.32149948672492584
0.2190132990006567
0.3324730155854
0.19011347689484764
-0.19364743716050137
-0.49971608791714994
-0.21288329052941402
-0.1468618083690028
0.3153560941977677
0.4304452107171443
0.498646576748013
-0.02418407634772618
0.07412996671328786
0.5130066975186774
0.18551374904020002
-0.3701935218720692
0.31163363866246735
0.4182420502693516
0.12118463844837243
0.05270955639973409
-0.047961711242453575
0.2728785265081953
0.03537135000902786
-0.05451880805473423
0.24795302974509528
-0.1874877401225819
0.45729104756101796
0.26657265797666313
0.3035933937188915
0.26896457338206214
-0.39032018380387384
-0.36108944980772056
0.2781486170235916
-0.044496786724521425
0.3473550143490969
-0.065375273050378
-0.34785004610105763
-0.1863190054617899
-0.044295012563394645
0.029676068225528842
0.038368661918257725
0.4280352895854216
0.08377730837186571
-0.34950281497740054
0.25279986851275305
0.0031082083778851493
-0.4640959512755508
-0.4431635897225389
-0.47390018678224666
-0.4977339999444122
-0.3033659583545141
-0.08716079737839133
0.17841231497817753
-0.24326240066308344
0.45764989443806847
-0.15605728004212616
-0.07701278881313052
0.1398393268231434
0.24689987516786646
-0.28579947275395295
-0.23005467548248906
-0.24103310189081079
0.5332351285673959
0.09833896290190404
0.17836409479305543
-0.19226416599335408
-0.16648156223484695
-0.17614339033836127
0.20984007934022156
0.10283255670935755
-0.35128005393090467
0.561005026959597
0.265155612383474
0.10767670000969087
-0.6513036920915215
-0.15788643069764616
0.2983497301598478
0.29738590237910933
-0.4793640537824373
0.24818420387476242
-0.17406759172663153
-0.017579996732649202
0.11668717295217763
0.00871779993387167
0.5277446744468611
-0.2915783377312823
0.11992764011326743
-0.2995148856514769
-0.16373884734453978
-0.40114711011489085
-0.18313579369125044
-0.49130524040525225
-0.2728822129636226
0.15635694593576388
0.27948861900519273
0.30626451342323713
-0.17294541016891074
0.3019569426212305
0.014439426442280702
0.4700737348790765
-0.005991260549959238
-0.2372962255429972
0.18730664955667697
0.5351443642235727
-0.4192664413473624
0.05861419637650043
-0.31331852978306807
0.26170621522295645
0.2652238752113274
0.21488904562085484
-0.08153847591921291
-0.1897881434720725
0.2936919177531008
0.43810444728107767
0.3207537598229467
-0.13122287094988222
-0.23871010754661004
-0.1599178728636188
0.1342503725170387
0.31052051173019085
0.3644898663637009
0.3699446644070301
-0.21076158196603093
-0.12191355883930026
-0.10619722908512422
-0.2361934896548924
0.14993163499607262
0.38800497261884936
-0.33860375810993953
0.103798849390036
0.13489119424597282
0.25162931407350264
0.30678002293494194
-0.20658251739851655
-0.1328071423877072
0.17864691153414666
-0.3088010693967604
-0.2983973557952377
0.34346778213872875
0.3072215241503181
-0.28207705731223187
-0.06574453380221396
-0.1800978987706853
-0.2521553468687982
0.06011203036614255
-0.15889417416842716
0.03421049212500579
-0.2168372758651923
0.31667754814290006
-0.36212622440434855
-0.10284945189597088
0.004546310512039677
0.0502389939606884
0.14950628052912313
0.2509769041582811
-0.19587067277727946
0.05727718641591462
0.06667485629172834
0.14047077975794295
-0.00428104072056382
-0.1976226565520336
0.17444262832365365
0.1981873067472002
0.12159415972644663
-0.4640945785604862
0.02243567304587789
-0.07992232627111878
0.35362477795140057
0.06908089214332022
-0.045895011027779646
0.037986896128733176
-0.2348927558297112
0.5633866202526525
0.23703288410000317
0.16992106191523804
-0.014085683709746603
-0.24865195051703984
-0.5157314978683628
0.27571479870078414
-0.5154816606619987
-0.034973267782153226
0.07735471825910895
0.2264676896343217
0.2326275324525568
-0.4203715950544471
0.016662310465742045
0.22632464646639489
0.30275851563061446
-0.2062802817331858
-0.4836305875150824
-0.30698677067481916
0.27300606307065645
-0.49145085840684455
0.36487584850534827
0.41264071062615126
-0.125771232458235
-0.017816427499494168
0.1846727927613304
0.2315081211301168
0.44116022216466544
0.1377874051186198
-0.2654953067259758
0.30931717072734727
-0.0007105552312066533
-0.16077602981087802
-0.0015106707435422143
0.08799427708112573
0.2446204905301767
-0.44212273479995645
-0.16960235086366937
0.13731527457605383
-0.28515660313702784
0.07222129252227721
-0.28715112833459316
0.10551417366873284
-0.4132926908408495
0.510067898742931
0.2340580888981728
-0.03577987767062817
-0.36474507158916053
-0.2542721935162188
-0.26246547333082343
0.12367050723065721
0.36279627970918177
0.43986602613774295
0.12170082411271693
0.04870681688080653
-0.24936821257767117
0.02665565342769835
-0.4601834048110589
0.24320861659639906
-0.1595028225144247
-0.5374551729342945
-0.024224674522811712
-0.27509126078861706
0.08483575209645712
0.32674015989671734
-0.3563743376769093
0.3058373721975252
0.5374092700537488
-0.29543250756740125
0.05654171389252427
0.44458630049451203
-0.11549925992583533
-0.18698348051603383
0.21780604574082715
-0.11387779991820983
-0.023592367748081034
0.21007097091037447
-0.2052052406467154
0.5800663534608699
-0.017309764407531972
-0.26521461882157976
-0.3158068843014543
0.4330675625679295
0.017061337772034255
-0.22091816201058698
0.044346431193461294
0.25918170246144223
0.4926483716408651
-0.12530457482504673
-0.10000718904807997
0.1209566242537614
-0.13206794451886975
-0.30821944532476847
-0.32119608106358305
0.2487294893861453
-0.02930670487645915
-0.3535779398876847
0.19520023230693503
0.3112218772425273
0.5382869389398931
0.05082697030581781
-0.13493705245033422
0.08923673450253143
0.38359015673558905
-0.21437429746521838
0.23939702190287065
-0.4062143162066751
-0.3497473666638435
0.24448233318681972
0.33639198523744007
0.24756247646372587
-0.44377803879934824
-0.051287295202094664
-0.12390742977817551
0.11028587204483865
0.18996851121013456
-0.17668089776538298
0.3239783670563312
0.4150856955742509
-0.3805036011715981
-0.30059494489546124
-0.0009546643868813723
0.31737883052785204
0.43652949778837413
-0.162553893332404
-0.07896679937992171
0.011548788775739739
0.3555055126721953
-0.1837559338390046
0.21531493214397765
-0.36533519600557307
0.2218185682188894
-0.3763292873245703
-0.08412910211535123
-0.45596390523851177
0.3381998083695139
0.018942451992796185
-0.45558062993636794
0.00041029654920015247
-0.08612680407836301
0.22627231235375153
0.09096154930068434
0.5038830312963835
0.10532824984063098
0.2871434496715201
0.09179892275184183
0.2595929169089953
-0.3309487135246429
-0.10901092129161656
0.028527945069931577
-0.3154624174178487
-0.21559159730076766
0.1202342200283663
0.47258414938189036
-0.30014202431882664
-0.23278414645490747
0.3996005555342732
-0.11930285988513298
-0.23213476068473185
0.18138043630827003
0.14361717345488803
-0.22292594923325104
0.496115609653692
-0.15174771376320573
0.28287687272120016
0.40875445496393603
-0.07007158583787983
0.25554236992148566
0.36451610657193634
-0.10714273501525316
0.11728952049998623
-0.4426775920822456
0.3168845979123834
0.20391420466722202
-0.42248112970867824
0.25516420526007944
0.40024475423484346
-0.21327825831850467
0.5126945711209419
0.16586054209570322
-0.14964158011078849
-0.037927742184382884
-0.36203248267372684
0.009051894091694532
0.49766358456068394
0.25401428024136463
0.004826375406754439
0.190661005977513
0.0908632717748293
0.19657420511748896
-0.07305927586643314
-0.18075190066209915
0.09217028629826894
-0.4070290550483543
0.11360417335752776
-0.21345013978386998
0.23790198298004428
-0.16756529593959646
0.5154871394031925
-0.17792793752459968
-0.19476792640491708
0.23066090659390034
-0.23907219555754658
-0.016311202593285824
-0.2582605426957693
-0.16420865175334037
0.273476426202824
0.3548721993641526
-0.6279160323389055
-0.06781034320340366
0.33727072871969477
-0.32514690231305193
0.020743426389882955
-0.16839944064935303
0.3421842202741158
0.12116751330400186
0.029916750227917774
-0.2624444224134647
0.21924912871278382
-0.38643931280251587
0.4124581931807711
0.14176255356754336
-0.47107556929307715
0.2508584925692964
-0.014001567267186339
0.209959375026788
0.18602875834220156
0.06144212393958402
-0.09264050950229867
0.34498391240932247
0.4452902481645502
0.4936790157430537
-0.003261505975194014
0.037893752631481474
0.2240980103474877
-0.26767639189571657
0.3789932711892451
0.20291569096657414
0.2833496331249767
-0.45461205936535953
0.2697020119314908
-0.06891806943554483
-0.2577217001935081
0.06419864020506273
0.041360149591648396
0.26413437875786155
-0.2306698995878953
-0.35040460900515624
-0.3799151499695216
-0.22475678906178223
0.24907148523836023
0.40105956378642654
-0.019875420584390017
-0.11740887855417242
-0.29439149676929893
0.4783996429591659
-0.19042639283149623
0.4569770357873564
0.1197924180842514
-0.22327636293510922
0.08843788538637407
-0.09789973332920651
-0.4733349256916677
-0.3958058033825812
0.11713734390615205
-0.047130118862076326
0.45304934897382426
0.06719007096568651
0.47543351825782854
0.17019343472276205
-0.20128417873919988
-0.4963785626913833
0.7167317421496512
0.1254487058122106
-0.3497661247451006
0.02848093754188089
-0.2196490749971945
0.5206820508637724
-0.34691018512309346
0.20281995478839332
0.11096883874415316
-0.16126235303012537
-0.2968869141920442
0.011067190719042037
-0.5028690352936859
-0.08253527407276288
-0.5387488348651269
-0.38051302314311397
-0.5110087608015448
-0.12849211624365975
0.26319075786195417
-0.08262474325787009
0.2912114283600465
0.05345188354551241
-0.08624675361758796
-0.41271308247041527
-0.20240811857399854
-0.317774832164707
-0.341899675218607
0.45510808974131106
0.28743452162347044
-0.13695801000299712
-0.5400362863168285
-0.3284913857920942
-0.24817043502996203
-0.1637665527293925
0.15275315718923801
0.5081020207728113
-0.22606711376034133
0.01414237338573356
0.16614635192720614
-0.17568505854594918
-0.320529793528135
-0.38649873082818165
-0.15167206075692516
0.0019600308323441075
0.05499784062535076
0.4488640328194302
-0.09272466433651505
0.16003524078255738
-0.05078461917412817
0.4486662209697262
-0.046846460606363466
0.3444526460978857
0.11948729615996022
-0.15088705537796646
0.36363299727291853
0.29899594764177756
0.371958762935167
-0.14768630528597051
-0.08217570327253272
0.07672207548684142
-0.1375848336653166
-0.38970135902149605
0.3507101012759221
0.0722421626506879
0.3920258430318417
-0.13080335456309447
0.20776782193941548
-0.22348339947514026
0.07695129993406517
-0.0711741609879362
0.31786091741600075
0.07631022366808599
-0.3834841725978634
-0.16673896483508846
-0.12713236297985692
0.03755651695159261
-0.43707949188320994
-0.08025720136585457
-0.46849816923337295
-0.23792080879272873
-0.3916686406916929
0.30094926542131767
-0.15438902582273703
0.13094327151764873
-0.3144539129535958
-0.4201432037078774
0.20521640882037492
0.2889872902686007
0.16616129357377463
-0.4410177929755166
0.3993161076445546
-0.04987232896137811
0.31135276153226493
-0.5725569014586319
-0.16411476063765318
-0.4998323210669515
-0.2569474249368117
-0.011765329616638247
0.298106804068706
-0.3953541298893023
-0.08438985354127082
0.10076648749056955
0.35993953869588224
0.29745690447369677
-0.14476365537115693
0.4558520973841477
-0.15539100825177457
-0.08131672296697949
0.12321805062713836
-0.3549872212790164
0.041464911571632485
-0.378418430444984
-0.05110207482302821
-0.08612242020011465
-0.06706079927830448
-0.253283142254952
-0.08271715664805722
0.09667067870392597
-0.32206667230953706
0.0874719132343888
0.30249006263759753
-0.5159350629534877
-0.040697472451956256
0.10184017078494582
0.23753759220077753
-0.0266261863847828
-0.5357439656580939
0.5000857798103356
-0.17058440345633588
0.2648437806930592
-0.10849053286807753
-0.2929032609828313
0.2969318772099658
-0.25966352682518423
0.3714771555527171
-0.4746871409878166
-0.35312170888354294
0.1806023230133219
0.2036349095421364
0.3542013549367189
-0.09943173890532621
0.4958420883892459
0.09340397347939802
0.48418996744465365
0.35276951923101557
0.3196236995300188
-0.2928966099898238
0.011522548567881586
0.31056963994854164
0.04295409367633359
0.08889068316755237
-0.27562746179410147
0.17939803600506124
-0.00987782823159488
-0.46411155197215864
0.30118884832233006
-0.2017889098411806
-0.16471323546586186
0.49471994892722126
0.28070799765153276
0.3203678465889327
0.015792662663586216
-0.06343036482495372
-0.3024186986400135
-0.20015540680318894
-0.0036403167753394877
0.3557401913443203
-0.41382950615220165
0.005366564458347587
-0.24687366549861497
0.28225851527953044
0.4242794687404251
0.08410531231407994
-0.14516419562446278
-0.1768328054126526
-0.36008127547624663
-0.012738345525529488
-0.19049725070827983
0.18812651563034588
0.19652532423976768
0.5381387150357073
0.1301647509898285
-0.06320520289152329
0.5041622085696013
0.4503425065915605
0.148309205680859
-0.010974681548580147
0.4897545053033267
-0.5349750495589374
0.16574761938625007
0.12462501276479263
0.08049285793592953
0.02641132810829942
-0.37270706862250047
0.35723989953064295
0.19127695943514192
0.030764501070896448
0.15129941511374242
0.16379728102109173
-0.24487757379145156
0.1902580759661256
-0.06406429521105944
0.12832892116850145
-0.02386256267070951
0.15627751376158613
-0.4780652897787188
0.29405961220373034
0.2956569025842046
-0.2512259797093969
0.2588234390266563
0.2560218164055883
-0.24567971422646884
0.01964587264098181
-0.4509028030905818
0.3233357049793037
0.19229250484320426
0.2784683668162912
0.41781321519444836
-0.32080106667320163
0.3274835658187407
-0.5049322869755223
0.095913292170628
-0.4332412409234303
0.5397413553832136
-0.3513521532895725
-0.28601502378398597
0.37444016709787115
0.39207459380269893
-0.500583937890187
0.13639278661853052
-0.3398633050545622
-0.15234208100969523
-0.491794624948919
0.5969233453888596
-0.20869965823578124
-0.2863795863809555
-0.09635601794343014
0.4330794492148246
-0.28608718902566405
-0.12852714787150943
-0.22540983246596485
0.43733759255016735
0.23938360582026855
0.6329936716249573
-0.14290078088730473
0.42184404696583366
-0.28001836452644735
-0.27667292578538444
-0.023961314803772456
0.3941213026860015
0.05692545834258296
-0.5216728021921194
0.1977736647399765
-0.2460485093841279
-0.4662445394387819
-0.1995826006307316
-0.33758852963325403
-0.14274515388310993
-0.14133080073145735
0.2891008400708946
0.07523723949930883
0.45203971109242086
0.3806174545790441
0.06529806517854181
-0.3194434613612694
0.3746992462317993
-0.3124222554324099
0.16298875342291116
0.28633499311588867
0.2650133807242992
-0.4707167850785478
0.20020635798151457
0.01582091118174307
0.1308581201605058
0.0887144576068744
-0.15658705571304118
0.14891551194334252
0.07381357469958874
-0.3168028146464325
0.06701125351385848
-0.559398831175937
0.44617164994412056
-0.2837345538680969
-0.46657537428207035
-0.18813195675105254
-0.0912880062599254
-0.5589070475040824
0.023363989016248518
0.3338400604216162
0.2395480955946006
0.2841905892126876
-0.11362886664758619
0.06394981549403267
-0.26471548398165334
0.0599887861462984
-0.08558738389423115
0.021117868294311733
-0.08564549869158077
-0.23756823306979574
-0.34307718908775847
-0.20769854186735154
0.23236891437118803
-0.00861602933698413
0.33247764926778295
0.05929071711567177
-0.08192377119450804
-0.3347193689842103
0.14177992664350736
0.16385901894110427
0.24642384148582655
-0.15541007045400737
-0.17562919130535162
0.08466346753049182
0.2043155111042726
0.11255444733017175
-0.04815482572958749
-0.037974655219597135
-0.02601926762675533
-0.2841807814859169
-0.36229958277438534
-0.062139358755826546
-0.3441854830939629
0.3617371859125667
-0.16781312779456126
0.3989376544075939
-0.049718761132140334
-0.03441036314109153
-0.14573493806809115
-0.2961008553199239
-0.358674366311365
-0.3822706287007678
0.05032289715226832
0.21983557642149565
0.3186882689779243
-0.00945652779117552
0.20404517860136967
0.29190020134851025
0.3487022350948647
0.3119741494770271
-0.25968748922993556
0.27846673058866234
-0.2067230498415765
-0.2508183242121114
0.343627172783311
0.14306530962308386
0.046394233835784046
-0.40848748962142345
0.16048805811047911
-0.5084653580382903
-0.029691760310587484
-0.09718487826504744
0.056720859948282625
-0.35770992579508204
0.24816793259018294
0.2204313609042903
0.34549584439126174
-0.2122746640553982
0.15480565331217175
0.34948357190188
0.30035793093054697
0.37830067510294413
0.2661864954020852
0.11544184564352718
0.03775864424603611
-0.020763260644568397
-0.013009949531449917
-0.2887091173592746
-0.3512663516916157
-0.22928790088926665
0.01076335978219451
-0.1492078688961791
0.3185073464941276
-0.20958602420946656
-0.05966365151835263
0.3030383571435266
-0.19539369579113616
0.13242182179146275
-0.15538681779735028
0.3345215099598842
-0.3926739933208322
-0.27434496230888544
0.20259528767852725
-0.004434153813776219
0.2795327323207284
-0.3268741433973197
0.08242327130351661
-0.07388949663528499
-0.03452567804664764
-0.43106613646289504
-0.23005880535337156
-0.1461046162419181
-0.2778532971664541
0.23597485433825813
0.1828338651404513
0.06910945890494156
-0.03304011623491635
-0.2853743478819152
0.0041527070422248576
0.26656310052421694
-0.2026326074814068
-0.3350659375249185
0.374022153254756
0.3262973500340308
0.062000505620552086
-0.1374527441835649
0.39089292714041757
-0.31138133927580164
0.25161266565468865
-0.023032453925992142
-0.2587499153922607
-0.23102905557125286
-0.3125460009640603
-0.0862306251817003
0.4628832515746537
-0.5199700014033354
-0.26821771830623514
-0.013894252257866285
0.3699702170621506
-0.07779999109988249
0.14313154494832184
-0.0380226090666742
-0.5166494971080624
-0.34748678988877263
-0.2903809154180543
0.01661629708022586
-0.23496350053865644
-0.5007973778736488
0.2952736408288625
0.48556662892395946
-0.08355248274473961
0.41464420827412624
-0.4405230861237487
-0.0893511884740629
0.0003623519417327042
0.12364556536924076
0.5040849228912773
0.23223548643404146
-0.4489498901325995
0.09563130978621878
0.5528116629376044
0.039332766108507
-0.22864061861117377
-0.244235490701178
0.08783567336739846
-0.20458909777221598
0.5429005634865054
-0.004612182022693045
0.1334479554489752
-0.13826069368003874
0.07495614435925894
-0.3623413863840892
0.17241721290794237
0.44007460494491696
-0.2623920325049291
0.4609637201969973
0.4686485567001625
0.2472212785745676
0.31464407764762714
-0.24331914409297328
0.5418467390171366
-0.16221028900840442
-0.23561843880385608
0.014461503736580106
0.38788100047166524
-0.083496967707453
0.1341844107032856
0.15936629634010246
0.5127453087043278
0.25884662142887566
-0.3790952930881994
0.06425118642970201
0.13105384208244011
0.20957417675216247
0.1841453811502037
0.26973309574594917
-0.103124982172326
0.30690623522215604
-0.3811036369913808
0.32629198912252416
0.18680837151171886
0.13384451718370768
-0.27740914198245775
0.13681152639235608
0.027117023994211516
0.34137271151189136
0.008541824398256714
-0.2658009884343979
-0.15773459547875926
-0.1168260203909706
0.16809256410383655
0.060853141091630814
-0.219646582687739
-0.014148779585117717
-0.08207158573693638
-0.1421265886703354
-0.07893154064722686
-0.20512647461672823
0.46103040772750997
0.20830859069155638
-0.20463700381481062
0.4703047493890317
-0.3570665511942379
0.4399769287507714
-0.012089225120680003
0.30683321980106926
0.07689150788567713
0.43234751815136946
-0.18594444104465588
-0.25497099620992886
0.38033874237803017
-0.16815111086014234
-0.4654998294136888
-0.16819399363015441
-0.20474195002182125
-0.4177934193394318
-0.07947348335959223
-0.015735169989737813
0.2826186607003446
-0.2774393314709491
-0.13103811514307825
-0.011244321016317834
-0.28017965753382085
-0.06847406805521887
0.3993256099406394
-0.5412002490107366
0.012895236718015393
0.10705003890136809
-0.1295518628641312
0.23086814114486104
0.33167640683339394
-0.2565846479550579
-0.1442590256633997
-0.021446134589279214
0.2579977302408621
-0.08008956304737282
0.09673680882049461
0.04502584057118732
-0.2018776023238511
0.02387439232286118
0.017662178893248497
-0.2057778656078302
-0.3403403077052595
0.13805821756627218
-0.150304119445518
0.12165741999125426
0.1817796870675133
0.2189678691871612
0.19773997885914696
0.021168619948020544
0.42832359500677847
-0.4779936445966643
-0.10091041421264858
-0.3493146475423756
0.3462278675677671
0.16024096326522277
0.25672989662907086
0.1386657734998409
-0.004940065965698099
-0.18657354876791596
0.38757339530934715
0.5187328258775918
0.5359366217357697
0.23620878310763424
0.28109097836600117
0.33061094895835164
0.3473091485464516
-0.11505107149055789
0.43315633369004386
0.09373413090698701
0.6039718365915323
-0.20814894849458676
-0.19800947764436455
0.04066014867493095
-0.42282273096056644
0.40373015760461245
0.07238318809741517
-0.5175876455550522
-0.3982571325270477
0.492479320541056
-0.2375366680166082
0.23225958187346896
-0.02616390103804403
-0.2811629073739477
0.1077018887725012
-0.11885241423116473
0.3725805550850569
0.28035725090451896
0.1162187570406052
0.055649351551461806
0.1502480732220845
0.40935186981258853
0.07810395794072778
0.30253606962279567
-0.18381922208431548
0.5045637751165976
0.12630937564587724
0.1891136809041667
-0.4371507681852597
-0.6039744304203096
0.28078213078713704
0.32863545634099245
0.28264370069812195
0.13796764114413693
-0.14914201077278233
0.2539710069734944
-0.31848092429723385
-0.5605655204004367
0.25754071704904524
-0.33554583802522836
0.2824866942274869
-0.38227679124015196
-0.07718044970135236
0.030817152846025035
0.3281486568903064
-0.3700790190836775
0.3819337448888263
0.296530130005436
-0.220821630680009
0.10289051678152428
0.15131223869830412
-0.2232823275958144
0.3454793915068999
0.46901924957836894
0.264994838794731
-0.05387806894769034
-0.22416789320095068
-0.32950684753707987
0.2513176433208644
-0.24784612975523773
0.2197825645123664
0.07179320906928001
-0.4959464321223197
0.013105598883051043
-0.06549854248398287
-0.29305285452064844
-0.1128975872962989
-0.485450811568117
0.22184590836977622
0.2405923518800655
-0.11371554474907086
-0.029322744309252254
-0.49629747282353587
0.2512330398560584
0.46309154432826
-0.6393485695441348
-0.46142718531134047
-0.3196528955645253
-0.0667127814916444
-0.2327156101462594
-0.09330588542091332
-0.006496380296838232
-0.22021188999775854
0.6378567659983077
-0.28338809580319907
0.2898244579242413
-0.4037146081921049
-0.5232201108090611
0.10987978781665814
0.08998647569343901
0.21338102609349452
0.09864555301639515
0.2814106289085631
-0.23892178676881218
0.15955998440521235
-0.2683325752555085
0.18170220490343267
0.34070144274344266
0.05204714432972471
0.4269407266109865
-0.15588949972815794
-0.13579820408178517
-0.02743740021568738
-0.14847260045668587
-0.00812456695469982
-0.12713616761121116
0.4377833811857169
0.12439560509360936
-0.10922290878877156
-0.36045374140762126
-0.47775000090635433
0.10676275299050815
-0.07448080084677368
0.1833635262756022
-0.23947236597240082
0.17963272950650236
-0.3630809019947098
-0.1441253859459525
0.544283950160083
0.1102004835722703
0.48396573782392005
0.3085817837441442
-0.013791664182051022
0.4119977857607458
0.44125057843930704
-0.2241435965959074
0.621413931518112
-0.36615177899211404
0.39304655193005866
-0.4357559022016226
-0.30004313976538427
0.24574655183662958
-0.4467689121239811
-0.3865543946427408
-0.351084084457736
-0.10458805400347056
0.3295222874781856
0.34125792683800854
0.254208536956725
0.41460418788432785
-0.2702715865025357
0.06634078703745074
0.35443727506519535
0.059241472284142296
-0.5123284376842238
-0.5960775363962819
0.4410245662151507
-0.051383428235512625
-0.062336487183464205
-0.09609855388568504
-0.12391510040525848
-0.0380876626296993
-0.17392576214041436
-0.11253722179696136
0.3845422421494949
-0.3042263729400641
-0.2763003313275681
-0.2342242140318874
0.46301432476921833
-0.4872979852130677
-0.04302478560188892
-0.14301424843363172
0.2846755390488691
0.4597195032414483
-0.5472235414573212
-0.01991775167721813
0.16291869713477516
0.4224025190290682
0.3010503007853703
0.39824384520551587
-0.3094744349250023
-0.33625718806742977
0.2736113563767899
0.3820497760815852
-0.11571734952169309
0.5295354874731625
-0.06196743262752885
0.21003763412159535
-0.402764337140893
0.05001817214960527
0.20613391102905704
0.10102137295991649
0.27929310346819114
0.02797605815222878
-0.18354239319724555
0.6254475068545219
0.3876835152060476
-0.38797168205510535
0.27566242179929684
0.13011564621381472
-0.23465365311498634
0.07973995249041567
0.35105003313080874
-0.08382214499734401
-0.31913228756721695
-0.1046736435299924
0.2595319166812728
-0.338847894469187
0.5500623044968551
0.15071379810441443
-0.2005396726846765
-0.07760242168429694
-0.1149779881919116
0.5552836429734657
-0.11973675658699276
-0.3876754986468271
0.15825428594959767
0.4221944000272384
0.4166531380055315
0.2589535791372839
0.47477993817066183
0.5495071121883172
0.2510299295759375
0.12119479321200777
0.345465790218836
0.3679467833591459
-0.022914350014734085
-0.1745288689921733
-0.005093731388771592
-0.21386367609619136
0.24007534256899277
-0.388953738144181
-0.17865295100795783
-0.06178889624950297
-0.1563014582805457
-0.27910242058793555
-0.01209172720991575
-0.3278247239263382
-0.20094155200438651
0.16675587601036196
-0.02012736317867449
-0.4277516100638428
-0.09247897634314863
0.006653607789174855
0.019373347858399777
-0.26003895916158387
0.31602905644020257
0.24049990456507364
-0.19796265701209467
-0.38909725514484256
0.056646447394247665
0.1322751303713736
-0.3545052916202247
-0.0017662269672665716
-0.14126644818691
-0.08793866360429488
-0.062225781854943596
0.034130065852737375
0.2766432159442644
-0.4046753474592347
0.11240099978365821
0.32811833743677143
-0.03909272481034059
-0.09558176543513174
-0.28557681628078785
0.4724318868657655
-0.051086204995508346
0.15934936071350342
-0.34193150974267217
0.41278686825282096
-0.13434143546591504
-0.18094791247412517
0.016927987622441264
0.04198617441861047
-0.18626504626180881
-0.20794772238212134
-0.40320232950169355
-0.4335080137025936
0.045054551480311476
-0.19528983637846883
0.1961670497397803
0.12449630636513843
-0.28885060995571943
-0.45288547764461107
0.2175532401105567
-0.5150460896266906
0.1514584941130694
0.269782367612441
-0.2381086635137128
-0.45773593761711484
-0.471542957706967
0.25482308256335956
0.07795106361538628
-0.52965506032855
-0.31853052030070483
-0.4639747964029232
0.2998854437619246
-0.06194739441622241
0.37444173302142497
-0.3110913640631282
0.041520793828490554
0.04486970712734805
0.25579960614880154
-0.00514959491438502
0.14510089938633342
0.1722310823056223
-0.11794670888206672
0.04003766034820674
0.09868149394541131
-0.17801095089998095
-0.05066286314896276
-0.35739570489388356
-0.28070262761504394
0.4433641388382625
0.3780827947634548
-0.4129055511883877
-0.06527872728458901
0.386995970012265
0.12127781602348395
-0.028854870632597063
-0.19056144494227623
-0.14224779440860275
0.2940442075145548
-0.18124256608932418
0.2376758193054164
0.24483095547914085
0.47986606234716317
-0.11130491728656984
0.3336660644234555
0.25471866170565965
0.5109510489471564
0.5936194240619416
0.600744357067728
0.31840192071260726
0.11056696898633724
-0.11782456518735965
0.07233539998675977
0.10723103831750139
0.41648925711113166
0.4078361487483949
0.11679234992214571
-0.1544176896470962
-0.021915653543642027
0.3299914916132202
0.14965521541611274
0.22088651513570934
-0.590983846018633
0.3074305671474922
-0.38287660765597653
0.35253033130135436
0.5940806565228719
0.1835755436349285
0.5952599371425755
-0.13774461742013216
0.2425778572306737
0.153617833057935
0.13985436130212422
-0.006264141104986151
-0.17741587288810273
-0.22817485039665558
0.3815813282437882
-0.5099222231923648
-0.4335755238470196
-0.19317307432825015
0.02080349657936841
-0.20338127067231454
-0.19106793077523357
0.3912030530780682
-0.07309697613664241
0.27414554577941297
0.24880197695947398
0.42905549144529226
-0.15346581013536517
0.2523713768973795
-0.3117603760523771
-0.09115724859431559
-0.7071702266597629
0.15514809375495003
0.25568516374661876
-0.010106432495744867
0.46400403702076026
-0.06367279091830298
-0.17302741046093284
-0.2592224200897921
0.5245718339440625
0.21129341264349077
0.13909955710899327
-0.19147532371055712
-0.032747800900600206
0.2006996513281888
0.2271792226264513
0.3216543091325157
0.3165410490081775
-0.09781143330403479
0.07989850175075976
0.3053796020238837
0.3450946872901988
0.2273991809723039
0.14137427280076206
-0.3559346374015956
-0.005688619144084119
0.02598735588305807
-0.45711891428390516
0.030475128820321027
-0.44163120215002905
-0.1811709733598395
-0.03543862664764498
0.14042825534411293
0.1420007602808336
0.5099949046158381
-0.032286643903278275
0.43480655780174554
-0.02378092840870019
0.08190853861046697
0.0698392633597557
-0.35199762438302595
0.1934289387774762
-0.32663720659634005
-0.317820106626219
-0.3443623592347118
0.18288236656552645
0.3173610429173569
-0.3002388869955431
0.33868933745113344
-0.37064977675928795
0.09978267856774223
0.39246209180066294
-0.4598379624031086
0.08185092412636295
-0.4740852578885651
-0.38470922314301154
-0.20614223326144468
0.2768527929317169
-0.16651994388769273
0.14218623959318302
-0.004883033162895732
-0.195059919367375
-0.07248749568573103
0.4593675327539441
-0.0240441485081941
-0.18708332175538422
0.27038746842011346
-0.2526816070524518
0.520147872591468
0.31540076397402683
0.330212105502489
-0.1263462745081202
-0.13387714670814166
0.5511256293185707
-0.1720571138213234
0.5400001128512326
0.09345269519861361
0.4212969354808692
-0.2543036163880922
0.4266827992023839
0.4096478367757086
-0.24718548995797754
0.3632050363170007
0.5616988920303824
-0.1757203202152527
0.07887227192301377
0.4280557396266307
-0.1338404472035444
-0.25904259487766923
-0.09666332001057505
0.09408377638231014
0.4421732055417573
0.24238747311605852
-0.00700415788467404
0.07173871797777644
-0.062321685482618294
0.05666540411713281
-0.10085217258357139
-0.4841979474918737
-0.159854227516966
0.049787813600476245
0.44184847305044483
-0.30368351663952736
0.2516330323759263
-0.19170581686822735
0.4123192936869713
0.17065956879660568
0.15390618215036483
0.3784035606494863
0.46340252804062854
-0.5855807549239384
-0.03215583882200694
0.20350056566296415
-0.2789304506053229
0.22455457183638067
-0.11902767036475191
0.04866528825472092
0.05667219280127527
-0.39051664432210503
-0.40842722131840037
-0.38591553391732664
0.32613943637966075
-0.24954212579877844
0.19908746193043467
0.014766322943978491
-0.18825494286216646
0.06318692359584473
0.33258290827389525
-0.309849914047244
0.36803143381725506
-0.3545079197411746
-0.12935895860501848
0.40965322681867533
-0.3153798939274775
0.21196805673818284
0.25126162359951504
0.5446808519187485
-0.1547290792183241
0.39058385891737096
-0.04756986503363322
-0.32576058090227006
-0.5677854758794918
0.00021230014869376158
0.23951921993643577
-0.3633732694352527
-0.09478929185295866
0.26077611208683504
0.3971023993235665
0.025342108978984437
-0.2159920283207501
0.4721553738592724
0.2857259683036499
0.16511608168946185
0.36609446973077525
0.17705644297978346
-0.10199410953677633
0.22342998108653447
0.5222738561545962
0.30136494649146345
-0.06254376786441394
-0.28285653055471616
0.10242088684952273
-0.22311838855512595
-0.2555775293932183
0.09220921565490656
0.25680841017259376
0.46185508315389007
0.24338072430897137
-0.2889905555754746
0.5320402965626859
0.056844109198282505
0.14787518709682596
0.38727144272406233
0.3370081280323441
0.2758590418908099
-0.2108806809105594
-0.3062298472203792
0.07464356143529208
-0.3524679621763914
-0.3500481192992676
0.2402005658593501
0.06113105117642168
0.34065361524116905
-0.22240708104489207
-0.415461782754085
0.39087320353384536
-0.45947365675290114
-0.19528067185662376
0.09312171208348573
-0.08880810908228146
0.13413259905331018
0.2996507278938321
-0.3375249034491926
-0.1447256589442038
0.261735234951245
-0.03902594363474771
-0.23131932320367027
-0.09429154614906601
0.3942333324225556
-0.1963092601518033
-0.21628420247193697
-0.30683655484978833
0.2608118865608655
0.22188674482774265
-0.3085367304389031
0.2592753749481171
-0.218451482731476
-0.2848278666210487
-0.2182557656211051
-0.45436993702660183
-0.20318821246316612
-0.019816581864957446
0.4438888452957389
-0.2622939873363321
0.17168455823570977
-0.16438843147120005
0.25889149690102403
-0.16891517535981126
-0.25730902616338924
0.21266229491778935
0.4063670458365852
0.23295466539206464
-0.3075540101639261
-0.2260126424069793
-0.15993818820208192
-0.5124766468382261
0.2411075037884677
-0.45619481511359644
-0.3603746943883884
0.2942550650839143
-0.1453541430238594
0.10476337280368554
0.025681552327065423
-0.17515061603185617
-0.1125418787095098
-0.29156159560077616
0.49111030002702755
0.33989613646026046
-0.40871210765691784
0.4024914636011307
-0.1253055156179652
0.2947607813266202
-0.41014436799390286
0.4139374750448343
0.4701708361824764
-0.6178588008917366
-0.21005029547721724
-0.2797105202776226
-0.03044792888545405
-0.027884157677343847
-0.2984003750427201
-0.2586281802654336
-0.08472158349761749
-0.014230601120322579
-0.08570077475791389
0.24391676340880908
0.07648623284450706
-0.20173924768821067
-0.05447679883691127
0.39206223884578173
-0.007146475789968313
0.5685669135034604
0.10360948553362193
0.46012173687776586
0.5658800244980704
0.2228725824400426
0.044293607575436975
-0.066085781761451
0.2995804208622841
-0.2909999151435772
-0.11187603150114311
0.30500536911732307
-0.1706258602514203
-0.3196316834010712
0.19864101352847727
0.5720583884276803
-0.3355140823959871
0.3246277667527173
-0.08257627102230107
-0.3565946483327814
-0.409690204323716
0.18816827070001702
-0.40303378750129515
0.1876711655959896
0.5167165575196413
-0.37019142643502534
0.3142240351355509
0.3747443377163184
0.3303900673758806
0.3594065438302867
-0.03460060529981731
0.19037676083274313
0.33902594890128557
0.4638288325173871
0.42865889739196134
0.08874375951483239
0.06406033423270024
-0.45213827785376465
-0.25657348073887626
0.1112525798992692
0.3910282990523626
-0.22861211452682162
0.4647083013885703
-0.023600937048910055
0.1844683961844829
-0.3803249413566216
-0.037484897270754915
0.21682917090341997
-0.09985644198212369
-0.5219720911801194
0.35998992761327336
0.17950629684579886
-0.0352296626908282
-0.44639137291721676
0.10160968962673582
0.10443335281786852
-0.0463510132027666
-0.15169133327379605
0.513219233125188
-0.04355743606281151
0.1813000468036224
-0.4686958416491444
0.34875413468545946
0.46510230277236114
-0.557015328806602
-0.4533207869172432
0.265180139382736
-0.19863753618641572
0.11274591967728506
0.46621502033323337
-0.21582121128189025
-0.34069067109017553
-0.3149817815276814
0.5253067727785263
-0.3481405538519
0.005540514440250788
0.2602262099684509
0.09538852346050283
-0.2370370347402548
-0.17510542170487822
0.39570879338835613
0.18842523192848423
0.2709959263132837
-0.26696738891828037
0.3051623676762055
-0.41785540384591735
-0.47256127279589766
-0.49705240073762996
0.21271709215191312
-0.1252617474669151
-0.32031919493190486
-0.1229851787623103
0.1510082884852713
-0.5276386249701859
-0.0250946260106925
0.37179636404658856
0.3254252498844305
0.08933637642158931
0.26520444641472785
0.11483406967818818
-0.38397709535993924
-0.22038356940546927
-0.1985715202881843
0.2371229141458859
-0.11648343670750098
-0.35560331183037913
0.3425422728118771
0.17052634412254922
0.16843170287917403
-0.10250003596105287
-0.048330894069431515
-0.12060659297806188
-0.4336685256912953
0.3070280278871584
-0.004078800128073071
-0.15958142262764108
0.15575742859498343
-0.2504183952397635
-0.42278149434634094
0.26966414574015446
0.3048311154947585
0.20541022333757838
-0.18733402378817668
0.1903928487068544
0.14653624440975957
-0.2431467441950165
0.08532760981048192
0.3265306733466094
-0.13361611367973902
-0.21362558636643694
0.055808989115191616
0.4094801717555714
-0.17706918961911516
0.10632366741814914
-0.5130179765815956
-0.24991564667525407
-0.11416889053658026
-0.25323848475737504
0.15506645821417744
-0.49544229036191345
-0.3304010684711701
-0.1302743994668185
0.05793429747537651
0.10894191945977925
-0.4568163182996534
0.25911420165451043
0.2287894869058944
0.0718013811735245
0.16467152215246528
-0.19949546873468754
-0.10785043926300825
-0.20366241529487145
-0.058703557827787974
0.46167205345827034
0.31189961289445345
-0.5691419898794675
0.360534220704661
0.4434710392757973
0.17642011213456307
-0.31122943903695555
0.311374983877706
0.41293453690517573
0.12575304746592353
0.10345895658829503
0.34678963168078797
-0.11592766375554005
0.09952976620899659
-0.23375401090502684
-0.23641221040261165
0.10774357131393054
0.14426250090880954
0.18013545357766647
-0.26624688759194637
0.2826883173009467
-0.029892736460466737
0.1402316275410458
-0.025028004921767263
0.07974857026120011
0.017741883915291832
-0.009169972757633961
-0.21752325884928797
0.3323397674267203
-0.15760286579916374
-0.38733951901151187
0.5089342653070987
0.14542610321554894
-0.28014525379807337
0.3588253501529848
-0.07691017756916041
0.33057008105506763
-0.2386147039414262
0.09038573629585896
-0.33557372246198686
0.2645849669827341
0.06894960432135029
-0.47613005320435603
0.06597600758285929
0.2831070061377005
0.39556710303141696
0.19972298612740436
0.18480516488546814
-0.07858573873308364
-0.5005373988433324
0.09840592697474462
-0.023084740751390095
-0.3769062778224677
0.18288580291388287
-0.11848899205469297
0.0829277655754577
0.01867985317894428
-0.10024745836172733
-0.24806009972794624
-0.20165266153196174
-0.3838157984986846
-0.3874754298896747
0.39625406215158654
-0.2065331718587044
-0.6569669873127076
0.14650905506217124
0.25850410290333187
-0.01126011193443223
0.2905245665271169
-0.3714769626140665
-0.047113163357394454
-0.208594286490321
-0.025561388924031505
-0.3246539674892003
0.23894952802705097
-0.10166833535677008
0.1975115088346847
0.3503096464769429
-0.3727090789773033
0.08060659050284204
0.0011767645625232303
-0.2394272275761803
0.3728838308981284
0.359255429927596
0.2749815615826344
-0.5160279558380002
-0.388421884039772
-0.08055892314655656
0.43185286301944525
0.04302859454479239
0.35209890274255007
-0.04943529989619248
0.2050818758386362
0.01633321132961159
-0.020182504438465112
0.16657291119125667
-0.09444023395732058
0.44407314362105027
0.36717342903145733
-0.12027085573744868
0.45210837452368213
-0.3028885104455706
0.20545862467458068
0.21090183425734774
-0.3265224208003715
-0.2724364869540639
-0.09677153903362308
0.1756389505867961
-0.16346002348080838
0.16875983629562905
-0.33944298271179707
-0.3143298473664068
-0.5592637324312145
-0.3386240101701157
0.41613992825247453
0.12856872266735628
0.22729928106571223
0.08121136951818196
0.3273043921549818
0.5032985683484728
0.23532596534577427
0.12335310088709094
0.2118769942550566
0.3156236571993366
0.18480724832354337
-0.0980789861233277
-0.2250583567837363
0.4187594066623021
-0.01970803518547401
-0.6612865110414792
-0.30542520277921237
0.055594413212930884
-0.11863570087798764
-0.07484232357369644
0.13931333285367628
-0.4494103397695447
0.15850980467431774
-0.5608942108992067
0.0023544675834967126
-0.3637698474411331
-0.41052704502952686
-0.28318485757835865
-0.1790125653461908
-0.349597081405722
-0.25399444934219795
0.2521410281793383
-0.3792321264821897
-0.13638962830901127
-0.23923038283966816
0.4009293446199623
-0.11999902122335396
0.17834166455481146
0.18259526585896346
-0.050388597134367316
-0.2302361737568919
-0.056707614974372676
0.4073172462930858
0.16924475361333458
-0.03719460603526452
-0.48704892787050647
0.09475834044324241
0.4617482995800349
-0.4189590879376673
-0.32870609915420557
-0.43212640297502647
-0.15772947251757644
0.501470389444602
-0.4539350726990301
0.5037878267980551
-0.1218266554070134
0.23237361586515165
0.23786492233173942
-0.5088747337586006
0.37238973114825963
0.015071056477635805
-0.11946561374545453
-0.49629947109789724
-0.35056138910284973
-0.4469184040538283
0.36264629190021225
-0.18125580392502852
0.3308104743857651
-0.37226890198952023
0.46361706535236413
0.3797199198728484
-0.4003352667072163
-0.2564613779993726
-0.14476258796612676
0.24968172738432218
0.18435750016274563
-0.21890656837412142
-0.39079487534864144
0.08543237629975149
-0.10875966041950366
0.4218726181711643
-0.23448714879001753
-0.3240896013950587
-0.3123750201070983
0.036105413267377776
-0.1511069665097264
-0.3845953319900585
-0.4346027964209378
-0.3077532396924746
0.3509993969556129
0.008953093047997341
-0.3477437161721997
0.2310916454710318
0.28761513189468435
0.348971842399696
-0.17672745508310359
0.18326307621877028
0.09174638660876434
-0.11852635943437366
-0.2620210263057733
-0.3887103589938262
0.03530330823462073
0.015587480283645294
-0.3779543871802105
-0.21378964176541082
-0.3061893786781723
-0.24687307929418018
0.33853360567949947
0.20479417110891424
-0.18669819244621896
0.20416266751333922
0.23198651866919875
0.4384895433684223
0.45915824908193936
0.24971398734422035
-0.0452289595478606
0.35231748356264814
-0.1120046801644563
0.056852113117958236
0.20328730452817478
-0.30331491527125787
-0.22366694512253038
0.07316585633542194
-0.3879845747424055
-0.4889636620276592
0.24454408898472235
0.07643410121317033
-0.10017588248795026
0.5572942398548693
-0.16259931865176064
0.10500456074997246
-0.0369227506097436
-0.4028593568245848
0.14678456708165394
0.22410136884694223
-0.34859774029739254
-0.16373785898284163
0.02739544889582857
-0.19998161677960194
0.24145728123245117
0.12901516113089243
0.4627954064922214
0.3365266877597279
0.26465359151431594
0.5056481878878982
-0.31248994570178545
0.09252203049295847
-0.2944695997686814
-0.3337411684982763
0.4471315002586562
0.2415995268440243
-0.01613425125283974
0.4803322455900309
0.3083560136836558
0.35534425606123193
0.28589960386800123
-0.25838422921026344
-0.13213459003501762
-0.1923270749881417
0.04035904113537885
0.22561981380736074
-0.2577152761921717
-0.23462556752347488
-0.11432416958130438
0.14653302285716596
-0.40276227449013746
-0.23571778847747082
0.2124170274300462
0.19430307257525822
0.3684749328422255
-0.44070819188086374
-0.27894406042848235
-0.10183154440805312
-0.4022902632113626
-0.09085706950957274
-0.367870546862095
-0.07974624784355379
-0.23195828127848128
0.4584012750269858
0.03482830999600416
0.2483373852692942
0.16638350093666504
0.28526699012386586
-0.3662765084197193
0.18034202102146846
-0.33453066265968423
-0.0809779620527561
-0.27737700707683
-0.4509933601108913
-0.39059168519586296
0.10079536741423241
-0.15191167791413365
0.3904456618633149
-0.7064552484002105
0.5021114181749617
0.025754174827606845
0.595005086052339
-0.002773605193479646
-0.4071445328473466
0.1017406350050152
-0.60398981213638
-0.02889850449002291
-0.07642534842992796
0.14827787625954034
-0.5704388163279331
0.28310150253893673
0.07300168504005053
-0.14316834989322755
0.5645690519485858
-0.24088830694974966
0.2633514952136201
-0.37004550032713124
-0.3996708593624474
0.42357676718376935
-0.2893590768166614
0.20215315180664625
0.020149648067984825
0.5535951754031166
0.26185926138694265
0.0029764866064592417
0.031477029451901575
-0.05300000087496076
-0.11877998959780756
-0.1498507430704971
0.009616078085362408
-0.08820878079677014
0.24543032717333618
-0.005471337087352904
-0.19862913989915576
-0.32745841353860755
0.14815598018830334
0.24174527874829804
0.1832633606402382
0.3445841665641495
0.25783493326263435
-0.11666786487575098
0.15936034268413282
-0.41241802846080305
-0.3341938154198825
0.21533126398239136
0.2816335642746164
-0.38468117924526823
-0.5853141727831186
-0.2926736836360439
-0.35579011525590204
0.13003202145382223
-0.2822461351979902
-0.08110075141035061
-0.15668149640021142
-0.1262562904010712
-0.44897494874977883
0.44377977279405556
0.23442854010763342
0.47631456332693045
-0.0363201788887279
-0.27049599687077813
-0.26662913069849753
-0.3291663019890418
0.10579451126414832
-0.19826117542181665
-0.0011415400493661714
-0.1832221294163414
0.154969983018211
0.34048026832847067
-0.11310736186870884
0.04834209245701363
-0.17016941329177807
-0.042061751137818175
-0.43428320619381194
-0.05909417343342607
0.12550379761599872
0.16313512424149698
-0.15761674991894736
-0.4240974534620695
-0.3850422350505385
0.15155747184952786
0.2517449265275607
-0.3144959328136104
0.012674473846739576
-0.1626513797511961
-0.06352059584967695
-0.174097282643127
0.033048068286194464
-0.06218752345540218
0.06425147957720008
-0.12498392317240373
-0.2648582002328829
-0.130990916020796
-0.06311482901025986
-0.2616037269039793
-0.3837912010180541
-0.09441550731764818
0.3691255463129095
-0.1837500502385572
0.3451200208241402
0.18672439574544653
-0.05414270150146322
0.3361322645458327
0.3012531838336118
-0.26416012258597116
-0.352796157902757
-0.09727999727726402
0.41704602810741404
-0.32112489929304516
0.1062980518197466
0.23041839802507133
-0.060029231409439866
0.004162253743989977
-0.27028223702230714
0.12599278470413774
0.13070192577496093
0.37356455415221135
-0.1703517476056309
0.33586384153712473
-0.38811498577548825
-0.09177574722433633
-0.21513542151972168
0.37086479915501624
-0.22302627088248608
-0.4454440960430299
0.388303893264918
-0.28899010296264477
-0.35128947030658064
0.11609014749763978
0.026849904859903857
0.13073526712130892
-0.053315967675891356
-0.23221250201420884
0.3313761201519341
0.3952353843915032
0.23246586216436602
-0.09823634486095767
-0.08805440540120413
-0.3497086211206829
-0.11084553158583217
-0.06278196909851046
-0.07247623550665543
-0.38643473135872974
0.10594606309376071
0.04662076284546793
0.3203109838904736
0.029036088275149995
-0.023033700858785887
-0.03337798276453423
-0.4564691922432482
0.24051331950835747
0.1907143019006055
-0.525458382755679
-0.06851868533054409
0.18060339852778684
0.2828695369160967
-0.16054361468670025
-0.3362748064208882
0.2461797639265768
-0.4323245228638959
-0.15591298632747988
0.4345154224240775
0.2931214450360475
-0.031558382044339826
0.2951478330548375
0.28767298338667796
0.527576200207348
-0.20674916411882105
0.25848406210294733
0.21990939576345928
0.430524956316074
0.20760906528935608
0.5694052676397632
0.5793414540255006
0.14642021941163674
-0.4621445320995202
-0.34200543896647895
0.017252950688955427
-0.3618999813906462
-0.48384605374191103
0.2837976399309724
0.04973650607054775
0.34118251668326066
0.1199651845668357
0.02022444785989247
0.26227021297491526
-0.22600826772549376
0.1227140477390384
0.18575580644846304
0.36588969201398175
0.07248093964599807
-0.03342641139462145
-0.33093961203000694
-0.35523654236459673
-0.39497316327978205
-0.04178749489190256
-0.33041521365229215
-0.10952971096322736
0.2467468035471291
-0.16867146900319702
0.31492207423439006
-0.31071967367017467
-0.26919165320004895
0.44657438679964845
0.06203365350704377
-0.16604018241071233
-0.08573197811773726
0.45986935331209644
0.04844875833097379
-0.3583784344413338
-0.3421747003240438
-0.5850628509765375
-0.4725705828478811
-0.07155728285527642
-0.3344529716676599
0.12303589536443126
-0.08598724008284109
0.3160817322607824
0.1824232651260972
-0.16743061487001124
-0.15282336371101155
-0.22369357764852338
0.11129868307247716
0.2911812354173117
-0.11093854304730505
0.022309942340506563
0.07428069505535846
-0.6849087213817637
-0.2123016074182812
0.04582277603018329
-0.03237961611658188
-0.2796522188221976
0.15115611255271236
-0.14162107539780028
0.534667760061177
0.29798401667116764
0.3371914267859144
-0.3879501915195231
-0.23742176117929797
0.2518303941392568
-0.33278145131906595
-0.05245809794198306
-0.022640478859891358
-0.49998376484886115
0.13815085116429954
0.4807938574909229
-0.48967804679452726
0.0607208001341354
-0.16002843178921292
-0.059002299122393714
-0.3858505692648534
0.206200486285366
0.32689044556477803
-0.20854790037522217
0.1659845542096285
-0.30003460133009224
0.1257362838078647
0.22128123158943613
-0.09154641782178947
-0.06154944530531051
-0.2458375688213208
0.2749572480930273
-0.011425899750425891
0.06565078729911933
-0.387497559973476
-0.30085681959772576
-0.5570172337671562
0.05858826321494212
0.16956284963874346
0.1708126619407036
0.0990431550049513
0.08226607682254446
-0.5954048446132137
-0.23689898568652384
-0.40366933884679507
-0.0953983974833222
0.016816255719155834
-0.41779128522549414
0.2525444043930549
-0.008333051141397724
0.24891259783916847
-0.2121077616848566
0.1173757654734715
-0.2107161715566864
-0.20639541521642116
-0.14356796879864506
-0.4625578684662651
0.02908295495752206
-0.45643842114866534
-0.18500879351276245
-0.26497993310807016
-0.20087050607568024
-0.3105097732668024
-0.06055752501297625
-0.42612493477917096
-0.32638177190565787
0.2239227865500131
0.01799891005173793
-0.11611205000397923
0.037555137919360805
-0.013258387242312042
-0.2807915954044497
0.40402229904746606
-0.14752906981687866
-0.2802589905819097
-0.3790301083747917
-0.5153535153648737
0.011946655144827494
0.20193432830327418
0.24386062213522286
-0.07237773704905877
-0.4845114622448099
0.2966318687036103
-0.1841765845575339
-0.18009716904320452
0.4222464597779558
-0.3694764044166032
0.14729355808100836
-0.07777622120058988
-0.1842605539768892
-0.23507471343359426
-0.01005873620398932
0.41747528472711215
-0.03401202907116374
-0.14718687812009895
-0.3608684776664842
0.37841930308560956
0.10482470508029607
0.4034433330804294
0.12079121790405066
-0.1911132169114341
-0.554313600923735
0.4386561549425094
-0.35979029530931284
-0.07439837456681471
-0.1736155267066955
0.4250694422784659
-0.39316977505771705
-0.33752489390023255
0.13854193697581033
-0.20968463404650017
0.10136414684833753
-0.23241657279827832
-0.2669796097317226
-0.15272434016508477
0.2577223894000449
0.27549626612719424
0.38924346445209923
0.47098013625161395
-0.11274066725886116
-0.35321499536359485
-0.19330280430930752
0.07355833923143003
-0.05590698968820733
0.4514274910451816
0.1660613608436566
-0.24024940361136982
0.5178041273501832
-0.04573644395821633
-0.1037261554997754
0.3192161367574794
-0.1267835049863593
-0.21074430751386697
0.19023936238422662
0.09898767448197392
-0.08600437958218395
0.16507239642050298
0.09042262973986118
-0.21342731535981208
-0.12889473390862685
-0.44681876625355516
0.3791757762212625
0.09270548465957593
-0.1418208191188489
-0.33768689051741846
-0.058866019418877376
-0.3501501134202149
-0.1722180565079416
-0.37895487247796494
0.3198456205925365
-0.44450370790693816
0.3942332363676713
0.48726942744896407
-0.49936107402068347
-0.21845728887031485
-0.47863397857296164
0.08935235488586296
0.3579974699283723
0.13214786529212033
0.19919794961448717
-0.3208152789138397
-0.41635095509487996
-0.40235803845042306
-0.41907938232704756
-0.25327143601942165
-0.10163078178410032
0.12929951851396274
0.46425878499677814
-0.1775707235870952
0.07310851328589062
0.2170291908559489
0.18365453242359167
-0.5097632252461114
0.2941321979393767
-0.40923271028464436
0.3045335516243976
-0.21742128041132194
0.21694242940224012
-0.005571192908087804
0.4830997783516678
-0.2452438641997752
-0.10395240035106007
-0.33483454676054586
-0.5210233165092495
-0.15126839065070563
-0.290598328821643
0.24454382519616022
0.020842389287865876
0.08438748505109805
0.12191260360088357
0.12025452161957699
0.3401060068194305
-0.48087340760132247
-0.4412053558431231
-0.26611479466914756
0.45828063045590656
0.23892166820465527
0.2857491868912435
0.16040693159616454
-0.06178429344006568
-0.23102955988875165
0.05863069085375116
0.0315188469248646
-0.13529603168630572
0.42972770722435366
-0.12739566855223744
0.226557835192303
-0.4536030002813899
-0.09009239318367648
0.007734813388605193
0.07274619012584428
-0.2568183057934858
-0.10454051311282912
-0.2982832197753236
0.3820952881559738
-0.37900563608531707
0.22749746231416712
0.10547730161468463
-0.43019822421017323
-0.19356858591709716
0.2518285013666481
-0.09540070717587114
-0.1749614917766607
-0.15739295157327268
0.28426811384039047
0.18418234626212412
-0.26031925618097623
-0.24936147742438988
0.239489291179351
0.036878963806197824
0.5367186703783138
0.03788937923565079
-0.0750746265155119
-0.12615738877730323
-0.05256886300503066
0.36935616149100164
0.045831848142932376
0.4571530166256433
-0.04753550578635517
-0.171343201318102
0.11770510397752953
0.3008010726709245
-0.06171807326059031
-0.09498655768992467
-0.46671248609318905
-0.20043940879631655
-0.1458297933660723
0.3766762788738333
-0.32453671437376636
-0.04619998584906538
-0.14935358238846286
-0.29280045281717615
0.05404710567923389
0.33035903784901277
-0.40801232079074107
-0.26846306958487753
-0.3614505713965828
0.5101474302865516
-0.4060345982409438
0.1876516484370708
0.23415411496836294
-0.03413421036004795
0.33098863287669084
0.1960793510109713
0.1154050915140522
0.45859640360905
0.3145996315412412
0.33020322327492807
-0.23506569705579325
-0.29676762619328934
0.02525172090065264
-0.19383656082668102
0.44169172097422693
0.030437576693546985
-0.10277073073118939
0.22958030823838343
0.14860220829073906
-0.13976585204531705
-0.12159100741284874
0.21754118443325762
-0.14694935884892918
-0.21518943745245006
0.3181900042849472
-0.3733729782233589
0.12405652127891498
0.21787197546080095
0.20236068995934584
-0.59572362185023
0.36341705839459365
-0.28126714945681275
-0.0843754055440452
-0.45502476825800403
-0.3329169950125676
-0.02086383551531874
0.15667945576622047
-0.47456106180084745
0.4108316792383272
-0.1375511347939115
-0.03387101179653083
-0.2833405795189583
0.11892343436762104
-0.06455197957990248
-0.2960663682452581
0.07172047313284348
0.061065533615258245
-0.4687212015512347
0.011757564761736658
-0.119339898702131
-0.05225276615243303
0.058934264246918576
-0.3918767349602737
-0.43331927401066545
-0.041403842979635286
0.1847183683367075
-0.015476580460790316
-0.5118794153578141
0.2910770664667166
0.14131130467047032
0.16899026754009572
0.1272978632005928
-0.10429615421628208
0.1007513819825931
-0.25839385339768023
0.25551979487480037
-0.24624894127054311
-0.09272337900114876
0.19602855698440852
0.40937317781705923
0.23556498022234873
-0.25752259941831923
0.3134167992671742
-0.3964931681191275
0.21651219813459724
-0.011608533102900175
0.24123216528333724
0.30937205486649716
0.5515860100777606
-0.4208225876354587
-0.4687563182123716
0.23824458446939503
0.35397791326290207
-0.2019985833367087
-0.23516126054756076
0.2619001279066429
-0.041384038105884834
0.5668614535721246
-0.06419203159601808
-0.08212204907724262
0.33087492436731386
-0.3631259761905349
0.5917583329712247
0.1493389348308211
-0.3372293239698817
-0.38872557210362446
0.2991345734250702
0.08115723313271525
0.4095184104692899
-0.1994997373722772
0.14444755085716315
0.5032495562435404
-0.3857804038644273
0.3999025130313177
0.2265424773907653
0.5872331873987608
0.2815004587388191
-0.45222389747626024
0.1333934558103738
0.26470768559317065
0.3681387077367952
-0.15686051798372105
0.008625059346998606
0.14438025905003854
-0.4780472716529238
0.21934892076587983
-0.3027356616703146
-0.007111735672680611
0.5024432116929891
-0.037549746349394696
-0.3376293898971425
0.48608823209356306
0.01896696073559987
0.1821898741410797
-0.248875942175383
0.13143648034612795
0.22470552514064818
0.35490415443276546
-0.6573091288187223
-0.018297365512178518
-0.039925333593926804
0.22405767319593015
0.4487595141065693
-0.4757952601338019
0.35621757788192887
0.03851773054579622
-0.3015480814337614
-0.253354099114769
0.34948905005531083
0.059977986995877905
-0.02583936918225513
0.08636497501958493
-0.0760864369035344
-0.15795328148602447
0.17460943703884366
0.14519563184850692
-0.059240359142264574
0.07594723511102498
-0.016241078386707287
-0.1926221538232576
0.2798046450438087
-0.13694507916129375
0.08331053154172458
-0.410380589034784
-0.03882041135559468
0.3301093845427709
0.6602617754572364
0.2665774211751244
-0.3492216752902446
0.15586624771886046
0.012181021375237678
-0.43739913568402944
0.15457105274595467
0.2807472055231817
-0.518881775542191
0.06287542044708122
0.304317013826565
-0.07359394623190264
-0.26304521553197663
-0.29786919119728367
-0.2601537643148098
0.25053715927043024
-0.14356015997559127
0.35949278854590777
-0.29602954012564714
0.2826250113055787
0.2696859742361105
0.622793180394911
-0.24203348389196472
0.6362526005881723
0.2912821958011482
0.32711101106332613
-0.2850704994176998
-0.012402805012430044
0.5693320868504427
0.18976760138059337
-0.48162029600271145
-0.6834033080867676
0.44347178621499234
0.2812187461252173
0.11596165597583938
0.24559882912458264
0.3886168090385651
3.911389475077608e-06
0.5041790684816594
0.14160230182735664
0.12992449334642345
-0.20539389142502348
0.0457664804225992
0.3547967400618482
0.48256106012287353
0.017831436136145795
-0.0906277843561844
0.24575347800264521
0.43757916574531736
-0.5092016920394001
