weights_cmbo
0.09788107881832778
0.42778785494420435
-0.01923562473765328
-0.20380771636514028
-0.4856662829933108
-0.23818494228884748
0.14785232047213895
-0.02105665647901309
0.2291515918853127
0.10663335481495052
0.03028870376045513
-0.17416490394945267
-0.33322916419943177
-0.24128432683389844
-0.4730264513253046
0.059527861875508535
-0.008007515696858246
-0.16496602942272412
-0.1331885861056576
0.09739098988200509
-0.043574026524622556
0.04677031654157187
0.1554758231569917
0.24299774862688
-0.2695181085247311
0.4430895755206252
-0.23316817155026429
-0.1339369160391233
-0.13620091892957714
-0.16392869748559022
-0.053351898684592246
-0.3793955647007063
-0.22756130555096035
-0.12392491258726926
0.4743972993344349
-0.2410060293718141
0.3807369848962875
0.3533900688003983
0.023018637520503104
-0.09258336924160958
0.2173054346748387
0.49333491745421115
-0.12405338493365393
0.3158675720650217
0.44381074484888566
-0.3068558246546463
-0.28040064886207017
0.4729315650771686
0.2206357352081728
-0.09657609995605125
-0.3639959056225298
0.16664763918333314
-0.6200067633265363
0.2268864548056915
-0.009487308061524107
0.2042089943345617
0.29209352396374644
-0.3127940568972906
-0.1917775102611268
-0.1942363827015099
0.39991706016741263
0.07962136737356423
-0.05866426537334568
-0.11778963190891074
-0.17291174272245402
-0.38220838327447026
0.23820720482409954
-0.025947995825264802
-0.12237385257697977
-0.16599315994475683
-0.29269130220332334
-0.4339920324621744
-0.3382415295448944
-0.23069506206852403
0.38619730085127985
0.09840371898355338
0.10481464791081163
0.27680204023124655
-0.2502493183354657
-0.45805901937570703
0.14544846553376037
-0.22127016500624905
-0.5487478400678039
0.4055699600651698
-0.23680877024812244
0.14346374759122713
0.11201372289680665
0.005348273636462183
0.31392466081494635
0.20863834947092377
0.3711567367833068
0.03279525406313881
-0.3105457668368775
-0.23086609763945765
-0.07534482838666558
-0.24915891545990362
0.15299356205036674
0.49911455196058874
-0.46274733457409023
0.48370886332446317
0.22008561692218767
-0.5724119645097395
-0.1929804318904794
0.14651979008303118
0.2089634339943327
-0.3093941941085553
0.3379143682202201
0.444296369357123
0.07835101562476195
-0.10278423230405738
0.2524155701150699
0.38688561452153886
-0.3802891654463189
0.11598927311580427
0.3691418037595887
0.3506986392970576
-0.1205388295446301
-0.10632704195527
0.1274447475373601
-0.25264954891372254
0.00618595791918307
0.3530857757708045
0.30981249619907775
-0.020510245362601928
0.5041339069165578
-0.21693772078094486
-0.1776605084048641
-0.3740709657170186
-0.3958848720757581
0.27027669418053457
0.19004570871860904
0.21665327663998485
-0.2557948063941799
-0.3862671899629072
0.2696561574730115
-0.3016629185898454
0.21025214906451062
-0.40997715960921577
0.11480121611246541
0.15772825307970206
-0.15547042230808278
0.476134757582328
0.3976791783601949
-0.28565462831967675
0.012779537387226616
0.07355442308771681
-0.08072014871341249
-0.2910782010341426
-0.06502126501520938
-0.05449031099709002
-0.19117775282981378
0.4696593362107882
0.1472224193382858
-0.14157910203497123
-0.05859787140192452
0.029512674908068016
-0.35373931308980894
-0.11753956803753318
0.4564499925142478
0.44358975041747384
-0.014789473586996053
0.1147376140350115
-0.13310273994863045
-0.40655051250107155
0.283785349510666
-0.09354633254278802
-0.3693429068768806
-0.09480273169111884
0.3111605056487545
0.048838714742344524
0.24236961059946616
0.5320582030169138
0.3026487726987067
0.5030372245797129
-0.03540879570435563
0.29550179454999215
-0.3251595307844747
-0.28374742908522005
0.30968620224927834
0.3849246863470477
-0.21160221357095962
-0.5820714496630753
-0.4622292453153961
-0.2276140538747732
-0.08169839204335214
0.46709747785270306
0.10990001765453054
0.23644963570729075
-0.38970993999176085
0.4929848959278335
-0.04344740031685754
0.004122037471418449
0.0038998594289742805
-0.1298863639094513
0.007001741127184398
-0.35810906189621633
0.18093765632978595
0.25290750878877555
-0.44901178341757103
0.20854712319473295
-0.4444044846846544
-0.16830737078940247
0.39034358488129606
-0.11129914670026861
-0.18356501026855215
0.054624200748812274
-0.48620766882056965
0.21428915273217772
0.2942650956068561
0.27924152302918653
0.1916602513632857
0.3390516949160218
0.32322839085442384
0.05716394508611486
0.06164695323226613
-0.20822160622598015
-0.4282650582002787
0.4807899757890694
-0.2080314011986011
-0.4955113888538394
-0.29278439638569964
0.38966054583892984
-0.07918638774324631
-0.2120426641689297
0.15651293294522312
-0.22597950491264346
0.5470876693724438
0.19120151673791436
-0.22377850101581712
-0.3880218351135379
0.2514880501214473
-0.3430150612943958
0.29430268135400095
-0.2228362174794642
-0.3707291838054585
-0.07613551157398188
0.23297422014816938
-0.23091006212518025
-0.0962557550555719
-0.17177248893465186
-0.06245684629491363
0.3020962625854558
0.2629240637343786
0.2878607846803098
0.09437967135271758
0.010762253145386569
0.04446268254869565
-0.12387075752216
-0.2596288768224016
0.18414200681432377
0.2130116883934311
0.12925899988776682
0.05602133923055692
0.039065044086699384
-0.0913970369464188
0.1850931299912194
-0.3531582581863843
0.20200808983130392
0.5585529620611911
0.02363213886902439
0.007184382008237443
-0.254413913142904
0.0299534929513471
-0.20956310912247456
0.07609972590722326
-0.02655993275761557
0.20543063393656227
-0.27105863628502447
0.24458578356935287
-0.4674446245942484
-0.3466536758855785
-0.358752039328536
0.315889947465699
0.2864749514254913
0.07943627335699374
0.055423020503595204
0.33208389955117756
-0.013108304786230651
-0.369906345239666
-0.33847439112608374
0.3619900088801151
0.16167856170161465
0.5309249686936353
0.002041275293129034
-0.3005751000532778
-0.19314326574970506
-0.05129338703836911
-0.25193360258263436
0.2759444150963364
-0.42508972058894184
-0.10970450856517436
-0.337390666609789
-0.1303764795529489
0.3160787304172629
0.009444961181296316
0.2227195408164224
-0.5422356769310439
0.2385620412078637
0.31145657003278643
0.2033056797700216
0.05295696871485028
-0.35852068299894957
-0.30706927811144463
-0.19970160638398865
-0.34921286446324334
0.20505342039029262
-0.12496556175024587
-0.053866640945126915
-0.2695447215668214
-0.04946209150858242
0.2422520384963461
0.10280344532572036
0.16456918518366306
-0.3328659874817951
0.11754249571358015
0.24840884719715334
0.1160365913354498
-0.36451320600920817
-0.25977044688595136
-0.3554989322681654
0.29026726263728025
0.16023806474660682
0.058437051631857334
-0.4187456795043405
-0.29054058933848337
-0.17893034797474897
-0.016912361548526447
0.4462462063037089
0.4088097425632349
-0.1533547929390429
-0.17948232819586127
0.040766086687531254
0.4684947707599839
0.5728847681641699
0.03695946177487583
-0.2710910576008374
-0.13428813290251748
0.38489421175497895
-0.3270222657003022
-0.1003889617950689
0.0656744546326095
0.015861025955919983
-0.09342757441677778
0.44066541875611653
0.13607853817702684
0.30255825931818336
-0.3447768615440913
-0.2796689972634601
0.14839341682260734
-0.28806866745086385
0.4610982753058951
-0.10619798328715924
-0.3686426719754258
0.04437784945698162
-0.3665105259602714
-0.15065531731543158
-0.3367475034951815
0.431280906213517
-0.19728400202478005
-0.10588033264370768
0.6025890178704421
-0.21856234217638762
-0.2680505834119078
0.1834678458542148
0.1044170789748193
-0.363825207134828
-0.3229352036328816
-0.357775491315955
0.3291880538124837
-0.10336847376350519
-0.16899138045740705
0.22986131550945965
-0.442247241743249
0.4512627498099817
0.2010465404973808
0.019219016190505478
0.3153899422027119
-0.15633912883992657
-0.5114348390475429
0.18101922803837908
0.1357146222637514
0.5169660424778214
-0.4830695869528024
-0.026572901547006655
-0.05795142277135389
-0.49248514478317745
0.013161717210238674
0.3395751220579217
-0.4483270050083433
-0.3107018416709989
0.4257253360029785
0.22537541140610504
-0.03575616671269645
0.3822529918756351
0.0799346914389633
0.1275613601405483
0.2647634969392367
0.13549492808233415
-0.05969162246349908
0.18802313221421407
0.4544184465075982
-0.0013488784673533123
0.24910669367164837
0.30108162639536123
-0.2104020120010008
0.1304100750114712
-0.3415430500394687
0.4067396358861756
-0.11357943133549482
0.11129769614684193
-0.48469932261725884
-0.23032357347258697
0.40445926848136654
0.005605953611096264
-0.30526035351663405
-0.15491611127719554
0.12053424284138277
0.11403443400496381
-0.24796491486083833
-0.11717439907821844
0.24007499377182095
-0.09487299579782914
0.4239495752799496
0.002283262718530566
0.19145349572821965
0.3256009096213955
0.18345871084979912
-0.1445944054008101
-0.0510820091087991
-0.24247021144319322
-0.39452405398951984
0.163417581140653
-0.21279623379644297
-0.21213427547995378
0.43287784469605517
0.2374513130724234
0.10130903475038615
0.228204591110403
-0.1160004229463719
-0.16479264727611564
0.040717995467787094
-0.10082924778158707
-0.4101230186127563
0.004080344259478732
-0.4656379408310209
-0.33774326119244635
-0.07838385251448807
0.08737093791718774
-0.20650358521863318
-0.4250579591617882
-0.2883890928196216
-0.17908873238579065
0.19350187090936144
0.34475795171124596
0.3416040562886243
-0.04957735756805217
-0.14989447026743072
0.43801169963648723
0.15387742285490164
-0.10605867849637575
-0.26248630604874207
0.2056452458622875
-0.05649425122395224
0.32883820466296065
-0.5333598554052295
-0.1958825728715346
0.2392215484829319
0.23484022971698806
-0.22078429136800076
-0.25635961506284904
-0.4705727207641278
0.12062083038889025
-0.2371894474190159
-0.03286549948007413
0.16126272078563297
0.10241727005009378
0.1173418731510492
-0.12724674325821458
0.08995779510564185
-0.13688041912184204
-0.21801661529507435
-0.13187034143879747
-0.3094581366984278
-0.5553876202792485
-0.10078093359682076
0.4841204305540309
0.15072227939319643
0.43106352166368356
0.14046483888875894
-0.4491313841971432
-0.46854125642526295
-0.14891635744353734
0.2129580507149436
-0.006867507542036862
-0.22257026854970371
0.10136080380939863
-0.2965794962667607
0.14429974152491645
0.03407294173823322
-0.16814428835574086
0.13591332871660528
-0.30122392147685306
0.27450956806539706
0.39010092873722724
0.4426037878036407
-0.008723229158497934
-0.302792533945641
0.12790129560839641
0.42724734095974126
0.32580634470464515
0.029841002058956442
-0.13206969488522383
0.26288205353405925
0.3348928168767353
-0.043255465667822506
-0.405012025921834
0.08536059595451916
0.06812057320561321
-0.36257739462136757
-0.42407561768930535
-0.375767952471696
0.09846844898554431
-0.39350821294933885
-0.4072100310668268
0.337858195112447
-0.11942918568206864
0.45664029379082344
-0.37255643311407305
-0.17408047210665453
0.11017580786492402
0.41339560521185187
0.16791997901307085
0.32709403508530344
0.2501599388785456
0.10950612109910347
-0.3782284014469472
0.4836826618770567
0.5470954387753298
-0.1480792853112247
0.2647044039246561
0.4727722022607365
-0.21040048435254738
0.20256478078501197
-0.2588720332056744
-0.16193493229625208
0.13312345387875338
0.5102241024749753
0.2477678964597902
0.34803122266745357
0.03714526418005488
0.258180163703149
-0.3363413192412873
0.11382461657817097
0.20898727071913342
0.13032432143543296
-0.22363309189768554
-0.14736595233619298
-0.32007806220775326
-0.3154267324161382
0.19765494623593532
0.22308491487748275
0.3465241685765876
-0.4027942635631529
0.21471489837675437
-0.050097145429621376
0.0219866093102294
0.19798025299131206
-0.25576683777121034
-0.1475775044274347
-0.03975791495878678
0.3016704078590558
0.11043761815051886
-0.2724039193311831
-0.12070653075447614
0.2327614030546971
0.08744364638310746
-0.1639234775063997
-0.3497386964177185
0.14774615932556748
-0.007897658006023184
-0.528133964515894
0.23959353731120708
-0.5884513847528016
-0.5477382081282582
-0.06449826272845417
0.1904491466503692
-0.3271622164418221
-0.11241290741156966
0.28711502030400055
0.31749272141773616
-0.27799144771247813
0.2581025213825049
0.4399766401331199
-0.15197932717367124
0.026308817768565577
0.47102890996165786
0.04295536938714712
-0.20165587013376424
-0.19791002630936405
0.3254015133211731
-0.015906394407461614
-0.47672484511943075
0.33600069652210807
0.030848030207969692
-0.2960069288767628
0.2576522228747201
-0.020325866185902198
0.09773695301238015
0.14149331824228892
0.3393866187740523
0.15005932547330053
-0.16219334677046654
0.2641118804631658
0.22490970740779304
-0.06609007713200489
0.31660025354324245
0.2108213353947224
-0.07950550369033141
-0.24497040911724816
-0.096012283164025
-0.17373432717571383
0.1525788573096925
-0.09956070840707104
0.07331111255542348
0.3013046741626803
0.2594560565043032
0.016993442419427823
0.39949036186051734
0.5649791762033642
0.1424077726683496
-0.0678914516728998
-0.19828562047824408
0.3869908342814206
-0.003187414082770465
0.3079072585081404
0.4572353450727481
-0.35385442530473454
0.28899585499944924
-0.3413896076532396
0.4481180404131641
-0.33657827566029697
0.6268737471219766
-0.10789362377922801
0.32300672373018813
-0.2940225304687844
0.21475420542640225
-0.07613180663822326
-0.5033657279717727
-0.4530207459003951
0.1118425748215399
0.31015246563591803
0.0593196521845193
0.37825879157661096
-0.4300988901848179
0.31066367227937547
0.08509388658343323
-0.4102339858172928
0.39191924499595365
0.24214031275241044
0.19098998749531654
-0.12317137805849156
0.5061689008033631
0.29442978840963147
-0.3436752900616257
0.1749001669150448
-0.4813188403393653
0.4615368976908428
-0.17751399135514886
-0.04277364353063578
-0.003444157444937383
0.24866338385394543
-0.24939519473367122
0.17660498958145257
0.15753124187431913
0.37178287061141346
0.06642676821960543
-0.4474272580444099
0.4728776528308961
0.6518200769372029
0.14818838312079247
0.4083591351443363
-0.014594825630480639
0.41758929255312144
-0.07278730650472975
0.44161287265262233
0.6497846180152804
0.2683530370126782
0.17729478249260114
0.319932442604526
-0.34089933062139494
0.44258366991833836
-0.371344529306395
0.49648504667760396
-0.2562352355646987
-0.1569494533590452
-0.41149657791831373
-0.21868270683334298
0.1865608465689313
-0.33008876631941797
0.25824817241726444
-0.44057043877281793
0.022697056142726702
-0.2384100523006465
-0.06622456893122625
-0.12033533701928786
-0.4485964304221034
0.3477138997155788
0.12644242121463267
-0.2538585453227734
0.1152145228227645
0.24747615547280977
-0.013979063186164467
-0.08951267343601084
-0.5568353516213622
-0.12002198547642622
-0.24256803627529078
0.01688339451948025
0.4581038862944003
-0.3267013139623252
-0.28382273987800277
-0.19016018173142496
-0.12571165760803463
-0.2818432244537683
0.2520772315955874
0.5235277011071865
-0.5366059324931578
-0.1640793902949822
0.44617834270062556
0.3586319449692378
-0.3277001776644253
-0.3352361240852108
-0.007308998265265902
0.2336108208356663
-0.3157049513964283
-0.18494502401677748
-0.22000904386111522
-0.3875474519293782
-0.32256243198138695
-0.2729227552663355
-0.012971869854506497
-0.04527948156923293
-0.13233417361991562
0.11207378131614508
0.2818746566285065
0.06307938439342488
0.03350937544139024
0.15164118980346106
0.07290714862664979
-0.412477061737225
0.4119762721231071
-0.021396277831828736
-0.06568028920601525
0.3665114515449205
-0.38556046279251815
-0.01447917910306075
-0.39284338831276744
-0.07704855409088505
-0.3765029236184341
0.1761126956688387
-0.317247124407897
0.24176915874822708
0.2951351667208381
0.11869185526407129
-0.31880666616008135
-0.11890876910213756
0.3804110134580272
-0.060322680652668347
-0.20545610162537334
-0.32545706808990144
-0.476089401581649
-0.5158177563203049
-0.1160755760517129
-0.11809311454315725
0.09206199718320258
-0.31125041564284756
0.36955644926167985
-0.39103920343504045
0.3951732747871662
-0.1559038825415083
0.4739579560154313
0.05086090399581428
0.27393760845175485
-0.18488527386985534
-0.18884654344167662
-0.2362965412063048
0.46223554925745514
0.16968424792581238
0.3703561517612687
0.24222039086578914
0.4597072119363057
-0.05229779526513425
0.3857150910400221
0.023979423228220057
-0.028195026198600454
0.12875854271885329
0.3821562991174668
-0.11291290930085751
0.474049227572977
-0.40864489719845104
-0.09471830792752324
-0.05354158742094262
0.03887593358644799
0.22564990854378333
0.5162839391291117
-0.06026993490221758
-0.20891781251720937
-0.4240981107671245
-0.042698567617824326
-0.2481894052856978
-0.019177156826993398
0.017589864112273743
-0.06623554060895127
-0.56471023279722
-0.34647734930424345
0.5909920768454076
0.4300961477145433
-0.10847956630602691
0.2569491960051039
-0.0317085717856013
0.3520457142621986
0.20310454687461027
-0.001318850274853314
-0.2605464919551539
-0.15127780126438692
-0.07814657298895973
0.3633596046568468
0.21764816718937596
0.16866972676459294
-0.41454564303339814
0.25684593615229395
0.16026903176639953
0.13860550637216434
0.11922288972074614
0.14424433454179536
-0.0764403327136544
0.2821064805363373
-0.3456578348605732
-0.2740374017396093
0.447779710814116
-0.2140608486184275
0.118993370649955
-0.3817272569487859
-0.37173915634071325
0.4466536736153917
-0.4565205004592505
-0.08901924610018093
0.2812586690080582
0.1313519226384562
0.2068985353040737
-0.09045704078665268
-0.5639848323156994
-0.032471391369595884
0.08305207908012363
0.38639271121917274
0.25940391495864146
-0.11507377836627532
0.3446910064784574
0.4441105464022311
-0.21877530649920568
0.189496030784037
-0.5740947189143965
-0.1851507330677275
-0.22339261099279564
0.3880451716324093
0.09259650037523688
0.24192305052618862
0.3911167678912003
-0.1418217990644109
-0.4209617709276962
0.42407489590663106
0.2790328600861696
0.33898671367866123
-0.403291822288202
0.2351350595934846
-0.022158043519104765
0.4043155250870489
-0.12129586929371933
0.2820358415140855
-0.3197227548710218
0.5525804305817004
-0.012136234156872998
-0.04474603717203998
0.00923377556015023
-0.3509490845669127
-0.5072616349365844
0.02797528161466757
-0.21562645511933415
-0.04497359605212263
-0.1881136913024813
-0.2539617460213735
-0.19785177606428242
-0.2963923704477189
0.11785777357921755
0.05666641246239804
-0.2595917663016287
-0.37558258603270384
0.3396560430178259
-0.32798106088479967
0.10467249929626547
0.0002757196537775323
0.396795715803092
-0.3561054769861381
-0.0969532890259523
0.2061791478071232
-0.1526701605617216
0.3829809421074978
-0.11723703813777596
0.2691031603567895
0.02563943220872301
-0.460958897192309
-0.3320413659449621
0.4954513936832153
0.21960716547930306
-0.3010690714782575
-0.1966249277340809
0.11601672979494387
0.09940071231842633
-0.27085213401057834
0.2844131030973968
-0.26629466773315913
0.38574955769539254
0.37917660230923145
-0.26982480312911605
0.04268549467345727
0.10235026167407399
0.16145013628373678
0.43397142882036205
0.21349826592125568
0.2664298350914038
-0.394454060531482
-0.4850214066865724
-0.014021965382649522
0.24158899323904373
-0.015227952505857206
-0.000876242316297835
-0.3930312369484161
-0.5743945229529748
0.16155343514672824
0.010763197707200082
0.22851661099357198
0.04030974736367123
-0.17028430677705864
0.16274843664616698
0.06504267784506629
0.1650076823158006
-0.3776172784778578
0.268343008741246
-0.5787806891190378
0.21984538349495344
-0.35738813134318237
-0.45955090058484255
0.43675537665255376
0.29368326940418227
0.3754164751363716
0.3757167762332907
-0.11764229963996196
-0.3510775601145101
0.3668278402363682
-0.1483496297425855
0.41852994737336746
0.0415655828421545
0.06577682233680689
0.44746028866861315
-0.5277749361771127
0.25573007191875197
0.39218084316561025
-0.033675557728609695
-0.49469203552206614
0.49442109310707394
-0.010192669895085282
0.2847827356378206
0.04132118877847056
-0.277930193399021
-0.1534517501947981
0.493556656702027
-0.36165406078722845
-0.08344030828450288
-0.4369658357654353
-0.36666631505215824
-0.4310219218646329
-0.14481280935293822
-0.2116316438220128
0.057923600018668475
0.13642016604565713
-0.27310509756972023
0.29948596363881747
-0.5377563362929052
-0.08141917794318265
0.04833606835953151
-0.013657096589945935
0.40097567504309106
0.2899480560768674
0.20854783450008513
-0.18849752975944498
-0.41868542254212443
-0.14655549082547534
0.22201470033745038
0.45996769440457447
0.28825484778061966
0.164437013245019
-0.25296110180785525
-0.3272360670884444
0.15910802522355316
0.5167055059233653
-0.13483758921864297
-0.12326457401909631
-0.2531478170775782
0.5376424015349793
0.19174478077623272
0.5105813404523594
-0.026071369704670198
0.2548421614272332
0.2669594360846546
0.4676742427439308
-0.4758481667695826
-0.28497773988708724
0.3932748307395073
-0.10330930454916301
0.5668510395911522
-0.39275734275644775
-0.06209562118169226
0.1972794679156445
-0.3372979935493743
-0.4017114683164176
-0.20170413976691648
0.024736876921204957
0.06397456023809382
-0.10985696716943245
-0.4860300206556973
0.2946773777944119
-0.20436974857864526
0.17202534173105977
-0.2569601365111993
0.5477755602225746
0.1483967114568117
0.4678603573558041
0.543447461175527
0.28115050623269533
-0.4093856339327883
-0.22384180719784783
0.09942501526285277
0.2655160895354038
0.3523738729929747
-0.2190926394720649
-0.06800012370960316
0.07095069659414648
0.1319861006159607
-0.12554327304084167
0.18973984111191858
-0.5533585901139025
-0.08080064244452918
0.08952597206848197
0.08895620175286174
0.33877791533116597
-0.16656540520299337
0.34374352303735345
0.4102034326224133
0.1820507186888604
0.23753262221326404
0.1279379785845475
-0.04831881107451049
-0.07055198286992663
-0.23856152737390593
0.5022589946986357
-0.23707976688762042
0.21614500635771902
-0.3739565311430005
0.34131605841405993
-0.09087742804637293
-0.31802486410044845
0.24137281099877667
-0.3087640097411694
-0.47926678032802067
0.12181468633444394
-0.21639740327578783
-0.4005058563035208
-0.35994676250712687
-0.12541334971642382
0.07020528604929845
-0.12742680375422272
0.3130350192906737
-0.19726362254163968
0.11078973439515385
-0.589718936504711
0.37428113390684936
0.24778458417016797
0.30691599777512074
-0.28855576519478915
-0.4456542290475059
0.07421767572886759
-0.21586356200695767
-0.07968778507474024
0.36016403737091274
0.2952201534955534
-0.25891088592326855
0.18242784655762076
-0.14234658670021672
-0.36061222430550244
-0.08171420779177878
0.0483477619686845
-0.16714813911767476
-0.45751591819685283
-0.058784365629141876
0.05111463248717514
0.1598553905233383
-0.30164723936093335
0.536041874054176
-0.13802017885658613
-0.5291300980710263
0.02765205828355061
0.262186663126028
0.2811247055763596
0.01655035140798052
0.39188483927965134
0.09778058291149977
0.27601832861713343
-0.2880331001732332
0.2821670786889709
0.25784554645687974
-0.21347218482756186
0.3551470926848097
-0.044841861961592414
0.5685625340351894
0.3417423341419128
-0.23986889179861998
-0.06527966850438326
-0.0373574295246439
-0.005648757139008577
-0.42094111683573454
-0.140416896603478
0.386910819067555
-0.29945918918071474
-0.08046293899638751
0.40801287139374337
-0.1882134422957385
-0.30667610103543286
-0.07552121537553934
-0.101542000877327
0.6416597248516651
0.3917531399236621
-0.23876188042245866
-0.44381759055212683
-0.24015203621022463
0.19525711655904618
-0.03234813735157696
0.5894349063321888
0.10266831034042917
-0.22341930479519623
-0.2357992908561424
0.025003745840288263
0.3943480973467231
0.270695605136053
0.057015736335334716
-0.008492153319706531
-0.22171152054342352
-0.16393716900899824
0.4650007097055955
-0.15608999258451114
0.0258587429678176
-0.26276382612880816
-0.4056179325975376
0.3506700323104367
0.11168919571693979
0.1989075437836275
-0.44198360303679757
0.035864279878999025
-0.4096305232774659
-0.15527230209662612
0.3928515953775926
-0.10297298459473438
0.6220276130929624
0.334299355423158
0.33186560053645714
-0.15160230621799597
-0.30800858777542456
0.5249357528125792
0.06868581471771384
0.2854422824954615
0.3030298757953759
0.34514811376203025
0.14808701742551428
0.36298338652820256
-0.0016901933487698368
0.2588888791920641
0.13378382292023502
0.20517063570920763
-0.586482165070401
0.13051551159079755
0.5925370088154088
0.42418859572899015
-0.16753039529343128
0.4208125169439434
0.3636403857898748
0.057411081791937275
-0.07072253943316842
0.17890023882263256
0.13106332892507871
-0.1775694189244981
-0.2632112839419119
-0.0942324184285016
-0.23841008503730515
0.013681920939364435
0.18638756130269238
0.42115107511962446
-0.5750959386824014
0.05760987798694218
-0.15057344325116445
-0.3623640480265043
-0.1805091564107541
-0.4118951708735887
-0.16630737866249198
-0.27155936904578776
-0.3012119753598827
0.16305859188653177
-0.15230156343618054
0.23181611355286375
0.16991995824711736
-0.32336175769655107
-0.22594574014239754
0.2112609929004755
0.45115220053768307
-0.5280790095582601
0.3952197968459628
-0.08430282576780346
-0.05927599010088055
-0.33159781292663115
0.2742896466243489
-0.33693218805040304
-0.09857797325834866
-0.37112283442670346
0.17528950130030885
-0.14944254616163247
-0.16324245331736503
-0.038795450559203956
0.4402119504539087
-0.22665859558724386
0.1482322983079255
-0.26679291575176506
-0.34377925415113714
0.14153995914505693
-0.32789359118712147
0.22890280302055133
0.23781178324903787
0.27194990487908005
-0.11341279272067191
-0.5221639267458603
-0.3258624115169534
0.33822709042002347
-0.3576942244572923
-0.06935400349801246
0.05107236288466291
0.2533163721504494
0.14441564104913324
-0.08309802034082778
-0.09281751070886397
-0.4694217307756658
0.27936787366980526
-0.22210734049096115
-0.020992758746435712
-0.31990830798879205
-0.34479345648613835
-0.30270920976507465
-0.41190860583672273
0.27585117818883576
-0.21185926749560904
-0.16987583542973214
-0.22379061092385022
-0.0667834939989413
0.29098555895550454
0.11632883124740766
-0.42220328878299945
-0.16178100858586372
0.19848833023955115
-0.30989844620990753
0.1098574726092697
0.3301118474135115
-0.2566674628303404
-0.032509900717328795
0.4298095708926505
-0.18277175352709513
-0.3081770900663498
0.281203964600859
0.41852943568453127
-0.3909255753212799
0.49028712339965735
-0.19915750546762076
0.2002296267676953
0.14840943133475065
0.054976954458190036
-0.38994211625652053
0.2660370735842622
0.22099099745486947
-0.2938265197338219
-0.1497593185472184
0.07152921545278353
0.6244955547612545
0.0546320436198866
0.2658452410119474
0.264863514777269
-0.6080301095852314
0.11529213038516647
-0.32139135046324147
-0.2961260032468097
0.5648679123400748
0.028579172521608923
-0.4068138833829759
-0.16883815282690648
0.008106686091078563
-0.020059419491147853
-0.1472952373593799
-0.158239439887239
-0.08168941491271743
0.11702004727417425
0.5064036293318376
-0.36254352956885705
0.0418289241477127
-0.27297101839663734
-0.34259029605651076
-0.23627621030031784
-0.14800156408834017
-0.04109638613402948
0.18977534290020773
0.18447052503710926
0.23047240280320855
0.46069271141820156
0.5386037265564556
0.18076133691113155
0.23682732419725352
-0.39520163907517236
-0.3265681886211568
0.04916229509237358
-0.2607605764385062
0.2770287239819873
0.0042116833791626404
0.34441312725486545
-0.15343947844396344
-0.1174454620895237
-0.1484711963081347
-0.060919429442460316
-0.1847566052479204
-0.26262010374805117
-0.06136651708767509
0.5362335799900849
-0.09729175206834838
-0.13726738898654103
-0.001991388367107411
-0.0804611299636619
0.1228069244005864
0.12607716908358502
0.15818143377720584
0.29642339986822797
0.11962297716277191
-0.05092993431578218
0.12996293990261498
0.3283525025454587
-0.3107287574870721
0.35210780044469797
-0.09107375646152646
-0.3214810359445186
-0.04080689107727242
-0.12582237639241137
-0.37842842471000027
0.0633779897892463
0.3414466458168056
-0.2589277267979703
-0.19266595315990223
-0.07701646371330792
-0.40065023543738876
-0.145257592099938
-0.3893892294998838
-0.014019196614913187
-0.421699446264532
-0.43553875557046595
-0.5266546358390065
-0.45174047009347346
0.1917725338588579
0.07076666011761938
-0.037356783338877084
-0.3682275093699303
0.2773733005982892
-0.5777846522154694
0.2030437693242204
0.11488203398628401
-0.2250629966201539
-0.03639367829429057
0.16558260405718997
0.36269183956829726
0.4197336542175562
0.04814165514157336
0.4074413917511588
-0.3463092110929796
0.14668468837497015
-0.33169719574156004
-0.4904563961340819
0.0398735096793212
-0.10739969043970612
0.14816645646167617
0.48684539278741723
0.32516656952109885
0.4876469997407378
-0.25411512094854843
0.1919479883853742
-0.18779727750439607
0.47184463181650627
-0.09415840284757027
-0.4776585385598437
0.04742875415551446
0.15895804026682867
0.3146273074013804
-0.12684232274288165
-0.24434048443509407
0.016350655212852526
0.09124260723873645
-0.6102589088565659
-0.40357045807136227
0.21316606809229552
0.44860306045556875
-0.5256110505274608
0.31073264706838166
0.14294993779085038
0.1578814775021056
-0.15549805933330213
-0.15275256967990727
-0.08668254991615067
0.36260298737404467
-0.1293325890648767
0.4077765800402152
0.08046929168846115
-0.37575159573828215
0.40151562118359146
0.10425426539939624
0.19379195985691075
0.45777467194974786
0.3994583660485403
-0.16442835540403974
-0.4572860149241725
0.4969330541918588
-0.20974885742856192
-0.12852143117454215
0.11311794979875796
0.008608626781360425
-0.30863617793504794
-0.2317149344650229
0.16551980300014055
-0.5446965722262371
-0.4706884055047325
0.17587641693460193
-0.13602392574507918
-0.17173769568263894
-0.07074103086624406
0.09433823891812561
-0.054494032587719864
-0.39392042884130996
-0.2401671757198905
-0.5761208847909173
-0.03250113134567975
-0.18718306512370642
-0.22779885566191393
0.2822904908626451
0.4362413638737289
-0.043782324338680914
0.24900179501249703
0.16994469317345057
-0.35621529343072156
0.40791960454003445
-0.34954344816480465
-0.09697896577177373
0.04758826430777682
0.11634505599883613
-0.26457520198296575
0.19834243700314286
-0.02635147367495404
-0.051044176380837164
0.34180830161249526
0.26622884379848144
0.3046008784981455
-0.11532174222343658
-0.36269065603817385
-0.08010706862150106
0.18442147640577627
-0.18451386030490458
0.42977981298053297
0.06999868197843381
0.2244413718325039
-0.04583017535939559
0.2716981667916647
0.09946251726196727
-0.30650107965403367
-0.1554697098714354
0.0644132039222599
0.2664947233438769
0.22565243824807926
-0.3190444262109802
0.35866313813735184
0.2631776303448113
0.0944237662464078
0.3264451056844068
0.3243822454947966
0.6341433975557609
-0.3025888984711982
0.3366075689055342
0.25793807205930463
0.293159473196443
0.24074410564166557
0.12489608357350056
-0.3296334705836812
-0.09156663590149852
-0.055827431468878176
0.2656578564469414
-0.04494255568985131
0.2019158254491158
-0.18911728997560479
0.3090644974683706
0.3693141350282162
0.14897206255330528
0.297159477631839
-0.054004756510363586
-0.23084442276862502
-0.42252387251197193
-0.25574915553542316
-0.42419662485035275
-0.31963545894250667
0.36426478824560177
0.3001267703379847
-0.33805525110562806
0.3682165837930343
0.2354882434370233
0.4273012608766963
0.15284407624613378
0.1018554361728412
0.4389054879658197
-0.3220815767595256
-0.6318266342625561
-0.20536633461227402
0.30379455543251754
-0.22108325277694316
-0.3087073925465485
0.18352499981965514
-0.1541885998235144
-0.23765918415777695
0.37888707862274285
0.10148764579048918
0.41765164248152625
-0.11148158721577757
-0.12859749469593815
-0.38556634249542227
-0.04999408746487869
0.34262904088968194
0.10190618560749229
-0.14225621712675762
0.21904603572469858
0.3877930812571475
-0.5108154960371849
0.15608763732867625
-0.1930263024673331
0.024659592599084172
0.4441754120027966
0.35477154638584896
0.2625664995025068
0.45345484524396695
0.31158555537330146
-0.40911930362243737
-0.4735015148266304
-0.23124682783178702
-0.16914552487631326
-0.28722145335334076
-0.2061525291265517
0.2160827823268797
0.03968462547577734
-0.24762188764923992
0.02050330833879896
-0.017671517959395755
-0.050468661265352925
-0.0868165572392264
-0.1758163756539952
-0.3646498982889182
0.15429787100551753
-0.0885951094639208
-0.27341634931839837
0.42926101799921496
-0.1465453511358385
-0.041523037016620065
0.28672576538227157
-0.3234916775781534
0.39205170204823514
0.42737450497809254
-0.3829379094753715
0.2811383361694375
-0.2714894196952821
-0.26761497810293344
0.3049704093862483
0.056783703504603406
0.40804675480551034
0.3502469699372465
0.25240709889188784
0.4763218546377051
-0.395601038466338
-0.38159555208061574
0.5554615121193863
-0.280108735091669
-0.26401650290414025
0.3286289485720357
0.3522981617590876
-0.18427903583435076
-0.23036369509879537
0.25903933728453676
0.16697103402064223
-0.11087627736208733
0.10879710784550632
-0.15285051888668139
-0.06677939752821892
-0.11983892758042411
0.050825995341554124
-0.09942600881163718
0.24906717016327268
0.11463325878763672
0.09224056260347396
-0.43267369461036165
-0.11595533315617941
0.2080809651056994
-0.04804727012931537
-0.4428736759344759
-0.28088494002723086
0.010507974830174783
-0.5344955833312736
0.36861662186395605
0.16274480754022028
-0.4450858690859783
0.44299586477348163
-0.2652275998472618
0.21680043764762844
-0.26718472131854343
0.09551294959929098
0.12244722109068486
-0.2413223129254834
0.418961368475435
-0.0025315658494683853
0.3801830448155213
0.382550586707294
0.4766965324887982
0.08333291426609461
0.20764042952134254
-0.5578318997520398
-0.15395632736648224
0.5278963689397143
-0.5623427977570797
0.10608648419666569
0.5334860970385739
-0.3720396753748474
0.1736364166575656
0.17540983195599413
-0.18621908386752553
0.4420049033584267
-0.47269478758947686
0.19292534212219475
0.32337764677857816
0.43658873179500046
-0.38583372236045504
-0.2724583899722989
0.275718766859255
0.28919491056436625
-0.31484610387737927
0.5044364362899034
0.28711535916760567
0.03572784536991673
0.3710490682528518
0.29123970513624586
0.04102890273040625
0.0481767689348244
0.05742762710468128
-0.543343167116406
0.2773898032449348
0.05335893160000562
0.2745840428851676
0.019334533934079596
-0.2785414000891686
-0.27544136415980497
-0.4625955545233972
0.14667178473093626
-0.2672678454444806
0.2825556157203274
0.24251982069474695
-0.4485443395406474
-0.128990217639219
-0.21528245412541344
-0.027037625749141314
0.23639492688977576
-0.0375887978798714
0.3696979338422801
-0.576545284626429
-0.32852601587080626
-0.03994749486202042
-0.044796371114728284
0.16921260273800834
0.4544721548463911
0.19905363251619898
-0.15489437941036457
0.5833973938378322
-0.02397669801846836
-0.20418310944751175
-0.03390293632452796
0.4195600393936233
0.3465654741113568
0.3938587685993128
0.3684197429803171
0.006186294047941858
-0.048945070176962216
-0.20773171320966055
-0.27806487017365483
-0.11349051756342879
0.06465268635737126
-0.2744822655597347
0.05762082714261629
0.16834993959662553
0.2392916510862037
-0.4459600145303029
-0.1087910415736905
-0.012299774875592638
-0.3476716872491896
0.2808843652925097
0.1935124561930678
-0.24028964790096194
-0.31925480141614515
0.4071516063723932
0.27573248150076035
-0.17715706577551593
-0.42043419186903813
-0.2192365621811628
-0.055228024553360545
0.019769272013262926
0.3135787071555669
-0.04328130483194972
-0.30679179426736297
-0.2005014197746875
-0.2297920980678484
-0.24944116314449968
-0.050500407980199856
-0.3291592548171099
-0.18285365669412176
0.2508192090175371
-0.23939224581187604
0.37083605030393907
0.05717170478438341
-0.13062554235989318
0.019028565804807166
-0.08125299483568411
-0.07464233796117083
0.2514164056420648
-0.2855248194389689
0.3211251722285303
-0.13374665744580844
-0.23883213209570234
0.12123659754430692
-0.17434722904574412
-0.5228990694631918
0.43770194920965827
0.20101345869290968
-0.5809996088544233
0.03420224926230312
-0.12469888764745897
0.03069371949712952
-0.10347741974164677
-0.12427441466560317
0.1947864766923489
-0.37684649647654367
0.4223085807689748
-0.1668155926185091
0.2732050431826811
-0.23119150726824214
0.002272032366289266
-0.26155860577654005
0.05410216430185971
0.2411031371155096
0.4575936065343387
-0.1990647829452309
0.41395903102229015
0.22062800546432967
0.40556794680780406
-0.0441035569876763
0.373134977760262
-0.34360517656296846
0.020666683040526095
0.4268189282950177
0.4214663489849256
-0.12333502995652516
0.4377855859970633
0.1732748952269722
-0.283451327835858
-0.1248408788593951
-0.08741979596538833
-0.22121063935574195
0.3704082283528784
-0.2774702774027012
-0.15703340141651934
0.42381137361667093
-0.0011314620512716746
-0.05522523792950119
0.41259317498678316
-0.25809868809586495
-0.2623891464498168
-0.44861708783427234
-0.09243613616107811
0.29083174205609785
0.25285175530574144
0.11366404533425425
0.2797371914398271
-0.1749113044685667
0.022190009904708718
-0.21953482568920465
-0.2721654704617699
-0.013384533121302961
-0.40053449253158424
0.0045768276187166
-0.3701591840125091
-0.3068041462461416
-0.08497684786124526
0.018678013901373976
0.11771042530283912
-0.008475962204807022
0.1260783672456575
-0.285038253641562
-0.15269975781459974
0.4369102743691593
0.16606844419136482
0.28164268559906974
0.0036597847462261136
-0.46584514887766165
-0.3335656840731235
-0.1258508362216016
0.07099722799838053
0.1481549981625737
0.026587352295919606
0.1539948171448405
-0.2165784348856075
0.03859158163821313
-0.3715075448072361
0.030736507699395732
-0.3709380053297887
-0.40461411896432864
0.39227413975668557
-0.16560965947372522
0.4624595932178063
0.26504386279490233
-0.22280510738506074
-0.13515777201285417
-0.23278056608497383
0.37250848089242894
-0.4365606580917736
-0.26616179793046785
0.42898339344908737
-0.21138035705277888
-0.22341668627698302
0.2310331647946532
-0.36001183016325533
-0.5610481978277082
-0.11486478488435418
-0.07527523642353685
0.11813289550057876
-0.43277201303962065
0.04995807025748262
0.36797504563925826
-0.08193348717179633
0.1545348261663117
0.3738156293362326
0.3562948657612798
-0.34256933613891516
-0.5168422246823691
0.16727950970390457
0.09862525734923647
0.00847375919174586
0.009683366348326032
-0.2711903666871232
-0.14009013698842349
-0.4393551793239976
-0.4138672324524996
-0.5722041651787116
0.22830983911530994
0.008052031786179066
-0.09149548659960625
0.08322062669767756
-0.2603137971168702
0.05732321303829944
-0.31697435068105534
0.033375607087211615
0.43200841873716445
0.13906888828056144
0.23447108181724616
-0.1789693954265041
0.3293914399932359
0.018164430419024324
0.1203202954954316
0.14037999636357187
-0.2341778191516982
0.2510842176296026
0.5156568901816115
0.1259486703780793
0.1877977803022207
-0.07762333444067825
0.30566703715535265
0.46983335764603706
0.24733854948840897
0.46570443761413743
-0.11959265758957409
0.09515711801397742
-0.2647831431821707
0.328137898656676
-0.48545129917719543
0.2719915219328901
0.3148807853336691
0.2575504324061818
-0.012443541755401619
0.558271196155463
-0.026780781127069934
0.28682074449305067
0.3998573592849352
-0.46315848586172853
-0.16026296472717835
0.520736572990151
0.26396491715924214
0.0019307468283667165
0.21455126941280378
-0.1506228801974112
-0.014662319251474288
-0.3411077774371788
-0.3700353482600214
-0.1367905963380635
-0.42026164607863403
-0.26803170161379725
-0.15275102017536443
0.21989062714725258
0.3455007227139912
-0.4043960908592222
-0.32155968410433694
0.21909573402774518
0.33264765305735167
0.19020658205594843
-0.19379195010735945
-0.4999734361555227
-0.21295589529446404
-0.14695639304321206
0.3154829089336391
0.4306536250831545
0.49884056931591075
-0.024174049670717034
0.07410062978883414
0.5132434265314404
0.18565898749259613
-0.3703660211946177
0.311725901597885
0.4184522303327028
0.12122908020409877
0.052729050230152626
-0.048000206883704516
0.2730625220743303
0.03536166771420447
-0.05456566217323521
0.24800712343825013
-0.18756378386786116
0.4575040676439745
0.266697569045049
0.3037131987487551
0.2690581365566346
-0.3905266823699779
-0.36127247363073883
0.2781884797426684
-0.04459166518790166
0.34749744213182643
-0.06545814368507907
-0.3480327388528363
-0.18639319863423925
-0.04429083630746024
0.029651770328047295
0.03840586220669459
0.42820305229098193
0.08381560834661074
-0.3496557802408853
0.252930939760611
0.0031047233231496557
-0.4643493629638235
-0.44340355785311114
-0.47411585667818196
-0.49802538531209645
-0.3034595674293377
-0.08723302696397298
0.17849022291275327
-0.24342653260370065
0.4579103962123505
-0.1561061925157457
-0.07710235080870956
0.13993906672671974
0.2469667298497812
-0.2859666887935261
-0.2301065000561036
-0.24113022279465912
0.5335277402913399
0.09836056497163388
0.1784544825658031
-0.19239336885575123
-0.16658441061345877
-0.17621991193744901
0.20993761153201781
0.10291080337863004
-0.3514251775502004
0.5613268118594348
0.2652698065243028
0.10770497366209661
-0.65164786489913
-0.157973234783682
0.29841624833725566
0.29752154457050395
-0.4796086270484222
0.24832082222849486
-0.17413484892217462
-0.01753547487700616
0.11675067485786723
0.008721401972725272
0.5279449740186415
-0.2916721988921931
0.12000849356356791
-0.29962551601091586
-0.163745906360899
-0.4013029047639826
-0.18324632408423394
-0.4915166091982336
-0.2729910469988706
0.1563627509513217
0.279642216495338
0.3064229990667789
-0.17311633912825405
0.30203456653030697
0.014480692544314864
0.4703173552071068
-0.00596107886453883
-0.23738652833743742
0.18736135808366028
0.5354371758303224
-0.4194279575432175
0.05865100094404503
-0.31339534589498913
0.2617782087696958
0.265313960335194
0.21494164980646477
-0.08164548557274998
-0.18989853269527124
0.2938232058688219
0.43827514012507135
0.32092565997114836
-0.1313232820423406
-0.23879703002830321
-0.159972974834559
0.13435805149410723
0.31069368845236217
0.36463607629886996
0.37012783517693243
-0.21094409273004358
-0.12195829606183493
-0.10624096203907757
-0.2363330348329585
0.15008842547080434
0.3881982369054756
-0.33871035282004597
0.10387630391051257
0.13498590750101158
0.2517830838910957
0.3069031754155358
-0.20669057428675172
-0.1328433395941223
0.1787119699140662
-0.30896648661985343
-0.29847564963261103
0.3436876852684927
0.30735192546277035
-0.28215791274324153
-0.0657525358037994
-0.1801836922148103
-0.2522062968994332
0.060096754141758545
-0.1590001487426212
0.034183956799129216
-0.2169000135864002
0.3168948092364901
-0.3622647981352209
-0.1028773602944133
0.004598634162588537
0.050330912693924784
0.1495778396425931
0.2510910335257795
-0.1960334452845042
0.0573140809811132
0.06665273402953874
0.14051763634838937
-0.004217675901496618
-0.19771120988091692
0.1745465024453574
0.19826515430207312
0.12165735188511698
-0.4642909988887652
0.022402887331027868
-0.07985989755426032
0.3538310933122792
0.06903822676945343
-0.04595381615016883
0.03798772963124726
-0.2349145258845978
0.5636902994236539
0.23716787879031057
0.16994233001069398
-0.01412814624503397
-0.24873815921404874
-0.5160165896885559
0.27580264646236
-0.5157122138176422
-0.03498766952095467
0.07738514235645914
0.22659095882944139
0.23272806561490803
-0.42059282463900927
0.016717883974948576
0.22648212841235882
0.3028841187478504
-0.20637713206278796
-0.4838458815538247
-0.30711311606015257
0.2731111329414765
-0.49165857784108224
0.36509821948926935
0.4128767379163354
-0.125885718748578
-0.01785203598798738
0.18470872056546972
0.23154269910273043
0.4413649573509702
0.13786973766689947
-0.2655757212562463
0.3094308356780842
-0.0006754714545553352
-0.16077470630225416
-0.0015729480856838589
0.08810051301672701
0.24470748025006364
-0.4423526142347894
-0.16966066905371496
0.13737162926047997
-0.2852787696322643
0.07229349199214466
-0.2873172553511832
0.1055177077973689
-0.413493279311248
0.5103566259866977
0.23414711141677794
-0.03581071227613083
-0.3648606453461295
-0.25435459882336003
-0.2625296528820425
0.1237250335147921
0.36302102761102545
0.44007716155348736
0.12182118139965055
0.04872290201547768
-0.24944206181897832
0.026747278201425025
-0.4603525462715872
0.24331675279826068
-0.15957064976288077
-0.5377209063631322
-0.024293654012067106
-0.27522521933766303
0.08484881100856995
0.3268499402236181
-0.356536439687912
0.30597841652197794
0.5376306849632077
-0.2955779983801514
0.05660779972269494
0.44478726158157206
-0.11559260854970237
-0.18707049837606055
0.2179468836559323
-0.1138440390348684
-0.023592317261840835
0.2100901308471054
-0.20526455600689944
0.5803836658422676
-0.01726259265690129
-0.26532300726616276
-0.3160025455710483
0.43331930218645803
0.01709797803430742
-0.22098901285799066
0.04435400965838348
0.25934099507081165
0.49288417784355626
-0.12541120603550082
-0.10005007009986899
0.12094715250130991
-0.13214934059640007
-0.3083931057742262
-0.3212869401191579
0.24881969510498045
-0.029266020587711362
-0.3537691944335619
0.19522370179269444
0.3113735608731125
0.5385363355721741
0.05089696848025504
-0.13499252048584512
0.08934831568581103
0.38380015868833955
-0.21445634022506654
0.2394605088509567
-0.40640840448699334
-0.34990032286573663
0.24462565210494056
0.3364804698082526
0.24768084664358417
-0.4439666594503458
-0.051233751553894626
-0.12395296414217594
0.11036613745771122
0.1900784588917202
-0.17670134151318792
0.3241370932157292
0.4152758155971895
-0.38065028126245004
-0.3007624312237675
-0.0009381344076877984
0.3175620219924801
0.43677770778928054
-0.1626363662743476
-0.07901204589109975
0.011530106862283576
0.3556164275202308
-0.18387375875057851
0.21538464031688279
-0.36554247804975315
0.22181427035418522
-0.3765335328511454
-0.08414489878752347
-0.4561359707490702
0.33835498148380205
0.018903846201660485
-0.4558113699098006
0.0003987665619205743
-0.08615059138468459
0.22632281969310522
0.09100846899588191
0.5041069275684873
0.10539280354202343
0.2873278286928365
0.0918898295708262
0.259686310179541
-0.3310449843523634
-0.1090525318873627
0.028621858015697697
-0.31562923871659326
-0.21572161756312075
0.12022431981929022
0.4727947948785432
-0.3002428948116872
-0.23293838313485443
0.3997889829834472
-0.11932690137241915
-0.23228623663648473
0.18148215384092464
0.1436909261973014
-0.2230553140494615
0.4963399120388803
-0.15181174260134386
0.28304863721911616
0.40894217630829155
-0.07008011011039218
0.25565919092715017
0.36466357879072225
-0.1071733399708452
0.11732508557289066
-0.44289917825972525
0.31698000943028176
0.20399760212504867
-0.42271960127887515
0.2552163099793873
0.40046945714813165
-0.2133799110946822
0.5129807031887673
0.16593922364886352
-0.14975972610001578
-0.03788452642196859
-0.3622246942308951
0.009046135928847397
0.4979416098522249
0.2541360401884156
0.004845053173064647
0.19075120472204235
0.09088809741181271
0.19667246731746604
-0.07311734131041578
-0.18080627097111024
0.0922313098246147
-0.40721077654020416
0.11371858193064277
-0.2135767702587912
0.2380848558183936
-0.16768136083808308
0.5157481017216599
-0.1780130417539685
-0.19477442992375302
0.23069154004185047
-0.2391269610050093
-0.016308547029976157
-0.2583622852541941
-0.16435530582514155
0.2736251362087175
0.3549864085016737
-0.6282268544912761
-0.06783898460630607
0.3373802644522543
-0.3252655216017505
0.02068497017875596
-0.16839159197589237
0.34227979353142596
0.121192955634517
0.02994198210668954
-0.2625775072719712
0.21935319489282812
-0.3866245295936538
0.41264499105248087
0.14181986429117088
-0.47128909662609064
0.2509561553505913
-0.014049507239745712
0.21007718712959633
0.18614225377868696
0.06153203450128411
-0.09274100888765942
0.345200133571406
0.4455051742855981
0.4939261326030868
-0.003208018451841013
0.03794892075818471
0.22421562148973095
-0.26782680357764443
0.3791737364728847
0.20302755226795993
0.28350494872468285
-0.45481977395318834
0.2697623839371567
-0.06900245521420953
-0.2578441530917562
0.06419192624367528
0.04137671858539038
0.26424480093019226
-0.23068596772330788
-0.35055910243372684
-0.38011809530837765
-0.22491496955378035
0.24914739046866113
0.4012173154017058
-0.01992315960575378
-0.1175122168206297
-0.29454013931656775
0.4786724203786804
-0.19043548200623228
0.4571796015246427
0.11986538822940691
-0.22343482500538886
0.08845769314822878
-0.09792206545596689
-0.4735931082227552
-0.39598476342502614
0.11714281540613002
-0.047131352078165496
0.45327880079743804
0.06715800708277987
0.47567513893858476
0.1702682383813735
-0.20135784248849453
-0.49658170425145554
0.7170875538327824
0.12541558588238552
-0.3499542580239114
0.028456473574746677
-0.21972567940262455
0.5209247004941432
-0.3470654127542174
0.20290834292144527
0.11107560475202621
-0.16125378640050977
-0.2970050621030956
0.011098018108296104
-0.5031504089141519
-0.08261719238597741
-0.539056741755041
-0.38069534342375133
-0.5112715034101057
-0.1285937373679396
0.2633096460854291
-0.08271772678287054
0.291368487685983
0.05354815419939503
-0.08621724252819357
-0.41292276500447817
-0.2025491290725883
-0.31788964542606285
-0.34200137085483995
0.45528565078555905
0.28758963819635236
-0.13705548704330764
-0.5403165033873648
-0.3286357244703202
-0.248269616885431
-0.16382615345428853
0.15287285056479574
0.5083493557820212
-0.22619125161200226
0.014067054491779278
0.16622474900615633
-0.1758293622067576
-0.320639146692532
-0.38663296103335243
-0.1517314241276462
0.001980369035332754
0.055029540309456476
0.449108026086541
-0.09277884392351392
0.16015565481932456
-0.05081405174425392
0.4488394358828279
-0.046839018182876405
0.3445791379385805
0.11954686549533244
-0.15094443998511814
0.3638545932883171
0.29915697093462146
0.3721194325901422
-0.14781850127080629
-0.08223206907086053
0.07680929521179011
-0.13759839145133226
-0.3898998732329859
0.35084717947065786
0.0723377848613195
0.39218674387151536
-0.13082469726653503
0.20786020262099797
-0.22360314071637105
0.07700415923360605
-0.0711354477591274
0.31795991491858744
0.07629669363781996
-0.38365222749070055
-0.16683231808490923
-0.12720161507610844
0.0375254652778191
-0.4372741912950027
-0.08034190406596009
-0.46876913103158613
-0.2380793354759615
-0.3919003572621855
0.3010686438720718
-0.15447934123998314
0.13093126460751875
-0.31461897225406527
-0.4203836334262402
0.20528792506671698
0.2890947833696237
0.1662348702277062
-0.44124643604673447
0.39953113850954985
-0.049975137368648205
0.31143179036391416
-0.5728118265428741
-0.16423682646622814
-0.5000658031954205
-0.25696080418022593
-0.011763383320161332
0.2982623088988173
-0.39554288566931006
-0.08444645827089972
0.10082870528765693
0.36008237771829577
0.2976103771579474
-0.1447515487440759
0.4561041372549766
-0.15552678121576713
-0.08125931996378592
0.12325886525754262
-0.35510937595625663
0.04147289343068701
-0.3785673150857627
-0.051116227953129326
-0.08611800260374175
-0.0670991625840982
-0.25345629685001914
-0.08270729443277167
0.09672786570334767
-0.3221741269082327
0.08752191051799431
0.30264462657893526
-0.5161947659720267
-0.0406376269206609
0.10184499611778718
0.23759352270603837
-0.026683827960220848
-0.5359567407255033
0.5003335691665505
-0.17065084357743396
0.2649762680461377
-0.10855066919446163
-0.2929787131591134
0.29703632927116436
-0.25971664315729165
0.3716419382440593
-0.47493636396911293
-0.3533373553543825
0.1806677761870747
0.2037235929453076
0.35438831413319094
-0.0995513050513579
0.4961075225045466
0.09343073819498111
0.48443371611560687
0.3529957273837609
0.3197389696875823
-0.2929860699685505
0.011541120428418377
0.310631791799071
0.04293610632550082
0.08892871890817158
-0.2757338982310565
0.17952753936337804
-0.009913893078252588
-0.4643320006705413
0.30136773325499844
-0.20185508949060219
-0.16476839632277807
0.49494308588342867
0.28085029660660643
0.32052760525447244
0.01571463046518154
-0.06346594719725636
-0.3025538186277811
-0.20030594509030722
-0.003643509748502912
0.35591433219605123
-0.4140084676193397
0.0054025628478551165
-0.2469428215000192
0.28243123833719086
0.4244919581023995
0.0841319231249465
-0.14517498973189832
-0.17689937807385947
-0.3602353801414024
-0.01278593562913672
-0.1905981559579547
0.1882140024202486
0.19662859955395817
0.5384302595551959
0.13016053867592478
-0.06319532864336803
0.5044333905251014
0.45051829139588423
0.14840729738853156
-0.011006553093113889
0.4899860447656012
-0.5352785988705022
0.1657922762728596
0.12467291205983688
0.08056299755462908
0.026360445791457573
-0.37293789892508206
0.3574370708754121
0.19135898571386298
0.030817109182479905
0.15136831065436482
0.16389967249115525
-0.24498483141335411
0.1902579824287625
-0.0640069412016869
0.1283514713356578
-0.023901170705737655
0.1563422645390298
-0.4782794112113903
0.2942426174961729
0.2958470765029906
-0.2513317123800147
0.2588887021320809
0.2561424658608128
-0.24583055351329966
0.01964932223297454
-0.45114327483963507
0.32345928585095746
0.19239375834922132
0.27856757659879827
0.41798317182575695
-0.32096609191593073
0.3275660682838868
-0.5051357925874418
0.09600957123750997
-0.43343502946461676
0.5399919495240544
-0.3514706582377936
-0.28613245492356154
0.37461684190747513
0.39223315659387675
-0.500865154570128
0.13653119293153287
-0.33996053426532563
-0.15237450881298123
-0.49199359353660826
0.5972401201695311
-0.20875563833156066
-0.2864714768179898
-0.09641381469273828
0.43324840939954373
-0.2862127411361473
-0.12857495726370993
-0.22548779299394398
0.4375794316573561
0.23947858482439438
0.6332997159804039
-0.14296779108664354
0.4220146095096259
-0.2801457644909137
-0.27672031672898545
-0.02399235590156834
0.39428991172254135
0.05695424960329569
-0.5219808312857853
0.1978501534899118
-0.24613524647639493
-0.4664299221952509
-0.19967871033128642
-0.33773845842904443
-0.14273218709097307
-0.14143714461993753
0.2891551761024424
0.07530999989621555
0.4522643849652114
0.3808079370038114
0.06529396061755313
-0.3195855066331198
0.374824643871279
-0.3125794074917979
0.16306224299711206
0.28650304586735204
0.2651144637503587
-0.4708935084642995
0.2002889282737883
0.015768854080450687
0.13094460787125833
0.08875871402450616
-0.15661291616885348
0.14891613343953114
0.07390907257023138
-0.31703734308045606
0.06703724968521829
-0.5596957100055392
0.4463883697098867
-0.2838624153876082
-0.4667766991715017
-0.18822979556361696
-0.09133671323883068
-0.5591839431989766
0.02336476766647835
0.33398661539539526
0.23964375779361202
0.2843353950117379
-0.11370872830103429
0.06390727895473987
-0.2647972102558245
0.059998674350845105
-0.08566409247540824
0.021146194608551723
-0.08574785498267792
-0.23763611203315593
-0.34326652711708494
-0.20783050980005743
0.2324488180356139
-0.008618964949829474
0.33261926119625773
0.05934613692274076
-0.08195464776538029
-0.3348254514552168
0.141857255291817
0.16390523126227252
0.24656177029961504
-0.15552396824341094
-0.1756608177950132
0.084718542577098
0.2043478270405953
0.11255296063808676
-0.048231978303187546
-0.03798773337848272
-0.02601343228315101
-0.2843173685455884
-0.362501809016338
-0.0621649540080379
-0.34434090014054747
0.3619340110468948
-0.16783276198627434
0.39914908094028917
-0.049758185729563795
-0.03440317632338486
-0.14577879795347856
-0.29627025632578535
-0.358817927629456
-0.3825178671510121
0.05035674469988227
0.21991527927496599
0.3188152157666794
-0.00948046413062165
0.20419415636355823
0.2920514903635887
0.34887403012311996
0.3120867516004054
-0.25983096525022403
0.27861550253215717
-0.2068959626691324
-0.25086906650705865
0.3437489125354816
0.1431286910751905
0.046483176815082586
-0.40871005214208983
0.16062384342937067
-0.5087134961326932
-0.02968343721374496
-0.09726433983034448
0.056787764362247174
-0.3578936340833992
0.24823137545095034
0.2205518587194705
0.34568642044041337
-0.21240186442598236
0.15483797099037513
0.34967713532125244
0.30051175252008566
0.3784183404075872
0.2663317261640562
0.11548365230390113
0.03781589335539137
-0.02073334328957665
-0.013055083290881524
-0.28882823418068293
-0.3514064522486615
-0.22937299653185153
0.01075878280587583
-0.14930763486041723
0.3186144452335335
-0.20965812632643632
-0.05968012814019844
0.3031246728152445
-0.19542717568580095
0.13243260364948997
-0.15547374037089048
0.33469379329278004
-0.3928078962976744
-0.2745227160972973
0.2026684182904982
-0.00437829435953553
0.2796349212385609
-0.3270426316476295
0.08247698237847413
-0.073913263525501
-0.03458703277590582
-0.43128667118648667
-0.23018175530965687
-0.1461454661149058
-0.2779540433356916
0.23608591095241813
0.18288565228872974
0.06914828231113931
-0.0330478805170184
-0.2854792194082624
0.00417697453890154
0.26670929849696834
-0.20264663531694244
-0.3351613721729394
0.37422555753725995
0.32641042659489866
0.06203410524441511
-0.13744883655002824
0.39112874949159326
-0.31158486273679553
0.2517629786073917
-0.0230259434882328
-0.2588670246557651
-0.23111698321108243
-0.3126816007851657
-0.08629436855792884
0.46316240359768107
-0.5202135232113873
-0.2683450272540674
-0.013881936325303297
0.3701035111662328
-0.07786106147447512
0.1432602780276376
-0.03809383399433973
-0.5168737659009666
-0.34767463318144276
-0.2905230964140142
0.016622783853806642
-0.23503571072768073
-0.5010695345044666
0.29538594705270826
0.4858317653351281
-0.08358834237222465
0.41488844630551786
-0.440727498920437
-0.08936693523297383
0.00033628387934030147
0.12376665035483915
0.5043133061831615
0.23236269822818298
-0.44920228019833663
0.09572826263411334
0.553077659940088
0.039347164105615826
-0.22875185390755073
-0.24429048089697292
0.0878418409922744
-0.20469057038439595
0.5431780472607957
-0.004602358698531468
0.13347950408068415
-0.138274047329265
0.07502172184780705
-0.3624773081584125
0.1725474429409573
0.44030727690537275
-0.2624326353937636
0.4611831491195304
0.468874320900642
0.24734552477693883
0.3147902470819828
-0.24339064550566172
0.5421089520108567
-0.1622605999985885
-0.235746801717369
0.01451466371699462
0.387996915099691
-0.08359545962487733
0.1342372107075042
0.15943633195896814
0.5130292465612831
0.2589123149337659
-0.37929172694843477
0.0642497871117296
0.13108405473838136
0.20964898571694313
0.18426079032974516
0.2698778714539375
-0.10315815717805776
0.3070470446343145
-0.38126406392886214
0.3263872233590615
0.1868843527806928
0.13389024192596946
-0.27752420840940106
0.1368404836595116
0.027086183689045543
0.3415424079050286
0.008578456288651361
-0.2658660737990519
-0.1577716311432155
-0.1169426483061068
0.16814793460217864
0.06093244805755343
-0.21975640833149757
-0.014135949491475022
-0.08217053923475998
-0.14214537179231002
-0.07897450342989379
-0.20520819002456167
0.46124367128406635
0.2084349317439465
-0.2047279037287685
0.47057956919540544
-0.3572491562926536
0.44017460848705625
-0.012055584846500078
0.30697478867017414
0.07686907169273885
0.43254853323981096
-0.1860136121693962
-0.2550740998891607
0.3804939010993725
-0.16823667623109229
-0.4657261846053253
-0.16824996583380442
-0.2047887122728111
-0.4179727626713956
-0.0795932151895411
-0.015734299334161286
0.28272096100711086
-0.2775168447693604
-0.13106764281112881
-0.011275207966482681
-0.2802874014659605
-0.06843978653433315
0.3994988965263106
-0.5415096509963466
0.012912772167893409
0.10714971692927935
-0.12958758498351214
0.23102998598160795
0.33175354664742207
-0.25666020599298855
-0.14433452263284655
-0.021433863771667398
0.2580892209709312
-0.08014251800226846
0.09670701006176022
0.04502392480111723
-0.20196467515888428
0.023852615001083877
0.017660334425446973
-0.20578071360858036
-0.3405037668362956
0.13807928447163534
-0.15038075862603908
0.12174959191019857
0.18189049571076252
0.21906513478414322
0.19783960305272077
0.021115946132705555
0.42858278986114245
-0.4782080541158454
-0.10097881880370928
-0.3494931361929845
0.3463867341265955
0.1603341955113162
0.25683750068261657
0.13863154877817374
-0.004903657118422435
-0.1866375959373096
0.38773138407114577
0.5190136673574008
0.5362058626938516
0.2363013670812871
0.2811762308261931
0.3306668182564481
0.34742395030599765
-0.1150068619872663
0.4333669860301817
0.0937300701101024
0.6042791183224215
-0.20819013396487812
-0.19808934784691518
0.04063352721881511
-0.4230447743845613
0.4039236217520466
0.07243866777994622
-0.5178168681322987
-0.3984562544838415
0.4926996852950408
-0.23759017866705565
0.23239704556744803
-0.02622289542444791
-0.2812591968462519
0.10779022765941339
-0.1188363676798829
0.3727300737796115
0.28045599785269903
0.11626967356011078
0.055671983802273874
0.15029596917310914
0.409573813157453
0.07812158971620192
0.3027082694342393
-0.1838755269338945
0.5047829516641227
0.12641572213296384
0.1891297263201168
-0.4373847271203832
-0.6042998871469707
0.2809514346367921
0.328825897882263
0.282776565923598
0.13800693186075125
-0.14918327706493922
0.2540574971266909
-0.31862282860854485
-0.5608501608738998
0.2575913038582152
-0.33570820894103787
0.2826104239894407
-0.38237557945619527
-0.07719773054794486
0.03079675789287896
0.32837140864400993
-0.37021986365651366
0.38213093420861427
0.29673966820561526
-0.22089089139394602
0.10294534271982379
0.15137359802228456
-0.22331682975437633
0.34562724924008653
0.4692584291898846
0.2651360801541647
-0.05385478390033294
-0.22424006916099676
-0.3296589715429357
0.25143115543748684
-0.24793558053312215
0.21991327296927765
0.07188506005408302
-0.4961577998274256
0.01309606937590951
-0.06553452272208873
-0.29324607377485995
-0.11291603292595472
-0.485660833132442
0.2219838555051105
0.24069647413413414
-0.11381584673088514
-0.029302282179516973
-0.49650887916160524
0.25133605708228157
0.46328826320558014
-0.6396926453706708
-0.46162488979475574
-0.31976239638737325
-0.06673385531807806
-0.23282780577507556
-0.09335733390762724
-0.006507976137329858
-0.22034185803611228
0.6382049043481899
-0.2835709113204154
0.2899362878785561
-0.4039288167686136
-0.5234840613482329
0.10993860975479232
0.09001742831340333
0.2134843660370823
0.09869122492287037
0.28153189464540784
-0.2389826520045705
0.1596902347374046
-0.26842782544781996
0.18179580519207195
0.34088542761918617
0.05213402563290299
0.4270804642392272
-0.15591921327741154
-0.13585044447240754
-0.027534204418250816
-0.14850759669188193
-0.00815675924671933
-0.12714442100886741
0.4380056427200519
0.12437768091870181
-0.10924650754176227
-0.3606526788457738
-0.47794548026692324
0.1067384991607326
-0.07446284052147607
0.1834319908000295
-0.23957785939203355
0.1797204482450263
-0.3632487765581061
-0.1441749474802012
0.544522618272401
0.11026420817893194
0.4842105948257359
0.30873111492161825
-0.013853405685273011
0.41223220373612146
0.4414490048630267
-0.22427197944353303
0.6217784171672119
-0.3663696083003616
0.39320145681612273
-0.4359881099133133
-0.3001683709308252
0.24588318815405016
-0.4469714693561468
-0.3867457692714357
-0.35127487615332487
-0.10462846807523721
0.3296651855191269
0.34142245274204297
0.25429176071255205
0.41478248039246296
-0.2703164363083797
0.06632879843171217
0.35458301602823444
0.059298087926109896
-0.5125398631602102
-0.5963867210029147
0.44119427152895124
-0.051358801311389556
-0.06237606694703398
-0.09606576173477142
-0.12396990659278684
-0.038157745641450476
-0.17405013703856353
-0.11264819361153784
0.38467314915591805
-0.304439952903856
-0.27640112491505003
-0.23436162249397685
0.4632486663079127
-0.48755486789188235
-0.043031710498651475
-0.14309385702566527
0.2848295149747873
0.4599604327938202
-0.5475238963348392
-0.019924358297301777
0.162993352280058
0.4226191292075302
0.30117050199998563
0.39841945590445765
-0.30962383559418893
-0.33642466061821813
0.2736945866072714
0.3822016971087154
-0.11578695188191682
0.5298250322700313
-0.06198499331006822
0.21017153645591394
-0.4029412995191867
0.05003559945665422
0.20613225824060463
0.10103591731989708
0.2794369981201139
0.027987687799826275
-0.1835445130331265
0.6257704107611252
0.3879022380029038
-0.38819443297736217
0.27578417029415797
0.1301483640414776
-0.23473017173381497
0.079791035861288
0.351193785371683
-0.08384850245534511
-0.31920417475867835
-0.10470721119836549
0.25963594112303723
-0.33899999916786605
0.5503884557257586
0.1507435248903255
-0.20061584439550711
-0.07766496048873231
-0.11503476731900013
0.5555443979974747
-0.11973431213766235
-0.3878302934879636
0.1583280745769553
0.42235010206956214
0.4168420580185123
0.25907741533501855
0.4749848379208605
0.5497769630829317
0.2511864041688034
0.12119744241777529
0.34566313950133587
0.3680959168806022
-0.02290602509729477
-0.17457969045140728
-0.005106663144784492
-0.21401044342479764
0.24016172672179878
-0.3891214550405331
-0.1787859602297451
-0.061885713965024694
-0.15641054464637655
-0.2791596534553751
-0.01211067132942059
-0.3280269315793437
-0.20100922541380636
0.16685195621401203
-0.020089602273450975
-0.42794555372356724
-0.09251324331204495
0.006653484754481923
0.019356778732695163
-0.26009544998020445
0.31621019521840504
0.24058160271841048
-0.19805061548338662
-0.38932028438501926
0.05671767170949932
0.13232025124583321
-0.35467934133911816
-0.0017876068374786326
-0.1412932944533707
-0.0879674356010199
-0.0622486443008055
0.034102736757071025
0.27674806697038734
-0.40481076411149236
0.11245714155610348
0.3282313577354943
-0.03906174103197251
-0.09566682893580086
-0.2857525797683177
0.47267962549248405
-0.05115754526144625
0.1594419819548629
-0.3420107656088272
0.41302749859581617
-0.1344078666227812
-0.18107175352133031
0.016905371740236735
0.04198633886037643
-0.18636900541989676
-0.20799986348987023
-0.40336511319139184
-0.4336941381222817
0.04509772695441119
-0.19538755509216196
0.19631053682969946
0.12450732609840334
-0.2889682984613264
-0.45308860514829385
0.21760659991315381
-0.5152854342251306
0.15147275591988732
0.2699593363593225
-0.23819669886310418
-0.4580030765476543
-0.4717769611736781
0.25486815511509114
0.07795785109973571
-0.5299121368976046
-0.3186622017223763
-0.46421436814325623
0.30000321794060153
-0.06198894518952693
0.3746780982108418
-0.311219317439174
0.041496628000059384
0.04491655260033986
0.2559037495883228
-0.0050429377037503175
0.14514539326455156
0.17226176539176175
-0.11794579457246016
0.04005417432295271
0.09870373478975866
-0.17810280644765503
-0.050666727136649374
-0.35749195707219644
-0.2808517500281971
0.4435259743542557
0.3782920135574435
-0.4131018115441224
-0.06535624342664521
0.3871728269912729
0.12126366329687846
-0.028814590089340328
-0.19067442521744438
-0.14233168340991398
0.29414744997482084
-0.18126138862747992
0.23776175185131976
0.24491501162183346
0.4800818828046295
-0.11142845363992608
0.33383535598403175
0.2548480794139439
0.5111841121671108
0.5939147699245722
0.6010452360283037
0.3185465796756149
0.11065065517175107
-0.11791139546246815
0.07229221502351671
0.10730137639494333
0.4166753387033676
0.40796823424960543
0.11684998998161372
-0.15444224061154388
-0.021906533729726497
0.3300710570315717
0.14971981183414304
0.22101540824510027
-0.5912543196098836
0.30755720630310407
-0.38305826442324903
0.3526550665454134
0.5943418864695136
0.18369118239627136
0.5955627120755701
-0.13781454982368369
0.24267808706773847
0.15368278498681842
0.13993393688135702
-0.006221574321669771
-0.17747039266089357
-0.22826085056439732
0.38174146900581346
-0.5102004989614265
-0.4338028753872466
-0.19326026096695914
0.020786577448443457
-0.2033914027971341
-0.1912060248621286
0.39139342784634457
-0.07307566705999508
0.2742534994659325
0.2488859052577567
0.42923181581042796
-0.1534549530274514
0.25254195233682575
-0.31189398007801844
-0.09114917532533494
-0.707534920001155
0.1552263936258484
0.25587752996958507
-0.010099879768827768
0.464261638262099
-0.06366754071496619
-0.17304962344166291
-0.25931291069080326
0.524849675953702
0.21141108973412245
0.13918636771293055
-0.1915154066315928
-0.03268711916389611
0.200761475739209
0.2272932061546836
0.32178319197019345
0.31668911195219357
-0.09785933780601787
0.07992242065433804
0.305509143140067
0.3452492896793005
0.22746236586385582
0.14146944226427544
-0.356101203792318
-0.0056437312055958215
0.0259671485825308
-0.4573156398971761
0.030526146698770178
-0.4418724082384278
-0.181283756943287
-0.035486599177206216
0.14046287976297303
0.14202111023242123
0.5102111488625382
-0.032327380917892376
0.4349818040005628
-0.023757796247154243
0.08189217216740947
0.06980655026432185
-0.3521428597590589
0.1935016180441258
-0.3267587300209186
-0.3179553101981853
-0.34444892725519294
0.1828875174469328
0.3174999482389331
-0.3003691487885224
0.3388322960070523
-0.37079629991411206
0.0998552172524328
0.3926804814532752
-0.4600359773198801
0.08190692035121494
-0.4743275092845441
-0.38494708442259246
-0.2062083236946984
0.27702221994758147
-0.16659345736264602
0.14216742515798728
-0.0049011820533370835
-0.19513900763632813
-0.07250446339406823
0.45955844081151526
-0.02406282053508812
-0.18718532256598397
0.2704625106708092
-0.2527517984386226
0.5204066775248791
0.31555616666716885
0.3303160447434133
-0.126435926080195
-0.13394800995029263
0.5514696073535875
-0.17210831237988033
0.5402807614775882
0.09349699859157178
0.42148554938864957
-0.25440335730068137
0.4268522303684901
0.40986113362396825
-0.2472680511607261
0.3633357752690983
0.5620284539248352
-0.17579314406295335
0.07896067508766763
0.42822697683357325
-0.13392627878856267
-0.2591221017137399
-0.09668851586953041
0.09411447478994678
0.44235351984667426
0.24255617191195836
-0.007031001261611068
0.0717712340544914
-0.062410473309513645
0.05673000871319026
-0.10094615345689897
-0.48444812207937166
-0.15994944456771515
0.04973244046288294
0.44207900252777527
-0.30383047501113913
0.25175628501709235
-0.19184404942467861
0.41253813698984193
0.1707373581105514
0.15399509522645596
0.37853343940105555
0.46364667425752365
-0.5858744102640023
-0.03220357401381528
0.20356676551563888
-0.2790708707421362
0.22458509445262137
-0.1191153982254645
0.04858096156680482
0.05674561778771575
-0.39067494456054624
-0.40860790531902746
-0.3861295691549742
0.3262288490843805
-0.24966082580589957
0.19916784635459864
0.014802402082123993
-0.18836727156143843
0.06317425556689418
0.3326844512056859
-0.3099694670788448
0.36816613191165837
-0.35462250561741515
-0.12939293145162215
0.409891702364885
-0.3154990004273794
0.21205974878123124
0.25135386318051883
0.5449173292587783
-0.15480625245923618
0.3907996049661449
-0.04761302004964604
-0.3259337439392353
-0.5681326932645185
0.00019190519812311584
0.2396780115701618
-0.3635529752248048
-0.09490253268800647
0.260901640897063
0.3973278705036514
0.02535133921687621
-0.2161035977589384
0.47239354847488857
0.2858222110225446
0.165226046279222
0.366261740413839
0.17716275017512653
-0.10208323718115446
0.2234801003795683
0.5224971933663646
0.3014881510639911
-0.06248382955687798
-0.28297993931385435
0.1024370282225855
-0.22315615675555248
-0.2557311920531301
0.09229900054084478
0.2569194209391117
0.4620597996307611
0.24347119685693122
-0.2891473543338676
0.532361729573737
0.05683098984110462
0.14788101529582148
0.38737130285351834
0.33713869565256427
0.2760044084288944
-0.21090107128185462
-0.30636811765566574
0.07471675026903847
-0.35261937600702703
-0.3502463790206644
0.2403658557064739
0.06111013577612096
0.340865294100014
-0.22241343856673595
-0.41570460733211834
0.3910363282456793
-0.45973582052774414
-0.1953134574628525
0.09309928669405085
-0.08880899637914119
0.13416285102527492
0.29979785382345814
-0.33764405904209055
-0.14480461884953777
0.26187385086117815
-0.03905597630216438
-0.23135608315091274
-0.09434115351835244
0.3944228021989967
-0.1963310546629552
-0.21637195402233464
-0.3069922581650868
0.2609337339533907
0.22194483019126277
-0.3086707756359809
0.2594127670876147
-0.21853089854901164
-0.2849950696465583
-0.21833371051895062
-0.4546057514459008
-0.20329078579087367
-0.01979835178289143
0.4440856296562672
-0.2623785111870835
0.17174797086239815
-0.1644760475717981
0.25899773797447617
-0.16900805122710175
-0.2574063430505545
0.21276951837132752
0.406590687118808
0.2330599447208167
-0.307629909173021
-0.2260972353601449
-0.1600325515634699
-0.5127567912733219
0.24115966337896888
-0.45640051108698704
-0.36048750771001925
0.29433056451264505
-0.14547393911776096
0.1048154176855976
0.025716576737830236
-0.17520207084147488
-0.11256398350104671
-0.29161619387755183
0.4913295800743317
0.34001681994527594
-0.40891342290205973
0.40270307522382137
-0.12533266822510283
0.2948618344753979
-0.4103026422108509
0.4141345759318926
0.4703190589260037
-0.6181405597670183
-0.2101239900031821
-0.27988958358308985
-0.030514193660875242
-0.027909701403706032
-0.29852461137213304
-0.25873052710063227
-0.08476469816134452
-0.01421725441405771
-0.08581915863102543
0.24402940248552796
0.07655423258910979
-0.20179847802891882
-0.0545707157104525
0.3922416680139734
-0.007157748554576827
0.5688655906196048
0.10366057746749206
0.46035039745980644
0.5661773535888815
0.22299460698950954
0.04431662495862759
-0.06611518713674765
0.29974914999369195
-0.2911172045605325
-0.11196190036625318
0.30515117467806124
-0.1705885848279626
-0.3197969594518009
0.19873494236758804
0.5723450768920785
-0.33562461512024344
0.32473162583432663
-0.08263165963882747
-0.35672608031377545
-0.4098861057122369
0.18827986335165792
-0.4032143980123367
0.18774914014247765
0.516947167563697
-0.3703430070342284
0.3143433052776366
0.3748265487746908
0.3305043195550861
0.35954638358542196
-0.0345779660421276
0.19049639661723677
0.3392288986727976
0.4640537513096991
0.4288711919170187
0.08880101269183986
0.06408397634946748
-0.45229752782651816
-0.25668077133539785
0.11124650232974051
0.3911905333957661
-0.2286809176939047
0.4649303644354533
-0.02364871981437423
0.184546073343989
-0.38051827792868154
-0.03755503243745383
0.21688160314806776
-0.099959860464546
-0.5222036872917514
0.36011986997875095
0.17958382293247846
-0.035269137311999696
-0.4465664134650826
0.10167915575301789
0.10447033543499795
-0.04645670144263697
-0.15176214073137695
0.513460574837782
-0.04354924253959947
0.18130209552452195
-0.46888383369074293
0.34890609224742225
0.4652756136232959
-0.5573087438543832
-0.4535073942292466
0.2652685903446386
-0.19871618196926474
0.11280292432044778
0.46644591897985377
-0.21593383171830147
-0.34080197953645297
-0.3151061335466936
0.5256090283284391
-0.3483546322272749
0.005545330308077857
0.2602908726906622
0.09544053799011157
-0.23711410310296807
-0.17518001264232486
0.3959231317899915
0.1885223860509228
0.27106941293476755
-0.2670384181819723
0.30526508891703286
-0.41801187627325204
-0.4727864581980581
-0.4972578412140196
0.2128504494568142
-0.1253201250641993
-0.3204252309653144
-0.12307696636083906
0.15104335598493848
-0.527918035206162
-0.02514133471910948
0.3719137317835379
0.3255707858458201
0.0894263754015878
0.26537226451750523
0.11488457291769961
-0.3841039516743017
-0.22049722195765098
-0.19865381050440123
0.23723935644050323
-0.11654426091109003
-0.35573487561103095
0.3426895593030068
0.17062543019594262
0.16860472010283997
-0.10249068959932973
-0.04830348165126149
-0.1206797308182781
-0.43384131416961985
0.30719309442448456
-0.004127227593559124
-0.15966340213077165
0.15583220175293636
-0.25056809118972334
-0.4229915810073722
0.2697800489292216
0.3049262463399
0.20548509887336106
-0.18746813645992008
0.1905192355175067
0.14665850138615216
-0.24331195773657177
0.08544465292889575
0.3266499470474858
-0.1336443947232264
-0.21381296511878137
0.05580023856118775
0.4096430258741608
-0.1771776977154881
0.1063933139196589
-0.513241024909417
-0.2500486666051138
-0.11428235052651695
-0.25333288510321816
0.1551560005223285
-0.4956223716424769
-0.3305623475763443
-0.13024076285403682
0.057965403391183
0.10896464978935026
-0.45703573674529807
0.25925062836395196
0.2289317245539007
0.07181275377490606
0.16476298952221075
-0.1995366168264007
-0.10783778672047921
-0.20375102562800515
-0.05869345069860042
0.4618819122700635
0.31207641015521004
-0.5694032405659025
0.3607411599983429
0.44368038531032183
0.17656163489213572
-0.3113693167413783
0.31153437468358747
0.4131662705235125
0.12586094594998576
0.1035476384749019
0.3469299139222083
-0.11597886676490414
0.09956766132124586
-0.23380325572419214
-0.2364742700954468
0.10780088693497587
0.14432634406162934
0.1801266791195825
-0.2664326834387445
0.28278580825230437
-0.0299153373589377
0.1402884368528992
-0.025101565051894724
0.07979461198678361
0.017810520322294673
-0.009160040712041441
-0.2175987220956973
0.3325383559076597
-0.15762657434112465
-0.3874635472224215
0.5091863936255244
0.1454196464133922
-0.28024859404752184
0.35900278126381874
-0.07699535926168374
0.33070679435103467
-0.238768900665998
0.09040676644141157
-0.3357191062073787
0.2646468345317207
0.06892114159828684
-0.4764010807081719
0.06596194791649979
0.283245380590993
0.39571838468781667
0.19982141918346477
0.18488313438703216
-0.07858794292102997
-0.5007851880326812
0.09843158876655972
-0.023089859837422757
-0.37702023674903384
0.18298020059886863
-0.1186346373196544
0.08298016087398767
0.01864804739935399
-0.10032199663010927
-0.24821570925700662
-0.2017023517154248
-0.3840542125022157
-0.3876716572865297
0.396396022512052
-0.20666352960657203
-0.6573060182726038
0.14658825092464292
0.258699489653694
-0.011254303350393124
0.29064040387994783
-0.37161546870276146
-0.04711674424282034
-0.20863182680051975
-0.025562046260921616
-0.3247492480881054
0.2389934244351102
-0.10165016553449518
0.19755071857387074
0.3505031553513415
-0.3728868259881315
0.08054916323753045
0.0011451414252028212
-0.23953519664158307
0.37303466566858584
0.3593894383916552
0.2751522857060103
-0.5162891857599005
-0.38862873191834146
-0.08059160132535735
0.432076902464974
0.043022767808058145
0.3522080045133576
-0.0494762322866158
0.20509866350409697
0.016323589338164548
-0.020133478069759028
0.16659436972612163
-0.09446778918427585
0.44428740526021804
0.36738173915699984
-0.12037332991661519
0.45229657426059794
-0.3029985884002481
0.20559061408208334
0.2110418039947691
-0.3266509036844147
-0.2725439319747475
-0.09686038424237468
0.17569598815611426
-0.16353697931883193
0.16878461349879048
-0.33962740988315226
-0.31442721246343047
-0.5595424702789739
-0.33873597325590715
0.41634142343455943
0.12862259526024697
0.22747186891016957
0.08128550801466618
0.32746890579165905
0.5035267648914518
0.2353779374233495
0.12334510363171597
0.211872303625855
0.315795878709932
0.18481484221312056
-0.09808747034327174
-0.22515318362808964
0.4189695190992892
-0.019724356554450147
-0.661587001443626
-0.3056045433310648
0.055646790358799623
-0.11868791324452649
-0.07488933615600094
0.13938383931152337
-0.4495938717307665
0.15854008532860023
-0.5611715141644151
0.0023107339183909147
-0.3639076885347302
-0.41075713407750414
-0.28326389051219464
-0.1791587337632925
-0.3497392030751597
-0.2541624060500754
0.25226676592652686
-0.3794340797563512
-0.13646416051142785
-0.23930373040542618
0.4011335952860248
-0.12004401954689768
0.17842384685724746
0.18268290725994943
-0.050412267829406214
-0.2303074550116537
-0.05670923592416254
0.40746747368472636
0.16926886951383824
-0.03728301279611291
-0.48727294761922535
0.09485845236477841
0.462022887099482
-0.41916288136998103
-0.32878750198637635
-0.4323196744462954
-0.1577439638424871
0.5016937326791354
-0.45418071552386924
0.5040024998715569
-0.12194195576371415
0.23243004364189468
0.2379827439757261
-0.5091523128015685
0.37255651428506564
0.015079092307789593
-0.11956481933233354
-0.49649191779657836
-0.35075034654346365
-0.4470936033961652
0.3628282898344522
-0.18134176626801302
0.33090781990375795
-0.3724587662072286
0.46383646005091433
0.3799368828547083
-0.4004807736184308
-0.25661215165741835
-0.14482693669948216
0.24978291401626107
0.1845080356181552
-0.21903630122353232
-0.39105004897602075
0.08546192391459237
-0.10883313215317038
0.42200304639369907
-0.2346024921080171
-0.3242558762060047
-0.31251156330974045
0.03610489001968459
-0.15119463449738565
-0.3847705910576706
-0.43482146479523265
-0.3078935626148956
0.35110752965965164
0.008979427061386894
-0.34793914675492904
0.23118723522578125
0.28773558924154125
0.34909448558503564
-0.1767983930192027
0.18333849279236264
0.09181550480367151
-0.11861620004768587
-0.2621910195595244
-0.3888564335553893
0.03529988160298088
0.01550942072726151
-0.3781488571085128
-0.21392493067341173
-0.30632524722944215
-0.24700512926637488
0.33861837646811366
0.20480149141609053
-0.18677977742526855
0.20418147596327182
0.23210674193409112
0.4386709053180957
0.45936750726075753
0.24975653425110886
-0.045200069959476445
0.352471123317333
-0.11208487584122824
0.056912384915909095
0.20343129040494054
-0.303391013461584
-0.22379374969103794
0.07322939784356475
-0.3881716013381227
-0.48920308397121015
0.244681844166032
0.0765186643538672
-0.10016331950305342
0.5575353334358375
-0.16265634768913487
0.10503936632932741
-0.03687328039101858
-0.4030115670027155
0.1468027900312277
0.22423813736612924
-0.3487147142403238
-0.16376169061438306
0.027394815845605096
-0.20005132405224377
0.24162472633820822
0.12905012090957005
0.463019667958596
0.33666156848649387
0.2646929314864084
0.505879326604204
-0.31266280476221153
0.0926341627625978
-0.2945303378290537
-0.3339477940265359
0.44736452226055234
0.24172302925537978
-0.016120654624589236
0.4805280391727115
0.30848479733263423
0.35549609010465566
0.2860955957627699
-0.2585265226783
-0.1321432128874584
-0.19239905452908612
0.04036801325480239
0.225798785603638
-0.2578458176137383
-0.2347187439137535
-0.11433712498364389
0.14660469646054075
-0.40294044488761255
-0.23577504216504003
0.21256918692415702
0.19442013921062382
0.36868737029233745
-0.44090122700977974
-0.2790821413607932
-0.10189432151718153
-0.40242298690454453
-0.09097082720858117
-0.3680158792602258
-0.07977477307301042
-0.23209007036908555
0.4586527897686521
0.03490043513344763
0.24851196645084203
0.1664532436370908
0.28543407345721195
-0.36645692378156297
0.18037058815611892
-0.33469775186065026
-0.08103359801944875
-0.2775104353150267
-0.45124429779640585
-0.39078163793389264
0.10081076742073918
-0.151968795505164
0.39060514416937736
-0.7068215574591883
0.5023285317594888
0.025749825653598096
0.5953577737830543
-0.0028340140523887
-0.40737401677449814
0.1017737762401578
-0.6042620009453261
-0.02897454390898069
-0.07646226938036599
0.14832535365716817
-0.5707319976268809
0.28320919170522424
0.0731001710970906
-0.14328110900353527
0.564815963536404
-0.24102460302771317
0.2635046447722569
-0.37028546399133655
-0.39983796713675995
0.42378266037039813
-0.2895229463540966
0.2022559247472181
0.020217477293130896
0.553827606990043
0.26199090606025766
0.003005119423054039
0.03145114333453766
-0.05302674279456322
-0.11883491906014097
-0.14987337552035343
0.009635749319883176
-0.08833678461159387
0.24555970568769392
-0.005489518924720178
-0.19867629100195058
-0.3276045145627215
0.14822196746769614
0.24190460769650493
0.1833474618537782
0.34476983203765177
0.2579973974845393
-0.1167368402006625
0.15944617291139224
-0.41260567167685674
-0.33438846531795086
0.21537116627504813
0.2817791715392294
-0.38489215895657836
-0.5856358086262313
-0.29285082108486177
-0.3559474603191897
0.1301108087070297
-0.28235446019170274
-0.0811023491843062
-0.1566741729235493
-0.12628756295900453
-0.4491998046461816
0.4440064922730413
0.23456484510665734
0.47658121573324136
-0.03634592332394341
-0.2706863381688627
-0.2667514243774041
-0.3292700127692279
0.10589710777325002
-0.19833092151936782
-0.0011497200131175803
-0.18329660353902655
0.15496259366830664
0.3406281921836793
-0.11320357973381291
0.04834064541518497
-0.1703397765730544
-0.04208466894900777
-0.43453863760361955
-0.05916890206527347
0.1254915145949744
0.16321689453867316
-0.15768159914674407
-0.42426289335385176
-0.3852374368725439
0.15159957577493047
0.2518283738177553
-0.31465777653370064
0.012736551317141843
-0.16272218355127688
-0.06354490861843129
-0.17422767924705979
0.03304642992748906
-0.062261326394216804
0.06421842227195125
-0.12508689404147577
-0.2650130640544433
-0.13110687053154824
-0.063106214159504
-0.26165492388200745
-0.3839732343497842
-0.09441045824064587
0.3692892111203947
-0.1838681661315225
0.34523032185751784
0.18672822736309963
-0.05421041977327579
0.336221571378632
0.3013257835576206
-0.2642747240053356
-0.3529199485898379
-0.09732642128723602
0.4172506344081289
-0.3212593648227415
0.10631990341973471
0.23048358672158192
-0.0600387275872428
0.004117789359822701
-0.2704597715778475
0.1261081005917443
0.1307466729920814
0.373758841836345
-0.1704158700029149
0.3360055108970194
-0.3882975492566349
-0.09188873455218065
-0.21516245179888416
0.3709991112718474
-0.22315300057494267
-0.44568046755108914
0.3885252979654127
-0.28916833752185966
-0.3514160020060805
0.11618819990130849
0.02687826934384846
0.1307679814793873
-0.05332491909561175
-0.23227272536863558
0.3314865044374472
0.3954635738586415
0.23259393895319144
-0.09831916615233718
-0.08814617630433481
-0.34990574133842495
-0.11085436128702911
-0.06276499696275743
-0.07254763536859955
-0.38664092056685906
0.10598208916784335
0.046609483141790295
0.32044621916902016
0.02908426794550898
-0.02308694690337346
-0.033348328740245806
-0.45673692003910915
0.24063822513659663
0.19084388799485116
-0.5256993778286216
-0.06854032218498668
0.1806489725499854
0.2829933011601871
-0.16068161467687495
-0.3363947585995599
0.24619487977577703
-0.4325104192270392
-0.15590056956130957
0.43472224132374443
0.29321142851152066
-0.03164825793141238
0.2952396538606323
0.2877781169865194
0.5278332417258453
-0.20683268802356564
0.2586674944480516
0.22007160134492948
0.4307249750616894
0.20768851893918774
0.5697498739522913
0.5796634452674518
0.14647960932006862
-0.4623217684860875
-0.34218223080964905
0.017188123956496017
-0.3619929761485455
-0.48402983808465044
0.28386423149074
0.0497301726558803
0.34131951798013277
0.1199676939060106
0.02018308176565455
0.26237367119638166
-0.22611249129291683
0.12274188741929822
0.18582924199465686
0.36606773363739287
0.07249135113646421
-0.03347174661953009
-0.33101694348000227
-0.3553273594246504
-0.39520044700865997
-0.041828157579797555
-0.3305752555020817
-0.10956605839738909
0.24687963446427413
-0.1687968687969721
0.31505156307144694
-0.3108828999096329
-0.26929435565602655
0.4467521363929688
0.06200525779066984
-0.1661364213973221
-0.085805616711931
0.4601058831712073
0.0484553424033649
-0.3584818349070088
-0.34230887182596126
-0.5854039856367221
-0.47281074441537985
-0.07158130600154353
-0.33458658238233885
0.1230639103087588
-0.08606136988912944
0.31623531989123865
0.18248657427661072
-0.1674582144043628
-0.15289785641202353
-0.223851396879039
0.11141234835878852
0.2913195990507757
-0.110988775026049
0.022300341044460836
0.07425688247696186
-0.6852419133516905
-0.21237133529847607
0.04584491330555839
-0.032381237692313915
-0.2797341343671337
0.1511895377629813
-0.1417491429748279
0.5349362946296434
0.2980896099663005
0.33739256494541864
-0.3881453433168277
-0.23752200102334467
0.2520155594548972
-0.33291798472774314
-0.05250638420313598
-0.02263352331484792
-0.5001900841249528
0.1381628385448761
0.4810035782104164
-0.48989395445197226
0.06074133730873969
-0.16007711293147836
-0.05898075171883905
-0.38603413070475534
0.20631660125667964
0.32700811631024534
-0.20859987165439942
0.1659973349830844
-0.30012990716388266
0.1257701180709717
0.22132985378404105
-0.09164258978396707
-0.06164335370241817
-0.24587632618283536
0.2750103574511896
-0.011439412535184558
0.06563353388166855
-0.38768125635127937
-0.30096877052179233
-0.5572739836207844
0.058572091882301384
0.1696640894868093
0.17083650261491898
0.0990584105031155
0.082292350113478
-0.5956921344431896
-0.23698650717596234
-0.403815442491691
-0.09541527017344849
0.016885922822737796
-0.417990161154354
0.25268040805735287
-0.008298895302841081
0.2489657638897454
-0.21221538082739483
0.11740886459638362
-0.21085545327994648
-0.2064476188819388
-0.1436291392021073
-0.4627296692395507
0.029101578849179615
-0.4566679659911462
-0.18511663826559702
-0.26509739207410254
-0.20093594348872407
-0.3106058169096172
-0.060622871408090764
-0.42629003367466767
-0.32644958151879766
0.22403825554798232
0.017955732660152105
-0.11614334509646701
0.0375733596877691
-0.013269372150480966
-0.2809632523516539
0.4042194575151875
-0.14762955739996883
-0.28042862130231944
-0.3792214850637429
-0.5156322814983523
0.011912717713887471
0.20200105253164452
0.24400757188186112
-0.07245884000295325
-0.4847354421184579
0.2966846702154368
-0.1842982594864651
-0.1801575652359964
0.42243350450441586
-0.36965537615786925
0.14739117441006014
-0.07776659051225804
-0.1843288851306225
-0.23516263698507991
-0.010044593324500093
0.4177166320531842
-0.03403042080061009
-0.14721180509091297
-0.3610684847644781
0.3785364541974186
0.10481041864029844
0.4036157036863038
0.1208020749295832
-0.19117974684738315
-0.5545992558608264
0.43884135865545076
-0.3599170908126902
-0.07437413935217921
-0.17361189426456708
0.4252684863482528
-0.3933814988651057
-0.3375837244534586
0.13859642735523195
-0.20980274279424388
0.10138384481225295
-0.23254883585808817
-0.2670991523430567
-0.1527795815005538
0.25781728299832957
0.27560556450684115
0.389451734330816
0.4711979955738239
-0.11277432131051171
-0.3533305188390135
-0.19338022812193767
0.07361171566282372
-0.05596422246882709
0.4516222849965746
0.16616857218035117
-0.24039882982764363
0.5180860606946475
-0.04573794839591034
-0.10382567326572784
0.31937665480229005
-0.12678664108992097
-0.2108473915963733
0.19025751254982196
0.09904381054452405
-0.0860230504081119
0.16517773085538515
0.09048781646228449
-0.2134817055082927
-0.12892377266749522
-0.44703363740241964
0.3793900001710304
0.09279409195709719
-0.14185557705377774
-0.33780994824603083
-0.05886228832661278
-0.3502494105438091
-0.17228806303304112
-0.3790856341805032
0.32000155942287994
-0.4446778623053651
0.3944449234374227
0.48752888669307615
-0.49961666506317937
-0.2185089819735659
-0.47886788888935994
0.0893789570334595
0.35813196454457075
0.13223172146296588
0.19926781774105626
-0.32091160278017217
-0.41660041555732996
-0.4025138584643956
-0.4193313083483579
-0.2533684904712305
-0.10164573519913753
0.12939062060063858
0.46448660711592243
-0.17765981807015077
0.07308246793722517
0.21707665612397353
0.1837284102356305
-0.5100517930289963
0.2942255333973645
-0.4094376241986109
0.30467998007166286
-0.21752842101674164
0.21704617742535384
-0.005537906541874276
0.48337031540524494
-0.2453852931119344
-0.10396372571663959
-0.334986392261845
-0.5212416407914052
-0.15135405299271878
-0.290733521737985
0.2446124685883506
0.020821435608412774
0.08445063689952179
0.12197037236616097
0.12022634634566297
0.3403137814040006
-0.4810934267840847
-0.44144801256983546
-0.26622968401526553
0.45848710759162015
0.23908146555967552
0.28591283537370055
0.1604430589515012
-0.06177838753917376
-0.23115931266067766
0.058629368066278116
0.03160625547259588
-0.13529628545023706
0.4299364884155077
-0.12743731286537133
0.22665366492173944
-0.45378246236864805
-0.09017803439513139
0.007802498070514307
0.07280734209337181
-0.2569630019255845
-0.10458132845400699
-0.2983697925465058
0.3822682892264493
-0.37915569901552243
0.22761391191664068
0.10551444486363258
-0.4303766160118449
-0.19359192927051977
0.2519095037349801
-0.09540367575775413
-0.17504797860645768
-0.15746352913370373
0.2843883550104925
0.18424318454520244
-0.2603721249239822
-0.24949835800744044
0.23958500036609146
0.03694043361122952
0.5370053295242828
0.03786420331021192
-0.07514530340609094
-0.1262058309625035
-0.05263808580668927
0.3694840193238712
0.04588309983110742
0.4573890285659128
-0.04755989226665371
-0.17138607598017394
0.11783257347131466
0.3009161133211374
-0.06179258166819288
-0.09504372753737306
-0.46694886642463496
-0.2004666748504255
-0.14592139666225543
0.37691864352410803
-0.3247281782911492
-0.046254196345151925
-0.14946284963756343
-0.29289570767018885
0.05407521886664714
0.3305045019779426
-0.4082371330737345
-0.2685872859738841
-0.36166052909933544
0.510364226422736
-0.4061796706936845
0.18770941865461416
0.23428908910172103
-0.034197379234148034
0.33117799214790006
0.19619358343671198
0.11547678039819337
0.4588329256611512
0.31469387233376
0.33029755393035604
-0.23515403052801837
-0.2969059993078636
0.025254113235848107
-0.19385542481869708
0.4419311960597476
0.030447276363529438
-0.10281617502232182
0.22963814011199024
0.14862759389246322
-0.13982882678744374
-0.12164706453096152
0.2176716417462605
-0.1470684969791185
-0.21532294073092773
0.31833493032052473
-0.37349528268366233
0.12411417590952982
0.21790495934549114
0.2024706685122369
-0.5960699502795529
0.36357880420627375
-0.28132747347445825
-0.08444550683978495
-0.45529632169898954
-0.3330621555620045
-0.020908432564607702
0.15674694843194892
-0.47476245484703966
0.4110025538775654
-0.13754659175057965
-0.03382126753497898
-0.2834337556577657
0.11897372825984823
-0.06459970920624218
-0.296224398064648
0.07177487748526458
0.06115661088108401
-0.4689691460755265
0.01170343669982155
-0.11944708979631947
-0.05224879056660693
0.058933457450258575
-0.392059990097501
-0.4335232011466411
-0.04147539182662489
0.18482205858819883
-0.015563522523004464
-0.5121538127266685
0.29118425393391184
0.14143503367355478
0.1690491667310754
0.12731659227601666
-0.10436510433726302
0.10080344587789547
-0.25850502533495046
0.25559184653732214
-0.2463300206478791
-0.09275501923581514
0.19613471981447816
0.40956750256353114
0.23564878000773493
-0.2576018735227169
0.3135605350030229
-0.39666469030798474
0.2166346854656213
-0.011595641372148125
0.24137184944320159
0.3094958696985923
0.5518497110061675
-0.42098916092685407
-0.46893817084025613
0.23836353468349358
0.3541026987362705
-0.20207714173512514
-0.2352881483800273
0.2619539823671061
-0.0414044702865631
0.5671427130885114
-0.06421106128370364
-0.0821555573370841
0.3309971210024806
-0.36330828282660144
0.5920591481187972
0.14938108416332213
-0.337365370989273
-0.3888986203003651
0.29925034228499825
0.08123779850465065
0.4097373856351704
-0.19961548014534414
0.144512220915078
0.5034702265018917
-0.385977695580341
0.4000279845882704
0.22667079638946713
0.5875681948719934
0.281570774472054
-0.45244362984972947
0.13342358145975522
0.26484348733297824
0.36830832087917115
-0.15688956459745057
0.008595436462777384
0.14448078991647598
-0.47830040089368586
0.21946116967869353
-0.3027852196690482
-0.007099107596141047
0.502679553087479
-0.037580020817883864
-0.337776715162334
0.4863210610437441
0.018913157666036972
0.18225564591654872
-0.24894139544611327
0.13146422623220916
0.22474292759731643
0.3550196035866503
-0.6576210950170199
-0.018246305253696467
-0.03997607883652796
0.22418249187482667
0.448975585881529
-0.4760247164360667
0.35638983003556224
0.038530650331946116
-0.301686870257267
-0.25345122439851864
0.3496119219391154
0.059959351336734565
-0.025845728706712985
0.086408623028984
-0.07610117921728031
-0.15806627787472305
0.1746494814241544
0.1452004696718807
-0.05929223248507464
0.07589955328198379
-0.016275090612251936
-0.19270560271168446
0.2798995114006362
-0.13700069475655344
0.08332214743574527
-0.41056333937834466
-0.03885431834561872
0.33027040533717417
0.6605826130083359
0.26662697369642524
-0.34940309209879233
0.15587437738301496
0.012165901367868923
-0.43760516747031225
0.1546352793045841
0.2808566304791577
-0.5191033896266308
0.06291315239464249
0.30446381334622363
-0.07362698561177553
-0.2631713211576198
-0.2980006416553351
-0.26025561900764677
0.2506255869203544
-0.1436020372966742
0.35957960129641237
-0.2962316614413537
0.28280916382346116
0.26986762655978386
0.6231521331260815
-0.24210649798811334
0.6365689038060626
0.29138970930405295
0.3272069246305262
-0.2852093589414912
-0.012422608941309275
0.5696076922145662
0.18985943110778936
-0.4818885772118905
-0.6837398658941868
0.4437202901833209
0.2813591067238838
0.11606323055626135
0.24570242904256376
0.3887762800057207
2.685902489848923e-06
0.5044043604806598
0.14166759418344563
0.12995117899160194
-0.20551629055601095
0.0457837488427096
0.3549288616401897
0.4827746160022944
0.017831476010799246
-0.09064552570828882
0.24592571574771271
0.4377808724558095
-0.5094816377671828
0.27165836582105074
0.13287944873567695
0.1384262711963772
