weights_cmbo
0.09783383445042806
0.42758101944044835
-0.019225891663177834
-0.20370937379853404
-0.4854314015654926
-0.2380699953483812
0.1477810007659608
-0.02104627122229056
0.22904104234340378
0.10658124954313546
0.030274413216695273
-0.17408087211220225
-0.33306769659963054
-0.24116784067374764
-0.47279687490243294
0.05949901331367257
-0.008003850375244884
-0.16488627360999203
-0.13312373347603068
0.09734378684731873
-0.04355294155489986
0.04674789407541699
0.15540083383105346
0.24287966968320832
-0.26938772083282037
0.44287504632581665
-0.23305508666557692
-0.13387190034477964
-0.1361355502806438
-0.1638492872470974
-0.053326174228179916
-0.37921229248611826
-0.22745134477648848
-0.12386464303255257
0.47416784145249585
-0.24088946006112655
0.3805523525041894
0.3532188287894991
0.023007249589206788
-0.09253837730224986
0.21720016533842698
0.493096347200694
-0.12399325646972387
0.3157146495318375
0.4435960732996099
-0.3067076021863536
-0.2802653122190813
0.4727022440983182
0.22052909303189527
-0.09652919743885778
-0.36381992174467825
0.16656700355530432
-0.6197066858177367
0.2267767420753435
-0.009482831569281898
0.20410980506380824
0.29195238296242143
-0.3126427702595978
-0.19168472585605445
-0.1941426579287039
0.3997234769352709
0.07958243518236936
-0.058635921421882155
-0.11773316438067016
-0.1728278431033116
-0.3820234429135133
0.23809201096385527
-0.02593544568049674
-0.1223148499857758
-0.16591289309603843
-0.2925496251892698
-0.43378203986621916
-0.3380780616460986
-0.23058340750968792
0.38601007782464725
0.09835633545060656
0.10476437044241761
0.27666763533732625
-0.2501283591691323
-0.4578371031733331
0.1453779060797335
-0.2211631677971555
-0.5484818421227742
0.405373068020532
-0.23669423828499248
0.14339427553643108
0.11195960506252019
0.0053452692840854745
0.3137727013336452
0.20853775218852735
0.37097738957282533
0.03277950057683246
-0.31039561431143997
-0.2307544341467767
-0.07530825299648647
-0.24903847471561025
0.1529194330442561
0.4988728199206388
-0.4625237915805344
0.48347486083707286
0.21997920923034572
-0.5721349617106811
-0.19288690262647595
0.14644868678157924
0.20886240583397467
-0.30924501943314514
0.3377505663992791
0.44408134186015835
0.07831313344090418
-0.1027344088701183
0.25229340036036063
0.3866982522044246
-0.380104982433912
0.11593316850783383
0.3689631196673117
0.3505291332248762
-0.12048021027753082
-0.10627585967969226
0.12738293883942664
-0.2525272399010053
0.006183026709528261
0.35291492090202004
0.30966259197607937
-0.020500342458895694
0.5038898196338016
-0.21683292136370214
-0.17757456050144388
-0.37388950573150714
-0.39569315315934533
0.27014577550668295
0.1899533223736981
0.21654856630297675
-0.2556707682543148
-0.38608036824755915
0.2695257500011998
-0.30151759155831853
0.21015052773085408
-0.40977865086282433
0.11474514147503714
0.15765199972193708
-0.1553949414512696
0.4759045608597664
0.3974869383092709
-0.28551642837324837
0.012773778637923417
0.07351850542202577
-0.08068117804042103
-0.2909371903881581
-0.06498973633963596
-0.05446424226251504
-0.19108518061764068
0.46943197065812015
0.1471512987223413
-0.14151104749992094
-0.058569383463139356
0.029498374149845567
-0.3535683417875152
-0.11748304762801742
0.4562290912588258
0.443375206300778
-0.014782066199780975
0.11468237580603885
-0.13303811388486822
-0.40635422105099045
0.2836478188145581
-0.09350101789312622
-0.36916470833234644
-0.09475665113253895
0.31100970322455707
0.04881496626298098
0.24225255330859324
0.5318006925933837
0.3025023895565781
0.5027938049364752
-0.035391843011120694
0.29535874368946524
-0.32500176741465064
-0.2836100850188626
0.30953591143719733
0.3847380317324231
-0.21149999375912698
-0.5817897941984309
-0.46200593676278906
-0.2275035976392886
-0.08165883933588462
0.4668711775206388
0.10984697259024277
0.23633492207016424
-0.38952131360031317
0.4927463431476843
-0.04342650036853964
0.004119614702692343
0.0038977313110463703
-0.12982323071900592
0.006998176719927892
-0.35793583015656105
0.180850291796619
0.25278507575020864
-0.44879458344568635
0.20844603321679728
-0.44418970433420574
-0.16822600233343146
0.3901550581881039
-0.11124512535989116
-0.1834760040466213
0.05459733958592201
-0.4859724628412637
0.21418555252296864
0.29412274979615816
0.2791064640386692
0.19156739967236514
0.33888705547939585
0.3230718452367017
0.05713618965469047
0.06161675672176168
-0.20812089396389027
-0.4280578830028339
0.4805576074423093
-0.2079308777793321
-0.49527157865281973
-0.29264274966001236
0.38947235321190604
-0.07914826135771681
-0.21194012342842614
0.1564374033011086
-0.22587002405093157
0.5468229963907647
0.1911089321673211
-0.2236704048630439
-0.3878337121395115
0.25136684845940666
-0.3428487347997449
0.29416026608901685
-0.22272826335875712
-0.3705500073767741
-0.07609877336963482
0.23286148240362814
-0.2307982808238665
-0.09620931432808945
-0.17168930204214627
-0.062426435797318006
0.3019499257055678
0.26279681065857746
0.28772140000930685
0.09433430113629586
0.01075715413703205
0.04444120292240858
-0.12381051996547696
-0.25950361100029434
0.18405295002824143
0.2129084870633145
0.12919662399745674
0.05599368933725492
0.03904629669287262
-0.0913527749018438
0.1850032883456739
-0.3529872879883923
0.2019104150779596
0.5582825779831302
0.023621031586660318
0.007180726274212166
-0.25429072284330295
0.029939328519082126
-0.20946237967940154
0.07606276770732176
-0.02654653557059387
0.2053308457550809
-0.2709277423017828
0.2444674172089358
-0.4672184621956446
-0.3464856742445868
-0.358578763851343
0.31573733936101234
0.28633564445197307
0.07939758722257678
0.05539613793519042
0.3319233514521947
-0.013101910827779652
-0.3697273504310333
-0.3383112582254647
0.3618143506478505
0.16160011219665316
0.5306678863453188
0.0020401482816959473
-0.30043009136189724
-0.19304949533351545
-0.0512685802175373
-0.2518117878039551
0.2758112525171825
-0.4248840496188286
-0.10965136895115375
-0.3372274506405255
-0.13031335446964654
0.3159262862134232
0.009440314364609693
0.2226114968780449
-0.5419733772485865
0.2384464307192578
0.31130603478700697
0.20320746703296158
0.05293143616540829
-0.35834693106833965
-0.3069207953912929
-0.19960493245507133
-0.3490437741175304
0.20495408589743064
-0.12490476731718972
-0.05384077137946154
-0.2694143173852937
-0.04943870095413588
0.24213474200529067
0.102754048854095
0.164489084468853
-0.3327051000804368
0.11748605695393008
0.24828879795884962
0.11598061504672309
-0.3643370618709919
-0.25964480755262365
-0.3553267430661396
0.2901270341748233
0.16016026509744175
0.05840843906647231
-0.41854331288676205
-0.2904000884440252
-0.17884394236461146
-0.016904322691468875
0.44603025947964325
0.4086118021921215
-0.15328097896521747
-0.1793954681580489
0.04074615334146708
0.4682685017096885
0.5726072896322922
0.036941254413733395
-0.27095964862644906
-0.1342232960001421
0.3847080768039468
-0.32686423010601584
-0.10034060364320042
0.06564288622420816
0.01585331896283037
-0.0933825144817934
0.44045194438662516
0.1360122767028087
0.3024120201509264
-0.3446099382801952
-0.2795338203177385
0.1483220546925667
-0.2879290514503071
0.46087532503094736
-0.10614676491044166
-0.3684640095592284
0.044356411964859774
-0.3663336102453314
-0.15058270882941152
-0.33658417632398263
0.43107195859285774
-0.19718904043198723
-0.10582962217535172
0.6022970026418278
-0.21845652425709905
-0.26792108961526007
0.1833786069336243
0.10436663969159121
-0.3636490996965751
-0.3227787434816677
-0.357602559414481
0.3290287748567319
-0.10331831772875395
-0.16890984991313743
0.22974994364939902
-0.4420329225623446
0.45104394263380637
0.20094964047094993
0.019209401035365278
0.31523764829013073
-0.15626347757137402
-0.5111869346548532
0.1809315923908948
0.13564933791479897
0.5167158391932408
-0.482835617876239
-0.026560585573980076
-0.057923362570520845
-0.4922471917179205
0.0131554353403334
0.33941107869708825
-0.44811022133634726
-0.3105512168645968
0.4255192575665193
0.22526624457742622
-0.03573856595911587
0.3820678824308518
0.07989594933900615
0.12749904542855148
0.2646351994920346
0.13542992989256575
-0.05966251116536687
0.18793183284677462
0.4541983824803848
-0.0013480154709664988
0.24898610616994152
0.30093648576747445
-0.21030006548928418
0.13034714734889302
-0.3413780199265534
0.406542599697011
-0.11352458307341169
0.11124372429649133
-0.48446495720024146
-0.23021171768471424
0.4042630551073852
0.005603184439391442
-0.3051127962585
-0.1548410456827806
0.12047557257587445
0.11397924459528133
-0.24784497186940058
-0.117117773547648
0.23995896096793576
-0.09482745653849949
0.42374444562851976
0.002282291049316475
0.19136062361655473
0.32544327519555083
0.18337012475966974
-0.1445241322341905
-0.05105723466652692
-0.2423529252212966
-0.39433284354138987
0.1633385065948682
-0.21269325506880626
-0.21203177563480607
0.4326683946791801
0.23733659023734757
0.1012604223942061
0.22809480657016898
-0.11594428390496678
-0.16471273586547946
0.04069782463867828
-0.10078097020612775
-0.4099251275547161
0.004078330699356374
-0.4654128515577186
-0.33757986500106196
-0.07834602618618403
0.08732886301972505
-0.2064035020666363
-0.4248522202381906
-0.2882493837084437
-0.17900200152788356
0.19340800131161057
0.34459091155378635
0.3414391241632885
-0.04955336024884308
-0.14982199126439982
0.4377998104426668
0.15380318587547925
-0.10600716987109333
-0.26235946831735624
0.2055459445776858
-0.05646657585273819
0.32867885662498647
-0.5331015670636831
-0.19578816178318015
0.23910604698238141
0.23472626268993663
-0.22067747446590316
-0.25623548184247297
-0.47034498808753633
0.12056240047882368
-0.23707470557072777
-0.03284967513477511
0.1611844074706853
0.10236766842940577
0.11728501412847868
-0.1271855034399053
0.08991426976850994
-0.13681382501756767
-0.21791109564530367
-0.1318063723554637
-0.3093083579777113
-0.555118971153544
-0.10073207953482392
0.4838860815430231
0.1506494242945986
0.4308546245341878
0.14039677294312006
-0.44891389980705027
-0.46831450718179424
-0.1488442333247154
0.21285492689028623
-0.006863856133209468
-0.2224623409908071
0.10131161584075456
-0.2964357666195686
0.14422973319351742
0.03405676172875614
-0.16806301346032515
0.13584760000902985
-0.30107835564914187
0.2743771731576889
0.3899123360438213
0.4423892055074941
-0.008718850458819349
-0.30264607562486745
0.12783939415046494
0.4270402479434404
0.325649029319167
0.029826332122384183
-0.1320060197337488
0.26275487728766955
0.33473060304709407
-0.04323470667831155
-0.40481615766339574
0.08531921502516557
0.06808738922373819
-0.36240210296538705
-0.4238705399529676
-0.3755864838596888
0.09842091999071953
-0.393317697340724
-0.4070125247716604
0.337694865902311
-0.11937146602750096
0.45641900333133395
-0.37237662870545235
-0.17399620804754662
0.1101224038210657
0.41319523436764477
0.16783851941077252
0.3269357195404941
0.2500394849591891
0.1094535413617011
-0.378045691098477
0.48344837686039643
0.5468302307805541
-0.14800726806494593
0.2645765977530185
0.4725431592421939
-0.21029862577592287
0.20246677069100827
-0.258746660298936
-0.16185711834112193
0.13305914605436903
0.5099775559308419
0.2476479191448396
0.3478627571914612
0.037126963961045235
0.2580552362055748
-0.336178252605755
0.11376914929028596
0.208885794323035
0.1302613092380452
-0.2235253308677346
-0.1472946751046834
-0.31992319129768376
-0.3152742732701169
0.19755956227753024
0.22297683862733425
0.34635684404017164
-0.40259953890171774
0.21461152000785497
-0.050072852095711703
0.021976011715607223
0.19788456996132597
-0.25564286437545386
-0.14750606681088602
-0.0397387124439403
0.30152408397061553
0.11038444737273076
-0.2722724483070411
-0.12064849703899709
0.2326489251128043
0.08740155668478647
-0.1638444274943225
-0.34956917231369267
0.14767478660483152
-0.007893609680377523
-0.5278780430453485
0.23947769878413497
-0.5881665571807658
-0.5474733411738432
-0.06446707123231475
0.19035664418566797
-0.3270041164615614
-0.11235832786425876
0.28697626918457186
0.3173391491732961
-0.27785723452070554
0.25797729596153224
0.43976355090248603
-0.15190588817297118
0.026295895982284635
0.47080102050694667
0.04293432436215781
-0.20155818922800262
-0.19781407740023513
0.3252439293832342
-0.015898721247530848
-0.47649417755847123
0.33583776512676583
0.03083298499639143
-0.2958635861591958
0.2575272224575295
-0.020315991688777704
0.09768955194229505
0.14142500957170528
0.3392222820911635
0.14998699774263022
-0.16211514302460012
0.2639841548789461
0.2248009652536476
-0.0660580146743936
0.3164475085013639
0.21071942895194404
-0.07946734343333149
-0.24485218788671248
-0.09596617781828914
-0.17365048162162422
0.15250452825095576
-0.09951234501998298
0.07327563677633267
0.3011589138922024
0.259330521356193
0.016985280172416496
0.3992973174004883
0.5647053255920389
0.14233845927456357
-0.06785873366845724
-0.19818953465363848
0.38680370579319107
-0.0031859786371126247
0.30775781329012786
0.457014497662011
-0.3536830398643118
0.2888557788132565
-0.3412246427287223
0.4479014647382996
-0.3364155226078152
0.6265704142758733
-0.10784120411325403
0.32285095683736503
-0.29388004071104906
0.2146502406582351
-0.07609522311307505
-0.5031223303544317
-0.452801417732668
0.11178842389957219
0.31000242686237645
0.05929044687661207
0.3780755760362441
-0.4298907020759546
0.31051329232865943
0.0850523293113085
-0.4100353213851937
0.3917297533459487
0.24202308667140102
0.1908973944395429
-0.12311148459483086
0.5059236898450189
0.29428736427858637
-0.3435085702352762
0.17481543208878123
-0.4810857761844614
0.4613136066797932
-0.17742830545361807
-0.04275320391972641
-0.0034427651354738344
0.2485428295479353
-0.24927460345764654
0.17651966411407558
0.15745488287937273
0.37160296255801173
0.06639427230270395
-0.44721080370619926
0.4726489417934855
0.6515044980829918
0.148116914748521
0.40816155166818335
-0.01458729133058791
0.41738731241564786
-0.07275231791453463
0.44139932617996724
0.6494700088562925
0.2682230353905834
0.17720919636422322
0.319777563578099
-0.34073440855844783
0.44236948666100584
-0.3711650444360443
0.4962444058619468
-0.25611096163372216
-0.15687327407751336
-0.41129774724125157
-0.21857697552680524
0.1864704773063547
-0.3299293344654531
0.25812311438847874
-0.4403573507127799
0.02268603590700112
-0.2382948088199587
-0.066192678651546
-0.12027668502000037
-0.4483794397582638
0.3475458796184001
0.1263814347214287
-0.25373550930608235
0.11515849497935883
0.2473565164787075
-0.013972366292865602
-0.08946960954539859
-0.5565655343880718
-0.11996410057104422
-0.24245098926655648
0.016875534632444657
0.45788239337861714
-0.326543653208621
-0.28368548225848866
-0.19006815780042982
-0.12565076095033004
-0.2817067558717316
0.2519549787814045
0.5232741874706436
-0.5363460622397465
-0.16399971928389478
0.44596286785945827
0.35845875869003196
-0.3275416266664804
-0.33507367149006373
-0.007305068848882251
0.2334976841099253
-0.31555229705768456
-0.18485615821144566
-0.21990275272688525
-0.3873599242747874
-0.32240663966591243
-0.2727909753977868
-0.01296568474426731
-0.04525745404497753
-0.13226989406067008
0.11201983477862697
0.2817384032798074
0.06304932004068634
0.033493185481449035
0.15156785533484868
0.07287229730738155
-0.41227778824921885
0.41177722189751703
-0.021386121760965503
-0.06564876630400318
0.366333812949223
-0.38537371043747704
-0.014472597092877413
-0.3926530177712268
-0.07701144190270322
-0.3763214032708104
0.1760277646700621
-0.3170935826673097
0.24165205110129756
0.2949924821735746
0.11863455993899837
-0.3186521125711276
-0.11885097092566349
0.3802272889782306
-0.06029348936165379
-0.20535635280944328
-0.3252999706254298
-0.47585908910263003
-0.5155684449213459
-0.11601973314136872
-0.11803608720876287
0.09201762060499952
-0.31109985739018636
0.3693780240482799
-0.39085001729546337
0.39498202190091103
-0.15582798592170616
0.4737284393615639
0.050836778940388384
0.27380533554526687
-0.18479588722763224
-0.1887550712719776
-0.23618193375537516
0.4620121140592043
0.16960241707789517
0.3701768518135333
0.24210306389067343
0.4594845893217014
-0.052272553822884905
0.38552788476823086
0.023967753546191982
-0.028181562635866887
0.1286962210229361
0.3819711402204115
-0.11285857433443813
0.4738195376055974
-0.4084471175467069
-0.09467228616355647
-0.053515657464963534
0.03885718889038791
0.22554047994403156
0.5160338037627746
-0.06024115404680719
-0.20881662375674345
-0.42389244016511785
-0.04267834369441378
-0.2480691614286639
-0.01916782503206843
0.01758119700278903
-0.06620341774384253
-0.5644370725125757
-0.34630948343414364
0.5907059865070772
0.42988753497065146
-0.10842713649250593
0.2568248596422482
-0.03169313604812449
0.35187545475775567
0.20300661655932242
-0.0013181497766953586
-0.2604203445879034
-0.15120437970345266
-0.07810902697645021
0.3631837378896948
0.21754337760063752
0.16858794088751705
-0.41434474631315754
0.25672174439907197
0.1601915447985479
0.13853790625838622
0.11916563132839407
0.14417448151873932
-0.07640373378334156
0.28197010890111307
-0.3454899840708907
-0.2739048959510823
0.4475629166518862
-0.21395726937563456
0.1189353457458894
-0.3815425221644622
-0.371559213980138
0.44643706971304337
-0.4562996945480691
-0.08897622364440565
0.28112247929073175
0.13128816845585062
0.20679811155658412
-0.0904136475748639
-0.5637119153945399
-0.032456023482257824
0.0830116918347785
0.38620577835173286
0.2592783182718649
-0.1150177071698329
0.34452413726986014
0.4438957830713665
-0.21866960395303645
0.1894042824279842
-0.5738170798092491
-0.18506058422800295
-0.22328463770184948
0.3878573586938611
0.09255216935153714
0.24180634406753895
0.3909276824396292
-0.1417530233497166
-0.4207579899330748
0.423869498876455
0.27889798127611404
0.33882270003199344
-0.4030967554404957
0.2350211002400696
-0.022147240964607646
0.40411998105869906
-0.12123695027338972
0.2818997456451676
-0.31956831741481
0.5523129214662301
-0.012130226599078938
-0.04472443174687054
0.009229660755672128
-0.3507787380298396
-0.5070163228772998
0.027961746054067527
-0.21552237453065629
-0.04495187403540711
-0.18802264643664748
-0.2538390598493721
-0.19775634982885473
-0.2962486032819147
0.11780057809674631
0.05663909489039295
-0.25946616541887363
-0.3754008545354426
0.3394913680302201
-0.3278222603633647
0.10462142988724359
0.0002755985027822111
0.3966038945605883
-0.3559330632736068
-0.09690659717374024
0.2060793347512708
-0.15259654008645288
0.38279576064759313
-0.11718058893057154
0.2689730091662359
0.025627152990234173
-0.4607355243915364
-0.331880353167591
0.49521169255302244
0.21950092440636224
-0.30092294641459005
-0.19652958377134133
0.11596065466696638
0.09935276305016268
-0.270721140924431
0.2842752493136461
-0.26616566439975775
0.38556299091421686
0.3789932634382824
-0.26969399319202175
0.04266450299749561
0.10230078714028602
0.16137185329022208
0.4337616131529585
0.21339486824766105
0.2663010217027057
-0.39426360701113333
-0.4847868061182547
-0.01401528044174111
0.24147207742408017
-0.015220284211537392
-0.0008754930991229282
-0.3928410249890018
-0.5741166613158692
0.16147495789715105
0.0107579751839297
0.2284063775406203
0.04029060658881174
-0.1702015020071154
0.16266983784521002
0.06501139511619748
0.16492821585168455
-0.3774346985209233
0.2682128597512693
-0.5785007546410489
0.21973883243504877
-0.3572156837002078
-0.45932835304549413
0.43654347994650583
0.2935409165566852
0.3752349738129748
0.3755352555430748
-0.11758529843074148
-0.3509076489163172
0.36665065644484046
-0.14827784056577475
0.41832769016941906
0.04154544005817892
0.06574530671139181
0.44724375360562585
-0.5275193583561406
0.25560621846675985
0.3919909219762682
-0.03365951903772895
-0.4944525362223212
0.49418181190995963
-0.01018804174556551
0.2846446906980089
0.041301461181115676
-0.2777960052549292
-0.15337722286782804
0.49331771502697197
-0.3614792005976769
-0.08339967002237003
-0.43675440068455607
-0.366488949170361
-0.4308134758172552
-0.14474295537761153
-0.21152949162927634
0.05789531916294184
0.13635440700823248
-0.27297270870137513
0.29934132553627685
-0.5374963289608219
-0.08137961240784036
0.04831265731523603
-0.013650313965698919
0.40078172774000526
0.2898079263447419
0.20844716563682678
-0.18840631860607554
-0.4184825945672168
-0.14648412780943448
0.22190697751137378
0.45974485398104226
0.288115705308733
0.16435763223810929
-0.2528383117512524
-0.32707729611738423
0.15903121423744807
0.5164553785450433
-0.13477221754699295
-0.12320484837165087
-0.2530250834657862
0.5373821049015087
0.19165217747846508
0.5103339993467711
-0.026058786855369723
0.2547190660057245
0.2668303081254376
0.467447849974152
-0.4756181578443256
-0.28483995734685014
0.3930843898750752
-0.10325957319811581
0.566576596396038
-0.3925674237783543
-0.06206572686142448
0.19718409178427018
-0.3371345633958916
-0.40151709485458664
-0.20160622764377126
0.024724973111693745
0.06394370838332321
-0.10980426857002576
-0.48579466333355986
0.2945350686847482
-0.20427064042219575
0.17194193589213858
-0.25683570071248363
0.5475101495001509
0.1483253858706564
0.46763420269459666
0.5431844664040492
0.2810143269045379
-0.4091877747409296
-0.2237331530691679
0.09937690687530559
0.265387547895459
0.3522033451291527
-0.21898681202751255
-0.06796741719419702
0.07091633532942464
0.13192212435762188
-0.12548211849642915
0.18964839271554218
-0.5530910056418628
-0.08076172205752956
0.08948273846154434
0.08891323365942808
0.33861403797663897
-0.1664846267970563
0.3435771399300825
0.4100049294468668
0.18196275727525132
0.23741824700467262
0.1278765689130697
-0.04829520404143248
-0.07051768209531285
-0.23844605243597938
0.5020159818620009
-0.2369648612619162
0.21604074072820478
-0.3737753766780375
0.3411508469128089
-0.09083387891077899
-0.31787101136485024
0.24125644479833502
-0.3086148366951103
-0.479034702182007
0.12175546758447461
-0.21629294912910718
-0.40031170378321396
-0.35977257382597627
-0.12535244051836936
0.07017147923332548
-0.12736520875323779
0.3128832355597654
-0.19716824287529056
0.11073610131924697
-0.5894332377810819
0.3740998108988473
0.24766443271191982
0.3067678289449124
-0.2884165262530254
-0.44543881370922156
0.07418135026281653
-0.21575902585080955
-0.07964907219325947
0.359989903212067
0.29507763723127833
-0.2587854855910659
0.1823396508652022
-0.14227760808682183
-0.3604378643093522
-0.08167445935752231
0.04832405673172066
-0.16706741811280357
-0.457294782903472
-0.058756009774146134
0.051089522662783736
0.15977779638605463
-0.3015013309455271
0.5357826183148637
-0.13795353290324638
-0.5288738706156537
0.027638882747942975
0.262059843099536
0.2809887247517781
0.016541882553901995
0.3916950367004658
0.0977336284012848
0.27588522986634123
-0.2878933532716154
0.2820301835985492
0.2577207631307039
-0.2133688692130298
0.3549753796962427
-0.04481993242784517
0.5682873407309835
0.34157728805415194
-0.2397530318755522
-0.06524834007921197
-0.03733937821806123
-0.005645644046872484
-0.4207373754544178
-0.14034899541614482
0.38672349018552205
-0.29931430901338263
-0.08042390900127051
0.40781549674307443
-0.188122482967011
-0.306528062748631
-0.0754842630523251
-0.10149294879624952
0.6413491194281075
0.3915632685892908
-0.23864631377085924
-0.4436027672732455
-0.24003567786793098
0.19516236007848858
-0.03233240158256643
0.5891495151082774
0.10261810379993598
-0.2233109081049803
-0.23568523521059856
0.02499186372775546
0.3941571891292143
0.27056457120884775
0.056988180326663244
-0.008488449357482152
-0.2216041218314566
-0.16385822936432679
0.46477543574910873
-0.15601461898722088
0.025846298475777647
-0.2626369508258954
-0.4054216572366541
0.35050018785064635
0.11163550795369565
0.19881109598531954
-0.4417698317024328
0.035846976815729154
-0.4094324311363216
-0.15519678673003903
0.39266156824562476
-0.10292315255880649
0.6217265515480845
0.33413756888755874
0.3317049863852596
-0.15152853332904365
-0.30785978960975074
0.5246817099478635
0.06865257148506193
0.28530389947558943
0.3028832232282535
0.3449810392079076
0.1480152823430045
0.36280783130575867
-0.001689194036761103
0.2587631001304059
0.13371903997852816
0.2050717879992838
-0.5861984007558206
0.13045257084758458
0.5922499229851287
0.42398324425899603
-0.1674494784690752
0.42060880609153206
0.36346399461925
0.057382901883446656
-0.07068799935797165
0.1788137361398192
0.13099927466363628
-0.17748346361080436
-0.2630836724934879
-0.09418634961622373
-0.23829436922164288
0.0136755759816738
0.18629733691396572
0.420947529739464
-0.5748174291652327
0.05758244247798349
-0.15050012604852034
-0.36218894247198186
-0.1804216536587765
-0.4116956840514618
-0.16622715120221174
-0.2714282474296338
-0.3010664070819941
0.16298020513871395
-0.152227708873799
0.2317038481751183
0.16983805351542555
-0.3232054925654159
-0.22583645117907247
0.21115883274645597
0.4509339797405823
-0.5278231765319694
0.3950280665751308
-0.08426201122921632
-0.05924693897064899
-0.3314374226157326
0.27415675399258693
-0.33676904403526925
-0.09852999881373356
-0.37094304663240757
0.17520454816835204
-0.14936991244875292
-0.1631635171672532
-0.038776824741763326
0.43999928679688155
-0.22654899308285717
0.1481609145705265
-0.26666384520425934
-0.34361273805475423
0.14147125912671268
-0.32773510780629567
0.22879214501968342
0.23769698031462588
0.27181814319957814
-0.11335782366547019
-0.5219108758782574
-0.3257043407656859
0.338063726358711
-0.3575206978169284
-0.06932048164599802
0.051048112668994644
0.25319410637753587
0.14434548288872812
-0.08305790539910034
-0.09277237467936182
-0.4691945391104482
0.2792331568751334
-0.2219993671122571
-0.020982526872307793
-0.3197538081879058
-0.3446263355046115
-0.3025625853455378
-0.41170936711542183
0.27571807467708936
-0.2117570267141575
-0.16979313813272195
-0.2236818604313188
-0.06675141848579239
0.2908451068157805
0.11627271650703594
-0.42199892565483127
-0.16170254018758878
0.1983922407358515
-0.3097485463153133
0.10980442966244096
0.32995251398074704
-0.25654343840789556
-0.03249447532465435
0.4296020274864879
-0.1826836136815476
-0.30802778159162714
0.2810676248904514
0.41832721434523656
-0.3907367262237145
0.49004961547205933
-0.19906102462399186
0.2001327406963902
0.14833751112371946
0.05494979313598272
-0.3897532291952152
0.26590822331265435
0.22088431727407046
-0.29368471332908946
-0.14968644267061768
0.071494813411106
0.6241935360540308
0.054605318876603505
0.26571639529692304
0.26473567827239325
-0.6077355848539584
0.11523621047489235
-0.32123611191489576
-0.2959826360540992
0.5645944245345209
0.028565241755099006
-0.40661740694969184
-0.16875662713210235
0.00810243707552406
-0.020049521835475242
-0.14722420446515835
-0.15816278887168853
-0.08165035968506616
0.1169631041221599
0.5061589437640487
-0.36236849625000145
0.04180883323700342
-0.27283864064293967
-0.3424244528143193
-0.236161743958883
-0.1479300226471618
-0.04107626068482464
0.18968338339245497
0.18438165908530652
0.23036062047127437
0.46046940072238796
0.5383429271939568
0.18067399318048072
0.23671238565849015
-0.39501079335693523
-0.3264106814119735
0.0491385756295026
-0.26063439307696507
0.2768943411585098
0.004209810644414092
0.34424672181778626
-0.153365064816686
-0.11738891687422269
-0.14839960565733717
-0.06089002056235703
-0.18466711898767108
-0.26249354551592197
-0.061336860457787724
0.5359742351174045
-0.09724451392704085
-0.1372008916280918
-0.001990256171410835
-0.08042203674813342
0.12274773687231695
0.1260162333661265
0.1581051842004226
0.29627974591494355
0.11956538314714121
-0.05090519331397367
0.12990018900795397
0.328193496197794
-0.31057858124448273
0.3519367436829365
-0.09102978165871449
-0.32132558303893044
-0.04078724584101365
-0.12576168437926674
-0.37824517629208165
0.06334721760831612
0.34128094979950746
-0.25880275883533826
-0.19257270275865326
-0.07697952565703955
-0.40045603426294846
-0.14518748139026605
-0.38920062268108013
-0.014012645798821645
-0.4214954781832581
-0.4353276893208492
-0.5263997468983559
-0.4515218604456372
0.19167962358329135
0.07073208004686525
-0.037338726048395575
-0.3680491729739993
0.27723934212879703
-0.5775050230399472
0.20294542731296747
0.11482592494129257
-0.22495419383212267
-0.03637573731965649
0.16550240147057269
0.3625162430487099
0.4195301274807306
0.048118167658478865
0.40724423641706553
-0.3461415199033207
0.14661333635104176
-0.3315366886053247
-0.49021893908826636
0.039853846500305184
-0.10734774184658141
0.14809525649699085
0.48660978873271216
0.32500923689717515
0.48741076524257465
-0.2539925024656808
0.19185542285081142
-0.18770674836918938
0.4716165398664822
-0.09411260069584493
-0.47742727227534093
0.04740574787250812
0.15888138490853995
0.31447512291802526
-0.1267806405312453
-0.24422231524192128
0.01634277334329179
0.09119838873006604
-0.6099637296158568
-0.40337528649507365
0.2130627037475129
0.4483863085168402
-0.5253566013409
0.31058252504896433
0.1428804886713941
0.15780514329339057
-0.15542296044871146
-0.15267861385923914
-0.08664059681137616
0.3624276788868057
-0.1292697152915105
0.4075789367243379
0.08043037916525024
-0.37556972730872495
0.40132150351889984
0.10420367706578176
0.19369812453275126
0.45755336935696017
0.39926470695277266
-0.16434870841230395
-0.4570648588321146
0.49669239909451324
-0.20964753350473103
-0.12845894533335606
0.11306329741963113
0.008604671635839507
-0.30848655301466543
-0.23160285688609822
0.1654400731328055
-0.5444329960507237
-0.47046069327621665
0.17579187337432353
-0.13595835656972957
-0.1716550732601545
-0.07070732637149488
0.09429266666317336
-0.05446772370176299
-0.3937296806481771
-0.24005110978415323
-0.5758416013761394
-0.03248573114968015
-0.18709236107610044
-0.22768865033787747
0.282154093278335
0.4360300803175027
-0.0437615004932997
0.24888160366662818
0.16986275287700772
-0.3560430517644347
0.40772180781112344
-0.34937453190283546
-0.09693223873003042
0.04756522709188033
0.11628870855848246
-0.26444703661552776
0.19824695312125584
-0.026338668096521158
-0.051019535818764214
0.3416427379875464
0.2661001942401087
0.3044535903089631
-0.1152660589421533
-0.36251493609060687
-0.0800682318295742
0.18433240479620588
-0.1844243002106221
0.4295720145138717
0.06996476422981028
0.2243333434777585
-0.04580798372755903
0.27156679306549697
0.09941477705893476
-0.30635226086006456
-0.15539442806110695
0.06438215400255619
0.26636576815760166
0.2255430291162309
-0.3188896678486453
0.35848986874023764
0.2630501151406912
0.0943780930678
0.3262873018834145
0.32422495449591054
0.6338362621917056
-0.3024420708775357
0.33644428131867876
0.25781317339480897
0.2930178385270531
0.24062805591423905
0.12483556380437401
-0.32947342196531526
-0.09152274572481679
-0.055800628416184946
0.26552891207233686
-0.04492133668615192
0.2018180313808142
-0.18902633046702014
0.30891521114089643
0.3691354229379935
0.1489003529903043
0.2970159847983299
-0.053978830188117735
-0.23073281937412185
-0.42231926426516103
-0.255625835893954
-0.4239910824210709
-0.31948109794876556
0.36408857154448526
0.29998148852283063
-0.337892161370826
0.36803849812834744
0.23537429421246883
0.42709458939794953
0.15277038793257264
0.10180576202908088
0.43869331294667
-0.3219259801811506
-0.631520658980532
-0.20526739329980934
0.30364770003994024
-0.22097640595626902
-0.3085582264130417
0.1834362030776241
-0.15411410670089587
-0.2375442475154658
0.3787035802986302
0.10143824928808973
0.41744951320872087
-0.11142779337874306
-0.12853483966220797
-0.3853801136394023
-0.04996972981086533
0.34246307842579116
0.10185650333983359
-0.1421872994969752
0.21894008975337434
0.38760565618362813
-0.5105683688030938
0.15601191730699135
-0.19293294152067186
0.02464828956875734
0.4439606923441126
0.3546002103100181
0.2624398743282553
0.4532354767708846
0.3114349450419127
-0.4089213263301845
-0.4732720788090842
-0.23113458700475822
-0.16906355907617385
-0.28708218492093474
-0.20605262300327049
0.21597800927556535
0.03966528859387044
-0.24750217545384348
0.020493587647502212
-0.017662811182348016
-0.0504441768778298
-0.08677440328336483
-0.17573119236973322
-0.3644730183206144
0.15422289975089562
-0.08855197726087068
-0.273284301747664
0.42905340082398846
-0.1464744153875119
-0.041503268835973176
0.2865867440578299
-0.32333488586862114
0.39186174878460167
0.42716738883188454
-0.3827526554825681
0.28100226196185984
-0.2713582125249327
-0.267485531487324
0.30482299560013826
0.0567560615286774
0.4078492465850702
0.3500774003806153
0.25228500972728574
0.476091454924776
-0.39540962987709677
-0.38141133803333005
0.5551928826826866
-0.27997316336261535
-0.2638886433724692
0.32846980035396967
0.3521276825181139
-0.18418981722065172
-0.23025253040362836
0.2589135155355533
0.16689083385823045
-0.1108230717966841
0.10874456649856563
-0.15277636259618774
-0.06674712593831642
-0.11978063670129356
0.050801408077551014
-0.09937821193585118
0.24894680358938667
0.11457810794032258
0.09219574368746464
-0.43246406084735856
-0.11589893698670292
0.2079807217039377
-0.04802381184575457
-0.4426596905425021
-0.28074903726188494
0.010503096191404724
-0.5342366502488302
0.3684382576149108
0.16266593213650887
-0.44487049978177484
0.4427811327712171
-0.2650994391149083
0.21669525192789463
-0.2670556861341637
0.09546630068745737
0.12238829349409909
-0.24120526536281045
0.418759000752731
-0.002529850541718093
0.3799988219331818
0.38236568297146845
0.4764656934368741
0.08329330774819846
0.2075396599598958
-0.5575617019063082
-0.15388184097918226
0.5276408942348741
-0.5620705969362532
0.10603479704982856
0.5332282415884863
-0.3718601125252042
0.17355248294561731
0.17532481408804848
-0.18612880194764744
0.441791025530495
-0.4724657593983024
0.19283207319442783
0.3232208410853336
0.43637756669880223
-0.38564689461207746
-0.272326213595576
0.27558536317102456
0.2890553682171535
-0.314693595425643
0.504192145715984
0.2869766819535265
0.03571089761997273
0.370869378459545
0.29109841263510094
0.04100911312842854
0.04815338392556968
0.05740002639094314
-0.543080001334319
0.277255897842369
0.05333279769894116
0.2744510676741582
0.019325072297515636
-0.2784067196358908
-0.2753081453245164
-0.4623721190186085
0.14660073428873366
-0.26713836690719556
0.2824193101360252
0.24240266034875302
-0.44832734008071257
-0.12892787366337136
-0.2151783649911118
-0.027024405837276624
0.2362805910587727
-0.03757099458019172
0.3695195425697853
-0.5762660150241987
-0.3283672341958393
-0.03992808526649654
-0.044774862402870506
0.16913068745197288
0.4542524642706446
0.19895690320416926
-0.1548193360807078
0.5831149734404495
-0.023964730729793972
-0.20408449178934573
-0.03388654336717421
0.4193568436602712
0.34639805542748303
0.39366791816467994
0.3682412911655007
0.006182800530458072
-0.04892150104860899
-0.20763096856556895
-0.2779305660667414
-0.11343534291309892
0.06462115028964945
-0.27434925411591604
0.05759244757640985
0.1682685262295746
0.23917571780510194
-0.4457442101316828
-0.10873841057193141
-0.012293582993043594
-0.34750333711190945
0.28074846498931383
0.1934188484520958
-0.24017376878206084
-0.31910045549783855
0.4069546778979801
0.2755992183430689
-0.17707110142812266
-0.4202306663310984
-0.21913055407166412
-0.055201150948751894
0.01975949118602441
0.3134266666441903
-0.04326077374772332
-0.3066432796428881
-0.20040418971563181
-0.22968106824660603
-0.24932084982290612
-0.0504758540031819
-0.32900001203125256
-0.18276552868886087
0.25069801956144067
-0.239276387690669
0.37065674731316484
0.05714413567105703
-0.13056272578303907
0.019019707879157792
-0.08121339398384295
-0.07460628581213764
0.25129493500168393
-0.2853862146792525
0.3209698610418725
-0.13368182302510653
-0.2387164732370849
0.12117783720927834
-0.1742630227014902
-0.522646091538128
0.4374899705532179
0.20091615817743214
-0.5807186133493033
0.03418576870001458
-0.1246386470010858
0.030678848661825457
-0.1034268483898729
-0.12421481917353627
0.19469194036600626
-0.37666451993833067
0.4221043398207061
-0.16673460818596378
0.27307273409282407
-0.23107961057599993
0.0022713393843546343
-0.2614318384114885
0.054075749691061804
0.2409860599047856
0.4573724120459447
-0.19896826894882294
0.4137588899133737
0.22052149935754758
0.40537175970958883
-0.04408221926546838
0.3729545853137831
-0.3434384520575953
0.020656855931855504
0.4266123519428665
0.42126262050676355
-0.1232755364063077
0.4375735922201715
0.17319100062244916
-0.2833137521770199
-0.12478032604706266
-0.08737738564706571
-0.22110377233277814
0.370229151897725
-0.2773363749127539
-0.15695758505463325
0.42360621135720594
-0.0011310730032137802
-0.05519877802529089
0.41239322792557237
-0.257974215456317
-0.26226240812590806
-0.44839995002661465
-0.09239131689941373
0.2906909998041211
0.2527290075428205
0.11360958610785485
0.27960182814887535
-0.1748270903801238
0.022179537944590155
-0.21942870651865545
-0.27203445341380367
-0.013378293380646967
-0.40034060687239476
0.004574132568005613
-0.369980250638935
-0.30665567781217085
-0.08493563899337248
0.01866877126810753
0.11765345398142556
-0.008471574877172377
0.12601745488137236
-0.28490040201411315
-0.15262585608820675
0.43669885971361067
0.16598828587613523
0.28150618713930237
0.0036586435025734495
-0.46561958083858324
-0.3334046198268124
-0.1257901996601679
0.07096254404332121
0.14808389964320862
0.026574704379234898
0.15392012270633174
-0.21647332321299104
0.038573222804943484
-0.3713281739936378
0.03072202396871091
-0.3707584486022661
-0.40441816247387896
0.39208478836380734
-0.16552965776609274
0.46223579123742864
0.26491568269735977
-0.2226967573063947
-0.1350927604347475
-0.23266859881409455
0.37232842695579976
-0.4363491988557048
-0.26603297335412623
0.4287757331655631
-0.2112782506003047
-0.2233086025448981
0.23092195584486305
-0.3598378780513931
-0.5607765043969765
-0.11480945543889289
-0.07523893205345336
0.11807598448581676
-0.4325628436381598
0.04993363040664132
0.3677971376648082
-0.08189350631593055
0.15446048752024105
0.37363473937532393
0.3561223749530586
-0.34240320105254074
-0.5165924037858934
0.1671991326303499
0.09857780315188917
0.008469729476954197
0.009678602843487654
-0.27105930386958815
-0.14002218732104366
-0.43914224445613703
-0.41366643453560253
-0.571927057938967
0.22819928745803997
0.008048131110204174
-0.09145145968980135
0.083180114459527
-0.260187891021406
0.057295756819041435
-0.3168207914499925
0.03335992205956426
0.43179928761759
0.13900184451005046
0.23435733516618673
-0.17888278312058686
0.32923222305770866
0.018155198338034764
0.12026170341073894
0.14031224599133044
-0.23406455386106992
0.25096286666326534
0.5154071723346842
0.12588719225107237
0.18770722163840745
-0.07758580421579234
0.3055189900204422
0.46960612398909424
0.24721873686660534
0.4654790765181615
-0.11953494634584837
0.09511087248317525
-0.2646550431908643
0.32797891445976274
-0.4852162669281631
0.2718599907898361
0.31472873987136407
0.2574253192206248
-0.012437330183103987
0.5580010607681829
-0.026767677833690124
0.28668162879837317
0.39966363088241097
-0.4629343438135219
-0.16018550893439415
0.5204842956248964
0.2638375522548634
0.0019296673670679723
0.2144473509874191
-0.15055015545322586
-0.014654996195083774
-0.34094259833296475
-0.36985641492691185
-0.13672467106546046
-0.42005840214030327
-0.2679019754393957
-0.15267720814536537
0.2197841278228367
0.3453332312646884
-0.40420032552223706
-0.3214045734441154
0.21898965590669575
0.33248625084669375
0.19011446962047845
-0.19369768636403287
-0.49973123460482305
-0.2128530484519532
-0.1468849419123329
0.3153301918729136
0.43044510956605364
0.4985995078933278
-0.024162326285697984
0.07406514695449032
0.5129951557191007
0.18556884935949877
-0.37018672556119997
0.3115751906051925
0.41824952109848434
0.12117043189366515
0.052703602709477215
-0.04797706117892433
0.27292994043353136
0.03534463717964852
-0.05453899676235636
0.24788743818357176
-0.18747296212187653
0.4572825626517701
0.266568618102435
0.3035663590029673
0.2689280826642441
-0.3903375045104898
-0.3610975501963269
0.27805424830887965
-0.04456956929186037
0.3473293795106384
-0.0654259794496179
-0.34786432978007614
-0.18630292719417957
-0.04426965952104548
0.029637584516554176
0.03838741389712677
0.42799606564952963
0.08377493606128834
-0.34948669611288263
0.2528084858207976
0.0031030994026697975
-0.46412454778002155
-0.44318850544370786
-0.47388641152779065
-0.4977840943945623
-0.30331294672551834
-0.08719071851368707
0.17840395855662441
-0.24330847795289914
0.4576884992879536
-0.15603096000755157
-0.07706460723075773
0.13987109696053346
0.2468474959432951
-0.28582815619793334
-0.22999540201904303
-0.2410135761268213
0.5332693585512215
0.09831284968373177
0.1783679946978543
-0.19229983409348697
-0.1665036579226246
-0.17613475303406664
0.2098359028259883
0.10286077005836064
-0.3512551875019065
0.5610547224807289
0.26514134065640643
0.10765313433032929
-0.6513323185204155
-0.157896470795821
0.29827239458523075
0.2973774442278666
-0.47937629508372587
0.24820038827373314
-0.1740507774071306
-0.017527353691849056
0.11669393012494748
0.008717141545054338
0.5276897449263607
-0.29153120763074675
0.1199505042334867
-0.29948042480893633
-0.16366699195785525
-0.4011089742076608
-0.18315733832102402
-0.49127905924843357
-0.272859031308563
0.156287388800079
0.27950673185455166
0.3062745764988323
-0.1730321775823352
0.30188887498705014
0.014473269525159769
0.4700897424894446
-0.0059585566757098815
-0.23727160825890029
0.1872706613205135
0.5351778243920355
-0.4192252960371426
0.05862275433704411
-0.3132442514855235
0.2616518355996241
0.2651859838702005
0.21483799659558506
-0.08160545509208504
-0.18980625050709432
0.29368085869292443
0.43806326969139114
0.32077038179752054
-0.1312593335510982
-0.23868167767609585
-0.159895453661618
0.13429281261422363
0.31054307775687306
0.3644595978081583
0.3699485693278785
-0.21084168898136657
-0.12189903521561621
-0.10618951935994493
-0.23621862315635384
0.15001516052581193
0.3880104088121472
-0.33854671642674744
0.10382574826454997
0.13492043817797766
0.251661189626088
0.306754648778796
-0.20659052782728166
-0.13277923083322352
0.1786254770748288
-0.30881693274803507
-0.29833149461885117
0.34352110258074336
0.30720342328064876
-0.282021620931263
-0.06572071757672612
-0.1800965630811173
-0.2520848855729972
0.060067961331258475
-0.15892282410608125
0.034167725126096914
-0.21679549185612448
0.31674113705516377
-0.3620894552723587
-0.10282753801688818
0.004596377588352935
0.05030625975901243
0.14950530689647276
0.2509694649420035
-0.19593814100313775
0.05728634683264722
0.06662083258404218
0.14044981782848862
-0.00421594199205338
-0.19761550064459582
0.17446183564849166
0.1981693364548861
0.1215985045948468
-0.46406655082337406
0.02239226409884057
-0.07982191532264261
0.35365955159908397
0.06900530373535617
-0.04593115513550948
0.037969502494286655
-0.23480126987828184
0.5634171506090768
0.23705286009969767
0.1698603646850876
-0.01412099450324585
-0.24861796107453443
-0.5157664809435344
0.2756691955690422
-0.5154626039800538
-0.03497064211065602
0.07734782052225134
0.2264811717633943
0.23261543831597
-0.4203891893862783
0.01670955986782147
0.22637236083052592
0.30273764868012043
-0.20627717474942014
-0.4836117118267498
-0.3069645860192153
0.27297890749999737
-0.49142091490202483
0.3649213903657831
0.41267653145119626
-0.1258244414467331
-0.017842977110946314
0.18461972757882938
0.23143116430998312
0.44115142967643756
0.13780300871422627
-0.26544738994195943
0.3092810822754561
-0.000675280049770208
-0.16069740595423257
-0.0015717957743321236
0.08805741265070925
0.24458920205660292
-0.4421384670466126
-0.169578689182878
0.1373051650463289
-0.2851406999390705
0.07225838275082822
-0.2871781505929997
0.10546713091046607
-0.4132929068695302
0.5101091900924816
0.23403400118576734
-0.03579331102830464
-0.3646845708332979
-0.25423165148728244
-0.2624026275508238
0.12366519144977813
0.3628449728380659
0.4398639267912212
0.12176167427293064
0.04869950704038852
-0.24932149205082235
0.026733954811588863
-0.46013001161664985
0.243198909016553
-0.15949338538328894
-0.537460637568205
-0.024281612402954796
-0.27509206231083416
0.08480799502571318
0.3266920289930841
-0.3563638894253055
0.3058301243896427
0.5373707202088184
-0.2954348019628781
0.05658022472935297
0.4445719564430668
-0.11553641884510345
-0.18697989061021092
0.21784132639218703
-0.1137894130407384
-0.023580978264035952
0.20998878210943972
-0.20516547292926046
0.5801025151436053
-0.017254749924039768
-0.2651947688000363
-0.3158494937107292
0.4331092643549286
0.017089703186028975
-0.2208824427074186
0.04433265150654451
0.2592153534705228
0.49264556568131673
-0.12535002447612706
-0.10000153201875815
0.12088892219540842
-0.13208544287084864
-0.30824367382681794
-0.3211317773154661
0.24869951269883853
-0.029252302311060515
-0.3535977739685994
0.19512953275358982
0.31122279507827005
0.538275625158256
0.05087199718770299
-0.13492723742788046
0.08930467331844315
0.38361407517492935
-0.21435265162477
0.2393449881759696
-0.406211526765786
-0.34973096705828627
0.24450687815365607
0.3363179413990898
0.24756116815098653
-0.4437520652275362
-0.05120943229845445
-0.12389292589596884
0.11031263701072667
0.18998615392748075
-0.1766163346608257
0.32398017235691684
0.41507489698863864
-0.38046630844811025
-0.3006168479022338
-0.0009377666833593103
0.3174082440193078
0.4365659327469637
-0.16255746405673405
-0.07897362881803825
0.01152471505738643
0.3554446758799637
-0.18378439793621643
0.2152806059955351
-0.3653654609309747
0.22170754578241952
-0.3763509696806485
-0.08410424691434973
-0.4559157499783386
0.33819108871010417
0.01889522725817829
-0.45559074265671734
0.0003986714609230335
-0.0861090654007858
0.22621355595555181
0.0909644950760113
0.5038631000907733
0.10534175163222045
0.2871883479971509
0.09184491151581377
0.25956060473711284
-0.3308851739761119
-0.10899997487400892
0.028607464705590856
-0.31547635688250664
-0.21561705422719216
0.1201665550866662
0.4725662429872383
-0.3000977998360154
-0.23282544515035042
0.3995954580927675
-0.11926923375437143
-0.23217347469157995
0.1813939954294499
0.14362138257327117
-0.22294722361851582
0.4960998521305741
-0.1517380126177431
0.28291151189665587
0.4087443206716959
-0.07004604563540537
0.25553521415246433
0.3644873788229436
-0.10712171458859504
0.11726821983793048
-0.4426849076072366
0.3168268679799735
0.20389912461456045
-0.42251472618959063
0.2550932108531641
0.40027540944427503
-0.21327671999877318
0.5127323518940472
0.16585882078909236
-0.14968661446727058
-0.03786655692799074
-0.36204933571130193
0.009041917987666398
0.49770044694009447
0.2540130464813416
0.0048425663044695776
0.19065899092648872
0.09084425092112611
0.19657729245166775
-0.07308199539083483
-0.18071893760935426
0.09218644696877207
-0.40701374783830807
0.11366313162872872
-0.21347302377239938
0.23796938884521981
-0.1676000265203824
0.5154983452886208
-0.17792700773207423
-0.1946806721092885
0.23058033347076778
-0.23901154193561455
-0.01630084828290036
-0.2582376423928635
-0.16427536129858974
0.27349280560478484
0.35481479483195844
-0.6279228093136783
-0.06780628328819198
0.3372172831941718
-0.32510821116940114
0.020675328109558307
-0.16831053953272843
0.34211447913938864
0.12113458902861582
0.02992740422308357
-0.2624505139489791
0.21924698737266515
-0.38643744826895765
0.4124453550627674
0.1417514428755915
-0.4710608756440506
0.25083480804129676
-0.014042447991071703
0.20997522263095558
0.18605202371406337
0.06150187657681756
-0.09269599852981582
0.3450328456060176
0.44528966199887254
0.49368693987127027
-0.0032068003402663556
0.03793044258223541
0.22410701575622669
-0.26769709758662286
0.3789901773589572
0.20292925665713546
0.2833674844245061
-0.4545997639246898
0.269632079434171
-0.06896882128319654
-0.25771926031529047
0.06416128309896013
0.04135657297150642
0.26411687717093707
-0.2305748572934894
-0.35038965325391774
-0.3799341065057131
-0.22480597458543622
0.24902680421468323
0.4010233488138203
-0.01991351787729218
-0.11745504206412277
-0.29439746310881887
0.47844049676779893
-0.19034374702894286
0.4569582175504766
0.11980712829254427
-0.2233262690963789
0.08841503216322688
-0.09787481761348495
-0.47336368432010667
-0.3957932633435344
0.1170863846342746
-0.04710865905827354
0.45305919796756217
0.0671258358505122
0.475444859822681
0.17018583137494303
-0.20126048352420906
-0.49634153874547327
0.7167406339743152
0.12535545954467828
-0.34978459022282826
0.02844274582467631
-0.21961937462101327
0.5206727737919169
-0.34689748760121547
0.20281010333384422
0.11102158333690747
-0.16117623063625516
-0.2968614648801196
0.011092580835895633
-0.5029066245750861
-0.08257702156282506
-0.5387954277426928
-0.3805111245515706
-0.5110238589058153
-0.12853099118174466
0.26318225806427675
-0.08267759571663208
0.291227407150737
0.05352171651450248
-0.08617579578654293
-0.4127229132954306
-0.20245091602188386
-0.3177359418503407
-0.3418363183908846
0.4550656974772289
0.28745024363098737
-0.1369890713778911
-0.5400548871169571
-0.32847685226873774
-0.24814943000687195
-0.16374679563050262
0.15279876425100558
0.5081031594319332
-0.22608169746900272
0.014060851729534217
0.16614456693795063
-0.1757439374998124
-0.32048417659455314
-0.3864462712986986
-0.15165807639618226
0.0019793898667881714
0.055002971712532205
0.44889038310391327
-0.09273418079740395
0.1600778105501504
-0.05078928315155843
0.44862262127762764
-0.04681671433850451
0.34441255449240404
0.11948922963467619
-0.15087136944613044
0.3636781947168903
0.29901198375689686
0.37193929110167784
-0.14774654884406338
-0.08219227301126038
0.07677187462241936
-0.13753220078927436
-0.3897108864772202
0.35067749257620817
0.07230251678066461
0.3919970130034247
-0.1307616820465554
0.20775981501030927
-0.2234950043102342
0.07696681831129329
-0.07110139257137359
0.31780630943634747
0.0762597766028155
-0.38346673061874587
-0.1667513634005214
-0.12713995177816506
0.037507671873952875
-0.437062624828888
-0.08030259669510184
-0.46854201988492256
-0.23796373226044815
-0.3917103503738886
0.30092298328202893
-0.15440418918812848
0.13086815941628452
-0.31446651490521554
-0.42018002541416966
0.2051885643330465
0.28895491483719066
0.16615445110610932
-0.44103288314244654
0.39933739352786335
-0.049950496157892696
0.3112816573569283
-0.5725348695269172
-0.1641571328145398
-0.4998236160697456
-0.2568370651151531
-0.011757989335403979
0.29811782197877884
-0.39535141390501943
-0.08440536011793653
0.10077978940888409
0.3599082232784491
0.2974661468493004
-0.1446818949606971
0.45588334498981053
-0.15545129264361326
-0.08122035964334881
0.12319936654754554
-0.35493762933142126
0.04145288375079462
-0.3783844294025797
-0.05109154663715302
-0.08607646951889462
-0.06706679198660663
-0.2533331468817224
-0.08266773691985546
0.09668107395471369
-0.3220185862326511
0.08747962084896184
0.3024982877858107
-0.5159447473199583
-0.04061850955066267
0.10179587042451814
0.2374788517621808
-0.026670712200480246
-0.5356975059007123
0.5000913548391374
-0.17056820853131818
0.2648481396578099
-0.10849806791013054
-0.29283727854459474
0.29689274805960353
-0.25959121467653284
0.3714622820833508
-0.474706167394643
-0.3531660186911005
0.1805801802291885
0.2036251871505296
0.3542167331246008
-0.09950277603772968
0.4958672288008028
0.09338555206798417
0.484198947514535
0.3528246221988802
0.3195843299514836
-0.29284458176459055
0.01153546548702373
0.31048192220087273
0.04291557844931766
0.08888551807606418
-0.2756002653722779
0.17944047818649558
-0.009908835780530726
-0.46410737402523894
0.3012217203178832
-0.20175775290889
-0.1646887576436566
0.49470357800573034
0.2807143481546152
0.32037226374705924
0.01570743807825427
-0.06343519789273892
-0.30240759494209374
-0.2002088200443941
-0.003641842747797519
0.3557420666310085
-0.4138080423788675
0.005399738974047271
-0.24682360604474413
0.28229427988952077
0.42428663947628514
0.08409134297454784
-0.14510493733611043
-0.17681377317018815
-0.36006128498958295
-0.012779522447717793
-0.1905057147800507
0.18812314567323013
0.19653354728938024
0.5381694053774647
0.1300978707287467
-0.06316489212214993
0.5041891800437714
0.45030041087950085
0.14833527732809573
-0.011001086092064983
0.4897489642045885
-0.5350191862201746
0.1657122365496261
0.12461255172872221
0.08052390968703604
0.026347938998409162
-0.3727570227123082
0.35726412860871104
0.19126637493856727
0.030802202332018563
0.15129501571759738
0.16382023587955308
-0.24486637244955678
0.19016654450630788
-0.06397641530340792
0.12828933580905302
-0.02388922184363206
0.15626672853621393
-0.4780483008685196
0.29410005698087355
0.2957036824574231
-0.2512100551495263
0.2587637278495865
0.2560185765528007
-0.24571142007820596
0.01963997388448809
-0.4509249750433817
0.3233029054690842
0.1923003718028214
0.27843283330288676
0.4177809791663478
-0.3208104843459556
0.32740786826561835
-0.5048915023004512
0.09596287097711295
-0.4332253624372964
0.5397307780679659
-0.3513008649319692
-0.28599402734729523
0.37443551344828707
0.39204345886883757
-0.5006225235866746
0.1364647189805843
-0.3397964775413717
-0.15230083634241562
-0.49175571869065454
0.5969509046097375
-0.20865471229067103
-0.28633291349249285
-0.0963668602655786
0.4330387352183634
-0.2860741982395358
-0.12851277384403742
-0.22537889497456254
0.4373673231747784
0.23936268217502304
0.6329933393612686
-0.14289871138206472
0.4218102700007624
-0.2800100368728889
-0.27658680791394974
-0.0239806237197042
0.3940992519597367
0.05692634339095716
-0.5217278580042682
0.19775444158099045
-0.24601626010988495
-0.46620451238668814
-0.1995819065737285
-0.3375749766213884
-0.1426634181854216
-0.14136870788731956
0.2890159481283783
0.07527335466319067
0.45204534039315863
0.3806235416357863
0.0652625613617608
-0.3194307646521125
0.37464359430618344
-0.31242817422416086
0.16298339653299676
0.2863643670524988
0.2649862504002818
-0.4706658082612832
0.20019196621969831
0.01576156815737905
0.13088111412713846
0.08871570020105436
-0.15653722410954016
0.14884446814142854
0.07387311450402911
-0.3168833437460507
0.06700502406370995
-0.5594247264760221
0.4461722778127331
-0.28372483416366456
-0.46655101503587443
-0.1881384308604847
-0.09129223391737931
-0.5589134334336422
0.023353679125055277
0.33382497132273564
0.2395278013713159
0.28419759722658255
-0.11365370467039175
0.0638765848806756
-0.26466943548414956
0.05996976945917224
-0.08562267275651597
0.021135950682530425
-0.08570589518512524
-0.23752150267371575
-0.34310026496249824
-0.20772991361105558
0.2323363659630325
-0.00861495302899233
0.33245838913975373
0.05931730296449186
-0.08191512943315066
-0.3346638569021991
0.14178854686994571
0.1638262203002076
0.24644220091966504
-0.1554485693734928
-0.17557603605734354
0.08467768192583379
0.20424949077913843
0.1124986054480645
-0.04820826305430389
-0.03796956908107056
-0.026001071525220767
-0.2841795205124097
-0.3623260437963247
-0.06213481355232719
-0.3441742686664863
0.3617587512689295
-0.16775208652341017
0.3989559099207028
-0.04973371458654892
-0.034386607745085104
-0.14570840002479987
-0.2961266421450365
-0.3586444108832132
-0.38233223999909366
0.0503319716531734
0.21980883656365985
0.3186610264722445
-0.009475945813938425
0.20409529822921588
0.2919098265022696
0.3487051339181221
0.31193591135620635
-0.2597052721185872
0.2784807427340752
-0.2067953745118925
-0.25074784619268414
0.34358264540821726
0.14305926470515654
0.046460273830935914
-0.40851200954832123
0.16054577861208452
-0.5084671182175793
-0.029669319793377898
-0.09721696357381222
0.056760004630969
-0.357720176643001
0.24811142667801606
0.2204448941279881
0.3455187316071062
-0.2122987979504752
0.15476318639142284
0.3495079534770831
0.3003662831286842
0.3782356612472868
0.2662024784742654
0.11542785042355437
0.03779722566221535
-0.020723460518806774
-0.013048639909880252
-0.28868858937745034
-0.35123641750092954
-0.22926220659957935
0.010753491786735075
-0.14923529204580632
0.31846036461166277
-0.20955682449480365
-0.059651362593031415
0.30297826420292256
-0.19533288956386657
0.1323690192022296
-0.15539847559352418
0.3345314475301097
-0.3926178921330449
-0.274389701274218
0.20257060476317446
-0.0043764320417910224
0.279499813356075
-0.32688407951558646
0.08243690031907197
-0.0738776012624661
-0.03457018320764282
-0.4310778581019111
-0.2300703263386831
-0.14607484583754102
-0.2778197162256208
0.23597162749177475
0.18279728451571578
0.06911459969506423
-0.03303195504247945
-0.2853410542719079
0.0041747762952499415
0.2665803266337331
-0.20254888875943416
-0.3349994953090476
0.37404436007302144
0.3262527162209848
0.06200403043025493
-0.13738291736099678
0.39093906513047777
-0.31143378115509257
0.2516408689090733
-0.023014993187240117
-0.2587415707937121
-0.2310050453305678
-0.31253050716291875
-0.08625233826282787
0.46293780209711644
-0.5199617567050423
-0.2682151630489082
-0.013875062887079159
0.3699244517907259
-0.07782344402214798
0.14319045829171811
-0.03807529231834025
-0.5166237337906504
-0.34750626120524303
-0.2903822370238053
0.01661480552765138
-0.23492214440162404
-0.5008266940368019
0.29524324277489733
0.4855965332797081
-0.08354796712095075
0.4146872908639033
-0.4405142155034444
-0.08932389099614539
0.0003362405798844609
0.1237062650244754
0.5040692193252161
0.23225019983650252
-0.4489845087537964
0.09568165641697862
0.5528099228185401
0.039328220997475634
-0.22864123357913924
-0.24417272431305279
0.08779957591154847
-0.20459158474460282
0.5429149400937868
-0.004600236584188236
0.13341510862956324
-0.13820747213316792
0.0749852088039235
-0.3623019522177747
0.17246372257277032
0.4400938690946483
-0.2623060887077629
0.46095975924289095
0.4686476319189802
0.2472257188190488
0.3146378935528405
-0.24327299370984426
0.541846643686337
-0.162182399241258
-0.23563250572703112
0.014507463636114838
0.3878096493957138
-0.08355482732446799
0.13417219042730155
0.15935917401730043
0.5127807703315037
0.25878738023241943
-0.3791078306670016
0.06421892831069409
0.13102086472974853
0.20954759576192933
0.18417137858429158
0.26974722807921336
-0.10310841325781327
0.30689828285785303
-0.3810793153184928
0.3262295591350515
0.18679405799454218
0.1338256166012376
-0.2773900340681124
0.13677446873987936
0.02707317564390392
0.3413768159678453
0.008574026088267279
-0.2657379219950565
-0.1576955066837426
-0.11688582977784195
0.16806647934541372
0.06090251192263232
-0.21964976439994774
-0.014129241398981538
-0.08213057401500257
-0.1420770933610428
-0.07893606510600511
-0.20510883413845735
0.461020504084639
0.20833405734729366
-0.20462862087279685
0.47035158541770233
-0.35707612691116275
0.4399613300712574
-0.012049978259504572
0.3068263425854457
0.07683201723780748
0.43233910692360455
-0.18592388765176887
-0.25495074439284754
0.3803098321965678
-0.16815551008762358
-0.4655008540987006
-0.1681685099980903
-0.20468966648451978
-0.41777050738253757
-0.07955432658070004
-0.015726711167177516
0.2825844457390617
-0.2773828505418871
-0.13100451916497163
-0.011269701201895464
-0.28015204235547114
-0.06840701715530063
0.3993056205292695
-0.541247232577264
0.012906351674592222
0.10709750365143868
-0.1295248781591492
0.2309180813749694
0.331593605134719
-0.25653613797737373
-0.14426476909558333
-0.02142360854303516
0.25796453249214085
-0.08010367532444727
0.09666069537007699
0.04500214004924225
-0.20186682839949865
0.023841155856458875
0.017651901108093664
-0.20568151712049854
-0.3403387870433561
0.13801252733207733
-0.15030777169694226
0.12169045991835012
0.1818024598480997
0.21895900007120075
0.1977440527025702
0.02110601026674931
0.42837515067209536
-0.4779767332578764
-0.1009295315232177
-0.3493237624608911
0.3462190682384672
0.1602564947880415
0.256713207595654
0.13856497551431557
-0.0049014819397737355
-0.18654726861364646
0.3875437639984166
0.518762105457597
0.5359462765964076
0.23618695505733425
0.28104052515107464
0.33050742908309255
0.3472561155336513
-0.11495184301879774
0.4331570598311356
0.093684975370063
0.6039866785881586
-0.2080897247563022
-0.19799349567294902
0.04061417134621741
-0.4228397608286035
0.40372777804124177
0.0724034960268571
-0.5175664540921175
-0.39826327193737315
0.49246113849766676
-0.237475397412497
0.2322845898078516
-0.026210125049794027
-0.28112310784766287
0.10773794478953032
-0.11877913582857634
0.37254987271793877
0.2803202652859386
0.11621348362241549
0.05564508871120208
0.1502232880616194
0.40937534085724847
0.07808380778567237
0.3025615468590776
-0.1837865860615198
0.5045389755942167
0.12635403269874698
0.18903870617237453
-0.4371730975969493
-0.6040072988110508
0.2808153873334142
0.3286664226351899
0.28263950966359797
0.13794006395605726
-0.14911100516578135
0.2539347426643166
-0.31846839884516387
-0.5605786171403555
0.25746687927222534
-0.3355456387354659
0.28247368044128207
-0.3821911940660941
-0.07716045990536648
0.030782352992173283
0.32821203130948595
-0.3700407180319214
0.3819461159114679
0.29659556133739196
-0.22078420702083293
0.10289563218370619
0.1513002459050664
-0.2232092064093251
0.34545999470783806
0.46903111709108436
0.26500762335956785
-0.05382899775497822
-0.2241317117747669
-0.32949937810581365
0.251309622150737
-0.247815681647579
0.2198067572861721
0.07184993840374455
-0.4959177979294025
0.013089750029780507
-0.06550273119869258
-0.2931038206994889
-0.11286157773259384
-0.48542591780626143
0.221876243284226
0.24057991926684488
-0.11376038124393578
-0.029288561501445497
-0.49626864276548066
0.2512143139283547
0.4630640134461565
-0.6393829484157248
-0.4614014720959171
-0.3196079021590378
-0.06670168074623598
-0.2327149772045954
-0.0933119904479714
-0.006504751733774458
-0.220235171327195
0.6378958515109503
-0.28343319348340723
0.28979612159050633
-0.4037331397962009
-0.5232307472325894
0.10988528479353835
0.0899738164040295
0.21338096550543414
0.09864334981248857
0.2813957633058116
-0.23886713039974902
0.15961270640577385
-0.26829796881291645
0.181707914788097
0.34072039618403877
0.052108320702015695
0.42687407070269306
-0.15584392554658835
-0.13578474767251528
-0.02752044534784853
-0.14843585934669298
-0.008152472637279072
-0.1270831180596522
0.4377933835836417
0.1243179189732695
-0.10919364137469624
-0.36047808869439923
-0.47771449301221935
0.10668732943252421
-0.07442703032726193
0.18334328488251092
-0.23946215657899508
0.17963309578106285
-0.3630731722386966
-0.14410523595133962
0.5442593127431957
0.1102105966252939
0.48397613080270513
0.3085816374409285
-0.013846312844578233
0.412032527861586
0.44123537232273224
-0.2241633673587455
0.6214770850789809
-0.36619185083975364
0.3930112223828056
-0.43577715393710476
-0.3000232983431361
0.2457639760639647
-0.4467551830594812
-0.3865582883041531
-0.3511048502057073
-0.10457791009115883
0.32950584649207904
0.3412572739785154
0.25416870257356083
0.4145817655084932
-0.2701861385058023
0.066296641480642
0.3544114524018312
0.05926928683951357
-0.5122922319209939
-0.5960980371119111
0.44098083160483714
-0.05133419336786724
-0.06234568841714673
-0.09601974250642267
-0.12390998711744694
-0.038138854576734514
-0.17396579736983583
-0.11259321769934912
0.38448725797492167
-0.304292300062012
-0.27626761935214267
-0.23424807789619367
0.4630245414807154
-0.4873187558076355
-0.04301087517934827
-0.14302436701518875
0.28469151689985034
0.4597378006906998
-0.547258540589925
-0.019914507616355697
0.1629146096562042
0.4224145710959537
0.3010249151384472
0.3982267156657475
-0.3094737862189385
-0.3362620160639263
0.27356252928936536
0.3820167545361919
-0.115730824880612
0.5295682157525415
-0.061954979329487646
0.21006949171137934
-0.402746307180338
0.050011285692210056
0.206032868348955
0.10098717767794171
0.27930159759958806
0.027974319780963982
-0.18345607541878858
0.6254676110436898
0.3877142461854383
-0.38800637879888117
0.2756504535518757
0.13008553463753195
-0.2346166780712053
0.07975244246758839
0.35102384849423407
-0.08380794113536137
-0.31905018127975837
-0.10465646942537957
0.25951064831479087
-0.3388360689726219
0.5501214947914137
0.15067080412519768
-0.20051908064541485
-0.07762718749642397
-0.1149788767005378
0.5552756623226127
-0.11967663155304792
-0.3876427112462194
0.15825169687683338
0.4221459984416434
0.41664039807696507
0.2589520704560467
0.4747549582993881
0.5495109233254873
0.25106469650126934
0.1211391765040253
0.345495740217704
0.367917995022309
-0.02289496273057961
-0.17449525371544866
-0.0051040908219012185
-0.2139065393556336
0.2400459696803867
-0.38893304198772033
-0.17869906149925105
-0.061855453064981726
-0.15633449742696723
-0.2790250942132604
-0.012104644268391387
-0.32786789042494624
-0.20091217606283915
0.1667711155711104
-0.020080083453385526
-0.4277385831314155
-0.09246872095946054
0.0066500855279401725
0.01934749164349749
-0.2599698272869111
0.316056887798762
0.24046549827662198
-0.19795488351487006
-0.3891315289926932
0.05669006015993395
0.1322562880323393
-0.3545077765041612
-0.0017868940243922105
-0.14122504308554526
-0.08792482127003515
-0.06221864064354432
0.034086403870100236
0.2766142790499103
-0.4046151898198772
0.11240252224951196
0.3280725826241148
-0.039043072722030114
-0.09562020890389906
-0.2856141607016506
0.47245064029577577
-0.05113262863724736
0.15936473687942376
-0.3418457967500151
0.4128274482473326
-0.13434266305759995
-0.18098385333039813
0.016897325450843964
0.04196596746446171
-0.18627881489575998
-0.20789955405068125
-0.40316979450361445
-0.4334844532029119
0.045075779302347324
-0.19529313468711584
0.1962153354121597
0.12444719945305456
-0.28882862528658154
-0.45286939454367653
0.21750143967388644
-0.5150360854891178
0.15139973362524373
0.2698284616289738
-0.23808162384290638
-0.4577810094420193
-0.4715485496220401
0.2547450970613986
0.07792026505258423
-0.529655594721656
-0.3185080485217683
-0.4639896339175099
0.2998580170365738
-0.061959025605433725
0.37449626543070297
-0.31106873088033266
0.04147690887817851
0.04489464818765463
0.255779855910404
-0.005041229878549731
0.1450753181698831
0.1721784571073504
-0.11788900048920162
0.04003473808962015
0.09865608435431794
-0.17801648028918346
-0.05064228818403873
-0.3573195199471826
-0.2807158769313955
0.4433118423304206
0.37810856367413465
-0.4129019701204035
-0.06532450271467062
0.3869854132026303
0.12120540897413189
-0.02880069479109811
-0.19058197120054782
-0.14226293269416682
0.2940049924288545
-0.18117402645266376
0.2376469183150468
0.24479657480463016
0.4798495853792927
-0.11137401548787232
0.33367367647882784
0.25472461571040916
0.5109368425316084
0.5936273242530551
0.6007543746663676
0.3183923614865349
0.11059695559900196
-0.11785411247933267
0.07225764512344147
0.10724926403857193
0.41647391986595783
0.4077711748329821
0.11679328267618887
-0.15436795459885647
-0.021896001884592883
0.3299117135573902
0.14964711007800377
0.22090825484793286
-0.5909684630145243
0.30740837020865047
-0.38287282927901856
0.35248466600382544
0.5940544177383182
0.18360229445500328
0.5952744965623785
-0.1377477774576777
0.24256072724933825
0.15360863185785417
0.13986588966319546
-0.006218729264796811
-0.17738470391919017
-0.22815050415153812
0.38155689983497176
-0.5099534426711071
-0.43359240380925185
-0.19316660191282078
0.02077656869548541
-0.20329330786978536
-0.19111298055669793
0.3912041707650146
-0.07304063272187734
0.2741209915694347
0.248765706332499
0.42902423592488875
-0.15338126639019858
0.2524193408268077
-0.31174315040099854
-0.09110520522292913
-0.7071924753041864
0.15515106514751492
0.25575334097751
-0.010095242913553217
0.4640364928287662
-0.06363697086889254
-0.17296619568106053
-0.2591875744507693
0.5245954993562861
0.21130850267798426
0.13911901375905167
-0.19142292343629466
-0.03267170202824055
0.2006644278885867
0.22718313429939685
0.32162772221723285
0.31653579093360745
-0.0978118621752558
0.07988400383417377
0.30536115759579696
0.34508209317178873
0.22735260337368687
0.14140075552307715
-0.35592878441927894
-0.005641290816130046
0.02595474643160117
-0.4570946082543876
0.030511235033304072
-0.44165822779234437
-0.18119579285157245
-0.03546944604844448
0.1403951376632143
0.14195261336982232
0.5099644202513545
-0.03231158559529705
0.43477158787268433
-0.023746632356545533
0.08185277450688123
0.06977320049821463
-0.3519723436353265
0.1934079280328984
-0.3266007346828605
-0.3178014788766939
-0.3442826568570928
0.18279962529524307
0.3173464192499533
-0.30022383884047354
0.3386684778915773
-0.3706170914124145
0.09980671678303933
0.3924901961450104
-0.45981361946848265
0.0818671333692964
-0.4740975786742513
-0.38476044141521726
-0.206108547892395
0.2768877345664934
-0.16651291967000367
0.14209907976652025
-0.004898561495077808
-0.19504476017133446
-0.07246934107499692
0.45933623887045877
-0.024051145985511464
-0.18709459108981488
0.27033200901972565
-0.2526295122425516
0.5201547974906013
0.3154033084608391
0.3301566974923932
-0.12637482749375173
-0.13388334728636325
0.5512020316668925
-0.1720253745761885
0.5400191803385622
0.09345161162259688
0.42128163997176205
-0.25428032432021314
0.4266456462283126
0.4096627071456974
-0.24714848075509477
0.3631601980570519
0.5617559532410071
-0.17570798790567446
0.07892231137051074
0.4280199965094716
-0.13386134449796455
-0.25899701235485817
-0.0966416638207217
0.09406905334779124
0.4421396564077337
0.2424385938360622
-0.007027481480905636
0.07173663605270159
-0.062379973883136444
0.05670216336338738
-0.1008969292818417
-0.4842137140253357
-0.15987190839364795
0.04970871162144607
0.4418648187833982
-0.30368341658774123
0.25163447226652935
-0.19175087675948504
0.41233840648545184
0.1706550026869481
0.15392037814231718
0.37835058355198736
0.4634220070607217
-0.585590896125401
-0.032187740113342495
0.20346836883430716
-0.2789357992244008
0.2244767189083901
-0.11905751189251508
0.04855821482926931
0.05671803216509968
-0.39048584636272443
-0.40840991195060755
-0.385942487127988
0.32607139217947795
-0.2495396230080652
0.19907173914329085
0.014795157614280971
-0.1882759794900883
0.06314373429222642
0.33252371295346317
-0.30981938463544817
0.367988022252623
-0.3544511596681623
-0.12933033420908518
0.40969310095545186
-0.31534638388395186
0.21195728993304014
0.2512322470166018
0.5446537408865485
-0.1547311951086604
0.3906101870010956
-0.047590016010088956
-0.32577573041519453
-0.5678573009255202
0.00019199452508981925
0.23956165959785417
-0.36337701676032386
-0.0948562091753256
0.260775293871316
0.3971352444038886
0.025339029786714012
-0.21599864987003975
0.4721650923897564
0.2856840081398024
0.1651459563472483
0.36608422607554436
0.17707677459655394
-0.10203343752347703
0.22337226126700127
0.522244455368202
0.3013422770706153
-0.062453890081869766
-0.2828430817384504
0.10238747839931302
-0.22304857590450894
-0.2556071142715552
0.09225399087348012
0.25679507854692685
0.46183626202721717
0.24335326718656913
-0.28900731464128926
0.5321034960607215
0.056803608740058194
0.1478098387610797
0.3871843955239325
0.336975608177386
0.27587053339797846
-0.21079957753347406
-0.3062199454781417
0.07468045301703555
-0.3524489060974367
-0.3500769158359196
0.24024920532445623
0.061080880742746556
0.3406998118232077
-0.22230640973320775
-0.4155030630340617
0.3908474240773001
-0.45951302371231856
-0.19521901988302226
0.09305465452763823
-0.08876640443413544
0.13409782596501146
0.29965278967636655
-0.33748070273265685
-0.14473462562851605
0.2617471648412147
-0.039036882737225526
-0.23124451156142792
-0.09429553380630819
0.394232054798681
-0.19623641081120577
-0.21626701029291054
-0.30684364166444866
0.2608074262292481
0.22183766067826724
-0.3085215862602981
0.25928736819851667
-0.2184252778692206
-0.28485691906298355
-0.21822810308464421
-0.45438550509147246
-0.20319256479887668
-0.01978915880440843
0.4438710309629799
-0.26225168407026683
0.1716651281623759
-0.1643962806595444
0.2588722589361677
-0.16892637232245267
-0.2572817015994902
0.21266619262468756
0.40639369410011683
0.23294729834500244
-0.30748156379291375
-0.22598796285698042
-0.15995490173259883
-0.5125083887703021
0.24104327219303326
-0.45617952204399814
-0.36031358900993066
0.29418840085486314
-0.14540328860547044
0.10476491853865227
0.025703919518841656
-0.17511745347395133
-0.11250974273281988
-0.29147555983063644
0.49109183510321064
0.33985242856128894
-0.4087154143109279
0.40250800324518793
-0.12527242621383258
0.2947193706490787
-0.410104208630934
0.41393421588133833
0.4700919905748177
-0.6178415597719075
-0.21002250995847133
-0.27975384557965527
-0.03049924862586375
-0.027896110043917958
-0.29838005865075773
-0.25860535116968403
-0.08472379279495466
-0.014210422140021018
-0.0857770956609261
0.24391128592773484
0.07651704913319562
-0.201700785111903
-0.05454402420916161
0.3920520755715451
-0.0071542951166591205
0.5685903222666514
0.10361024072492703
0.46012734312263365
0.5659031925650846
0.22288649581337402
0.04429494336889839
-0.06608334263431864
0.2996040897670123
-0.29097631214796704
-0.11190746840659754
0.30500341308587614
-0.17050666423778402
-0.31964205668268847
0.1986389633825044
0.5720680393805686
-0.3354623344916067
0.32457477383064637
-0.08259146720583013
-0.35655349674988435
-0.4096878164621989
0.18818871938868198
-0.40301940259068136
0.1876583287273979
0.5166970449752419
-0.3701640962138563
0.31419118901993254
0.3746456809101441
0.3303448247310507
0.3593725792860967
-0.0345614607269927
0.19040399127010382
0.3390644715569341
0.46382892344599647
0.42866335077375356
0.08875796351752414
0.06405314073712352
-0.45207902910124464
-0.25655638080235127
0.111192782482915
0.3910011379499727
-0.228570374279628
0.4647053999248784
-0.023637117451049038
0.1844569530178484
-0.3803339322083143
-0.03753677163042434
0.21677682799011297
-0.09991105084494108
-0.5219512061540901
0.3599457052972884
0.1794969782716073
-0.03525187617478135
-0.44635056058831535
0.10163009678553361
0.10441985624225081
-0.04643359807995046
-0.1516888753355653
0.513212131203985
-0.04352814267967037
0.18121481197980285
-0.46865727891939457
0.3487373494603789
0.4650507364025972
-0.5570388706464157
-0.4532881668300881
0.2651405009810118
-0.19861986506300647
0.11274819069240608
0.4662197253536826
-0.215829139675473
-0.34063754545197045
-0.3149535996843169
0.5253543574626152
-0.34818565664662593
0.005542678768971215
0.26016525142691505
0.09539421646336145
-0.23699952568987137
-0.17509524971046242
0.39573144167066077
0.18843116117399192
0.27093849972688233
-0.26690949976178785
0.3051174296248972
-0.41780957476195496
-0.47255772779744637
-0.4970174798267558
0.21274747161259844
-0.12525958596990844
-0.3202703246610192
-0.12301722242965107
0.15097032288683895
-0.5276623012241558
-0.025129091112117988
0.37173409027694226
0.32541292961728757
0.08938294136973776
0.26524360038537725
0.11482901127991191
-0.383918363018488
-0.22039022526550217
-0.19855771497090044
0.2371245847542586
-0.11648759066888775
-0.35556284169353747
0.3425236294949189
0.17054283382499394
0.16852260803590252
-0.10244123977489926
-0.04828041218850138
-0.12062115249124047
-0.4336312900195195
0.3070441972079473
-0.004125061683409506
-0.15958611783074392
0.15575692326685697
-0.25044662690062014
-0.4227866998532618
0.2696494760608028
0.3047792139478748
0.20538583200835853
-0.1873772009968705
0.1904267396155028
0.14658745036813264
-0.2431938383085713
0.08540299017967072
0.3264919943156626
-0.13357965352835038
-0.21370885840064544
0.055773222685766226
0.4094448946335491
-0.17709190768321406
0.10634170888048773
-0.5129927295018943
-0.2499276139923623
-0.11422650891386397
-0.25321037776231625
0.15508084809904096
-0.49538280327924644
-0.3304023449807144
-0.1301781150372563
0.05793719895873981
0.10891214490825635
-0.4568144266575145
0.2591250321890001
0.22882073944213852
0.07177822382916439
0.16468314343377544
-0.19944013215499032
-0.10778617299946007
-0.20365227643633568
-0.058665186260390974
0.4616586416528582
0.3119254583306628
-0.5691277982884052
0.3605661235448185
0.44346549155819914
0.17647576931075998
-0.3112186877736341
0.3113834625679365
0.41296600480684376
0.12579979456912022
0.10349740890269633
0.3467620245547034
-0.11592245156557043
0.09951967146918493
-0.23369040610453404
-0.2363601425577208
0.10774892148053561
0.14425654789327466
0.18004001860216537
-0.2663034638145742
0.2826492391091576
-0.029900828543932913
0.14022070034803788
-0.025089081299216217
0.07975611313095254
0.017801623624429632
-0.009155679657292028
-0.2174934858274806
0.3323771483091562
-0.15755039830847295
-0.3872762750890568
0.5089399354714783
0.14534952499524065
-0.28011302109673064
0.3588290089087343
-0.07695779811315925
0.3305469333188895
-0.2386531893707539
0.09036291420011759
-0.3355568306275329
0.2645191580465729
0.06888813919634906
-0.4761702616091873
0.06593033105183993
0.283108260354614
0.3955272157418704
0.19972455686918814
0.18479357233372637
-0.07855014322502941
-0.5005426552496542
0.0983839679675416
-0.023078738318354698
-0.37683826061373327
0.18289139470142138
-0.11857682372584906
0.08293962674486367
0.01863914928797897
-0.10027323602493614
-0.24809540961733256
-0.20160493849702654
-0.3838677616354496
-0.38748371223201133
0.3962046235510485
-0.20656298768462616
-0.6569878671961914
0.14651701469912987
0.25857383015941804
-0.011248795927187121
0.29049982679815134
-0.37143585043149474
-0.04709421657755454
-0.20853093249101526
-0.025549722052777658
-0.3245924351990394
0.23887832047074387
-0.10160126448014493
0.19745541246811102
0.3503334106636486
-0.3727065219443052
0.0805106934761338
0.0011448112478206925
-0.23941909642326947
0.37285409388908414
0.35921586303685243
0.275018963514368
-0.5160391726807922
-0.3884403450559354
-0.08055251745900294
0.431867439793581
0.04300197906962633
0.3520378154232124
-0.04945234719152461
0.20499987614916337
0.01631576630674287
-0.02012402101095183
0.1665138490803069
-0.09442219281523705
0.44407206925212395
0.3672036820387357
-0.12031468571684703
0.452077762579455
-0.30285211413458535
0.20549088042639765
0.21093941227596102
-0.3264928487320496
-0.272412262080663
-0.09681322323081783
0.17561097603394954
-0.16345787920030683
0.16870320606806943
-0.3394628199820057
-0.3142754290836205
-0.5592716509114454
-0.3385722899233526
0.41614009530917756
0.12856058959234098
0.22736139782565948
0.08124591350028791
0.32731039586648875
0.5032832753173372
0.23526419807886706
0.12328568165781387
0.2117702702983244
0.3156426970512614
0.18472599607437876
-0.09804012046094046
-0.22504408551680918
0.4187667325523497
-0.019714849519866826
-0.6612669922419978
-0.3054563722245034
0.05561970981598899
-0.1186306880750069
-0.07485304119650447
0.139316580009747
-0.44937633854710446
0.1584633187958196
-0.5608999989345724
0.0023100348419693756
-0.3637316895043347
-0.4105580867742604
-0.283127006459898
-0.1790716075860334
-0.34957012522901637
-0.2540390920093421
0.2521446263052996
-0.3792504091152889
-0.13639798765676645
-0.23918786796809494
0.40093934898798
-0.11998568780123908
0.17833766563396714
0.1825944812694693
-0.05038776469170287
-0.23019628325982533
-0.0566818384879751
0.40727040515873647
0.16918719786383385
-0.03726472030618573
-0.4870373973068323
0.09481233032164026
0.46179884346925926
-0.4189602244835409
-0.3286287492647091
-0.43211036893819244
-0.15766781121075202
0.5014508733933165
-0.4539607340433991
0.5037586419071691
-0.12188255781065381
0.23231785860093224
0.237867649923279
-0.5089055684926126
0.37237619664388744
0.015071849324836762
-0.11950677741338236
-0.49625190490824783
-0.350580709219692
-0.446877214968268
0.36265236418444674
-0.18125383822714447
0.33074806198431134
-0.37227811012510487
0.46361200158476606
0.3797526571639019
-0.4002871110903459
-0.2564878138302044
-0.14475672356451832
0.24966192129415796
0.1844184142146422
-0.2189300697747799
-0.39086032417877753
0.08542076498782311
-0.10878023285317075
0.4217991305012716
-0.23448879462092914
-0.32409882720926536
-0.3123602293373617
0.03608741019811719
-0.1511215005089826
-0.38458426210437635
-0.43461072994546596
-0.307744490606129
0.3509379618379897
0.008974998179521338
-0.34777051218351274
0.23107544792438728
0.28759641336608444
0.348925814112324
-0.1767128088708769
0.18324991518678097
0.09177103639480035
-0.11855873733551987
-0.2620637697068068
-0.3886683573721858
0.035283298920111936
0.015502634681042104
-0.37796582116626837
-0.21382150520765045
-0.30617688946721416
-0.24688555576758509
0.33845503093895835
0.204702948018156
-0.1866894770816733
0.20408312835528342
0.2319943092374807
0.43845870701940354
0.45914539787702346
0.2496359785056294
-0.04517856450491628
0.35230054786519616
-0.1120305836870083
0.05688487676242695
0.2033325244483105
-0.3032445425209705
-0.2236853125777228
0.07319381975181488
-0.38798377631568637
-0.48896623204877754
0.24456333257301172
0.07648122267700327
-0.1001151873901861
0.5572657249088196
-0.1625776104071876
0.10498841423372712
-0.03685575960271286
-0.4028169640334138
0.14673223591656454
0.22412956562783612
-0.34854619683083576
-0.16368281477446753
0.027381424440870494
-0.19995458082573833
0.24150734736277696
0.12898766389823285
0.4627954962932026
0.3364987421914601
0.26456532648497566
0.5056346541140968
-0.3125113598886247
0.09258896652462648
-0.2943883132278024
-0.3337858206360403
0.4471479525378483
0.24160585238198476
-0.01611279218159471
0.4802955472217047
0.30833569398656535
0.3553239192522515
0.28595677715795226
-0.2584012849400097
-0.13207941278355823
-0.19230607028010432
0.04034869839365437
0.22568912425492227
-0.257720934792655
-0.23460532786140903
-0.11428196465614159
0.14653357516032045
-0.40274569434430163
-0.23566119467580524
0.2124659823411658
0.19432589534784464
0.36850870714423994
-0.4406878865966979
-0.2789469081647626
-0.10184489918109735
-0.4022286646140313
-0.09092635088071328
-0.3678379599347276
-0.07973608900399658
-0.23197756576286854
0.458430309645257
0.03488327352349233
0.2483914627385081
0.16637272511864543
0.2852956544392799
-0.36627958085901574
0.18028358368199285
-0.33453585289724486
-0.08099430406684495
-0.2773759014873961
-0.45102567901099755
-0.39059241699830677
0.10076200814146422
-0.15189531973171494
0.39041638833404724
-0.706479486368679
0.502085751552659
0.025737545521066107
0.5950691889141259
-0.0028322968049496965
-0.4071764415262486
0.1017244736052402
-0.6039697692996866
-0.028960182079754464
-0.0764254097017406
0.14825368334927674
-0.5704555661976934
0.2830723609105868
0.07306439509834012
-0.14321166603106564
0.5645429337300351
-0.24090775150226906
0.26337689057696784
-0.37010575401536855
-0.3996445842970192
0.4235774342392359
-0.28938243823123394
0.20215806596563946
0.020207484764180564
0.5535598006545054
0.26186401975408574
0.003003653889470207
0.031436029520653316
-0.053001091907138594
-0.1187774464346791
-0.14980119980160336
0.009631132809077006
-0.0882934949361494
0.24544081046997435
-0.005486555655674029
-0.1985803513310203
-0.32744615434967667
0.1481502548542111
0.2417870535991863
0.18325885619383375
0.3446029904015444
0.2578724524576815
-0.1166803435785152
0.15936898088502988
-0.4124060349622723
-0.3342264963147741
0.21526712001750306
0.2816428612878193
-0.38470590502541263
-0.5853521844329799
-0.29270906861092805
-0.3557751717437014
0.13004768162654506
-0.28221793328175676
-0.08106324800371885
-0.15659890733312
-0.1262267620305014
-0.4489820864832092
0.44379155219592703
0.23445131187124318
0.47635023179218133
-0.03632823777330579
-0.27055495602300444
-0.266622242006815
-0.3291108890003456
0.10584537420603604
-0.19823503592947625
-0.0011490674752437718
-0.18320795024453926
0.1548880692330042
0.3404636275841738
-0.11314859431492648
0.04831761739580998
-0.1702567326994584
-0.042064280687867654
-0.4343280009165451
-0.05914009350097756
0.12543106162892237
0.1631380204509975
-0.1576051529619303
-0.4240576465417846
-0.3850509436629738
0.15152635308430362
0.2517066635421781
-0.31450544793935487
0.012730023704574394
-0.16264329292583482
-0.06351435428434109
-0.174142930206546
0.033030421082256047
-0.06223097189791115
0.06418763326916621
-0.1250262458192958
-0.26488439028997035
-0.1310431237803006
-0.06307591626419172
-0.26152862318677
-0.38378730992595095
-0.09436492225129543
0.36911066280409344
-0.1837791656357785
0.34506383163436016
0.18663813610474986
-0.05418382887219536
0.3360591478497471
0.3011802286864921
-0.2641467744690623
-0.3527495705734428
-0.09727946392214266
0.41704868575788334
-0.321104108383696
0.10626864305573076
0.2303721807852621
-0.060009781216534566
0.004115904355560038
-0.27032861148929577
0.1260465550875395
0.13068335269025935
0.3735776826796746
-0.17033356174470474
0.3358428509198762
-0.38810978487528713
-0.09184395816757532
-0.21505887469937168
0.3708197108862142
-0.22304501341965646
-0.44546452816414533
0.38833692009204546
-0.28902817065608083
-0.3512461436767918
0.11613167491540664
0.026865187142036857
0.13070475369551984
-0.05329918889790117
-0.2321604351470545
0.33132638375650003
0.3952719117961339
0.23248113030957324
-0.09827145963871246
-0.08810341618885262
-0.349736285618692
-0.11080091773813067
-0.06273484483270331
-0.07251250857441251
-0.38645344502656837
0.10593074483303815
0.04658715829995439
0.3202913055071115
0.029069915480547454
-0.023075515263275132
-0.03333251933273202
-0.4565154347109519
0.2405217173589256
0.19075142747586266
-0.525445035364444
-0.06850748030741469
0.18056183130145864
0.28285606934748053
-0.16060352400533717
-0.336232256448218
0.246076202449697
-0.43230112120449754
-0.15582561817495671
0.43451192797516364
0.2930697186095697
-0.031632524199029705
0.29509715698436134
0.2876388754445381
0.5275778885486075
-0.20673279986266985
0.25854206937591073
0.21996469324917367
0.4305165600637427
0.20758819402312484
0.5694735474088247
0.5793826249136311
0.1464088148610819
-0.46209842691937286
-0.34201651062604715
0.017180202024137302
-0.36181823691456394
-0.48379588008589874
0.28372733962594976
0.04970613991662437
0.34115421219678754
0.11990984584692388
0.020173715620232246
0.26224686401512043
-0.22600289896930814
0.12268283724796077
0.18573914738131414
0.36589059219232895
0.07245642680842615
-0.033455373199477834
-0.3308571115386477
-0.3551559294595125
-0.3950088997644931
-0.04180786326434099
-0.3304149441211612
-0.10951318623853938
0.24676015143944224
-0.16871509725458284
0.31489940650866916
-0.3107323847553543
-0.269164039509706
0.4465360403411202
0.061975596984801234
-0.1660558713665421
-0.0857639205938202
0.4598831946717631
0.04843206667082042
-0.35830886575226145
-0.342143484560245
-0.5851202723504474
-0.4725817939370321
-0.07154680236725723
-0.3344249066308126
0.12300474267995777
-0.08601940140120921
0.31608251344967125
0.18239816071729856
-0.16737737160026733
-0.15282383301968155
-0.2237428832040044
0.11135824730490088
0.2911785993279037
-0.11093518535457472
0.022289668879907812
0.07422130127436848
-0.6849104683691343
-0.21226880089570832
0.04582272510496825
-0.03236554486951019
-0.27959902279712723
0.15111649552721004
-0.14168016259668786
0.5346773601883508
0.29794547143834105
0.3372290280035766
-0.38795738042537703
-0.23740715541636714
0.2518933001389685
-0.332757011815571
-0.05248073698944383
-0.02262288386297284
-0.4999483687480454
0.13809642621622856
0.48077085295904626
-0.48965709993918866
0.06071197017093491
-0.15999975717997067
-0.058952402216417926
-0.38584710781207837
0.20621668294340598
0.3268499567149866
-0.20849899876988112
0.16591736521274655
-0.29998485564739813
0.1257094470524195
0.22122287822066786
-0.09159772959615756
-0.061613021435527916
-0.24575790432965172
0.2748776266905931
-0.011433863436634885
0.06560218608562682
-0.38749370604433475
-0.30082309244262234
-0.5570043050323151
0.05854391255034026
0.16958201372944148
0.17075391142477506
0.09901053545862862
0.08225242748949868
-0.5954039643538092
-0.2368720422173229
-0.40362021075909094
-0.09536902871619503
0.0168773248122144
-0.41778788615383833
0.25255793753687783
-0.0082948135224726
0.2488457739609708
-0.21211247036885236
0.11735198075869994
-0.21075303511434185
-0.2063476947982246
-0.14355973984086684
-0.46250596937295513
0.029087420332809276
-0.45644662327080904
-0.18502683277603868
-0.26496944455623656
-0.20083889261744448
-0.3104559327500035
-0.060593361076133154
-0.4260838028084548
-0.3262920519833611
0.22392991189617242
0.017947278582487694
-0.11608717985137366
0.03755495670897222
-0.013262952966621715
-0.28082729169122955
0.4040238284595974
-0.14755795769706864
-0.28029270519144484
-0.3790379974670863
-0.5153826329747492
0.011906998836301513
0.20190367091971576
0.24388939174348812
-0.07242376214635193
-0.48450087580286577
0.29654158984724643
-0.18420899096628499
-0.1800707225315797
0.4222290806829481
-0.3694764121637176
0.14731970918666967
-0.07772929257625384
-0.18423977938635433
-0.23504901410521206
-0.010039899104348961
0.417514112001421
-0.03401399666178639
-0.14714095925843457
-0.3608937490865223
0.37835355401712245
0.1047599554944727
0.40342069464883257
0.12074394342707594
-0.19108720256092007
-0.5543306171840282
0.43862918550469887
-0.359743237566915
-0.0743385750078159
-0.17352831870156218
0.42506246453760343
-0.3931907456552943
-0.3374209330950622
0.13852929704068603
-0.2097009750335629
0.10133502987079651
-0.23243638034496245
-0.2669700216757561
-0.1527056178033522
0.25769253645178186
0.27547224583654667
0.38926284895645846
0.47096984042569984
-0.11271986483038793
-0.3531596471810141
-0.19328663816496738
0.07357599017751737
-0.0559369820619984
0.451403901620773
0.16608807690964592
-0.24028224050331676
0.517834908157946
-0.045716120909487463
-0.1037751219197182
0.319222001468554
-0.12672527499565409
-0.21074518735283307
0.19016598601368948
0.09899592594634739
-0.0859814490587087
0.1650973865347363
0.09044374084127717
-0.21337870895383448
-0.1288614979749844
-0.4468172421222997
0.37920636375811717
0.0927492033230178
-0.1417871848904604
-0.3376465177744302
-0.05883380835830435
-0.35008029471513846
-0.1722047055288634
-0.37890249673878107
0.3198466783949628
-0.44446292188405867
0.3942538211964984
0.48729272922980765
-0.49937464679833526
-0.21840338373017892
-0.4786361599984504
0.08933573666503407
0.35795871859166395
0.1321676523049527
0.19917145071231132
-0.3207566369311218
-0.41639846024577387
-0.4023190183322316
-0.41912804085335875
-0.25324574303324926
-0.10159675962218688
0.12932787611483812
0.46426183294185347
-0.17757393202810412
0.07304733201123897
0.216971707948539
0.18363943081292988
-0.5098047208608429
0.29408338258689254
-0.4092392750399634
0.30453259073525585
-0.21742309607762572
0.21694130137273726
-0.005535700592519568
0.4831361990370539
-0.24526635981269562
-0.10391349650060298
-0.33482427647168905
-0.5209895482276075
-0.15128089888107826
-0.290592709649954
0.24449404641126038
0.020811728079727615
0.08440966614868328
0.12191118936868368
0.12016847103573089
0.34014867648941255
-0.48086058266146053
-0.44123403271138073
-0.26610093632826654
0.4582652534684226
0.23896557539867697
0.28577419763301737
0.16036564859538685
-0.06174873675588776
-0.23104731314561916
0.05860131821628395
0.03159044204164594
-0.13523113261344194
0.42972815621416416
-0.12737568735454138
0.2265440582339894
-0.45356319696434194
-0.0901341273091124
0.007798462982116166
0.07277193862119258
-0.25683870732753206
-0.104530875118937
-0.29822584525749024
0.38208328940765923
-0.3789723555306585
0.2275037880374117
0.10546334437072437
-0.4301684846227782
-0.19349870951479567
0.2517880090131117
-0.09535793279024411
-0.17496346196453175
-0.15738742990013688
0.2842508511512696
0.18415426816243372
-0.26024650494588936
-0.24937755693314795
0.2394692961430745
0.03692225225977126
0.5367452780658364
0.037846007665452625
-0.07510876309881603
-0.1261446941313979
-0.05261243924108836
0.3693053219767436
0.045860724727858654
0.45716749551921704
-0.04753658941911419
-0.1713035341380707
0.11777523115235089
0.3007705575907787
-0.061762271716122794
-0.09499750796727023
-0.4667227974768505
-0.20036999584574497
-0.14585046754751943
0.37673569827266024
-0.32457074141814257
-0.04623155252289415
-0.14939005107991066
-0.2927541633911809
0.05404906168748225
0.3303443169806074
-0.4080392824955438
-0.26845721571126147
-0.36148523932827775
0.5101175405323436
-0.40598358517455024
0.18761857041929034
0.2341754020456321
-0.03418070796225371
0.3310177658544042
0.1960984915075304
0.11542070070680861
0.4586107049343857
0.31454195432344145
0.3301380151788008
-0.23504019690140118
-0.2967621558917025
0.025241658974073235
-0.1937621628838222
0.4417167567820885
0.030432409508380807
-0.10276617985426989
0.22952703247613865
0.14855590639130317
-0.13976131497973732
-0.12158788888415674
0.21756583577680913
-0.14699715123091187
-0.2152185501449463
0.3181808588439374
-0.37331498244390626
0.12405424922966432
0.21780009018547605
0.20237224486575026
-0.5957810739910961
0.3634025806326811
-0.28119177598371453
-0.08440432830432797
-0.4550755844799295
-0.33290087663316476
-0.020898212918344324
0.15667106638840173
-0.47453284393446676
0.4108038704677488
-0.1374804458165081
-0.033805201648353066
-0.28329698599408965
0.11891603595753528
-0.06456811545675777
-0.2960808088433429
0.0717401171991376
0.06112664591192744
-0.46874202619025584
0.011698251438090378
-0.11938906148933738
-0.05222362283681595
0.05890512797673893
-0.39187012152822703
-0.4333134534616622
-0.04145487918541041
0.18473272180485564
-0.01555549331394984
-0.5119057026697853
0.2910433516217358
0.14136625692662383
0.1689676462630829
0.1272552400297864
-0.10431439337475781
0.10075457202280864
-0.25838005912304074
0.2554683460015538
-0.24621098022907417
-0.09271000671018087
0.19603958998424162
0.40936921173405744
0.23553477413270482
-0.25747741336505736
0.3134089178141503
-0.3964728222580679
0.21652970641621755
-0.011590024020176736
0.24125489613435547
0.3093462653001771
0.5515826276748477
-0.4207855479611618
-0.4687113152594129
0.2382479400477343
0.35393190101198224
-0.20197935542507156
-0.23517404332014916
0.26182761539896965
-0.04138468307466903
0.5668681654927323
-0.06418017686286606
-0.0821161551773637
0.3308370797477794
-0.36313221934254747
0.5917725683184857
0.1493087707516487
-0.33720230073573754
-0.3887104269034118
0.29910578249337977
0.08119830298593171
0.40953907333221795
-0.19951860442509914
0.14444255519505
0.503226648315468
-0.385790747330526
0.3998348724146817
0.226561098940862
0.5872835991059364
0.28143468808777233
-0.452224471180675
0.13335918570241065
0.2647150324216132
0.3681301315926818
-0.1568136375980499
0.008591617406488422
0.1444106314962366
-0.4780687989959029
0.21935481440617904
-0.30263923172552065
-0.007095855482255553
0.5024363936080912
-0.03756189378378489
-0.3376131972982138
0.48608579055218404
0.018904118041306345
0.182167504931215
-0.2488212691726054
0.13140095208561134
0.2246345709661318
0.35484802920922537
-0.6573030097324702
-0.01823782189484266
-0.03995662924716229
0.2240738570663227
0.44875856469985165
-0.4757942125893864
0.35621734360744445
0.03851193823961638
-0.3015410371822037
-0.25332864367165847
0.34944277871542917
0.059930605435328944
-0.02583344353126988
0.08636688595323873
-0.07606449069411388
-0.15798973224055404
0.17456499599347625
0.14513040235660227
-0.05926347503755626
0.0758632543932869
-0.016266796351598813
-0.1926123906440865
0.2797644808732021
-0.1369344703960895
0.08328208694222683
-0.4103645552846189
-0.038835422426568844
0.3301105970034575
0.6602630390523789
0.26649824219268337
-0.3492339327553487
0.15579917645654648
0.012159914690473835
-0.4373933242286388
0.15456049707863276
0.28072074963147653
-0.5188524932486059
0.06288250902063001
0.30431621191318076
-0.07359137260578773
-0.2630440135788561
-0.29785633653597093
-0.26012958379200807
0.25050469592940355
-0.14353256861943514
0.3594061299604957
-0.2960878730015619
0.28267193429265447
0.2697365815779928
0.6228502194263658
-0.2419896826089636
0.6362607777312769
0.2912488564328111
0.32704914163614424
-0.285071177930559
-0.012416320402623237
0.5693319536531941
0.18976753699546145
-0.48165518540514546
-0.6834090343247495
0.44350538091442393
0.28122302953122014
0.1160067846685766
0.24558338408354954
0.38858827647219635
2.680664872411334e-06
0.5041601795766164
0.14159897304985294
0.12988812906356995
-0.20541660886462706
0.045761578318846655
0.3547572330507688
0.48254109634515535
0.01782272830647988
-0.09060203337359382
0.24580649329069923
0.43756925818883974
-0.5092347366350172
