weights_cmbo
0.09783439253936699
0.42758324774733547
-0.019225897622972672
-0.20371049512153575
-0.4854339465873587
-0.23807129059666912
0.14778179836294617
-0.021046297147369865
0.22904231204167808
0.10658167814602741
0.03027467059968395
-0.17408181130376146
-0.3330693952330408
-0.24116910569425146
-0.472799146923287
0.05949930574735357
-0.008003956899793102
-0.16488712803258118
-0.13312430129570516
0.09734428862941769
-0.043553193548478884
0.04674820310905364
0.15540171622783208
0.24288081229579886
-0.26938911266483634
0.4428773023332154
-0.2330562339625928
-0.13387252458687043
-0.13613640825771864
-0.16385008273079352
-0.05332647758124276
-0.3792143331750395
-0.22745256032076389
-0.12386519486094139
0.4741703091842527
-0.24089072729837932
0.38055423117675347
0.3532206238806608
0.023007318429617604
-0.09253879468247508
0.21720125762415815
0.4930989465030824
-0.12399388938148966
0.3157162471725334
0.4435983898140028
-0.3067092319109394
-0.28026683324285506
0.4727045796355449
0.22053025829106532
-0.09652964708379189
-0.3638218398626029
0.1665678730049108
-0.6197099005233107
0.22677795624091227
-0.009482896287570314
0.20411078541852715
0.2919539567731899
-0.3126444230994198
-0.19168572620842636
-0.1941437344591766
0.3997255607377885
0.07958272563461999
-0.05863623848720796
-0.11773386925582514
-0.17282864758160066
-0.3820254057783684
0.2380932607174829
-0.025935568630913196
-0.12231550055286838
-0.16591374369450185
-0.2925511492317322
-0.43378428589368767
-0.3380798394604851
-0.23058458768697151
0.3860119821507754
0.09835691795669758
0.1047650136272853
0.276668934774251
-0.25012969572784444
-0.45783942753704365
0.14537857714830452
-0.22116434043283714
-0.548484569456315
0.4053750116425044
-0.23669546813725872
0.1433950041095403
0.11196023017604921
0.005345175338726424
0.3137742821133158
0.2085389155552977
0.3709793868150217
0.03277968058525345
-0.3103972393574652
-0.2307556300148393
-0.07530860995246938
-0.2490398109080845
0.15292019355894956
0.49887537033764395
-0.4625262997334699
0.48347737388963014
0.21998037619340818
-0.572137921626987
-0.19288784097802394
0.1464493793076715
0.20886349404386012
-0.30924673330316693
0.3377522143699594
0.44408361570047317
0.07831353080256341
-0.10273491242010752
0.25229469327788084
0.38670018902439934
-0.38010688506890705
0.1159337545917631
0.36896499623908086
0.3505310112345231
-0.12048073954820264
-0.10627647693638646
0.1273835200779775
-0.2525284994465857
0.006183101300357169
0.35291675676784673
0.3096642038046175
-0.020500458681107107
0.5038923658344041
-0.21683408183662317
-0.1775754864651679
-0.37389129556247586
-0.39569516932503596
0.27014713036979066
0.18995418477110418
0.2165496796427382
-0.25567204291517087
-0.38608236431110365
0.26952713338208706
-0.3015192843454328
0.21015161379850927
-0.4097807154229893
0.11474563498873067
0.15765280529826006
-0.1553957099466209
0.4759070878443488
0.3974890300084025
-0.28551789044756015
0.012773979666901327
0.07351882926813648
-0.08068156480671217
-0.290938637791956
-0.06499004926632863
-0.05446459093592188
-0.191086179020563
0.46943436172600295
0.14715206328850078
-0.14151188133022632
-0.05856965942708575
0.029498499951421404
-0.3535702054510511
-0.11748373456857773
0.456231417291
0.44337753393539775
-0.014782124188943894
0.11468302013043659
-0.13303871835555836
-0.4063564301832292
0.28364924642133377
-0.09350146126961817
-0.36916676741538185
-0.09475709894703162
0.3110112561974549
0.0488152396636241
0.24225386890798942
0.531803459310296
0.3025039696504475
0.5027963966993955
-0.03539206313177377
0.29536027652355656
-0.3250033323790252
-0.2836115567892694
0.3095374275013372
0.3847399042853468
-0.2115011300348076
-0.5817928303250299
-0.46200841952787297
-0.22750471978326287
-0.08165927183199294
0.4668735317944232
0.10984754871081387
0.236336036489635
-0.38952334696585356
0.4927489080222163
-0.043426769099461825
0.004119524966985088
0.003897691658092109
-0.1298238231984357
0.006998145777694304
-0.3579376890972676
0.18085125822677017
0.2527863801787619
-0.4487969072787594
0.20844707000046128
-0.4441920754455394
-0.16822685337023335
0.39015715255632444
-0.11124569527879191
-0.18347691112261935
0.05459748583944183
-0.48597499950886275
0.21418668200644797
0.29412425662285796
0.2791079169833594
0.1915683724589896
0.3388886621422303
0.3230734929159005
0.057136433713115165
0.0616170146761738
-0.2081219359707183
-0.42806012676602745
0.48056018952568497
-0.20793200852009908
-0.4952741355574798
-0.2926442754296414
0.38947445632226546
-0.07914874927354366
-0.2119411908447317
0.15643824789544264
-0.2258711688024213
0.5468258688799092
0.19110990748168868
-0.22367162648367928
-0.3878355869360521
0.2513682647165803
-0.34285043514548547
0.29416180573733985
-0.22272936282967049
-0.3705519520542904
-0.07609920496437293
0.23286270785811422
-0.23079948142568782
-0.09620984220443424
-0.17169016199187764
-0.062426748591948335
0.30195141234592116
0.2627981627598158
0.28772286522719176
0.09433483570333172
0.01075718496466127
0.04444143065739483
-0.12381105086431148
-0.2595050482198585
0.18405390208660652
0.21290955862209687
0.12919733119131938
0.05599382248428819
0.0390465060122396
-0.09135320422253838
0.185004145381569
-0.3529891100156633
0.20191150340759698
0.5582854431229868
0.023621216454814162
0.007180732489948044
-0.2542919900434356
0.029939567187826623
-0.20946362784272451
0.07606314637902442
-0.026546548155261283
0.2053318190945698
-0.27092922467751857
0.2444686851032129
-0.46722091296920865
-0.34648738784767813
-0.3585806908014155
0.31573902357155365
0.2863369724729122
0.07939793591628842
0.055396360710512
0.33192510078557935
-0.01310196242051188
-0.3697292374396431
-0.33831314000053225
0.36181611121713664
0.16160090945546035
0.5306705901292358
0.0020401197425829
-0.30043176008470196
-0.19305040790254055
-0.051268822413105854
-0.2518130985271173
0.2758127337614224
-0.42488623532952746
-0.1096519348185549
-0.3372291775301629
-0.13031399707732017
0.31592801980276547
0.00944030818108222
0.2226125584680101
-0.541976221443783
0.238447618993851
0.3113077014153894
0.20320856224397754
0.052931715265371715
-0.35834875345303574
-0.30692237888322327
-0.19960597590617044
-0.3490455361386656
0.20495515023627364
-0.12490532582854287
-0.053841098934256496
-0.2694156991388467
-0.04943907426501378
0.24213599329663846
0.10275465596854624
0.16448980427068252
-0.3327068654706199
0.11748676545066315
0.24829012617407042
0.11598125169459726
-0.3643390202728552
-0.25964618234306097
-0.35532854130101893
0.2901286138623195
0.160161066431937
0.05840867291137502
-0.4185455414620067
-0.29040159463021825
-0.17884493315036337
-0.01690446469611033
0.4460325729050783
0.40861387598620635
-0.15328187061023318
-0.17939641589631689
0.040746308750664616
0.4682710601166439
0.5726101871300113
0.03694137908007731
-0.27096099969726706
-0.13422403864950772
0.3847101061907797
-0.32686596201713064
-0.1003411580672932
0.06564326587210347
0.01585342193348883
-0.0933830206988217
0.4404541599905283
0.13601288044697396
0.3024136330553459
-0.34461168217668076
-0.2795352756264652
0.14832291571930345
-0.28793052104328115
0.4608777425588102
-0.10614731450280955
-0.3684658280353584
0.04435665765675953
-0.3663356317095353
-0.15058356222602326
-0.33658579588377785
0.4310741318365079
-0.1971901799134236
-0.10583027054569083
0.6023000289518782
-0.21845764896034103
-0.26792253232160873
0.18337941451109993
0.10436723151121219
-0.3636509394516863
-0.3227803414031646
-0.3576044733879865
0.32903048877301183
-0.10331882679759694
-0.16891074346149876
0.22975109926200823
-0.4420351417709643
0.45104615981170476
0.20095074402128715
0.019209391043531022
0.3152393406440464
-0.15626427213194632
-0.51118947581567
0.18093251232138308
0.13565011533135204
0.5167184966390121
-0.48283804552602144
-0.02656085306757927
-0.05792366048293536
-0.4922498355043128
0.013155525785497476
0.339412897114491
-0.44811258951440064
-0.3105527636456436
0.4255214475391985
0.22526736578919823
-0.035738693846802685
0.3820698426198685
0.07989634970470977
0.12749957427343914
0.26463652472831434
0.13543078636937075
-0.05966273139837372
0.18793274158525392
0.45420067572710643
-0.0013479859572994362
0.24898735276101588
0.3009381636962614
-0.2103011168491944
0.1303478762912964
-0.3413798211794627
0.4065446304060652
-0.11352521308183564
0.11124425720234632
-0.48446748439849713
-0.23021277767405326
0.40426503011387066
0.0056032089082185006
-0.30511443924598897
-0.15484181951785575
0.12047612662950816
0.11397985347227711
-0.2478462944416802
-0.11711839647215538
0.2399602296006335
-0.09482802846009537
0.4237466377229626
0.002282316341249419
0.1913615616991422
0.3254449423320615
0.18337109972717058
-0.14452477954137585
-0.05105749197280512
-0.2423541954795151
-0.3943347973874867
0.16333933865034206
-0.2126943429776609
-0.21203289204091558
0.4326706370680688
0.2373378753037211
0.1012610232777729
0.2280961386897804
-0.11594485472060109
-0.16471349705441446
0.04069791754628502
-0.10078159103692012
-0.40992737644749777
0.00407837285503637
-0.4654153180947516
-0.3375816456127202
-0.07834646503917417
0.08732937193333783
-0.20640451243034955
-0.42485442518626954
-0.2882508266548456
-0.1790028982020932
0.19340891076860187
0.3445926348294753
0.3414409712761136
-0.04955362945684964
-0.14982274872497126
0.43780206921005316
0.15380404918134533
-0.10600763747460033
-0.26236084489590106
0.20554705440777654
-0.056466787078729125
0.32868050382185776
-0.5331042845900101
-0.1957892559449418
0.23910731106711658
0.23472737676998512
-0.2206786177760625
-0.2562367614052334
-0.47034745853877963
0.12056300396777357
-0.23707591818491502
-0.032849874598850456
0.16118521311980744
0.10236815584344204
0.11728559027086666
-0.1271862392814564
0.0899147234865522
-0.13681443213847616
-0.21791222063099117
-0.131806982238478
-0.3093099091284938
-0.5551218669629839
-0.10073257512791557
0.4838885578076969
0.15065025746967495
0.4308567485296109
0.14039749425656708
-0.4489161836222691
-0.46831691671650627
-0.14884499250385907
0.2128560019107661
-0.006863805593643575
-0.22246342872882965
0.10131209099216859
-0.296437218522614
0.14423041280982882
0.03405698510360461
-0.16806389967123525
0.1358483328608593
-0.30107994105644886
0.2743786670722736
0.3899143809147229
0.4423913920093662
-0.00871884144722163
-0.3026476648500312
0.12784008395749663
0.4270423730109815
0.32565081192731166
0.02982641648960299
-0.13200677158572052
0.2627562728608314
0.3347323221049722
-0.04323497178892304
-0.40481827832638284
0.08531962534475444
0.06808768278270048
-0.36240401478290324
-0.4238727706012066
-0.37558853762329936
0.09842144721805231
-0.3933197179305751
-0.40701447928591833
0.3376966559969061
-0.11937210263231303
0.45642129847037305
-0.3723786785720307
-0.17399708647129827
0.11012291884929623
0.41319727649482174
0.1678393162248291
0.3269373841388118
0.2500409003546512
0.10945419255649616
-0.378047730669034
0.48345084103782493
0.5468329524622341
-0.1480079261129458
0.26457803214380954
0.4725455319696311
-0.21029968527371448
0.20246785191749192
-0.2587479543905529
-0.16185808236653
0.13305984716991315
0.5099803042297133
0.24764916450300223
0.3478645485329054
0.03712705711947062
0.2580565363614422
-0.3361799277466288
0.11376963775769601
0.20888676092578534
0.13026199488484888
-0.223526581920939
-0.1472954626830324
-0.3199248332495584
-0.31527595873102343
0.1975606554333612
0.22297797810455222
0.34635874247916093
-0.4026016659441011
0.21461273361489383
-0.0500730625271306
0.02197615501214768
0.19788565789477525
-0.25564413579789935
-0.1475068243098566
-0.03973890374527239
0.3015255601973022
0.11038505448066291
-0.27227392467773276
-0.1206492080870543
0.23265017307322106
0.08740205942687498
-0.1638453453042847
-0.34957093492058355
0.1476756091374978
-0.007893589353102439
-0.5278807071067628
0.23947893847656257
-0.5881695938972709
-0.5474762296624214
-0.06446741473985113
0.1903575661723942
-0.32700584255828263
-0.11235888299989495
0.28697779205697344
0.31734081071181836
-0.27785874693542745
0.25797856488044874
0.43976577642320336
-0.15190673298556728
0.0262959950414186
0.47080346833124614
0.04293448497699918
-0.20155919324518504
-0.19781504623712687
0.32524561149844466
-0.015898831990805315
-0.4764966436887163
0.3358393647912041
0.030833073539866414
-0.29586507996668526
0.25752850340269323
-0.020316107304728628
0.09769001493233676
0.14142577789270605
0.33922402328103346
0.14998782661035479
-0.16211604172696842
0.26398554387201606
0.22480212255037726
-0.06605836643476057
0.31644923295415645
0.2107205432831125
-0.07946781440230537
-0.24485355463986402
-0.09596675382284546
-0.17365141109382126
0.15250519202459836
-0.09951281899791585
0.07327603681093386
0.30116050970717895
0.259331830465511
0.016985399372022134
0.39929945390237087
0.5647081360250681
0.14233912159458004
-0.06785914250755667
-0.19819051313241876
0.38680574017833386
-0.00318600683407555
0.30775931415641494
0.45701697486277987
-0.3536848257959415
0.28885725324132844
-0.3412264549266295
0.4479038469266901
-0.3364172668480755
0.626573678277376
-0.10784168309195151
0.32285274082275534
-0.2938814952683318
0.2146513071531504
-0.07609567905607417
-0.5031249917559482
-0.4528037159332218
0.11178897469748483
0.31000401547729206
0.05929064147275966
0.37807746956278904
-0.42989290474606306
0.31051488114004544
0.08505266691562317
-0.4100374069597378
0.39173183886774887
0.24202433756445252
0.19089837189236217
-0.1231120248338769
0.5059262258672573
0.2942889055298077
-0.34351021504425466
0.17481630272137932
-0.48108821301099913
0.46131602484520173
-0.17742928020244722
-0.04275350124605597
-0.003442836158267887
0.24854405478383612
-0.24927592968185372
0.17652062194493817
0.15745566078200415
0.3716048848716199
0.06639450720282403
-0.4472131336967801
0.47265139515744836
0.6515078549655867
0.148117692293443
0.40816364389227505
-0.014587273587860428
0.417389508528094
-0.07275274519237397
0.4414016485732158
0.6494733572460818
0.2682244248200144
0.17721016407255832
0.3197791724930881
-0.3407361651347559
0.44237176227781677
-0.3711670005846484
0.49624688982119347
-0.2561121952161747
-0.15687404522693071
-0.41129993203691295
-0.21857812243820837
0.1864714347032534
-0.329931091299572
0.2581243946521972
-0.4403596295343529
0.022686152126492023
-0.23829603433917534
-0.0661930881881018
-0.12027720868556536
-0.4483817706570882
0.34754776318758485
0.12638213389416816
-0.2537367973688258
0.11515903183996462
0.24735779514356013
-0.013972446677642003
-0.08947013552671945
-0.5565683156527451
-0.11996475743257169
-0.24245229359816367
0.016875681158061998
0.45788482311115997
-0.3265454277460337
-0.28368697929134784
-0.19006913689989946
-0.12565141072782532
-0.28170821249735467
0.25195618675849113
0.5232768411350884
-0.5363487907475075
-0.1640004904083102
0.44596529468362317
0.35846068403434367
-0.3275433032089714
-0.3350753485565414
-0.007304991108041577
0.23349887582835196
-0.3155539795198945
-0.18485723965663034
-0.21990394428044485
-0.3873619336056073
-0.3224083895243531
-0.2727924419865051
-0.012965771771680347
-0.04525766566084081
-0.1322705355971726
0.11202049191082106
0.28173986075532603
0.06304977080022758
0.0334933367410487
0.15156864736070214
0.07287278545039422
-0.4122799792878953
0.411779402457333
-0.021386319178339067
-0.06564914540331354
0.36633565280335395
-0.3853756347008003
-0.014472770654536773
-0.3926549410353796
-0.07701186775952211
-0.37632353059058005
0.17602872953407486
-0.3170952062199769
0.24165324649189077
0.29499399868351717
0.1186351866304425
-0.3186536888019237
-0.11885152869963195
0.38022935566815536
-0.06029381624944726
-0.20535735174099687
-0.3253017621882649
-0.4758615716923609
-0.515571206210928
-0.11602040170667163
-0.11803669870546675
0.0920181344885148
-0.31110150937593817
0.3693800308855275
-0.3908520574424902
0.39498403485461864
-0.15582867335890976
0.4737308215406197
0.05083715654917564
0.2738068109807081
-0.18479685178047903
-0.1887560043723986
-0.23618311227066227
0.46201458990774547
0.1696033790601746
0.37017871871008295
0.2421042813280955
0.4594869517581528
-0.052272837623106756
0.38552972736306995
0.023967871988509717
-0.028181750140136602
0.12869689037357146
0.38197307623385635
-0.11285921038632758
0.4738219391394015
-0.40844924039228947
-0.0946727259854351
-0.053515918990190176
0.038857398760907824
0.22554159934744056
0.5160363954945798
-0.060241558545787194
-0.20881768172331297
-0.423894500712204
-0.042678673508499264
-0.24807037433009613
-0.01916789054322103
0.017581260902273764
-0.06620371422159002
-0.5644400407954585
-0.34631121784868596
0.5907090213450865
0.4298896413923264
-0.10842774033191051
0.25682617361706805
-0.031693264854318864
0.3518772940040332
0.2030077261920234
-0.0013181331779471286
-0.26042167037348335
-0.15120513680528236
-0.07810947281727648
0.3631856199693722
0.2175446131615785
0.16858878252039158
-0.41434683067750966
0.2567231175726366
0.160192388032297
0.1385384982987945
0.11916631306152614
0.14417524302815787
-0.07640423591900795
0.2819716036999266
-0.3454916364944983
-0.27390630001280436
0.44756520458753124
-0.21395836446191843
0.11893587167796062
-0.3815444984157234
-0.37156112665599744
0.4464392403073666
-0.4563020869100339
-0.08897672436770505
0.2811239500059667
0.13128880509630544
0.206799107906131
-0.09041421130827042
-0.5637148567628839
-0.032456298058044473
0.08301210116663585
0.3862078074427453
0.25927965773731887
-0.11501817510182452
0.3445259260507287
0.44389810629034776
-0.21867076801318683
0.1894052285276567
-0.5738200864925292
-0.18506141632317785
-0.22328584091590065
0.3878593446049241
0.09255278129124607
0.24180767120095575
0.3909297267518969
-0.14175367054459334
-0.4207601521267123
0.42387164242745523
0.2788994529761232
0.3388244481616764
-0.40309884937035106
0.23502228616862444
-0.02214731989059339
0.404122101995187
-0.1212375174033067
0.2819012623971289
-0.3195700647416556
0.5523157509432832
-0.012130272532583789
-0.044724683158581316
0.009229770767549895
-0.3507804170795346
-0.5070189986934022
0.027961878628198836
-0.21552354550951053
-0.044952109137606215
-0.1880236266909873
-0.2538404162018391
-0.19775744495436262
-0.29625005982442076
0.11780114739675872
0.05663943016233794
-0.2594674780304947
-0.37540276238119197
0.3394930590159663
-0.32782393928509473
0.10462188205932973
0.00027558201542925647
0.39660597767726063
-0.3559348645099957
-0.09690714088702115
0.2060803590054729
-0.1525973962902907
0.3827977579871797
-0.11718123713655043
0.26897439922883637
0.025627319948509752
-0.4607378377473429
-0.33188198229909405
0.4952142760341526
0.21950207102023733
-0.30092437091331165
-0.19653056197349755
0.11596128108534126
0.09935328164816214
-0.27072255123950273
0.28427665939807545
-0.26616702465632863
0.3855649793633582
0.37899524458659434
-0.26969529916010854
0.04266466603776475
0.10230136057415792
0.16137267373325803
0.4337639210270984
0.21339592709070596
0.2663024256784869
-0.39426574438075607
-0.4847893292339113
-0.014015402988428172
0.24147327251580497
-0.015220323985676154
-0.0008754495996014254
-0.39284304128406444
-0.574119666452581
0.16147572755181316
0.010758034739572379
0.22840762186694222
0.04029090062303769
-0.17020230535675193
0.16267074388420621
0.06501175153017548
0.16492918773248805
-0.37743667107304846
0.26821415179133573
-0.5785037931407737
0.21973992715395668
-0.35721763432406467
-0.45933070167991763
0.43654556747849926
0.2935423276874956
0.37523696416836033
0.3755372759119973
-0.11758585874912744
-0.35090948160350355
0.3666526153633279
-0.14827860449060312
0.41832991874564857
0.041545611096559444
0.06574571416355626
0.4472460813698666
-0.5275220422468082
0.25560749402534727
0.3919928807654637
-0.03365975078791004
-0.4944550877026772
0.49418437200112375
-0.010188169762385142
0.2846460845387059
0.04130175244950466
-0.27779750297771494
-0.1533779391425692
0.493320222310187
-0.3614811062207954
-0.08340004415984771
-0.43675664073884624
-0.3664908563002207
-0.43081576048442105
-0.14474377588895346
-0.21153062323972166
0.057895526173157366
0.1363551463351194
-0.2729740259618424
0.2993429275193416
-0.5374991780459268
-0.08137998295032439
0.04831291228189787
-0.013650326256637306
0.4007838166068188
0.2898094973267283
0.20844830785997118
-0.18840730611888057
-0.4184846784242725
-0.1464848062983071
0.22190802543022592
0.45974714570814623
0.288117277169944
0.1643585199772735
-0.25283951558975026
-0.32707888291702614
0.1590320463209124
0.5164580224807176
-0.13477286146994702
-0.12320545889690204
-0.25302631782949364
0.5373848572279867
0.19165322610511307
0.5103365740079481
-0.026058948317627447
0.25472047434482736
0.266831697608755
0.46745027192688177
-0.47562067881847003
-0.2848414453930853
0.3930863842645879
-0.10326016697087026
0.5665795026155377
-0.39256947407505166
-0.06206607955844657
0.1971851711174219
-0.33713627401752044
-0.401519144631451
-0.20160717900942376
0.024725116249546507
0.06394407812287385
-0.10980496295002345
-0.4857971197779214
0.2945366569156559
-0.20427161774049798
0.17194276345034118
-0.25683701544887116
0.5475129130059193
0.1483262607687462
0.46763670022922266
0.5431872937855964
0.2810157062668537
-0.4091899405312314
-0.22373423909455306
0.09937741502760943
0.2653889124931859
0.35220514482262644
-0.21898799342425157
-0.06796782907685694
0.07091669510510805
0.13192274000168122
-0.12548263343920363
0.18964945922349344
-0.55309394882423
-0.0807622047324876
0.08948323143867666
0.08891374794526866
0.33861577829638917
-0.16648542484043719
0.34357889123329555
0.4100070341744614
0.1819637133973776
0.23741959043349914
0.12787735460097643
-0.04829540378028076
-0.07051805027757048
-0.23844726888213902
0.5020185732694623
-0.2369660480254455
0.21604195247809138
-0.3737772397994975
0.3411526054146369
-0.09083443107803224
-0.31787266150080545
0.24125779811794973
-0.3086164893606325
-0.47903714085840804
0.12175603927681157
-0.2162941506468779
-0.4003136824089208
-0.3597744286219732
-0.12535303607717974
0.07017190210480562
-0.12736588266297524
0.31288474656470466
-0.19716927133165182
0.11073664448304417
-0.5894362099638188
0.3741016636949195
0.2476656513082223
0.30676947477028177
-0.2884180971877012
-0.44544115728665357
0.07418163231673243
-0.21576012271361578
-0.0796493982547732
0.35999176011189254
0.29507923963136545
-0.2587867802185555
0.1823405898051825
-0.1422783114777566
-0.3604397552424906
-0.0816748155227923
0.048324237597858435
-0.1670683352046239
-0.4572971957229368
-0.05875632854510338
0.05108969159255443
0.15977851258860126
-0.3015028795821262
0.5357854395386934
-0.1379542751862222
-0.5288765635083241
0.027639058605798083
0.26206121785968495
0.2809901697804386
0.016541854157854384
0.3916970419427442
0.09773423179764665
0.27588677285863433
-0.2878947143474514
0.2820315491880739
0.2577220682758957
-0.21336996929108035
0.35497727162724924
-0.04482009285640034
0.5682902588194098
0.34157911844488775
-0.23975430580503465
-0.06524871983436212
-0.03733956507401314
-0.005645586065217586
-0.42073954436783545
-0.14034971048482708
0.3867254629625862
-0.2993158737237077
-0.08042430396846363
0.4078176120599224
-0.18812351142906686
-0.30652975107966013
-0.07548456075060082
-0.10149349174591749
0.6413524206994022
0.39156519614038265
-0.23864754148596828
-0.4436050462105724
-0.24003686828217968
0.19516328505679023
-0.03233255144833073
0.5891525351297053
0.10261851623859275
-0.22331198279225067
-0.23568646232959747
0.024992058945126284
0.3941591981197529
0.27056594645000703
0.056988463698980946
-0.008488620483474442
-0.22160521896427138
-0.16385918442794176
0.4647777526167722
-0.15601550805362618
0.025846461175613164
-0.26263836739742474
-0.4054237846028308
0.3505019445356517
0.1116361448263989
0.19881205267131066
-0.4417721440490764
0.03584712777571312
-0.40943455941774465
-0.1551974968581864
0.39266359176208926
-0.1029236644077989
0.6217297795677439
0.3341392925791458
0.3317067270990656
-0.15152922188261758
-0.30786141722039795
0.5246844546135672
0.06865289891840981
0.28530529780329017
0.3028847907774901
0.34498278402544175
0.14801603669445917
0.36280975505204605
-0.0016891604800587472
0.25876427671810526
0.13371973509641358
0.20507294330058767
-0.5862014545324069
0.1304532855653679
0.5922529222332359
0.42398544033735336
-0.1674503930545428
0.4206109585749227
0.3634657535216352
0.05738309680562475
-0.07068828511218525
0.17881464528202112
0.13099979342174395
-0.17748439062007634
-0.26308496295605266
-0.094186735303081
-0.2382955307170239
0.013675735740349563
0.1862982906808826
0.42094976782945953
-0.5748203650340997
0.05758282077208413
-0.1505007750256038
-0.3621908916716743
-0.18042251801186518
-0.4116978049067836
-0.16622803961185656
-0.27142972241933955
-0.30106797972937416
0.16298117808449988
-0.15222846214041372
0.23170505600843322
0.16983903127064848
-0.32320720958067783
-0.22583761536549368
0.2111599492991973
0.45093635294578344
-0.5278258615630429
0.39502998128475597
-0.08426241843324406
-0.05924716494576433
-0.3314391949245379
0.2741580847285038
-0.33677077479748646
-0.09853043495503708
-0.3709448991039786
0.17520543330421004
-0.14937062065549692
-0.16316439459430795
-0.038777031603369636
0.44000167283225944
-0.22655018314329103
0.148161753976165
-0.26666520398438737
-0.34361446475555524
0.14147195282062625
-0.327736811923175
0.22879333580709
0.23769822813346805
0.2718195028178338
-0.11335839150271085
-0.5219134682506134
-0.32570591078141903
0.3380655570346942
-0.3575224039610354
-0.06932085155977746
0.051048510890933534
0.25319546573377355
0.14434616801242883
-0.08305837788519085
-0.0927727887989788
-0.46919695773760284
0.27923470931069794
-0.22200040869575868
-0.020982653261855
-0.31975555223444985
-0.3446280405892816
-0.3025641305669332
-0.4117115183880394
0.2757195659106092
-0.21175816485610646
-0.16979388523424435
-0.22368290704836774
-0.0667518175116112
0.2908466725649523
0.11627335517488885
-0.42200109523554435
-0.16170333012361848
0.19839325975239963
-0.3097501461959895
0.10980503298691757
0.32995428506594515
-0.25654478809125697
-0.03249470968102769
0.4296043752130836
-0.18268459193851383
-0.30802936592179453
0.28106900262276435
0.4183294630777292
-0.3907388320251464
0.4900520803961505
-0.19906205784304354
0.2001337742662664
0.14833825079221602
0.05494994337178996
-0.3897551621621946
0.26590953980347465
0.2208855028254625
-0.29368632346736884
-0.14968709150303483
0.07149525180453753
0.6241968307831977
0.05460553106974443
0.2657177505983104
0.26473714657678055
-0.6077386593528467
0.1152367646414652
-0.32123785924923687
-0.2959841536356047
0.5645973356948966
0.028565367662239525
-0.4066196044734475
-0.16875753462735302
0.008102368592426563
-0.020049596583846363
-0.14722501998950988
-0.15816359951179945
-0.08165088770918821
0.1169636549538003
0.5061616620949606
-0.3623704830738012
0.041809112748642185
-0.27283996978461356
-0.34242621416491414
-0.23616292804755581
-0.1479307654104213
-0.041076422927984566
0.18968435302768571
0.18438272629120533
0.2303617169809821
0.4604717064644459
0.5383456687491832
0.18067492374236194
0.2367135042283827
-0.395012945416416
-0.3264124618633985
0.04913880920303708
-0.26063571273502817
0.2768956809140371
0.0042098943645411
0.34424857804535175
-0.15336582553182856
-0.11738958313835281
-0.14840043027235955
-0.06089032401522676
-0.18466802218131112
-0.2624950272410132
-0.06133718329969895
0.5359770505556324
-0.09724498034810354
-0.1372015986105761
-0.0019902273520418894
-0.0804223895983676
0.12274846405046279
0.1260169040185559
0.15810608800543938
0.2962812249719461
0.11956605944129017
-0.05090543207272528
0.12990086342068835
0.32819515640352287
-0.31058021101195854
0.3519384002181279
-0.09103025003382062
-0.3213272749595879
-0.040787486430657424
-0.12576237814357982
-0.3782471199605054
0.06334752821177587
0.34128259434452685
-0.25880414433472
-0.19257366244840965
-0.07697999029237612
-0.40045802370030553
-0.14518827624702832
-0.3892026222023845
-0.01401277762051347
-0.4214976945326334
-0.4353298750434276
-0.5264024664931519
-0.4515242084481083
0.19168061277032805
0.07073239337043298
-0.03733891025383184
-0.3680510051879812
0.27724085828779804
-0.5775080214524606
0.20294648004042362
0.1148264029015821
-0.22495539532680225
-0.03637585111734629
0.16550322069067563
0.3625181179318651
0.41953218845571383
0.04811837126041361
0.4072463105631883
-0.34614327232037834
0.1466139796364454
-0.3315383987243837
-0.4902214387072477
0.039853941457147934
-0.10734833186018748
0.14809612665565886
0.48661232546358085
0.3250108873797181
0.4874132118598388
-0.2539938882404077
0.19185647073481135
-0.18770780004921958
0.47161901125079947
-0.09411304258828408
-0.47742972183039833
0.047405978653575494
0.15888222748841432
0.314476775506508
-0.12678122611792148
-0.2442235592190985
0.01634289421541406
0.09119888380857559
-0.6099669462626595
-0.4033773692887996
0.21306374019362304
0.44838869217429644
-0.5253593136820304
0.3105841777520427
0.1428811947388932
0.15780598368549645
-0.15542378744678204
-0.1526793875956959
-0.0866410806836255
0.3624295841793279
-0.1292703283229444
0.40758098331824316
0.08043077277742607
-0.3755716635704123
0.4013236459154743
0.1042041631345003
0.19369909989909212
0.4575557908883345
0.39926668358088957
-0.16434953303576164
-0.457067265761031
0.4966949092519697
-0.2096486327183291
-0.12845954751017116
0.1130638864913789
0.008604803509601355
-0.308488088324676
-0.23160403060506038
0.1654410110572758
-0.5444358301832903
-0.47046312707219057
0.17579288192969547
-0.13595909923718927
-0.1716560898568805
-0.07070778720737547
0.09429317258025322
-0.05446802153217526
-0.3937316635453851
-0.2400523886316166
-0.5758444598398466
-0.032485997273583145
-0.1870932821652855
-0.22768983663679948
0.28215557071666475
0.4360323025997888
-0.043761817232969125
0.2488829921109382
0.1698637091312459
-0.35604492092861717
0.40772381374118527
-0.3493764232248815
-0.09693280679043029
0.04756548762438836
0.11628927009236399
-0.2644483679340911
0.1982481070694656
-0.026338774387337983
-0.05101979744220722
0.3416444672086708
0.2661016197163595
0.30445522084105836
-0.11526669696350428
-0.3625167653695774
-0.08006861821795132
0.18433337489364698
-0.18442521471654558
0.42957427915515295
0.06996509847144841
0.22433463334931028
-0.04580823330941286
0.2715682373340468
0.0994153711352826
-0.3063537370388424
-0.15539520601748433
0.06438250985531824
0.26636711319902523
0.22554414327774175
-0.31889120317506076
0.3584918182954996
0.26305142213150756
0.09437857630703642
0.3262890455399797
0.3242265642117822
0.6338394850610745
-0.30244354421750974
0.33644593658690936
0.2578145164923395
0.2930193781425266
0.24062939728625535
0.12483618559554155
-0.3294749945810081
-0.09152335776262242
-0.055800946386264136
0.2655301663726077
-0.044921669554595416
0.20181909020884767
-0.18902746323091707
0.3089168419980497
0.3691373522161337
0.14890118240167213
0.29701758627628544
-0.05397913077170794
-0.2307340223882155
-0.42232139561589704
-0.2556272428679948
-0.4239932320922552
-0.31948279975137966
0.3640904884167736
0.2999830250851395
-0.3378940525855068
0.3680404320620363
0.2353754797829116
0.42709681379016123
0.15277123099453271
0.10180620703554352
0.4386956470190281
-0.32192774054244294
-0.6315238852585541
-0.20526857045192004
0.3036492657510604
-0.22097754274915848
-0.3085598447702666
0.18343716449753486
-0.1541149312692375
-0.23754550708525593
0.3787055355855469
0.10143867952020214
0.4174516715599565
-0.11142842468155967
-0.12853537629787848
-0.385382191055502
-0.04996991038992985
0.3424647821461641
0.10185694049601304
-0.1421880130164496
0.218941250187331
0.38760772449435593
-0.51057101461877
0.15601263187306924
-0.19293393647159046
0.024648561429588555
0.44396305253129753
0.3546021303038127
0.2624413083003301
0.4532378028962164
0.3114365783702457
-0.40892343360977124
-0.473274470931808
-0.2311356697292506
-0.16906441252458473
-0.2870835797122241
-0.2060536297784218
0.2159790663111447
0.039665442442561684
-0.24750348918740142
0.020493714813062912
-0.01766286769992522
-0.050444396375144224
-0.08677481711966059
-0.17573207333128898
-0.3644748105411631
0.1542236155406939
-0.08855235983197278
-0.27328577795926573
0.4290556507482407
-0.14647513651247254
-0.04150353761146257
0.28658813598800337
-0.3233364909298384
0.39186368063202964
0.4271695056813449
-0.38275466287760823
0.28100371200737406
-0.27135968573633523
-0.26748691364391775
0.304824633412558
0.05675630653181606
0.4078513685345599
0.3500792090884753
0.2522863232289838
0.47609392451076127
-0.39541170493917716
-0.38141342789942834
0.555195799394175
-0.27997463979434273
-0.26388998074109404
0.32847144749507906
0.3521295225470637
-0.1841907157492013
-0.23025376928734273
0.2589147151338517
0.16689180781704369
-0.11082374241400123
0.10874516309825223
-0.15277710745232823
-0.06674747435169577
-0.11978120962154833
0.05080167872357623
-0.09937881321306395
0.24894812898970775
0.11457879195359845
0.09219617873226228
-0.43246624727035504
-0.11589949658070006
0.2079819067529416
-0.04802402419291614
-0.4426620745816586
-0.280750467836233
0.010503190950970083
-0.5342393361912984
0.36844017501023085
0.16266672520614817
-0.44487281765591924
0.4427833071876345
-0.26510084575389276
0.2166962623831119
-0.2670571032935318
0.09546668756815212
0.1223889751269931
-0.24120644541047978
0.41876127895849063
-0.0025297756901462567
0.3800007409033466
0.38236774668743556
0.4764681196511334
0.08329391961879036
0.2075406612821551
-0.557564534043369
-0.15388265004346977
0.5276436037923063
-0.562073470436279
0.10603525109359947
0.5332310842234831
-0.37186215955300955
0.1735533854489905
0.17532567419144254
-0.18612971238303924
0.4417932970158473
-0.47246816215213433
0.1928331242636019
0.32322246014390077
0.4363798357887523
-0.3856488616470898
-0.2723275403098289
0.27558675410111216
0.2890569578928679
-0.3146951923009454
0.5041947015592778
0.2869782288134881
0.03571116308790643
0.37087124614692885
0.2910998444690858
0.041009347590253147
0.04815362980803252
0.05740033651166132
-0.5430827694070346
0.2772574012262569
0.05333302055031941
0.27445246039173904
0.01932515923881743
-0.2784081370908643
-0.2753095951434291
-0.46237461242792427
0.14660149581096132
-0.26713972988094464
0.28242090074651005
0.24240394576819835
-0.4483296744747937
-0.12892854091464342
-0.2151794942346503
-0.027024522206633036
0.23628185718197964
-0.037571315468457996
0.36952155825369265
-0.5762689487445849
-0.32836894841557135
-0.03992829442146231
-0.04477510775214398
0.16913159134241787
0.45425486846819546
0.19895779791248921
-0.154820145293785
0.5831179907699576
-0.02396476734897536
-0.20408561030866035
-0.03388674751639653
0.4193589847676114
0.3463999451714062
0.393669876175603
0.36824315196876295
0.006182738595853288
-0.04892179146885707
-0.20763201677183357
-0.2779320425856955
-0.11343586774481333
0.06462143171772168
-0.27435064421920835
0.05759263097827884
0.16826940219464226
0.23917693266465745
-0.4457464994591798
-0.10873897565559905
-0.012293614246460083
-0.347505075922791
0.28074991559526113
0.19341985121320235
-0.2401751139632918
-0.3191021115146583
0.406956802611301
0.2756006686961278
-0.17707196184762705
-0.4202328013286891
-0.21913169320191545
-0.0552014078647349
0.019759565939267275
0.31342822549243843
-0.04326109635008062
-0.3066448447951039
-0.2004051686029023
-0.22968226677452633
-0.2493222037304329
-0.050476093025029284
-0.32900171515689586
-0.18276652992676
0.25069935586329367
-0.23927762569333175
0.3706587017082451
0.057144468442055146
-0.13056349091039857
0.01901985972098047
-0.0812137372089902
-0.07460670050686957
0.25129629521452596
-0.28538756753075917
0.32097152647471155
-0.13368245139079307
-0.2387177042437475
0.121178468513261
-0.17426395764977912
-0.522648792477456
0.4374921810178344
0.20091721742010013
-0.5807216756814793
0.03418598203945351
-0.12463928160743022
0.0306789843856624
-0.10342727434071723
-0.12421557901051075
0.194692908359784
-0.37666657656504343
0.4221065417160548
-0.16673540314014357
0.2730741018787879
-0.23108078068887739
0.0022714657861792257
-0.2614331615819038
0.05407599524696831
0.24098720479531266
0.45737482580091887
-0.19896923077139891
0.41376109419112056
0.2205227239963106
0.405373879332606
-0.04408244398484556
0.37295653078599594
-0.3434401486952939
0.020656969510781394
0.42661457910426526
0.4212648611813774
-0.12327621744233694
0.43757583206715617
0.17319191048173585
-0.2833151347637752
-0.12478095700604104
-0.08737779816690251
-0.22110494429012498
0.37023110476600096
-0.27733787389150805
-0.15695841759116727
0.4236084205924851
-0.0011310849653150738
-0.05519912170893687
0.41239529156814253
-0.2579756348804398
-0.2622637983019482
-0.4484022339799114
-0.09239175258387337
0.29069250419229753
0.25273020710432614
0.11361029862730365
0.27960326922109363
-0.17482810852983507
0.02217973350614192
-0.21942988266825178
-0.27203600419054375
-0.013378424500341463
-0.400342662579102
0.0045740302077475195
-0.36998219174315883
-0.3066572656967701
-0.0849360487579476
0.018668844847644774
0.1176540935312124
-0.008471512153967502
0.1260181535350105
-0.2849018545654659
-0.15262665335277897
0.43670110365597015
0.16598916137969502
0.2815075939166209
0.003658808366042496
-0.46562196205543466
-0.3334064205878535
-0.12579091440625637
0.07096278545054384
0.14808484307587894
0.02657486055022483
0.1539208714765896
-0.21647437075170098
0.03857349070132372
-0.37133018649608135
0.030722259579185073
-0.37076036251727973
-0.4044202292065836
0.3920869391568368
-0.16553053865250278
0.4622381651452615
0.264917052099443
-0.2226977980595519
-0.1350935279500395
-0.232669969975475
0.37233040851710336
-0.43635141302248104
-0.2660342937981245
0.42877794119040846
-0.21127934577959212
-0.22330971099856145
0.23092324860698618
-0.35983981164266005
-0.5607793489642632
-0.11481008418888965
-0.07523933966027875
0.1180766360614212
-0.4325651596377179
0.04993386177200411
0.36779907104709014
-0.08189384346911711
0.15446138436553242
0.37363669914056896
0.35612418416342007
-0.34240487495176264
-0.516595155818897
0.1672001087426406
0.09857839544743895
0.008469763875919181
0.00967860027422956
-0.2710607817714111
-0.14002284743894208
-0.43914444358287635
-0.4136684399172878
-0.5719299639030389
0.22820047073821859
0.008048147592418713
-0.09145199928266208
0.08318048946768607
-0.26018923619600287
0.0572961168514469
-0.3168224052973566
0.033360198424505966
0.43180150461124145
0.13900262337756072
0.23435844890504437
-0.17888369402396473
0.32923394401013234
0.018155203889039462
0.12026223187243838
0.14031301382550068
-0.2340657616645189
0.25096416933072563
0.5154097944854242
0.12588772711003263
0.18770827955945152
-0.07758620000138124
0.3055204939700181
0.4696086028966645
0.24721998556456767
0.465481472854042
-0.11953562281238803
0.09511133903686479
-0.26465640467875456
0.32798057512959783
-0.4852187416167038
0.27186143395067736
0.3147304351042356
0.2574265147613026
-0.012437374681378536
0.5580039793937304
-0.026767809294765636
0.28668304116373805
0.3996656292839904
-0.4629367320704005
-0.16018634792493383
0.5204869234291051
0.2638390042625021
0.0019296337565905632
0.21444842789107438
-0.1505509773085845
-0.014655030443770973
-0.340944331743822
-0.3698583432453203
-0.136725431330776
-0.42006060041210785
-0.2679033807720819
-0.15267803134287894
0.2197852549167972
0.3453349145529619
-0.4042023789483443
-0.32140632691605076
0.21899074838815863
0.3324878324343876
0.19011543250305304
-0.19369856263797924
-0.49973374811750254
-0.21285419636914626
-0.14688560336256998
0.3153317822472324
0.4304473009336925
0.4986021701446958
-0.0241624200226148
0.07406560318780034
0.5129978401799828
0.18556975904601825
-0.37018861320862617
0.3115767984696254
0.41825162024536905
0.12117105202813629
0.052703895485431446
-0.04797735590596242
0.27293124464838664
0.03534482365687851
-0.05453920434343766
0.24788877957420294
-0.18747389719232552
0.45728488577302223
0.2665700370135578
0.3035679556343942
0.26892949488060913
-0.3903394751763711
-0.36109939609221564
0.27805573802277095
-0.044569684799668725
0.347331189516151
-0.06542619029600322
-0.34786615141178406
-0.18630385143716335
-0.04426995719299486
0.02963775894728472
0.03838768222265842
0.42799833055053527
0.08377532601743762
-0.34948853700009963
0.25280978567614526
0.003103066096526342
-0.4641269442368677
-0.4431906518040164
-0.4738888519457982
-0.4977866210905743
-0.30331454930963064
-0.08719116720089587
0.17840491550055643
-0.24330969211929634
0.4576907989119091
-0.15603185506251988
-0.07706490008044685
0.1398717610601619
0.2468488249105453
-0.2858296135800659
-0.22999662855600703
-0.24101482097370638
0.5332720864088959
0.09831329043833949
0.1783688757484924
-0.19230070900039598
-0.1665044936400835
-0.17613570086275712
0.20983694440526643
0.10286124522239282
-0.35125700933729664
0.5610575154527989
0.2651426656626471
0.10765377165648708
-0.6513356511117124
-0.15789718299312336
0.29827406682058283
0.2973789322326075
-0.4793787054083503
0.24820159427991684
-0.1740517343985167
-0.01752752630129986
0.11669445169447717
0.008717170364205674
0.5276925203505165
-0.29153272811015085
0.11995118064787261
-0.2994819078351318
-0.16366788721993755
-0.401111114097219
-0.18315819581913223
-0.4912816916051756
-0.2728604559122518
0.1562882408190612
0.2795081411353129
0.30627612238152935
-0.17303302069751655
0.3018905447442687
0.014473226356066841
0.4700921900929322
-0.005958687572279984
-0.23727279699971815
0.1872715858419961
0.5351805440100463
-0.419227541174249
0.0586231167962925
-0.3132460073993344
0.26165324950775065
0.2651874727979814
0.2148391920208043
-0.08160575475205671
-0.18980711127848893
0.29368231073788753
0.4380655800675171
0.3207720703891517
-0.1312599055123521
-0.23868296299487665
-0.15989622051137123
0.13429347131756722
0.3105446146478072
0.36446144921544665
0.3699504351495939
-0.2108427448020607
-0.12189956358954752
-0.10619005021711536
-0.2362198562393415
0.1500157899217227
0.3880124362398993
-0.33854851431168465
0.10382620797137934
0.13492111336610485
0.25166250897737913
0.3067562102073506
-0.20659159800349347
-0.13277995499339867
0.17862637784710725
-0.3088185354609914
-0.2983330788876125
0.34352284044703724
0.3072050827837707
-0.28202311929685037
-0.06572103404271754
-0.18009751862630993
-0.2520863544038311
0.06006833470259454
-0.1589235373432981
0.034167973569503386
-0.21679673495679638
0.3167427261923098
-0.3620912830767711
-0.10282803569138174
0.0045964408747563084
0.05030647959786356
0.14950602564934373
0.2509707356846539
-0.1959390634503384
0.05728665371646699
0.06662125374349148
0.14045059092537956
-0.004216011576389728
-0.1976165061223716
0.17446268471231927
0.19817039390792304
0.12159914970092188
-0.4640690142393226
0.022392416886300105
-0.07982247196434945
0.3536613049857661
0.06900576458093319
-0.045931275076631896
0.03796973839663399
-0.23480255074986617
0.5634199689055157
0.23705401918241528
0.16986128522398178
-0.014120987584358048
-0.2486192795284721
-0.5157690451462758
0.2756705850259238
-0.5154652407237899
-0.03497078529788723
0.07734826075417936
0.22648230994483698
0.23261663038188723
-0.420391349040544
0.01670960810330702
0.22637352111292502
0.3027392354270601
-0.20627820916740108
-0.483614191992456
-0.3069661874695212
0.2729802729192389
-0.49142352937606554
0.36492327337246583
0.41267855724301805
-0.12582501626401973
-0.017842942294787376
0.1846207751455242
0.23143247487415292
0.441153729179473
0.13780373510751254
-0.2654487864846346
0.3092826440599843
-0.0006752987494560236
-0.16069834484152642
-0.0015717215457268516
0.0880577613208921
0.2445904905877665
-0.4421407452207361
-0.16957958825247044
0.13730587248282733
-0.2851421557124378
0.0722587485655515
-0.2871796424815508
0.10546780859388885
-0.41329494908824693
0.5101117066876915
0.2340352628920914
-0.03579348509884292
-0.36468658010217975
-0.25423298006131284
-0.26240393127670714
0.1236658385376683
0.36284676286663897
0.4398661060910502
0.12176216337572514
0.048699818615838754
-0.24932279029606716
0.02673403292941483
-0.4601324312399366
0.2432001253016621
-0.15949418666213833
-0.5374634101800201
-0.02428169056982123
-0.27509350033568947
0.08480849739183578
0.32669376833121794
-0.35636572096445984
0.3058316216414243
0.5373735438869092
-0.29543627735163397
0.05658049085393385
0.4445742245231646
-0.11553696270239161
-0.1869808264156448
0.2178424589761965
-0.11379008549268467
-0.02358111779293294
0.20998990451721553
-0.20516658697441997
0.5801054526199558
-0.01725497064519596
-0.2651961815868149
-0.31585112601118026
0.43311142511517375
0.017089821109505424
-0.2208836877530751
0.04433290641263513
0.2592166794346693
0.4926480813590115
-0.1253505384855573
-0.10000199959159461
0.12088959126575126
-0.13208616364461193
-0.30824522581471253
-0.3211334928093405
0.24870085614174847
-0.029252562728093047
-0.3535995446351443
0.19513058533578367
0.3112243788683923
0.5382783686800854
0.050872181644765056
-0.13492794387570226
0.0893050560864917
0.3836159582725725
-0.21435377524460666
0.2393463089788152
-0.406213553049542
-0.3497327519773716
0.24450802559706225
0.3363197216234894
0.2475625159622116
-0.4437544319730658
-0.05120979377924455
-0.12389353334325541
0.1103132018273468
0.1899870382715516
-0.1766173698225211
0.32398183087086924
0.4150770532387523
-0.3804683279925166
-0.30061841423102564
-0.0009377859953088207
0.31740988238241374
0.43656808369521904
-0.1625582372313224
-0.07897397749903469
0.011524820311306878
0.35544658252110933
-0.18378524032558438
0.21528175961345739
-0.3653673403249538
0.22170881000734474
-0.3763528136380012
-0.08410468325235572
-0.4559182537484183
0.3381927758126113
0.018895472473877413
-0.4555930961756696
0.0003986974970492129
-0.08610955504311123
0.22621476333506557
0.09096499460660683
0.5038657364061636
0.10534229403184019
0.28718972175203833
0.09184526841401564
0.2595619032719214
-0.33088696801281486
-0.10900060885779027
0.02860749338550288
-0.31547795438896414
-0.21561813587678957
0.12016726258065182
0.4725687642221628
-0.3000993843945526
-0.23282661558680526
0.3995975028162301
-0.11926984638727786
-0.23217458763614174
0.18139482758182207
0.14362212873413158
-0.22294834635542243
0.49610245689371535
-0.1517386926900575
0.2829129576763419
0.40874644477294797
-0.07004632725133624
0.255536437547265
0.36448933704550757
-0.1071223357093062
0.11726877330188228
-0.44268723092447776
0.3168285436908005
0.2039002553957288
-0.4225168351176491
0.2550946102716721
0.4002774233906857
-0.21327784806065841
0.5127350088866163
0.16585964158077654
-0.149687201537283
-0.03786682599883604
-0.36205120424391823
0.009042013283203176
0.49770299210607033
0.2540143586999524
0.004842556242000392
0.19066001220598353
0.09084475342890155
0.1965783135233628
-0.0730824108154425
-0.18071990116406808
0.09218685680252672
-0.40701585351921593
0.11366362651934808
-0.2134740102380821
0.23797059837697082
-0.16760085983069103
0.5155009646504671
-0.17792796897644966
-0.19468177704892886
0.23058160635597447
-0.23901283029320117
-0.016300992961386446
-0.2582390991541467
-0.1642761299536967
0.2734942709855126
0.3548166403569897
-0.6279260607078969
-0.06780667719519166
0.3372190825532524
-0.32510989287657494
0.02067550165860159
-0.16831148227489956
0.34211630066155546
0.12113528639509641
0.029927537460482545
-0.26245190876537017
0.21924810108953682
-0.3864394552276498
0.41244750039436084
0.1417522418107516
-0.47106324759046475
0.25083611957408714
-0.014042465927145397
0.20997621546802847
0.18605295512998313
0.06150211624822445
-0.09269648760837454
0.34503459618248317
0.4452919988583026
0.49368944371806084
-0.0032068841136751775
0.03793063409592171
0.22410814952230126
-0.26769846981645595
0.3789921134686068
0.20293030494850736
0.28336887256188187
-0.4546021401783635
0.26963349530400393
-0.06896914054206535
-0.2577205512312054
0.06416173184682743
0.04135673931929765
0.26411821210702646
-0.23057614902011989
-0.35039152579966876
-0.379936079713658
-0.22480713340639508
0.24902804370354817
0.4010254622964985
-0.019913659731181806
-0.11745558448931469
-0.29439894347330375
0.478442914341454
-0.19034480523882746
0.45696051555954786
0.11980767011033812
-0.22332731919765764
0.08841552185921965
-0.09787535104532911
-0.4733660794558198
-0.3957953488044096
0.11708703540121777
-0.04710892424301558
0.45306146444759954
0.0671262395367559
0.47544730416407743
0.17018670293539445
-0.20126153372799663
-0.49634412715716686
0.7167443943381543
0.12535622357986273
-0.3497863053616233
0.028442870774302242
-0.21962049251773658
0.5206755230316644
-0.346899283555091
0.2028111277177597
0.1110221128409624
-0.1611771549145745
-0.2968630266366527
0.011092638657079575
-0.5029091596203441
-0.08257742126260408
-0.5387981024397397
-0.38051309827858093
-0.5110264392892061
-0.12853150743421432
0.2631836257113971
-0.08267804032709909
0.2912289040009913
0.05352187182319702
-0.08617627232120771
-0.4127250521563874
-0.20245193680466492
-0.3177375973304425
-0.34183819237781793
0.45506815007499263
0.28745166752442886
-0.13698977919167352
-0.5400576531692554
-0.3284785990938362
-0.24815067967588786
-0.1637475966447163
0.15279956266945158
0.5081057234611479
-0.22608284902050188
0.014061064744290882
0.1661455211871078
-0.17574478426597318
-0.32048586399216755
-0.3864483720127596
-0.15165887818995702
0.001979411637424528
0.05500328449929744
0.44889262352973736
-0.09273475711457395
0.16007855793777848
-0.05078948690583642
0.4486250459880653
-0.04681706005946446
0.34441435976923007
0.11948992982090391
-0.15087212610378287
0.3636800077655045
0.2990134703621902
0.3719411766244084
-0.14774722209977104
-0.0821927145480193
0.0767722301498506
-0.13753300591348053
-0.3897128046258356
0.35067931405250874
0.07230285600633621
0.3919990377965391
-0.1307624257100548
0.20776095820211027
-0.223496200645924
0.07696720523889729
-0.0711018231301345
0.31780799793285464
0.07626012261867457
-0.3834687602736113
-0.16675215926153222
-0.12714057870344403
0.03750795164770927
-0.43706488854703884
-0.08030290181731614
-0.46854439667496584
-0.23796486521359841
-0.3917122915300623
0.3009245293884055
-0.15440485962149295
0.1308688557470641
-0.314468081449765
-0.4201821763937878
0.20518959363682088
0.288956392236507
0.1661553146484023
-0.44103517703102524
0.3993393382794744
-0.049950665603239686
0.3112834108435738
-0.5725379029111566
-0.16415794852765392
-0.49982612705154833
-0.2568385100152157
-0.011758151603865764
0.2981193242156696
-0.39535343863179034
-0.08440572740911005
0.10078028008399716
0.35991009277105634
0.2974676218289523
-0.14468270801939784
0.4558857134911084
-0.15545207646112877
-0.08122081639803005
0.12320004172454242
-0.3549394560080487
0.041453107724248824
-0.37838647134333014
-0.05109182181111681
-0.08607692186264754
-0.06706718214328246
-0.2533343283526689
-0.08266828588938877
0.09668159098502996
-0.3220203418944847
0.08748010691474443
0.30249990735054816
-0.5159473522042833
-0.040618841651237296
0.10179641186462668
0.23748013537768553
-0.026670821103624207
-0.535700283551411
0.5000939197804156
-0.1705690575575158
0.26484955459342524
-0.1084986119574996
-0.2928388570328557
0.2968943074474848
-0.259592581418395
0.37146426154438333
-0.47470851482759163
-0.3531677655789623
0.1805810325003613
0.20362630030699283
0.35421855431045796
-0.09950323340910876
0.4958697452321173
0.09338602746236094
0.484201342431094
0.3528264032120646
0.3195859796464629
-0.29284615539615017
0.011535513007973962
0.31048361006104847
0.042915855008380285
0.08888591309516364
-0.27560159387993455
0.17944138423588477
-0.009908823104899064
-0.46410980304250504
0.3012232514764941
-0.2017588938618656
-0.16468962222493275
0.4947061289999577
0.2807157952801213
0.3203738458529981
0.015707584956929106
-0.06343551793950326
-0.3024092213896796
-0.20020984206862935
-0.0036418981025588453
0.3557439007607709
-0.41381013869199035
0.005399722674751373
-0.2468249407295666
0.2822956761980174
0.42428888397802417
0.08409181362382027
-0.1451057038444201
-0.17681467178722235
-0.3600632161211147
-0.012779547704003143
-0.1905066359486726
0.18812419953697285
0.19653461076542433
0.5381721176868325
0.13009859573333393
-0.06316523234430987
0.5041917830632647
0.4503027539191616
0.14833599731525554
-0.011001117159782409
0.4897515095875977
-0.5350218646762865
0.1657131303631146
0.12461317427806326
0.08052432144951366
0.026348103156768846
-0.3727588565414538
0.357266016550068
0.19126735230888411
0.030802402180292305
0.1512957794585591
0.1638210640020597
-0.2448676659030632
0.19016767029862092
-0.06397682258136712
0.12828995256215597
-0.023889232410342968
0.15626757301206373
-0.47805088664656037
0.29410156019708933
0.2957051790404463
-0.2512113286029702
0.25876512289641207
0.2560199231678196
-0.2457126630761077
0.019640127764300366
-0.4509273422413662
0.3233046029208043
0.19230127323243598
0.2784342645566421
0.4177831414669013
-0.3208120529672513
0.3274096063411393
-0.5048941376424155
0.09596333025587751
-0.433227621769558
0.5397336188395793
-0.35130274179174115
-0.2859955031085071
0.37443743339672103
0.3920455009765261
-0.5006250663699081
0.13646535102247548
-0.3397983394138469
-0.15230160720346944
-0.4917583071124119
0.5969539543303176
-0.20865578323040465
-0.28633437584756954
-0.0963672619571172
0.4330409341884181
-0.2860756551614734
-0.12851343914571514
-0.2253801128539907
0.4373694905894181
0.2393638984350599
0.6329966539910656
-0.1428994881360122
0.42181238028456447
-0.2800114230756199
-0.27658830280421876
-0.023980723334498945
0.3941013268069482
0.05692651310643672
-0.5217304805665753
0.1977554595780597
-0.24601754812318072
-0.4662070015875806
-0.1995828772501592
-0.33757669819725816
-0.14266418632780672
-0.14136948234209074
0.28901761813889654
0.07527370655155041
0.45204762257334546
0.38062548024162796
0.06526293666031863
-0.3194323746957191
0.37464560468368513
-0.3124298118826549
0.16298425950516304
0.2863658693236829
0.2649876264616883
-0.47066826239906767
0.20019297597827343
0.01576171694360979
0.13088176864689893
0.08871613872385382
-0.15653802072757214
0.14884531473209003
0.07387348761505211
-0.3168848553570706
0.06700544412931435
-0.5594276035227926
0.4461745632780742
-0.2837262175325374
-0.4665534842415624
-0.18813931160464156
-0.09129260899527444
-0.5589163710583417
0.02335387086275541
0.33382667897142504
0.2395290269518117
0.2841990035984506
-0.11365432104816904
0.06387692724369913
-0.26467089671720595
0.059970109659348854
-0.0856231667203737
0.021136073656499384
-0.08570623067556608
-0.2375228294184322
-0.3431020128719391
-0.20773101420233736
0.23233755030018477
-0.00861505485811292
0.3324601254962153
0.059317595061799185
-0.08191559732182
-0.33466569584241695
0.14178926782046644
0.16382714877632842
0.2464434055591196
-0.15544936321221514
-0.175576975000225
0.0846781850182489
0.20425068562310364
0.11249917338874461
-0.048208428592811284
-0.037969841193358334
-0.02600127058997358
-0.2841808981268914
-0.36232782172815564
-0.062135110986662
-0.3441760423348725
0.3617606070198029
-0.16775309281789963
0.3989579917291441
-0.04973384395472215
-0.034386791185077134
-0.1457091829318849
-0.2961281134075559
-0.35864628608757915
-0.38233409377207733
0.05033209371967802
0.2198099420253994
0.31866268526685754
-0.00947603938585876
0.2040963911197633
0.29191122746252146
0.3487069200705084
0.31193755780752375
-0.25970665304652674
0.2784822251478114
-0.20679634791703905
-0.25074914168219264
0.3435844109178471
0.143059940077387
0.046460430626770494
-0.4085140572111522
0.16054654690264844
-0.5084696841443034
-0.029669541080264327
-0.09721738722619658
0.05676023593825129
-0.3577219442455962
0.2481127210044336
0.22044596450560955
0.34552039976948773
-0.21229981981177992
0.1547640000156647
0.34950980279755106
0.3003678320794761
0.378237719337933
0.26620374182011264
0.11542846653737326
0.03779732706027694
-0.0207235823600997
-0.013048699719063746
-0.28869011117459425
-0.3512382147603397
-0.22926344663819023
0.01075350517088017
-0.14923606055192123
0.31846200722419754
-0.20955793941181391
-0.059651702265686585
0.30297987691437894
-0.19533394643886398
0.1323698362099874
-0.1553992829828347
0.3345330522810296
-0.3926199014958841
-0.2743911075777593
0.20257172547463234
-0.004376490570041186
0.279501308706616
-0.3268856782337705
0.0824372794161846
-0.07387801082419429
-0.034570365961714894
-0.43108006721429454
-0.2300715158971155
-0.14607561023065965
-0.27782118916122545
0.23597283532300733
0.18279824565382236
0.06911488315262616
-0.03303214264930159
-0.2853424954055378
0.004174755738374157
0.2665817610396215
-0.20254997111834852
-0.3350012818921871
0.3740462844244597
0.32625445238789574
0.06200433532673695
-0.13738377764054788
0.39094098828113355
-0.31143533853358124
0.25164209952148037
-0.023015166383867473
-0.2587428359918016
-0.23100618376782456
-0.31253219230831303
-0.08625270808224737
0.46294008523258573
-0.519964435522751
-0.2682165501431921
-0.013875058388135087
0.369926339710302
-0.07782389326195442
0.14319107895853786
-0.03807550371245861
-0.5166264225461814
-0.34750803673873065
-0.29038364521147964
0.0166149135644908
-0.23492338379379013
-0.5008291866777234
0.29524483121813067
0.4855990341020776
-0.08354842446293849
0.4146893432490009
-0.4405164880428564
-0.08932440077839604
0.0003362601898550269
0.12370678723906552
0.5040718025504467
0.23225139836082206
-0.448986726336203
0.09568210024275091
0.5528127551505782
0.03932845690978412
-0.22864244844167025
-0.24417409639507007
0.08780008349031311
-0.20459267251314053
0.5429176774914315
-0.0046002868807633
0.13341584095616738
-0.13820825945629478
0.07498555074238801
-0.36230381107991316
0.17246458223566535
0.44009604786050255
-0.2623075265645009
0.46096206747207197
0.4686501378348553
0.2472269645725046
0.3146395118776926
-0.24327425628477656
0.5418494636272195
-0.16218332929612747
-0.23563366435305652
0.014507520988442952
0.3878117688897645
-0.08355525313372124
0.1341728517161294
0.1593599915184097
0.5127833874952438
0.25878879408561284
-0.3791096802329659
0.06421931376047067
0.13102160036655133
0.20954867871423746
0.18417227142153555
0.26974862439410774
-0.10310899527994112
0.3068998022807401
-0.38108117619797033
0.32623129015714253
0.18679506483109654
0.13382635182648492
-0.27739149944872726
0.13677521505303455
0.027073308698399162
0.3413784753873769
0.008574000836123436
-0.2657394211914383
-0.15769636692454977
-0.1168864128853921
0.16806729321916972
0.060902711073647454
-0.21965079663034934
-0.014129344429943794
-0.08213098523351794
-0.14207796676468862
-0.0789363977114912
-0.20510986224657107
0.4610228972834105
0.2083351597097547
-0.20462959621241852
0.4703539764812465
-0.3570779337049318
0.4399634972870423
-0.012050085549603934
0.3068279660787906
0.07683240854761261
0.43234130121402914
-0.18592493699010063
-0.25495207527544983
0.3803117981153881
-0.1681564771276173
-0.4655032845703918
-0.168169343575252
-0.20469069582352983
-0.4177726538915331
-0.07955468445184195
-0.01572679272076945
0.2825859866195237
-0.27738434284159247
-0.13100527543896476
-0.011269766501706566
-0.28015356822577236
-0.06840743339967527
0.39930768933997424
-0.5412499501627329
0.012906365963256103
0.10709797356014421
-0.12952552377160712
0.23091929106226436
0.3315954613150947
-0.2565374692377694
-0.1442655578567887
-0.02142373961146106
0.2579659125619422
-0.08010408346849542
0.09666129800181966
0.04500235023177438
-0.2018678242554369
0.023841277105105765
0.017652022825435404
-0.2056826270302083
-0.34034047525054156
0.1380132189183434
-0.15030847654228974
0.12169104495657367
0.18180342007692216
0.21896008127639086
0.19774515225108005
0.02110616064666071
0.4283773366323812
-0.47797922965077705
-0.10092991980034192
-0.34932549157693354
0.34622083851746954
0.16025730023664483
0.25671452073020645
0.13856578071009987
-0.004901541636941446
-0.18654820654013685
0.38754574894888316
0.5187646784994612
0.5359490270802639
0.23618813619672363
0.2810420633403501
0.3305092687522494
0.34725797061324987
-0.11495257338267469
0.43315922937312495
0.09368550869926792
0.6039898193905999
-0.20809086855174133
-0.1979945087401203
0.04061444850254443
-0.42284186185247213
0.40372973078320473
0.07240384775074257
-0.5175691775451934
-0.39826528413039824
0.4924636302960697
-0.23747663835267488
0.23228582186726787
-0.02621027809610509
-0.281124532729703
0.10773849607874757
-0.11877977891661345
0.37255183629330485
0.28032167647361655
0.11621410789906432
0.055645388813690716
0.1502240596861692
0.40937738783143784
0.07808420046916675
0.30256305534245126
-0.18378752110946248
0.5045416761142477
0.12635454403591947
0.18903979564850998
-0.43717539806503536
-0.6040104070597648
0.28081684465311924
0.32866802978109705
0.2826408912239786
0.13794072019827608
-0.14911171819675204
0.25393609270474476
-0.3184699487127865
-0.5605814863259012
0.25746822324794155
-0.33554733549739657
0.2824751383533936
-0.3821933291106131
-0.0771608733339068
0.030782659636821467
0.3282136231002154
-0.3700426021338531
0.38194814800848825
0.29659697900670423
-0.22078539134120292
0.10289620937419647
0.15130098284763954
-0.22321045363289269
0.34546176560695296
0.4690334775969529
0.2650089543304837
-0.05382932909797729
-0.2241328951882391
-0.3295010560906591
0.2513109682768921
-0.2478169673861455
0.21980788623014055
0.07185024524200577
-0.49592037818478785
0.013089808003345768
-0.0655030454534324
-0.2931052652950919
-0.11286219503026673
-0.4854284495319136
0.2218773544480652
0.24058112690629282
-0.1137608742291401
-0.02928884755815082
-0.4962712008183998
0.2512155555398947
0.46306636681732644
-0.6393862490982748
-0.46140382904235533
-0.31960960545324
-0.06670205984033889
-0.23271612477726342
-0.09331241954314833
-0.006504765859508337
-0.2202363151755795
0.6378991207576791
-0.2834345280494349
0.2897976472086913
-0.40373517622767874
-0.5232334748567384
0.10988581626846322
0.08997425137173579
0.21338203743705297
0.09864381527555767
0.28139724669113053
-0.23886836015513147
0.15961349525138627
-0.2682993401636988
0.18170889464199874
0.3407221565311825
0.052108477547969455
0.42687632045072227
-0.15584474879109073
-0.13578545328850514
-0.02752051207682871
-0.14843663883699665
-0.008152419018882622
-0.12708380685755633
0.43779555305749485
0.12431864165236245
-0.10919417799933259
-0.36047995996695953
-0.47771704381639124
0.1066879835507534
-0.07442744397207142
0.18334423693466992
-0.2394634734949105
0.1796338878887789
-0.3630751137214765
-0.14410598411403666
0.5442621832482748
0.11021108616732171
0.48397859816533617
0.3085832089079057
-0.013846296862198659
0.4120346300552884
0.44123764255477216
-0.22416451931349562
0.621480209892677
-0.36619361960238567
0.3930132409191552
-0.4357794456981066
-0.300024901462804
0.24576518693491453
-0.44675749112219637
-0.3865601770349701
-0.35110667798749723
-0.10457847016398876
0.3295076085710703
0.3412590590613824
0.2541699801535071
0.4145838949607632
-0.2701876429195892
0.06629691902420008
0.3544132734112188
0.059269582973561837
-0.5122949976943092
-0.5961011196507879
0.44098309802234126
-0.05133450089481688
-0.06234595108463556
-0.09602033389059365
-0.12391065033632265
-0.03813894688978022
-0.1739666984611584
-0.11259368815099816
0.3844892927892924
-0.30429382488363166
-0.2762691116051989
-0.23424926784379804
0.46302697127322545
-0.48732124011840694
-0.04301108127846034
-0.1430250295107555
0.28469294902709946
0.4597401853779547
-0.5472612677044302
-0.019914531733218787
0.16291549895981214
0.4224167584501317
0.30102650713197815
0.39822878640675974
-0.30947531081868873
-0.33626382358426016
0.27356404104142845
0.3820187067853532
-0.11573140400752169
0.5295708386959221
-0.06195528128312792
0.21007048839777606
-0.40274837855530826
0.05001150066708793
0.20603396723825548
0.10098772361979366
0.2793029899546421
0.027974527228623078
-0.183457080851785
0.6254708837652548
0.3877161848222891
-0.38800835247214616
0.2756517757991911
0.13008623363460312
-0.23461789388278737
0.07975287642225595
0.3510256481810402
-0.08380836765552299
-0.31905192686293415
-0.10465696816147028
0.2595121004563975
-0.33883785774661557
0.5501241808002723
0.15067162540722107
-0.20052021606289513
-0.0776275459821652
-0.11497939200256042
0.5552785717479783
-0.11967728720630316
-0.3876447246326156
0.15825260276744083
0.42214824171810106
0.41664256766465224
0.2589534224227154
0.4747573859554625
0.5495137791432898
0.2510659767805866
0.12113988989457089
0.3454975157185626
0.36791995188387666
-0.022895070258634933
-0.17449614113660822
-0.005104089054965975
-0.21390756704391595
0.2400473540105629
-0.3889349980156273
-0.17869989374737122
-0.06185572617386055
-0.15633521134568323
-0.27902665909093477
-0.012104658885397636
-0.3278695227200315
-0.20091326936231885
0.16677195919700583
-0.020080215141541412
-0.42774083286854947
-0.09246928020811976
0.00665005052921007
0.01934759512451084
-0.25997119384785444
0.3160584489514972
0.24046682689283724
-0.19795594118030604
-0.38913345095044993
0.056690337839697603
0.13225698006522632
-0.3545096427984286
-0.0017869798875368426
-0.14122577882334217
-0.08792524760026058
-0.062219001383196894
0.034086597847430074
0.2766157347488898
-0.4046173447732813
0.11240303373396525
0.3280742608826778
-0.039043310818853115
-0.0956206235687858
-0.28561562911672855
0.47245301804779005
-0.0511328808820413
0.1593655461456596
-0.3418476812199749
0.41282956497290735
-0.13434330187598945
-0.18098472771292273
0.016897431989176485
0.04196614529530449
-0.18627979405723458
-0.2079007101108796
-0.4031718076595535
-0.4334867457747976
0.04507598800696998
-0.19529419864547606
0.19621632690723664
0.12444784119225541
-0.2888301620778372
-0.45287174474267616
0.21750256710140875
-0.5150387490892532
0.1514005614641219
0.2698298202438211
-0.23808290257619955
-0.45778327009013003
-0.4715509606706524
0.2547464419375521
0.07792068914965285
-0.5296583031426716
-0.31850969660656897
-0.4639920211069082
0.2998595368269622
-0.061959387228040445
0.37449807266046337
-0.31107032814560226
0.04147721229089468
0.044894844613005684
0.2557811425264662
-0.005041415751287012
0.14507610432796886
0.17217931544679163
-0.11788965719317965
0.040034922452934225
0.09865661139305289
-0.1780173586656432
-0.05064255864727399
-0.3573215010140056
-0.28071735906456763
0.443314270731536
0.3781104080750895
-0.41290413142647986
-0.06532484616867164
0.38698738944414135
0.12120612149433142
-0.028800807103499946
-0.19058291274604303
-0.14226373171518422
0.29400643574001223
-0.18117502770923238
0.23764820432898415
0.2447978404418256
0.4798520667948431
-0.11137447295551152
0.33367536643181206
0.25472589214587277
0.5109395160639281
0.5936303967316789
0.6007574982707372
0.318393979280028
0.11059750333569071
-0.11785467161629626
0.07225809275810198
0.1072497689682958
0.4164761445570198
0.4077733585661667
0.116793829404537
-0.1543688705641631
-0.02189612101979588
0.3299134856486555
0.14964778646707064
0.22090934809716797
-0.5909716085850186
0.30740994149439443
-0.38287478670017
0.3524865429451386
0.5940575261497337
0.1836032748685248
0.595277594238432
-0.13774846436317237
0.2425619967449104
0.1536094987273545
0.13986650448535118
-0.006218775774080307
-0.17738566308154424
-0.228151704387147
0.38155891390915814
-0.509956059956695
-0.4335944696056359
-0.19316754697072258
0.020776668143614424
-0.20329439386435322
-0.19111382792072448
0.39120625447080376
-0.07304107563515556
0.2741224642085212
0.2487670489102892
0.4290264779211964
-0.15338218743833523
0.2524205502092522
-0.3117447864508188
-0.09110567668676395
-0.7071961452217732
0.15515179572886403
0.25575460204081707
-0.01009537518404477
0.46403875591446553
-0.06363735242474906
-0.1729671475628211
-0.2591889393740986
0.5245981735389088
0.21130951065919534
0.13911975543345192
-0.19142393535890426
-0.03267194084418477
0.20066547018344927
0.22718428595522958
0.32162945436871954
0.31653740154951854
-0.09781232592336295
0.07988449817690702
0.305362668877415
0.34508382511516045
0.2273538490498565
0.14140143277432488
-0.3559305895159525
-0.005641379777213281
0.025954907501379607
-0.45709705338535
0.03051137825663527
-0.4416604167819837
-0.18119667003986886
-0.03546966895438948
0.14039591709938715
0.14195338457043277
0.509967098242759
-0.03231172206825014
0.4347739098192701
-0.02374684277620226
0.08185322832590439
0.0697736534908719
-0.3519741044233628
0.1934088918616987
-0.32660243783867954
-0.31780312012083534
-0.34428451398045573
0.18280071399135966
0.31734809357727584
-0.30022539765284995
0.33867026905549696
-0.3706190629331558
0.0998071925636444
0.3924921638614222
-0.45981607510906153
0.08186751978416128
-0.47409990440508365
-0.384762356257421
-0.20610958812829758
0.2768890482174441
-0.16651380569978305
0.14209989521377114
-0.004898512121445764
-0.19504582342649798
-0.07246968524668294
0.4593386578183948
-0.02405126645875698
-0.18709551728871288
0.2703334943301236
-0.25263077943960516
0.5201574858531833
0.31540488951613155
0.33015853594265
-0.12637554345579677
-0.13388410514259233
0.5512047063285778
-0.17202636260123183
0.540021953194672
0.09345204415626897
0.4212838288321667
-0.2542816478533488
0.4266478137734118
0.40966481450285985
-0.24714975671650302
0.36316212655410035
0.5617587310412799
-0.17570885517160267
0.07892271498904987
0.42802227089269507
-0.13386201409399925
-0.2589984209408574
-0.09664212060591593
0.09406957054328181
0.44214198979461095
0.24243982953171203
-0.007027498557859398
0.07173705401356543
-0.062380246714366705
0.056702349395720636
-0.10089736052112026
-0.48421625104603444
-0.15987270636086473
0.0497090132752792
0.44186703401734134
-0.3036849792164402
0.25163578456241137
-0.1917517936812994
0.4123405295267953
0.17065598125577391
0.15392111820595175
0.3783526123726013
0.46342431997626776
-0.5855939440396345
-0.03218784719308652
0.20346943330240896
-0.2789372435222546
0.22447791640476247
-0.11905806947709041
0.048558638331080595
0.05671832643656236
-0.3904878250597284
-0.40841191703187923
-0.38594443190662736
0.3260731666182055
-0.2495407730857303
0.19907285600942368
0.014795233748469102
-0.18827692701811238
0.06314403626107351
0.3325254706333924
-0.3098209296832399
0.36798990703146717
-0.35445303657794364
-0.12933098245333832
0.4096951747329834
-0.3153480075106979
0.21195843649726495
0.2512335258373138
0.5446565775967922
-0.15473194706102472
0.3906121289464298
-0.04759029609754856
-0.32577732890001854
-0.5678601490195487
0.00019204193192491454
0.23956281044487876
-0.36337889533076617
-0.09485662227160006
0.2607766110244131
0.3971372074985588
0.025339143707920345
-0.2159996407988668
0.47216760431674554
0.285685489050229
0.16514679373924218
0.36608601341705926
0.1770776242247558
-0.10203385986136176
0.2233734738395081
0.5222471738799371
0.3013438238106615
-0.062454231840934356
-0.28284456540750613
0.10238798261072848
-0.22304981176033398
-0.2556083512845133
0.09225438874214965
0.25679639034049023
0.4618386618574012
0.24335446107467715
-0.28900878697675375
0.5321060939541458
0.05680390766719109
0.14781068088996313
0.3871865172730623
0.33697734566383736
0.27587186168682204
-0.2108007962872064
-0.30622155462355355
0.07468082634154183
-0.35245077671387837
-0.3500787709147992
0.24025037723906678
0.06108126414225456
0.34070143007490483
-0.22230768188444516
-0.4155051208639409
0.3908495445848892
-0.45951532790064303
-0.1952199991701563
0.09305522423076308
-0.08876696425498042
0.13409844899059217
0.2996543504014316
-0.33748242113592825
-0.14473541467751758
0.2617485489756297
-0.03903702515743421
-0.23124577679920016
-0.09429603966770435
0.3942341427524485
-0.1962374880981769
-0.21626802787039526
-0.30684521894582384
0.2608087611345611
0.2218388478962717
-0.3085232372558972
0.25928877544046247
-0.2184264321072528
-0.2848583381411259
-0.21822922534330247
-0.45438778455293855
-0.20319368030446572
-0.019789375585231098
0.4438734263281815
-0.26225305348465466
0.17166609733270108
-0.16439707714389798
0.25887352804916225
-0.16892729898573886
-0.2572829803465031
0.21266716632148103
0.4063957421002651
0.23294854925434205
-0.3074832769061356
-0.22598916125133456
-0.1599556724841041
-0.5125109794948105
0.24104457168546922
-0.4561818244855617
-0.36031558937520297
0.29418995743795423
-0.14540399906969254
0.1047655452155876
0.025703996140985647
-0.17511839003372276
-0.11251037898968645
-0.29147716266015855
0.4910943701298218
0.3398542013527165
-0.40871749068342517
0.40251003520532974
-0.1252731918553829
0.294720939426025
-0.41010633850293576
0.4139363774177994
0.4700945434912505
-0.6178447939601446
-0.21002364488998593
-0.27975523217459686
-0.030499393373091578
-0.02789623493157894
-0.29838155229999075
-0.25860668037573536
-0.08472427580578915
-0.014210493908664391
-0.08577742152532095
0.24391253571387286
0.0765174267940853
-0.20170177857488975
-0.054544271103079266
0.3920541795944097
-0.007154343403218346
0.5685933011156732
0.10361071535908102
0.4601296315317021
0.5659060863827392
0.22288759133702443
0.04429508862700948
-0.06608373769945018
0.29960566480890105
-0.29097779124550516
-0.11190798831338895
0.3050049572394903
-0.17050765976113577
-0.319643671251797
0.19864006227642553
0.5720709903837538
-0.3354640708424053
0.3245765105256731
-0.08259183677511463
-0.35655532006216506
-0.409689961244284
0.18818970462106033
-0.4030215249945393
0.18765930622480342
0.5166997191816649
-0.3701661005885766
0.3141927858049073
0.37464771472525066
0.3303466546653183
0.3593744764788687
-0.03456168331578446
0.19040492589710725
0.33906617024878355
0.4638312324047711
0.4286654674448092
0.08875840878749687
0.06405353181180806
-0.45208145252278165
-0.2565576288201824
0.11119334087292042
0.3910031059003763
-0.2285715624475919
0.46470781655893983
-0.023637217864942606
0.18445796576638585
-0.38033583755339745
-0.037536986613271726
0.21677796474759753
-0.09991146313288837
-0.5219539737341373
0.3599475665486431
0.1794979206945275
-0.03525200960470803
-0.44635292640473434
0.10163069806641915
0.10442041182808266
-0.046433694301490566
-0.15168972309284337
0.5132147959087653
-0.04352832933905549
0.18121583217447693
-0.4686597980245724
0.3487391772620519
0.46505319943035883
-0.5570417168003162
-0.45329056989588296
0.26514193826183147
-0.19862082065702472
0.11274872422594898
0.46622197487218553
-0.2158301962702786
-0.340639437032304
-0.3149551874266665
0.5253570123009269
-0.3481873603005125
0.005542721804024093
0.2601666644304946
0.0953946673467302
-0.23700077906165248
-0.17509615055076413
0.39573348124025415
0.18843214505469208
0.2709399430673224
-0.2669109377084032
0.30511899091488265
-0.4178116887807077
-0.4725601963360841
-0.4970201218232117
0.2127486155514809
-0.12526027295989337
-0.32027199144521723
-0.12301782519102515
0.15097109040621992
-0.5276649646456667
-0.0251292275608358
0.37173607757022764
0.3254144927488282
0.08938339317020196
0.2652449249230676
0.11482961427825604
-0.3839204001513716
-0.22039126766057876
-0.19855874505825227
0.2371258273210584
-0.11648809997921643
-0.355564686412283
0.34252535089694114
0.17054372464161316
0.1685233826428387
-0.10244176541214185
-0.048280724779274135
-0.12062172798952692
-0.43363347229331417
0.30704571682812526
-0.004125067465186738
-0.15958694245469546
0.15575777784561437
-0.2504478774787497
-0.42278882844657806
0.26965085178531223
0.30478093526340977
0.2053869352956281
-0.1873781365775911
0.19042765096332445
0.14658823347653166
-0.24319500896246385
0.08540339394001809
0.3264936924246363
-0.1335802844410893
-0.21370981586040305
0.05577346966229469
0.4094470203471172
-0.1770928314446634
0.10634223503404146
-0.5129953916817438
-0.24992890394116468
-0.11422696175758225
-0.25321169528027976
0.15508164181929282
-0.4953854134369712
-0.33040404683162705
-0.13017883149562684
0.05793744618031591
0.10891276268507862
-0.45681674252604276
0.25912633613099123
0.22882188296630296
0.07177865341736865
0.1646839681754149
-0.19944113780394765
-0.10778687724822418
-0.20365326818529694
-0.05866550248434958
0.4616611110438677
0.31192712666947164
-0.5691307729947082
0.36056785463091784
0.4434677169826998
0.1764765843030806
-0.3112203084491868
0.311385028537477
0.4129680578484486
0.125800405063921
0.10349794026097327
0.346763794511262
-0.11592294037280328
0.0995202486743096
-0.2336916612016709
-0.2363614290625527
0.10774955938368154
0.14425730678662615
0.18004104236011476
-0.2663047966147766
0.2826507674107262
-0.029900978665102346
0.1402214712332866
-0.025089149541116663
0.07975657716599728
0.01780167401705232
-0.009155739724425226
-0.2174946069493327
0.33237880392071406
-0.15755119968934495
-0.387278304590355
0.5089425604916077
0.14535029261953303
-0.2801144571948336
0.35883085683988625
-0.07695813475113639
0.33054868852811337
-0.23865440537910607
0.09036332201150614
-0.33555862065540976
0.2645206064250524
0.06888856371517589
-0.47617266947059883
0.06593073875945007
0.2831097105313392
0.3955293475290044
0.1997255336634138
0.18479448447120927
-0.07855059983969147
-0.5005451856532364
0.09838446019330195
-0.023078871993065932
-0.37684031936524187
0.18289225467447065
-0.1185773792624013
0.0829399304728288
0.01863925182259696
-0.10027370251574876
-0.24809666465982239
-0.2016060081462668
-0.3838695844937657
-0.38748560439830804
0.3962067845759155
-0.20656389406491862
-0.6569912706456642
0.14651767301920204
0.25857506823673504
-0.011248821008421905
0.29050133449726745
-0.37143781356012223
-0.04709454173518655
-0.20853197421299288
-0.025549859218899275
-0.32459418224910846
0.2388796883166271
-0.10160183063767474
0.19745648695786525
0.35033520389551037
-0.37270850515334625
0.08051120149094325
0.0011448666701451653
-0.2394202629149139
0.3728559786758108
0.3592178097860989
0.2750203641634524
-0.5160417973424837
-0.38844225881418737
-0.08055289893560835
0.4318695572827466
0.04300218644015275
0.35203967091374944
-0.049452641412482165
0.20500102619888455
0.016315860838092007
-0.02012417153042406
0.1665146886498975
-0.09442270717675402
0.44407424791093675
0.36720551687450914
-0.12031520879925997
0.45208010058668324
-0.30285370344569945
0.2054918894002849
0.2109404473452773
-0.326494518600268
-0.2724137306200579
-0.0968136610761075
0.1756118631532858
-0.16345873827498125
0.1687041234577373
-0.33946451290197593
-0.3142771413012257
-0.5592745426406321
-0.33857407972452874
0.4161423074725439
0.1285613348549688
0.22736249498296024
0.08124627410455168
0.32731208357924285
0.5032859348051524
0.23526541478384982
0.12328635154394767
0.21177144289657998
0.3156442195612442
0.1847270885618929
-0.09804063264996193
-0.22504518595761308
0.4187688977884913
-0.019714971189167593
-0.6612704556623114
-0.3054578833915267
0.0556199680520836
-0.11863137523774103
-0.07485342001248342
0.1393173763270542
-0.4493786469727661
0.15846407637350107
-0.5609029306163871
0.0023101556585986374
-0.3637335758600452
-0.41056014630847304
-0.28312848633821824
-0.17907243769033818
-0.3495719729155366
-0.25404033770852275
0.25214591329623764
-0.37925237334805234
-0.13639865300882165
-0.23918904380146025
0.4009413911105408
-0.11998620795848071
0.17833864687049694
0.18259541936816268
-0.05038798562979621
-0.23019753840874027
-0.05668212349199786
0.40727251155464034
0.16918810510029667
-0.03726489327877286
-0.48704000298851063
0.09481279611145674
0.46180112022144737
-0.41896246548947386
-0.3286305061283913
-0.43211255784129066
-0.15766863328761313
0.5014534250526892
-0.4539630421001807
0.5037612402916894
-0.12188310398080744
0.23231911452148393
0.23786891101007498
-0.5089081072284026
0.3723781035806082
0.015071948628216066
-0.11950737155362276
-0.49625452258903235
-0.3505825827462314
-0.44687947946035966
0.36265412488472243
-0.18125471372909194
0.33074985207301544
-0.3722798976329162
0.46361440070077653
0.37975452471307924
-0.4002891883145539
-0.2564891116211184
-0.14475742180839668
0.24966315342036996
0.1844193091021807
-0.2189311415450464
-0.39086223763353145
0.0854212698414936
-0.1087807329339879
0.42180135418793946
-0.23448995050844762
-0.3241004684373454
-0.31236179682308846
0.036087576362602465
-0.15112231090472034
-0.38458619742462624
-0.4346128757950788
-0.3077460490769802
0.35093984470492673
0.008975036023297132
-0.34777224655158645
0.23107666178827008
0.2875979100035804
0.34892767356523396
-0.17671370129304523
0.18325090528268567
0.09177152293210376
-0.11855936225137449
-0.2620650358712518
-0.3886703667202434
0.03528364489764019
0.015502893007842989
-0.37796777736382253
-0.21382268215304506
-0.3061784203636033
-0.24688683243737036
0.3384568969549828
0.2047041248664726
-0.18669046770336425
0.20408427582199895
0.23199547820725083
0.4384609804271223
0.45914783420157584
0.24963730720452215
-0.0451788831479346
0.35230235482703576
-0.11203117209704953
0.05688521746854055
0.20333350671795378
-0.30324617112052654
-0.22368643952685355
0.07319417474008512
-0.38798579416903745
-0.4889687276285575
0.24456458092237093
0.07648151515629822
-0.10011576957898502
0.5572686563808227
-0.1625784227100455
0.1049888980367621
-0.036856002243317074
-0.40281916472242923
0.14673312215701045
0.22413073561025595
-0.348548037222598
-0.16368374427014815
0.027381502162779955
-0.199955615746661
0.24150848364345187
0.12898830194817534
0.46279785636301163
0.3365004925707164
0.2645667873613729
0.5056373113325334
-0.3125129495283224
0.09258937925802427
-0.29438994291160786
-0.33378746077812016
0.4471502573989394
0.24160703747169884
-0.01611283143417725
0.48029801856192733
0.3083373384941153
0.35532569108838435
0.28595818120438127
-0.25840259383987885
-0.13208009611497706
-0.1923070912307187
0.04034897795330643
0.225690220251799
-0.25772223752507706
-0.23460658737330234
-0.1142825772952414
0.14653427203019823
-0.40274785363549814
-0.23566245106171865
0.212467009400162
0.1943268684922549
0.3685105613442015
-0.4406901585950557
-0.2789482916879483
-0.1018453984221617
-0.4022308417287005
-0.09092672603655491
-0.36783989631554986
-0.07973646316885273
-0.2319787179233462
0.4584325221857428
0.03488340950193351
0.24839271591364348
0.16637358732757357
0.2852970560148782
-0.36628148029588287
0.18028456221852424
-0.33453761761386513
-0.08099471266522182
-0.2773772510187355
-0.4510279580963156
-0.39059440052661415
0.10076250610144323
-0.15189611441268175
0.3904184813380352
-0.7064831659655884
0.5020884412117791
0.025737729296506796
0.595072163562674
-0.0028322433637030507
-0.40717842354779915
0.10172496627257961
-0.603972948714915
-0.02896026904731063
-0.07642585749136224
0.1482544666323285
-0.5704584516364275
0.2830738794910125
0.07306468939096224
-0.14321241392166725
0.5645459433525184
-0.24090893992568102
0.2633781941803174
-0.37010754237493926
-0.3996466681463732
0.4235795757450286
-0.2893838142324792
0.20215912539816058
0.020207571011463633
0.5535627108957223
0.26186534449708904
0.0030036925937968213
0.03143619014131696
-0.053001371670000234
-0.11877807176009857
-0.1498020556560446
0.009631215652208484
-0.08829383877840037
0.24544206977109037
-0.005486486571826531
-0.19858140632478116
-0.3274479031390863
0.14815102398827143
0.24178816923957178
0.18325984589600114
0.34460479691404267
0.25787379282267964
-0.11668095882235283
0.15936980389225325
-0.4124081736604955
-0.33422820665572417
0.21526823582915727
0.28164434853526604
-0.38470792610648996
-0.5853551759497457
-0.29271060929833714
-0.35577698824447573
0.13004831250230425
-0.28221940883500723
-0.08106368417051266
-0.15659983889516424
-0.12622750206378885
-0.4489842975858614
0.4437938363845855
0.23445254343798344
0.4763526072867038
-0.03632839931379623
-0.27055627431745577
-0.26662358294136657
-0.3291126192923004
0.10584579535864343
-0.19823607069886617
-0.0011490450666466227
-0.1832089046757572
0.15488896094963606
0.3404654761446383
-0.11314914710557594
0.04831797718363799
-0.1702574780878152
-0.04206449293197205
-0.4343301681069632
-0.05914038158433796
0.1254317396512096
0.16313890934161857
-0.1576059062852696
-0.4240598282231256
-0.3850529238075315
0.15152715959300753
0.2517079877705371
-0.3145070657671766
0.01273001127972101
-0.16264407409362297
-0.06351474918037897
-0.1741437193227276
0.03303056836893472
-0.06223125588320586
0.0641880080951664
-0.12502689403362532
-0.2648856338883465
-0.13104374506315233
-0.06307629190646225
-0.2615300197270482
-0.38378925521246604
-0.09436541641333593
0.36911262034230014
-0.18378013940485055
0.34506577482054523
0.1866391159694065
-0.05418401997688791
0.33606092016737
0.30118181349966916
-0.26414810855317733
-0.35275150160218816
-0.0972800187339048
0.41705083930923303
-0.3211058286157524
0.10626923337091883
0.23037337589965498
-0.06001011224611848
0.004115918296722875
-0.27032995704442975
0.1260470716140757
0.1306839930323896
0.37357952611400647
-0.1703344854544997
0.3358445497959248
-0.38811184330983334
-0.09184438960943365
-0.21506011295694719
0.3708216378313249
-0.22304619045123839
-0.4454667625244719
0.3883388348792509
-0.2890296221996016
-0.351247994631803
0.11613220847528262
0.026865313356581936
0.13070542000388632
-0.05329947661247851
-0.23216162717110378
0.33132815937660126
0.3952738918541072
0.23248225814962906
-0.09827195713971625
-0.08810388475630834
-0.3497380793633294
-0.11080152041150561
-0.06273520303086542
-0.07251291364854127
-0.38645533136647464
0.10593125696086672
0.046587449842293446
0.3202930042182027
0.02906999926306353
-0.023075582525214394
-0.03333276708687724
-0.4565176789286558
0.24052295204014426
0.19075241449256436
-0.5254477654594981
-0.06850794359616953
0.18056282731704096
0.282857417266969
-0.16060429462285866
-0.3362340625653425
0.24607754341005844
-0.4323033406730735
-0.15582651900970518
0.43451419807680686
0.29307125266239714
-0.031632609196298844
0.2950987754647706
0.28764033959900426
0.527580654017748
-0.2067339304683979
0.2585433763755659
0.219965738094729
0.4305187917469352
0.20758931559371047
0.5694763440701119
0.5793855574655215
0.14640959521826127
-0.462100917870842
-0.34201824857609214
0.017180363334365647
-0.36182019111964303
-0.48379843954118146
0.2837289152594298
0.04970637938396771
0.3411559035269323
0.11991048694579706
0.02017391510548425
0.2622482593021599
-0.22600400273583013
0.12268356814345695
0.18574003172475487
0.3658924921865626
0.07245683357536946
-0.03345551103404029
-0.33085887445010365
-0.35515787992586517
-0.39501087236522503
-0.04180808228131718
-0.3304165332535659
-0.10951379119703884
0.24676143965307717
-0.16871598413967126
0.3149011274276855
-0.31073398237667277
-0.2691654072014611
0.446538353482561
0.06197598629289039
-0.16605669123388112
-0.08576433309581578
0.45988558159220805
0.048432365819943854
-0.35831084028574134
-0.34214532313431056
-0.5851232082599378
-0.47258420032950876
-0.07154721212647133
-0.3344267002762279
0.12300549020507509
-0.08601976155407817
0.3160842364470379
0.18239904203633547
-0.16737825772225623
-0.1528246141768105
-0.2237440246082044
0.11135881676956481
0.2911800972145717
-0.11093580045278065
0.022289807735380474
0.07422175663804974
-0.6849140796602646
-0.21226995483776856
0.04582296232355344
-0.032365691307664764
-0.2796005137291278
0.1511172845335886
-0.1416808148684534
0.5346801172651068
0.2979470186282014
0.3372307160417614
-0.38795934992417236
-0.23740840717744222
0.25189455803381844
-0.3327587622832069
-0.05248094358474408
-0.02262309798534954
-0.49995104946139723
0.1380972510757604
0.48077333939669836
-0.4896596973649058
0.06071228525379336
-0.16000059875300568
-0.05895272872565774
-0.3858490259842684
0.2062177399226831
0.32685164167897063
-0.20850005751607945
0.16591828991187452
-0.29998642997605757
0.12571014151509374
0.2212240139418815
-0.09159806791605539
-0.0616132196868716
-0.2457593051473471
0.27487910122194836
-0.011433925726947075
0.06560262854808532
-0.38749573106189655
-0.3008246050306764
-0.5570071803142417
0.05854423217686188
0.169582922822009
0.17075476671831147
0.09901103892907934
0.08225280391764946
-0.5954070874098664
-0.2368733225665983
-0.40362232217342725
-0.09536946836575944
0.016877317956205718
-0.4177900497485666
0.2525591900088764
-0.008294793603743064
0.24884717674711163
-0.21211349731126952
0.11735254050413339
-0.2107540254360312
-0.2063487093517221
-0.14356051463664038
-0.4625083980054157
0.02908754801063593
-0.45644886979259247
-0.1850277281404976
-0.26497093235494396
-0.20083997107654963
-0.31045764474684473
-0.06059364800778908
-0.42608599338658537
-0.32629381801639196
0.2239311068931512
0.017947405666663654
-0.11608777169381516
0.03755507099271507
-0.013263027017867452
-0.28082878537018746
0.40402591896527545
-0.1475586940913689
-0.2802941145022394
-0.3790399808366665
-0.5153852905724978
0.011907037319277345
0.20190482237206664
0.24389064906525798
-0.07242417949815928
-0.4845033802829228
0.2965432167679782
-0.18420994862652967
-0.18007175396374464
0.42223125184167754
-0.36947829889696454
0.14732044874416636
-0.07772977187720212
-0.18424074937399068
-0.2350502728392304
-0.010039993923544524
0.4175161774352419
-0.03401419201963925
-0.14714182034257334
-0.3608956438356782
0.37835555336947907
0.1047605277806109
0.40342287638442437
0.12074464234938297
-0.1910881565695794
-0.5543334147632043
0.43863150263136075
-0.3597451717752066
-0.07433905711180806
-0.17352929229504369
0.42506458009205017
-0.39319266352505083
-0.3374227886105638
0.1385299807436778
-0.2097019918286144
0.10133561714615702
-0.23243763553222896
-0.26697144196000344
-0.1527063791851449
0.2576938492721293
0.27547366967988507
0.38926473230142516
0.47097222356282975
-0.11272047053999024
-0.353161464162914
-0.19328761953387336
0.07357635216624869
-0.055937244959480534
0.4514062781939153
0.16608893462176608
-0.24028342637402064
0.5178374629502613
-0.04571644931612935
-0.10377559582300283
0.3192236258248683
-0.12672586865580185
-0.21074621905277224
0.19016709762341527
0.09899646332692523
-0.0859818826431856
0.16509811709167338
0.09044412648867846
-0.21337988081685255
-0.1288621733776734
-0.44681953161944193
0.37920834592736963
0.09274973491657586
-0.14178797913426278
-0.3376482435190669
-0.058834083118150526
-0.35008217843314504
-0.17220559108940992
-0.3789045239786649
0.31984832857026263
-0.4444652751049832
0.39425580400871146
0.4872951936887647
-0.4993771596690821
-0.21840451446992015
-0.4786386456370248
0.08933619532013766
0.3579605586870939
0.13216832862383587
0.19917248025925754
-0.3207583617584358
-0.41640053747881245
-0.40232104460249685
-0.4191301362214757
-0.2532469799311429
-0.10159733060187362
0.12932852749761992
0.4642642428790635
-0.17757488763072463
0.07304773321956182
0.21697281192119594
0.18364034273275787
-0.50980731572704
0.29408494328889423
-0.40924132456486534
0.30453418730476217
-0.21742420369907703
0.21694248247109243
-0.005535866589780814
0.48313866621995
-0.245267585379726
-0.10391402642588847
-0.3348259989453367
-0.5209922704135299
-0.15128172885212243
-0.2905941658668585
0.2444952452336358
0.02081193993111184
0.08441008808374027
0.1219117604921546
0.12016911907180708
0.3401503285052424
-0.48086305150230046
-0.44123621990329104
-0.2661023339568398
0.45826762066383153
0.23896678757162673
0.28577560210357283
0.160366523054854
-0.06174911240640017
-0.23104847874827242
0.05860171125326283
0.031590487264097994
-0.13523188550750043
0.4297302833887964
-0.12737634512057663
0.22654524622734612
-0.4535656294309462
-0.09013453882272378
0.007798472574773582
0.07277227901754411
-0.2568400801082255
-0.10453146364504132
-0.29822749519832253
0.3820852534710881
-0.3789743381423213
0.22750498337628597
0.10546386239636209
-0.4301707361123923
-0.19349981323993554
0.2517894246250957
-0.09535853943297781
-0.1749644415209749
-0.1573882771030292
0.28425235049427433
0.18415528425068378
-0.2602479211372265
-0.24937884267224242
0.23947060325082953
0.036922375272668874
0.5367480211438133
0.037846207098996186
-0.07510912281669013
-0.12614531243718197
-0.052612692901180085
0.3693072238369101
0.04586092743162299
0.4571698103172205
-0.04753673169685244
-0.17130452732020401
0.11777579542948838
0.30077211003623594
-0.06176248709172932
-0.09499792873317961
-0.4667251903012313
-0.20037108532191147
-0.14585112947538925
0.3767375105846709
-0.3245723501332786
-0.04623172882112813
-0.14939069019416196
-0.29275570483446284
0.054049348040967664
0.33034592400888824
-0.40804131707515545
-0.26845856791336076
-0.3614870466985173
0.5101202617563687
-0.4059858131184715
0.18761950598357818
0.23417652492893776
-0.034180888028722684
0.3310195257979496
0.19609947237528536
0.11542124215491786
0.4586130306913323
0.31454366235929715
0.33013977013804613
-0.23504137694789773
-0.2967636294720729
0.02524169421103044
-0.1937632928485628
0.44171886012883854
0.03043251225849303
-0.10276662015552257
0.22952817577317425
0.148556716543122
-0.13976209127111366
-0.12158840322793972
0.2175668164005337
-0.14699789689007312
-0.2152196257953396
0.3181824904481987
-0.3733170216364995
0.12405493862289252
0.2178013600436657
0.20237314269920434
-0.5957840647598269
0.36340434797942495
-0.28119331974480966
-0.08440468081774134
-0.45507784432241855
-0.33290254869496916
-0.020898318628458302
0.15667186119357876
-0.474535327158104
0.4108060495385769
-0.13748123997462494
-0.03380542147400869
-0.2832985544922898
0.11891660066089804
-0.06456834457067126
-0.29608227097740336
0.07174049883772678
0.061126888398538276
-0.46874441278438433
0.011698428629860558
-0.11938964763225661
-0.052223907093548565
0.05890547348363402
-0.39187209376010695
-0.4333157103249993
-0.04145498277766324
0.18473373133255716
-0.015555470075704203
-0.5119082852056551
0.29104483024453637
0.14136692227611208
0.16896860471505262
0.12725595051328778
-0.10431487621420849
0.10075506350237505
-0.2583814317305751
0.25546968755747634
-0.24621227897249112
-0.09271042833356052
0.19604053887308265
0.4093712961292498
0.2355359749921987
-0.25747877703311217
0.3134105793877663
-0.3964748895364735
0.2165307934712242
-0.011590063577683553
0.24125611431604144
0.30934790595982276
0.5515854728123664
-0.42078773409164444
-0.4687137281983404
0.238249088413122
0.35393389518756957
-0.20198038592742304
-0.2351751855570314
0.26182904608851476
-0.041384989311124186
0.5668710761014601
-0.06418056705702715
-0.08211670517861486
0.33083880589236153
-0.36313401594715844
0.5917756259646865
0.1493095047722378
-0.33720409041249555
-0.38871242907617437
0.29910739621998444
0.0811986980428781
0.40954120639498065
-0.19951955582705627
0.144443396559299
0.5032292579288352
-0.38579269863082705
0.39983705078327497
0.22656229015233442
0.5872866008205266
0.28143614437880304
-0.45222673822775444
0.13335990659109942
0.264716305475864
0.3681320467692467
-0.1568144019229965
0.008591754309299829
0.1444113215247582
-0.47807124763883774
0.21935590202296198
-0.3026409002568072
-0.007095942873997041
0.5024390273911991
-0.03756212246692216
-0.3376149091428112
0.48608833425579856
0.018904193513397016
0.18216844788117253
-0.248822630327319
0.13140172346481696
0.22463581148577896
0.3548498968746269
-0.6573064670811862
-0.01823798398072628
-0.03995682984324697
0.2240749804806262
0.4487609820059501
-0.4757966253528753
0.3562191813839064
0.03851210812348676
-0.3015426530070401
-0.2533299579787573
0.34944455876923847
0.05993096842048662
-0.025833652481166862
0.08636736454452874
-0.07606491523539204
-0.1579905684943224
0.1745658680154474
0.14513116194815837
-0.05926378114886655
0.0758637210182206
-0.016266753535744773
-0.19261339412411518
0.2797660450289645
-0.1369351970344201
0.08328258637455352
-0.4103666296235772
-0.03883560533643204
0.3301123156667712
0.6602664988502234
0.266499652274827
-0.3492357281737996
0.15580000092179827
0.012159919762656516
-0.43739555749993914
0.1545613047250608
0.28072219042178476
-0.5188552674467524
0.06288277025286643
0.3043176918679788
-0.07359175792276632
-0.2630453926504441
-0.29785783387387604
-0.26013087380927896
0.25050610606812557
-0.1435332938332709
0.3594081036017262
-0.2960893069722192
0.2826733102108158
0.2697378654426067
0.6228533755153437
-0.24199101820815125
0.6362640567208265
0.29125038897988687
0.3270509795689603
-0.2850725973035173
-0.012416297529369931
0.5693348718183033
0.1897685146866535
-0.481657646387654
-0.6834125999499113
0.4435076469821235
0.2812245205905842
0.11600732802335086
0.2455845892697406
0.38859031152053186
2.676927454831047e-06
0.5041627429890349
0.14159968004378468
0.1298887053555922
-0.20541761295971592
0.04576180672849636
0.3547590791978925
0.48254361729206996
0.01782276819773984
-0.09060261467405908
0.2458077430908308
0.4375716041430862
